#Parameter# /KMeans.7627873d/_0 {100,512} 819201 ZERO_GRAD
+2.41087228e-01 +9.15777758e-02 +1.41612649e-01 -2.99373046e-02 +1.11405089e-01 +1.66109577e-02 -4.23177518e-03 +3.43402661e-02 +1.82926014e-01 +2.43061841e-01 +5.88234700e-02 -1.11480594e-01 -2.24037305e-03 +2.03787093e-03 +3.05777460e-01 +3.46898027e-02 +1.18605457e-02 +7.67398532e-03 +3.49563994e-02 +1.13220111e-01 +2.62745798e-01 +5.43183461e-03 +1.10279381e-01 +4.56169844e-01 +1.10864319e-01 +1.58907175e-01 +4.65350524e-02 +7.37831043e-03 +4.19244058e-02 +6.40339404e-03 +4.79402877e-02 -4.16484661e-02 +2.44814269e-02 +2.83090770e-02 +1.11805880e-02 +5.63490577e-02 +2.49635890e-01 +8.29922780e-02 +3.41432057e-02 +7.10223988e-02 +8.39409083e-02 +4.49909568e-01 +2.96653938e-02 -1.65163726e-02 +3.29466015e-01 +1.00209072e-01 -1.30203618e-02 +8.98127183e-02 +1.92562357e-01 -2.33682841e-02 +4.81825098e-02 +6.98724464e-02 +7.92394299e-03 +2.97111482e-03 +5.14929881e-03 +7.34359249e-02 +2.55666040e-02 +1.96594000e-02 +6.44909143e-01 +4.50889796e-01 +1.57176033e-01 +1.43225547e-02 +5.66926226e-03 +1.37022734e-01 -8.53046309e-03 +5.52098975e-02 -2.38724556e-02 -1.88425723e-02 +6.66716471e-02 +6.52901158e-02 +4.86397371e-02 -7.79619394e-03 +2.10906431e-01 +1.63211972e-02 +3.75549048e-01 +1.30133647e-02 -4.41746466e-04 +2.10103951e-02 +1.65026095e-02 +9.07475576e-02 +2.74606403e-02 +5.16110053e-03 +4.25067544e-02 +5.38542569e-01 +1.55816317e-01 -1.92125700e-02 +1.30331358e-02 +1.77045111e-02 -1.13545589e-01 +2.45491400e-01 +5.01662195e-02 +4.07991000e-02 +9.63540822e-02 +2.56641097e-02 -1.02930469e-03 +1.33438436e-02 +7.63299763e-01 +7.00256944e-01 +2.24665850e-01 +6.35510206e-01 -2.07383409e-01 -1.27197683e-01 +3.75424623e-02 +3.18913937e-01 +5.73722944e-02 -7.16316178e-02 -8.76910239e-03 -5.97434565e-02 -1.06101848e-01 +6.97664917e-02 +4.94559184e-02 -3.31815258e-02 -4.77533311e-01 -6.85717016e-02 -2.65354961e-01 -9.18076634e-02 -4.34115976e-02 +6.50474787e-01 -2.11440045e-02 -6.75809383e-02 -1.34335145e-01 -8.00154060e-02 +2.77131528e-01 -1.00359887e-01 -1.30920112e-01 +8.11868459e-02 -3.48831415e-02 +5.53135693e-01 -2.48461053e-01 -2.82465527e-03 -2.59933099e-02 -1.99603848e-02 -8.39530490e-03 -1.85549915e-01 +4.10231084e-01 -1.36310786e-01 -2.37022594e-01 +1.02621922e-02 -2.91943606e-02 +7.66330108e-04 -2.58858323e-01 -1.12031000e-02 -8.02400243e-03 +5.27885318e-01 +1.63476262e-02 -5.82688451e-01 -1.50500017e-03 +1.18274810e-02 +1.10176764e-01 +3.59584056e-02 -2.36401651e-02 +2.78481424e-01 +1.96108714e-01 -1.11966468e-01 -6.99184369e-03 -5.87087013e-02 -6.78370148e-02 +3.42061162e-01 -1.43865952e-02 +7.48105999e-03 +5.39351143e-02 -2.19912916e-01 +7.11741969e-02 -5.52672036e-02 -8.30608755e-02 +7.35144317e-02 -1.12633333e-01 +1.26848146e-01 +4.33455735e-01 +6.37414157e-01 -6.28298074e-02 -7.34838191e-03 +3.20586152e-02 +5.42638779e-01 -1.64275616e-02 -1.01382814e-01 +1.97934106e-01 +6.06554449e-01 +2.11892873e-02 -2.06100762e-01 -2.64524743e-02 -6.82641473e-03 -1.15585342e-01 -8.60188901e-02 -2.03659147e-01 -4.72658843e-01 -1.88678145e-01 -2.32712738e-02 -3.40722548e-03 -1.14783294e-01 -2.49482244e-02 +1.03720546e-01 -8.78484338e-04 +1.03126481e-01 -9.25335586e-02 +3.57223749e-01 -7.07877353e-02 -7.64541561e-03 +8.01409874e-03 -1.68114364e-01 -5.91823570e-02 +1.69776678e-02 -5.21401176e-03 -2.64305295e-03 -7.38561079e-02 +3.50876525e-03 -1.85839199e-02 -1.69350859e-02 +3.25941131e-03 +5.93902349e-01 +2.57733632e-02 -5.26699685e-02 +1.31668570e-02 +3.55475843e-02 -2.77495515e-02 +3.54102883e-03 -3.47024947e-02 +3.40576097e-02 -9.41608194e-03 +8.45130533e-03 -2.96794008e-02 +1.72009971e-02 +1.37398345e-02 +1.63199343e-02 -3.24386172e-03 -2.10379064e-03 +1.21069402e-02 +8.97387974e-03 +1.49071990e-02 -2.31935494e-02 -1.47686815e-02 +1.14462115e-02 -5.29401377e-03 +7.56199598e-01 -4.45205765e-03 +1.44629860e-02 +6.72759721e-03 +6.03112951e-03 +1.96114145e-02 -4.92634065e-03 -3.58952470e-02 -2.91428510e-02 +3.44164342e-01 +2.17799796e-03 -4.13932018e-02 +1.49689540e-01 -2.93416879e-03 +7.44285248e-03 +1.16514415e-02 -3.37054990e-02 +7.13646086e-03 +2.32608411e-02 +3.65600153e-03 -3.52843874e-03 -2.94908658e-02 +2.51923775e-04 +4.57196087e-02 -8.35926796e-04 +1.38572037e-01 -3.65762562e-02 -1.99298630e-03 -5.65851759e-03 +4.44722653e-04 +2.38461159e-02 +2.09384903e-04 -2.51298230e-02 +7.33827753e-03 -3.06887906e-02 -2.33073421e-02 +1.41844852e-02 +3.86445113e-02 +5.43558504e-04 +1.57393180e-02 +2.01170775e-03 -1.02416030e-03 +9.01233405e-03 -3.91442403e-02 +1.15135098e-02 -2.23444141e-02 -1.75479054e-02 -6.81234710e-03 -2.74144690e-02 -4.89519816e-03 -9.37244156e-04 +3.13735083e-02 -1.29611641e-02 -8.06526281e-03 +2.06379313e-02 -2.85226759e-03 +3.53594878e-05 +3.15887630e-02 -1.77019776e-03 -1.07513452e-02 +9.56201553e-03 -2.21094936e-02 -3.12986551e-03 +2.11515520e-02 +4.52927547e-03 +1.31867807e-02 -2.54164264e-03 +1.03132561e-01 -1.64711863e-01 -6.17375737e-03 -2.94441022e-02 +1.95637718e-01 +6.54567853e-02 +7.62403309e-02 +9.12289098e-02 -1.35728884e-02 -4.18764949e-02 +1.07781217e-01 -3.21649425e-02 -1.09489076e-02 +3.05391788e-01 +1.22591259e-03 -1.89565346e-01 +2.87322327e-02 +2.78861336e-02 +1.88562106e-02 -1.37494355e-02 +9.53307599e-02 +3.59036028e-02 -7.02846274e-02 -2.50317529e-02 -1.54018924e-01 -2.27339026e-02 -4.46511805e-02 +2.20334902e-02 +3.16557378e-01 -4.55901101e-02 -4.71099243e-02 +1.08225413e-01 +1.26217172e-01 +8.43332335e-03 -6.16843626e-02 +3.58228832e-01 +6.79832511e-03 +1.09010212e-01 +6.96140295e-03 +2.12952480e-01 +3.09181750e-01 -5.50702512e-02 -7.55764395e-02 +8.07034783e-03 -1.15892500e-01 -9.60387196e-03 -2.44498439e-02 +6.27505928e-02 -3.52588631e-02 -7.69788176e-02 -4.13610041e-02 -7.04190731e-02 +9.66716111e-02 -2.78229620e-02 -2.69923985e-01 +1.59395486e-02 +4.10569608e-01 -2.71132607e-02 -6.47257417e-02 -1.99626461e-01 -3.68503630e-02 +1.69382815e-03 -1.62567273e-01 +5.65543473e-02 +4.00028169e-01 -3.13428938e-01 +2.07032382e-01 -4.90366518e-02 +1.93892401e-02 +1.76221877e-03 +2.65110672e-01 -1.21147685e-01 -1.92450229e-02 -1.72251996e-04 -6.47537829e-03 +4.96816374e-02 +2.54727453e-02 -1.08284531e-02 +1.44311875e-01 +7.34797120e-02 -7.32573913e-03 -2.90867426e-02 +2.66058147e-01 -1.78476553e-02 +3.47978212e-02 +3.78551967e-02 +1.74053639e-01 +7.92545304e-02 -1.51385870e-02 -1.96775515e-02 -9.31607932e-03 -4.78546992e-02 +4.25282776e-01 -2.92300340e-02 +9.50049460e-02 -6.53193519e-03 -1.86783113e-02 -2.19372776e-03 -7.32009336e-02 +7.07178190e-02 -4.60939370e-02 -2.90585756e-01 -1.08243981e-02 -1.05020460e-02 -4.30780277e-02 -9.23458561e-02 -2.08323002e-02 -5.41658439e-02 -6.53436407e-03 -2.89383113e-01 -4.99869101e-02 -3.52693759e-02 -2.64274962e-02 -2.30765656e-01 -9.04703140e-03 -1.68625973e-02 -2.09913496e-02 -1.56993512e-02 -9.19568613e-02 -6.12880522e-03 -8.76119062e-02 -3.82508218e-01 -2.16428488e-02 -2.80604288e-02 -8.40585306e-02 -1.77588433e-01 -7.31901526e-02 -7.53794936e-03 -7.20798373e-02 -1.12230992e-02 -8.22780952e-02 -2.70769179e-01 -7.36312717e-02 -2.68010609e-02 -1.77688152e-02 -1.18506022e-01 -4.78068404e-02 -2.30863988e-01 -4.10991423e-02 -4.29158509e-02 -1.76833376e-01 -2.76441555e-02 -4.22353745e-01 -2.07547694e-02 -1.55503854e-01 -2.22944282e-02 -7.98005089e-02 -2.26406865e-02 -5.79463430e-02 -3.19162667e-01 -1.01161271e-01 -8.23963881e-02 -4.26270179e-02 -9.35059637e-02 -1.26707200e-02 -7.86792561e-02 -4.81683575e-02 -8.03376585e-02 -2.63936162e-01 -4.98838685e-02 -1.46728083e-02 -4.25563753e-02 -1.81278139e-01 -7.34873712e-02 -2.71293670e-01 -1.00355312e-01 -2.67240740e-02 -3.16975385e-01 -7.97070488e-02 -8.79286230e-03 -1.05583608e-01 -2.10362114e-02 -1.55382544e-01 -2.12716479e-02 -9.37858373e-02 -8.81514847e-02 -2.05626376e-02 -1.64111480e-02 -1.57199819e-02 -8.12147036e-02 -1.19723585e-02 -2.45849043e-02 -4.18292761e-01 -4.04207110e-02 -2.95485817e-02 -5.10162301e-02 -5.51522300e-02 -1.45138085e-01 -2.04838160e-02 -3.60433804e-03 -1.48183972e-01 -1.52976364e-02 -1.65286645e-01 -1.60561159e-01 -4.11839113e-02 -3.71563882e-02 -4.11187485e-02 -3.04523557e-02 -4.32882831e-02 -2.31710286e-03 +1.41598005e-02 +1.27046019e-01 +1.46749616e-01 -1.89690187e-03 +3.83092985e-02 -2.50810152e-03 +2.13982444e-02 +5.79370512e-03 +1.88804105e-01 -1.25341787e-04 +3.47914435e-02 +6.21091109e-03 -5.96524477e-01 +5.18878587e-02 +4.17959578e-02 +9.88531262e-02 -6.74903616e-02 -2.72138864e-01 -1.10052142e-03 +1.08213723e-01 -7.58149922e-02 +1.00437440e-01 +1.20807685e-01 +2.17098854e-02 +6.39090687e-02 -6.29127026e-01 +1.23194017e-01 -1.17657639e-01 +2.90169287e-02 -8.98520288e-04 +7.64601156e-02 +1.18491957e-02 +1.58405900e-02 +8.12330842e-02 -3.67361940e-02 +2.06708796e-02 +3.06146238e-02 +1.08243503e-01 +6.05318975e-03 -4.22322042e-02 -9.48541798e-03 +4.52540852e-02 -1.92802459e-01 -5.89589030e-02 +1.70735627e-01 -1.62258253e-01 +4.58156988e-02 +7.36851543e-02 +3.22086573e-01 +1.79089494e-02 +9.14297719e-03 -1.13317885e-01 -3.11354995e-02 +2.47125894e-01 +2.39592453e-04 +4.12388146e-02 +1.98390692e-01 -7.90855944e-01 +1.64877966e-01 +7.71135166e-02 +6.14400320e-02 +1.13373697e-01 -7.77200982e-02 +2.67676804e-02 +1.12131541e-03 +6.32803068e-02 +9.21225548e-02 -5.38085341e-01 -7.60369897e-01 -5.86288035e-01 +2.70959660e-02 +1.02939177e-02 +1.00676015e-01 -2.10852817e-01 +4.96141464e-02 +2.39645923e-03 +6.33368731e-01 -3.46280426e-01 -2.74547958e-03 -8.21784791e-03 +2.34639514e-02 -2.52235588e-03 +1.96057912e-02 -5.99672794e-02 +3.06107532e-02 +1.41546875e-01 +6.06710091e-03 +9.56157688e-03 +6.16511749e-03 +1.67755768e-01 +1.24464827e-02 -3.25811431e-02 +5.81929758e-02 +2.20739283e-02 +6.59454986e-02 +8.14691335e-02 +4.83888574e-02 +2.46965326e-02 +1.49782464e-01 +2.34697443e-02 -5.58725834e-01 -1.38844801e-02 -6.19128644e-01 +8.51022840e-01 -2.69626956e-02 -6.07442893e-02 -4.39240225e-02 -1.07478552e-01 -5.27773164e-02 +2.56768409e-02 -2.22178735e-02 -6.97106645e-02 -1.46348933e-02 -7.70688951e-02 -1.79274268e-02 -1.23109385e-01 -9.07681510e-03 +2.59393882e-02 -5.39557822e-02 -3.10728680e-02 -6.13597035e-01 +2.71809362e-02 -5.80295861e-01 -2.77337506e-02 -1.34783343e-03 +4.95190592e-03 -1.26967624e-01 +1.54530015e-02 -2.18580826e-03 +1.14217559e-02 +1.27762267e-02 +1.44292444e-01 -3.05876564e-02 +1.14070028e-02 +1.90121219e-01 -5.27155697e-02 -3.84973071e-04 -1.04945876e-01 -1.44080343e-02 +2.36517470e-02 -5.61367571e-01 -7.97610283e-02 +6.22693062e-01 +7.77169019e-02 -2.74635911e-01 -5.48867183e-03 -2.37682462e-02 -1.01203173e-01 +8.91980156e-02 -1.18808374e-02 -1.03088833e-01 +7.25298703e-01 +4.14692089e-02 -8.77186731e-02 -1.14182122e-01 -7.36266077e-02 +2.01085005e-02 +3.57748382e-02 -3.95134427e-02 -7.02039897e-02 -3.42824727e-01 -5.10329604e-02 +1.17013287e-02 -2.38955636e-02 +6.42404146e-03 +8.62869024e-02 -5.91081083e-02 +1.02647655e-01 +8.20770383e-01 +1.19772084e-01 -2.25718543e-02 -1.07368983e-01 -3.13742086e-02 +9.99594256e-02 -2.95409979e-03 -2.31709071e-02 +7.47927427e-02 +7.13961348e-02 -3.13827358e-02 -8.72377679e-03 -2.20953189e-02 -8.81239697e-02 -1.38316140e-01 -5.53617068e-02 -7.01655028e-03 -8.57352652e-03 -9.88568366e-03 -1.21500075e-01 -1.20671444e-01 -1.54801253e-02 -5.88801913e-02 -3.94830620e-03 -3.76887992e-02 -2.45464034e-02 +1.93339065e-02 +5.09174764e-01 -2.75792897e-01 -1.47287194e-02 +1.20598665e-02 -1.11500779e-02 -2.67604768e-01 +2.07254559e-01 +4.93627600e-02 -4.51599732e-02 +2.49508381e-01 +2.75906213e-02 +1.16366297e-02 -6.28615320e-02 +1.70354657e-02 +2.72932611e-02 +4.23595123e-02 -1.70140192e-01 -2.22873226e-01 +1.34630045e-02 +2.37891208e-02 -5.06538060e-03 -3.34581822e-01 -1.36597425e-01 -1.69113755e-01 -9.45753604e-02 -2.46502608e-01 +4.41619575e-01 -1.05729392e-02 -1.05884396e-01 +8.96949545e-02 +6.08513914e-02 +1.02464683e-01 -1.31131515e-01 -6.31831065e-02 -3.34104784e-02 -7.46849403e-02 -4.11105677e-02 +9.90648568e-02 +9.67823155e-03 -4.61547673e-02 -1.66778162e-01 -9.30017419e-03 -1.22603467e-02 +1.21280206e-02 -3.02371681e-02 -3.37800533e-01 -1.59460336e-01 -3.88091207e-02 -1.83919773e-01 +3.43326598e-01 +4.95502073e-03 -4.26349044e-02 +1.90109238e-01 +4.61317062e-01 +2.51173347e-01 +3.44075531e-01 -1.85594857e-02 -1.19599663e-01 +3.72418255e-01 +6.26998007e-01 +1.20348662e-01 +1.18313648e-01 -2.43470930e-02 +1.12549454e-01 +2.59309024e-01 +6.40294626e-02 -2.96678573e-01 -2.88725439e-02 -1.18095592e-01 -6.12779744e-02 +1.08475231e-01 -1.51301250e-01 -1.32704616e-01 -7.78597221e-02 -1.32280543e-01 -6.41599894e-02 -9.47737023e-02 +1.73312183e-02 -9.24403146e-02 +6.03007317e-01 -1.68385264e-02 +1.02903612e-01 -1.35362297e-02 +3.55829038e-02 -6.27226010e-02 -1.69181719e-01 -1.03612699e-01 -1.97549254e-01 +7.45872706e-02 +3.67857963e-01 -3.82996976e-01 +2.40044985e-02 -1.44478446e-02 -3.20752785e-02 -2.39984207e-02 +3.55561286e-01 -2.75249481e-01 -2.23342851e-01 +1.08612828e-01 -4.12788019e-02 +4.69552055e-02 +2.80997599e-03 -1.40041551e-02 +2.61247426e-01 -3.44323069e-02 -5.28851569e-01 -6.42041638e-02 -6.52484745e-02 -3.05454899e-02 -8.62489566e-02 -1.85083464e-01 -3.82149160e-01 -6.93257675e-02 -3.36897895e-02 -7.74972886e-02 -6.43315213e-03 -2.36510411e-02 -1.17951393e-01 -6.24861345e-02 -4.75182608e-02 -4.80227210e-02 -1.57415405e-01 -1.27988085e-01 -2.23154761e-02 -1.32489696e-01 -5.19544601e-01 -6.89323395e-02 -1.44941688e-01 -1.22523019e-02 -9.77215841e-02 -2.31034365e-02 -2.36975346e-02 -6.75430149e-02 -8.85045975e-02 -1.88714117e-01 -6.39349222e-02 -2.40455031e-01 -6.39295354e-02 -2.22527087e-01 -4.56961915e-02 -1.13971807e-01 -1.11477233e-01 -3.75725031e-02 -4.07641605e-02 -9.63093713e-03 -6.91452444e-01 +1.31753040e-02 -2.82716900e-02 -1.93319209e-02 -6.84509352e-02 -1.39088273e-01 -6.29857108e-02 -3.65131125e-02 -1.05955517e-02 -2.01632138e-02 -2.69539971e-02 -8.89453143e-02 -5.99924251e-02 -2.86087841e-02 -1.35063371e-02 -2.80519929e-02 -1.03387825e-01 -5.46154042e-04 -1.45186847e-02 -3.68007347e-02 -8.14027041e-02 -1.07752621e-01 -3.22929248e-02 -2.30620634e-02 -1.11214826e-02 -1.00214869e-01 -1.95087433e-01 -5.84124736e-02 -1.37379589e-02 -5.57318442e-02 +1.42866010e-02 -5.09035401e-03 -4.25192229e-02 -1.45431925e-02 -1.08058125e-01 -9.94750932e-02 -1.04605090e-02 -1.72961932e-02 -4.78251100e-01 +3.71079557e-02 -9.97347385e-02 -1.69685725e-02 -2.50384390e-01 -4.02869061e-02 -2.23149046e-01 -6.42481297e-02 -2.86982879e-02 -2.93332525e-02 -1.83996614e-02 -3.32425609e-02 -2.78043225e-02 +3.59312966e-02 -6.16812855e-02 -6.43742308e-02 -2.33601272e-01 -2.23262385e-02 -1.11407246e-02 -1.06513510e-02 -2.76885703e-02 -2.22580925e-01 +1.68261640e-02 +1.69382632e-01 +1.00711919e-01 +6.66112304e-01 +9.54233706e-02 +1.16416775e-01 +2.68819537e-02 +5.43791391e-02 +1.58846721e-01 +2.68955976e-01 +2.72119958e-02 +3.54498327e-02 +4.59208675e-02 +6.75693005e-02 +1.04573272e-01 +1.95778534e-02 +8.15081894e-02 +1.85010687e-01 +1.13225631e-01 +6.61038533e-02 +1.10993497e-02 +4.35505807e-01 +1.69520929e-01 +1.28721118e-01 +1.30877301e-01 +8.29325058e-03 +1.28516480e-01 +9.67030376e-02 +6.28331006e-02 +4.24479917e-02 +1.74259990e-01 +1.50027618e-01 +4.56370711e-02 +1.36060983e-01 +7.84956589e-02 +2.33911108e-02 +1.41827658e-01 +5.29665947e-02 +7.19571412e-02 +5.95322967e-01 +3.87119427e-02 +3.00125867e-01 +2.24491470e-02 +2.80597985e-01 +2.38152713e-01 +1.95893854e-01 +2.21945673e-01 +5.71803637e-02 +4.06320989e-01 +3.97321939e-01 +1.54746473e-01 +1.32044405e-01 +7.41201639e-02 +2.25413769e-01 +2.06252873e-01 +9.87638161e-02 +4.25848812e-02 +4.87071928e-03 +7.30102509e-02 +1.03078134e-01 +8.16446319e-02 +6.53938204e-02 +9.71317291e-03 +7.54206255e-02 +5.89749450e-03 +1.67794436e-01 +4.15944792e-02 +1.17097981e-02 +4.24835145e-01 +1.94246590e-01 +4.35419492e-02 +8.23345110e-02 +6.60784468e-02 +1.74629942e-01 +7.11284757e-01 +1.14751086e-02 +2.40761694e-02 +2.99568642e-02 +2.28169393e-02 +2.54773051e-01 +3.68742079e-01 +3.11955195e-02 +1.32688314e-01 +7.88931176e-02 +3.31167221e-01 +2.97826916e-01 +1.18137226e-01 +5.89739308e-02 +1.15415253e-01 +2.78463930e-01 +1.88378081e-01 +1.21380733e-02 +1.07732557e-01 +2.85399109e-02 +3.32556188e-01 +2.95054734e-01 +2.01584503e-01 +4.71794493e-02 +1.52378425e-01 +6.05491214e-02 -3.03493708e-01 -1.10031784e-01 -1.23484107e-02 -4.32797819e-02 +1.50451567e-02 +5.35724722e-02 +3.67269032e-02 -7.20661208e-02 +4.46709339e-03 -4.09110896e-02 -7.59977624e-02 -7.86741450e-02 -1.71058718e-02 +8.84978846e-02 -3.32099162e-02 -1.10152420e-02 -1.46355089e-02 -1.75262064e-01 -9.06163901e-02 +5.04165702e-02 -3.61627430e-01 -6.19797111e-02 +3.97213995e-02 -1.39655871e-02 +5.76879550e-03 +4.62705903e-02 -8.31003785e-02 +6.12321161e-02 -6.02481775e-02 -1.34946406e-01 +9.20268074e-02 -4.12542559e-02 -2.21520886e-01 +9.34456103e-03 -8.60066563e-02 -5.53898215e-02 +5.30708209e-03 -6.50630593e-02 -3.73182818e-02 +1.95995625e-02 -3.10347587e-01 +1.05262361e-01 +5.98036274e-02 +9.20364708e-02 +1.05418684e-02 -7.44003654e-02 -1.46235541e-01 -3.54580991e-02 +1.15666650e-02 -8.80740210e-02 -1.05269670e-01 +2.63016839e-02 -4.91346233e-02 +1.54995164e-02 -4.28758711e-01 +9.40221176e-02 +4.73419763e-02 +1.04271971e-01 -6.21858537e-02 +5.36129773e-02 -9.87077132e-03 -8.47611055e-02 +1.49983140e-02 +1.12994157e-01 -2.15806112e-01 +5.46383373e-02 +8.68059881e-03 +3.02883293e-02 +1.02375343e-01 +3.57196853e-02 +8.86543840e-02 +3.51083092e-02 -3.13768834e-02 -1.46403477e-01 -1.77405596e-01 -1.73326328e-01 +9.74204205e-03 +4.78163036e-03 +4.99464124e-02 +1.74635917e-01 -1.03285044e-01 +6.44243583e-02 -3.08298945e-01 +2.22159622e-04 -1.22511126e-02 -4.04681778e-03 -6.90171644e-02 -5.16710021e-02 -1.31934434e-01 +1.85809210e-01 -2.16599151e-01 +7.62637109e-02 +7.66134262e-02 -7.85683934e-03 -3.81135494e-02 -3.97137590e-02 -1.71255562e-02 +1.79416296e-04 +4.48741466e-02 +4.09602672e-02 +1.27754331e-01 -2.13644281e-01 -8.51821080e-02 -4.74249013e-02 +3.96876149e-02 -1.86582059e-02 +2.90303320e-01 -2.69790292e-02 +8.91759768e-02 +4.64750864e-02 +4.96219210e-02 -1.08177334e-01 -1.38544545e-01 -6.16668165e-01 -1.12506583e-01 -3.50612581e-01 -1.24886729e-01 -1.32863522e-01 -1.00200213e-01 -6.59350231e-02 -3.18439096e-01 -2.46916652e-01 -2.23120391e-01 +1.36380687e-01 +3.44075598e-02 -6.33459762e-02 -1.03378639e-01 -1.29946843e-01 +1.06321834e-01 +1.04984373e-01 +1.37029618e-01 +4.99329879e-04 +2.13711206e-02 +7.20272437e-02 -9.27794352e-02 -1.52257280e-02 -6.29870296e-02 -3.13185342e-02 +2.01659560e-01 -7.37483567e-03 +2.51140278e-02 -3.08436528e-02 +9.14227292e-02 -1.61236167e-01 -1.24502160e-01 -2.61239052e-01 -7.61952922e-02 -4.00689384e-03 +2.86206342e-02 -4.69550848e-01 +4.56713513e-02 -1.24380209e-01 -8.17776397e-02 -8.17879066e-02 +1.66748509e-01 +1.60924271e-02 +3.17706108e-01 +2.48537615e-01 +2.00916342e-02 +8.22430104e-02 -4.03419957e-02 -1.69108450e-01 +4.06952910e-02 +8.10405314e-02 +1.09833352e-01 +1.04788356e-01 -2.72265021e-02 -1.52004600e-01 +9.33538075e-04 -1.32568225e-01 +1.04827479e-01 +3.09816804e-02 +2.30422821e-02 -1.35272697e-01 +1.29024699e-01 +2.71232277e-01 -3.69360000e-02 +1.16064481e-01 +4.30130959e-02 -4.31033596e-02 -8.56675804e-02 -2.40267038e-01 -5.51117472e-02 -4.82432604e-01 -7.83999637e-03 -1.14308327e-01 -2.59467848e-02 +1.40766859e-01 -1.55632883e-01 -4.29458469e-01 -1.99649613e-02 -2.42101505e-01 -1.75840348e-01 -2.35854480e-02 -2.35860124e-02 -1.00876361e-01 -1.13120697e-01 +2.71540061e-02 +3.16516757e-01 +1.30649433e-01 +8.32217783e-02 +6.75008968e-02 +2.00360604e-02 -2.64626462e-02 +2.79287454e-02 -2.96482854e-02 +2.22381875e-02 +4.06286195e-02 +5.73448557e-03 +1.64534412e-02 +3.32609862e-02 +6.47879858e-03 +2.12950092e-02 -3.60914692e-02 +2.40819287e-02 +2.86260825e-02 +2.83908807e-02 +8.45786780e-02 +1.22879669e-02 -2.43928209e-02 +1.62313908e-01 +6.60970733e-02 -4.14978005e-02 +1.52709903e-02 +1.09169278e-02 -7.04140142e-02 +4.86069284e-02 -6.35784194e-02 +2.87218839e-02 +4.86918865e-03 -5.94637133e-02 -1.24330996e-02 +9.95278805e-02 +3.61567810e-02 +2.59266850e-02 +9.32269823e-03 -1.10140881e-02 +2.92897969e-02 +5.95016889e-02 -2.14963276e-02 +9.43464637e-02 -6.31154254e-02 -1.25861391e-01 -8.41290355e-02 -1.53239165e-02 +4.85691503e-02 +6.55256361e-02 +1.88758057e-02 -6.23485185e-02 -1.09216692e-02 +5.33296987e-02 -5.89499390e-03 +1.64219383e-02 -1.33969896e-02 +1.17423199e-01 -6.65587932e-02 -8.60235021e-02 -3.10539231e-02 +5.38357459e-02 -9.94798914e-02 -1.76303890e-02 +2.57569849e-02 -2.33231895e-02 -7.86130652e-02 +8.39513913e-03 -2.55502202e-02 -1.90326050e-02 -2.81666256e-02 -1.30413473e-01 -3.96196991e-02 -7.30333179e-02 +1.29245976e-02 +1.64407603e-02 +7.76477084e-02 +5.23928478e-02 +5.63633302e-03 -7.17840390e-03 -4.98887934e-02 -3.45731601e-02 -7.70747215e-02 +6.29650280e-02 -8.34032521e-02 +1.72349051e-01 -7.19657261e-03 +3.16635123e-04 -1.65699534e-02 +6.34552166e-02 +6.39181212e-02 +3.65473293e-02 -7.70397931e-02 +1.01576477e-01 -8.62790197e-02 -5.34028150e-02 +2.45793955e-03 -3.79368616e-03 +2.19409373e-02 +9.94360261e-03 -4.04543281e-02 +1.61744468e-02 -6.13127053e-02 -9.56550166e-02 -3.78804803e-02 -2.15512291e-02 -2.93285940e-02 -1.90707911e-02 -4.49946448e-02 -9.59387422e-03 -2.95578279e-02 -2.06518807e-02 -1.73058793e-01 -2.49844730e-01 -2.26255190e-02 -2.29584277e-02 -1.30728707e-01 -4.87189330e-02 -7.08412677e-02 -4.34501916e-02 -5.03196754e-02 -4.72611748e-02 -2.20999420e-02 -1.05195016e-01 -3.68155772e-03 -2.33985260e-01 -9.48470086e-02 -1.12123089e-02 -1.15453362e-01 -5.36591597e-02 -4.96398583e-02 -1.64030269e-02 -1.22342808e-02 -4.81940769e-02 -1.06426351e-01 -6.38680980e-02 -9.05008521e-03 -7.14973453e-03 -9.34093297e-02 -2.07909439e-02 -3.91250044e-01 -1.30987734e-01 -6.86508119e-02 -7.07922876e-02 -1.74319334e-02 -8.73430848e-01 -1.59960520e-02 -1.94682982e-02 -1.32210981e-02 -2.41528451e-02 -5.85763305e-02 -7.23894965e-03 -4.57404926e-02 -3.06079946e-02 -2.30691791e-01 -8.46130997e-02 -3.13502364e-02 -9.95067693e-03 -5.32471314e-02 -4.54241447e-02 -5.42412281e-01 -2.28317797e-01 -3.33366580e-02 -3.52813862e-02 -1.20149162e-02 -8.89480889e-01 -6.15811953e-03 -2.58664205e-03 -7.17779323e-02 -6.18840009e-02 -6.31070063e-02 -5.16394377e-01 -4.43801805e-02 -1.08630300e-01 -1.29554033e-01 -1.51615724e-01 -4.03024778e-02 -4.91689832e-04 -3.07771694e-02 -4.24207710e-02 -4.68430877e-01 -3.04327421e-02 -2.27978989e-03 -4.75977967e-03 -4.49221283e-02 -1.00885257e-01 -1.00017272e-01 -2.02462710e-02 -1.37240561e-02 -1.26041947e-02 -3.37673157e-01 -1.35102673e-02 -5.19064628e-03 -3.06259710e-02 -3.01313982e-03 -3.90145220e-02 -5.48323132e-02 -5.47811836e-02 -4.42530140e-02 -5.81649579e-02 -4.19748127e-01 -2.18282510e-02 -2.74636187e-02 +2.88655490e-01 -2.78243399e-03 +8.32139775e-02 +6.19741390e-03 -1.92189276e-01 -1.22164726e-01 +1.90030962e-01 +1.41790584e-01 +4.85559478e-02 +6.73938263e-03 -3.57122481e-01 +3.07852700e-02 +6.10934421e-02 +4.32136748e-03 -9.00489017e-02 +5.11715263e-02 +2.79062033e-01 +1.60415377e-02 +5.22677787e-03 +3.01606338e-02 +2.97678173e-01 -1.27776414e-01 -7.83948973e-02 -4.61101905e-02 -5.56884632e-02 +1.16061628e-01 +3.91423814e-02 +2.22358126e-02 -2.29188465e-02 +1.25813112e-01 +9.20469966e-03 -6.82573393e-03 -1.59310848e-01 +2.36980524e-02 +3.68475951e-02 +1.16353743e-02 -2.18863878e-02 -6.87529966e-02 -1.20389320e-01 -5.11229113e-02 +8.52198824e-02 -8.64660963e-02 +2.96358373e-02 +1.17588826e-02 -3.66712501e-03 -3.34414393e-02 -4.64415513e-02 -1.47112414e-01 -3.27333719e-01 -5.51688159e-03 -4.22390066e-02 +1.70758367e-02 +2.74117030e-02 -4.67134900e-02 -5.59212752e-02 -4.78330664e-02 +3.26335162e-01 +2.49883104e-02 -3.76914293e-02 -3.33252788e-01 +2.24309601e-02 -9.37069133e-02 +6.02626130e-02 -1.89522449e-02 -3.94809395e-01 -2.26528078e-01 +1.18172146e-01 +1.78375050e-01 +1.45459883e-02 +1.99777931e-02 +1.31164134e-01 +1.91876807e-05 +1.58862025e-02 +5.57985269e-02 -4.69596207e-01 -5.80353402e-02 +5.22776283e-02 +7.77162798e-03 +7.91526288e-02 -2.79265400e-02 -6.82712570e-02 -4.01850324e-03 -4.77558434e-01 +4.16578799e-02 -4.75841090e-02 +6.12128191e-02 -3.71973403e-02 -3.59104425e-02 -1.55042514e-01 +1.45795001e-02 -1.07931018e-01 +5.83110005e-02 +2.77729332e-02 -2.07102656e-01 +4.34488803e-02 -1.21951476e-01 -3.89466211e-02 -1.31426603e-01 -6.04865253e-01 -1.55877262e-01 -9.97143015e-02 -1.50763512e-01 -5.31130172e-02 -4.27713105e-03 -1.07809670e-01 -9.45758745e-02 -7.08548129e-02 -1.43003508e-01 -8.01560432e-02 -6.92636371e-02 -2.24140525e-01 -6.36309385e-02 -7.10612386e-02 -1.94808379e-01 -3.01222086e-01 -1.87135831e-01 -5.37272617e-02 -5.94262145e-02 -9.07476693e-02 -2.08700329e-01 -1.04653157e-01 -9.50702056e-02 -1.59058288e-01 -2.80453891e-01 -1.58909321e-01 +1.48260295e-01 -1.30366519e-01 -7.84221664e-02 -1.40179113e-01 -6.10357113e-02 -1.56699657e-01 -6.28991723e-02 -1.59935921e-01 -3.13102901e-02 -1.47985518e-01 -2.37531707e-01 -1.70106843e-01 -1.63313538e-01 -9.37648565e-02 -2.59896331e-02 -9.03091058e-02 -5.23761734e-02 +2.13242143e-01 -4.39990684e-02 -8.56964961e-02 -5.18897995e-02 -1.68963581e-01 -6.63868934e-02 -6.54333755e-02 -6.43621534e-02 -8.00758749e-02 -8.75788406e-02 -8.48178715e-02 -2.42647529e-02 -1.73431709e-01 -1.49855226e-01 +2.81964727e-02 +5.08213751e-02 -1.15720689e-01 -9.16432068e-02 -1.27965167e-01 -1.48623601e-01 -1.54155877e-03 -2.09332079e-01 -1.91243738e-02 -1.46491691e-01 -1.23619072e-01 -1.43945277e-01 +1.04305655e-01 -9.59992856e-02 -1.60650253e-01 -8.96456465e-02 -2.23037228e-01 -5.65689206e-02 -1.94675475e-01 -1.48488311e-02 -3.82470310e-01 -2.01388318e-02 -1.20811850e-01 -7.80518577e-02 -2.63242126e-01 -4.21853922e-02 -1.62214354e-01 -2.19259888e-01 -6.91188201e-02 -4.09888737e-02 -1.01596035e-01 -1.48585379e-01 -4.21397202e-02 -1.52804866e-01 -4.52769250e-02 -7.59088993e-01 -1.25228629e-01 -1.62222460e-01 -1.61623195e-01 -1.03321068e-01 -1.76926672e-01 -2.07234740e-01 -8.67297500e-02 -3.00397038e-01 +2.61161119e-01 +6.92777261e-02 -3.53372723e-01 +3.04005351e-02 +9.63674784e-02 +3.68862562e-02 +4.16640677e-02 -2.28618197e-02 -2.28188291e-01 -7.77578503e-02 -2.90983990e-02 -2.02820956e-04 -3.16428877e-02 -1.94192920e-02 +3.61768678e-02 -1.70627162e-01 +1.22133441e-01 +4.74412888e-02 +9.31661576e-02 +1.00882379e-02 +2.11046085e-01 +4.74065542e-02 +1.48289576e-01 -4.77097109e-02 +1.51425796e-02 -1.15946949e-01 +6.23329692e-02 +9.07756239e-02 +1.76260602e-02 +7.89953768e-02 +1.60072163e-01 +4.10518087e-02 +4.48376201e-02 +8.20868611e-02 +5.09824529e-02 -1.11433201e-01 +9.77777690e-03 -1.02903858e-01 +9.60616115e-03 -7.62294652e-03 +2.05158040e-01 -1.90470070e-01 +3.09309866e-02 +6.61113486e-02 +2.11653903e-01 -1.61738638e-02 +5.68367355e-02 +6.08160975e-04 +8.89422670e-02 +6.13237210e-02 +6.26460239e-02 +9.06451046e-02 +1.31955713e-01 +1.00306600e-01 +2.85748899e-01 +2.24308930e-02 +3.45600806e-02 -4.73706692e-01 -1.56602204e-01 +1.75041571e-01 -2.73479372e-01 +1.85877178e-02 +1.61663756e-01 -3.14456015e-03 +4.36514094e-02 +8.33585709e-02 +1.06153257e-01 -3.62740308e-01 +7.56852794e-03 -1.28420681e-01 +7.01687559e-02 -2.48965621e-02 -5.38461655e-02 +2.89857667e-02 +2.63680995e-01 +8.73111486e-02 +2.67412830e-02 +6.12870567e-02 -2.82392055e-02 -2.46821698e-02 +2.17615634e-01 +1.30018830e-01 +6.65274113e-02 -4.52145278e-01 -1.38539717e-01 +4.60644327e-02 -1.35490119e-01 +4.35862421e-05 +1.26275688e-01 +1.75873324e-01 +3.46372835e-03 +4.80200678e-01 +3.17414030e-02 +5.85908331e-02 +8.01859722e-02 +5.31152301e-02 -1.70237988e-01 -1.13271132e-01 +3.35127115e-02 -8.23313445e-02 +8.21081400e-02 +1.09021254e-01 +1.12131134e-01 +3.15835625e-01 +9.74121243e-02 +1.09006442e-01 +2.41349801e-01 +1.91212669e-01 +1.62493512e-01 +1.30998924e-01 +2.66908258e-02 +1.20189562e-01 +3.14134270e-01 +1.52937565e-02 +6.66944310e-02 +2.39255473e-01 +2.42367223e-01 +7.61160031e-02 +1.10218339e-01 +9.48452130e-02 +8.99461433e-02 +1.12126812e-01 +1.34043805e-02 +1.01281755e-01 -1.70314759e-02 +1.33795917e-01 +4.33786362e-02 +1.81912154e-01 +7.29595274e-02 +1.53211787e-01 +1.15781672e-01 +1.59297451e-01 +6.18064031e-02 +5.33139519e-02 +1.18749723e-01 +6.24288358e-02 +1.12082876e-01 +1.02188848e-01 +5.61992303e-02 +5.75008988e-02 +9.84701961e-02 +2.12180808e-01 -2.43598670e-01 +1.88398346e-01 +1.58243150e-01 +1.57832801e-01 +2.03455254e-01 +1.33605152e-01 +6.83237314e-02 +1.29343018e-01 +5.71093261e-02 +1.09565817e-01 +8.67247060e-02 +2.06142858e-01 +1.73571482e-01 +9.08465832e-02 -2.92413801e-01 +3.02889228e-01 +7.81023875e-03 +2.19185054e-01 +1.64144352e-01 +1.99832544e-01 +1.45967007e-01 +1.85650453e-01 +1.01858102e-01 +6.99668527e-02 +1.04437873e-01 +1.59661993e-01 -1.89868942e-01 +2.13647991e-01 -2.21853539e-01 +8.32561627e-02 +5.86945526e-02 +2.35113338e-01 +1.40974000e-01 +2.44646847e-01 +8.74993131e-02 +7.52031878e-02 +6.51329532e-02 +6.56078681e-02 +6.45357892e-02 +1.29774123e-01 +9.03047398e-02 +3.09639126e-01 +8.66657794e-02 +2.22066194e-01 +1.20489463e-01 +8.97057354e-02 +1.19838499e-01 +1.31644756e-02 +7.91705698e-02 +5.97725034e-01 +1.05142921e-01 +1.36084128e-02 +9.33676511e-02 +9.80438888e-02 +9.29017365e-02 +7.17615290e-03 +5.34634758e-03 +1.56322587e-02 +2.42212489e-01 -4.91740480e-02 +1.87329426e-02 +8.13857764e-02 -3.08177739e-01 -2.72474676e-01 -5.94336428e-02 -7.78778121e-02 -6.44410029e-02 -1.57070179e-02 -4.34273213e-01 -1.14587173e-01 -7.59656504e-02 +2.31186263e-02 -2.93243211e-02 -1.63344778e-02 -1.44015029e-01 +5.14066279e-01 +1.42576948e-01 -4.48070988e-02 +4.50413704e-01 -6.98536634e-02 +1.07760876e-01 -4.33093235e-02 -1.13955528e-01 -8.21933374e-02 -4.01192829e-02 +5.00895441e-01 +6.46764459e-03 -3.54042977e-01 -6.27880841e-02 +7.66627118e-02 -3.40075016e-01 -1.04309041e-02 +9.79414955e-03 -4.21875119e-02 -2.46641245e-02 -4.10244279e-02 -6.15255833e-02 -9.55317765e-02 +3.35505158e-02 -6.97923750e-02 -1.02508016e-01 +2.87114203e-01 -1.80144086e-02 -1.96471289e-01 -1.21093042e-01 -3.24478537e-01 -1.37638271e-01 -8.40245280e-03 -7.91611671e-02 +4.92796190e-02 +4.49874103e-01 -1.56014815e-01 -1.30742580e-01 -1.23274915e-01 -7.01253861e-03 +4.10735123e-02 -7.31559284e-03 -1.43036023e-02 -1.09407324e-02 -1.39022097e-01 -1.88264057e-01 -3.97728151e-03 -1.45682707e-01 +3.20763215e-02 -7.07058311e-02 -1.06306141e-02 +1.53924525e-01 +2.52276480e-01 -7.04951584e-02 -6.00341037e-02 -1.16231935e-02 +2.87326127e-01 -1.53233623e-02 -1.12617202e-01 +2.03321464e-02 +2.81029493e-01 -4.33672607e-01 -1.82474017e-01 -2.19336897e-01 -1.28562860e-02 -3.43393058e-01 +2.44141351e-02 -3.88308242e-02 -4.62126061e-02 -1.73531130e-01 -1.07839741e-01 -5.23870327e-02 +3.01092386e-01 -1.94449559e-01 +6.39205277e-02 +3.92850079e-02 -2.58118451e-01 +6.82047452e-04 +3.16584229e-01 -6.06368762e-03 +1.00602329e-01 -1.29215464e-01 -3.13213505e-02 +7.17512891e-03 -7.77078420e-03 -7.06794346e-03 +2.67643463e-02 +3.22968401e-02 +3.25684324e-02 +2.88654417e-02 +3.89618352e-02 -1.12792939e-01 -1.30745634e-01 +7.77294533e-03 +1.23524368e-02 -1.20154835e-01 +2.85636652e-02 -5.56806512e-02 -1.34515911e-01 +1.04947679e-01 +6.11225255e-02 -8.64953026e-02 -9.76133272e-02 +5.49835153e-03 +6.98261410e-02 -2.85314564e-02 -4.63505648e-02 -1.14418529e-01 -2.32165098e-01 +3.65551002e-03 -5.66597097e-02 -1.71873063e-01 +6.30503073e-02 -1.60471350e-01 -2.31425874e-02 +5.92068434e-02 +9.09041986e-03 +1.92698129e-02 -2.71542609e-01 -1.38109431e-01 -1.31306946e-01 -2.95577124e-02 -4.81768651e-03 +1.22780735e-02 -9.35688466e-02 -8.44123587e-03 +3.16363126e-02 -2.37798393e-01 -3.70944082e-03 -1.40478954e-01 -1.00135319e-01 +5.75019941e-02 +5.35357483e-02 +1.71458907e-02 -9.44197103e-02 +2.65031178e-02 +9.23310965e-02 +2.53618844e-02 +5.52858086e-03 +3.22907488e-03 -5.74082673e-01 -1.89060017e-01 -8.17562789e-02 -2.36990117e-02 -4.38369848e-02 -1.61939338e-02 -1.00242840e-02 -2.17626467e-02 -9.22472123e-03 -1.04370877e-01 -1.42602444e-01 -3.61573440e-03 -6.60540313e-02 +4.77565126e-03 -1.35103658e-01 -9.13900584e-02 -9.17531922e-02 -1.71016693e-01 -1.23411873e-02 -5.92510682e-03 -2.27830440e-01 +3.08430772e-02 -8.28772876e-03 +1.77102447e-01 +1.58193856e-02 +4.58564721e-02 -2.24449068e-01 -1.11143989e-02 -2.39349883e-02 +4.53399480e-05 +2.17704102e-03 +8.82540643e-03 -7.93582618e-01 +3.11657842e-02 +2.01043002e-02 +4.83667850e-03 -4.04811576e-02 +4.52909507e-02 +2.51290854e-02 -3.22736263e-01 -4.21148181e-01 +5.62785566e-02 -3.89630347e-02 +1.28507493e-02 -7.11770505e-02 -4.19584010e-03 +3.20486307e-01 +4.92721945e-02 -9.64546297e-03 +7.69973099e-02 -1.13472648e-01 -7.32937083e-02 +1.02276444e-01 -1.14807732e-01 +5.48766926e-02 -4.04593684e-02 +6.18354566e-02 -4.44243364e-02 +2.65939464e-03 -9.10162702e-02 -1.43544912e-01 -1.44369885e-01 +2.08110567e-02 -1.26065657e-01 -9.75545943e-02 +5.07425740e-02 +7.67417103e-02 +3.31468470e-02 +2.33492881e-01 -1.90924779e-01 -2.71139946e-02 +9.57514625e-03 +6.30192906e-02 +9.18944329e-02 +2.01670438e-01 -4.08826470e-02 +2.84388545e-03 +3.43445837e-01 -6.86711296e-02 +7.51683116e-02 +1.87474146e-01 +8.73007998e-02 -1.52388830e-02 -2.51217727e-02 +4.95737866e-02 +3.38282622e-02 -9.17649046e-02 +4.30408008e-02 -2.04414263e-01 +8.84250700e-02 -2.66291108e-02 -3.21558341e-02 +7.60523900e-02 -1.19427562e-01 +1.48560986e-01 -9.59061608e-02 -2.64303889e-02 +1.99914034e-02 +2.18996294e-02 -5.48649440e-03 +6.28085732e-01 +5.42862713e-02 +8.09459481e-03 -9.87124220e-02 -1.53052896e-01 +3.66986126e-01 +8.79986212e-02 +1.72580816e-02 +1.25093106e-02 +1.18242437e-02 -1.71885267e-02 +8.55427887e-03 -1.22788690e-01 +2.71519497e-02 +1.06413271e-02 +1.21813811e-01 -1.27805248e-01 -3.55722576e-01 +2.23504007e-02 -1.58982679e-01 +2.85354942e-01 -3.83550860e-02 -1.75078809e-02 -6.40957728e-02 +9.93211102e-03 -6.66885152e-02 -1.75227657e-01 -8.47478434e-02 +8.69060960e-03 -2.38288790e-01 +1.16996683e-01 +3.69315073e-02 +3.09141874e-01 +2.87318323e-03 -5.35676539e-01 -2.19919924e-02 -6.84323236e-02 +8.20974335e-02 +2.27304995e-02 -2.58269981e-02 +9.68275517e-02 -2.45375410e-02 +8.96241423e-03 +1.25368237e-01 +1.95028074e-02 -5.32780923e-02 +1.89095944e-01 +2.19148874e-01 +1.14544593e-01 +6.40137494e-02 -1.95583235e-02 -8.07082281e-02 +6.59375861e-02 -8.72490853e-02 -1.49489865e-02 -6.35860860e-02 -2.30517350e-02 +6.26045614e-02 -4.84731756e-02 -2.54731216e-02 +1.10147931e-01 +9.19064954e-02 -3.44444960e-02 +9.99809126e-04 +1.55787766e-01 -5.61456122e-02 -2.45513134e-02 +4.87770699e-02 +2.60162260e-02 +2.92134508e-02 +8.77246559e-02 -1.08486768e-02 +2.87260950e-01 +1.59773558e-01 -4.23062081e-03 +2.24053916e-02 +4.79934439e-02 -4.53956723e-02 +3.74389137e-03 +2.39756778e-02 -7.40835303e-03 +2.84755766e-01 -6.39579073e-02 +7.40330964e-02 -1.07165411e-01 -7.74211809e-02 +3.17849606e-01 +1.46728843e-01 -6.80252314e-02 +2.22173586e-01 +1.67336389e-02 +2.80796528e-01 +1.03370272e-01 +9.16943252e-02 -3.75207849e-02 -3.73059092e-03 +1.66175127e-01 +3.92513990e-01 +6.72362968e-02 -4.21299785e-02 -1.13125592e-02 -6.80986717e-02 +9.31907967e-02 -3.51926647e-02 +1.79770049e-02 -7.99165890e-02 +2.36370433e-02 +2.42513880e-01 +3.29651892e-01 -3.55376154e-02 -8.26683361e-03 -1.92682222e-01 -1.31155625e-02 -2.19952285e-01 +8.04956909e-03 -1.85505580e-02 +1.92012072e-01 -4.34246399e-02 +7.23305762e-01 -3.55804898e-02 +3.08325049e-03 -9.60071459e-02 -1.42407700e-01 +1.70160741e-01 +4.25554067e-02 +1.73209220e-01 +5.34554198e-03 -9.60303843e-02 +3.59713316e-01 -7.15846494e-02 +6.21185601e-02 +8.16274360e-02 +5.23879239e-03 +8.29832777e-02 +2.28871759e-02 +1.37507945e-01 +8.33859574e-03 -3.77044976e-02 +1.33890837e-01 -6.06468171e-02 -4.76211458e-02 +5.86015247e-02 -1.58002332e-01 -1.34321451e-01 +2.63300717e-01 -5.55947870e-02 +4.54607755e-02 +7.74556175e-02 -4.24058661e-02 +3.78651381e-01 -1.00799814e-01 +3.18219257e-03 +1.67605653e-01 +2.64053401e-02 -4.43141870e-02 +9.96956080e-02 -1.41745876e-03 +8.42742398e-02 +9.73618403e-03 -1.29241586e-01 -4.51101884e-02 +1.72559440e-01 -8.33160523e-03 -1.72385022e-01 -1.11848917e-02 +2.57297209e-03 +1.33784499e-03 +3.64039212e-01 +5.18468678e-01 +4.47096452e-02 -3.18474844e-02 -1.66434012e-02 +4.16995972e-01 +1.67031437e-01 +1.90460384e-01 -3.88048030e-03 -1.03738559e-02 +3.31208818e-02 -4.20303270e-02 +1.38969719e-01 +9.60713252e-02 +1.36696890e-01 +3.87608516e-03 -1.69332772e-01 -4.99727763e-02 -2.35121176e-02 +6.67113438e-02 +1.07440308e-01 +1.90609433e-02 +2.61968732e-01 +3.39572765e-02 +1.86300259e-02 +3.33943218e-01 +3.72674279e-02 +1.26468733e-01 +3.14774141e-02 +1.72234058e-01 +5.19599736e-01 -1.01462910e-02 -2.11252317e-01 +2.17162624e-01 -8.39898363e-03 +9.42874327e-02 +2.31435653e-02 +2.71785051e-01 +3.78059931e-02 -1.32670373e-01 +1.07854322e-01 +3.79303098e-01 +1.94926888e-01 +3.68513852e-01 -6.62515545e-03 +2.02458091e-02 -9.11198705e-02 +6.68996647e-02 +1.03854395e-01 +7.19360188e-02 +2.44241640e-01 +2.15110347e-01 +4.58716303e-02 +8.46643373e-03 -9.24639329e-02 -4.22935858e-02 -5.22887148e-02 -1.12126917e-01 -6.42285943e-02 +3.02190721e-01 -2.98206154e-02 +1.19770370e-01 -6.22083172e-02 -2.97341477e-02 +1.18719846e-01 -1.09326886e-02 -1.26669789e-02 +4.75915670e-01 +1.57202333e-01 +2.13954300e-01 -2.10612461e-01 +2.16383636e-02 +3.66767049e-02 +1.89386550e-02 +7.39804581e-02 -4.62392811e-03 +1.04001267e-02 +2.65201598e-01 +1.00923935e-03 +2.04174537e-02 +3.34899593e-03 +4.89163324e-02 +4.54895385e-02 +4.57032472e-02 +7.49814734e-02 +1.32688247e-02 +2.15593725e-03 +4.36843410e-02 +3.56568396e-02 +9.85049605e-02 +1.44447237e-02 +3.54762226e-01 +1.46455869e-01 +5.87273762e-02 +5.70418760e-02 +1.98375154e-02 +4.27476130e-03 +1.03751138e-01 +3.56272534e-02 +2.43039299e-02 +2.40806371e-01 +7.10931327e-03 +4.84205186e-02 +1.55281231e-01 +5.32433018e-02 +6.08310699e-02 +1.44653305e-01 +5.08622313e-03 +2.52128690e-02 +1.02190499e-03 +6.65150536e-03 +3.91453691e-02 +2.84828227e-02 +3.43127996e-01 +1.05448686e-01 +2.10980494e-02 +8.45417101e-03 +1.09336665e-02 +6.34414107e-02 +2.21689299e-01 +1.20694358e-02 +4.87696901e-02 +8.03589895e-02 +1.63537383e-01 +8.99362098e-03 +1.54355448e-03 +2.95254961e-02 +4.77711894e-02 +2.84519345e-01 +3.20413321e-01 +1.47100107e-03 +6.54041171e-02 +4.02354188e-02 +4.64180782e-02 +7.55754933e-02 +3.02418624e-03 +9.44071636e-03 +2.05773756e-01 +2.02838719e-01 +2.45858338e-02 +8.57708693e-01 +2.51016673e-02 +1.15006469e-01 +1.26376644e-01 +1.59906223e-02 +2.16889363e-02 +3.54349643e-01 +4.89343792e-01 +2.75614858e-01 +6.06285185e-02 +1.85592733e-02 +9.98797640e-02 +3.28781120e-02 +4.52488005e-01 +2.20274180e-02 +1.66352987e-01 +4.17503566e-02 -6.02946505e-02 +4.00002040e-02 +6.28851950e-02 +1.23483799e-01 +2.91639894e-01 +8.42617080e-02 +1.16232656e-01 +5.45312874e-02 +3.60027291e-02 +6.71997741e-02 +1.52287201e-03 +5.49017429e-01 +1.29581124e-01 +1.08350657e-01 -2.23170081e-03 +2.52437908e-02 +1.15189441e-01 +3.56566068e-03 +3.84860300e-03 +2.87601911e-03 -3.48040722e-02 -1.08564263e-02 -5.71423676e-04 +1.20601594e-01 +2.69243214e-02 +5.22667944e-01 +2.96917260e-02 -3.83475311e-02 -1.60677899e-02 +3.30988020e-02 -4.27707843e-03 -7.53300861e-02 +9.37789865e-03 +1.93364285e-02 -3.80068249e-03 -2.91322765e-04 +1.96707081e-02 -5.54378107e-02 +1.63617718e-03 +9.60906793e-04 -1.36418194e-01 -1.50879042e-03 +1.37813073e-02 -6.27501309e-01 +1.67310901e-03 -1.13221342e-02 +1.03127658e-01 +6.89769909e-02 +7.33717859e-01 +4.38102521e-02 +9.02190804e-02 +2.81144716e-02 +2.52155215e-03 +6.04205998e-03 +1.12015838e-02 +9.42120105e-02 +3.09749488e-02 +8.33586156e-02 +1.75633263e-02 +1.00008585e-02 +2.55053639e-02 +3.94532830e-03 -1.39000967e-01 -7.59384334e-02 -3.51803787e-02 +1.85032904e-01 -2.44608112e-02 -1.59576833e-02 +4.18502502e-02 +1.98573470e-02 -5.56079764e-03 +3.73555906e-02 -8.56202096e-02 -2.24952139e-02 +1.05218227e-04 -2.65412731e-03 -8.16386119e-02 -1.22472330e-03 -3.15212384e-02 -7.08302716e-03 -8.80154222e-03 +2.86496570e-03 +1.51373103e-01 -1.66373681e-02 +1.00764045e-02 +6.07646129e-04 -5.33849150e-02 +1.01074821e-03 +1.42388940e-02 +4.51171100e-02 -8.50675441e-03 +1.39973825e-03 -4.16999683e-02 -2.43511368e-02 +8.43742862e-02 -1.33399060e-02 +1.97508652e-02 +1.37229972e-02 +1.96407530e-02 +4.01637614e-01 -2.39063939e-03 +3.78879271e-02 -1.49496980e-02 -8.08029156e-03 -5.18606380e-02 +3.71815898e-02 +2.28418130e-02 -1.11076273e-02 +6.92910142e-03 -2.20373627e-02 +5.20747840e-01 -7.64066055e-02 -1.23862833e-01 +1.33893192e-01 +2.49852100e-03 -1.71503727e-03 +3.72534036e-03 -1.29437894e-02 +4.69061360e-03 -6.89908147e-01 +1.25339240e-01 -3.80548052e-02 +7.87686184e-03 -2.23503277e-01 +1.41569274e-02 -3.20840865e-01 -1.65787607e-01 +2.58763749e-02 +1.41019210e-01 +7.74488151e-02 -7.51555488e-02 -2.42408854e-03 -3.07371980e-03 +3.12827416e-02 -1.12198023e-02 -3.19624878e-02 +8.57428983e-02 +1.49416357e-01 -3.27683836e-02 -7.13293254e-01 +7.88466036e-02 +4.10378948e-02 +1.50744496e-02 +3.93587500e-02 +3.35551389e-02 +3.73958461e-02 +1.97499096e-02 -1.62415188e-02 -6.27963126e-01 -4.98506241e-02 +2.70267744e-02 +2.01503411e-02 +1.71653494e-01 +3.39264907e-02 +3.48387957e-02 +9.06953309e-03 +4.59786840e-02 -1.18938871e-02 -5.97393736e-02 -4.99004662e-01 -7.64064491e-02 -1.74200349e-02 +8.68651494e-02 +9.28304493e-02 +1.67214070e-02 -2.34486207e-01 -3.51413935e-02 +3.11668843e-01 -3.41457099e-01 +4.47338484e-02 +2.13333629e-02 +3.38464379e-02 -3.72351520e-02 -2.17166573e-01 +1.04354536e-02 -3.90472077e-02 +4.27871570e-03 +5.34924231e-02 +4.46221739e-01 +3.58313620e-02 -1.18665136e-02 +6.59554079e-02 -1.18140645e-01 +2.08315849e-01 +2.86259502e-01 +5.41663878e-02 -5.27807027e-02 -1.60857737e-02 +1.60580669e-02 -1.92188337e-01 +4.16928083e-02 +5.40334173e-02 +1.61559097e-02 +3.18115354e-01 -2.56006066e-02 +6.53198510e-02 +1.05448309e-02 -9.20924991e-02 -3.49122025e-02 -2.83518404e-01 +5.59213199e-02 +2.30149692e-03 -4.17329110e-02 -5.22268862e-02 +3.31829898e-02 -7.13446885e-02 +8.43504071e-02 +1.08103184e-02 -5.04225940e-02 +1.78234950e-02 -6.81030393e-01 +9.30832699e-02 +1.46794453e-01 -7.95445666e-02 +6.06129467e-02 +4.16781902e-02 +3.17814983e-02 +3.93258274e-01 +1.26505662e-02 -2.21987832e-02 +2.10712403e-01 +2.30359361e-01 +3.09625715e-01 +1.00687876e-01 +1.87086925e-01 -3.64719570e-01 +9.18284580e-02 +1.59694597e-01 +1.54354900e-01 +1.10971935e-01 +2.48962492e-01 +2.21649170e-01 +7.04512656e-01 +1.22657612e-01 +5.79266958e-02 +2.75071561e-01 +2.17208043e-01 +7.35393092e-02 +1.32371604e-01 +7.91139722e-01 -6.01774789e-02 +3.14859718e-01 -3.53595726e-02 +1.31461591e-01 +4.27992463e-01 +2.29946878e-02 +2.11097971e-01 +1.35600016e-01 +1.49251455e-02 +5.60945496e-02 +5.57145596e-01 +9.80468765e-02 -5.20088315e-01 +1.90523759e-01 +1.49784520e-01 +9.79156718e-02 +2.88380146e-01 -9.36710611e-02 +8.70303661e-02 +8.71070325e-02 +1.06925383e-01 +1.84374347e-01 +1.68192387e-01 +1.67400137e-01 -1.56562671e-01 +1.43083394e-01 +1.95998728e-01 -7.63370544e-02 +6.51456475e-01 +3.98295596e-02 +2.65258521e-01 +2.23098949e-01 +2.25439399e-01 -3.66623104e-01 +8.32623541e-02 +2.73815989e-01 +8.47416520e-02 +1.93432912e-01 -1.10931419e-01 +6.83128834e-02 +5.82855241e-03 +3.33137482e-01 +2.18762845e-01 -2.04518408e-01 +4.84295860e-02 +1.27696083e-03 +4.38461006e-01 +1.59862459e-01 +1.68235123e-01 +2.15608373e-01 +2.41254084e-02 +1.71772659e-01 +2.56076157e-01 -4.21140552e-01 -1.11924224e-01 +1.57647103e-01 +5.35823442e-02 +1.62607610e-01 +1.38062894e-01 -5.48514612e-02 -1.64006446e-02 +5.17847575e-02 +6.25647962e-01 +7.50563517e-02 +2.21707359e-01 +3.92334014e-02 -7.37079903e-02 +2.73170829e-01 +7.37214088e-01 +1.76024064e-01 +4.87350613e-01 +9.31825861e-02 +2.39571318e-01 +1.69218391e-01 +1.76420286e-01 +2.46096075e-01 +1.03421107e-01 -3.31445903e-01 +6.34126812e-02 +4.90280092e-01 -4.78590280e-02 +2.11919118e-02 -6.38601417e-03 +1.39141297e-02 -3.65424380e-02 +9.07492116e-02 +9.08353031e-02 -1.22152343e-01 -1.50118589e-01 -9.25069675e-02 +1.47212334e-02 -7.97628833e-04 +3.36526744e-02 +7.78636336e-03 +9.27582756e-03 +3.18429247e-02 -1.19816974e-01 -2.20131218e-01 +3.54001597e-02 +3.13690126e-01 +1.45271391e-01 +1.77551940e-01 -6.57747090e-02 -1.07412249e-01 -2.06616849e-01 -1.07564636e-01 +1.27843648e-01 -5.45234717e-02 +6.03892840e-02 -1.33426199e-02 +5.18271625e-02 -8.93584192e-02 +1.24922484e-01 -1.23052165e-01 +1.05522089e-01 -2.91167125e-02 +1.43444119e-02 -5.43851405e-02 +9.13017616e-02 +2.85889715e-01 +6.39411584e-02 +2.33705029e-01 -4.93223220e-02 -5.13374954e-02 +1.10389873e-01 -9.17093456e-02 -1.34148538e-01 -3.04018650e-02 -8.97287484e-03 -9.36869234e-02 -8.50281939e-02 +9.51955914e-02 -1.45044893e-01 -6.87747553e-04 +5.22335153e-03 +2.94398576e-01 -5.45143545e-01 -1.44545987e-01 -1.17304437e-02 +7.30227157e-02 -7.61141852e-02 -3.63710374e-02 +1.31755590e-01 +2.07481176e-01 -1.63469613e-01 -4.34756977e-03 -8.50486606e-02 +2.00537607e-01 +6.61311224e-02 +1.41652703e-01 -1.66748077e-01 -1.31427720e-01 -2.01952606e-01 -1.85024571e-02 +1.07094124e-01 +1.04454055e-01 -2.11117074e-01 +1.17492750e-01 +6.61918297e-02 -8.59516487e-02 +1.30499482e-01 -7.62851350e-03 -1.57022193e-01 +3.30593400e-02 -6.14695549e-02 +1.61955152e-02 +7.57639948e-03 -9.30106789e-02 -3.27169034e-03 -7.51531050e-02 +6.38756216e-01 +5.44696338e-02 -1.83709070e-01 +1.00016713e-01 -1.73613489e-01 -1.17433719e-01 -8.59242007e-02 -1.85826924e-02 +3.50148194e-02 -1.23910002e-01 -1.44003674e-01 +3.34086921e-03 +1.73271731e-01 +9.63706151e-03 -5.00282757e-02 -7.64093027e-02 -1.43530726e-01 +3.08361590e-01 +1.41582921e-01 -9.01564658e-02 -2.32514054e-01 +3.10393721e-01 -3.78302019e-03 -7.32573941e-02 +3.63740139e-02 -1.08648069e-01 +5.59987593e-03 +3.81503217e-02 +1.39266700e-01 +6.57645473e-03 -2.16506377e-01 +1.19412027e-01 -4.54612374e-01 -1.15659349e-01 +1.66476369e-02 -3.72341350e-02 -4.40937132e-02 -2.73914430e-02 -3.39257009e-02 +4.54844348e-03 +1.87297240e-02 -3.49108130e-02 -1.18184291e-01 -4.12657022e-01 -1.51377814e-02 +3.00023835e-02 -1.05527462e-02 -8.18608925e-02 -2.29298659e-02 -1.28065854e-01 +6.01040982e-02 +1.43880069e-01 +5.86774722e-02 +5.87136969e-02 +8.55408981e-02 -3.94823365e-02 -6.02928177e-03 +1.74609832e-02 +8.88955873e-03 -1.65327922e-01 +4.33669627e-01 -1.51142582e-01 -5.94801642e-02 -1.20552294e-01 -4.02837992e-02 -1.49154246e-01 +3.44266407e-02 -6.00184053e-02 +5.96478917e-02 +6.26228526e-02 -3.42344195e-01 -1.08182631e-01 -3.49541865e-02 -6.05511665e-01 -6.80440068e-02 +7.42216259e-02 +3.56738828e-02 +1.54583916e-01 +4.31188308e-02 -2.34073177e-01 -5.76025426e-01 -1.81045920e-01 +7.01721832e-02 -2.01461613e-01 -1.43478140e-01 -1.32208139e-01 -1.80562139e-01 -7.21007138e-02 -3.61156352e-02 -6.04518577e-02 -4.37057018e-01 -1.37452975e-01 +2.46153809e-02 -1.41431272e-01 +1.06428757e-01 +9.54257790e-04 -1.57220915e-01 -2.43992388e-01 +1.60864726e-01 -1.17965125e-01 +2.62802783e-02 -2.31070653e-01 -3.95188518e-02 -6.99603111e-02 -1.56687628e-02 +4.00443614e-01 -3.61633480e-01 -6.46749258e-01 -3.49942803e-01 -1.03827104e-01 -2.41097778e-01 -6.41545355e-02 -5.39207133e-03 +7.81895518e-02 -4.22996096e-02 +3.24004710e-01 -2.11085137e-02 -1.24982856e-02 -6.08943366e-02 -1.14448234e-01 -7.79922605e-02 -8.46906900e-02 -5.21175206e-01 -1.10238165e-01 -8.35134760e-02 -9.70338657e-02 -3.26519981e-02 -3.65830027e-02 +7.63156116e-02 -6.20732270e-02 -1.01195626e-01 -1.48461118e-01 -4.41005290e-01 +1.33197293e-01 -4.56997827e-02 +4.95786592e-02 -1.53103154e-02 -4.57688361e-01 +5.31272471e-01 +3.14380139e-01 +5.78115046e-01 -3.00470740e-02 +7.81161547e-01 -7.61135593e-02 -4.86977607e-01 +7.54937947e-01 -2.18964607e-01 +7.76658297e-01 -5.96957654e-03 -7.37624541e-02 +2.98250671e-02 -1.12821870e-02 -8.47909674e-02 -2.65819672e-03 +1.46206850e-02 +4.60462421e-01 -1.10276200e-01 -7.11239353e-02 +2.17360914e-01 -1.61101818e-01 -5.37944362e-02 -4.11668830e-02 -1.78502113e-01 -2.29352608e-01 -5.44268973e-02 -9.28508416e-02 +2.95704484e-01 -3.49255592e-01 +1.17883934e-02 -8.34734291e-02 -1.83736086e-01 -5.78584336e-02 +5.29453635e-01 -1.86695442e-01 +3.26262921e-01 -9.99337882e-02 -2.06552036e-02 -2.49197669e-02 -5.04201762e-02 -3.41422483e-02 -4.02764052e-01 -7.35571533e-02 -2.42701732e-02 -9.80573744e-02 +1.30090276e-02 -7.65972137e-02 -1.47556067e-01 -3.15733626e-02 -3.34447175e-02 +5.09312153e-01 -1.06148131e-01 -4.66747135e-02 -2.04859208e-02 -2.17471853e-01 -2.73189489e-02 -2.75502522e-02 +4.53709401e-02 -1.14715450e-01 +4.03914392e-01 -7.91016519e-02 +4.97868843e-02 -2.21009612e-01 -4.85290699e-02 +3.32111746e-01 -8.22631568e-02 -3.31326246e-01 -2.65963048e-01 -1.83124483e-01 -1.87304586e-01 +4.69279010e-03 +1.33277074e-01 +2.88745798e-02 +1.59322303e-02 +2.10735887e-01 +6.58884495e-02 +7.80626535e-02 +1.20177142e-01 +5.96634597e-02 +4.46834564e-02 +1.36922479e-01 +6.67067915e-02 +9.69394147e-02 +1.60054620e-02 +9.32668000e-02 +3.67899425e-02 +1.19795032e-01 +1.35247111e-02 +1.03911765e-01 +9.54840705e-02 +3.04641365e-03 +1.92878932e-01 +6.24066629e-02 +2.32129451e-02 +1.25349835e-01 +6.32270181e-04 +2.15805620e-01 +3.16964239e-02 +5.95695972e-02 +5.72253801e-02 +1.00601159e-01 +2.50862781e-02 +1.69149593e-01 +1.89839259e-01 +6.87913829e-03 +5.53270057e-02 +6.23422526e-02 +3.57264727e-02 +6.11054376e-02 +9.47979242e-02 +2.03399989e-03 +1.49608865e-01 +3.66324857e-02 +5.96948415e-02 +1.91759557e-01 +1.20243363e-01 +6.91754371e-02 +8.82603750e-02 +3.40361744e-01 +7.29802996e-02 +1.69350713e-01 +1.46889426e-02 +9.50250998e-02 +1.43158585e-01 +1.85287893e-01 +1.87515602e-01 +1.14474878e-01 +2.74741510e-03 +2.62371246e-02 +1.55767456e-01 +5.30931577e-02 +1.43577993e-01 +2.83509423e-03 +9.52295363e-02 +4.77343472e-03 +1.89832136e-01 +9.39741507e-02 +8.76545999e-03 +1.98449995e-02 +2.70127151e-02 +3.01385880e-01 +1.09875835e-02 +3.29280943e-02 +3.41304727e-02 +1.90520793e-01 +3.67487147e-02 +2.67487288e-01 +1.27696991e-03 +8.01043808e-02 +1.44627228e-01 +9.78014097e-02 +8.98920968e-02 +5.76322079e-02 +1.27306897e-02 +7.24412575e-02 +8.24242607e-02 +8.70664418e-02 +9.05714706e-02 +7.82336593e-02 +1.45015605e-02 +1.12294503e-01 +5.01564257e-02 +1.69841439e-01 +1.40168294e-01 +1.03323862e-01 +9.20747668e-02 +3.33525799e-02 +2.80669332e-03 +3.02598596e-01 +2.76783071e-02 +4.39254306e-02 -1.31830245e-01 -5.56311086e-02 +6.48940861e-01 +3.27700749e-03 -8.35077930e-03 -3.56851444e-02 -2.78752625e-01 -3.78166810e-02 -3.86246666e-02 +4.03830782e-02 -3.50575417e-01 +2.92006671e-01 -3.24493870e-02 -6.51806891e-02 -8.16211179e-02 -3.72593850e-01 +3.43961030e-01 -2.34662056e-01 -6.38587102e-02 +9.92378872e-03 -1.50659844e-01 +5.73140122e-02 -6.78678975e-02 -9.89222452e-02 -4.49393362e-01 -1.31744817e-01 +5.50767303e-01 -1.48881264e-02 -4.24198918e-02 -7.63725042e-02 -2.14325935e-02 -2.13524289e-02 +3.02227754e-02 +3.32539260e-01 -6.59805909e-02 -1.28142582e-03 -2.94827640e-01 -5.78313135e-04 -3.94550338e-03 +7.35065266e-02 -3.04210745e-03 -6.35205656e-02 +5.79822838e-01 -9.18514132e-02 +2.24576190e-01 -1.64339766e-01 -1.46936560e-02 -3.23439017e-02 -2.81683374e-02 -2.09141597e-01 +1.74725652e-01 -1.12872362e-01 -2.25661412e-01 -1.01877525e-02 -7.97453970e-02 -2.77662039e-01 -1.23675913e-01 -4.99283411e-02 -6.93375571e-03 +2.12471765e-02 -1.18500203e-01 -2.34563947e-01 -4.21188660e-02 -4.33438033e-01 -6.18800633e-02 -1.38240471e-01 -4.14516568e-01 +1.34817660e-01 +4.27585155e-01 -1.66053563e-01 -6.91194981e-02 -9.72316973e-03 +5.66083074e-01 -4.31480352e-03 +4.89491001e-02 -3.99404436e-01 +6.16864145e-01 +2.36762390e-02 -3.03620137e-02 -1.76579565e-01 -1.38639823e-01 -2.38178708e-02 -1.05865225e-01 -4.59176600e-02 +5.25179625e-01 -3.58736515e-02 -5.55753475e-03 -3.78888339e-01 -2.06326663e-01 -6.95904121e-02 -7.05107972e-02 -7.47321248e-02 -1.35722999e-02 +5.09365834e-02 +8.02329183e-02 -2.45699063e-02 +8.77885427e-03 -1.48734227e-02 -2.66891415e-03 -3.49769779e-02 +2.10055977e-01 -5.00064604e-02 -4.16153856e-02 +1.68306544e-01 -9.07179415e-02 -1.45277575e-01 -9.58248693e-03 -3.35845917e-01 +2.90049613e-02 -9.22534149e-03 -1.07434345e-02 -8.16516504e-02 -3.55547637e-01 -2.75340974e-01 -7.90620446e-02 -9.90217365e-03 -8.02174024e-03 -1.12118505e-01 -4.40226704e-01 -4.40874994e-02 +1.60121880e-02 -4.68300097e-02 -7.28463158e-02 +2.52916008e-01 -2.10169241e-01 -8.62462968e-02 -2.04941910e-02 -3.11709821e-01 -6.25994951e-02 +7.03967735e-02 -2.05759645e-01 +4.97511551e-02 -2.01315895e-01 +3.05629708e-02 -3.11610430e-01 -1.36047766e-01 +3.74350101e-02 -5.53504787e-02 -1.83276422e-02 -5.55367656e-02 +1.50484666e-01 -1.42901331e-01 +2.68833973e-02 +1.79302856e-01 -5.77562787e-02 -8.02605599e-02 +1.05950519e-01 +7.52296522e-02 +8.30996409e-02 +3.00788544e-02 -3.78501415e-02 -7.29610920e-02 +6.58577830e-02 +9.39108357e-02 +1.20503670e-02 +1.62955280e-02 +5.32945655e-02 +6.46858960e-02 +2.91670650e-01 -7.17417225e-02 -3.38183790e-02 -2.29945347e-01 -3.93095821e-01 +2.39692464e-01 +8.81887227e-02 -3.73815000e-01 +8.96575749e-02 -2.56042425e-02 -7.55462795e-02 -2.64028814e-02 +2.55979061e-01 +3.30109261e-02 -1.24639366e-02 +6.27095476e-02 -9.92420614e-02 +3.47651057e-02 +7.46280402e-02 +5.07938825e-02 -3.28030139e-02 -2.36629814e-01 -4.58494186e-01 -5.27773388e-02 -6.50628924e-01 -1.94401085e-01 +5.16282916e-02 -5.39467931e-02 -1.11311793e-01 +4.09426261e-03 -9.13717031e-01 +5.86389378e-02 -2.22556844e-01 +8.56564268e-02 +2.99888939e-01 -3.40413183e-01 -4.46232315e-03 -1.04803763e-01 -1.53205141e-01 -1.77112292e-04 -4.04651672e-01 +7.19651254e-03 -2.72879988e-01 +4.75909188e-02 -1.66898981e-01 -3.49445418e-02 +7.17091858e-02 -1.61470041e-01 -1.32289380e-02 -2.56228987e-02 -3.18598449e-02 +7.56900087e-02 -1.31179377e-01 +4.40471470e-02 +1.07033886e-01 +1.07487187e-01 +2.09425949e-02 -1.26337886e-01 +4.47314233e-02 -9.61932689e-02 +3.67334224e-02 +3.07710748e-02 -2.37875581e-01 +8.87223780e-02 -1.40924780e-02 -2.86192328e-01 +3.52794342e-02 -6.38060048e-02 +3.12047359e-02 +5.03144646e-03 -3.55663002e-01 -2.24856451e-01 -2.71428019e-01 -7.52648106e-03 +8.12037885e-02 +5.50366268e-02 +7.67982975e-02 -7.75928870e-02 +1.74066588e-01 +6.96463436e-02 +9.25116315e-02 -5.38862718e-04 +1.61689520e-02 +1.18364990e-01 -8.95584747e-02 -3.39333117e-01 +9.42024589e-02 -2.57744014e-01 +2.49034986e-02 -3.46113205e-01 -2.21094131e-01 -6.43000603e-02 +2.34252345e-02 -1.49677210e-02 -1.66599020e-01 -2.45560139e-01 -1.69642027e-02 -1.06704175e-01 +2.28627086e-01 -1.19628660e-01 -3.98717999e-01 +7.05558583e-02 +1.05086342e-02 +4.45500389e-02 -1.67414024e-02 -1.49321686e-02 -2.43781298e-01 +8.57168734e-02 -9.34615582e-02 +3.56293954e-02 +5.88667132e-02 +1.35775106e-02 -2.18768075e-01 +6.22943491e-02 -2.61840448e-02 -3.12471002e-01 +1.79972991e-01 -2.24981993e-01 +8.07755589e-02 +2.28611175e-02 +8.63229707e-02 -1.82900101e-01 -6.21020757e-02 +6.26502037e-02 -2.14749351e-02 -6.06004819e-02 -2.43415996e-01 +6.39744662e-03 +2.47492135e-01 +9.87442583e-02 -7.72289326e-03 +7.27754086e-02 -2.89993584e-01 -3.87744337e-01 -7.60529339e-02 -7.50810727e-02 +5.68879815e-03 -5.57514206e-02 +3.96219194e-02 -4.68746088e-02 +4.50185966e-03 +9.15711001e-02 +7.61990771e-02 +5.51787913e-02 +6.84930161e-02 -1.20902218e-01 -3.31119634e-02 -1.25191063e-01 -1.43033424e-02 +7.30899572e-02 -1.24995902e-01 -1.61585674e-01 -4.30121459e-02 +5.65981269e-02 -1.30955987e-02 -2.93932945e-01 +3.24835986e-01 -1.18065648e-01 -3.10629308e-02 -2.89263111e-02 +7.18127191e-01 +1.36186659e-01 +2.91082337e-02 +1.99764613e-02 -2.95373872e-02 -1.08555175e-01 -7.40070222e-03 +5.87510347e-01 -1.21184021e-01 -2.31967121e-02 -5.73562533e-02 -1.65131047e-01 -1.32012572e-02 -6.90560341e-02 +4.38018501e-01 +9.78923142e-02 -6.16913810e-02 -9.63024274e-02 -8.48438665e-02 -7.49997273e-02 +7.26055577e-02 +4.23331894e-02 -8.08882713e-02 +1.34677701e-02 +1.43350571e-01 -1.32190332e-01 +1.44031480e-01 -1.80405438e-01 -1.25819355e-01 +7.35359907e-01 -1.95035279e-01 -1.36027172e-01 +1.38378873e-01 -8.98738429e-02 +1.73024327e-01 -1.76228821e-01 -4.58416007e-02 -1.07117958e-01 -1.65189942e-03 +2.88896322e-01 +3.22427489e-02 +4.05151099e-02 -2.10739598e-01 -3.72084905e-03 -5.56204729e-02 -1.22200303e-01 -2.91218966e-01 +1.22795505e-02 -4.77780551e-02 +2.03593358e-01 +6.99868575e-02 -1.08514326e-02 -1.64015487e-01 -5.52065717e-03 -6.68453518e-03 -1.68558937e-02 -2.04089656e-02 +3.63869697e-01 +1.03947848e-01 -6.28740638e-02 -5.46484850e-02 -1.38350606e-01 -4.54382896e-02 +4.44515310e-02 +2.69412160e-01 -1.42197624e-01 +2.41032377e-01 -2.89087929e-02 -3.13686728e-02 -1.35081097e-01 -2.40745351e-01 +1.79139730e-02 -1.47912562e-01 -1.06029138e-02 -1.27059773e-01 -5.69863841e-02 +1.20053887e-01 -3.14509384e-02 -3.79135609e-02 -4.82639670e-01 -4.91380632e-01 +1.96542479e-02 +2.57317811e-01 +7.56938830e-02 +1.12194933e-01 +4.72690985e-02 +2.41835769e-02 +2.16926578e-02 +9.89054441e-02 +1.99724771e-02 +1.24067418e-01 +1.25314435e-02 +4.28410247e-02 +5.14149554e-02 +4.97301482e-02 +3.89964879e-03 +2.11329713e-01 +1.67430028e-01 +1.70232151e-02 +8.02330524e-02 +1.73291285e-02 +1.20507190e-02 +2.92871982e-01 +1.65428631e-02 +1.33424690e-02 +1.99244082e-01 +2.49638364e-01 +8.94870237e-02 +3.16842943e-02 +6.96319640e-02 +1.35794338e-02 +1.20180994e-01 +5.55590875e-02 +6.68244958e-02 +3.37980688e-02 +1.76905081e-01 +9.62962285e-02 +3.33262011e-02 +1.13724083e-01 +1.25205079e-02 -6.85560405e-02 +7.25244964e-03 -1.14281036e-01 +4.34779584e-01 +4.30672057e-02 +2.24617884e-01 +8.39228183e-02 +6.40519410e-02 +1.64538428e-01 +1.44883813e-02 +8.73321816e-02 +1.15150154e-01 +4.33494031e-01 +1.26639888e-01 +1.90205142e-01 +2.44094227e-02 +1.12837650e-01 +4.96298373e-01 +3.01083356e-01 +5.70886582e-02 +6.48958981e-02 +3.17187384e-02 +9.56822187e-02 +3.79660390e-02 +1.28723271e-02 +1.16270743e-02 +7.24000037e-02 +4.74908471e-01 +4.96187598e-01 +1.08455293e-01 +1.89415962e-02 -1.19136922e-01 +5.76772466e-02 +1.29819155e-01 +5.38722388e-02 +9.82374977e-03 +5.33687957e-02 +4.23120782e-02 +1.32924365e-03 +4.75559160e-02 -5.20822704e-02 +3.14800963e-02 +7.46162608e-02 +1.38437059e-02 +4.86155413e-02 +4.63101827e-02 +1.14453800e-01 +6.82563558e-02 +5.60408421e-02 +1.94347817e-02 +2.19499040e-02 +5.02917282e-02 +1.49023116e-01 -2.02624083e-01 +8.09053704e-02 +5.24437279e-02 +3.65220122e-02 +3.15810181e-02 +8.89945542e-04 +1.78492088e-02 +1.66847114e-03 -6.21600628e-01 -7.61831105e-01 -9.21879232e-01 -9.24459577e-01 -8.81008565e-01 -9.44512486e-01 -8.81581247e-01 -8.15013349e-01 -9.08531070e-01 -8.56878281e-01 -8.33097994e-01 -8.37860048e-01 -8.80043805e-01 -9.48596656e-01 -8.48153710e-01 -9.08441901e-01 -8.91424894e-01 -7.70570278e-01 -8.35874021e-01 -9.00274515e-01 -4.88637626e-01 -8.27634335e-01 -8.97796094e-01 -8.69461775e-01 -8.83814394e-01 -9.65693831e-01 -8.31757307e-01 -9.64796722e-01 -8.13932180e-01 -7.94784784e-01 -9.09339547e-01 -9.08855319e-01 -7.01453626e-01 -9.16220486e-01 -6.75799787e-01 -8.27789903e-01 -8.83511186e-01 -8.40173423e-01 -8.47798526e-01 -3.42536062e-01 -5.16192496e-01 -6.76986992e-01 -8.96444499e-01 -9.72951174e-01 -8.89304459e-01 -8.92676473e-01 -7.50553727e-01 -8.86063755e-01 -9.37622190e-01 -8.45827699e-01 -8.06194305e-01 -9.01323676e-01 -8.89282644e-01 -9.01789963e-01 -3.42466414e-01 -9.41901803e-01 -9.74645972e-01 -9.75319743e-01 -8.00280809e-01 -9.74648774e-01 -8.60313475e-01 -7.92970181e-01 -9.64427769e-01 -7.64059186e-01 -7.81495690e-01 -9.67892528e-01 -9.34134781e-01 -9.00593102e-01 -7.81112671e-01 -9.16822433e-01 -4.87858206e-01 -9.30955708e-01 -8.63465607e-01 -7.93369353e-01 -7.20249534e-01 -8.13549757e-01 -8.98992777e-01 -9.68297541e-01 -9.35239971e-01 -6.91960573e-01 -7.87681997e-01 -9.46507752e-01 -6.15155220e-01 -8.99027884e-01 -8.81542146e-01 -9.22773480e-01 -8.86084855e-01 -8.11388731e-01 -8.21375847e-01 -9.54522371e-01 -6.78363383e-01 -8.68672907e-01 -9.56983030e-01 -8.88296008e-01 -8.37025821e-01 -8.78820717e-01 -8.82260501e-01 -9.46439266e-01 -9.49470818e-01 -9.70318079e-01 -3.44629675e-01 -9.32051241e-03 -3.37274484e-02 -5.29814214e-02 +2.45062247e-01 -7.58703128e-02 -6.41952381e-02 -6.22729585e-02 -1.49053305e-01 +7.71529914e-04 +7.43713826e-02 -5.63274249e-02 -1.22864135e-01 +7.50264466e-01 -1.62104011e-01 +7.49760168e-03 -1.96953535e-01 -1.76460054e-02 -9.01711658e-02 -5.15409186e-02 -3.78902406e-01 -2.99386382e-02 -3.82868946e-02 -3.48310381e-01 +1.13106929e-02 -4.25877348e-02 -6.98438883e-02 -5.96171916e-02 +7.38519907e-01 -7.03198984e-02 -9.55350846e-02 -5.11167645e-01 +2.59007812e-01 -1.71273202e-01 +6.89017447e-03 +2.61412859e-01 -3.56623918e-01 -5.63285220e-03 -1.77696347e-01 +1.10207661e-03 -2.31185451e-01 +1.59115233e-02 -6.47523478e-02 -4.62283678e-02 -1.47381470e-01 -6.00288101e-02 -1.05869755e-01 +6.17044866e-01 -2.71815974e-02 -8.33436623e-02 -7.41949156e-02 -1.97323840e-02 -6.54330701e-02 -2.69540757e-01 -9.43654031e-03 -4.85839918e-02 -6.03820756e-02 -6.68339655e-02 -2.22621765e-02 -1.94700658e-02 -2.55783126e-02 -3.96696061e-01 -2.55695879e-02 -4.50116873e-01 -2.44321302e-02 -1.16490789e-01 -1.06624193e-01 -3.87282968e-02 -2.63163727e-02 -9.33978520e-03 -1.18690677e-01 -6.62263781e-02 -2.23301910e-02 -3.14839967e-02 -3.52671117e-01 -1.14681467e-01 -4.44198474e-02 -5.09876907e-02 +7.82082826e-02 -1.96238667e-01 -2.63208210e-01 -2.55790669e-02 +2.38957792e-03 -1.58754036e-01 -5.11113524e-01 -1.25186041e-01 -9.37994868e-02 -2.06703506e-02 -6.05739318e-02 -2.33316973e-01 -1.64493881e-02 -1.62133232e-01 -6.53387755e-02 +2.00870499e-01 -2.63164908e-01 -2.08116937e-02 -1.03171192e-01 -1.26679093e-01 -3.56090702e-02 -2.85076290e-01 +4.16882709e-02 -7.62341991e-02 +9.84397437e-03 -1.07264158e-03 +8.51518288e-03 +3.43469763e-03 +2.19803944e-01 -4.66414429e-02 -7.94955045e-02 -2.85957873e-01 +6.01486256e-03 -1.08900763e-01 -3.23582776e-02 +4.95549776e-02 -1.07450128e-01 -1.95319101e-01 +6.50000200e-02 -2.02176906e-03 -8.29550251e-02 -5.46055008e-03 +2.62817275e-02 -4.15485650e-02 -1.46188475e-02 -3.89952809e-02 -4.73702028e-02 +1.89244561e-02 -2.04858016e-02 -7.79189449e-03 -2.87581291e-02 +2.53215525e-02 +2.22554635e-02 +2.81313695e-02 +1.34452423e-02 -5.08890077e-02 -1.19907539e-02 -6.62629446e-03 +2.13409625e-02 +1.75130796e-02 +3.19040753e-02 -7.00068835e-04 +4.25290838e-02 +2.04341579e-02 +1.09530753e-02 -1.00931935e-02 -2.04292871e-02 -6.93371613e-03 +7.78977126e-02 -2.37206873e-02 -1.10501833e-01 +3.25745419e-02 -1.79901291e-02 -8.88267718e-03 -1.05686253e-02 -3.83066833e-02 -3.28567885e-02 -5.89784384e-02 -1.29554495e-01 +7.64307603e-02 -1.59491450e-01 -7.07733631e-01 -5.88918179e-02 -6.99910372e-02 +1.61904208e-02 +3.91067825e-02 -1.45241627e-02 -8.53582695e-02 -6.52680099e-02 -3.00552905e-01 -3.92137736e-04 -7.64005631e-03 -1.07791945e-01 -5.96264243e-01 -6.67156950e-02 -1.56567506e-02 -6.52288049e-02 -2.25874949e-02 -8.49975944e-02 +1.58665900e-03 +2.71769334e-02 -1.06933182e-02 +3.33560333e-02 -4.79838252e-02 +1.93518400e-02 +6.63126186e-02 -7.98135772e-02 -1.25065586e-02 -1.43839000e-02 +9.71378386e-03 -1.35871366e-01 +4.88743838e-03 -3.68431630e-03 +4.19127420e-02 -6.59888089e-02 -4.07633334e-02 +2.44061146e-02 -3.56716625e-02 -1.46870255e-01 -3.25607583e-02 -6.94730729e-02 -7.23686069e-02 -2.09304824e-01 -1.50446758e-01 -1.23983890e-01 -1.82113916e-01 -1.30821675e-01 -9.76960808e-02 -2.11468726e-01 -1.85172901e-01 -8.50912109e-02 -1.11185893e-01 -1.11217499e-01 -1.40173286e-01 -1.09827615e-01 -7.38020614e-02 -1.23980820e-01 -8.63272548e-02 -1.77018061e-01 -2.05309674e-01 -1.11501738e-01 -1.11943841e-01 -2.87988424e-01 -1.19090438e-01 -8.33465680e-02 -1.04637183e-01 -1.02962732e-01 -8.14929530e-02 -1.20866492e-01 -8.56564417e-02 -1.22817457e-01 -3.36717069e-01 -1.37020305e-01 -1.81393594e-01 -2.15236112e-01 -9.83128250e-02 -2.33614713e-01 -1.58390984e-01 -1.29726484e-01 -1.18166968e-01 -1.15933605e-01 -1.89218774e-01 -3.29052269e-01 -2.37481147e-01 -1.22818656e-01 -7.63482600e-02 -1.02611914e-01 -8.69100988e-02 -2.22292393e-01 -1.18757278e-01 -7.45985061e-02 -1.28150657e-01 -1.55180678e-01 -9.98664126e-02 -1.38227463e-01 -9.42520350e-02 -4.87621456e-01 -8.69249552e-02 -1.09769300e-01 -4.86751311e-02 -7.23354593e-02 -5.04205339e-02 -1.14945434e-01 -1.54608831e-01 -7.24127665e-02 -1.58345550e-01 -1.51100606e-01 -8.02142322e-02 -1.18599810e-01 -1.02359951e-01 -1.85969666e-01 -1.09065682e-01 -1.81124121e-01 -7.27176517e-02 -9.98275951e-02 -1.58110902e-01 -6.98839277e-02 -1.78848237e-01 -1.10483579e-01 -6.69338182e-02 -1.02500804e-01 -9.61709470e-02 -1.79157287e-01 -9.79247168e-02 -3.06699783e-01 -1.23196438e-01 -9.05559659e-02 -1.05129749e-01 -1.11946456e-01 -1.25319958e-01 -1.14615321e-01 -1.88549519e-01 -1.97033286e-01 -2.09578246e-01 -6.12825789e-02 -1.10018402e-01 -1.76096529e-01 -1.24686569e-01 -1.08276024e-01 -8.38715285e-02 -1.02824345e-01 -6.85903132e-02 -2.14669555e-01 +4.39650714e-02 +4.07977700e-02 +1.13921195e-01 -4.27503809e-02 -1.61079690e-01 -1.61500320e-01 -1.94198024e-02 +7.11431354e-02 -9.48505402e-02 -1.31581351e-02 -2.88306735e-02 -3.13391238e-02 +3.17478739e-02 +5.25084995e-02 +2.67067045e-01 -1.07705079e-01 -1.47327825e-01 +3.59445182e-03 +8.38173628e-02 -3.45149219e-01 -1.18520670e-02 +2.40274891e-01 +5.05517796e-03 -2.78157350e-02 -3.86220008e-01 +8.80028307e-02 +1.25460336e-02 +5.03885001e-03 -2.68803313e-02 -5.35207801e-02 +3.79270554e-01 -1.25901729e-01 +7.66042992e-02 -3.69492441e-01 +2.44908873e-02 +1.39391005e-01 +1.00233681e-01 +3.94155011e-02 -1.83563866e-02 -2.24347547e-01 +2.49445215e-02 +9.66840237e-02 +8.57568607e-02 +3.54587729e-03 +7.47578442e-02 -9.90159735e-02 -2.87191812e-02 +1.83274634e-02 +6.33881688e-02 -4.73470986e-02 +2.95938700e-02 -1.33631956e-02 -6.40766248e-02 -1.31630152e-01 +6.46107420e-02 +1.56628072e-01 -1.60517823e-02 -9.22439322e-02 +7.68897161e-02 +1.82586059e-01 -9.35067385e-02 +5.60585976e-01 -4.43068333e-02 -2.62098201e-02 -9.11247954e-02 -4.97299097e-02 +9.89937931e-02 -3.56468582e-03 +1.00895867e-01 -2.33965591e-02 -1.25670522e-01 -5.56017831e-02 +7.72731528e-02 -9.69079062e-02 -1.40448781e-02 +4.37991954e-02 +5.14569044e-01 -3.83169889e-01 -2.98913736e-02 -1.59561038e-01 +2.41752639e-01 -3.02493095e-01 +1.96335852e-01 -2.43431125e-02 -4.28557070e-03 -3.86342593e-02 -6.67682439e-02 -7.35295862e-02 +4.16560173e-01 -6.46289065e-02 +3.01924497e-01 +8.15162212e-02 -7.24594742e-02 -1.73422828e-01 -8.36727209e-03 +1.70935422e-01 +2.31333539e-01 +2.90203821e-02 -3.13214064e-01 +4.77736779e-02 +1.40171517e-02 -1.03814527e-01 -3.08915563e-02 +5.20712659e-02 -1.66816227e-02 -2.07542069e-03 -8.87725223e-03 +1.11853346e-01 +9.69776809e-02 +8.93683657e-02 -2.81846471e-04 +3.22297844e-03 +5.80443144e-01 +1.67677067e-02 +4.22302168e-03 -5.32515533e-03 -1.61854327e-02 +1.35913745e-01 +1.15213633e-01 +4.15017456e-03 +1.00926794e-02 -2.62536248e-03 +4.29843187e-01 +4.36650552e-02 -2.74606019e-01 +6.66013137e-02 -5.64779490e-02 +5.48360229e-01 -1.23048713e-02 +4.38444950e-02 -8.38128567e-01 +7.98259526e-02 +1.41159862e-01 -5.81996096e-03 +1.01013280e-01 +1.74062371e-01 +4.88820393e-03 -5.71992993e-03 -5.77485794e-03 -8.13842639e-02 -2.99369190e-02 -3.05362046e-02 +1.47972163e-02 +1.65632546e-01 +5.69998799e-03 +4.80250083e-02 +6.94062188e-02 +1.75649766e-02 -3.98180395e-01 +2.86831819e-02 -9.45530646e-03 -1.50948226e-01 +3.11004631e-02 +9.87292305e-02 +3.29672582e-02 +9.52992309e-03 -2.16717452e-01 +3.59899879e-01 +4.70253965e-03 -3.90327349e-03 +3.73426564e-02 -9.90175083e-02 -5.65873265e-01 -4.65327920e-03 +9.24940556e-02 +8.13637078e-02 -7.36394599e-02 -1.01752505e-02 -4.44846135e-03 +4.11237665e-02 +8.49747285e-02 +8.45767111e-02 +1.92914959e-02 +8.14756379e-02 -2.15443335e-02 +1.18528036e-02 +2.94291787e-02 +8.05115514e-03 -1.84797570e-02 +1.39108092e-01 -1.34178074e-02 -3.09504922e-02 +1.17375180e-01 +1.41904429e-01 +2.46094298e-02 +1.02227135e-02 -6.22154353e-03 +1.15128909e-03 +5.73712885e-01 +5.74511960e-02 -5.24284914e-02 +2.29088832e-02 +1.14096012e-02 -3.79235536e-01 +4.73804474e-02 +1.48007810e-01 +1.81695908e-01 +5.42146489e-02 +2.55243275e-02 +1.03413910e-02 +1.23011753e-01 +3.61346304e-02 +1.10998943e-01 +1.34488314e-01 +4.62442897e-02 +6.82935491e-02 +1.44442037e-01 +2.56614052e-02 +8.88248533e-02 -3.69673520e-02 +6.67964071e-02 +7.35667273e-02 -1.29975080e-01 +2.31331140e-02 +5.56586869e-02 +6.60631731e-02 +7.40407109e-02 +1.05044521e-01 +5.90897212e-03 +9.26405378e-03 +6.57084137e-02 -5.68155795e-02 -4.34146589e-03 +4.96523678e-02 +3.86927612e-02 +6.87182471e-02 -7.07430318e-02 +1.62650160e-02 +1.07269704e-01 -3.14219862e-01 +2.77326614e-01 +1.30512521e-01 +1.36157051e-01 -1.78654457e-03 -1.90049373e-02 +4.15376909e-02 +8.07432905e-02 +9.01921093e-02 -7.04941899e-02 +1.02176024e-02 -2.46123835e-01 -5.39783120e-01 -3.57189178e-01 -1.10574268e-01 +8.90558437e-02 +1.84209406e-01 +1.45901710e-01 +3.24222445e-02 +2.07064137e-01 +9.73484665e-02 -6.24649748e-02 +1.66779198e-02 +3.80388089e-02 +5.06610349e-02 -3.53585988e-01 -4.03171480e-01 -1.84278667e-01 +3.94629538e-02 -1.13142366e-02 +1.96414012e-02 +8.25461298e-02 +1.59597307e-01 -2.79660165e-01 +8.12141523e-02 +9.44748074e-02 +1.46795362e-02 +3.60201411e-02 -2.39153355e-01 -3.82132940e-02 -3.17726970e-01 +9.86133330e-03 +1.96947474e-02 +1.12068973e-01 +1.49850234e-01 +1.83954209e-01 -4.67050709e-02 +1.50774732e-01 +5.27793914e-02 -1.64333239e-01 +1.16061263e-01 -9.03311968e-02 +4.74601462e-02 +1.78073049e-02 +4.90861610e-02 -1.14414737e-01 +1.11915186e-01 +1.10943601e-01 +5.35248108e-02 -2.13978924e-02 +9.49219167e-02 -3.27836514e-01 -3.55224371e-01 +1.12181954e-01 +7.30329603e-02 +1.97272506e-02 -5.31845167e-02 +9.50976387e-02 +7.94698372e-02 +1.72141846e-02 +4.01667297e-01 +1.51790634e-01 +7.43112415e-02 +1.24167629e-01 +2.04371899e-01 +1.26539767e-01 +2.07803398e-01 +1.90485433e-01 +1.42210752e-01 +1.56346947e-01 +7.13241920e-02 +2.02400729e-01 +2.51230776e-01 +6.54730499e-02 +2.10951254e-01 +6.37260778e-03 +1.02266230e-01 +1.66222170e-01 +6.49183393e-02 +1.88898996e-01 +3.24117422e-01 +2.00566947e-01 +1.45680860e-01 +1.84169993e-01 +1.96587145e-01 +1.04899384e-01 +1.26440629e-01 +1.40468076e-01 +2.29842052e-01 +1.50112912e-01 +1.77583501e-01 +1.60312906e-01 +1.50213018e-01 +1.84093282e-01 +1.84779584e-01 +2.09476829e-01 +2.67102957e-01 +1.87333897e-01 +1.52110219e-01 +1.92073271e-01 +2.92648971e-01 +3.23876292e-01 +2.35950738e-01 +1.25349820e-01 +1.29221499e-01 +2.87592590e-01 +1.54670835e-01 +1.43549308e-01 -2.49122642e-03 +1.30186468e-01 +1.37327880e-01 +1.50309801e-01 +1.40245914e-01 +5.98563105e-02 +4.57589552e-02 +1.21242546e-01 +1.04944803e-01 -4.48503457e-02 +6.09766655e-02 +7.98055008e-02 +1.58547461e-01 +1.53853014e-01 +8.17142650e-02 +3.45314294e-01 +4.94343787e-01 +9.63237435e-02 +1.78659841e-01 +2.01121911e-01 +4.14005518e-01 +1.41612723e-01 +3.39294046e-01 +4.81410697e-02 +1.33918226e-01 +8.42764974e-02 +2.34619275e-01 +4.98469532e-01 +1.39216349e-01 +7.92668611e-02 +1.39442578e-01 +5.02973139e-01 +1.41569629e-01 +2.35893890e-01 +1.67190120e-01 +1.43690631e-01 +2.11932823e-01 +9.56921428e-02 +2.67764747e-01 +1.27109081e-01 +1.57084793e-01 +3.02219763e-02 +1.25078201e-01 +1.15891986e-01 +1.22181036e-01 +1.69329613e-01 +1.99188247e-01 +7.77002499e-02 +2.07358599e-01 +1.95153549e-01 +1.08633921e-01 +3.94482493e-01 -2.51125395e-02 -1.22709312e-02 +1.33244514e-01 +3.76577564e-02 +3.60505679e-03 +6.48767352e-02 +1.74035970e-02 +4.68717851e-02 +1.90534145e-02 +7.41003969e-05 +1.87603310e-01 +4.49811965e-02 +1.33434795e-02 +6.37825906e-01 +5.19265309e-02 +1.14835590e-01 +4.04110216e-02 +2.99817249e-02 +6.10086657e-02 +1.89647041e-02 -4.92327400e-02 +1.43898558e-03 -1.94445908e-01 +2.12759539e-01 -6.49626041e-03 +8.94440889e-01 +1.49308488e-01 +4.96474616e-02 +6.15054779e-02 +3.59115861e-02 +8.15490857e-02 +1.56860203e-02 +9.62431282e-02 -3.93079972e-04 +1.53550208e-01 +1.53607994e-01 +6.10256493e-02 +6.96616113e-01 +4.94403660e-01 -3.26999626e-03 -6.55733934e-03 +4.38852282e-03 +5.70018172e-01 +1.83858965e-02 -9.69224330e-03 +2.59738471e-02 +4.67636734e-02 +7.64134899e-02 +2.23595388e-02 +2.46207952e-03 +8.32580179e-02 -4.91556711e-02 +7.18240216e-02 +2.01301835e-02 -9.19096288e-04 +8.09652433e-02 +1.69495456e-02 +8.89942944e-01 -2.17729524e-01 +3.93812684e-03 +2.11341530e-02 +2.77427305e-02 +8.28323126e-01 +2.14943126e-01 +5.12158632e-01 +3.32062282e-02 +2.82209143e-02 +7.17043951e-02 +1.03213936e-02 +2.60809641e-02 +7.63727492e-03 +4.09717768e-01 -8.76552314e-02 +2.98699737e-02 -2.34490231e-04 +7.31659770e-01 +4.90323044e-02 +4.74798650e-01 +1.77795142e-01 +5.07557727e-02 +2.43478976e-02 +7.37997890e-01 +1.12947583e-01 +1.98397905e-01 +6.84193745e-02 +2.48737093e-02 +2.82891281e-02 +6.63116932e-01 +5.96913062e-02 +2.73835152e-01 +4.23561260e-02 +3.67495013e-05 -3.89523222e-03 +2.48993728e-02 +3.20628136e-02 +5.98778203e-02 +1.28234073e-03 +6.73838317e-01 +6.74991589e-03 +6.40740991e-02 -1.50724193e-02 -2.12104116e-02 -3.33213694e-02 -2.05736309e-02 -1.25673667e-01 -1.81572512e-02 -1.48052284e-02 -7.71749914e-02 -2.30657026e-01 -9.51834843e-02 -7.07390765e-03 -4.74475563e-01 -2.34439909e-01 -1.73827959e-03 -7.95015171e-02 -2.80083995e-02 -1.59193754e-01 -3.02036330e-02 -2.55940616e-01 -3.83251533e-02 -1.29552605e-02 -4.81751747e-02 -9.43404660e-02 -2.42858216e-01 -3.35580409e-02 -2.02222560e-02 -2.56247912e-02 -1.36943106e-02 -3.58788185e-02 -9.21714772e-03 -8.77268985e-02 -3.02701015e-02 -4.63568270e-02 -1.76683813e-02 -3.81876491e-02 -3.29370387e-02 -3.89352888e-02 -8.54217634e-03 -8.62011034e-03 -1.63216829e-01 -1.58414673e-02 -2.36552685e-01 -3.67986760e-03 -3.13942954e-02 -2.74934381e-01 -3.99680436e-02 -5.80089279e-02 -2.09745184e-01 -3.63220870e-02 -1.45979002e-01 -5.22983037e-02 -1.35536939e-01 -9.49139073e-02 -6.32050335e-02 -5.00548668e-02 -1.08042479e-01 -5.39890770e-03 -2.41561811e-02 -1.94999069e-01 -5.86968958e-01 -1.02853514e-01 -1.00699984e-01 -6.20041136e-03 -6.99833184e-02 -1.17044188e-01 -1.28294185e-01 -3.27557065e-02 -5.38893402e-01 -5.16265407e-02 -2.63349265e-02 -6.64295554e-02 -1.27588719e-01 -1.95564348e-02 -4.08981442e-02 -4.58549082e-01 -2.76733981e-03 -1.32963043e-02 -1.14061008e-03 -3.35126594e-02 -1.14829674e-01 -4.54561971e-02 -2.55300134e-01 -3.90886590e-02 -5.13623767e-02 -5.72263896e-02 -6.00908510e-02 -4.93088588e-02 -7.55942101e-03 -5.23009658e-01 -3.17152441e-02 -2.86168028e-02 -1.04220830e-01 -1.68957170e-02 -3.08425687e-02 -1.69761535e-02 -3.70213576e-02 -5.59915483e-01 -3.29489484e-02 -7.65106454e-03 -8.45807493e-02 -2.76425689e-01 +5.55288512e-03 +2.33755894e-02 +2.38104747e-03 +3.83561909e-01 -3.18023772e-03 +1.28738144e-02 +2.43047066e-02 +4.35803384e-02 +2.81659756e-02 +2.99596842e-02 +6.92698034e-03 +3.50262709e-02 +7.03439210e-03 +3.55254747e-02 +2.43958175e-01 -1.15080625e-02 -4.62060189e-03 +3.20109390e-02 +2.91692764e-01 -3.28480512e-01 -1.47041143e-03 +8.89388379e-03 +5.94758764e-02 +6.25140071e-02 +1.18227291e-03 +8.17936286e-03 +7.81892985e-03 +5.43924905e-02 +7.52448337e-03 +9.09585878e-03 +6.93748891e-03 +1.40798837e-01 -1.51031865e-02 +1.13205994e-02 +2.51400638e-02 +2.53934283e-02 +5.00316359e-03 +7.99208973e-03 -9.39083751e-03 -1.20278306e-01 +7.03119263e-02 +1.01449911e-03 +4.88093914e-03 +5.47459424e-02 +1.87845174e-02 +1.31720463e-02 +2.86119491e-01 +4.88954224e-03 +4.22374308e-02 +1.30548514e-02 +7.90544972e-03 -7.05551961e-03 +3.26534398e-02 +1.04962885e-02 +5.43843992e-02 +5.52839134e-04 +1.31643307e-03 +6.80625960e-02 +2.22498295e-03 +2.22157668e-02 +7.00384052e-03 +1.12196442e-03 +1.52437985e-02 +1.73362045e-04 +7.58318324e-03 +3.93127231e-03 +1.83996372e-02 +3.35274287e-03 +2.13693343e-02 +1.54710859e-02 +1.04541192e-02 +5.70750888e-03 +1.93804558e-02 +7.80209573e-03 +1.25006808e-03 +3.31706309e-04 +7.27123755e-04 +1.98522359e-01 +1.29035469e-02 +1.89938620e-02 +4.59018076e-04 +6.00779103e-03 +1.68348588e-02 +1.15094697e-02 +5.62225049e-03 +2.01582853e-02 +1.86766032e-02 +7.83816853e-04 +2.05848310e-02 +1.89200917e-03 +4.02322458e-03 +9.23349895e-03 +2.02312917e-01 +7.99232163e-03 -3.37530929e-03 +1.29201651e-01 +3.54377665e-02 +2.02625268e-03 +4.57154512e-02 -3.87291331e-03 -1.09605908e-01 -1.46563808e-02 -1.56042175e-02 -2.45655533e-02 -8.52037892e-02 -3.99618633e-02 -8.55614394e-02 -9.07378271e-03 -1.90574471e-02 -2.67908841e-01 -3.06061078e-02 -7.73800584e-03 -9.95643213e-02 -1.36354670e-01 -6.80969656e-03 -2.09182203e-02 -4.29377295e-02 -1.83410086e-02 -1.63729805e-02 -4.80607618e-03 -1.80284157e-02 -6.07637227e-01 -5.92386117e-03 -2.90096216e-02 -2.32301336e-02 -6.12108894e-02 -5.73286340e-02 -5.23660369e-02 -2.09009703e-02 -7.98057765e-02 -8.32024403e-03 -1.13891087e-01 -5.18541830e-03 -9.04058851e-03 -1.61431298e-01 -1.67792458e-02 -4.50540990e-01 -1.49702672e-02 -8.04732926e-03 -8.08404200e-03 -8.25019777e-02 -5.97594604e-02 -9.48577933e-03 -1.46602299e-02 -1.36112180e-02 -4.00947295e-02 -9.64112580e-02 -1.08389445e-02 -3.25692672e-04 -1.53373843e-02 -7.79777095e-02 -5.01031876e-02 -3.32264863e-02 -4.34809644e-03 -4.87484857e-02 -4.29775799e-03 -5.05010644e-03 -1.47438492e-03 -2.73264926e-02 -1.71050820e-02 -5.24033606e-02 -5.68359271e-02 -4.09560762e-02 -3.90963316e-01 -6.27959669e-02 -2.27865949e-02 -1.16261691e-02 -1.80990603e-02 -9.03377123e-03 -1.21819668e-01 -2.40344387e-02 -1.08207352e-01 -1.66713521e-02 -3.64045613e-02 -8.27455282e-01 -7.36564025e-02 -5.82401454e-03 -1.41062811e-01 -3.39714810e-02 -2.48318259e-02 -2.83029407e-01 -1.26543403e-01 -5.99194020e-02 -4.07736637e-02 -1.43302476e-03 -3.82196754e-02 -2.76229441e-01 -1.04410443e-02 -4.78202739e-04 -1.02046430e-01 -1.19868526e-02 -8.25274289e-02 -9.12681744e-02 -4.55693156e-03 -1.34293929e-01 -1.05158910e-02 -1.39247905e-03 -4.50008996e-02 -3.82543094e-02 -9.05354992e-02 -1.69622481e-01 +1.90522633e-02 +1.12976737e-01 +1.65433958e-01 +4.77134110e-03 +3.30351532e-01 +1.65114310e-02 +3.08361445e-02 +2.46881470e-02 -7.46585196e-03 +1.66904703e-01 +1.63177177e-02 -6.54098839e-02 +9.63355601e-02 -1.01491828e-02 -9.97515693e-02 -3.87172168e-03 +1.19379467e-04 +2.32790578e-02 -5.18882573e-02 -1.81898654e-01 +3.02557237e-02 +7.05944896e-02 -2.15958267e-01 +1.33524150e-01 -1.19189985e-01 -2.67037768e-02 -7.35184038e-03 -3.79022472e-02 +1.79585759e-02 +2.30575606e-01 +1.60553958e-02 -5.38248643e-02 -3.58690731e-02 +3.00751664e-02 -1.43607147e-02 -6.64082840e-02 -5.93424626e-02 -3.04778479e-02 -2.52973177e-02 +2.69046426e-01 -4.00441401e-02 -8.73501748e-02 +5.00378251e-01 -7.49858618e-02 +5.87019362e-02 -4.09730598e-02 +4.79164481e-01 +5.39868236e-01 -6.74065277e-02 -2.06943396e-02 -6.07327297e-02 -1.42815173e-01 +5.16550422e-01 +2.63018738e-02 -1.47987232e-01 -7.43485019e-02 -1.77099288e-01 +8.00274372e-01 +6.46561682e-02 -1.96787894e-01 -9.69041418e-03 +5.96079566e-02 -1.60994492e-02 +5.22594266e-02 +3.12379636e-02 +9.79414508e-02 -1.36569180e-02 -4.28132759e-03 -1.14812620e-01 -9.14878994e-02 -1.12579308e-01 -3.29541191e-02 +6.49441719e-01 -9.88944154e-03 -7.52338171e-02 -2.67244130e-02 +3.90109420e-02 -3.06228623e-02 +1.24741290e-02 +1.08862609e-01 +1.20757718e-03 +7.03694671e-02 -9.03458148e-03 -9.23589244e-02 -2.39174273e-02 -1.46924062e-02 +1.35413408e-01 -1.88848760e-03 -4.32001539e-02 +7.33066976e-01 -5.71656153e-02 -7.13308454e-02 +1.58432405e-02 -1.49209425e-02 +8.91627893e-02 +1.80572588e-02 -1.67872995e-01 +2.41782665e-01 +1.01473168e-01 -1.66678280e-01 -1.47573635e-01 +4.99893844e-01 +1.11963473e-01 +2.22218353e-02 +2.30237525e-02 +3.56766861e-04 -6.71964197e-04 +8.41776356e-02 -1.96046755e-01 +1.21282853e-01 +1.26839969e-02 +1.78875312e-01 -1.08198067e-02 -3.14680696e-01 -5.33281714e-02 -3.71322818e-02 -3.81190665e-02 +3.59445140e-02 +1.00408830e-01 -2.21184865e-01 -1.72825158e-01 +1.38173208e-01 -2.31779404e-02 -2.90022716e-02 -1.62279740e-01 -4.19959472e-03 +1.03028052e-01 +1.32314861e-01 +1.02084786e-01 +2.51925766e-01 +8.48045796e-02 +2.33449385e-01 -2.61455297e-01 +3.31649780e-02 +1.53020948e-01 -3.86012346e-02 +2.61772066e-01 +6.14386350e-02 +2.98944041e-02 +7.59055652e-03 -1.00902393e-01 -3.40202637e-02 +1.35008126e-01 -4.64553684e-02 +1.26319095e-01 -7.85230752e-03 +1.15286596e-01 +2.21253425e-01 -3.02376151e-02 +9.07563698e-03 -3.52684893e-02 -1.05680242e-01 +2.83167094e-01 -7.00403936e-03 -3.78480643e-01 +1.42464980e-01 +3.79061513e-02 -1.21333096e-02 -1.67678267e-01 -9.35693309e-02 -1.22351207e-01 +2.15104267e-01 -5.34550808e-02 +4.17503715e-02 +1.15508435e-03 +1.60154421e-02 +5.31671941e-02 +4.46238779e-02 +7.02668652e-02 -2.51126260e-01 -6.83972891e-03 +4.25035357e-02 +2.53178924e-01 +4.87874150e-01 +1.10277180e-02 -5.68429902e-02 -8.91874060e-02 -8.05105176e-03 +7.72292539e-02 -4.50472236e-01 +8.99393670e-03 +8.22224393e-02 -3.44029963e-02 +3.19138244e-02 -1.60167161e-02 +2.40705200e-02 +7.47934356e-02 -1.77276239e-01 -4.32328992e-02 +1.83205549e-02 +1.62629768e-01 -1.07117087e-01 +1.77906990e-01 -1.60877462e-02 +6.94764638e-03 +1.19034387e-02 +2.31063962e-01 -6.00529350e-02 +2.85340846e-02 +1.03585469e-02 +1.00682467e-01 -3.46957855e-02 -1.84904411e-02 -1.66649669e-02 -1.64473221e-01 -2.26442534e-02 -3.49444062e-01 -1.08813392e-02 +1.37159759e-02 +5.16741537e-03 -5.09767756e-02 -7.39509314e-02 +1.28923848e-01 +4.21549827e-01 -1.61455199e-02 +1.51944548e-01 +1.16520673e-01 +3.91656369e-01 +2.43732650e-02 +1.13619365e-01 -6.76161144e-03 -9.16806012e-02 +1.41690999e-01 +5.00853583e-02 +2.42289141e-01 +2.37066410e-02 -1.29050225e-01 -8.90985057e-02 +3.25035788e-02 -1.56040847e-01 +6.18776074e-03 +5.28704114e-02 +2.16417775e-01 -7.12463483e-02 -1.71689346e-01 +4.96975593e-02 -2.69751310e-01 -5.82236163e-02 +4.35975567e-02 -2.12459266e-02 +4.19548452e-02 +1.14038259e-01 +9.34146717e-02 +7.41268992e-02 -2.35209838e-02 -2.36163698e-02 +1.15550928e-01 -5.87532744e-02 +5.10072298e-02 +3.84051539e-02 +4.41770814e-02 -1.74141392e-01 +2.07546175e-01 +2.20277975e-03 +2.91602090e-02 +2.79468149e-01 -3.23902704e-02 -4.34576459e-02 -1.11283876e-01 -1.25955626e-01 +8.49577039e-02 -4.80400631e-03 +3.56211424e-01 -6.36728033e-02 -3.68344411e-02 +1.47419363e-01 +1.75454915e-01 +8.22592452e-02 -3.06892283e-02 +2.28871793e-01 +4.88876738e-02 +1.90339964e-02 -8.94112960e-02 -1.75441708e-02 +2.54058037e-02 +1.34976894e-01 -4.63602915e-02 -1.60945743e-01 -2.79455213e-03 +2.69844085e-01 +5.14840707e-02 +2.22410202e-01 -7.87481144e-02 -9.34879389e-03 -2.15856358e-01 +1.52596389e-03 -2.75280494e-02 +5.63024700e-01 +1.13845736e-01 -5.98028526e-02 -3.97219434e-02 +1.03429452e-01 +1.12260599e-02 +8.20189565e-02 +2.18729954e-02 +2.32842583e-02 +5.18542677e-02 +8.95674750e-02 +6.87859207e-03 -2.94581559e-02 +3.57166901e-02 +2.50381287e-02 +4.76914318e-03 +3.70674878e-02 -1.88366231e-02 +2.48589460e-03 -5.80706716e-01 -1.34492228e-02 -9.98231350e-04 -2.25757863e-02 +7.86538959e-01 -3.02365962e-02 -8.47454816e-02 -8.08939636e-02 +4.71397430e-01 +5.45951165e-02 +5.10393381e-02 -2.24689722e-01 +7.28497794e-03 +7.70264026e-03 -1.76674426e-02 -1.15441293e-01 +1.81916375e-02 +5.24726398e-02 -4.24720943e-02 +3.28159928e-02 -8.11111331e-02 -2.79631894e-02 -1.43741425e-02 -3.32026854e-02 -5.01650525e-03 -5.37785701e-02 +1.72613077e-02 -3.37999873e-02 -6.45476654e-02 +2.59251781e-02 -4.74608643e-03 +4.18425258e-03 +3.14413831e-02 -4.04743627e-02 -2.56024674e-02 +1.02877051e-01 -1.04357377e-01 +2.74766207e-01 +9.85829625e-03 +1.03286467e-01 -5.57012344e-03 -4.95917425e-02 -2.29721591e-02 -3.20392996e-02 +1.51103213e-02 -4.62946258e-02 -6.52498752e-02 -7.99595844e-03 -1.38472449e-02 +4.64769127e-03 -7.78313503e-02 -7.01629221e-02 -6.90363199e-02 +2.70185649e-01 -5.59007982e-03 -7.05891401e-02 -3.99434986e-03 -5.96923381e-02 -1.31255314e-01 +3.82559560e-02 +8.03003833e-03 +4.43231910e-02 -5.65644130e-02 -1.04399081e-02 +5.27434424e-03 +2.67709922e-02 -1.16202779e-01 -1.09695736e-02 -3.12328190e-02 +9.81276017e-03 -2.56898900e-04 +1.98668055e-02 +7.31867133e-03 -1.58575196e-02 +2.65300740e-03 -2.23670751e-01 -1.51066974e-01 +5.94305038e-01 +3.81693877e-02 +8.41527339e-03 -3.49340513e-02 +4.88594249e-02 +4.99513969e-02 -2.98151164e-03 +4.00749780e-02 +4.84912191e-03 +2.80469768e-02 +2.62661967e-02 -2.01950997e-01 -6.80139735e-02 -6.16612174e-02 -7.11859614e-02 -2.55789310e-02 -5.53728007e-02 -8.47547781e-03 -6.35597738e-04 -3.09499353e-01 -4.07088101e-02 -1.84806675e-01 -1.38818979e-01 -3.65578644e-02 -2.03728117e-02 -9.51189771e-02 -9.92681365e-04 -9.56340879e-03 -1.10450815e-02 -3.04330736e-02 -5.50104165e-03 -2.09786236e-01 -1.62975788e-02 -1.91368349e-02 -3.69963646e-02 -4.14771549e-02 -4.41825669e-03 -6.23295410e-03 -1.64039340e-02 -8.70340243e-02 -3.45544457e-01 -4.43016179e-02 -9.62617341e-03 -1.63966835e-01 -3.55432555e-02 -8.60847682e-02 -3.36891152e-02 -1.37355685e-01 -7.52686011e-03 -2.86345533e-03 -5.61319105e-02 -3.45495529e-02 -2.80716479e-01 -1.54877966e-02 -4.22968380e-02 -1.95633732e-02 -5.58945797e-02 -9.77828726e-02 -1.91634137e-03 -1.48711219e-01 -2.07930449e-02 -9.62294266e-02 -4.02123630e-01 -2.04117261e-02 -8.45140964e-03 -1.27328150e-02 -1.89694352e-02 -8.94946139e-03 -3.98690611e-01 +8.70190039e-02 -5.88522404e-02 -6.99752755e-03 -7.50608861e-01 -1.12672476e-03 +3.60909887e-02 -3.17121274e-03 -7.86515921e-02 -3.73158604e-01 -5.12987301e-02 +1.40455214e-03 +2.32565366e-02 -6.93265675e-03 -2.13164523e-01 -2.79397797e-03 -1.87471695e-02 -1.45524219e-01 +2.91149109e-03 -1.36989197e-02 -1.44340796e-02 -7.88247734e-02 -1.47451321e-03 -2.40516365e-01 -1.19624948e-02 -1.33226514e-01 -2.32555438e-02 -1.02551796e-01 +1.39509980e-03 -5.12316898e-02 -2.28550479e-01 -3.88791487e-02 -6.91962987e-02 -4.36548702e-02 -3.90585586e-02 +1.88286428e-03 -3.84881832e-02 -5.04126363e-02 -3.55159074e-01 +1.87450238e-02 -1.13714330e-01 -6.81074988e-03 -1.22211119e-02 -1.27115026e-02 -1.02211852e-02 -2.99991621e-03 -3.94635228e-03 +3.12009066e-01 +1.71593726e-01 +2.25078594e-02 +1.64933056e-01 +1.03953630e-01 +1.18540470e-02 +6.00416772e-02 +1.45030946e-01 +3.26091424e-02 +9.39461514e-02 +1.04239307e-01 +1.90321162e-01 +5.39219975e-02 -1.08835466e-01 +5.01455329e-02 +4.77534765e-03 +6.21022806e-02 +2.10423976e-01 +8.85671601e-02 -4.51911129e-02 +3.44727248e-01 +1.31671548e-01 -8.16004351e-02 +3.17494683e-02 +3.86228459e-03 +7.31321648e-02 +1.56188264e-01 -7.03888014e-02 +7.17044324e-02 +3.21336597e-01 -1.92808196e-01 +1.93834260e-01 +2.72443116e-01 +1.32596508e-01 +9.57629085e-02 +4.33716290e-02 -8.00136477e-03 +8.29685628e-02 +6.84971213e-02 -1.12126105e-01 +3.55763525e-01 -4.50727493e-01 -1.81177720e-01 -2.04416201e-01 -4.31123003e-02 +1.59509435e-01 +1.91344470e-01 +1.12827316e-01 +6.27627596e-02 +2.15938434e-01 +1.69553116e-01 -1.55666117e-02 +8.03775713e-02 +2.09876951e-02 +3.97293031e-01 -2.16832340e-01 -1.20541304e-01 -6.10544495e-02 +9.61920246e-02 +1.85172390e-02 +3.04966085e-02 +1.33710265e-01 +1.86588734e-01 -2.32362390e-01 +2.59925455e-01 +6.65474311e-03 -1.69310067e-02 +3.85834253e-03 -3.47869068e-01 -4.58226586e-03 -3.12581956e-01 -3.35079990e-02 +4.98616323e-02 +1.96083695e-01 +2.32186198e-01 +2.83311695e-01 -6.92350930e-03 +1.78215429e-01 +8.14386308e-02 -3.96639884e-01 +1.57733172e-01 -3.62348817e-02 +3.19403112e-01 +4.45563830e-02 +4.01469953e-02 -3.47534940e-02 +1.19800650e-01 +1.22168973e-01 +2.25234419e-01 -1.58085585e-01 +2.39459231e-01 -2.04006851e-01 -2.27489591e-01 +7.40139559e-02 +9.04607251e-02 +5.58003830e-03 -2.10672915e-02 +1.30332604e-01 +9.32515487e-02 +1.02716953e-01 +6.77157864e-02 -9.36984345e-02 -3.69875841e-02 +2.03651175e-01 +4.35646102e-02 -3.04595046e-02 -1.34326536e-02 -9.93681848e-02 -8.03960636e-02 -5.70376292e-02 -9.78685692e-02 +1.29472524e-01 -6.90317452e-02 -1.16383709e-01 -4.36744764e-02 -1.69818997e-01 -4.71589640e-02 +1.83855053e-02 +4.17385064e-02 -3.76530103e-02 -3.60791795e-02 -2.67640427e-02 -2.40176544e-01 +3.88878286e-02 -1.51092745e-03 -5.48393726e-01 +1.09602204e-02 +5.02304845e-02 -5.71990386e-02 +2.78086752e-01 +2.53948402e-02 -5.52046709e-02 -2.33766343e-03 +3.41081172e-01 -1.34632170e-01 -9.51930955e-02 +3.42502003e-03 -1.13305099e-01 +1.71489641e-01 -8.95566717e-02 +4.24303189e-02 -2.85658002e-01 -5.67482293e-01 +1.01262294e-01 +2.23968364e-02 +1.79154322e-01 +7.66648129e-02 -8.21646303e-02 +2.80090451e-01 +1.81213096e-01 +1.67252421e-02 -1.23382628e-01 -5.00612669e-02 -2.81918887e-02 +3.98929298e-01 -3.09305973e-02 -2.44720176e-01 -5.04629850e-01 +5.39074726e-02 +1.21752992e-01 -2.57925615e-02 -4.56654914e-02 -2.68749207e-01 -9.77901816e-02 +2.86853433e-01 +3.70350443e-02 +1.64835393e-01 -3.34770232e-01 -2.97169149e-01 +3.73572893e-02 -2.10820600e-01 +2.76522897e-02 -3.74553427e-02 +4.60372828e-02 +5.95652685e-03 +5.40453851e-01 -2.53291670e-02 +2.16422938e-02 -3.45986158e-01 -2.29984269e-01 +4.37123440e-02 +7.98055902e-02 +3.75634655e-02 -1.34450644e-01 -1.01457641e-01 +2.30871476e-02 -2.78815664e-02 +6.45082146e-02 +1.70084506e-01 -1.85524803e-02 +8.70972592e-03 +2.98499018e-02 +4.80251387e-02 -1.08397447e-01 -1.15132108e-01 +1.21846251e-01 -1.33210599e-01 -2.22400561e-01 +1.42445475e-01 -4.86595631e-01 -3.64320613e-02 -4.11279321e-01 -3.03239189e-02 -1.92627441e-02 -7.46263862e-02 -4.33764681e-02 -8.04966874e-03 -4.38562445e-02 -5.12777921e-03 -4.93607074e-01 -1.45099759e-02 -2.27199513e-02 -1.76600982e-02 +5.29630482e-02 -3.32410149e-02 -4.71489757e-01 -1.56796336e-01 -3.12167704e-02 -1.06622815e-01 -1.04875803e-01 -2.40606051e-02 -1.29509732e-01 +3.46358377e-03 +5.04694367e-03 -2.96154082e-01 +8.20322186e-02 -4.26319204e-02 -4.02919725e-02 -7.01134698e-03 -2.76937569e-03 -1.14029862e-01 -1.60987414e-02 -1.00367159e-01 -1.03435367e-01 -3.29048246e-01 +7.54969311e-04 -4.41637337e-02 +4.57117945e-01 +3.66588421e-02 -4.72960323e-02 -9.40269697e-03 -6.97213458e-03 +4.84991193e-01 -4.28649075e-02 -1.82620034e-01 -5.03217541e-02 -1.90190524e-02 -1.89155921e-01 -6.23150319e-02 -1.71024129e-02 -1.16049558e-01 -2.06434920e-01 -2.31880367e-01 -1.75147191e-01 -7.25750299e-03 -8.11281726e-02 -5.80122113e-01 +4.40022379e-01 -4.54072982e-01 -3.31242532e-02 -2.50664838e-02 -1.03945136e-01 +1.40126005e-01 +1.74005665e-02 +4.86896873e-01 -1.25630796e-01 -2.77461052e-01 -2.65559554e-01 +1.03846349e-01 -2.25936919e-02 -3.04954678e-01 -1.23953216e-01 -3.53818148e-01 -5.59449829e-02 -9.10924209e-05 +2.56082445e-01 -1.54690042e-01 +7.87212104e-02 -1.34921342e-01 -3.03355744e-03 -1.80046000e-02 +5.92513159e-02 -5.69613278e-02 +4.87423502e-02 -7.76369683e-03 -2.75975652e-02 -7.45920930e-03 +1.04666494e-01 -1.80561449e-02 -1.94502637e-01 -1.15647316e-01 -2.02164971e-04 -2.70743191e-01 -3.05349797e-01 -2.22103167e-02 -6.73815534e-02 -1.69339120e-01 +4.97415513e-01 -5.52003801e-01 +1.48206130e-02 -3.55128258e-01 -4.21348540e-03 -2.01324612e-01 -2.15791270e-01 +1.83636546e-02 -3.56498621e-02 -4.18965844e-03 -1.27921253e-02 +2.31904268e-01 -1.49431914e-01 +1.05641717e-02 +1.55537734e-02 +3.45997401e-02 -1.11740958e-02 +2.29980215e-01 +5.27619541e-01 +2.42561959e-02 -6.11285977e-02 -5.76577000e-02 +1.26675457e-01 -4.10973012e-01 -2.17028819e-02 -9.56026614e-02 +8.39853939e-03 +1.03845179e-01 -7.24546760e-02 -1.89462811e-01 -6.14146888e-02 -1.70572307e-02 +8.25080555e-03 +6.24345674e-04 -5.09228297e-02 +3.03786760e-03 -1.90652773e-01 -7.57861808e-02 -4.81893681e-03 -2.13386342e-01 +4.13502641e-02 -4.10263129e-02 -1.54278195e-02 -1.81344151e-01 +2.28987560e-01 -1.77773863e-01 -6.86277747e-02 +9.31011140e-02 -1.37105182e-01 +1.92977842e-02 +8.43847319e-02 -2.36795649e-01 -4.72951028e-03 +5.10786399e-02 -5.04286051e-01 +1.74054631e-03 +2.59119719e-01 +2.64927242e-02 -9.78551572e-04 +1.27867460e-01 -5.54751419e-02 -1.16462722e-01 +2.42590383e-01 -8.30183402e-02 +2.85580643e-02 -8.02969839e-03 -3.38585824e-02 +9.35345050e-03 -5.69112971e-02 -1.86021277e-03 -3.26990634e-02 -4.60911363e-01 -1.56830773e-01 +2.60984357e-02 +4.65594940e-02 -1.33757629e-02 -6.79867715e-02 +4.13840145e-01 +2.18148530e-02 -2.92721480e-01 -2.05525979e-02 -3.06099164e-03 +2.12416537e-02 +6.20741472e-02 +4.34146821e-02 -1.80496331e-02 +2.86634285e-02 +1.29122630e-01 -2.22602095e-02 +3.64566199e-03 +5.44001013e-02 +5.84976114e-02 +7.83334792e-01 -4.50989828e-02 +4.28774431e-02 -5.65783400e-03 +2.42660102e-02 +2.48874817e-02 -2.54552364e-01 -2.24463455e-02 +8.18082970e-03 -1.33065388e-01 +4.33159582e-02 -9.06710327e-03 +3.09779961e-03 -2.89547555e-02 -4.67910916e-02 -1.24509655e-01 -3.37142199e-02 -6.41506538e-02 -3.62899192e-02 +4.69534434e-02 -2.75550485e-02 +2.07463931e-02 -5.96986175e-01 -1.32706076e-01 -1.72955673e-02 -7.86733814e-03 +1.91961210e-02 -3.11090983e-02 -3.78914028e-02 -2.07064603e-03 -3.62535985e-03 -7.15904683e-03 +6.15888694e-03 +2.23103408e-02 +6.51716515e-02 +3.16473306e-03 -1.06741311e-02 +7.10759778e-03 -4.03806977e-02 +1.66557990e-02 -1.29312146e-02 -4.95847538e-02 -1.17306612e-01 -4.33398709e-02 -3.68213025e-03 +1.42451040e-02 -1.45891225e-02 -1.89777371e-02 -3.24741635e-03 -1.43575587e-03 -1.46440212e-02 -8.89952574e-03 +2.48024501e-02 -3.61540425e-03 -1.85583495e-02 -5.94620965e-03 +7.04491278e-03 -6.12747297e-02 -3.73015292e-02 -2.89056301e-02 -5.76858938e-01 +1.54760946e-02 +1.88388359e-02 +1.65765686e-03 +2.01902855e-02 -6.38338504e-03 +5.51868044e-03 +3.76628749e-02 -1.27308303e-02 +4.14961129e-02 -7.92805180e-02 +3.36532369e-02 +2.54206304e-02 -2.58771834e-05 -2.39343598e-01 +1.11334696e-02 -2.66693160e-02 +3.26434895e-02 -1.63184509e-01 -1.11456471e-03 -2.13333163e-02 -6.91601960e-03 +7.96614662e-02 +1.48667656e-02 -1.55416513e-02 -4.28569391e-02 -1.73169412e-02 -7.97586422e-03 -4.06555308e-04 -6.46687523e-02 +1.95546169e-03 -1.51069285e-02 +2.40918901e-02 -1.21683059e-02 -8.63796473e-02 +5.09866141e-02 -6.54195156e-03 -1.69298779e-02 -1.28704421e-02 -3.34890276e-01 +3.35557088e-05 -5.98148489e-03 -1.03750929e-01 +2.03520842e-02 +4.05828357e-02 -1.24435425e-01 -1.17058791e-02 +8.58379751e-02 +1.75521767e-03 -8.56231272e-05 +2.60082930e-02 -7.08564892e-02 -3.06867808e-02 +2.53779553e-02 -8.08192976e-03 +3.20920087e-02 -5.10008074e-03 -4.01982851e-02 +9.91446003e-02 +2.43832842e-01 -7.58759230e-02 +7.81887323e-02 +2.88226996e-02 +1.20396761e-03 +1.07963271e-02 +2.38080561e-01 +2.96020627e-01 +3.22290249e-02 -2.29426417e-02 +1.22734979e-01 +1.93373919e-01 -4.50448394e-02 -2.25262530e-02 +7.19335005e-02 +2.00636834e-01 -5.50559685e-02 -2.42422279e-02 +7.83642232e-02 -1.74104851e-02 +1.22245327e-01 +4.73690107e-02 -5.56950495e-02 +5.10132797e-02 +5.15048318e-02 +7.51657039e-02 -2.07438208e-02 +4.65429835e-02 +2.16940016e-01 -4.17302847e-02 +5.25427908e-02 -6.47862777e-02 -2.22781096e-02 -2.12318629e-01 -1.83103103e-02 +6.68520154e-03 +8.62862077e-03 +3.01095992e-02 -1.53442156e-02 +3.21157724e-02 -5.05813025e-03 -5.37456907e-02 +3.66379172e-02 +1.55558875e-02 +3.69325862e-03 +6.89802738e-03 +4.29570228e-02 +3.51366773e-02 +1.76162627e-02 +5.54582365e-02 +3.49871479e-02 +2.75642052e-02 +2.15348214e-01 +8.87856707e-02 -1.05385238e-03 -3.02351285e-02 -1.28745332e-01 +7.99027160e-02 +9.05838385e-02 -3.20471376e-02 -1.11115083e-01 +3.62069793e-02 -1.87401652e-01 -4.07472514e-02 +3.01134516e-03 +2.07258109e-02 -3.15037929e-02 +1.02532044e-01 +1.13727618e-02 +1.87519547e-02 -1.60077326e-02 -9.94654000e-02 +1.28676072e-01 +8.16795453e-02 -1.75797045e-02 +8.70760754e-02 +6.55842572e-02 -7.79095711e-03 +4.53633517e-02 +6.94004670e-02 +1.92746110e-02 +3.01342517e-01 -2.53799511e-03 -8.64512287e-03 -5.60726523e-02 -5.46398759e-02 +2.35142559e-02 +3.95614700e-03 +1.45579219e-01 +1.41954497e-01 +7.02582896e-02 +3.24742198e-02 -5.99896163e-02 -4.52982932e-02 -2.81988997e-02 +1.32188322e-02 -1.76373776e-02 -1.32467272e-02 +2.52886079e-02 -9.26188473e-03 -1.09536061e-02 -9.47728530e-02 -1.48201799e-02 -4.05811518e-02 -5.10350391e-02 +4.44793761e-01 -3.15331258e-02 -1.36889257e-02 -3.03497408e-02 -1.05022211e-02 -7.53168240e-02 -3.70144635e-03 -4.64984439e-02 -1.01198979e-01 -2.29734946e-02 -2.27311730e-01 +9.62169189e-03 -2.44681258e-02 -7.64290523e-03 -2.54042894e-02 +5.94700277e-01 -7.13147502e-03 -3.39077674e-02 +6.85925245e-01 +1.39419250e-02 -6.37807786e-01 -8.80514272e-03 -4.28927168e-02 -6.87651515e-01 -4.74962927e-02 -1.45475954e-01 -5.17794210e-03 -1.67820361e-02 -1.28791053e-02 -1.98148135e-02 -4.80407923e-02 -1.10423183e-02 -3.12700830e-02 +2.42036842e-02 -6.51609851e-03 -5.54346070e-02 +4.20545638e-01 -5.25461696e-02 -1.37883611e-02 -3.86939314e-03 +1.81925595e-02 -5.06350100e-02 -5.01725934e-02 -1.89694520e-02 -9.62642282e-02 -2.32447371e-01 -7.13445842e-02 -2.14751661e-02 -6.89389184e-02 -3.41553167e-02 +3.55609357e-01 -1.96408369e-02 -4.49305087e-01 -4.55269702e-02 -8.21556896e-02 -1.25212651e-02 -3.17760371e-02 -2.41653714e-02 -8.51645768e-02 +4.13934933e-03 -3.69042791e-02 +3.02810729e-01 -5.93123995e-02 -2.14505680e-02 -1.51430443e-01 -5.47595415e-03 -5.48428968e-02 +1.91057920e-02 -5.07792458e-02 -2.64056071e-05 +1.13069057e-01 +1.80681184e-01 -4.87434790e-02 -5.60202226e-02 -6.77977921e-04 -2.29118839e-02 -1.42887995e-01 +2.04478367e-03 -4.49572429e-02 -7.31495917e-02 -5.11144213e-02 +3.75995994e-01 -1.26866307e-02 -1.66139305e-01 -8.19878727e-02 -1.25781611e-01 -3.95137332e-02 +6.39720857e-01 +2.60803014e-01 -1.42467832e-02 +1.32935554e-01 +9.63780880e-02 -1.96318720e-02 +3.51799279e-02 +2.05373615e-01 +7.91066363e-02 +1.28627762e-01 +1.83981687e-01 +1.82615399e-01 +1.07990943e-01 -1.74238056e-01 +9.79450867e-02 -4.18658927e-02 +9.76522341e-02 +3.66614163e-01 +2.18021676e-01 -1.60586461e-02 +6.81907475e-01 +1.53286964e-01 -8.71044993e-02 +8.40592235e-02 +6.61850721e-02 -8.00956562e-02 +2.61350721e-01 -9.34699774e-02 +1.58618569e-01 +3.71071368e-01 -1.86899573e-01 +1.28545344e-01 +4.61090922e-01 +1.24184795e-01 +2.28465736e-01 +1.19829006e-01 +4.38998900e-02 +1.47401199e-01 +1.19040981e-01 -6.62139133e-02 +7.37373769e-01 -1.77318797e-01 -2.03027248e-01 -1.66880801e-01 +2.06631441e-02 +1.94979429e-01 +3.09939891e-01 +1.31544232e-01 -1.56924296e-02 +1.94392025e-01 +2.80575842e-01 -4.22459580e-02 +1.64619237e-01 +3.95955928e-02 +7.44593918e-01 -2.05600619e-01 -2.43169874e-01 -5.96140921e-02 +1.81443691e-01 -1.12328745e-01 +4.67657000e-02 +1.85014814e-01 +4.85654958e-02 -1.58847854e-01 +4.09776092e-01 -1.65866204e-02 -2.57096509e-03 -1.07141435e-02 -2.09664777e-01 -1.23728011e-02 -2.30671898e-01 -5.20903803e-02 +1.03333496e-01 +2.88191557e-01 +4.51831698e-01 +3.78629327e-01 +4.91700731e-02 +4.68087271e-02 -2.97162514e-02 -1.93863362e-01 +2.93989599e-01 -1.61269784e-01 +5.52659392e-01 +4.63825203e-02 +1.13774024e-01 +3.38659324e-02 +1.91453338e-01 +1.89018428e-01 +2.65147716e-01 -1.74538374e-01 +4.26560670e-01 -1.05894022e-01 -2.94285029e-01 +1.00214712e-01 +1.78593442e-01 +5.87369017e-02 +7.07300231e-02 +5.11018001e-02 +4.71666045e-02 -5.28614502e-03 +2.27289111e-03 -1.66931212e-01 +5.66000044e-02 -2.00080958e-05 -1.58784106e-01 -5.13341045e-03 -2.07421064e-01 -1.21022545e-01 -8.63960944e-03 -2.35437632e-01 -3.77975702e-02 -6.99679255e-02 -1.39319301e-02 +2.57586598e-01 -1.01564847e-01 -3.01601440e-02 -3.70155387e-02 +1.45258512e-02 +6.41793758e-02 -1.69432163e-02 -1.40756471e-02 -1.05484605e-01 +1.26422020e-02 -1.15518980e-02 -2.14959815e-01 +4.84014116e-03 +1.01059768e-03 +1.14879319e-02 +4.87363376e-02 -4.64882217e-02 -1.19259305e-01 -6.76639676e-02 +3.19382772e-02 -5.77263646e-02 +2.98521779e-02 -6.24323301e-02 +1.15163021e-01 +5.85264787e-02 +2.65438676e-01 +5.78334816e-02 -8.34608730e-03 +5.34256883e-02 -6.03571476e-04 +1.53213656e-02 -1.22991055e-01 +3.01605165e-01 -8.56376067e-02 +3.45876701e-02 -1.34545530e-03 -1.41866356e-01 -5.50807267e-02 +2.45394511e-03 -2.45929062e-02 -4.11007274e-03 -2.08222657e-01 +1.30073456e-02 -4.57817912e-02 +5.78551441e-02 -1.57944456e-01 -5.84726930e-02 +3.36709805e-02 -5.06196991e-02 +6.92216530e-02 +3.79977450e-02 -4.53423858e-02 -8.52581486e-02 -6.04248457e-02 -5.20800278e-02 +5.06625231e-03 +2.57284008e-02 -3.31574321e-01 -3.64302774e-03 -2.77396441e-01 +2.32251547e-02 -4.02770966e-01 -1.31003768e-03 -1.64340604e-02 +1.81284957e-02 -1.07053723e-02 +6.33714914e-01 +1.09415769e-03 -1.35123460e-02 +5.40383044e-04 -1.15255490e-02 +2.29334105e-02 -5.84312864e-02 +6.39883399e-01 +1.07727632e-01 -2.63524204e-02 -7.02064019e-04 -8.10243636e-02 -1.81582704e-01 -3.87333184e-01 -3.06960437e-02 +1.97723508e-02 +1.11583015e-03 -3.03481910e-02 +3.16943675e-02 -7.59800076e-02 -2.08244678e-02 +5.40534258e-01 +3.53851467e-01 +2.61225373e-01 +2.52798438e-01 +4.00218874e-01 +2.20522687e-01 +3.11448723e-01 +3.08321476e-01 +3.10549587e-01 +3.55576426e-01 +2.85412490e-01 +2.96722442e-01 +3.04268152e-01 +1.52678549e-01 +3.10653210e-01 +1.90293744e-01 +2.70123154e-01 +3.14666688e-01 +3.73579115e-01 +2.19255358e-01 +4.98277724e-01 +3.57684374e-01 +2.58120894e-01 +2.79771775e-01 +3.88083547e-01 +2.11310729e-01 +3.00197005e-01 +1.70791924e-01 +2.42743328e-01 +4.57290351e-01 +2.25759059e-01 +4.20446008e-01 +3.68302196e-01 +3.13477993e-01 +1.84823930e-01 +3.10211509e-01 +2.45965615e-01 +3.10162276e-01 +3.32422286e-01 +9.68884751e-02 +4.44043636e-01 +2.45351121e-01 +1.44527793e-01 +1.41875282e-01 +2.59484828e-01 +3.96696985e-01 