#Parameter# /Linear.99fb15e0/_0 {55,512} 450561 ZERO_GRAD
-3.80501002e-02 -7.67774805e-02 +3.10323089e-02 -7.26515353e-02 -3.80493961e-02 -3.80493477e-02 -3.80498618e-02 -3.80501598e-02 -3.80487218e-02 -1.08384639e-01 +5.77118695e-02 -3.80474143e-02 +2.65659124e-01 -1.71953037e-01 -3.80497053e-02 -3.80486697e-02 -3.80469449e-02 -3.80492359e-02 -6.86931983e-02 -1.65271685e-01 +1.11458413e-01 -5.78083657e-02 -3.80494855e-02 -3.80502939e-02 -3.80507074e-02 -5.48536815e-02 -1.90814957e-01 -2.51611024e-01 +1.43971980e-01 -8.12637806e-02 -3.80472280e-02 +8.25472102e-02 -3.80458608e-02 -3.80505249e-02 -3.80473919e-02 -3.80486995e-02 -6.51149591e-03 -9.01446119e-02 -2.41429657e-01 -2.22876251e-01 -1.16247550e-01 +3.00252706e-01 -3.80483046e-02 -3.80493477e-02 -3.80467810e-02 -3.80509794e-02 -7.00188056e-02 -9.54998732e-02 -1.83211192e-01 +1.53027773e-01 -3.80484834e-02 -1.44904971e-01 -3.80474813e-02 +9.43932161e-02 -3.80453244e-02 -1.74800277e-01 -1.87016636e-01 +6.99843317e-02 +1.78131666e-02 -1.74800977e-01 -1.74801037e-01 -1.74800485e-01 -1.74800187e-01 -1.74801648e-01 -1.39596522e-01 +5.24800569e-02 -1.74803153e-01 +8.05170536e-02 -1.95889458e-01 -1.74800649e-01 -1.74801707e-01 -1.74803466e-01 -1.74801111e-01 -5.64144067e-02 -7.97492266e-02 -1.16303600e-01 -6.30513132e-02 -1.74800903e-01 -1.74800038e-01 -1.74799725e-01 -1.51319787e-01 -1.17134735e-01 -3.53688598e-02 -3.86241172e-03 -5.81700988e-02 -1.74803302e-01 -1.82710230e-01 -1.74804434e-01 -1.74799919e-01 -1.74803182e-01 -1.74801648e-01 -6.17284812e-02 -3.20933342e-01 +1.50023788e-01 +8.63334015e-02 +3.34628850e-01 +8.09500664e-02 -1.74802139e-01 -1.74801067e-01 -1.74803630e-01 -1.74799472e-01 -6.91073164e-02 -1.86385103e-02 -1.28033876e-01 -5.06743509e-03 -1.74801916e-01 -1.05184533e-01 -1.74803019e-01 -2.30651200e-01 -1.74805015e-01 +1.01250768e-01 -6.52065277e-02 -1.52812213e-01 +5.14041036e-02 +1.01251878e-01 +1.01251960e-01 +1.01251118e-01 +1.01250634e-01 +1.01252981e-01 +2.02469423e-01 +8.86031426e-03 +1.01255082e-01 +2.55961686e-01 -9.91936699e-02 +1.01251379e-01 +1.01253055e-01 +1.01255752e-01 +1.01252124e-01 +1.50778502e-01 +1.17505407e-02 +1.80997238e-01 -7.13348091e-02 +1.01251751e-01 +1.01250462e-01 +1.01249941e-01 +1.06352426e-01 +1.18623026e-01 -2.07308233e-01 +3.39986086e-02 +1.39266014e-01 +1.01255395e-01 -2.64882799e-02 +1.01257481e-01 +1.01250164e-01 +1.01255126e-01 +1.01252995e-01 -3.95879708e-02 +8.28925297e-02 +2.18200013e-02 -4.39847298e-02 -1.00248531e-01 -8.03762302e-02 +1.01253636e-01 +1.01251990e-01 +1.01256028e-01 +1.01249509e-01 -2.76019629e-02 +6.93589225e-02 +4.91819754e-02 +7.43082941e-01 +1.01253323e-01 +6.03109300e-02 +1.01255000e-01 +1.27237216e-01 +1.01258375e-01 +4.15189490e-02 +7.27480091e-03 +1.26431864e-02 +2.09404618e-01 +4.15190980e-02 +4.15191166e-02 +4.15189601e-02 +4.15189192e-02 +4.15192805e-02 -6.97466880e-02 -4.48008627e-02 +4.15194593e-02 +8.55452642e-02 +2.10151836e-01 +4.15190049e-02 +4.15192842e-02 +4.15195413e-02 +4.15191539e-02 +1.21120952e-01 +7.25978985e-02 -1.35277454e-02 -1.04866847e-01 +4.15190905e-02 +4.15189117e-02 +4.15188447e-02 +5.30139990e-02 +1.07904620e-01 -2.57367074e-01 -5.77446073e-04 -2.07662955e-01 +4.15194817e-02 -3.54342699e-01 +4.15197760e-02 +4.15188521e-02 +4.15194742e-02 +4.15192731e-02 +9.71192047e-02 -1.15315191e-01 -4.00686488e-02 +3.08602490e-02 -4.07645479e-02 +2.31334865e-01 +4.15193476e-02 +4.15191241e-02 +4.15195860e-02 +4.15187851e-02 -2.07232200e-02 +1.90118700e-01 +6.34852275e-02 -3.20309848e-01 +4.15193290e-02 +5.76678738e-02 +4.15194519e-02 -1.78801976e-02 +4.15199474e-02 -1.72830559e-02 +3.91119197e-02 +4.81664501e-02 +2.53288031e-01 -1.72838829e-02 -1.72839314e-02 -1.72833372e-02 -1.72829386e-02 -1.72846410e-02 -1.99606329e-01 +7.38694072e-02 -1.72862839e-02 -7.08330199e-02 +1.33498907e-01 -1.72834899e-02 -1.72846913e-02 -1.72868241e-02 -1.72840487e-02 +1.37642384e-01 -3.34378660e-01 +1.26132984e-02 +1.22800425e-01 -1.72837637e-02 -1.72828026e-02 -1.72823612e-02 -2.46289019e-02 -9.57133025e-02 -2.01589882e-01 +3.83805633e-02 -9.98375863e-02 -1.72865056e-02 +7.58889457e-03 -1.72881242e-02 -1.72825661e-02 -1.72863286e-02 -1.72846522e-02 +1.68288708e-01 +1.22866534e-01 -3.14503163e-02 -8.06286111e-02 -7.37972260e-02 -2.63172418e-01 -1.72851291e-02 -1.72839649e-02 -1.72870476e-02 -1.72820799e-02 -1.22726887e-01 -5.62762246e-02 +7.16557875e-02 -2.22598478e-01 -1.72849037e-02 -4.92424667e-02 -1.72862131e-02 +5.67873046e-02 -1.72887500e-02 +2.46997215e-02 +6.11548945e-02 +7.30321184e-02 -1.67683855e-01 +2.46994663e-02 +2.46994365e-02 +2.46996712e-02 +2.46997550e-02 +2.46992018e-02 -2.41911272e-03 -1.74685627e-01 +2.46986933e-02 -8.89360830e-02 -4.20413166e-02 +2.46996116e-02 +2.46991869e-02 +2.46985350e-02 +2.46994011e-02 -1.17800280e-01 +1.20422617e-01 +1.14753194e-01 -1.70005605e-01 +2.46995147e-02 +2.46998109e-02 +2.46999599e-02 +6.35107383e-02 -4.59723212e-02 -1.05218962e-01 -2.29970455e-01 +1.84484288e-01 +2.46986132e-02 +2.24009365e-01 +2.46981215e-02 +2.46999152e-02 +2.46986840e-02 +2.46991944e-02 +2.28561163e-01 +9.13097188e-02 +9.50854793e-02 +3.08307439e-01 -1.51922315e-01 -1.19214021e-01 +2.46990565e-02 +2.46994291e-02 +2.46984791e-02 +2.47001033e-02 +2.51681283e-02 +2.70888954e-01 +8.16130266e-02 +2.46848419e-01 +2.46991143e-02 +7.63896629e-02 +2.46987268e-02 +8.29654261e-02 +2.46979184e-02 +2.75571458e-02 -2.04972588e-02 -2.03518737e-02 -6.25424609e-02 +2.75577866e-02 +2.75578406e-02 +2.75573451e-02 +2.75570489e-02 +2.75583472e-02 +2.78159082e-01 +2.90453043e-02 +2.75596101e-02 -3.70072015e-02 +5.72824292e-02 +2.75574550e-02 +2.75584068e-02 +2.75600553e-02 +2.75579412e-02 +2.96188384e-01 -7.17670396e-02 -1.66561708e-01 +8.69367719e-02 +2.75576953e-02 +2.75569558e-02 +2.75566019e-02 +3.66108149e-01 +6.51549473e-02 -8.46644863e-02 -5.46231531e-02 -7.75464103e-02 +2.75598243e-02 +8.45781267e-02 +2.75609996e-02 +2.75567528e-02 +2.75596455e-02 +2.75583621e-02 -8.03841650e-02 +1.99494377e-01 +1.01128593e-01 -1.71571299e-02 -1.11141158e-02 -5.58608770e-01 +2.75587291e-02 +2.75578611e-02 +2.75601950e-02 +2.75563691e-02 +3.27999815e-02 +6.00921288e-02 +5.13599552e-02 -1.40969709e-01 +2.75585633e-02 +4.11605686e-02 +2.75595486e-02 +3.71160880e-02 +2.75615063e-02 -4.15585712e-02 -3.68215814e-02 -4.53775153e-02 -6.76216325e-03 -4.15595695e-02 -4.15596440e-02 -4.15588990e-02 -4.15584669e-02 -4.15604897e-02 +1.04000367e-01 +4.65870537e-02 -4.15623449e-02 +5.42954020e-02 -5.00824256e-03 -4.15591002e-02 -4.15605456e-02 -4.15629596e-02 -4.15597707e-02 +7.99292177e-02 +7.00819865e-03 +4.42516357e-01 -8.86434913e-02 -4.15594392e-02 -4.15582806e-02 -4.15578336e-02 -6.32760227e-02 +1.01261154e-01 +7.39026582e-03 -2.62264460e-02 -5.26357852e-02 -4.15626392e-02 +4.72956508e-01 -4.15643714e-02 -4.15580571e-02 -4.15623933e-02 -4.15605083e-02 -2.04933584e-02 +1.44114057e-02 -2.25194059e-02 -4.13115509e-02 -2.78872371e-01 -8.27036519e-03 -4.15610336e-02 -4.15596701e-02 -4.15632129e-02 -4.15574796e-02 +5.92770055e-02 -8.95559266e-02 +5.25960559e-03 -3.67779769e-02 -4.15608287e-02 +5.76883592e-02 -4.15622517e-02 -6.97638392e-02 -4.15651053e-02 +1.44865979e-02 +3.39074340e-03 -1.58699796e-01 +9.40350816e-02 +1.44870346e-02 +1.44870738e-02 +1.44867301e-02 +1.44865382e-02 +1.44874919e-02 -1.27038300e-01 +1.03257678e-01 +1.44883720e-02 -9.24329534e-02 +2.09211484e-01 +1.44868121e-02 +1.44875124e-02 +1.44886617e-02 +1.44871520e-02 +1.05850631e-02 +3.20993513e-01 +2.20174149e-01 +1.00199006e-01 +1.44869816e-02 +1.44864609e-02 +1.44862421e-02 +1.70282274e-02 -1.29212365e-01 -1.67184547e-01 -9.94010121e-02 +2.28153192e-03 +1.44884847e-02 -2.69828469e-01 +1.44893555e-02 +1.44863408e-02 +1.44883757e-02 +1.44874956e-02 -5.69671504e-02 +3.18428176e-03 -2.20996097e-01 -4.64432947e-02 +3.84819694e-02 -2.45547488e-01 +1.44877387e-02 +1.44870887e-02 +1.44887790e-02 +1.44860670e-02 +2.16747567e-01 -1.07352860e-01 -6.29064143e-02 +1.74096692e-02 +1.44876018e-02 -6.18243311e-03 +1.44883245e-02 +1.50074556e-01 +1.44897467e-02 +4.78223152e-02 +8.72531161e-02 -3.60575281e-02 -2.11854860e-01 +4.78223003e-02 +4.78223115e-02 +4.78223599e-02 +4.78223227e-02 +4.78223003e-02 +1.06109962e-01 +8.57643336e-02 +4.78222407e-02 +4.07304093e-02 -1.44095853e-01 +4.78223301e-02 +4.78222966e-02 +4.78222556e-02 +4.78223339e-02 +1.96419150e-01 +3.28167379e-02 +1.26332626e-01 -1.19017258e-01 +4.78223190e-02 +4.78223599e-02 +4.78223786e-02 +1.15933545e-01 -7.79260620e-02 +1.65439039e-01 +1.26677305e-01 +9.99138877e-02 +4.78222743e-02 -9.26878750e-02 +4.78221439e-02 +4.78223786e-02 +4.78222296e-02 +4.78222854e-02 +8.39291960e-02 +1.11700296e-01 +2.36335889e-01 +5.92857637e-02 -1.32728189e-01 +2.65344549e-02 +4.78222519e-02 +4.78223152e-02 +4.78222072e-02 +4.78224345e-02 -7.72081092e-02 +1.43046871e-01 +1.90793304e-03 -5.04955510e-03 +4.78223078e-02 +7.74824470e-02 +4.78222370e-02 -4.86618727e-01 +4.78221439e-02 +1.52130798e-01 -1.44132758e-02 -5.54660678e-01 +1.57694310e-01 +1.52131394e-01 +1.52131468e-01 +1.52131066e-01 +1.52130783e-01 +1.52131826e-01 +9.86895431e-03 -4.18869928e-02 +1.52132824e-01 -8.24709609e-02 -1.14796050e-01 +1.52131140e-01 +1.52131870e-01 +1.52133092e-01 +1.52131483e-01 +1.45036027e-01 -5.03662229e-02 +1.49115175e-01 +1.61460921e-01 +1.52131334e-01 +1.52130589e-01 +1.52130321e-01 +9.93824750e-02 +1.31052747e-01 +1.01160042e-01 +1.88447591e-02 -3.33789326e-02 +1.52132899e-01 +6.68269694e-02 +1.52133837e-01 +1.52130455e-01 +1.52132839e-01 +1.52131826e-01 +1.21784173e-02 +1.88021243e-01 +9.31012817e-03 -3.10227973e-03 +1.00310728e-01 +7.55974501e-02 +1.52132139e-01 +1.52131468e-01 +1.52133256e-01 +1.52130082e-01 +1.34474978e-01 +2.11022258e-01 +1.36925444e-01 +8.53424296e-02 +1.52131945e-01 +1.42608076e-01 +1.52132720e-01 +5.28750867e-02 +1.52134180e-01 -1.91889957e-01 -2.36795917e-01 -1.49430528e-01 +1.13848358e-01 -1.91889718e-01 -1.91889718e-01 -1.91889897e-01 -1.91889971e-01 -1.91889495e-01 -1.74841091e-01 +9.21909604e-03 -1.91888735e-01 -2.98165698e-02 +1.37416676e-01 -1.91889822e-01 -1.91889465e-01 -1.91888720e-01 -1.91889644e-01 -6.65764287e-02 -9.71271470e-02 -5.98974712e-02 +2.88452029e-01 -1.91889748e-01 -1.91889986e-01 -1.91890031e-01 -1.75777301e-01 -1.28111824e-01 +1.65318951e-01 -1.29489871e-02 -3.63775864e-02 -1.91888765e-01 +1.18750855e-01 -1.91888392e-01 -1.91890061e-01 -1.91888765e-01 -1.91889480e-01 -2.69500345e-01 -1.69076726e-01 +1.40521243e-01 -1.94906577e-01 -2.57599279e-02 +7.36530423e-02 -1.91889256e-01 -1.91889673e-01 -1.91888645e-01 -1.91890270e-01 -1.92987621e-01 -2.09361002e-01 -2.90114731e-01 -1.92450017e-01 -1.91889420e-01 -8.21667835e-02 -1.91888824e-01 -2.69718379e-01 -1.91888213e-01 +2.01360416e-03 -1.72884930e-02 -3.73282284e-02 -1.13846309e-01 +2.01412942e-03 +2.01416411e-03 +2.01376667e-03 +2.01354362e-03 +2.01462954e-03 -3.37823302e-01 +5.46068326e-02 +2.01562606e-03 -5.60492612e-02 +1.39386326e-01 +2.01387145e-03 +2.01465888e-03 +2.01596692e-03 +2.01423396e-03 -1.44436538e-01 +1.22651242e-01 -1.87093422e-01 -2.34943822e-01 +2.01404328e-03 +2.01346213e-03 +2.01318390e-03 +7.54287839e-02 -1.00482412e-01 +1.61460638e-01 +3.65592062e-01 +2.19665766e-02 +2.01577810e-03 -3.11264485e-01 +2.01678812e-03 +2.01330846e-03 +2.01564399e-03 +2.01463723e-03 +8.38189423e-02 +2.40981597e-02 -2.09989622e-01 -2.09322665e-02 -4.79950458e-02 +1.65212557e-01 +2.01493152e-03 +2.01416994e-03 +2.01610452e-03 +2.01298576e-03 +1.23042837e-01 -1.18451258e-02 -1.53676093e-01 +1.31504744e-01 +2.01480254e-03 -3.22212428e-02 +2.01558229e-03 +8.73735622e-02 +2.01718579e-03 -7.42985904e-02 -2.86803525e-02 -9.63963345e-02 -1.69743806e-01 -7.42989630e-02 -7.42990002e-02 -7.42986649e-02 -7.42985085e-02 -7.42993355e-02 -4.27479204e-03 +4.04873133e-01 -7.43002072e-02 +1.78544838e-02 +2.53022788e-03 -7.42987543e-02 -7.42993727e-02 -7.43005127e-02 -7.42990449e-02 +6.06834814e-02 +5.25538802e-01 -2.42927358e-01 -1.06874980e-01 -7.42988810e-02 -7.42984489e-02 -7.42982104e-02 -3.36746752e-01 +3.58428389e-01 -1.10207945e-02 +3.20814475e-02 +1.68049168e-02 -7.43003711e-02 -4.00794372e-02 -7.43012652e-02 -7.42982924e-02 -7.43002445e-02 -7.42993206e-02 +1.15262531e-01 +2.74957102e-02 -1.49230137e-01 -1.18925042e-01 -9.83657595e-03 -2.48588510e-02 -7.42996484e-02 -7.42990077e-02 -7.43006244e-02 -7.42980465e-02 -3.24461669e-01 -3.18637639e-02 +1.44314647e-01 -5.40837944e-02 -7.42995217e-02 +1.37894545e-02 -7.43001848e-02 +1.02434583e-01 -7.43015632e-02 -1.62174646e-02 -5.12680747e-02 -5.61783649e-02 -4.66443375e-02 -1.62188001e-02 -1.62188746e-02 -1.62178837e-02 -1.62173212e-02 -1.62200257e-02 +9.35892239e-02 -2.55015820e-01 -1.62225626e-02 -6.47653490e-02 -5.26158288e-02 -1.62181407e-02 -1.62200984e-02 -1.62233617e-02 -1.62190516e-02 -1.59847483e-01 -1.63732544e-02 +2.73517277e-02 +1.28464252e-01 -1.62185971e-02 -1.62171014e-02 -1.62164588e-02 -3.24275494e-02 -6.63873926e-02 +3.09978537e-02 -5.37369289e-02 +2.91238040e-01 -1.62229277e-02 +1.60885751e-01 -1.62253194e-02 -1.62167139e-02 -1.62226167e-02 -1.62200406e-02 -2.85677344e-01 -9.14907008e-02 +2.29644418e-01 -1.29986629e-01 +6.00847937e-02 -2.54979253e-01 -1.62207894e-02 -1.62189174e-02 -1.62237026e-02 -1.62159875e-02 -1.81965008e-01 +4.65944141e-01 +8.03991687e-03 -5.56189381e-02 -1.62204541e-02 -1.66161403e-01 -1.62224434e-02 -9.71350893e-02 -1.62263196e-02 -8.48050229e-03 -7.86960125e-03 +9.26590785e-02 +1.53290719e-01 -8.48120078e-03 -8.48124176e-03 -8.48071370e-03 -8.48043431e-03 -8.48185644e-03 +2.85671428e-02 -3.38679412e-03 -8.48324317e-03 -3.18310052e-01 +1.61515608e-01 -8.48085433e-03 -8.48190580e-03 -8.48369021e-03 -8.48132186e-03 +2.11010296e-02 -4.09512818e-02 -8.40672702e-02 +1.60402834e-01 -8.48108809e-03 -8.48030206e-03 -8.47996492e-03 +1.21890884e-02 -3.46811451e-02 -2.02110767e-01 -1.33595347e-01 -2.92224977e-02 -8.48344527e-03 +8.66406187e-02 -8.48477986e-03 -8.48009903e-03 -8.48327391e-03 -8.48186761e-03 +3.81495315e-03 +1.16527304e-02 +1.41662806e-01 -1.67440120e-02 -5.34040928e-02 -6.82635456e-02 -8.48229602e-03 -8.48124828e-03 -8.48388486e-03 -8.47970042e-03 -6.13387711e-02 +9.47817490e-02 -2.55452897e-02 -4.33456600e-01 -8.48209672e-03 -1.93585400e-02 -8.48317705e-03 +8.77075363e-03 -8.48528463e-03 +5.00302808e-03 +1.07297497e-02 -4.94489707e-02 +1.02290362e-01 +5.00201434e-03 +5.00195567e-03 +5.00269607e-03 +5.00312308e-03 +5.00103040e-03 -2.32861340e-01 +5.65821826e-02 +4.99904435e-03 -1.93691388e-01 -2.43784562e-01 +5.00249583e-03 +5.00096520e-03 +4.99839522e-03 +5.00178523e-03 -9.21785384e-02 -1.18705221e-01 -1.62130725e-02 +9.67600569e-02 +5.00215590e-03 +5.00329444e-03 +5.00381878e-03 +4.91179414e-02 +3.46944854e-02 -1.14370048e-01 +3.03826518e-02 -1.54653460e-01 +4.99876589e-03 +1.31236807e-01 +4.99686413e-03 +5.00358501e-03 +4.99900104e-03 +5.00102201e-03 -6.14704601e-02 -7.02793971e-02 -7.67408609e-02 -5.15329652e-02 +3.28990221e-01 +3.88798296e-01 +5.00040548e-03 +5.00192912e-03 +4.99811163e-03 +5.00418991e-03 +4.24020588e-02 -7.96422213e-02 -2.76850574e-02 +1.26930892e-01 +5.00067743e-03 -4.47797440e-02 +4.99915192e-03 +6.61688000e-02 +4.99607902e-03 +2.15120781e-02 +3.16597009e-03 -2.15300508e-02 +1.03542477e-01 +2.15115361e-02 +2.15114988e-02 +2.15118919e-02 +2.15121228e-02 +2.15110276e-02 -3.93087491e-02 -2.82676935e-01 +2.15099454e-02 +1.48531467e-01 +3.14341247e-01 +2.15118080e-02 +2.15109847e-02 +2.15096045e-02 +2.15114169e-02 +1.40479729e-01 -9.30145457e-02 +5.64073436e-02 -3.07771564e-01 +2.15116087e-02 +2.15122271e-02 +2.15125233e-02 +4.55540381e-02 +4.30839658e-02 +2.96053030e-02 +7.90032297e-02 -2.43579239e-01 +2.15097722e-02 +5.60420044e-02 +2.15087719e-02 +2.15123966e-02 +2.15099268e-02 +2.15110127e-02 -7.32520455e-03 +5.05464897e-02 +7.43136331e-02 +3.59110162e-02 +1.19992688e-01 -3.39927405e-01 +2.15106774e-02 +2.15114839e-02 +2.15094667e-02 +2.15127189e-02 +8.79251435e-02 +5.55388592e-02 -2.12227851e-02 +1.20698385e-01 +2.15108097e-02 +1.43449986e-02 +2.15099994e-02 +9.96010080e-02 +2.15083603e-02 -9.44764316e-02 -1.16727717e-01 -8.48067477e-02 -1.82578154e-02 -9.44776312e-02 -9.44777280e-02 -9.44767967e-02 -9.44763124e-02 -9.44787264e-02 -3.07535138e-02 +2.44450495e-01 -9.44809988e-02 +1.75132990e-01 -9.81470570e-02 -9.44770202e-02 -9.44787934e-02 -9.44817141e-02 -9.44778621e-02 -1.15520768e-01 +1.56565815e-01 +3.08055162e-01 -3.73938560e-01 -9.44774821e-02 -9.44761038e-02 -9.44755375e-02 -5.37408292e-02 -1.83941901e-01 -6.04052208e-02 -5.26466034e-02 +2.89619211e-02 -9.44813043e-02 -5.24758473e-02 -9.44833830e-02 -9.44757760e-02 -9.44810510e-02 -9.44787338e-02 +5.09700365e-02 +3.72171518e-03 -1.24062859e-01 -5.70116490e-02 +1.64653316e-01 -1.67803347e-01 -9.44794565e-02 -9.44777504e-02 -9.44820121e-02 -9.44751203e-02 +7.71499658e-03 -4.09949496e-02 -4.52672802e-02 -5.11979572e-02 -9.44791138e-02 -4.08063456e-02 -9.44808722e-02 -4.63740677e-02 -9.44843069e-02 +5.29335737e-02 +9.53811333e-02 -1.33373132e-02 -4.22187656e-01 +5.29344492e-02 +5.29344901e-02 +5.29338494e-02 +5.29334657e-02 +5.29352687e-02 +1.28640279e-01 -1.93839800e-02 +5.29370569e-02 +3.14713717e-02 +1.19705454e-01 +5.29339910e-02 +5.29353544e-02 +5.29375747e-02 +5.29346168e-02 +9.90009904e-02 +1.01631135e-01 +8.29537362e-02 +1.05410799e-01 +5.29342964e-02 +5.29332757e-02 +5.29328212e-02 +3.63167636e-02 +4.18433025e-02 +1.36066064e-01 +4.05175053e-02 +2.84426380e-02 +5.29372729e-02 +2.02914506e-01 +5.29389456e-02 +5.29330447e-02 +5.29371053e-02 +5.29352836e-02 -1.25665702e-02 +3.91969569e-02 -9.03518796e-02 +2.91354731e-02 +9.84199196e-02 +2.15122983e-01 +5.29358387e-02 +5.29345274e-02 +5.29378168e-02 +5.29324673e-02 +1.08831882e-01 -1.10586174e-01 +6.21684641e-02 +6.26739860e-02 +5.29356040e-02 +5.80363087e-02 +5.29369675e-02 +8.21487159e-02 +5.29395938e-02 -2.18855608e-02 +1.01476267e-03 -2.23069061e-02 +4.22237301e-03 -2.18865350e-02 -2.18866225e-02 -2.18858682e-02 -2.18854547e-02 -2.18874440e-02 +8.66984650e-02 +5.81408711e-03 -2.18893792e-02 +8.60129520e-02 -8.67748726e-03 -2.18860731e-02 -2.18874887e-02 -2.18899921e-02 -2.18867529e-02 +3.47666405e-02 -3.32897425e-01 +1.34576438e-02 +1.75918430e-01 -2.18863897e-02 -2.18852703e-02 -2.18847767e-02 +5.64125143e-02 -4.30106968e-02 +2.31755719e-01 +1.06807739e-01 -5.13625294e-02 -2.18896549e-02 +1.06440246e-01 -2.18915045e-02 -2.18849760e-02 -2.18894221e-02 -2.18874570e-02 +2.37364471e-02 +3.96839529e-02 +4.69243303e-02 -1.76863614e-02 +1.29361406e-01 +4.45398279e-02 -2.18880381e-02 -2.18866430e-02 -2.18902640e-02 -2.18844395e-02 -2.55311914e-02 -3.99381578e-01 +8.38026628e-02 -3.94564480e-01 -2.18877774e-02 -2.09889531e-01 -2.18892880e-02 +2.59100944e-01 -2.18922291e-02 -3.15106986e-03 -1.86249055e-02 +2.37452500e-02 -1.82379596e-03 -3.15090478e-03 -3.15090176e-03 -3.15103657e-03 -3.15109431e-03 -3.15072597e-03 -9.10943225e-02 -9.65557098e-02 -3.15033225e-03 +2.19871849e-03 -3.01061392e-01 -3.15099489e-03 -3.15070827e-03 -3.15023330e-03 -3.15087754e-03 +6.63276240e-02 -2.00116877e-02 +1.01154499e-01 +3.28935266e-01 -3.15093738e-03 -3.15112947e-03 -3.15121422e-03 +4.75380383e-03 +5.10963686e-02 +5.81089258e-02 -2.36034952e-03 +2.71414928e-02 -3.15028336e-03 -5.53356148e-02 -3.14993411e-03 -3.15117952e-03 -3.15032713e-03 -3.15071782e-03 +6.28670976e-02 +9.41618904e-02 +1.25395074e-01 +5.24294674e-02 -9.25736949e-02 -4.50993568e-01 -3.15061072e-03 -3.15089384e-03 -3.15016927e-03 -3.15129454e-03 +8.39879513e-02 -2.04593744e-02 +7.99570903e-02 +1.75857335e-01 -3.15065286e-03 -1.73700303e-01 -3.15036229e-03 -6.58408552e-02 -3.14977393e-03 -1.07360587e-01 -4.38554771e-02 -3.65987308e-02 +1.58347115e-01 -1.07359782e-01 -1.07359730e-01 -1.07360303e-01 -1.07360691e-01 -1.07359067e-01 -9.73276049e-02 -7.72566572e-02 -1.07357495e-01 +8.95613804e-02 +5.12046099e-01 -1.07360154e-01 -1.07359014e-01 -1.07357003e-01 -1.07359640e-01 -6.21997491e-02 -7.85260499e-02 -8.09831768e-02 -2.56395757e-01 -1.07359894e-01 -1.07360899e-01 -1.07361287e-01 -1.80491790e-01 -3.66624892e-02 -1.25054389e-01 -1.68557912e-01 -3.99102233e-02 -1.07357241e-01 +6.36678934e-02 -1.07355788e-01 -1.07361123e-01 -1.07357472e-01 -1.07359044e-01 -1.74520090e-01 +3.13084200e-02 +3.60094048e-02 +1.61834119e-03 -8.58426616e-02 +1.78614825e-01 -1.07358567e-01 -1.07359730e-01 -1.07356749e-01 -1.07361563e-01 -2.91792065e-01 +2.01423969e-02 -1.08839966e-01 +2.33330252e-03 -1.07358776e-01 -1.27672911e-01 -1.07357569e-01 -6.57767132e-02 -1.07355222e-01 -2.57871244e-02 +2.15324294e-02 -7.77793080e-02 -9.57977772e-02 -2.57866718e-02 -2.57866383e-02 -2.57869791e-02 -2.57871579e-02 -2.57862601e-02 -4.66184132e-02 +9.98374224e-02 -2.57853288e-02 +4.97037396e-02 +3.26679647e-01 -2.57868730e-02 -2.57862303e-02 -2.57850122e-02 -2.57865898e-02 -2.51822360e-02 +2.97202338e-02 +2.98164859e-02 -6.72595203e-02 -2.57867165e-02 -2.57872492e-02 -2.57875081e-02 +3.77804996e-03 -6.35127947e-02 -7.20130885e-03 +1.99474599e-02 -2.09943913e-02 -2.57851705e-02 -1.17363989e-01 -2.57843174e-02 -2.57874206e-02 -2.57853046e-02 -2.57862508e-02 -6.02454767e-02 +2.16960646e-02 -1.82449371e-01 -5.62806539e-02 -3.88333917e-01 +2.44243965e-01 -2.57859696e-02 -2.57866215e-02 -2.57848930e-02 -2.57876739e-02 +5.59796356e-02 -2.13700742e-01 +2.37772018e-02 +6.27650991e-02 -2.57860925e-02 +3.62746343e-02 -2.57853642e-02 +4.01715375e-02 -2.57839579e-02 +6.14084303e-03 +6.42203763e-02 -5.27591854e-02 -1.84515007e-02 +6.14132592e-03 +6.14137528e-03 +6.14098134e-03 +6.14077412e-03 +6.14182604e-03 -1.20469078e-01 -1.47028729e-01 +6.14280626e-03 +1.98504739e-02 +3.53591204e-01 +6.14108425e-03 +6.14184933e-03 +6.14309916e-03 +6.14143815e-03 -1.06644928e-01 +2.90264189e-01 -1.64793640e-01 -3.56912334e-03 +6.14126958e-03 +6.14068564e-03 +6.14045653e-03 +2.49015470e-03 +1.72420666e-01 -1.93566065e-02 +9.04857814e-02 -7.78213814e-02 +6.14293525e-03 +2.25344732e-01 +6.14388241e-03 +6.14053477e-03 +6.14283187e-03 +6.14183769e-03 -2.84857862e-03 -1.90693084e-02 -7.31979758e-02 -2.48465106e-01 -6.11824021e-02 +5.07848375e-02 +6.14212314e-03 +6.14138879e-03 +6.14322722e-03 +6.14024559e-03 -3.03292442e-02 -9.30292681e-02 -1.29871471e-02 -1.73782483e-01 +6.14198204e-03 -7.42871985e-02 +6.14276808e-03 +9.12830681e-02 +6.14426797e-03 -5.92449680e-02 -3.29561569e-02 -5.86889572e-02 -1.23429984e-01 -5.92454970e-02 -5.92455417e-02 -5.92451431e-02 -5.92448637e-02 -5.92460670e-02 -6.45566806e-02 -2.24438887e-02 -5.92471994e-02 +7.46799782e-02 +1.92406401e-01 -5.92452362e-02 -5.92460968e-02 -5.92475832e-02 -5.92456311e-02 +7.32171088e-02 +1.04290091e-01 -1.97949558e-01 -2.03865916e-01 -5.92454225e-02 -5.92447855e-02 -5.92444986e-02 +7.51983523e-02 -3.57996412e-02 +5.43755013e-03 +4.55368944e-02 +3.18197682e-02 -5.92473932e-02 +6.40555471e-02 -5.92484251e-02 -5.92446364e-02 -5.92472218e-02 -5.92460670e-02 -1.44848868e-01 -1.34630091e-02 +2.61512399e-01 -6.25617132e-02 -1.40772253e-01 -2.22329184e-01 -5.92464358e-02 -5.92455380e-02 -5.92477247e-02 -5.92442639e-02 -6.55509830e-02 -1.67460099e-01 -1.48120835e-01 -1.01836964e-01 -5.92462420e-02 -1.92575782e-04 -5.92471659e-02 -1.25640452e-01 -5.92488796e-02 -5.85364513e-02 -1.04788393e-01 -7.61887729e-02 +3.38769555e-01 -5.85362799e-02 -5.85362501e-02 -5.85363917e-02 -5.85364476e-02 -5.85360192e-02 +5.55599034e-02 +8.93914849e-02 -5.85356131e-02 -1.40922787e-02 -1.89960778e-01 -5.85363694e-02 -5.85360155e-02 -5.85355088e-02 -5.85362241e-02 +2.68336572e-02 +3.71885858e-02 +3.17483991e-01 +5.90679273e-02 -5.85362874e-02 -5.85365072e-02 -5.85366078e-02 +1.28261428e-02 -1.87396687e-02 +1.62809491e-02 -1.76551700e-01 +8.05609208e-03 -5.85355349e-02 -5.01282141e-02 -5.85351810e-02 -5.85365556e-02 -5.85355982e-02 -5.85360266e-02 -1.68792576e-01 -2.04517390e-03 -1.42367855e-01 -1.02764376e-01 -7.08522201e-02 +2.17235208e-01 -5.85359037e-02 -5.85362427e-02 -5.85354529e-02 -5.85366786e-02 -4.85869274e-02 +1.11057080e-01 -1.08443268e-01 -2.72710502e-01 -5.85359521e-02 -7.79529661e-02 -5.85356280e-02 -8.70703012e-02 -5.85350133e-02 +1.81296896e-02 +2.58028717e-03 -6.56157807e-02 -3.96156549e-01 +1.81293339e-02 +1.81293134e-02 +1.81295779e-02 +1.81297325e-02 +1.81289725e-02 +9.72147682e-04 +4.44890745e-03 +1.81281995e-02 +6.60653040e-02 -1.02882475e-01 +1.81295034e-02 +1.81289557e-02 +1.81279536e-02 +1.81292500e-02 -2.14594118e-02 +4.98189852e-02 +8.01278129e-02 -1.67364419e-01 +1.81293879e-02 +1.81297902e-02 +1.81299932e-02 +5.59344515e-03 -5.78119382e-02 +1.30148217e-01 -4.27757129e-02 +3.99089977e-02 +1.81280803e-02 +1.37121677e-01 +1.81273911e-02 +1.81299243e-02 +1.81281809e-02 +1.81289650e-02 +1.06978655e-01 -5.00976928e-02 -4.33822274e-02 -3.71593013e-02 +1.68574050e-01 +3.85466158e-01 +1.81287639e-02 +1.81292947e-02 +1.81278400e-02 +1.81301255e-02 +8.86825472e-02 +7.96973929e-02 -1.09993657e-02 +1.09582938e-01 +1.81288626e-02 -1.40399605e-01 +1.81282405e-02 -3.92304324e-02 +1.81270894e-02 +2.61390139e-03 +1.68780759e-02 -1.55620441e-01 -2.77336478e-01 +2.61366041e-03 +2.61363504e-03 +2.61382875e-03 +2.61392910e-03 +2.61337776e-03 +8.21616054e-02 +1.75598577e-01 +2.61286064e-03 +1.65100962e-01 +3.13758731e-01 +2.61378870e-03 +2.61336565e-03 +2.61268090e-03 +2.61360384e-03 +1.20662954e-02 -2.18351901e-01 +1.08744554e-01 -1.68058887e-01 +2.61369580e-03 +2.61397986e-03 +2.61411769e-03 -1.29772313e-02 +8.71922150e-02 +4.76827240e-03 -9.00263861e-02 +7.94030279e-02 +2.61278939e-03 +7.87460711e-03 +2.61229463e-03 +2.61407555e-03 +2.61285692e-03 +2.61337496e-03 +4.46325429e-02 -1.12924151e-01 +6.17006514e-03 +1.06479578e-01 -6.83948398e-02 -3.88098389e-01 +2.61322455e-03 +2.61362665e-03 +2.61262874e-03 +2.61424389e-03 -4.65954952e-02 +5.75836897e-02 +6.20397553e-02 +4.67908159e-02 +2.61328346e-03 +7.65062985e-04 +2.61289347e-03 -4.22114581e-02 +2.61208368e-03 +5.05216457e-02 +2.11357195e-02 +5.19230850e-02 +1.29558727e-01 +5.05218022e-02 +5.05218171e-02 +5.05217016e-02 +5.05216420e-02 +5.05219251e-02 -1.31567167e-02 -4.72009070e-02 +5.05222343e-02 -2.88208783e-01 +1.24809124e-01 +5.05217202e-02 +5.05219474e-02 +5.05223386e-02 +5.05218394e-02 -2.70420343e-01 -3.93858254e-02 +1.05849817e-01 +2.53801703e-01 +5.05217686e-02 +5.05216308e-02 +5.05215786e-02 -3.36798318e-02 +8.15595463e-02 -1.37426123e-01 -1.62960231e-01 -1.95385456e-01 +5.05222715e-02 +2.35810369e-01 +5.05225584e-02 +5.05215824e-02 +5.05222268e-02 +5.05219363e-02 -7.50972778e-02 -1.06500231e-01 -1.06389225e-01 +7.34171793e-02 +1.99809037e-02 +1.62915096e-01 +5.05220369e-02 +5.05218096e-02 +5.05223684e-02 +5.05215153e-02 -2.60110617e-01 -1.81161448e-01 -5.88262007e-02 +7.25231916e-02 +5.05219959e-02 -2.72721201e-02 +5.05222268e-02 +2.32412107e-03 +5.05226515e-02 +4.05076891e-03 +1.34972632e-02 +3.90323363e-02 +1.60965532e-01 +4.05008532e-03 +4.05003084e-03 +4.05055517e-03 +4.05084528e-03 +4.04943200e-03 +9.83945876e-02 +3.53485160e-02 +4.04811511e-03 +1.63540035e-01 -1.44643083e-01 +4.05041547e-03 +4.04940173e-03 +4.04766994e-03 +4.04992886e-03 +1.73706144e-01 -1.60918813e-02 -1.71111092e-01 -1.07285686e-01 +4.05017706e-03 +4.05095750e-03 +4.05130768e-03 -1.55566096e-01 -1.52087957e-03 +3.73849995e-04 +4.33856068e-04 -2.81445347e-02 +4.04790230e-03 -1.58780754e-01 +4.04667901e-03 +4.05114889e-03 +4.04807553e-03 +4.04942688e-03 +4.17815782e-02 -3.44207361e-02 -6.63421676e-02 -6.00571074e-02 -6.59163967e-02 -5.72505482e-02 +4.04905621e-03 +4.05000336e-03 +4.04750463e-03 +4.05154610e-03 +4.34746183e-02 -1.59741923e-01 +1.45471422e-03 +5.53433836e-01 +4.04922990e-03 +1.55155912e-01 +4.04817751e-03 -2.01463513e-02 +4.04612767e-03 +3.74997109e-02 -2.48747482e-03 +3.85980979e-02 +5.06531931e-02 +3.75004448e-02 +3.75004932e-02 +3.74999233e-02 +3.74996364e-02 +3.75011303e-02 -1.05932392e-01 +1.81058362e-01 +3.75025347e-02 +2.94525847e-02 -1.47875771e-01 +3.75000946e-02 +3.75011750e-02 +3.75029631e-02 +3.75005975e-02 +1.12560615e-02 -6.11520968e-02 -6.10777080e-01 +9.26097557e-02 +3.75003330e-02 +3.74994986e-02 +3.74991708e-02 +1.09324738e-01 +2.05843747e-02 +4.75359559e-02 +3.30787115e-02 +4.03991602e-02 +3.75027135e-02 +1.53511360e-01 +3.75041030e-02 +3.74993086e-02 +3.75025570e-02 +3.75011340e-02 -1.11213483e-01 +1.07974827e-03 -4.02379818e-02 +1.42709881e-01 -1.33005813e-01 +2.25392878e-01 +3.75015438e-02 +3.75005193e-02 +3.75031754e-02 +3.74989025e-02 -2.00989097e-01 -2.76509643e-01 -1.38131287e-02 -7.56447017e-02 +3.75013761e-02 +1.05281159e-01 +3.75024639e-02 +1.19835198e-01 +3.75046246e-02 +8.22782665e-02 +8.96475762e-02 -5.15981615e-01 -2.47986633e-02 +8.22789371e-02 +8.22789818e-02 +8.22784752e-02 +8.22782144e-02 +8.22796971e-02 +1.45696566e-01 -2.96488516e-02 +8.22811276e-02 -8.29996914e-02 -2.59977710e-02 +8.22786093e-02 +8.22797865e-02 +8.22815821e-02 +8.22791159e-02 -2.32795179e-01 -3.25327478e-02 -1.34578288e-01 +1.67965651e-01 +8.22788104e-02 +8.22780654e-02 +8.22777525e-02 -2.13985369e-02 +5.13106249e-02 +1.89183336e-02 +5.00293151e-02 +1.32884502e-01 +8.22813064e-02 +6.52568340e-02 +8.22826698e-02 +8.22778791e-02 +8.22811499e-02 +8.22797194e-02 +8.10361356e-02 +1.96755305e-02 +1.42578572e-01 +1.62607744e-01 -1.04831927e-01 +4.15215828e-02 +8.22801366e-02 +8.22790265e-02 +8.22817832e-02 +8.22774619e-02 +1.47593260e-01 +1.04745187e-01 +1.17098093e-02 +1.85325772e-01 +8.22800025e-02 +7.68680871e-02 +8.22810307e-02 +1.02935918e-01 +8.22832361e-02 -4.21299227e-02 -7.38030002e-02 -2.82882173e-02 +3.84542823e-01 -4.21300717e-02 -4.21300828e-02 -4.21299785e-02 -4.21299003e-02 -4.21301946e-02 -8.41983259e-02 -1.08870104e-01 -4.21304516e-02 -1.40693597e-02 -2.42957309e-01 -4.21300195e-02 -4.21302244e-02 -4.21305224e-02 -4.21301052e-02 +4.01001610e-02 +4.86431308e-02 +2.73783831e-03 -2.96914876e-02 -4.21300568e-02 -4.21298444e-02 -4.21298184e-02 -1.09532580e-01 -2.21158303e-02 -2.35433839e-02 +3.89641093e-04 -5.31565249e-02 -4.21304777e-02 -1.95624515e-01 -4.21307459e-02 -4.21298482e-02 -4.21304479e-02 -4.21302132e-02 -1.00076362e-01 +8.65144804e-02 -1.20021254e-01 +1.79665729e-01 -1.56849131e-01 +3.24402004e-01 -4.21302728e-02 -4.21301015e-02 -4.21305746e-02 -4.21298072e-02 +9.27976966e-02 +9.54551771e-02 -1.74325891e-02 -1.40083477e-01 -4.21302654e-02 -6.40682206e-02 -4.21304293e-02 -4.79186289e-02 -4.21308093e-02 +1.38942208e-02 +5.62871667e-03 -1.30282706e-02 -1.56558663e-01 +1.38940802e-02 +1.38940606e-02 +1.38941584e-02 +1.38942273e-02 +1.38939396e-02 +3.59911914e-03 -1.28070176e-01 +1.38936387e-02 +4.97470833e-02 -7.63697028e-02 +1.38941351e-02 +1.38939237e-02 +1.38935149e-02 +1.38940411e-02 +1.75212055e-01 +6.48837835e-02 +3.77972752e-01 +1.28256783e-01 +1.38941007e-02 +1.38942609e-02 +1.38943559e-02 +1.89112388e-02 -4.15885542e-03 -2.05548912e-01 +1.61190465e-01 +7.11487234e-02 +1.38935763e-02 +2.62498736e-01 +1.38932820e-02 +1.38943242e-02 +1.38936285e-02 +1.38939414e-02 +1.18505359e-02 +1.05367832e-01 -1.02151625e-01 +8.60255137e-02 -2.29134202e-01 -2.02723742e-01 +1.38938474e-02 +1.38940597e-02 +1.38934720e-02 +1.38944145e-02 -1.51862755e-01 -2.77068112e-02 -1.04166739e-01 +3.56064625e-02 +1.38938837e-02 -1.31901562e-01 +1.38936555e-02 +1.08469807e-01 +1.38931777e-02 -1.03274500e-02 -7.70088509e-02 -1.53679430e-01 -1.05877832e-01 -1.03276111e-02 -1.03276204e-02 -1.03275040e-02 -1.03274379e-02 -1.03277955e-02 -1.17935076e-01 -1.63479730e-01 -1.03280982e-02 -2.05183342e-01 +3.55178893e-01 -1.03275171e-02 -1.03278179e-02 -1.03281904e-02 -1.03276428e-02 +4.52268347e-02 +1.33175775e-01 -7.58213624e-02 -1.81472883e-01 -1.03276009e-02 -1.03274174e-02 -1.03273187e-02 +8.70764852e-02 +2.07505032e-01 +1.21112131e-01 +5.55927940e-02 +1.08807705e-01 -1.03281559e-02 +7.76958615e-02 -1.03284307e-02 -1.03273503e-02 -1.03280963e-02 -1.03277918e-02 +5.55654615e-03 -3.62098031e-02 -8.27863961e-02 -8.32329690e-02 -3.88931995e-03 +1.09280445e-01 -1.03278747e-02 -1.03276176e-02 -1.03282277e-02 -1.03272386e-02 +6.64496943e-02 +1.44196570e-01 -3.05194519e-02 +1.68085843e-02 -1.03278365e-02 +2.81667407e-03 -1.03280954e-02 -1.34445846e-01 -1.03285890e-02 -3.82113159e-02 +2.26346906e-02 -9.09383669e-02 +1.78663544e-02 -3.82124297e-02 -3.82124893e-02 -3.82116549e-02 -3.82112116e-02 -3.82135622e-02 -4.61016819e-02 -6.97050616e-02 -3.82157825e-02 +1.52345747e-02 -1.75818875e-02 -3.82118933e-02 -3.82136181e-02 -3.82164754e-02 -3.82126644e-02 -5.39326258e-02 +6.68442905e-01 -1.60120770e-01 +9.75713208e-02 -3.82122546e-02 -3.82110104e-02 -3.82104144e-02 -7.55736157e-02 -2.06724685e-02 -1.35128424e-02 -1.39286801e-01 +8.06541555e-03 -3.82160842e-02 -6.76740482e-02 -3.82182375e-02 -3.82106528e-02 -3.82158123e-02 -3.82135771e-02 -5.94818108e-02 +5.94146037e-03 +2.04849467e-01 +7.68709630e-02 -4.26632315e-02 +1.11194395e-01 -3.82142439e-02 -3.82125340e-02 -3.82167771e-02 -3.82100232e-02 -8.18145424e-02 -4.75173555e-02 -1.07781105e-01 +5.28629264e-03 -3.82139459e-02 -3.62439863e-02 -3.82156745e-02 -1.11694567e-01 -3.82191092e-02 -4.10325080e-02 +1.35948351e-02 -1.66695956e-02 -1.66336987e-02 -4.10325602e-02 -4.10325639e-02 -4.10325192e-02 -4.10324819e-02 -4.10326160e-02 +1.29075190e-02 +4.60345477e-01 -4.10327688e-02 -1.42232046e-01 +3.70737687e-02 -4.10325266e-02 -4.10326272e-02 -4.10328098e-02 -4.10326123e-02 +2.04705652e-02 -1.66128017e-02 -8.36408436e-02 -1.23361371e-01 -4.10325415e-02 -4.10324596e-02 -4.10324447e-02 -5.93589470e-02 +7.10414648e-02 -2.43462231e-02 -9.66470093e-02 +1.80151630e-02 -4.10327576e-02 +1.01929773e-02 -4.10329103e-02 -4.10324372e-02 -4.10327725e-02 -4.10326347e-02 +5.51440120e-01 +7.77165443e-02 -5.15845679e-02 +1.72925461e-02 +1.19413011e-01 -1.17648835e-03 -4.10326719e-02 -4.10325751e-02 -4.10328470e-02 -4.10324000e-02 -5.92661165e-02 -1.00234307e-01 -1.70435101e-01 +8.29803050e-02 -4.10326384e-02 -8.25491175e-02 -4.10327725e-02 -6.53179437e-02 -4.10329551e-02 -1.06740974e-01 -4.48243655e-02 -6.32203743e-02 +4.05583024e-01 -1.06741667e-01 -1.06741719e-01 -1.06741183e-01 -1.06740892e-01 -1.06742330e-01 -2.38271356e-01 -8.34366605e-02 -1.06743760e-01 -1.46367438e-02 +8.33705440e-02 -1.06741354e-01 -1.06742382e-01 -1.06744222e-01 -1.06741808e-01 +1.45434365e-02 -1.68999195e-01 +9.52713192e-02 +3.63204002e-01 -1.06741585e-01 -1.06740773e-01 -1.06740415e-01 -5.49493544e-02 -2.93482151e-02 -6.32048249e-02 -1.75569013e-01 -1.51915714e-01 -1.06743976e-01 +2.49073476e-01 -1.06745385e-01 -1.06740542e-01 -1.06743790e-01 -1.06742360e-01 +2.05665845e-02 +3.74253020e-02 +4.54377346e-02 -1.44998834e-01 +7.14565720e-03 +9.36638266e-02 -1.06742755e-01 -1.06741711e-01 -1.06744431e-01 -1.06740162e-01 -2.62756616e-01 -1.37558281e-01 -1.36227131e-01 -1.07187808e-01 -1.06742583e-01 -2.07910717e-01 -1.06743693e-01 +8.92133266e-03 -1.06745943e-01 -5.20402975e-02 -9.06312168e-02 -8.00022781e-02 +3.61028790e-01 -5.20402305e-02 -5.20402491e-02 -5.20402789e-02 -5.20402752e-02 -5.20402603e-02 +7.69693926e-02 +1.01862229e-01 -5.20402417e-02 -2.52562553e-01 +2.55562048e-02 -5.20402715e-02 -5.20402305e-02 -5.20402305e-02 -5.20402007e-02 -1.40653774e-01 +4.71082106e-02 -3.76091227e-02 +8.15789327e-02 -5.20402230e-02 -5.20402603e-02 -5.20403124e-02 -1.22669905e-01 -4.59642075e-02 -5.25524355e-02 +8.41111690e-02 +7.08491504e-02 -5.20402230e-02 +7.62237310e-02 -5.20402230e-02 -5.20403087e-02 -5.20402230e-02 -5.20402566e-02 -2.54241824e-01 -2.06948835e-02 +1.43491730e-01 -2.27578849e-01 +7.64502883e-02 -1.01743713e-01 -5.20402826e-02 -5.20402417e-02 -5.20402156e-02 -5.20403534e-02 -3.61626863e-01 +7.90137649e-02 -1.65427774e-02 -3.27014513e-02 -5.20402640e-02 -1.07898749e-01 -5.20402342e-02 -1.07899211e-01 -5.20402268e-02 -5.33859022e-02 +2.11963430e-02 +3.75257200e-03 -1.25237793e-01 -5.33871092e-02 -5.33871837e-02 -5.33863045e-02 -5.33857606e-02 -5.33882305e-02 -4.34770495e-01 +1.77385863e-02 -5.33906259e-02 +7.85585195e-02 +5.66373207e-02 -5.33865318e-02 -5.33883162e-02 -5.33913374e-02 -5.33873588e-02 +5.29866964e-02 -5.91073520e-02 +2.46362448e-01 +2.01009601e-01 -5.33869378e-02 -5.33855520e-02 -5.33849932e-02 -3.25114653e-02 -1.26898006e-01 +1.59909651e-01 -1.84683688e-02 -8.12797174e-02 -5.33909239e-02 -1.55957222e-01 -5.33930995e-02 -5.33852540e-02 -5.33906482e-02 -5.33882566e-02 -7.09298402e-02 +1.69831160e-02 -6.01494648e-02 +2.42396686e-02 -2.99807899e-02 +4.75417823e-01 -5.33889793e-02 -5.33872172e-02 -5.33916466e-02 -5.33845425e-02 -1.05715543e-01 -5.66318445e-03 +1.24087311e-01 +5.70523888e-02 -5.33886440e-02 -1.01782285e-01 -5.33905067e-02 -6.48628846e-02 -5.33940531e-02 +1.01853069e-03 +4.37001586e-02 +2.14934107e-02 -1.69055164e-01 +1.01739750e-03 +1.01729948e-03 +1.01818144e-03 +1.01864699e-03 +1.01626152e-03 +2.91131902e-03 +2.18003154e-01 +1.01398118e-03 -4.97542657e-02 -2.00296715e-01 +1.01794233e-03 +1.01618958e-03 +1.01323519e-03 +1.01713138e-03 +1.27959801e-02 +1.11839004e-01 -2.60601845e-02 -4.64429975e-01 +1.01754523e-03 +1.01887155e-03 +1.01945677e-03 +1.02312770e-02 -7.85501860e-03 -8.36796239e-02 +1.13677040e-01 +1.60814762e-01 +1.01363845e-03 +3.18110079e-01 +1.01147313e-03 +1.01920473e-03 +1.01391959e-03 +1.01624511e-03 +4.25522402e-02 +1.34662032e-01 +3.34122144e-02 +1.72393948e-01 +1.16149113e-02 +1.39927059e-01 +1.01556303e-03 +1.01726584e-03 +1.01290690e-03 +1.01988681e-03 -1.31064609e-01 -6.42929459e-03 -5.80098331e-02 +1.19410485e-01 +1.01587654e-03 -7.06278086e-02 +1.01409759e-03 +6.57098293e-02 +1.01058627e-03 +2.75137369e-02 +1.37121733e-02 +7.19349831e-02 -2.10262872e-02 +2.75143459e-02 +2.75144055e-02 +2.75139194e-02 +2.75136773e-02 +2.75150146e-02 -1.04398310e-01 +9.83208194e-02 +2.75162924e-02 -1.34468526e-02 +1.63696975e-01 +2.75140423e-02 +2.75150482e-02 +2.75167208e-02 +2.75145154e-02 -8.47889632e-02 -1.23971783e-01 -1.04850516e-01 -1.07630178e-01 +2.75142603e-02 +2.75135636e-02 +2.75131986e-02 +8.69041681e-02 +5.58645055e-02 -1.48983970e-01 +8.22723955e-02 -8.51547047e-02 +2.75164582e-02 +3.09536487e-01 +2.75177658e-02 +2.75133569e-02 +2.75163222e-02 +2.75150165e-02 +1.88217685e-01 -4.60498072e-02 -6.12303875e-02 -2.05536280e-02 +2.09888574e-02 -2.99837559e-01 +2.75153983e-02 +2.75144279e-02 +2.75168810e-02 +2.75129527e-02 -4.04040664e-02 +1.18286513e-01 +4.32447940e-02 +1.21125460e-01 +2.75152437e-02 -7.04374090e-02 +2.75162309e-02 +2.35247761e-02 +2.75182556e-02 +2.87682526e-02 +3.95424403e-02 +1.90467417e-01 -4.36320156e-02 +2.87693758e-02 +2.87694465e-02 +2.87685953e-02 +2.87681147e-02 +2.87704542e-02 +3.15495990e-02 -1.18935063e-01 +2.87726987e-02 +9.47499573e-02 -1.53584927e-01 +2.87688226e-02 +2.87705027e-02 +2.87734326e-02 +2.87696123e-02 +6.60842750e-03 +1.46798983e-01 -5.95324747e-02 -8.36800560e-02 +2.87692286e-02 +2.87679192e-02 +2.87673436e-02 +1.32152392e-02 +4.33706343e-02 -3.80448736e-02 -1.35109857e-01 +1.26238102e-02 +2.87730452e-02 +2.10400030e-01 +2.87751537e-02 +2.87675932e-02 +2.87727453e-02 +2.87704580e-02 -7.39787007e-03 -4.09522839e-02 -1.04224883e-01 -6.01900518e-02 -2.73448974e-01 +1.24979399e-01 +2.87711285e-02 +2.87694857e-02 +2.87737232e-02 +2.87669469e-02 -1.09174084e-02 +4.35714871e-02 +3.10813580e-02 -9.49604437e-02 +2.87708286e-02 -4.15228978e-02 +2.87725832e-02 +8.32907334e-02 +2.87760217e-02 -5.86660877e-02 -2.17187926e-02 -1.43049154e-02 +4.58372608e-02 -5.86655252e-02 -5.86654879e-02 -5.86659126e-02 -5.86661659e-02 -5.86649999e-02 -9.23932623e-03 +1.81286240e+00 -5.86638488e-02 -1.15787044e-01 -6.24881871e-02 -5.86658232e-02 -5.86649813e-02 -5.86635172e-02 -5.86653948e-02 -1.01719238e-01 -1.63460881e-01 +3.20521258e-02 +6.50772825e-02 -5.86656146e-02 -5.86662851e-02 -5.86665645e-02 +5.24922227e-03 +4.83567752e-02 -6.19650371e-02 -9.77606401e-02 -1.44204453e-01 -5.86636998e-02 +2.45174505e-02 -5.86626492e-02 -5.86664490e-02 -5.86638264e-02 -5.86650111e-02 -1.88131288e-01 -5.36278784e-02 -1.95318032e-02 -1.05642164e-02 +8.10407288e-03 -1.88204139e-01 -5.86646274e-02 -5.86654656e-02 -5.86633570e-02 -5.86667769e-02 -1.15989201e-01 +7.62453629e-03 +5.56583069e-02 -1.65270269e-01 -5.86648285e-02 -2.29467735e-01 -5.86639047e-02 -1.46756604e-01 -5.86622246e-02 -1.10875191e-02 +2.45750304e-02 -9.00887977e-03 -2.98817456e-01 -1.10877156e-02 -1.10877221e-02 -1.10876020e-02 -1.10875173e-02 -1.10878926e-02 +8.02157894e-02 +6.17577694e-02 -1.10882390e-02 -1.42675236e-01 +4.34144866e-03 -1.10876197e-02 -1.10879010e-02 -1.10883573e-02 -1.10877333e-02 -3.74056138e-02 -4.48933095e-02 +3.22122425e-02 +3.89651775e-01 -1.10876774e-02 -1.10874800e-02 -1.10873748e-02 +2.34556571e-02 +6.14118166e-02 +1.68975189e-01 +8.86031985e-02 +3.64456400e-02 -1.10882930e-02 +1.63656741e-01 -1.10886311e-02 -1.10874074e-02 -1.10882558e-02 -1.10879028e-02 +2.79471800e-02 -1.03670247e-01 -3.57015356e-02 -6.82184696e-02 -1.38155997e-01 +6.31909370e-02 -1.10880146e-02 -1.10877268e-02 -1.10883862e-02 -1.10873058e-02 -1.19232595e-01 +7.74791911e-02 -1.42531306e-01 +1.72099043e-02 -1.10879587e-02 -1.68423846e-01 -1.10882139e-02 +7.61637390e-02 -1.10887252e-02 -1.71505229e-03 +2.66022924e-02 +9.89390612e-02 +1.46947086e-01 -1.71588059e-03 -1.71593099e-03 -1.71533192e-03 -1.71495613e-03 -1.71665882e-03 -1.36336803e-01 -3.52486707e-02 -1.71826978e-03 +9.15437117e-02 +1.09062329e-01 -1.71548373e-03 -1.71670970e-03 -1.71881064e-03 -1.71603740e-03 -1.26294355e-04 -2.51629092e-02 +5.07506467e-02 +4.89943922e-02 -1.71576289e-03 -1.71481830e-03 -1.71438651e-03 +1.28554925e-01 +8.87443051e-02 +1.00154646e-01 +5.12702167e-02 -2.76722796e-02 -1.71850738e-03 +1.16681971e-01 -1.72004208e-03 -1.71458069e-03 -1.71829329e-03 -1.71666942e-03 +4.50783875e-03 +4.18656580e-02 -9.20454979e-01 -4.01739180e-02 +5.48972711e-02 +1.66476984e-02 -1.71715650e-03 -1.71594508e-03 -1.71900447e-03 -1.71408686e-03 +5.24782501e-02 +4.99359332e-03 +1.41187692e-02 -2.23908901e-01 -1.71693915e-03 +4.33377810e-02 -1.71818538e-03 +1.80364236e-01 -1.72068027e-03 -4.47083004e-02 +2.64766924e-02 +5.87090515e-02 +5.19571006e-02 -4.47092503e-02 -4.47093099e-02 -4.47085947e-02 -4.47081588e-02 -4.47101258e-02 +4.19971608e-02 -2.14618519e-01 -4.47120108e-02 -1.00950710e-02 -2.13093519e-01 -4.47087772e-02 -4.47101928e-02 -4.47126143e-02 -4.47094329e-02 +1.80399135e-01 +5.01783267e-02 +4.01795506e-01 -2.47372352e-02 -4.47091088e-02 -4.47079912e-02 -4.47075069e-02 +1.29569501e-01 +2.04788372e-01 +1.85675398e-01 +9.45529789e-02 +2.30789468e-01 -4.47122939e-02 -4.78756547e-01 -4.47141193e-02 -4.47077267e-02 -4.47120443e-02 -4.47101407e-02 -2.67974824e-01 +8.41103345e-02 -5.40323816e-02 +1.03456035e-01 -1.41881138e-01 -3.92265730e-02 -4.47107069e-02 -4.47093323e-02 -4.47128974e-02 -4.47071567e-02 -6.12493418e-02 +6.01074435e-02 +1.44896463e-01 -2.20185325e-01 -4.47104387e-02 +1.37824595e-01 -4.47119065e-02 +1.38468608e-01 -4.47148196e-02 +3.76718445e-03 +1.42097147e-02 -4.40818071e-02 +2.44930893e-01 +3.76849785e-03 +3.76859657e-03 +3.76762124e-03 +3.76703660e-03 +3.76976607e-03 +1.53915035e-02 +1.69461563e-01 +3.77236097e-03 +7.36333504e-02 -1.13686427e-01 +3.76789202e-03 +3.76983685e-03 +3.77321034e-03 +3.76878842e-03 +1.03340931e-01 -8.20647702e-02 +2.16856785e-02 +2.09875926e-01 +3.76833859e-03 +3.76681262e-03 +3.76612553e-03 -2.09216177e-02 -1.18023686e-01 -1.26154236e-02 +5.34898192e-02 -1.20184638e-01 +3.77273653e-03 +2.37821415e-02 +3.77525785e-03 +3.76643077e-03 +3.77241359e-03 +3.76977585e-03 -7.60631040e-02 -6.40329272e-02 -9.85226333e-02 +1.37916431e-01 -6.12034462e-02 -3.92358154e-01 +3.77058284e-03 +3.76861915e-03 +3.77355376e-03 +3.76562891e-03 -6.94211796e-02 +4.70213108e-02 +7.40377977e-03 -9.04256478e-02 +3.77021404e-03 +5.35325445e-02 +3.77223990e-03 -1.64516822e-01 +3.77627253e-03 +5.06259836e-02 +4.88843620e-02 +4.49782088e-02 -4.96002138e-01 +5.06263413e-02 +5.06263562e-02 +5.06260954e-02 +5.06259315e-02 +5.06267026e-02 +2.13868156e-01 +1.26840681e-01 +5.06274030e-02 +9.04101953e-02 +1.40767291e-01 +5.06261922e-02 +5.06267063e-02 +5.06275743e-02 +5.06264232e-02 +9.54991281e-02 +1.13633573e-01 +1.36673957e-01 -2.25948796e-01 +5.06263040e-02 +5.06258607e-02 +5.06256819e-02 +1.00686729e-01 +2.80361008e-02 -5.11856563e-03 +4.19900827e-02 +2.18537617e-02 +5.06274812e-02 -3.52028191e-01 +5.06281815e-02 +5.06257936e-02 +5.06274179e-02 +5.06266989e-02 +1.29883988e-02 -4.25206944e-02 +8.77109021e-02 +6.88338652e-02 +1.52734116e-01 +4.94403243e-02 +5.06269112e-02 +5.06263860e-02 +5.06277084e-02 +5.06255589e-02 -3.86593081e-02 -5.13422489e-02 +7.93354958e-02 -6.31713495e-02 +5.06268069e-02 -5.05169593e-02 +5.06273508e-02 +2.02940572e-02 +5.06284349e-02 +1.81853268e-02 +2.32485030e-02 -1.28891517e-03 -3.04176748e-01 +1.81852393e-02 +1.81852262e-02 +1.81852747e-02 +1.81853361e-02 +1.81851778e-02 -1.03854388e-01 -2.64676481e-01 +1.81850865e-02 -1.96220633e-02 +1.50427938e-01 +1.81852784e-02 +1.81851834e-02 +1.81850344e-02 +1.81852151e-02 -1.56877711e-02 -1.88123912e-01 +1.58327699e-01 +6.05137646e-02 +1.81852318e-02 +1.81853380e-02 +1.81853436e-02 +1.06348492e-01 +1.37741625e-01 +1.85708448e-01 -1.44497007e-01 +7.43928691e-03 +1.81850716e-02 -2.03114688e-01 +1.81849971e-02 +1.81853715e-02 +1.81850847e-02 +1.81851797e-02 -1.15821920e-01 +1.06190085e-01 -9.63364765e-02 +2.19527423e-01 +2.54543215e-01 +1.27768442e-01 +1.81851685e-02 +1.81852169e-02 +1.81850325e-02 +1.81853436e-02 +1.85082868e-01 +1.53952748e-01 -4.38718796e-02 -1.08187385e-02 +1.81851704e-02 -8.15417841e-02 +1.81850921e-02 +4.26181108e-02 +1.81849096e-02 +2.45012324e-02 +1.22002408e-01 -1.02638956e-02 -1.46574602e-01 +2.45014448e-02 +2.45014727e-02 +2.45012809e-02 +2.45012064e-02 +2.45016720e-02 -4.67754267e-02 +3.01858485e-01 +2.45021563e-02 -3.77998613e-02 +2.44087558e-02 +2.45013405e-02 +2.45016888e-02 +2.45023146e-02 +2.45015025e-02 +1.62639454e-01 -1.60692304e-01 +3.40282284e-02 -1.05435416e-01 +2.45014187e-02 +2.45011654e-02 +2.45010480e-02 +1.60556450e-01 -9.92754358e-04 +4.02749628e-02 +1.05781509e-02 -6.95291311e-02 +2.45022587e-02 +7.16937333e-02 +2.45026760e-02 +2.45010760e-02 +2.45021749e-02 +2.45016795e-02 +3.88869597e-03 -2.74045137e-03 -9.51375961e-02 -1.18099034e-01 -2.41383344e-01 +3.53326231e-01 +2.45018210e-02 +2.45014895e-02 +2.45023929e-02 +2.45009083e-02 -5.91389239e-02 +6.77943081e-02 +4.43006400e-03 +7.71633908e-02 +2.45017428e-02 -7.62045681e-02 +2.45021489e-02 +4.49972562e-02 +2.45028976e-02 -4.46469970e-02 -3.99646088e-02 -5.63351363e-02 -4.46689241e-02 -4.46467176e-02 -4.46466953e-02 -4.46469411e-02 -4.46470305e-02 -4.46464531e-02 -8.59838128e-02 +2.22600818e-01 -4.46459092e-02 +2.24848628e-01 -2.50038832e-01 -4.46468629e-02 -4.46464308e-02 -4.46457081e-02 -4.46466766e-02 +5.43677667e-03 +2.71661550e-01 -4.15902063e-02 +9.32968967e-03 -4.46467623e-02 -4.46470901e-02 -4.46472429e-02 -1.94475591e-01 -6.82394654e-02 +7.30978400e-02 +1.48741007e-01 +1.00491727e-02 -4.46458124e-02 +1.77774817e-01 -4.46452312e-02 -4.46471758e-02 -4.46458906e-02 -4.46464643e-02 -3.78616676e-02 -4.95412201e-02 +1.21545613e-01 +2.11729124e-01 -1.48899511e-01 -3.39406312e-01 -4.46462706e-02 -4.46467027e-02 -4.46456522e-02 -4.46472988e-02 -7.59801194e-02 -2.56532252e-01 -9.64111835e-02 +2.84407645e-01 -4.46463190e-02 +2.21320931e-02 -4.46459427e-02 +1.99865967e-01 -4.46450412e-02 -9.45830159e-03 -6.61579221e-02 -3.59964706e-02 +3.12613070e-01 -9.45810787e-03 -9.45803523e-03 -9.45823826e-03 -9.45827924e-03 -9.45780799e-03 +9.51576903e-02 -2.58176476e-01 -9.45761707e-03 -1.13295838e-01 +4.14983407e-02 -9.45815817e-03 -9.45774838e-03 -9.45748203e-03 -9.45813302e-03 +1.34372428e-01 +8.68420750e-02 +1.85994077e-02 -1.68654788e-02 -9.45811067e-03 -9.45829786e-03 -9.45849344e-03 +8.36399272e-02 +6.11410402e-02 -7.53247589e-02 -1.30175948e-01 -5.18747456e-02 -9.45759378e-03 -1.60147026e-01 -9.45710950e-03 -9.45834164e-03 -9.45762265e-03 -9.45776794e-03 +6.33799657e-02 +1.77997872e-01 +8.04255530e-02 +2.83344146e-02 -8.83074105e-03 -4.90682930e-01 -9.45761893e-03 -9.45812371e-03 -9.45755187e-03 -9.45861172e-03 -2.44242735e-02 +4.98532727e-02 -9.61250532e-03 -1.15877345e-01 -9.45766363e-03 +7.17943981e-02 -9.45764966e-03 +6.47341385e-02 -9.45698470e-03 +9.99053270e-02 +1.65295824e-02 +6.49908036e-02 +2.29346231e-01 +9.99067277e-02 +9.99067947e-02 +9.99057591e-02 +9.99051556e-02 +9.99080017e-02 +1.33811578e-01 -1.36166528e-01 +9.99108404e-02 +8.53682533e-02 +5.25785564e-03 +9.99060422e-02 +9.99080762e-02 +9.99117196e-02 +9.99070108e-02 -4.34177704e-02 -4.45508771e-02 +1.86322387e-02 +2.03391090e-01 +9.99065265e-02 +9.99049097e-02 +9.99041870e-02 +1.59362376e-01 +1.74000829e-01 +3.68175283e-02 -1.45620704e-01 +6.15131743e-02 +9.99112576e-02 +3.90515290e-03 +9.99138132e-02 +9.99044999e-02 +9.99109074e-02 +9.99080166e-02 -1.89751580e-01 +1.11258484e-01 +1.23960845e-01 -3.67553473e-01 -8.81444737e-02 -1.95883259e-01 +9.99088138e-02 +9.99068320e-02 +9.99120995e-02 +9.99037027e-02 -6.40245378e-02 -1.33158639e-01 +5.43695651e-02 +1.11333784e-02 +9.99085084e-02 +2.22230144e-02 +9.99106914e-02 +1.11289889e-01 +9.99148712e-02 -3.48437689e-02 -5.07901842e-03 +1.47507181e-02 -2.14625597e-01 -3.48442830e-02 -3.48443389e-02 -3.48439291e-02 -3.48437279e-02 -3.48447636e-02 +4.34464701e-02 +6.84721954e-03 -3.48457657e-02 -5.40148467e-02 -4.15823996e-01 -3.48440297e-02 -3.48448046e-02 -3.48460935e-02 -3.48443799e-02 +7.29559883e-02 -4.44969833e-02 +4.59220856e-02 +2.58059353e-01 -3.48442048e-02 -3.48436013e-02 -3.48433442e-02 +5.91860786e-02 +3.78415585e-02 -5.36301322e-02 -6.93782791e-02 +6.57638237e-02 -3.48459259e-02 +1.13600731e-01 -3.48468684e-02 -3.48434709e-02 -3.48458141e-02 -3.48447673e-02 -4.20260020e-02 -4.24886644e-02 -3.11304610e-02 -4.09297124e-02 +8.16215351e-02 +3.62889349e-01 -3.48450765e-02 -3.48443240e-02 -3.48462127e-02 -3.48431244e-02 +9.00755823e-02 +9.48640481e-02 -1.13337249e-01 +8.90073031e-02 -3.48449312e-02 +2.39986349e-02 -3.48457173e-02 -4.80854586e-02 -3.48473191e-02 -2.63175298e-03 +2.50167176e-02 +8.80956650e-03 +2.22167432e-01 -2.63224216e-03 -2.63228035e-03 -2.63191154e-03 -2.63170712e-03 -2.63270736e-03 -4.47104014e-02 -1.81902319e-01 -2.63365963e-03 +8.56171399e-02 +2.23358601e-01 -2.63200817e-03 -2.63274158e-03 -2.63396790e-03 -2.63235089e-03 +2.80618101e-01 -1.10694463e-03 -1.11322552e-02 -1.68833998e-03 -2.63217045e-03 -2.63162493e-03 -2.63137766e-03 +6.88510165e-02 -1.34710558e-02 -1.99838251e-01 +1.53138846e-01 -7.48906508e-02 -2.63379468e-03 -5.25856996e-03 -2.63474858e-03 -2.63148919e-03 -2.63368129e-03 -2.63271178e-03 -3.20267707e-01 -3.29118967e-02 -3.03719528e-02 -1.70496896e-01 +1.78556442e-01 -8.82208347e-02 -2.63300422e-03 -2.63228477e-03 -2.63411924e-03 -2.63117906e-03 -3.40816587e-01 -8.99793766e-03 -5.70156500e-02 +1.18363284e-01 -2.63287895e-03 +1.20135479e-01 -2.63360841e-03 +1.80262595e-01 -2.63513043e-03 +9.94042084e-02 +9.04107764e-02 +2.39182934e-02 +1.40203059e-01 +9.94044468e-02 +9.94044766e-02 +9.94042903e-02 +9.94041711e-02 +9.94046926e-02 -2.00187266e-02 -9.63656381e-02 +9.94051248e-02 -4.88824993e-02 +9.36200246e-02 +9.94043425e-02 +9.94046703e-02 +9.94053110e-02 +9.94044989e-02 -1.15269748e-03 -5.52285686e-02 -3.99570854e-04 +5.23103699e-02 +9.94044244e-02 +9.94041488e-02 +9.94040444e-02 +5.11534400e-02 +7.47038275e-02 +1.04806513e-01 +7.97668472e-02 +3.19227457e-01 +9.94052216e-02 -9.63813365e-02 +9.94056389e-02 +9.94040668e-02 +9.94051248e-02 +9.94046852e-02 +5.93803115e-02 +1.47609785e-01 -3.94731075e-01 +2.38046393e-01 +1.08833350e-01 -2.80134290e-01 +9.94048044e-02 +9.94044691e-02 +9.94054154e-02 +9.94039625e-02 +2.72809230e-02 -1.15064569e-01 +2.66130805e-01 +2.10155413e-01 +9.94047523e-02 +1.82153106e-01 +9.94051397e-02 -5.88325746e-02 +9.94058400e-02 +9.30197164e-03 +4.36394885e-02 -1.20649822e-02 +4.59621996e-02 +9.30153206e-03 +9.30148736e-03 +9.30183567e-03 +9.30203777e-03 +9.30108782e-03 +1.64111674e-01 +1.97931036e-01 +9.30017885e-03 -1.01767279e-01 +1.15869828e-01 +9.30174440e-03 +9.30105709e-03 +9.29988082e-03 +9.30144638e-03 -1.08408652e-01 -1.07606687e-01 -4.46299054e-02 -3.45326914e-03 +9.30158887e-03 +9.30213835e-03 +9.30235442e-03 +1.04071058e-01 -5.05630113e-02 -4.69356216e-02 +1.38517290e-01 +1.92800343e-01 +9.30004753e-03 -3.10546041e-01 +9.29914322e-03 +9.30226594e-03 +9.30016674e-03 +9.30108037e-03 +2.53021032e-01 +1.30675202e-02 -3.72899063e-02 -2.30749875e-01 +7.79125690e-02 -1.72132865e-01 +9.30080377e-03 +9.30148084e-03 +9.29975882e-03 +9.30250529e-03 -1.31271183e-01 +2.24391669e-02 -4.09795791e-02 -1.05710141e-01 +9.30093415e-03 +1.32254034e-01 +9.30024497e-03 +5.10377660e-02 +9.29878186e-03 -1.92938030e-01 -2.22338200e-01 -8.22671205e-02 -1.00032417e-02 -1.92937613e-01 -1.92937553e-01 -1.92937911e-01 -1.92938134e-01 -1.92937091e-01 -9.88619104e-02 -2.46671215e-03 -1.92936122e-01 -1.03228167e-02 -1.14936396e-01 -1.92937851e-01 -1.92937031e-01 -1.92935839e-01 -1.92937478e-01 -7.88832083e-02 -1.47425935e-01 -1.55638710e-01 +1.02991946e-02 -1.92937657e-01 -1.92938223e-01 -1.92938477e-01 -5.54457828e-02 -1.42323658e-01 -2.18482375e-01 -1.55658051e-01 -2.95337196e-02 -1.92935973e-01 -8.59549195e-02 -1.92935169e-01 -1.92938358e-01 -1.92936108e-01 -1.92937061e-01 -7.88225159e-02 -1.39362454e-01 -1.94474310e-01 -1.00477189e-01 +1.68708122e+00 -1.09282374e-01 -1.92936763e-01 -1.92937538e-01 -1.92935705e-01 -1.92938656e-01 -1.69666126e-01 -8.11308324e-02 -1.57706425e-01 -1.36213303e-01 -1.92936897e-01 -1.89493880e-01 -1.92936152e-01 -2.08478257e-01 -1.92934796e-01 -4.03813459e-02 -1.44835915e-02 -4.46523614e-02 -1.20158106e-01 -4.03805040e-02 -4.03804518e-02 -4.03810591e-02 -4.03814204e-02 -4.03797515e-02 +6.71985373e-02 +3.17130178e-01 -4.03781608e-02 -7.97798708e-02 -1.94664467e-02 -4.03809063e-02 -4.03797068e-02 -4.03776616e-02 -4.03803177e-02 -1.81512669e-01 +8.23622420e-02 -3.89635861e-02 +2.46582702e-01 -4.03806120e-02 -4.03815582e-02 -4.03820053e-02 -1.43082634e-01 -2.60941356e-01 +4.97509609e-04 +1.24036603e-01 -8.63581076e-02 -4.03779447e-02 -9.01863575e-02 -4.03764099e-02 -4.03818302e-02 -4.03781310e-02 -4.03797477e-02 -5.19416705e-02 +1.04511827e-01 +2.77402662e-02 -2.40807846e-01 -1.82526186e-02 +2.22017273e-01 -4.03792895e-02 -4.03804183e-02 -4.03774753e-02 -4.03822921e-02 +1.64266676e-01 -1.21796682e-01 -1.94602609e-01 -4.53349613e-02 -4.03794758e-02 -1.78353097e-02 -4.03782539e-02 +5.45618087e-02 -4.03757840e-02 -5.25815189e-02 -2.84197694e-03 -1.18290232e-02 -5.39568178e-02 -5.25823608e-02 -5.25824018e-02 -5.25817610e-02 -5.25814258e-02 -5.25831394e-02 +5.32352068e-02 -9.56694856e-02 -5.25846966e-02 +4.58767205e-01 -2.46665671e-01 -5.25819398e-02 -5.25831990e-02 -5.25852628e-02 -5.25825284e-02 +1.07783310e-01 +1.39057726e-01 -1.02945060e-01 +1.15204409e-01 -5.25822453e-02 -5.25812879e-02 -5.25808595e-02 -1.79165434e-02 -3.15911680e-01 -2.49491935e-03 -2.47403849e-02 +5.03208116e-02 -5.25849797e-02 +9.36462209e-02 -5.25865927e-02 -5.25810458e-02 -5.25847487e-02 -5.25831506e-02 +1.16940238e-01 -3.24937701e-01 +2.43160296e-02 -4.62821350e-02 +7.00301975e-02 +8.67473148e-03 -5.25836274e-02 -5.25824204e-02 -5.25855273e-02 -5.25805540e-02 -3.21125567e-01 +1.57926243e-03 +1.09877260e-02 -6.27861544e-02 -5.25834151e-02 +1.76010475e-01 -5.25846221e-02 -1.17172059e-02 -5.25872484e-02 +2.09434400e-03 -8.71074386e-03 -3.59804258e-02 +2.77605623e-01 +2.09453003e-03 +2.09454284e-03 +2.09441455e-03 +2.09430140e-03 +2.09469721e-03 +6.91922307e-02 -2.32929245e-01 +2.09509861e-03 +1.21710159e-01 +1.03334591e-01 +2.09445204e-03 +2.09472119e-03 +2.09525065e-03 +2.09458382e-03 -1.21104211e-01 -7.11844489e-02 +3.16804349e-02 -2.94251233e-01 +2.09450535e-03 +2.09429325e-03 +2.09418498e-03 +2.90401168e-02 -1.65744629e-02 -6.21705092e-02 -1.35776892e-01 -6.48783222e-02 +2.09516170e-03 +4.56041619e-02 +2.09552608e-03 +2.09422945e-03 +2.09510908e-03 +2.09470605e-03 +1.25530943e-01 +3.90317515e-02 -1.53756579e-02 -1.05265170e-01 +1.39838293e-01 -5.65382726e-02 +2.09483295e-03 +2.09455169e-03 +2.09528115e-03 +2.09410535e-03 -2.58594871e-01 +5.46468794e-03 +3.62362638e-02 -1.90423921e-01 +2.09479383e-03 +6.45461306e-02 +2.09507882e-03 +9.27901417e-02 +2.09566881e-03 +2.55816113e-02 +2.41376720e-02 -2.38976758e-02 -5.90023577e-01 +2.55816076e-02 +2.55816076e-02 +2.55816132e-02 +2.55816113e-02 +2.55816355e-02 -4.19165157e-02 -3.42722945e-02 +2.55816597e-02 -5.77976815e-02 -1.92404255e-01 +2.55816206e-02 +2.55816262e-02 +2.55816802e-02 +2.55816095e-02 -5.99369854e-02 +8.44067708e-02 +5.81447929e-02 +2.34573141e-01 +2.55816001e-02 +2.55816262e-02 +2.55815834e-02 -4.27835211e-02 +1.02881668e-02 +1.39459930e-02 +1.72826603e-01 +2.74942759e-02 +2.55816802e-02 -8.26968029e-02 +2.55817007e-02 +2.55816039e-02 +2.55816653e-02 +2.55816299e-02 +3.52102593e-02 -3.77292447e-02 +6.23373538e-02 -1.87496580e-02 -1.42527685e-01 +3.09324916e-02 +2.55816430e-02 +2.55816039e-02 +2.55816560e-02 +2.55815666e-02 +2.73285024e-02 +2.05220297e-01 +3.39002088e-02 +1.36138618e-01 +2.55816486e-02 +3.93733708e-03 +2.55816691e-02 +7.23040551e-02 +2.55817417e-02 -2.75611188e-02 -1.72757786e-02 -3.23992483e-02 +3.28237414e-01 -2.75606066e-02 -2.75605675e-02 -2.75609735e-02 -2.75611691e-02 -2.75600888e-02 -2.12256163e-01 +5.29079465e-03 -2.75590103e-02 -1.12421945e-01 -2.48036180e-02 -2.75608413e-02 -2.75600683e-02 -2.75586341e-02 -2.75604874e-02 -3.38397957e-02 -2.19235301e-01 -1.68595865e-01 -1.45742714e-01 -2.75606774e-02 -2.75613014e-02 -2.75615547e-02 -1.03363264e-02 -1.65235065e-02 -3.23551856e-02 -1.69158969e-02 +6.40783086e-02 -2.75588371e-02 -1.46698177e-01 -2.75577847e-02 -2.75614355e-02 -2.75589805e-02 -2.75600813e-02 +1.94231272e-02 -2.60756370e-02 +2.97850281e-01 -7.84000605e-02 +1.17741697e-01 +1.74562261e-01 -2.75597554e-02 -2.75605544e-02 -2.75584664e-02 -2.75617484e-02 -7.44503736e-02 -1.20249689e-01 -1.25788853e-01 -3.41131873e-02 -2.75599137e-02 +1.09435432e-01 -2.75590625e-02 -4.74506915e-02 -2.75573563e-02 +8.56949911e-02 -6.92012310e-02 -3.38991314e-01 +6.39802916e-03 +8.56952965e-02 +8.56953040e-02 +8.56950730e-02 +8.56949687e-02 +8.56956244e-02 +3.57711256e-01 +3.47416490e-01 +8.56963098e-02 +2.39622090e-02 +1.59539863e-01 +8.56951326e-02 +8.56956616e-02 +8.56964737e-02 +8.56953487e-02 +9.07380208e-02 +7.90845677e-02 +1.67854910e-03 -1.27387093e-02 +8.56952518e-02 +8.56949091e-02 +8.56947154e-02 -2.65303836e-03 +4.74345013e-02 +7.85031021e-02 -3.15586515e-02 +3.79815437e-02 +8.56964067e-02 +1.87118992e-01 +8.56969729e-02 +8.56948048e-02 +8.56963098e-02 +8.56956318e-02 -7.46147111e-02 -3.50690112e-02 -3.09404433e-01 +1.15538031e-01 -1.79233719e-02 +4.44545075e-02 +8.56958255e-02 +8.56953189e-02 +8.56965482e-02 +8.56945664e-02 +8.45280737e-02 -1.14932485e-01 +1.42747164e-01 -9.53790396e-02 +8.56957808e-02 +1.30257919e-01 +8.56962577e-02 -1.12985082e-01 +8.56972262e-02 +1.76243577e-02 -2.61542038e-03 +9.28376466e-02 -8.39488134e-02 +1.76237486e-02 +1.76236946e-02 +1.76241491e-02 +1.76244248e-02 +1.76231787e-02 +9.37926844e-02 -1.10039793e-01 +1.76220294e-02 +2.45847180e-02 +2.61098295e-01 +1.76240336e-02 +1.76231395e-02 +1.76216550e-02 +1.76236145e-02 -1.27788022e-01 -1.50201246e-01 +5.13944514e-02 -1.41800582e-01 +1.76238306e-02 +1.76245272e-02 +1.76248029e-02 +1.41269907e-01 -5.18984385e-02 -1.98101047e-02 -1.15289107e-01 -7.20312223e-02 +1.76218674e-02 +1.93844885e-01 +1.76207535e-02 +1.76246651e-02 +1.76220015e-02 +1.76231675e-02 -6.14998229e-02 +9.39081162e-02 +1.11498246e-02 +1.20405413e-01 -1.52211890e-01 +9.81259495e-02 +1.76228248e-02 +1.76236667e-02 +1.76215041e-02 +1.76250059e-02 -5.67701720e-02 +3.61045092e-01 -2.79066563e-02 +9.13354456e-02 +1.76229775e-02 -1.41062409e-01 +1.76220778e-02 -8.36375654e-02 +1.76203344e-02 +8.80484730e-02 +4.61123921e-02 +7.17162937e-02 +3.14900205e-02 +8.80493820e-02 +8.80494639e-02 +8.80487859e-02 +8.80484283e-02 +8.80502984e-02 -1.70667898e-02 -1.49735168e-01 +8.80521908e-02 -5.83982468e-02 +1.43627018e-01 +8.80489349e-02 +8.80503654e-02 +8.80528241e-02 +8.80495906e-02 -4.57490176e-01 -1.68287188e-01 +1.25546828e-01 +1.12260282e-01 +8.80492479e-02 +8.80482122e-02 +8.80477428e-02 +1.83261156e-01 -1.49258032e-01 +5.79938367e-02 +3.71575207e-02 -5.12970865e-01 +8.80524665e-02 +3.16159688e-02 +8.80542472e-02 +8.80479589e-02 +8.80522206e-02 +8.80503133e-02 +2.03995198e-01 -5.31848557e-02 +1.27459457e-02 -1.80382520e-01 +2.47733682e-01 +7.16225579e-02 +8.80508572e-02 +8.80494863e-02 +8.80530924e-02 +8.80473852e-02 -3.69852066e-01 -6.53015897e-02 +2.17955530e-01 +2.16922671e-01 +8.80506188e-02 +2.01451093e-01 +8.80520642e-02 +5.05275130e-02 +8.80549625e-02 +2.70115249e-02 +1.04688466e-01 -5.68951890e-02 +3.27868015e-01 +2.70121731e-02 +2.70122252e-02 +2.70117223e-02 +2.70114522e-02 +2.70128045e-02 +1.23736739e-01 +1.30015194e-01 +2.70141382e-02 +7.59413913e-02 -2.03136489e-01 +2.70118359e-02 +2.70128641e-02 +2.70145591e-02 +2.70123091e-02 +9.08353031e-02 -4.95914407e-02 -2.33758092e-02 +1.02266625e-01 +2.70120688e-02 +2.70113256e-02 +2.70109791e-02 -1.09915351e-02 +5.74198030e-02 +2.15233415e-01 +9.70903635e-02 +7.18624145e-02 +2.70143561e-02 -2.48017505e-01 +2.70156506e-02 +2.70111319e-02 +2.70141773e-02 +2.70128213e-02 +3.03371195e-02 +8.83734748e-02 +1.59642458e-01 -4.87583503e-02 +9.06124115e-02 +1.36054352e-01 +2.70132422e-02 +2.70122495e-02 +2.70147435e-02 +2.70107407e-02 -1.42791390e-01 -1.75321877e-01 +1.22267246e-01 +5.25397286e-02 +2.70130541e-02 +8.62980187e-02 +2.70140804e-02 -1.07971122e-02 +2.70161107e-02 -3.23047787e-02 -1.99584607e-02 -2.53471673e-01 +8.63424614e-02 -3.23044732e-02 -3.23044434e-02 -3.23046856e-02 -3.23048383e-02 -3.23041789e-02 +3.05769946e-02 +6.47445992e-02 -3.23035270e-02 -1.45885125e-01 -1.01784050e-01 -3.23046073e-02 -3.23041752e-02 -3.23032960e-02 -3.23043875e-02 +9.76377279e-02 +7.16570541e-02 -6.74522743e-02 -6.68770820e-03 -3.23045067e-02 -3.23049054e-02 -3.23050395e-02 +1.54784163e-02 +9.24373269e-02 +3.41595858e-01 -1.97087098e-02 +2.17098415e-01 -3.23033892e-02 -1.73554525e-01 -3.23027335e-02 -3.23049873e-02 -3.23035121e-02 -3.23041826e-02 +8.72126594e-02 -3.53614357e-03 +1.49822244e-02 -7.03985756e-03 +1.50470445e-02 +1.73191369e-01 -3.23040038e-02 -3.23044285e-02 -3.23031917e-02 -3.23051699e-02 -1.52744174e-01 +9.17888358e-02 +6.59999922e-02 +6.86350614e-02 -3.23041007e-02 +8.30991268e-02 -3.23035568e-02 -1.69283274e-04 -3.23024988e-02 -3.00070904e-02 -1.70571264e-02 -1.66435093e-01 +1.55680612e-01 -3.00067440e-02 -3.00067216e-02 -3.00069917e-02 -3.00071258e-02 -3.00064571e-02 -9.12519544e-03 +2.72386125e-03 -3.00057940e-02 -3.12928529e-03 -4.62806262e-02 -3.00069172e-02 -3.00064292e-02 -3.00056152e-02 -3.00066639e-02 -2.72536799e-02 +6.71082363e-02 +1.24849685e-01 -6.77939951e-02 -3.00067812e-02 -3.00071910e-02 -3.00073382e-02 -8.92550275e-02 -1.50164217e-01 +3.17772967e-03 -3.14183950e-01 +1.15321018e-01 -3.00057121e-02 -1.38210312e-01 -3.00050825e-02 -3.00072953e-02 -3.00057754e-02 -3.00064478e-02 +8.49213183e-01 +2.27640457e-02 +5.49775362e-02 -3.60626057e-02 +4.55484241e-02 -2.14721859e-01 -3.00062504e-02 -3.00067104e-02 -3.00054941e-02 -3.00074387e-02 -7.31765330e-02 -5.87630980e-02 +8.65296796e-02 +3.00733447e-01 -3.00063565e-02 +1.52786657e-01 -3.00058220e-02 +2.17260703e-01 -3.00048329e-02 +6.73996508e-02 +1.24181174e-02 +1.32832006e-01 -4.23908412e-01 +6.73999563e-02 +6.73999637e-02 +6.73997700e-02 +6.73995987e-02 +6.74002841e-02 -4.90036123e-02 +1.57859027e-01 +6.74008727e-02 +9.85284373e-02 +1.29358813e-01 +6.73998147e-02 +6.74002990e-02 +6.74011409e-02 +6.74000382e-02 +4.09594551e-02 -1.22402031e-02 -8.31426457e-02 +8.08442235e-02 +6.73999041e-02 +6.73995987e-02 +6.73994049e-02 +1.45694420e-01 +3.40677686e-02 -3.18248160e-02 +6.39146045e-02 +8.12338740e-02 +6.74010143e-02 +9.69046131e-02 +6.74016401e-02 +6.73994869e-02 +6.74009025e-02 +6.74002841e-02 +1.32574722e-01 +1.36123404e-01 +3.66073065e-02 +3.45296524e-02 -3.41107041e-01 -2.76803672e-02 +6.74004853e-02 +6.73999712e-02 +6.74012527e-02 +6.73992857e-02 +7.05269873e-02 +7.73113891e-02 +1.77394599e-01 +1.44308180e-01 +6.74003884e-02 +4.61471360e-03 +6.74008653e-02 +6.20534159e-02 +6.74018860e-02 +1.31445201e-02 +1.72326539e-03 -1.20689318e-01 +1.15580924e-01 +1.31455595e-02 +1.31456312e-02 +1.31448526e-02 +1.31443981e-02 +1.31465634e-02 +9.17563736e-02 +5.10652363e-02 +1.31485984e-02 -8.59204084e-02 +3.04660618e-01 +1.31450733e-02 +1.31466230e-02 +1.31492317e-02 +1.31457951e-02 +1.08517066e-03 -3.42430770e-02 -3.61650437e-02 -3.94428074e-01 +1.31454235e-02 +1.31442137e-02 +1.31437015e-02 -3.28662768e-02 +2.20483527e-01 -4.73466069e-02 -4.52126302e-02 -1.03312932e-01 +1.31488983e-02 -1.28524005e-03 +1.31508615e-02 +1.31439073e-02 +1.31486561e-02 +1.31465774e-02 -9.18524936e-02 -1.26048187e-02 -6.69561997e-02 +1.56506613e-01 +2.42593080e-01 +3.44143920e-02 +1.31471707e-02 +1.31456647e-02 +1.31495269e-02 +1.31433131e-02 -9.10951495e-02 +2.09641270e-02 +2.80369073e-02 -2.95530409e-02 +1.31468941e-02 +3.80934053e-03 +1.31484829e-02 -3.72088067e-02 +1.31516345e-02 +5.92892915e-02 +8.09880197e-02 +3.84396799e-02 +7.33749941e-02 +5.92904165e-02 +5.92904985e-02 +5.92896752e-02 +5.92891648e-02 +5.92914000e-02 +1.71286970e-01 -1.25347391e-01 +5.92934974e-02 -9.05318484e-02 +1.52150586e-01 +5.92898987e-02 +5.92914671e-02 +5.92941493e-02 +5.92906177e-02 -6.09748662e-02 -2.17327937e-01 +1.51939951e-02 -3.26669514e-01 +5.92902675e-02 +5.92889898e-02 +5.92884421e-02 +7.74019361e-02 -9.84808709e-03 +3.78931058e-03 -7.54225552e-02 +7.20675215e-02 +5.92938140e-02 -9.44413152e-03 +5.92958182e-02 +5.92886768e-02 +5.92935495e-02 +5.92914075e-02 +2.98058778e-01 -2.72776075e-02 -2.12787926e-01 +2.34489232e-01 -3.97007028e-03 +6.56509921e-02 +5.92920333e-02 +5.92905134e-02 +5.92944771e-02 +5.92880435e-02 -2.34592557e-01 +7.81749785e-02 -2.01731753e-02 +3.68362159e-01 +5.92917614e-02 +2.80067492e-02 +5.92934117e-02 -7.74649903e-02 +5.92966266e-02 +4.36973665e-03 +9.45201814e-02 +1.65749565e-02 +1.17497891e-01 +4.36968682e-03 +4.36969474e-03 +4.36972594e-03 +4.36975155e-03 +4.36966540e-03 -6.02562837e-02 +2.44564757e-01 +4.36957413e-03 -6.36978745e-02 +1.25544429e-01 +4.36971476e-03 +4.36965795e-03 +4.36955551e-03 +4.36969195e-03 +2.63150543e-01 -2.29181737e-01 +1.84363380e-01 +5.81705896e-03 +4.36969195e-03 +4.36975807e-03 +4.36978741e-03 +1.12528443e-01 -3.47702242e-02 +1.69270784e-01 +4.70386036e-02 +1.75735325e-01 +4.36955318e-03 -2.21792534e-02 +4.36946610e-03 +4.36980044e-03 +4.36956994e-03 +4.36966494e-03 -1.07451171e-01 +5.44538833e-02 -2.75941312e-01 -4.82084081e-02 -2.31580243e-01 -2.74966985e-01 +4.36963281e-03 +4.36968822e-03 +4.36952757e-03 +4.36981255e-03 -1.85848519e-01 +2.83937842e-01 -8.95705670e-02 +3.11660729e-02 +4.36964585e-03 +6.05821162e-02 +4.36957693e-03 +7.93204308e-02 +4.36941627e-03 -1.41280005e-02 -1.93737391e-02 -3.70878307e-03 -1.80545062e-01 -1.41270021e-02 -1.41269350e-02 -1.41276717e-02 -1.41281132e-02 -1.41260521e-02 +2.02480957e-01 -1.51546253e-02 -1.41241560e-02 +2.04899982e-01 +2.62745112e-01 -1.41274799e-02 -1.41259972e-02 -1.41235301e-02 -1.41267814e-02 -1.72452375e-01 +9.12406296e-02 -9.60314497e-02 -1.91900566e-01 -1.41271548e-02 -1.41282622e-02 -1.41287707e-02 +1.69930374e-03 +3.34267542e-02 -1.69546798e-01 -3.17001522e-01 -5.05782515e-02 -1.41238617e-02 -1.98586017e-01 -1.41220037e-02 -1.41285555e-02 -1.41241075e-02 -1.41260419e-02 -1.61797941e-01 -2.15938836e-01 +6.14218898e-02 -1.38972953e-01 -3.68030518e-02 +4.27787229e-02 -1.41254719e-02 -1.41269024e-02 -1.41232694e-02 -1.41291423e-02 -2.21110485e-03 +3.64804417e-01 -7.99764916e-02 +2.09126979e-01 -1.41257206e-02 +1.74833879e-01 -1.41242426e-02 +1.29577234e-01 -1.41212363e-02 +1.32817477e-02 +5.45250066e-03 -2.81854998e-02 +9.48969424e-02 +1.32819572e-02 +1.32819712e-02 +1.32818241e-02 +1.32817384e-02 +1.32821612e-02 +1.08583644e-01 +1.13581732e-01 +1.32826362e-02 -3.45099241e-01 -3.85044515e-02 +1.32818660e-02 +1.32821854e-02 +1.32827666e-02 +1.32820029e-02 -3.55313003e-01 -2.41249040e-01 -3.46109681e-02 +2.76497602e-01 +1.32819405e-02 +1.32816881e-02 +1.32815642e-02 +1.43605610e-02 -1.99883297e-01 +1.40999019e-01 -1.28615112e-03 -5.16022295e-02 +1.32827014e-02 +3.42977904e-02 +1.32831102e-02 +1.32816210e-02 +1.32826455e-02 +1.32821724e-02 +1.16051428e-01 +7.75347948e-02 +2.74210761e-04 -6.08776659e-02 +8.59514400e-02 -9.78225470e-03 +1.32822916e-02 +1.32819694e-02 +1.32828159e-02 +1.32814981e-02 -5.96497394e-02 +9.12994370e-02 -5.70123494e-02 -8.57766941e-02 +1.32822422e-02 +1.15169719e-01 +1.32826138e-02 +2.87671778e-02 +1.32832732e-02 +7.39124715e-02 +3.14364247e-02 -1.44057702e-02 +2.69041926e-01 +7.39121363e-02 +7.39121139e-02 +7.39123821e-02 +7.39125013e-02 +7.39117786e-02 -2.78338157e-02 -2.92555958e-01 +7.39111155e-02 +5.31675033e-02 +1.90656073e-02 +7.39123374e-02 +7.39117712e-02 +7.39109144e-02 +7.39120319e-02 +1.03623584e-01 -5.10925651e-02 +5.55937253e-02 -3.14656258e-01 +7.39121512e-02 +7.39125237e-02 +7.39127696e-02 +6.91587999e-02 +8.63025635e-02 +9.59387869e-02 +1.83783844e-02 +4.45377305e-02 +7.39109963e-02 -1.11196980e-01 +7.39104152e-02 +7.39126876e-02 +7.39110932e-02 +7.39117861e-02 +7.48828501e-02 +1.50253540e-02 +1.54781982e-01 -1.21278495e-01 +1.60895795e-01 -1.20860316e-01 +7.39115551e-02 +7.39120916e-02 +7.39108548e-02 +7.39128664e-02 +4.56310771e-02 +6.48838654e-02 +4.22734529e-01 +7.28206933e-02 +7.39116445e-02 +1.02877870e-01 +7.39111379e-02 +1.32405600e-02 +7.39100724e-02 -7.67597482e-02 -5.12676053e-02 -5.96448928e-02 +4.86766994e-02 -7.67603368e-02 -7.67603666e-02 -7.67599344e-02 -7.67596737e-02 -7.67608583e-02 +7.14522600e-02 -1.15590736e-01 -7.67620429e-02 -2.11869538e-01 -1.33924168e-02 -7.67600313e-02 -7.67609328e-02 -7.67623708e-02 -7.67604411e-02 +2.59652108e-01 -2.50588059e-01 +6.39292300e-01 -1.05191179e-01 -7.67602697e-02 -7.67595172e-02 -7.67591670e-02 +1.67898372e-01 -3.68972391e-01 +9.07296538e-02 -1.01719581e-01 -1.74611300e-01 -7.67622069e-02 +1.75303847e-01 -7.67633691e-02 -7.67593309e-02 -7.67620727e-02 -7.67608806e-02 -2.03470930e-01 -2.41587937e-01 +9.38928425e-02 -1.41470790e-01 -1.29953176e-01 +1.75049931e-01 -7.67612308e-02 -7.67603740e-02 -7.67625198e-02 -7.67589658e-02 +4.88174967e-02 +1.82815827e-02 +1.04222610e-03 +1.15648545e-01 -7.67610595e-02 +6.51443303e-02 -7.67619833e-02 +5.33865616e-02 -7.67637864e-02 +4.51159552e-02 -5.40611288e-03 +5.83353564e-02 +5.09544499e-02 +4.51165475e-02 +4.51165847e-02 +4.51161191e-02 +4.51158956e-02 +4.51171063e-02 +4.87428345e-02 -2.23326445e-01 +4.51182686e-02 +1.30737111e-01 +2.96245426e-01 +4.51162271e-02 +4.51171361e-02 +4.51185890e-02 +4.51166704e-02 +2.83456147e-01 -1.60961285e-01 -1.15899406e-01 -6.91151619e-02 +4.51164544e-02 +4.51157726e-02 +4.51154858e-02 +1.02873263e-03 +3.22597213e-02 -5.67524286e-04 +9.54683945e-02 -1.24070227e-01 +4.51184660e-02 -1.49209797e-01 +4.51194979e-02 +4.51156236e-02 +4.51182984e-02 +4.51171286e-02 +6.42719725e-03 +4.08979654e-01 -2.01961771e-02 -5.62677346e-02 -1.33199751e-01 -1.29606396e-01 +4.51174639e-02 +4.51166034e-02 +4.51187938e-02 +4.51152958e-02 -5.82052879e-02 -8.10360610e-02 +9.45531204e-02 +2.67148521e-02 +4.51172963e-02 +3.72083299e-02 +4.51182276e-02 +1.28660411e-01 +4.51199710e-02 +7.42336176e-03 -7.45259877e-03 -1.08950205e-01 +1.56473696e-01 +7.42400205e-03 +7.42405141e-03 +7.42356153e-03 +7.42329098e-03 +7.42464093e-03 -5.58623187e-02 -1.80555791e-01 +7.42594898e-03 -2.36330211e-01 +5.01020849e-01 +7.42368028e-03 +7.42468331e-03 +7.42637273e-03 +7.42413383e-03 -1.40730023e-01 -3.33610862e-01 -8.85522962e-02 +3.41877490e-01 +7.42390845e-03 +7.42315920e-03 +7.42280437e-03 -1.48237035e-01 -1.60665989e-01 +1.00574240e-01 -9.70610604e-02 +8.81226882e-02 +7.42616225e-03 -7.14334697e-02 +7.42742419e-03 +7.42295338e-03 +7.42598437e-03 +7.42464419e-03 -1.53176889e-01 -1.31406933e-01 +7.47046992e-02 -1.21074148e-01 -1.29205570e-01 +8.40462521e-02 +7.42503488e-03 +7.42407655e-03 +7.42656272e-03 +7.42256269e-03 -1.14039816e-01 +3.59844938e-02 +2.62078363e-02 -6.70758933e-02 +7.42486957e-03 +3.55536416e-02 +7.42588425e-03 +7.65404701e-02 +7.42794247e-03 +3.72788124e-03 -6.38644025e-02 +2.85698823e-03 -1.88836768e-01 +3.72854923e-03 +3.72859975e-03 +3.72809311e-03 +3.72780766e-03 +3.72919207e-03 -9.54936743e-02 -1.87974777e-02 +3.73051642e-03 -2.28449162e-02 +1.83885247e-01 +3.72822210e-03 +3.72923259e-03 +3.73094575e-03 +3.72868543e-03 -1.26476130e-02 -1.25104398e-01 +3.03323399e-02 +2.21337289e-01 +3.72845889e-03 +3.72768706e-03 +3.72733711e-03 -2.79065464e-02 +4.06072587e-02 +5.10585830e-02 +2.51072608e-02 +5.14273457e-02 +3.73071292e-03 +7.39279687e-02 +3.73200048e-03 +3.72749497e-03 +3.73054389e-03 +3.72920372e-03 +1.43631861e-01 -9.01574269e-02 -4.13314611e-01 +2.77984858e-01 -1.22067489e-01 -1.94334239e-01 +3.72960838e-03 +3.72861209e-03 +3.73113342e-03 +3.72709078e-03 +4.52097096e-02 +1.34714976e-01 -2.00336762e-02 -9.17442814e-02 +3.72942956e-03 -1.18891433e-01 +3.73045169e-03 +7.56242424e-02 +3.73250386e-03 +7.64803290e-02 +3.42056118e-02 +1.58283457e-01 -2.67295688e-01 +7.64808878e-02 +7.64809400e-02 +7.64805004e-02 +7.64802694e-02 +7.64813647e-02 -1.83829796e-02 +1.24003142e-01 +7.64825121e-02 +6.19798563e-02 +1.33395597e-01 +7.64806420e-02 +7.64814243e-02 +7.64829144e-02 +7.64809772e-02 +2.16467883e-02 +1.38732553e-01 +4.04745154e-03 -1.52698725e-01 +7.64808357e-02 +7.64801428e-02 +7.64798820e-02 +1.35255471e-01 +1.09577812e-02 +1.32980019e-01 +3.61106694e-02 -1.69959925e-02 +7.64827058e-02 -2.50154287e-01 +7.64836967e-02 +7.64799863e-02 +7.64825493e-02 +7.64813945e-02 +8.14702064e-02 +1.40203372e-01 +4.93097156e-02 -1.39753431e-01 +2.03898107e-03 -3.53660388e-03 +7.64817372e-02 +7.64809400e-02 +7.64830485e-02 +7.64796585e-02 +6.24721088e-02 +6.64816936e-03 +1.28663227e-01 +7.77840465e-02 +7.64816180e-02 +1.32771701e-01 +7.64824599e-02 +3.04670990e-01 +7.64841735e-02 -4.71543707e-02 +3.02134156e-02 -9.04075131e-02 +1.22450054e-01 -4.71552424e-02 -4.71553095e-02 -4.71546389e-02 -4.71542440e-02 -4.71561216e-02 -5.49279340e-02 -1.09120131e-01 -4.71579246e-02 -8.64705592e-02 +6.18890487e-02 -4.71548289e-02 -4.71561775e-02 -4.71585244e-02 -4.71554212e-02 -2.85568796e-02 +6.90547517e-03 +8.21950078e-01 +4.77588177e-02 -4.71551381e-02 -4.71540801e-02 -4.71536331e-02 -2.41114516e-02 -5.93561232e-02 -8.12004134e-02 +7.64933452e-02 +4.34974320e-02 -4.71582189e-02 -1.65658534e-01 -4.71599549e-02 -4.71538268e-02 -4.71579581e-02 -4.71561365e-02 -5.56027927e-02 -1.21755689e-01 +2.37895265e-01 +1.21741472e-02 -3.24491449e-02 -3.06828730e-02 -4.71566655e-02 -4.71553281e-02 -4.71588112e-02 -4.71532904e-02 +9.82317477e-02 -4.38778708e-03 +8.17546472e-02 -2.53511041e-01 -4.71564494e-02 -6.15413561e-02 -4.71578278e-02 -3.62130255e-02 -4.71606702e-02 -8.21796730e-02 +1.08519681e-02 -8.17354545e-02 +1.22487001e-01 -8.21794271e-02 -8.21794048e-02 -8.21795985e-02 -8.21797103e-02 -8.21791887e-02 -2.00317234e-01 -5.23513108e-02 -8.21786895e-02 +6.74606068e-04 -1.84641793e-01 -8.21795538e-02 -8.21791589e-02 -8.21785629e-02 -8.21793750e-02 -2.70209853e-02 +6.65278509e-02 +3.69076014e-01 +1.86307982e-01 -8.21794569e-02 -8.21797252e-02 -8.21798593e-02 +1.02326438e-01 -8.01623275e-04 -1.15080245e-01 +9.64268073e-02 -2.34963633e-02 -8.21786299e-02 -1.29377902e-01 -8.21781531e-02 -8.21797848e-02 -8.21786821e-02 -8.21791813e-02 -1.15796231e-01 -2.91383564e-02 -1.01429634e-01 +2.48930603e-03 +1.26022935e-01 -3.41395698e-02 -8.21790248e-02 -8.21793973e-02 -8.21784809e-02 -8.21799561e-02 +3.33953202e-02 +1.28121763e-01 +3.29543254e-03 +1.85442809e-02 -8.21790695e-02 -4.52384911e-02 -8.21787119e-02 +1.12354513e-02 -8.21779221e-02 +5.41812833e-03 +3.95759344e-02 +4.27125692e-02 -5.62684657e-03 +5.41899074e-03 +5.41905966e-03 +5.41839981e-03 +5.41802123e-03 +5.41985128e-03 +1.34668246e-01 +9.09432247e-02 +5.42155979e-03 -1.61166936e-01 +3.28474671e-01 +5.41857537e-03 +5.41991368e-03 +5.42211113e-03 +5.41917607e-03 -1.36513501e-01 -2.87049860e-02 +8.34388882e-02 +8.53338763e-02 +5.41887525e-03 +5.41785266e-03 +5.41740097e-03 -4.65733744e-02 -2.11282268e-01 -3.97149995e-02 -1.76625550e-01 -7.96451569e-02 +5.42181078e-03 +1.55945703e-01 +5.42348670e-03 +5.41757233e-03 +5.42159798e-03 +5.41986432e-03 -5.60554266e-02 +4.25075516e-02 +4.88014054e-03 -7.25035146e-02 -5.73364180e-03 +1.18749002e-02 +5.42038120e-03 +5.41908294e-03 +5.42236445e-03 +5.41708479e-03 -1.30383804e-01 -3.50594312e-01 -1.42083000e-02 -1.65040061e-01 +5.42015163e-03 +5.01849316e-02 +5.42147784e-03 +5.91481179e-02 +5.42416191e-03 +7.52696991e-02 +9.34958234e-02 +6.75090551e-02 -4.94350716e-02 +7.52693340e-02 +7.52693042e-02 +7.52695724e-02 +7.52697289e-02 +7.52689689e-02 +2.27804005e-01 +1.69186592e-01 +7.52683654e-02 +2.09401213e-02 +1.10815652e-01 +7.52695277e-02 +7.52689466e-02 +7.52681345e-02 +7.52692446e-02 -2.23436683e-01 -1.77893124e-03 +4.76670973e-02 -3.89968991e-01 +7.52694383e-02 +7.52697960e-02 +7.52699301e-02 +9.38565731e-02 +1.53285012e-01 +1.85762510e-01 +8.71772170e-02 +8.67536385e-03 +7.52682537e-02 -3.70001167e-01 +7.52677023e-02 +7.52698779e-02 +7.52683431e-02 +7.52689689e-02 +2.09842101e-01 -9.09709895e-04 -2.49364614e-01 +3.76868472e-02 -1.02991192e-02 -9.46882740e-02 +7.52687603e-02 +7.52692670e-02 +7.52680525e-02 +7.52700269e-02 -1.02779180e-01 -2.47371756e-02 +2.33597323e-01 +2.78775454e-01 +7.52688646e-02 +1.19982459e-01 +7.52683803e-02 +1.52389556e-01 +7.52674490e-02 -1.57631394e-02 -2.73872577e-02 -3.27366381e-03 +6.39006421e-02 -1.57629754e-02 -1.57629512e-02 -1.57630872e-02 -1.57631356e-02 -1.57628283e-02 +1.28985584e-01 -6.44714236e-02 -1.57624558e-02 +1.04257844e-01 +2.00595204e-02 -1.57630499e-02 -1.57628171e-02 -1.57623440e-02 -1.57629550e-02 -2.92963553e-02 -5.25374748e-02 +1.78891197e-01 +1.18031755e-01 -1.57629922e-02 -1.57631915e-02 -1.57632679e-02 +1.65180564e-02 -5.59658892e-02 +6.99455664e-02 -7.33259022e-02 +9.85342935e-02 -1.57623962e-02 -1.00688167e-01 -1.57620627e-02 -1.57632399e-02 -1.57624483e-02 -1.57628171e-02 -9.24933404e-02 +5.51962294e-02 -3.12906094e-02 +1.47563042e-02 -4.10690963e-01 -2.09434666e-02 -1.57626998e-02 -1.57629568e-02 -1.57622974e-02 -1.57633480e-02 +9.91236884e-03 +1.83782596e-02 -8.73873681e-02 -1.02415100e-01 -1.57627482e-02 +5.11359307e-04 -1.57624651e-02 +3.70005742e-02 -1.57619305e-02 +1.30293921e-01 +9.86462310e-02 +5.15432954e-02 +5.52781969e-02 +1.30294576e-01 +1.30294651e-01 +1.30294114e-01 +1.30293846e-01 +1.30295217e-01 -8.23727131e-01 -3.59604917e-02 +1.30296394e-01 +1.24058463e-02 +8.33790973e-02 +1.30294278e-01 +1.30295262e-01 +1.30296782e-01 +1.30294740e-01 +4.96193841e-02 +1.52985137e-02 +6.84230253e-02 +8.91769826e-02 +1.30294517e-01 +1.30293787e-01 +1.30293459e-01 +2.26739824e-01 -9.07800555e-01 +2.05966402e-02 +1.09044731e-01 +1.60695195e-01 +1.30296573e-01 +8.40418562e-02 +1.30297840e-01 +1.30293563e-01 +1.30296439e-01 +1.30295247e-01 -9.23031807e-01 +2.78718770e-01 +5.24089299e-02 +3.99034061e-02 +6.67169783e-03 +1.02220133e-01 +1.30295560e-01 +1.30294666e-01 +1.30296990e-01 +1.30293250e-01 +1.32608265e-01 -1.18923821e-02 +1.07520349e-01 +1.36081606e-01 +1.30295426e-01 +2.39299193e-01 +1.30296364e-01 +2.10718453e-01 +1.30298406e-01 -7.09447339e-02 -2.78131720e-02 +9.69934911e-02 +4.11747724e-01 -7.09459037e-02 -7.09460080e-02 -7.09451139e-02 -7.09445998e-02 -7.09470063e-02 +3.73163670e-02 -1.98196188e-01 -7.09492788e-02 +8.15141387e-03 -1.05416127e-01 -7.09453300e-02 -7.09470734e-02 -7.09499866e-02 -7.09461495e-02 -1.39426813e-01 -3.47594172e-02 -8.64611119e-02 +5.45569323e-02 -7.09457472e-02 -7.09444284e-02 -7.09438398e-02 -2.16719904e-03 -2.20167890e-01 +1.01305753e-01 -5.16019464e-02 +1.10069558e-01 -7.09496289e-02 +1.04347937e-01 -7.09516630e-02 -7.09440708e-02 -7.09493458e-02 -7.09470138e-02 -1.55297071e-01 -3.06225233e-02 -1.34418160e-01 -6.32169377e-03 +4.44161221e-02 -1.59280807e-01 -7.09476918e-02 -7.09460229e-02 -7.09502697e-02 -7.09434897e-02 +2.11850539e-01 -2.01070145e-01 -1.43401846e-01 +7.67636895e-02 -7.09473640e-02 -1.59994394e-01 -7.09491894e-02 -5.95939644e-02 -7.09524900e-02 -1.38932308e-02 +2.21222416e-02 -4.02409136e-02 -8.23132619e-02 -1.38938595e-02 -1.38939116e-02 -1.38934366e-02 -1.38931544e-02 -1.38944862e-02 +9.66079235e-02 -1.89008921e-01 -1.38957687e-02 +2.63310224e-01 -4.80576698e-03 -1.38935605e-02 -1.38945375e-02 -1.38961850e-02 -1.38939945e-02 -1.85515165e-01 -7.97911659e-02 -2.08291173e-01 -8.90721753e-02 -1.38937812e-02 -1.38930362e-02 -1.38926981e-02 -9.23623592e-02 -2.28111342e-01 +1.80006444e-01 +1.48435727e-01 -2.20257565e-01 -1.38959680e-02 +2.33462900e-01 -1.38971750e-02 -1.38928378e-02 -1.38958013e-02 -1.38944956e-02 +6.24454990e-02 +2.22930592e-02 +8.46012682e-02 +5.72273880e-02 -2.13126056e-02 +1.82287648e-01 -1.38948988e-02 -1.38939349e-02 -1.38963591e-02 -1.38924792e-02 -1.98353566e-02 +1.59663245e-01 +8.14541951e-02 -2.40239397e-01 -1.38947237e-02 -3.89183103e-03 -1.38957091e-02 +4.50154990e-02 -1.38976974e-02 -3.96871977e-02 -4.56187166e-02 +1.78048376e-03 +5.02610803e-02 -3.96872275e-02 -3.96872498e-02 -3.96872088e-02 -3.96872051e-02 -3.96872833e-02 -2.89376359e-02 +7.25234449e-02 -3.96873206e-02 -1.30279109e-01 -1.66177928e-01 -3.96872163e-02 -3.96873020e-02 -3.96873876e-02 -3.96872647e-02 -8.54590908e-02 -1.71151161e-01 +2.51707524e-01 -4.08859253e-02 -3.96872163e-02 -3.96871679e-02 -3.96871641e-02 -1.20619468e-01 -7.25097656e-02 +4.68173856e-03 -4.50285040e-02 -4.17134278e-02 -3.96873653e-02 +5.24841428e-01 -3.96874212e-02 -3.96871343e-02 -3.96873057e-02 -3.96872759e-02 -9.57877841e-03 -2.20026046e-01 +7.99647048e-02 -1.04819842e-01 -5.65963835e-02 -5.55662587e-02 -3.96873206e-02 -3.96872684e-02 -3.96873839e-02 -3.96871641e-02 -1.92750990e-01 -1.20925151e-01 -2.13616230e-02 -3.92921828e-02 -3.96872908e-02 -1.33166194e-01 -3.96873355e-02 -9.55667570e-02 -3.96874584e-02 +3.58444341e-02 -1.22588044e-02 -1.68575551e-02 +3.36051762e-01 +3.58438306e-02 +3.58437784e-02 +3.58442254e-02 +3.58444974e-02 +3.58432047e-02 -5.46996221e-02 -1.16802596e-01 +3.58419269e-02 +1.96530983e-01 +1.66514426e-01 +3.58441174e-02 +3.58431526e-02 +3.58414873e-02 +3.58436927e-02 -6.89537898e-02 +1.88765582e-02 +1.51746506e-02 -2.74704695e-01 +3.58438976e-02 +3.58446091e-02 +3.58449519e-02 +1.47801964e-02 +1.09668658e-03 +1.23357035e-01 +1.08181521e-01 +5.12261577e-02 +3.58417295e-02 -1.54903129e-01 +3.58404852e-02 +3.58448029e-02 +3.58418971e-02 +3.58431749e-02 +3.12903672e-02 -2.52635069e-02 -1.72753166e-02 -4.25512753e-02 -1.38972467e-02 -2.80960053e-01 +3.58428173e-02 +3.58437710e-02 +3.58412936e-02 +3.58452275e-02 +2.05854908e-01 +7.28124306e-02 +4.63111252e-02 +8.36331993e-02 +3.58429700e-02 -1.27051264e-01 +3.58419977e-02 -4.18262705e-02 +3.58400084e-02 +3.18911858e-02 -4.41052169e-02 +4.70462926e-02 +1.60994455e-01 +3.18920948e-02 +3.18921432e-02 +3.18914615e-02 +3.18910815e-02 +3.18929628e-02 +1.01250082e-01 +3.45403305e-03 +3.18947099e-02 -1.05244920e-01 -3.18088569e-02 +3.18916626e-02 +3.18930112e-02 +3.18952836e-02 +3.18922959e-02 +4.80104685e-02 +8.80224444e-03 -1.42241269e-01 -7.44455010e-02 +3.18919644e-02 +3.18909325e-02 +3.18904556e-02 -2.36477908e-02 +9.66239274e-02 +1.72974870e-01 -1.11842059e-01 -1.14379227e-01 +3.18949819e-02 -4.27344471e-01 +3.18966471e-02 +3.18906531e-02 +3.18947509e-02 +3.18929739e-02 -3.46133225e-02 +6.15292564e-02 -2.03042597e-01 +1.42866045e-01 +8.31950828e-02 +3.81981164e-01 +3.18935215e-02 +3.18921730e-02 +3.18955407e-02 +3.18901278e-02 +2.59051081e-02 -1.19825527e-01 -1.90200582e-02 +1.86873391e-01 +3.18932720e-02 +1.59739722e-02 +3.18946242e-02 -3.43004726e-02 +3.18973437e-02 -7.70427706e-03 -2.37509646e-02 -2.54755411e-02 +6.88610822e-02 -7.70282419e-03 -7.70272268e-03 -7.70381698e-03 -7.70443538e-03 -7.70140160e-03 -3.12191527e-02 -6.17418885e-02 -7.69852614e-03 +4.44832779e-02 +1.15503661e-01 -7.70354131e-03 -7.70131359e-03 -7.69759994e-03 -7.70249590e-03 -2.09019020e-01 -1.92311361e-01 -1.89046293e-01 +4.39604968e-02 -7.70302583e-03 -7.70469476e-03 -7.70545891e-03 -9.86171663e-02 -7.29994848e-02 -1.25555629e-02 -4.71369773e-02 -1.08654544e-01 -7.69809121e-03 +2.13783279e-01 -7.69531354e-03 -7.70512316e-03 -7.69846840e-03 -7.70138437e-03 -3.45036387e-02 +1.06751271e-01 -5.50149605e-02 -1.98305145e-01 -1.66846707e-01 +1.54845491e-01 -7.70052802e-03 -7.70268589e-03 -7.69719854e-03 -7.70599209e-03 -7.96068227e-04 +5.52822948e-01 -1.77883282e-02 -6.56924322e-02 -7.70090288e-03 +1.24543816e-01 -7.69865839e-03 -1.76923901e-01 -7.69418338e-03 -2.14840807e-02 +7.41968602e-02 +8.04365333e-03 -2.30690926e-01 -2.14837361e-02 -2.14837119e-02 -2.14839820e-02 -2.14841235e-02 -2.14834455e-02 -2.42093742e-01 -2.18133539e-01 -2.14827657e-02 +1.09530285e-01 -2.45225489e-01 -2.14839317e-02 -2.14834120e-02 -2.14825552e-02 -2.14836840e-02 +6.05887212e-02 -4.13677096e-02 +3.96907143e-02 +3.07604432e-01 -2.14837790e-02 -2.14841720e-02 -2.14843508e-02 -6.37570471e-02 +1.06735058e-01 -8.62371773e-02 +1.19911872e-01 +6.86691031e-02 -2.14826576e-02 +5.41096218e-02 -2.14820486e-02 -2.14842837e-02 -2.14827582e-02 -2.14834381e-02 +9.66302007e-02 -1.68955289e-02 -1.16245297e-03 +2.29633212e-01 +1.77791435e-03 -2.95080215e-01 -2.14832351e-02 -2.14837138e-02 -2.14824863e-02 -2.14844663e-02 +6.43682182e-02 +1.16657414e-01 +5.63768819e-02 +8.64659548e-02 -2.14833319e-02 +1.55942999e-02 -2.14827918e-02 +1.21431649e-01 -2.14817636e-02 -5.02882805e-03 -2.76067667e-02 -2.06848085e-01 +6.68925494e-02 -5.02875773e-03 -5.02873259e-03 -5.02880709e-03 -5.02883410e-03 -5.02863899e-03 -8.90827104e-02 +1.74633786e-02 -5.02845366e-03 +1.43153504e-01 +2.65490174e-01 -5.02878241e-03 -5.02863945e-03 -5.02837868e-03 -5.02871489e-03 +1.41923800e-01 -4.95353602e-02 +3.32836583e-02 -2.46108174e-01 -5.02876611e-03 -5.02883736e-03 -5.02889603e-03 -3.38062569e-02 +1.67278051e-01 +1.81158222e-02 -5.50123975e-02 +4.32275534e-02 -5.02841128e-03 +1.00265004e-01 -5.02822408e-03 -5.02887974e-03 -5.02844946e-03 -5.02863294e-03 +1.59815118e-01 +2.44131777e-02 +2.92941898e-01 +8.85919854e-03 -1.41432822e-01 -1.13145895e-01 -5.02858358e-03 -5.02873072e-03 -5.02835726e-03 -5.02895378e-03 -1.63553149e-01 -3.37717980e-02 -1.34166330e-01 -1.92290708e-01 -5.02862595e-03 +1.46374824e-02 -5.02845552e-03 -9.88736153e-02 -5.02812723e-03 +1.22857676e-03 -1.03055254e-01 +9.31557417e-02 -4.52715531e-02 +1.22816220e-03 +1.22814276e-03 +1.22843054e-03 +1.22863008e-03 +1.22772541e-03 +1.31143585e-01 +5.98079376e-02 +1.22686592e-03 -6.15127943e-02 -1.65357083e-01 +1.22835021e-03 +1.22768257e-03 +1.22658303e-03 +1.22808397e-03 -4.22161333e-02 -1.93402264e-02 +1.48615956e-01 +1.73406169e-01 +1.22822402e-03 +1.22871948e-03 +1.22898084e-03 -8.12212005e-02 +3.15916955e-01 -1.08846642e-01 +1.27273709e-01 +8.09171870e-02 +1.22672995e-03 -2.13668212e-01 +1.22587441e-03 +1.22887257e-03 +1.22685963e-03 +1.22770970e-03 +5.02533257e-01 -1.04911821e-02 -1.11777134e-01 -2.61924956e-02 -2.07493991e-01 -2.55436897e-02 +1.22746534e-03 +1.22813368e-03 +1.22646918e-03 +1.22913043e-03 +6.34982288e-02 -2.88936291e-02 -2.09210590e-01 -1.73732951e-01 +1.22755871e-03 -4.64672707e-02 +1.22689561e-03 +5.02757914e-02 +1.22552563e-03 +4.63780947e-03 +7.11666187e-03 -6.68923110e-02 +4.53616604e-02 +4.63825045e-03 +4.63827001e-03 +4.63793520e-03 +4.63776104e-03 +4.63866675e-03 -2.18528688e-01 -1.97609380e-01 +4.63951938e-03 +5.11629224e-01 -1.53058944e-02 +4.63802554e-03 +4.63868724e-03 +4.63983184e-03 +4.63833148e-03 -8.69225338e-02 -1.36576384e-01 -2.36527801e-01 -2.01792479e-01 +4.63817548e-03 +4.63768933e-03 +4.63748304e-03 +3.31599973e-02 -5.22276498e-02 +7.22084194e-02 +5.29962890e-02 -3.83159444e-02 +4.63965908e-03 +2.12600976e-01 +4.64045536e-03 +4.63755801e-03 +4.63953661e-03 +4.63866722e-03 +2.69873947e-01 -4.48221974e-02 -1.37683466e-01 -1.63199186e-01 -6.60885423e-02 +8.28751829e-03 +4.63891821e-03 +4.63829376e-03 +4.63993754e-03 +4.63730842e-03 +2.04721317e-01 +7.05418810e-02 -5.42165479e-03 -3.36518027e-02 +4.63880133e-03 -1.83345359e-02 +4.63948445e-03 +6.97958237e-03 +4.64079576e-03 -4.07679193e-02 +2.81033688e-04 -1.37512892e-01 -9.54715908e-02 -4.07688506e-02 -4.07688953e-02 -4.07682285e-02 -4.07678150e-02 -4.07696925e-02 -2.67707676e-01 +2.51205057e-01 -4.07713652e-02 +2.36701556e-02 +3.14720981e-02 -4.07684073e-02 -4.07697447e-02 -4.07719463e-02 -4.07690555e-02 -8.26725829e-03 +2.61421561e-01 -8.31787065e-02 -4.23962213e-02 -4.07687053e-02 -4.07676771e-02 -4.07672711e-02 -6.09671734e-02 +1.58512175e-01 +5.15937433e-02 +3.62524688e-02 +2.51203984e-01 -4.07716334e-02 -7.39105940e-02 -4.07733209e-02 -4.07674611e-02 -4.07714173e-02 -4.07697037e-02 -5.70885055e-02 +3.71442884e-02 +4.19726968e-01 -7.40355998e-02 +1.03197485e-01 -3.26637439e-02 -4.07702141e-02 -4.07689214e-02 -4.07721847e-02 -4.07669172e-02 -3.11410487e-01 -1.48486450e-01 +5.03878258e-02 -1.81435347e-01 -4.07699756e-02 +3.22991125e-02 -4.07712683e-02 -4.63806055e-02 -4.07739803e-02 +1.52538689e-02 +3.36384177e-02 -6.13098927e-02 -2.13612422e-01 +1.52534228e-02 +1.52533809e-02 +1.52537227e-02 +1.52539117e-02 +1.52530102e-02 +6.94794655e-01 -2.00319648e-01 +1.52521105e-02 +4.02992934e-01 -2.34726593e-02 +1.52536249e-02 +1.52529869e-02 +1.52518312e-02 +1.52533166e-02 -6.75579952e-03 +6.30857795e-02 +2.63458248e-02 -9.90540385e-02 +1.52534796e-02 +1.52539844e-02 +1.52542237e-02 -1.16435617e-01 -2.81007355e-03 -2.45686859e-01 -3.02718431e-02 -1.16641581e-01 +1.52519690e-02 -1.68768838e-02 +1.52511550e-02 +1.52541120e-02 +1.52520994e-02 +1.52530028e-02 +1.98880807e-01 +9.91417542e-02 -2.66704977e-01 +1.59959689e-01 +2.29625091e-01 -1.20385394e-01 +1.52527420e-02 +1.52533790e-02 +1.52517213e-02 +1.52543811e-02 +6.71448708e-02 +8.12916905e-02 +1.04058027e-01 +1.67329490e-01 +1.52528770e-02 -7.73209557e-02 +1.52521627e-02 +1.54447824e-01 +1.52508290e-02 +4.88412008e-02 +4.90974486e-02 +4.43622284e-02 -4.22480479e-02 +4.88405004e-02 +4.88404334e-02 +4.88410033e-02 +4.88412641e-02 +4.88398075e-02 +3.58414017e-02 +1.27445042e-01 +4.88383658e-02 +5.11569455e-02 +4.56239507e-02 +4.88408655e-02 +4.88397777e-02 +4.88378927e-02 +4.88403402e-02 -5.21110930e-03 +3.81407887e-02 -2.96450164e-02 +5.62271178e-02 +4.88405973e-02 +4.88414392e-02 +4.88417819e-02 +3.13515067e-02 -1.32802725e-02 -7.90729702e-01 +1.48486450e-01 +1.73795465e-02 +4.88381237e-02 +4.40709479e-02 +4.88367938e-02 +4.88416553e-02 +4.88383323e-02 +4.88397889e-02 +1.26070470e-01 +1.32695675e-01 +7.61188241e-03 +2.88106780e-02 -4.85262163e-02 +1.03831619e-01 +4.88394015e-02 +4.88404185e-02 +4.88376841e-02 +4.88420725e-02 -7.45428773e-03 +1.38665261e-02 -8.79302621e-03 +1.17141463e-01 +4.88395803e-02 +4.37869839e-02 +4.88384143e-02 +6.36295602e-02 +4.88362759e-02 -3.80558297e-02 -4.41839313e-03 +1.67992655e-02 -2.50398368e-01 -3.80556844e-02 -3.80556621e-02 -3.80557813e-02 -3.80558409e-02 -3.80555503e-02 -1.92515776e-01 -1.94192622e-02 -3.80551741e-02 +9.48341712e-02 +2.22522214e-01 -3.80557291e-02 -3.80555280e-02 -3.80550809e-02 -3.80556658e-02 -7.97325969e-02 -1.16862632e-01 -5.87799703e-04 -2.08493322e-01 -3.80556807e-02 -3.80558930e-02 -3.80559564e-02 -2.31591146e-02 +1.36383381e-02 -4.44222987e-02 +1.08362637e-01 +4.48230579e-02 -3.80551256e-02 +2.48251572e-01 -3.80548462e-02 -3.80559340e-02 -3.80551703e-02 -3.80555391e-02 +1.73747763e-01 -4.88565229e-02 +5.70382290e-02 +9.92860049e-02 +1.17193060e-02 -2.55251855e-01 -3.80554311e-02 -3.80556509e-02 -3.80550325e-02 -3.80560569e-02 -1.77997351e-01 -8.09167251e-02 -5.47850989e-02 -4.57127243e-02 -3.80554944e-02 +5.27502708e-02 -3.80552039e-02 -1.66570023e-02 -3.80546898e-02 -8.58203624e-04 -5.91636002e-02 +6.90327659e-02 +2.28486136e-01 -8.58031097e-04 -8.58003506e-04 -8.58121377e-04 -8.58220854e-04 -8.57884646e-04 +1.49426788e-01 +3.87136713e-02 -8.57595413e-04 -8.97441432e-02 -1.31594568e-01 -8.58114508e-04 -8.57884879e-04 -8.57501116e-04 -8.57970037e-04 -9.01274532e-02 -5.89062497e-02 -1.71077207e-01 +1.25296354e-01 -8.58051470e-04 -8.58239713e-04 -8.58325744e-04 -5.94774708e-02 -1.25492141e-01 -4.09678221e-02 -2.41427887e-02 +1.25592187e-01 -8.57582898e-04 +3.80053138e-03 -8.57297331e-04 -8.58289772e-04 -8.57592444e-04 -8.57878593e-04 -9.46922635e-04 +5.98835275e-02 +2.18607664e-01 +4.61193733e-02 -1.91346794e-01 -8.46330300e-02 -8.57813400e-04 -8.57999607e-04 -8.57471547e-04 -8.58371262e-04 -1.18723862e-01 +1.06646262e-01 +6.33952254e-03 +1.10873438e-01 -8.57856998e-04 -7.36610442e-02 -8.57614155e-04 +4.00007814e-02 -8.57150881e-04 +2.96795908e-02 +3.16139609e-02 +4.00639214e-02 -2.93846965e-01 +2.96798777e-02 +2.96798963e-02 +2.96796802e-02 +2.96795592e-02 +2.96801291e-02 +1.65884465e-01 -1.15930825e-01 +2.96807252e-02 -3.61159444e-02 +2.74005949e-01 +2.96797343e-02 +2.96801478e-02 +2.96809245e-02 +2.96799373e-02 -5.91189265e-02 +1.25909403e-01 -3.86185944e-02 +2.09010839e-01 +2.96798479e-02 +2.96795070e-02 +2.96793561e-02 +8.50641057e-02 +1.73545420e-01 -1.26571551e-01 -1.20610476e-01 -2.08668396e-01 +2.96808053e-02 -7.31479973e-02 +2.96812933e-02 +2.96794325e-02 +2.96807270e-02 +2.96801347e-02 -5.27841300e-02 +3.56578864e-02 +4.43756729e-02 +6.21053800e-02 +9.05832574e-02 -2.24678904e-01 +2.96803359e-02 +2.96799075e-02 +2.96809487e-02 +2.96792295e-02 +3.45511846e-02 +1.88876197e-01 +1.31046092e-02 -1.53000385e-01 +2.96802483e-02 -9.55569521e-02 +2.96806842e-02 -2.93922946e-02 +2.96815261e-02 -4.26285900e-02 -2.73704585e-02 -7.63567016e-02 -1.67743966e-01 -4.26283926e-02 -4.26284112e-02 -4.26285341e-02 -4.26286012e-02 -4.26282361e-02 +1.00277275e-01 -1.03233375e-01 -4.26279604e-02 -4.58423868e-02 +4.72816378e-02 -4.26284932e-02 -4.26282361e-02 -4.26278599e-02 -4.26283702e-02 -3.00300941e-02 +3.94583941e-02 +8.79161432e-02 +2.84112751e-01 -4.26284447e-02 -4.26286161e-02 -4.26287055e-02 -8.43293071e-02 -3.40175703e-02 -5.11000864e-02 -5.80996312e-02 +1.22695984e-02 -4.26279046e-02 -2.82322764e-01 -4.26275954e-02 -4.26286496e-02 -4.26279530e-02 -4.26282287e-02 +1.09201796e-01 +1.53503018e-02 -5.58872260e-02 +7.38872029e-03 +6.12576269e-02 +2.34834790e-01 -4.26281616e-02 -4.26283926e-02 -4.26278263e-02 -4.26287837e-02 -1.60632163e-01 +6.90839514e-02 +4.86672781e-02 -1.78478524e-01 -4.26282026e-02 -5.81490360e-02 -4.26279865e-02 -4.51068953e-02 -4.26274799e-02 +1.06548786e-01 +1.58992767e-01 -2.06710920e-02 -2.12539092e-01 +1.06548488e-01 +1.06548510e-01 +1.06548660e-01 +1.06548838e-01 +1.06548317e-01 +1.50255531e-01 +1.92559451e-01 +1.06547803e-01 +9.11527127e-02 -3.30665022e-01 +1.06548667e-01 +1.06548287e-01 +1.06547587e-01 +1.06548488e-01 +1.11735836e-02 +1.65411472e-01 +1.98334202e-01 -1.17725551e-01 +1.06548533e-01 +1.06548876e-01 +1.06549010e-01 +2.03635797e-01 +1.64822996e-01 -1.55955717e-01 -1.27854552e-02 -7.45378733e-02 +1.06547698e-01 -6.62058890e-02 +1.06547244e-01 +1.06548958e-01 +1.06547803e-01 +1.06548317e-01 +4.21919227e-02 +9.11613405e-02 -5.79454890e-03 +1.19606681e-01 +5.01311719e-02 -1.14150057e-02 +1.06548153e-01 +1.06548503e-01 +1.06547549e-01 +1.06549017e-01 +2.20507488e-01 +9.91267487e-02 +1.49974704e-01 +2.10088696e-02 +1.06548265e-01 +2.38150924e-01 +1.06547788e-01 +3.26971114e-01 +1.06547028e-01 +1.10455714e-01 +4.26662900e-02 +3.40614356e-02 +2.04665847e-02 +1.10457286e-01 +1.10457420e-01 +1.10456191e-01 +1.10455550e-01 +1.10458858e-01 +9.89646614e-02 +7.72781894e-02 +1.10461973e-01 -1.52996266e-02 +1.32426605e-01 +1.10456534e-01 +1.10458948e-01 +1.10462964e-01 +1.10457666e-01 -7.85535276e-02 +1.89950725e-03 +7.59700164e-02 -9.95803699e-02 +1.10457093e-01 +1.10455312e-01 +1.10454440e-01 +8.28745291e-02 +2.20891699e-01 -8.10641423e-03 -3.22113156e-01 -1.75649256e-01 +1.10462457e-01 +2.37940565e-01 +1.10465430e-01 +1.10454865e-01 +1.10462040e-01 +1.10458881e-01 -2.80018985e-01 -2.09891703e-03 -9.85649601e-02 -9.13913101e-02 -8.26123953e-02 -1.24317855e-01 +1.10459737e-01 +1.10457458e-01 +1.10463426e-01 +1.10453822e-01 -3.01232636e-02 -1.14630863e-01 +1.49186641e-01 +1.65906608e-01 +1.10459358e-01 -4.60796617e-03 +1.10461816e-01 +1.19414389e-01 +1.10466629e-01 -1.80494841e-02 -1.62737463e-02 +9.91232693e-02 +1.01423688e-01 -1.80502590e-02 -1.80503279e-02 -1.80497393e-02 -1.80494171e-02 -1.80510320e-02 +8.53029788e-02 +3.24342638e-01 -1.80526115e-02 +1.68237478e-01 +8.32251087e-02 -1.80498939e-02 -1.80510916e-02 -1.80530939e-02 -1.80504303e-02 -8.47582798e-03 -5.37841627e-03 -8.44503418e-02 +4.39189933e-02 -1.80501640e-02 -1.80492755e-02 -1.80488415e-02 +5.91372550e-02 -3.78685482e-02 +8.74559656e-02 -6.82636499e-02 +9.38074142e-02 -1.80528238e-02 -1.13874793e-01 -1.80543307e-02 -1.80490389e-02 -1.80526394e-02 -1.80510506e-02 +3.64060774e-02 +7.54041178e-03 +1.77720740e-01 -2.64818579e-01 -2.61370063e-01 -6.59803301e-02 -1.80514958e-02 -1.80503484e-02 -1.80533212e-02 -1.80485416e-02 -5.49989287e-03 -4.97323722e-02 -1.75254308e-02 -1.98329911e-01 -1.80513188e-02 -8.67628977e-02 -1.80525146e-02 -2.25994233e-02 -1.80549379e-02 -8.48648846e-02 -2.46395543e-02 +1.73128486e-01 +8.79675522e-02 -8.48670155e-02 -8.48671421e-02 -8.48655105e-02 -8.48646611e-02 -8.48690495e-02 -1.15061380e-01 -3.44368219e-02 -8.48731697e-02 -5.15383929e-02 -2.85598546e-01 -8.48659351e-02 -8.48691911e-02 -8.48745480e-02 -8.48674551e-02 +6.99561685e-02 +7.29652941e-02 -9.35358033e-02 +1.09806769e-01 -8.48666877e-02 -8.48642886e-02 -8.48632380e-02 -4.52274531e-02 -9.52950940e-02 +2.38958031e-01 +2.34242767e-01 +7.74554387e-02 -8.48738030e-02 +2.01102979e-02 -8.48778188e-02 -8.48637000e-02 -8.48732591e-02 -8.48690718e-02 +4.71050926e-02 -5.84886409e-02 -5.37511334e-02 -3.74285400e-01 +3.73467803e-02 -3.05121765e-02 -8.48702937e-02 -8.48672017e-02 -8.48751441e-02 -8.48624185e-02 +5.27039282e-02 -1.01450048e-01 +7.91342780e-02 -3.80921364e-02 -8.48697424e-02 +1.24611370e-01 -8.48729387e-02 +4.89859283e-02 -8.48794207e-02 +2.32190080e-02 +1.05067752e-02 +1.19947292e-01 -9.43102613e-02 +2.32196357e-02 +2.32196767e-02 +2.32192222e-02 +2.32189428e-02 +2.32202355e-02 -2.88200323e-02 +3.78683694e-02 +2.32213885e-02 +1.90001037e-02 +2.60884255e-01 +2.32193302e-02 +2.32202616e-02 +2.32217554e-02 +2.32197531e-02 -7.79395178e-02 +7.90367052e-02 -7.77050406e-02 -5.36338449e-01 +2.32195593e-02 +2.32188478e-02 +2.32185703e-02 +1.64376851e-02 -5.50750084e-02 +1.54615894e-01 +8.46790448e-02 +1.52819544e-01 +2.32215561e-02 +1.20079115e-01 +2.32227072e-02 +2.32186802e-02 +2.32213903e-02 +2.32202336e-02 -6.49039745e-02 +1.11543201e-02 +1.26404136e-01 -3.30315530e-02 -5.48097529e-02 -2.63819546e-01 +2.32205614e-02 +2.32196879e-02 +2.32219528e-02 +2.32183170e-02 +7.00272545e-02 +5.48337912e-03 -8.49491805e-02 +1.12981722e-01 +2.32203975e-02 +8.18682984e-02 +2.32213251e-02 -6.40647411e-02 +2.32231654e-02 -8.49485695e-02 -9.15048867e-02 -4.43193614e-02 +7.38152936e-02 -8.49490464e-02 -8.49490687e-02 -8.49486589e-02 -8.49485472e-02 -8.49494934e-02 -9.73912328e-02 -2.67563552e-01 -8.49505216e-02 +1.04875259e-01 +2.38516361e-01 -8.49487484e-02 -8.49495679e-02 -8.49508643e-02 -8.49491879e-02 -2.61090457e-01 -4.10590142e-01 +9.10410658e-02 +3.47656757e-01 -8.49489495e-02 -8.49484056e-02 -8.49481970e-02 -1.05188802e-01 -2.78272890e-02 -1.44658029e-01 -7.18228146e-02 +1.21046208e-01 -8.49506855e-02 +1.02409184e-01 -8.49515125e-02 -8.49483162e-02 -8.49505439e-02 -8.49495009e-02 -3.35191451e-02 -1.87096432e-01 +6.28780276e-02 -8.86674877e-03 -1.60673242e-02 -4.66439240e-02 -8.49498659e-02 -8.49490762e-02 -8.49509910e-02 -8.49480331e-02 +2.46388465e-03 -1.73681557e-01 -4.17389236e-02 -6.92377314e-02 -8.49497244e-02 +1.32083939e-02 -8.49504769e-02 +9.75616947e-02 -8.49519446e-02 +6.87820762e-02 +6.72878027e-02 -4.17400151e-02 -5.50611764e-02 +6.87829107e-02 +6.87829703e-02 +6.87823668e-02 +6.87820017e-02 +6.87837005e-02 +1.92297518e-01 +3.02612036e-01 +6.87853768e-02 +7.89512321e-03 +1.61973327e-01 +6.87825531e-02 +6.87837228e-02 +6.87859133e-02 +6.87831044e-02 +8.87875855e-02 -1.43102765e-01 -2.22363435e-02 +7.33373091e-02 +6.87828586e-02 +6.87818304e-02 +6.87814876e-02 +1.22742623e-01 +1.57020330e-01 -1.02672637e-01 +4.67806943e-02 -1.26197979e-01 +6.87855929e-02 -1.01064317e-01 +6.87871277e-02 +6.87816292e-02 +6.87853843e-02 +6.87837005e-02 +1.63113743e-01 +8.40976760e-02 +4.73043881e-03 -3.50295335e-01 +4.67479974e-02 +5.59448227e-02 +6.87841997e-02 +6.87829927e-02 +6.87861219e-02 +6.87812045e-02 +4.50589955e-02 +1.97404437e-02 +1.48432389e-01 +1.36131495e-01 +6.87839761e-02 -7.12045375e-03 +6.87852725e-02 +4.12294529e-02 +6.87878430e-02 +3.96634126e-03 -2.94203144e-02 -7.40640759e-02 +8.73673931e-02 +3.96668864e-03 +3.96671798e-03 +3.96644836e-03 +3.96629889e-03 +3.96705931e-03 +7.82582909e-03 +1.36356866e-02 +3.96772381e-03 -2.09602155e-02 -3.93187404e-01 +3.96651216e-03 +3.96708772e-03 +3.96795757e-03 +3.96677153e-03 +1.44656762e-01 -1.02121368e-01 +1.66951075e-01 -2.69609615e-02 +3.96662625e-03 +3.96623043e-03 +3.96605209e-03 +1.66961104e-01 -2.22176537e-02 -1.08787194e-02 +8.23821649e-02 +1.78852707e-01 +3.96781927e-03 