#Parameter# /MlpAttender.d853df2e/_0 {128,512} 1048577 ZERO_GRAD
-2.87517649e-03 +1.71560794e-01 +8.36802926e-03 -1.39770150e-01 -1.23690916e-02 +5.07699586e-02 +1.04814045e-01 +7.08477497e-02 +5.64367138e-02 +8.22320506e-02 -7.23271519e-02 -1.31987572e-01 +1.43678501e-01 -8.87562186e-02 -4.77374606e-02 -1.13910623e-01 +1.08902745e-01 -7.50215724e-02 -2.18067393e-01 +2.05842391e-01 +1.88622519e-01 +1.42452493e-01 +1.59509424e-02 +8.64208192e-02 +2.03995079e-01 -1.59987971e-01 -4.52704951e-02 -1.86347276e-01 -2.88545713e-02 -1.46112561e-01 +1.37113526e-01 -3.93961594e-02 +5.99856004e-02 -3.18677574e-02 -1.22558467e-01 +6.13169745e-02 +2.26675734e-01 +6.01465777e-02 +2.24619024e-02 +9.81636345e-02 +3.82712251e-03 -4.11950126e-02 +1.08092226e-01 -1.25462534e-02 -9.86260101e-02 +4.37727608e-02 +9.80797689e-04 +4.95152846e-02 +6.59921020e-02 -5.53452522e-02 +2.71704718e-02 +5.20371497e-02 +9.30190310e-02 -1.79170296e-02 +3.29798125e-02 -2.32855052e-01 -7.15793446e-02 +8.57251510e-02 -1.26504868e-01 -8.15720484e-02 +1.24257701e-02 -6.60006329e-02 +2.08716512e-01 -1.05833575e-01 +4.44338359e-02 -1.06445234e-02 +4.24765535e-02 -8.07980727e-03 -1.70101300e-02 -3.70499827e-02 +7.68859452e-03 +8.25073496e-02 +2.81116571e-02 +6.51855171e-02 -1.50446787e-01 -7.66822770e-02 +2.09174734e-02 +1.84919909e-01 -8.54646638e-02 +1.49434745e-01 -5.37901372e-02 +9.15630721e-03 +1.08585469e-01 -1.94139376e-01 -1.52036890e-01 +3.09118759e-02 +7.85913542e-02 -1.72090650e-01 +1.90455437e-01 -7.68804178e-02 -1.45135596e-01 -1.82047769e-01 -1.73221398e-02 +6.88198432e-02 -5.88500686e-02 +6.04342781e-02 +3.30492668e-02 +1.22517541e-01 +1.47564799e-01 +2.97756046e-02 -7.22286329e-02 -1.27597362e-01 -2.93126833e-02 +6.30809169e-04 -5.33921691e-03 -1.44905820e-01 -1.20992959e-01 +4.80588228e-02 -9.06899869e-02 -1.64969638e-01 -1.93326026e-02 -4.27977294e-02 +2.99615040e-02 -6.81179911e-02 +1.06949493e-01 +5.64078335e-03 +1.92015618e-01 +1.18554160e-01 +1.10848144e-01 +1.44640699e-01 +1.23374440e-01 +4.88557778e-02 -4.19584438e-02 +7.15652108e-02 -1.19475745e-01 +3.84254940e-02 +9.20318142e-02 -6.54021874e-02 -5.58099039e-02 -1.09523147e-01 +3.04500572e-02 -1.33409956e-02 +3.27110998e-02 -5.87623492e-02 +9.86846630e-03 -6.75354227e-02 +7.21520782e-02 -2.86273565e-02 -5.48685752e-02 -6.44920692e-02 -2.15231460e-02 -5.36272340e-02 -1.62374616e-01 -4.58470583e-02 +2.34270357e-02 -6.76682368e-02 -1.73055101e-02 +4.36005592e-02 +4.89094667e-02 -1.99641124e-03 -9.46436264e-03 -3.33553441e-02 +3.15836146e-02 -1.67588647e-02 +1.49471983e-01 -2.12694276e-02 +1.34689556e-02 -7.35283121e-02 +3.60749736e-02 -4.45013940e-02 +1.08235180e-02 +1.28237028e-02 -7.62173459e-02 -7.96120763e-02 +1.31245494e-01 -7.21713994e-03 -2.27405075e-02 +4.10725139e-02 -7.74640664e-02 -3.49475406e-02 -4.40119393e-02 +4.80246767e-02 -3.12192878e-03 +4.35255505e-02 -1.86331589e-02 +3.35536487e-02 +1.99069962e-01 +3.76844555e-02 +3.95845138e-02 +7.89133534e-02 +4.53344733e-02 -3.75486836e-02 +2.15957556e-02 +6.23209551e-02 +7.78867751e-02 +8.72319117e-02 -8.72712210e-02 +7.59558603e-02 +8.10078606e-02 -1.12973981e-01 -1.64645712e-03 -3.52421775e-02 +4.24447246e-02 -2.77238153e-02 -1.88028882e-03 +5.89570170e-03 -4.42935824e-02 +5.07692359e-02 -1.06177703e-02 +4.65585962e-02 -4.14063260e-02 -9.71798040e-03 -7.90380966e-03 +1.01523818e-02 +4.21100073e-02 -2.75805243e-03 +1.71930052e-03 -9.80428420e-03 +5.14966585e-02 +4.71646711e-02 +3.80544141e-02 -2.26900019e-02 +2.28331853e-02 +1.35523360e-03 +8.29171985e-02 -8.56431648e-02 -6.20789565e-02 +2.27486119e-02 +6.14323989e-02 -8.00421759e-02 -2.25601569e-02 +1.73736196e-02 +9.83255580e-02 +3.75526883e-02 -6.58226684e-02 +6.27832562e-02 +5.72601408e-02 -1.07330061e-01 +2.26967037e-02 -2.35401336e-02 +1.18266553e-01 +8.71607568e-03 -3.85256931e-02 -4.09239195e-02 -4.99951914e-02 +1.32053308e-02 +1.30461976e-02 +7.45706912e-03 +6.08152859e-02 +5.09400200e-03 -3.66336219e-02 -1.23071790e-01 +5.96514009e-02 +1.02928661e-01 -7.24905506e-02 -2.79735331e-03 -1.89718395e-01 -3.22668105e-02 -3.74766886e-02 -5.68548180e-02 +7.62007460e-02 +2.82130390e-02 +6.72342107e-02 +2.58250266e-01 -7.53106363e-03 +2.63993200e-02 -2.57752866e-01 -2.05779709e-02 -1.57016158e-01 +2.20377911e-02 +2.40972117e-02 -1.95897698e-01 +1.64023519e-01 -1.27022848e-01 +3.09875645e-02 +1.16933044e-02 +5.93541563e-02 +7.83201158e-02 -2.80687213e-01 +4.81223017e-02 -2.35375926e-01 -1.19181849e-01 -6.39368743e-02 +1.56422511e-01 +1.86918676e-01 +2.23771811e-01 -6.02450110e-02 +1.37659490e-01 +8.42950400e-03 -4.58141491e-02 -9.38365459e-02 +2.79543158e-02 +4.33327109e-02 -1.83993533e-01 +1.75922569e-02 +6.50278255e-02 +5.08338027e-02 -3.75604108e-02 -7.07566440e-02 -1.22618020e-01 +1.79912597e-01 -2.13734657e-01 +9.52369645e-02 +2.18493730e-01 -6.06565550e-02 +1.32816538e-01 +9.01115164e-02 +6.29444942e-02 +1.01902530e-01 -5.39434515e-02 +4.33704369e-02 -2.38965228e-02 -5.82782440e-02 +1.71945184e-01 +5.28521873e-02 -1.08915437e-02 +5.75102028e-03 +6.65670186e-02 +4.24809232e-02 -4.50831242e-02 -4.63311225e-02 -1.95451714e-02 +5.49856611e-02 -1.72827281e-02 +1.14386529e-01 +8.05150345e-02 +1.29580006e-01 -1.34137705e-01 +3.74262512e-01 +2.70275101e-02 +5.22063933e-02 -2.21203640e-02 -1.15117267e-01 +5.40812090e-02 +6.61712661e-02 +4.42149043e-02 +1.08943935e-02 -2.40422711e-02 -2.87353974e-02 -6.50552586e-02 -3.84412184e-02 +1.29570723e-01 -6.89000040e-02 -2.04343259e-01 -6.89786673e-02 +1.92259073e-01 -3.68181057e-02 -9.66009125e-02 -1.36236534e-01 +7.40103722e-02 -1.27194300e-01 -1.05035163e-01 +1.65122345e-01 -8.60034004e-02 +1.65912673e-01 -6.90670637e-03 +1.99288726e-01 +5.81976213e-02 +1.50708064e-01 +1.19001389e-01 -1.42954037e-01 +1.90030828e-01 -1.09357610e-01 +2.21021101e-02 +2.71703333e-01 +1.05201446e-01 -7.10399970e-02 -1.77839976e-02 +1.49190612e-03 +7.73895010e-02 +3.56016830e-02 -9.63870734e-02 -9.99467149e-02 -1.03483260e-01 -3.11139319e-02 -1.63826179e-02 +2.47166939e-02 -9.60541666e-02 -4.51043248e-02 -7.25268051e-02 +1.06285684e-01 +1.98312998e-01 -1.05340406e-01 +3.66628841e-02 -5.04804924e-02 +1.20286718e-01 +6.02416508e-02 -2.08472222e-01 +4.22514826e-02 -4.11637425e-02 -7.22380802e-02 +2.75978863e-01 +2.75647342e-02 -5.98060759e-03 +1.75319657e-01 +2.28406295e-01 +1.02636591e-02 +1.78690217e-02 +2.80963350e-03 +5.74771687e-02 -3.45762223e-02 -2.86157653e-02 -1.48965167e-02 -5.19543961e-02 -9.67200547e-02 +2.61415601e-01 +9.63309184e-02 -4.30666357e-02 -6.65045977e-02 +9.02422369e-02 -2.91440673e-02 -7.52187297e-02 -1.53436601e-01 +6.97899330e-03 -1.72632620e-01 -4.48349304e-02 -4.41837646e-02 -6.52949959e-02 -1.25437323e-02 -8.85001272e-02 -8.02135319e-02 -1.09196782e-01 +1.53799895e-02 +1.36484563e-01 -2.31757864e-01 +1.65921208e-02 +1.59090012e-01 +1.33786544e-01 -1.03109568e-01 -1.32396638e-01 +6.85616657e-02 -1.60967693e-01 +1.22156985e-01 +1.92215517e-02 -1.57959789e-01 +4.37601954e-02 +1.50037035e-01 -1.60551772e-01 -9.84844416e-02 -7.27549708e-03 +2.20191583e-01 -2.85283197e-02 -1.79762229e-01 +4.67868447e-02 -1.03198685e-01 +3.40588801e-02 +9.03555229e-02 +1.01769283e-01 +2.17459649e-01 +1.60234928e-01 +6.90514520e-02 -1.92498893e-03 +2.67015100e-01 -1.46811113e-01 -1.81227420e-02 -3.02553419e-02 +1.02598265e-01 -1.47236466e-01 +4.53912932e-03 +1.36744872e-01 -6.79662004e-02 +5.02610281e-02 +1.74206793e-01 +1.99757703e-03 -2.09690500e-02 -1.31549254e-01 -2.02948954e-02 +5.23312911e-02 -7.67979100e-02 -7.22524449e-02 +3.17946188e-02 -2.70124465e-01 +6.00107200e-02 -2.07518473e-01 -1.04625128e-01 -8.39483067e-02 +1.02533109e-01 +1.57691762e-01 -7.04453886e-02 -8.43426585e-03 -1.16133876e-01 +2.01813236e-01 +1.58503667e-01 +1.32851079e-02 +7.87451193e-02 +7.06104711e-02 +2.48383835e-01 -9.82902497e-02 +2.49053612e-02 -2.50802338e-02 +1.18446849e-01 -1.48148209e-01 -3.96656692e-02 +8.44621882e-02 +7.86273647e-03 +3.18256736e-01 -1.63323224e-01 +2.12717399e-01 +6.21277606e-03 +7.39844237e-03 -1.32896259e-01 +5.12425741e-03 +3.93897444e-02 +8.61695781e-02 -4.74975677e-03 -1.02962904e-01 +6.58192039e-02 +1.77212402e-01 -3.01936623e-02 +1.68721285e-02 +1.10674612e-02 +4.41943556e-02 -1.93082672e-02 +1.03530496e-01 +5.15460707e-02 +5.43881999e-03 +1.58471521e-02 +2.32239254e-02 -1.37339616e-02 -2.20503226e-01 -1.84468523e-01 -4.49553095e-02 -1.35091037e-01 +9.46969837e-02 +5.36063919e-04 -1.61388088e-02 -3.00018806e-02 +2.57247567e-01 +8.60098600e-02 +1.51316166e-01 -1.06953168e-02 +1.46587357e-01 -6.85946718e-02 -8.34437385e-02 +6.58378080e-02 +9.42433551e-02 +1.30459080e-02 +3.14460956e-02 +1.05743758e-01 +1.39267221e-01 -6.87677935e-02 -9.95789766e-02 -7.86506757e-03 +1.73202828e-01 -5.57535812e-02 +7.21303970e-02 +2.38903519e-02 +3.36218514e-02 -6.63663447e-02 -4.39662300e-02 +1.03692412e-02 -1.96994334e-01 +1.60828784e-01 -7.05833733e-02 -2.33392805e-01 -8.61290917e-02 +5.59514947e-02 -6.65295403e-03 +1.51113719e-02 -1.04433902e-01 +2.11763512e-02 -7.02487258e-03 -1.02457553e-02 -4.05587517e-02 -7.42180422e-02 +1.11892223e-01 +4.79488671e-02 +5.88682033e-02 -6.91454187e-02 -1.76409021e-01 +1.55556649e-01 -1.21433191e-01 -9.93940383e-02 +8.38279538e-03 +6.48283660e-02 -3.12370490e-02 -1.84090704e-01 -3.47579084e-02 +1.07730804e-02 -7.29946792e-02 +5.13194725e-02 -1.52171507e-01 -2.29096979e-01 -8.20842665e-03 -3.64782028e-02 +1.29253427e-02 -2.77349323e-01 +1.60450023e-02 -3.39598954e-02 -8.59728258e-04 -6.70310110e-02 +5.41040711e-02 -3.76633145e-02 -2.77474951e-02 -1.05045974e-01 +3.05702053e-02 -1.43156365e-01 +8.78093839e-02 -1.36295572e-01 +1.35319531e-01 +5.83379827e-02 -7.86184967e-02 +8.06688145e-03 +9.49367806e-02 -8.81218016e-02 -1.38096571e-01 +1.09616490e-02 -6.04936406e-02 -2.59981789e-02 +8.95292312e-02 +1.02603160e-01 +2.08890121e-02 +2.37934152e-03 -2.95932591e-02 +8.45168084e-02 +5.47735617e-02 +8.20999816e-02 +9.69916768e-03 -4.91380878e-02 -1.17786728e-01 +5.43410406e-02 -3.13484408e-02 +4.82902600e-04 -1.86010543e-02 +3.20020579e-02 -1.35154068e-01 -6.82220757e-02 +2.48553939e-02 -4.76768985e-02 +2.36829165e-02 +4.18508612e-02 +2.46265456e-02 +1.33219942e-01 +9.14048310e-03 +5.62846251e-02 -6.76264912e-02 +3.64106148e-02 -7.76664913e-02 -1.90256491e-01 +1.11893588e-03 +2.21105218e-02 +7.61712948e-03 +6.41793385e-02 +8.56177211e-02 +1.45965323e-01 +4.76428773e-03 +4.62497286e-02 +2.69092232e-01 +1.18322186e-01 -6.47629052e-03 +6.37292787e-02 -9.08968691e-03 +4.78228033e-02 -6.23457832e-03 -5.66489697e-02 -7.89674222e-02 +2.24925019e-02 +1.49367630e-01 +1.76567137e-02 -8.68237168e-02 +6.26884252e-02 -2.47369893e-03 +2.48686314e-01 +1.59670934e-01 -4.78052124e-02 +7.83585384e-03 -2.15350717e-01 -6.41904250e-02 -1.72230825e-02 -3.34845297e-02 -2.58070417e-02 +8.52049515e-03 -5.16851284e-02 -1.81427225e-02 -2.10538823e-02 -1.06697343e-02 -3.69453952e-02 -3.99535000e-02 +7.10015297e-02 +1.10309400e-01 -5.81511781e-02 +4.47414853e-02 -1.26092300e-01 -6.38250634e-02 +4.46921438e-02 +4.66799811e-02 +4.34052460e-02 -1.09136477e-01 -6.12319075e-02 -7.62001704e-03 -1.30134672e-02 +3.83615270e-02 -2.45478433e-02 -1.21932529e-01 +1.08634338e-01 -6.53885864e-03 +5.76889366e-02 +8.86015072e-02 +1.65281191e-01 -1.46094561e-01 -6.69131353e-02 -7.85991624e-02 -8.98596719e-02 +9.64382812e-02 +1.15519814e-01 +6.27996624e-02 -8.32069740e-02 -3.48680578e-02 +6.24865405e-02 -3.59515175e-02 -1.05826437e-01 +9.43448916e-02 +7.73921981e-02 +1.06709458e-01 -5.32714762e-02 -1.82742272e-02 +8.04367065e-02 +4.11585299e-03 +1.70790907e-02 -2.96791159e-02 -4.25588638e-02 +7.31081143e-03 +4.95525412e-02 +2.74933521e-02 +9.53287184e-02 +1.26461266e-02 -4.30130640e-05 +1.60926785e-02 -7.97430575e-02 -1.46556824e-01 +4.64176573e-02 +7.42642805e-02 -1.90769862e-02 +7.31067508e-02 -2.08231770e-02 -2.68615745e-02 +9.36515406e-02 -2.99785472e-02 -1.96516104e-02 -7.87543133e-03 -2.43036468e-02 +1.09744050e-01 -7.96164796e-02 -3.90292145e-02 +5.77542260e-02 -5.99127002e-02 +1.37028741e-02 -5.70119545e-02 -4.98500392e-02 -7.14669600e-02 +1.04342751e-01 -7.74446726e-02 -3.33505347e-02 +5.92602454e-02 +1.99020907e-01 -1.19864419e-01 +1.34596191e-02 -7.18214596e-03 +4.78861183e-02 +1.03707083e-01 -1.95642099e-01 +6.55774698e-02 -6.90666214e-03 +3.57736181e-03 -1.57873388e-02 +1.40584871e-01 +1.77364945e-01 +5.02492264e-02 -2.29017157e-02 -1.47531494e-01 +9.45475176e-02 -4.56852056e-02 -7.11801052e-02 -1.13053598e-01 +1.33884907e-01 -1.22220077e-01 -1.37167629e-02 -5.64240664e-03 -7.52878636e-02 -7.32974261e-02 -4.53669764e-02 -2.48836307e-03 -3.35621573e-02 +1.79473273e-02 -2.35141739e-02 +1.27424225e-01 -6.87032863e-02 +6.73200488e-02 -6.21478930e-02 +9.57333669e-02 -2.04549760e-01 +5.44998795e-02 -1.17860459e-01 -2.78820712e-02 +1.55872069e-02 -8.71701092e-02 +4.39139120e-02 +2.69332025e-02 +3.67631949e-02 -2.36109510e-01 +7.61534572e-02 -6.45859353e-03 +1.42060744e-03 -5.29771522e-02 +1.35660712e-02 +7.14787841e-02 +1.08760204e-02 +1.15443189e-02 +6.20448627e-02 -1.62595492e-02 +1.48459181e-01 -1.91213176e-01 +1.20703839e-02 -2.46722251e-03 -1.02012724e-01 +1.75269227e-02 +1.73785891e-02 +5.68424799e-02 -1.77896798e-01 +6.14560246e-02 -3.83726917e-02 +6.80068955e-02 -6.26354590e-02 +3.79209928e-02 -6.53091297e-02 +1.42409038e-02 +3.97496261e-02 +9.52853784e-02 +1.72463447e-01 -8.43789652e-02 -4.49105836e-02 -7.87770897e-02 -2.57902015e-02 +4.54857573e-03 -7.68611208e-02 -1.76528431e-02 +1.18303094e-02 +2.43067369e-01 -1.64518077e-02 -3.48066427e-02 +1.55732259e-01 -1.45105366e-02 -7.57408515e-02 +1.33499233e-02 -2.02052787e-01 -1.83503442e-02 -7.81049021e-04 +1.76794659e-02 -8.08063149e-02 +1.61845274e-02 +6.49577677e-02 +3.55782211e-02 +8.83502420e-04 +1.52049270e-02 +1.26725674e-01 -1.76322326e-01 +7.44912177e-02 +3.86812389e-02 -5.29706404e-02 -1.06337123e-01 +1.43492147e-02 -4.83438931e-03 +2.05957860e-01 -1.25152487e-02 -4.49976213e-02 +6.52342811e-02 -5.12480959e-02 +1.97585654e-02 -1.51574882e-02 -9.24143717e-02 +8.58239606e-02 +1.01623302e-02 +1.31482661e-01 -8.43762904e-02 -8.18546116e-03 +2.98173249e-01 -1.04869127e-01 +7.66871497e-02 -1.41020402e-01 +3.48495208e-02 +1.81821324e-02 +3.68943922e-02 -1.11352772e-01 +7.16337040e-02 -1.81368925e-02 +3.07750702e-02 +3.61258276e-02 +1.17181212e-01 -1.84553266e-02 +9.63551179e-02 -7.70384371e-02 -1.03532381e-01 +1.56879410e-01 -6.83108568e-02 +2.93123387e-02 -1.97085403e-02 -2.23626018e-01 +2.89012883e-02 -5.42546175e-02 +9.38147365e-04 -5.63541288e-03 +7.79804736e-02 +3.33086737e-02 +7.84852132e-02 +9.33645200e-03 +8.07365701e-02 +1.95007876e-01 -4.00523543e-02 +8.73173252e-02 -1.07892957e-02 -9.98952612e-02 +6.64477348e-02 +2.55885702e-02 +1.33796275e-01 -3.92615944e-02 -4.96943891e-02 +4.22527194e-02 +6.85863569e-02 +6.93606213e-02 +5.08511402e-02 +1.68501854e-01 +2.39983693e-01 +8.13345015e-02 -5.05306385e-02 +1.46334991e-02 -1.00521363e-01 -8.10288042e-02 -1.67749256e-01 +1.96147412e-01 +1.48559883e-01 -7.69840777e-02 +1.02865864e-02 -1.99768897e-02 -2.56155618e-02 -5.89890070e-02 -8.71304073e-04 -7.39271715e-02 +2.48837797e-03 +2.49116383e-02 -2.08210982e-02 -1.15578741e-01 +1.58112347e-02 -1.63340010e-02 -1.36388633e-02 +4.64035086e-02 +4.81266901e-02 +2.66976245e-02 -1.05248772e-01 -8.19977224e-02 -2.09998354e-01 +1.47377163e-01 +1.58365797e-02 -7.16517940e-02 -9.43179429e-02 +7.20358174e-03 +1.19978450e-02 +4.85123880e-02 +2.07492895e-03 +5.45324869e-02 -8.85014758e-02 +7.50614479e-02 +1.64275207e-02 +1.61947727e-01 +2.13409178e-02 -1.85928360e-01 +8.72794166e-02 -5.91051467e-02 +3.83741036e-02 +7.15457201e-02 -1.10868141e-01 -5.56692965e-02 -1.55751652e-04 +1.33951485e-01 +3.22338976e-02 -1.00482851e-01 +1.47569245e-02 +5.79166599e-02 -8.97687860e-03 +7.67975673e-02 +5.50651066e-02 -3.90706584e-02 +1.57030106e-01 +1.25246838e-01 +8.27684253e-03 +4.70695309e-02 +1.59538865e-01 -8.41664076e-02 -2.81514712e-02 +9.24758390e-02 -5.40250055e-02 +1.58827141e-01 +9.10275802e-03 -1.10366344e-01 -1.61671489e-02 +8.67036805e-02 -4.15849015e-02 -9.84374359e-02 +1.32469401e-01 +3.66590321e-02 +3.44270989e-02 -2.26769503e-02 -1.44711450e-01 +4.09806147e-02 -1.31099582e-01 +7.98095167e-02 +2.50717252e-02 -2.89490651e-02 +9.10791829e-02 +2.69658379e-02 -1.56300177e-03 -1.16004780e-01 +1.11142352e-01 -1.19747914e-01 -6.96619302e-02 -1.62757486e-01 -8.23616162e-02 -1.18732573e-02 +3.59477103e-02 -1.35774165e-01 -9.28421244e-02 +1.85852386e-02 -8.31695497e-02 -1.88285448e-02 +1.54491499e-01 +8.13166574e-02 -6.36231899e-02 +3.32411937e-02 -6.43350929e-02 +4.67305630e-02 +2.16705520e-02 -7.44483899e-03 -1.17567517e-01 +1.61285818e-01 +3.28657366e-02 +1.16329761e-02 -1.41045094e-01 +3.09294630e-02 -9.98160988e-02 -7.06137121e-02 -4.55408357e-02 -5.59710525e-02 +7.97412097e-02 +6.76103011e-02 -7.10975900e-02 +8.62109065e-02 -8.22442472e-02 -2.61680260e-02 +8.15525558e-03 -1.80734228e-02 -4.66402061e-02 -4.00705151e-02 -1.07661627e-01 +2.33966615e-02 -3.73543017e-02 -6.76957443e-02 -1.19388252e-02 +3.23996246e-02 +3.44130397e-01 +4.10481878e-02 -7.14947954e-02 +6.24243654e-02 +2.03557491e-01 +1.42311603e-01 +1.08564094e-01 -2.39808131e-02 -4.41994332e-02 -1.73227549e-01 -8.98997951e-03 +1.57514572e-01 -9.96713042e-02 +1.73686147e-02 -6.78483099e-02 -9.85433385e-02 +5.72497807e-02 +7.41591379e-02 -1.40685961e-01 -6.25470281e-02 -6.00106381e-02 +2.12805029e-02 -8.42059329e-02 -4.20601405e-02 +3.22969817e-02 -4.57977504e-03 +3.41828801e-02 -1.74209133e-01 +2.99937855e-02 +8.13603401e-02 -9.77747813e-02 +8.46192613e-02 -7.64856339e-02 -3.41896117e-02 +4.89414558e-02 +1.36589319e-01 -1.59001112e-01 -3.65894437e-02 +3.79133038e-02 -1.18872344e-01 -1.99986205e-01 +8.32019597e-02 +3.23143303e-02 +3.77018116e-02 +1.40906814e-02 -7.76426774e-03 +1.97891928e-02 +1.38781324e-01 +4.72240672e-02 +2.46004418e-01 -8.62646699e-02 -1.47846237e-01 +6.92886859e-02 +4.77750115e-02 -7.79439360e-02 -1.12037500e-02 -6.51368648e-02 +2.12343764e-02 +5.68654947e-02 -6.55041561e-02 +1.01342648e-01 +2.01518219e-02 -7.36592710e-02 +2.20365692e-02 -7.36008286e-02 -2.91036651e-03 +3.51141649e-03 -3.07978988e-02 +6.47806749e-02 -7.40232542e-02 -9.24608260e-02 +2.10638884e-02 -1.35766938e-01 +1.31580621e-01 +3.02352831e-02 -1.34512544e-01 -1.51633145e-02 +3.62452143e-03 +9.16436538e-02 -9.64350030e-02 -5.43605015e-02 +4.34550196e-02 -1.76555187e-01 -5.69159053e-02 -2.86905151e-02 +3.88867315e-03 +8.51090774e-02 -1.38716968e-02 -1.78137468e-03 -5.72885722e-02 +4.87687662e-02 +5.66973127e-02 +7.55733177e-02 +1.25259548e-01 +3.09834816e-02 +5.35295606e-02 -1.92871064e-01 +4.78723310e-02 -4.10627434e-03 +8.69156718e-02 -2.66970173e-02 -5.05333953e-02 +3.63107622e-02 +5.45934699e-02 +7.87916034e-02 +1.50095180e-01 +1.44573435e-01 +5.35386838e-02 +2.25424871e-01 +1.46926627e-01 +6.71679378e-02 -1.30981263e-02 +1.23603694e-01 -3.14197123e-01 +1.41168684e-01 -2.26615414e-01 +3.97617728e-01 +2.41935253e-01 +1.37087688e-01 -1.82703622e-02 -2.34970734e-01 +1.08115710e-01 -4.64376397e-02 -6.99897334e-02 +8.04337636e-02 +9.79153067e-02 -1.03093632e-01 +9.69208851e-02 +8.03064629e-02 +1.37291662e-02 +7.71948323e-03 -2.48285636e-01 +3.78257446e-02 -1.30385414e-01 -1.75170079e-01 -1.10025965e-01 -6.26412332e-02 +1.67314798e-01 +5.31092770e-02 +6.62586093e-02 -5.71490964e-03 +4.83156741e-02 -1.83646858e-01 +4.93923053e-02 -5.66928834e-02 -1.63004652e-01 +5.52400723e-02 +4.97089252e-02 +8.14837888e-02 +1.11889645e-01 +6.02925122e-02 -5.31366132e-02 -7.09462911e-02 -1.53202575e-03 +1.67430699e-01 +2.70978481e-01 +4.52804506e-01 -1.56878874e-01 +1.34902984e-01 +1.67195965e-02 +1.46657810e-01 +1.52998352e-02 -7.47062266e-02 +1.17868051e-01 -3.54617015e-02 +1.35263771e-01 +2.76527777e-02 +3.75263691e-02 +4.08347696e-02 +6.11859150e-02 +9.60697383e-02 -5.89411184e-02 -8.66365209e-02 +1.41074076e-01 +6.36558533e-02 -3.89360543e-03 +8.34194869e-02 +1.52410030e-01 -4.16429564e-02 -4.42361794e-02 +1.02687083e-01 -1.35266423e-01 +9.92889050e-03 -1.81271464e-01 +9.01350081e-02 -1.06243856e-01 -4.17735353e-02 -1.90516580e-02 -6.66938424e-02 -9.60731283e-02 +1.28513739e-01 +9.60003585e-02 +1.27225488e-01 +1.63812116e-01 -2.11811543e-01 +2.12069660e-01 -2.02158570e-01 -9.17601287e-02 -1.88018739e-01 +2.21127421e-01 +6.26820326e-02 +1.24525264e-01 -9.04691890e-02 +7.34343380e-02 -8.81040022e-02 +4.75496054e-02 +5.47998538e-03 +2.61296332e-02 +6.08263910e-02 +5.33507466e-02 +1.31385345e-02 +1.83816850e-01 +7.11243376e-02 -1.79642528e-01 +6.07278347e-02 -3.77129652e-02 +5.80521040e-02 -9.02356859e-03 +4.82641719e-02 -2.08202720e-01 +3.72954756e-02 -4.62420955e-02 -3.61389853e-02 +9.79010835e-02 +3.78099526e-03 -1.10801779e-01 +1.89655825e-01 +2.12711304e-01 -8.04550350e-02 +5.69193531e-03 -4.87254225e-02 -1.37252510e-01 -1.13754466e-01 -5.08333333e-02 +6.83123991e-02 +1.19352706e-01 -1.39931768e-01 +5.87099278e-03 +1.85102522e-01 +2.24779740e-01 -1.59699451e-02 +1.72772892e-02 -1.40573218e-01 -2.70379364e-01 -8.27845633e-02 +3.62846889e-02 -2.10574239e-01 -3.88052054e-02 +1.98231667e-01 -6.25446290e-02 +1.03540123e-01 -1.21836990e-01 +7.31514096e-02 +9.02996585e-02 +8.30150098e-02 +6.13475963e-03 -2.01770645e-02 +1.27721518e-01 +9.38245505e-02 +6.59543276e-02 +9.95292962e-02 +1.49421161e-02 +1.80730656e-01 -3.10750436e-02 +5.89176416e-01 -5.05530909e-02 +2.67886203e-02 +5.98303452e-02 -2.62807347e-02 -3.73546928e-02 -1.46997318e-01 +2.00285167e-02 +4.87508960e-02 -2.89195636e-03 -1.11366257e-01 -8.89474377e-02 +1.14982359e-01 +6.50522932e-02 -5.69133759e-01 +8.73403847e-02 +2.83151139e-02 -7.09517971e-02 +2.66418923e-02 +9.36957598e-02 -8.50648731e-02 -1.34762134e-02 +3.45946252e-02 -8.00626352e-02 -1.75298706e-01 -3.97652388e-01 +5.67097142e-02 +6.86111823e-02 +1.38168573e-01 -2.45765656e-01 -1.34476479e-02 -9.52839926e-02 -5.38429581e-02 -4.31317762e-02 +5.51865026e-02 -8.85786116e-02 +6.25152439e-02 -1.84345990e-01 -7.48283148e-01 -2.92136632e-02 +9.71066114e-03 -1.95956931e-01 -7.21996784e-01 +1.52051449e-03 +1.34878501e-01 +1.29681587e-01 +1.23352125e-01 +4.10640389e-02 +9.57102980e-03 -6.31608209e-03 -4.62314934e-02 -1.28505602e-01 -1.41975209e-01 +4.07381803e-02 +7.53219873e-02 +2.99814731e-01 -1.69102907e-01 +4.00956161e-03 -4.65264171e-03 -2.66815182e-02 -1.06291376e-01 -4.06096056e-02 +3.42162810e-02 -1.64049014e-01 -6.06039092e-02 -4.58131909e-01 -1.58986524e-01 +3.23358886e-02 +1.26777068e-01 +2.89900750e-02 -1.17083685e-02 +2.38515381e-02 +2.23224610e-02 -1.15116369e-02 +8.87260586e-03 -1.17027760e-02 +1.54038116e-01 +8.92044418e-03 -1.33115556e-02 +2.02815444e-03 +6.98641717e-01 +5.75489812e-02 -9.77740139e-02 +3.91585939e-02 +6.05420172e-02 -7.55886808e-02 +2.88423032e-01 -6.99118674e-02 -4.66074944e-02 +5.14766872e-02 +3.12455744e-02 +1.24734908e-01 -8.03026557e-02 +2.28495840e-02 +6.08970299e-02 +2.06448901e-02 +3.16829175e-01 +1.00191817e-01 -8.17773980e-05 +1.85302764e-01 +1.55204102e-01 -2.23581657e-01 -4.37882096e-02 -1.43297553e-01 -3.42522226e-02 -6.32725060e-02 +8.18058476e-02 +1.71660200e-01 -5.40918186e-02 -1.88414159e-03 +2.23960787e-01 -3.41802463e-02 +1.46301270e-01 -1.86478253e-02 +2.97067285e-01 -3.70110661e-01 -8.47529024e-02 +1.41645044e-01 -2.07091287e-01 +9.45577845e-02 +4.27807905e-02 -1.50356472e-01 +1.70342013e-01 -2.65300184e-01 -1.51602784e-02 -5.28810769e-02 -1.41736073e-02 +4.17321101e-02 +1.30583212e-01 -1.19884231e-03 +1.08810909e-01 +4.72171716e-02 -6.24766685e-02 +2.34067161e-02 +4.06571291e-02 +1.11920565e-01 +2.90522235e-03 -6.27060682e-02 -2.04018325e-01 +2.04591937e-02 -6.72460198e-02 -6.19749986e-02 -1.32829949e-01 -2.25600615e-01 -3.81138101e-02 -5.77511266e-03 +1.02892049e-01 -2.70620048e-01 -1.10999964e-01 +1.84929520e-01 -1.52790859e-01 -5.52763510e-03 +2.48847201e-01 -1.20490700e-01 +7.29909465e-02 +1.13665737e-01 -1.43610477e-01 -1.02388173e-01 -3.09423581e-02 -6.46119490e-02 -1.61463246e-01 -5.14888801e-02 +3.68900031e-01 -1.43694937e-01 -8.24041516e-02 -2.91227992e-03 -3.78008559e-02 -1.70061663e-01 -3.75591487e-01 -4.87136133e-02 -1.16424963e-01 +7.69114413e-05 -3.40163079e-03 +4.43595607e-04 -2.29868382e-01 -1.00408733e-01 -2.70321310e-01 -2.00569525e-01 -2.21972436e-01 -4.02082764e-02 -1.04639046e-02 -1.62950270e-02 +1.48319080e-01 -1.09681621e-01 +7.98198208e-02 -3.57899576e-01 +2.25282498e-02 +5.57567999e-02 +4.11606818e-01 -1.71001986e-01 -5.59850745e-02 -4.69515949e-01 -2.90582217e-02 +2.98469484e-01 -2.90488064e-01 -7.29783922e-02 +1.29171118e-01 +4.19138782e-02 +4.65882383e-02 -1.97703376e-01 -2.54217815e-02 -1.58544958e-01 -3.11391763e-02 -2.51801424e-02 +1.26797035e-02 +1.75095439e-01 +4.33572605e-02 -4.69316803e-02 +1.91400141e-01 +5.68512119e-02 +4.13064547e-02 +4.19805050e-02 +3.16141807e-02 -1.04959153e-01 +1.43644989e-01 +7.84791708e-02 -1.57695949e-01 -1.91950440e-01 +6.33109584e-02 +5.59131913e-02 -9.43745300e-02 -1.82172969e-01 +1.16343759e-01 -5.60761355e-02 -2.94296145e-01 -8.70801508e-02 -4.38227877e-02 -5.79705909e-02 +1.76369876e-01 -7.79901221e-02 -1.00210592e-01 -2.86345929e-01 +5.97855784e-02 -6.19281940e-02 +4.24514674e-02 +2.89764106e-01 +1.24004833e-01 +2.15493217e-02 +3.49629074e-01 +9.35426727e-03 -9.26029533e-02 -1.76770128e-02 -9.70440209e-02 +2.36468554e-01 +1.65550843e-01 -5.89118823e-02 -3.72827798e-02 -9.42762196e-03 -6.48210496e-02 -2.08412230e-01 -3.13454531e-02 -1.84646443e-01 -1.37416292e-02 -1.04559816e-01 -1.06875062e-01 -6.64916188e-02 -4.53836918e-01 +4.74025011e-02 -9.89041403e-02 +3.57885845e-02 -4.25835960e-02 +6.25404492e-02 +1.55769274e-01 +1.86886698e-01 -7.97712281e-02 -1.16617985e-01 +5.61756901e-02 +2.80836243e-02 -2.59875064e-03 +2.07585134e-02 +4.37706262e-01 -7.33228326e-02 -1.26976687e-02 -9.53861251e-02 +8.03314149e-02 -6.84984922e-02 +1.00163490e-01 +1.28024220e-01 -1.66420519e-01 +1.18308058e-02 +4.19208184e-02 +4.80347186e-01 -1.21070690e-01 +9.98079330e-02 +6.03221469e-02 +2.02134818e-01 +1.20434575e-02 -3.10313758e-02 +1.51693569e-02 +6.91340938e-02 +6.84438646e-02 +1.92494199e-01 -4.25089896e-02 +7.19212070e-02 +3.62347931e-01 +5.08605056e-02 -5.64309433e-02 +3.17841530e-01 +6.09141767e-01 -5.42590655e-02 +1.96285010e-03 +3.16799246e-02 -7.94110298e-02 -2.04323344e-02 -1.00688543e-02 +1.64973572e-01 -2.94112545e-02 +5.17038144e-02 -5.21803834e-02 -1.37852773e-01 -7.25625232e-02 -3.55273902e-01 +1.00840017e-01 -8.16083178e-02 -1.53491069e-02 -2.68120468e-02 -1.10500092e-02 -1.97991095e-02 -8.41179267e-02 +2.43782029e-01 +1.16022654e-01 +3.57847303e-01 -6.10168613e-02 -7.62692466e-02 -7.73086911e-03 -3.87813896e-02 +6.38670474e-02 -4.74401414e-02 +4.95050661e-02 +3.68206166e-02 -1.48611255e-02 +3.17791216e-02 -1.40060326e-02 +1.37898564e-01 +7.59942597e-03 -4.81147170e-02 -6.97434902e-01 -1.99242964e-01 -3.34907733e-02 -2.56062392e-02 -8.56140852e-02 +1.30948033e-02 -4.05480206e-01 -1.33042987e-02 +1.13890447e-01 -1.75854377e-02 -1.14335343e-01 -8.59214831e-03 -1.72184795e-01 -1.02881163e-01 +2.83240508e-02 +4.15433384e-03 -1.30747497e-01 -1.02963988e-02 +1.45423785e-02 +3.28606963e-02 -9.01119504e-03 +7.69058382e-03 +1.05598234e-01 -3.70313488e-02 -5.33841103e-02 +4.16688388e-04 -3.19561623e-02 +2.19405323e-01 -4.06142361e-02 -1.04657926e-01 +1.06375411e-01 -1.41891288e-02 -3.64094041e-02 -1.50867840e-02 -5.95513694e-02 -1.88482523e-01 -2.51279920e-01 -1.05786271e-01 +1.89403191e-01 -8.54693800e-02 -7.81116169e-03 -1.64098889e-01 +3.75469811e-02 -3.02358326e-02 +6.90622702e-02 +1.18112247e-02 -7.59867532e-03 +1.63471315e-03 -1.28988847e-01 +1.46827986e-03 +1.11409314e-01 +6.37716075e-05 -9.91870463e-02 +4.21567895e-02 -7.70412460e-02 -8.60378072e-02 -3.69350426e-02 +5.44516649e-03 +1.43873557e-01 -4.55154739e-02 +1.06153831e-01 -1.89074257e-03 +9.07424688e-02 -1.08986259e-01 +4.68504764e-02 +3.29182558e-02 +5.47399595e-02 +7.98695907e-02 -1.24841541e-01 -6.06696717e-02 -7.29974806e-02 -6.31402135e-02 +1.20228164e-01 -6.49793893e-02 +2.92823091e-02 +2.26305202e-01 -1.25723496e-01 -2.12065250e-01 -9.88715738e-02 -8.60284641e-03 +9.44894627e-02 +1.44871576e-02 -6.60037026e-02 -3.73557769e-02 +5.07478043e-02 +1.22678354e-01 +1.06793106e-01 -2.74473689e-02 -2.59636994e-02 -6.88169152e-02 +1.03173628e-01 +9.03685391e-02 +7.23536536e-02 -1.61046743e-01 +2.48426069e-02 -1.39285490e-01 -1.80063412e-01 -5.79441339e-02 +2.87434101e-01 -5.21142073e-02 -8.24051052e-02 +6.04746044e-02 +1.04273587e-01 -1.99450515e-02 -9.29301679e-02 -3.34751233e-02 +7.05879405e-02 +1.99825853e-01 +1.02680758e-01 -9.41361859e-02 -1.13032505e-01 +5.12829721e-02 -2.23362282e-01 +1.44852903e-02 -1.75277561e-01 -4.99709919e-02 -1.28336802e-01 -8.68403167e-02 -2.97403596e-02 +1.18512034e-01 +1.75892055e-01 -7.33340066e-03 -2.47569278e-01 -1.10771926e-02 +4.48901877e-02 -1.26136497e-01 -1.41832709e-01 -1.50543116e-02 -1.48294702e-01 +8.88109207e-02 +9.34626088e-02 +6.83333874e-02 +1.71731524e-02 -6.60679713e-02 -7.19883665e-02 -5.25914179e-03 -5.16358241e-02 -1.14215247e-01 +1.30485043e-01 +6.28776476e-02 +1.65094689e-01 +2.24938374e-02 +9.52021510e-04 -6.50138706e-02 +2.33217388e-01 -4.21017408e-02 +1.10007048e-01 +1.45869367e-02 +1.46292657e-01 -7.99500477e-03 +1.67899188e-02 -1.31442457e-01 -2.16970235e-01 -9.93433818e-02 +1.09748151e-02 +3.30967717e-02 +1.53122783e-01 +1.21996142e-01 -1.93624888e-02 +1.12652466e-01 +7.39621446e-02 -4.00888361e-02 -2.73209661e-02 -7.91117474e-02 +7.45606646e-02 -1.19472265e-01 +1.31049370e-02 +1.67444736e-01 -2.50256006e-02 -2.15649948e-01 +9.17270109e-02 +4.33152616e-02 +1.60309315e-01 +5.15955035e-03 +3.88922915e-02 -6.58952296e-02 -8.15663263e-02 -6.52729645e-02 +3.61770205e-02 +9.10872445e-02 -7.65875280e-02 -1.42763689e-01 -8.58771503e-02 -1.63315639e-01 -1.47896722e-01 +3.32839340e-01 -1.02257147e-01 +5.26708551e-02 +9.37538072e-02 -4.28382121e-02 -7.33631775e-02 -1.06938057e-01 -1.16504850e-02 -8.63215625e-02 +1.40130848e-01 -5.08058667e-02 +2.58085076e-02 -2.82536596e-01 +2.02692211e-01 +1.35678789e-02 +1.03263654e-01 -4.90422826e-03 -2.33098362e-02 +4.90218736e-02 +1.21783391e-01 +1.85586303e-01 +1.01919742e-02 +1.06544174e-01 +3.95395279e-01 +4.32712696e-02 -1.75680459e-01 +2.20080353e-02 +6.45312965e-02 -3.69270295e-02 -9.95759815e-02 -2.28639878e-02 -2.57872604e-02 -1.84543710e-02 -3.11891455e-02 -6.45916313e-02 +5.42000197e-02 +6.66902140e-02 -9.64747965e-02 -1.43869808e-02 +7.57719949e-02 -5.37030548e-02 +1.89781096e-03 -1.20053412e-02 +7.79505521e-02 +1.49947787e-02 +1.44178659e-01 -1.48061752e-01 +1.90836728e-01 -1.50077995e-02 -8.03460702e-02 +8.17661057e-04 +1.20185837e-01 +1.05728082e-01 +8.99978727e-02 -4.87963669e-02 +1.86507683e-02 +8.73198211e-02 +2.10022241e-01 -5.85404178e-03 +4.21212837e-02 +7.75198713e-02 -1.29488204e-02 +5.07829227e-02 -2.81099796e-01 +6.93486445e-03 +2.51503408e-01 -9.52579901e-02 +1.26731381e-01 +1.12403661e-01 -1.13853224e-01 +1.58782974e-01 -2.62203850e-02 +5.44086508e-02 -1.24474175e-01 +6.06706887e-02 -1.83410794e-01 -7.81010883e-03 -2.53053866e-02 +7.03423321e-02 +3.09008248e-02 -9.96316299e-02 +6.59541227e-03 +1.51805980e-02 -1.55618740e-02 -1.64207429e-01 -1.45976976e-01 +1.18548244e-01 +1.42457448e-02 +7.35329539e-02 -2.68205345e-01 +7.64324218e-02 -8.09934363e-02 -1.54536262e-01 +8.92556680e-04 -2.07453951e-01 -1.27319887e-03 +1.40482187e-01 -1.84866916e-02 +1.49829879e-01 -3.86112072e-02 +2.45642692e-01 +4.03845944e-02 +1.07397266e-01 +6.85468093e-02 -4.17250395e-02 -2.17496961e-01 +4.08791704e-03 +2.27450449e-02 +6.80225268e-02 -1.17847130e-01 +1.01885654e-01 +2.35969558e-01 -2.69669462e-02 +1.69690222e-01 +3.10060263e-01 -1.10434733e-01 +2.39127174e-01 +8.44911709e-02 +1.28966883e-01 -1.03966191e-01 +5.81940562e-02 -2.46038958e-02 -2.45285630e-02 +1.96088791e-01 -4.45763431e-02 -2.14121100e-02 -6.45321235e-02 +3.37330857e-03 -8.15403685e-02 -1.82285130e-01 -2.63468679e-02 +1.79059859e-02 +1.56756729e-01 -7.85376355e-02 -2.55699456e-01 -9.65330973e-02 +1.23501711e-01 -2.21202403e-01 +1.12094760e-01 -4.48836498e-02 -1.43654905e-02 +2.05190182e-01 -3.16451788e-02 +3.89452390e-02 -2.06718653e-01 +2.23759506e-02 -6.38091983e-03 +8.19031596e-02 +1.54978365e-01 +1.81277558e-01 -5.61826453e-02 -4.66373377e-02 -1.17370840e-02 +4.23888564e-01 +7.64329061e-02 +2.53266484e-01 +6.42481670e-02 -1.97995789e-02 +1.69815749e-01 -6.65747821e-02 -1.41666844e-01 -4.50488441e-02 -2.57788062e-01 -3.63952224e-03 +2.55336668e-02 +3.46519947e-02 -3.60271856e-02 +2.34815910e-01 -9.28740297e-03 -3.79992742e-03 -8.80295318e-03 -4.16942202e-02 -2.09877118e-02 +2.75242299e-01 -1.67842388e-01 -1.49573371e-01 -7.54613280e-01 -1.59882382e-01 -8.09378773e-02 +2.07141444e-01 -2.17066571e-01 +1.02223814e-01 -6.79324195e-02 -3.78703512e-02 +5.43921217e-02 -1.22405976e-01 -1.06079981e-01 +5.93455285e-02 -1.70965016e-01 -1.03446551e-01 -6.30494803e-02 -1.65578397e-03 -2.76079290e-02 -1.09440625e-01 +1.55063450e-01 +1.11752063e-01 +4.89560552e-02 +5.91906309e-02 -2.36623045e-02 +1.17978416e-02 +2.93185055e-01 -2.01330334e-02 -2.37740934e-01 -5.55367768e-02 -1.50815979e-01 -6.84852898e-02 +7.94488490e-02 +2.56458167e-02 +4.12897095e-02 -3.62840258e-02 +1.49100006e-01 +2.13970523e-02 -2.06560954e-01 -3.64743769e-02 -8.47730190e-02 -4.55126055e-02 +1.40281156e-01 -8.84788707e-02 +9.18570757e-02 +2.80104186e-02 +1.02137379e-01 +8.79578814e-02 -1.43968374e-01 -1.39562190e-01 +9.41862315e-02 +1.77940592e-01 -5.92159554e-02 +3.42458822e-02 -1.45318478e-01 +3.03471923e-01 -1.09177373e-01 -1.19634286e-01 -1.10880278e-01 -2.09358230e-01 +4.87588756e-02 -1.94969162e-01 -1.15377851e-01 +5.23333736e-02 -1.11058004e-01 -3.41490731e-02 +9.29893088e-03 +7.19069988e-02 -8.57506096e-02 +1.77268654e-01 -1.09800473e-02 +9.53005627e-03 +2.59026103e-02 -6.14404380e-02 -7.99953118e-02 -4.72184755e-02 -1.55625954e-01 +2.12047607e-01 -1.10732026e-01 -4.84368298e-03 -3.23877633e-02 +2.45224666e-02 -1.51690781e-01 -8.48959088e-02 +3.39821391e-02 +1.03700019e-01 -4.43069302e-02 -5.41892312e-02 +8.18811581e-02 +1.57481685e-01 +3.81534286e-02 +4.35431600e-02 +1.62577853e-01 -3.55710611e-02 -2.16203064e-01 +3.36863697e-02 +1.11265175e-01 +1.82286799e-01 +5.26236929e-02 +9.15835351e-02 -5.23928590e-02 -6.53636735e-03 +1.81955248e-01 +1.14020318e-01 -8.95977078e-04 +1.42564010e-02 -1.07239328e-01 +2.69583408e-02 -1.90273121e-01 +8.14642117e-05 +8.69910419e-03 -4.20934111e-02 -1.74323827e-01 -6.87605366e-02 -2.48399395e-02 +1.39715478e-01 +3.77248488e-02 +1.32385090e-01 -4.33635786e-02 -1.99623629e-01 +1.51694655e-01 -3.06349605e-01 +8.26205984e-02 -4.00336869e-02 +1.25773340e-01 +6.16637766e-02 +1.26576185e-01 -1.37647673e-01 +7.03577250e-02 +1.00308225e-01 -9.53537747e-02 -2.74186656e-02 +4.51239198e-02 +1.62901968e-01 +1.09617472e-01 -2.62451414e-02 +1.44920304e-01 -1.32728040e-01 +7.74195977e-03 +5.90484589e-02 -4.78888955e-03 -1.11184143e-01 -1.48741305e-01 -1.19885668e-01 +2.18360096e-01 +1.76912859e-01 -2.60178775e-01 -8.58974382e-02 -2.45438050e-02 -7.03267455e-02 -1.45794883e-01 +1.74222663e-01 -1.54456927e-03 +6.23973832e-02 +1.43706858e-01 +1.22759052e-01 +5.79215996e-02 -1.03066407e-01 -5.34795283e-04 -8.71692598e-02 -5.05486280e-02 +2.60426244e-03 -1.29620463e-01 -1.44541472e-01 +4.66590002e-02 +1.11476341e-02 -1.06532976e-01 -6.24455474e-02 -3.43873017e-02 +1.93705112e-01 -1.95662677e-02 -2.24216983e-01 -1.26069272e-02 +5.70924953e-02 +1.13465659e-01 -2.43424289e-02 +1.68632120e-01 +3.02054770e-02 -2.79040374e-02 -1.16068959e-01 +2.15647846e-01 +1.06235735e-01 -1.25411570e-01 +1.08061014e-02 -1.71591938e-01 +9.36723351e-02 +2.99908482e-02 -8.76430981e-03 +4.02981602e-02 -5.52550107e-02 +5.65039627e-02 -1.70972154e-01 +1.06230311e-01 +5.64920381e-02 +8.86232480e-02 -5.37364110e-02 +1.34113163e-01 -2.95282371e-04 -1.14255890e-01 -1.96224198e-01 -4.83279750e-02 +1.60240397e-01 +8.93793479e-02 -3.47294770e-02 +5.09626828e-02 +1.33761331e-01 -2.18688726e-01 -3.97261083e-02 +3.24060693e-02 -9.81908590e-02 +3.81617360e-02 -3.11832041e-01 +8.91415998e-02 -1.42786531e-02 +5.83813600e-02 -1.98404446e-01 +5.37972786e-02 -2.48426586e-01 +1.11495201e-02 +2.69075297e-03 -1.58546083e-02 -2.83351485e-02 +7.07791448e-02 +1.76451251e-01 +5.60263991e-02 -1.37561990e-03 +9.83154923e-02 +4.38350253e-02 +1.08974926e-01 -7.87935406e-02 +1.86633747e-02 -5.09138033e-02 +2.49723792e-02 -1.69479892e-01 +1.21360424e-03 -2.77225316e-01 +1.95604146e-01 +1.00285828e-01 +2.45077647e-02 +6.06276318e-02 +8.71253014e-02 -1.14978425e-01 +5.08640856e-02 +2.63244003e-01 +1.31433243e-02 -5.22536971e-02 -4.27165218e-02 +1.96921468e-01 +8.31775144e-02 +1.49439439e-01 -4.29533094e-01 -6.24800138e-02 -1.09382331e-01 +9.04175416e-02 -2.44706452e-01 -2.01844588e-01 +2.00508058e-01 -1.84616357e-01 +2.67864704e-01 -1.19762972e-01 -9.26579311e-02 +8.79447758e-02 -1.38955384e-01 +1.02113880e-01 +5.65869100e-02 -1.06240571e-01 -5.29535338e-02 +5.03555164e-02 -3.96389067e-02 +4.35482785e-02 +7.17698336e-02 +1.15614636e-02 -2.40441576e-01 -1.37345463e-01 +1.17434196e-01 +9.06740427e-02 +1.25654027e-01 -5.97404726e-02 +7.61296451e-02 -1.11699477e-01 +6.40249923e-02 +4.33744118e-02 -8.94757435e-02 -1.97512261e-03 -1.08431861e-01 -6.46463931e-02 +4.80209701e-02 +2.37805232e-01 -5.47555462e-02 +1.31416604e-01 +6.90468773e-02 +7.53377704e-03 -4.21518534e-02 +1.51750430e-01 -1.57408752e-02 -8.40370879e-02 +9.85816196e-02 -5.72058335e-02 -1.55074880e-01 +5.10938205e-02 +1.09105587e-01 +1.03537822e-02 -3.87143381e-02 -1.31634558e-02 -1.93975102e-02 -2.52410948e-01 +9.69952717e-03 -4.01791260e-02 -1.27170980e-03 +4.17591110e-02 -8.87731984e-02 +2.31483392e-02 -6.91260472e-02 +5.01995757e-02 +5.11840545e-02 -5.83385676e-02 -1.35612832e-02 +6.78298250e-02 +3.32365446e-02 +5.05723320e-02 +2.15103850e-02 -1.47006409e-02 +1.84538998e-02 +2.50066780e-02 +1.05526857e-02 +4.37712744e-02 +1.14829494e-02 -5.79905370e-03 -2.93294583e-02 -6.19048700e-02 -2.78588813e-02 +8.01237449e-02 -7.42876604e-02 +7.09563121e-02 -6.73272908e-02 -6.04467280e-02 +2.16242317e-02 +6.33666664e-02 -5.22547327e-02 -2.19931528e-02 -2.01142654e-02 +9.69034284e-02 -5.87267689e-02 -5.37545085e-02 +2.57709473e-02 +7.79742226e-02 +6.78074136e-02 -9.46260709e-03 -1.47684917e-01 -6.38306439e-02 +6.12145402e-02 -4.12370265e-02 +6.38555884e-02 +3.09556257e-02 -1.33859571e-02 -1.93594284e-02 +8.33012722e-03 -1.42146483e-01 +1.20287679e-01 -3.68910059e-02 +8.30858424e-02 -5.57730198e-02 +2.25014351e-02 -1.02947496e-01 +5.48671745e-02 +3.58705707e-02 +3.20452414e-02 -1.52463950e-02 +6.29191250e-02 -4.86196987e-02 -1.00118823e-01 -3.33012603e-02 +7.24904612e-02 -6.37464896e-02 +2.80562602e-02 +3.26209143e-02 +3.01964153e-02 -7.44036436e-02 +4.31980053e-03 -6.99898154e-02 +1.53107960e-02 +1.76395774e-02 +5.53223118e-02 -4.03092764e-02 -9.65204835e-02 +1.14168033e-01 -1.19597353e-02 +1.54446261e-02 +8.59030187e-02 -4.35840935e-02 +5.88927492e-02 -6.78813234e-02 -1.73022561e-02 -1.49355074e-02 -1.15766682e-01 +1.20670900e-01 -6.38548508e-02 +1.08444996e-01 +2.20023841e-02 +7.08260909e-02 +8.38787388e-03 -4.20183316e-02 +6.63231760e-02 +3.51657928e-03 -8.04195926e-02 +3.47098224e-02 +8.82217512e-02 -3.79974693e-02 +5.91672072e-03 -1.05076559e-01 -1.63403316e-03 +9.46044251e-02 +4.54950929e-02 -7.20576793e-02 -2.71668732e-02 -5.68166524e-02 -2.85068750e-02 -2.59870607e-02 -1.59032002e-01 +2.54910327e-02 +5.13508394e-02 +6.49135560e-02 +3.19680721e-02 +1.15037791e-01 -1.75625719e-02 -1.11769408e-01 +4.09094654e-02 +2.23951712e-02 -6.20738929e-03 +1.51592657e-01 +2.59726681e-02 -8.47841240e-03 -9.97968763e-03 -5.30437119e-02 +7.24378824e-02 -8.34235102e-02 +1.03958368e-01 -9.53977108e-02 -1.19654052e-01 -1.56885952e-01 -1.15044348e-01 -2.72119772e-02 -1.56792089e-01 -5.54996654e-02 -2.11449470e-02 +9.16041583e-02 +9.14551020e-02 -4.79272008e-03 -1.55163631e-01 -2.59595290e-02 -6.71336353e-02 +5.04944026e-02 +9.56928730e-03 -2.66512800e-02 +3.18679437e-02 -2.61831414e-02 +6.07709400e-02 +7.01757427e-03 +5.57344556e-02 -1.18957303e-01 +1.45053893e-01 -2.43244320e-01 -1.65858626e-01 +9.28588659e-02 -1.95876379e-02 +1.08295918e-01 +4.75863973e-03 +2.02924833e-01 -1.05311930e-01 -8.48724619e-02 -9.50815901e-02 +6.95615038e-02 -1.19259082e-01 +1.11493163e-01 +1.29861891e-01 -7.96138123e-02 -5.63509483e-03 -7.97474906e-02 +6.78236410e-02 -1.31557379e-02 +2.32261326e-03 +5.35355099e-02 +8.08121711e-02 +1.29222870e-01 -1.67646930e-01 -1.47002757e-01 +9.67166722e-02 +8.76711830e-02 -2.31338069e-02 +1.78657934e-01 -7.16867372e-02 -5.56390285e-02 +7.94138983e-02 -4.35463376e-02 +3.84427719e-02 -7.19529251e-03 -1.00785391e-02 +7.36225024e-02 -1.72070444e-01 -1.64209515e-01 -4.05871496e-03 -3.95508744e-02 +9.95695069e-02 +2.31413886e-01 +1.10093504e-01 -8.26431438e-02 -4.49455390e-03 +2.56308950e-02 -2.44933125e-02 -4.82404977e-03 +9.95436963e-03 -9.07756686e-02 -7.98026100e-02 -3.77169773e-02 -1.49772272e-01 -4.36438769e-02 +5.63120469e-02 -2.16623931e-03 +3.38450111e-02 -2.27416754e-02 +1.30136237e-01 -2.23780368e-02 -7.18910713e-03 -1.35440491e-02 -4.81325500e-02 -3.29683647e-02 -8.27545151e-02 +1.98420770e-02 +6.48379177e-02 +4.88188900e-02 +1.00896627e-01 -1.15826674e-01 +1.60968974e-01 +1.70858383e-01 +4.40571420e-02 -4.56621982e-02 -6.52432144e-02 -8.63100067e-02 -2.47404650e-02 +8.05449933e-02 +2.48794451e-01 +6.18054308e-02 -7.19374567e-02 -1.50026664e-01 -3.19322874e-03 -5.71878292e-02 -6.33506849e-02 -1.28744408e-01 -1.04282983e-01 +5.38144819e-02 +2.92930696e-02 -1.56660736e-01 -8.26056227e-02 -5.11229225e-02 +8.44475031e-02 -1.54769897e-01 +2.01593101e-01 +4.37587984e-02 -1.24371164e-01 -1.46678695e-03 -1.37634665e-01 -7.79972179e-04 -6.03963472e-02 -7.82884881e-02 +1.68179080e-01 -6.78350255e-02 +1.53934017e-01 +1.74842194e-01 -1.16848409e-01 -2.05314681e-02 -1.79345042e-01 -1.56574085e-01 -1.81336179e-01 -1.52551651e-01 -9.16022882e-02 -1.64387271e-01 +1.17840640e-01 +2.69832522e-01 -9.24498215e-02 -6.26023207e-03 -1.37608806e-02 -2.64481783e-01 -4.16561402e-02 +1.07618924e-02 +1.44850343e-01 -9.70807821e-02 +1.02843614e-02 +9.40631703e-02 -6.55573308e-02 +2.15276554e-01 +1.51676595e-01 +2.02709921e-02 +5.01922593e-02 -2.30795667e-02 -8.26101750e-02 -2.13173047e-01 +1.12598855e-02 +1.08556226e-02 +1.40043184e-01 -4.19190973e-02 -2.32300147e-01 -2.81370226e-02 +4.40703146e-02 +4.13987748e-02 -8.56852382e-02 +1.28451467e-01 +2.59123519e-02 +1.72231644e-02 -7.76682049e-02 +8.67843032e-02 -1.91482767e-01 +6.09486699e-02 -1.16832696e-01 -9.89003628e-02 +4.79111485e-02 +8.96529034e-02 -1.40452772e-01 -3.11107375e-02 +2.87522655e-02 +2.48212591e-02 +6.93144277e-02 +4.26132604e-02 -7.46921003e-02 -4.78980504e-02 +8.97118896e-02 -2.08578676e-01 -3.14494446e-02 -3.87557782e-02 -3.75733785e-02 -1.37912072e-02 +5.29909097e-02 +1.08028889e-01 -2.67413780e-02 +3.31812203e-02 -2.41849452e-01 +1.14223152e-01 -3.39188538e-02 +2.49430872e-02 -1.44656315e-01 -1.24322683e-01 +8.83453991e-03 +2.30764449e-02 -3.56526941e-01 +1.84889860e-03 -9.78138745e-02 +2.18549296e-01 -3.44603181e-01 -1.70143992e-02 +3.22229671e-03 +5.53719588e-02 +6.01773933e-02 -1.88190937e-01 -1.51068076e-01 -7.37246051e-02 -5.28531522e-02 +7.91172981e-02 +1.06615737e-01 +3.55422348e-02 +4.39276472e-02 -8.20211917e-02 +1.05125025e-01 +6.69622421e-02 +7.60508608e-03 +9.41377059e-02 +1.86471209e-01 +1.15971349e-01 -5.37843853e-02 +1.99977651e-01 -5.31494431e-03 -3.00891828e-02 +4.11246940e-02 +3.87837701e-02 +2.92122588e-02 -1.12458635e-02 -6.06840625e-02 -6.95687160e-02 +1.21717691e-01 -1.28689289e-01 +1.08771779e-01 -9.68141668e-03 -7.06811324e-02 -6.67152703e-02 +6.14245683e-02 -3.54431987e-01 -1.91607803e-01 -6.92629293e-02 -2.06215560e-01 -4.90363091e-02 -2.01887205e-01 +1.30786687e-01 -2.74664555e-02 -5.65076061e-02 +1.36171028e-01 +1.26330857e-03 +2.33594198e-02 -5.50717674e-02 +2.22394556e-01 -1.27458319e-01 +1.88177034e-01 -7.72202164e-02 +1.44538144e-03 -1.03056751e-01 +8.95095542e-02 +6.55330345e-02 +3.50163728e-01 +1.03937007e-01 +2.31612176e-01 +5.99574372e-02 -3.39064337e-02 +4.40378347e-03 -2.19895214e-01 -2.91659594e-01 +2.40852877e-01 +1.68790519e-02 +1.04897290e-01 -1.42859221e-01 -3.22975039e-01 +3.74501109e-01 +1.87495321e-01 +3.71359289e-02 -3.28112990e-02 -1.89106569e-01 -4.28609252e-01 +6.16084635e-02 -3.48304398e-02 -1.83614045e-01 +1.90209616e-02 -1.23166211e-01 -5.62266931e-02 -3.55804451e-02 -5.58525417e-03 +2.84366030e-02 +1.52763039e-01 +1.44970208e-01 -9.31352749e-03 -1.84204589e-04 -5.41667938e-02 +4.99736294e-02 +1.03255428e-01 -2.18769550e-01 -2.24699721e-01 -2.10134357e-01 -2.54079625e-02 +5.14112646e-03 +2.17547238e-01 -1.48152083e-01 -1.39538467e-01 +8.78786594e-02 +1.29841417e-01 +2.59182334e-01 -1.04617096e-01 +6.34991080e-02 +5.37963063e-02 -1.81657761e-01 +6.42320514e-02 +9.90827680e-02 -6.82667596e-04 +6.64002374e-02 +7.03062816e-03 +8.63026530e-02 +7.80688077e-02 +9.53531489e-02 +2.29070157e-01 -2.61971384e-01 -2.66573042e-01 -1.69943441e-02 +1.01406142e-01 -3.02265197e-01 +1.42728657e-01 -8.12653229e-02 +1.28536567e-01 -2.84207433e-01 +7.57354945e-02 +2.30398074e-01 -1.36098653e-01 -5.62416716e-03 +1.44760087e-02 +2.34591827e-01 +2.64564622e-02 -2.18854636e-01 +1.68431550e-01 -2.92094886e-01 -1.34669632e-01 -1.82313159e-01 -3.42057794e-02 +2.55643427e-01 -1.42979592e-01 -5.72702140e-02 +1.91413879e-01 -4.45050607e-03 -2.73885012e-01 +6.04906492e-02 -5.56072965e-02 -6.74896985e-02 +1.69762731e-01 -2.26786494e-01 -7.85845891e-02 -4.12979007e-01 -1.43350273e-01 -6.64839819e-02 -1.43491313e-01 +3.81503478e-02 -1.61816731e-01 -1.23358205e-01 +2.68761784e-01 +3.10242563e-01 -6.33669719e-02 +7.60024115e-02 +5.65283746e-02 -9.18048471e-02 -8.63952115e-02 -1.42502651e-01 -1.89019889e-02 -1.99190989e-01 -6.47057742e-02 -2.01406330e-01 +2.85377260e-03 +7.48316944e-02 -1.13300271e-01 +7.23547637e-05 +1.45026878e-01 -1.49230465e-01 -4.13073078e-02 -8.06500018e-02 +4.53451276e-02 -1.89061105e-01 -7.93109313e-02 +1.42158806e-01 +5.65886386e-02 -3.28214280e-02 +6.02040663e-02 +8.53353646e-03 -1.08895510e-01 -1.26279011e-01 -1.15174368e-01 -2.98727393e-01 +2.04245761e-01 +1.45887379e-02 +8.01627245e-03 -3.12921889e-02 +4.66083214e-02 -5.70471622e-02 +1.98126256e-01 +7.60968104e-02 +5.46952225e-02 -1.67509258e-01 +3.19939181e-02 +6.85091764e-02 +1.83088809e-01 +4.00734916e-02 +1.44004570e-02 +3.65702808e-02 +2.20474247e-02 +2.85572335e-02 -3.21442708e-02 -1.09003477e-01 +1.39327152e-02 +1.42283320e-01 -1.07169762e-01 +7.00103268e-02 -2.45092511e-02 +2.13172823e-01 -6.34718835e-02 -5.50678782e-02 +1.49154022e-01 -3.48701365e-02 +1.17333740e-01 -2.08088178e-02 -7.78032541e-02 +5.16024679e-02 +2.57283412e-02 -1.94223464e-01 +4.56018187e-02 -1.30217254e-01 -7.18952864e-02 -2.29469895e-01 -6.75555617e-02 -1.17496200e-01 +2.53247451e-02 -1.59556903e-02 +6.48752674e-02 -6.42923340e-02 +4.77117375e-02 -2.42510028e-02 -5.31709846e-03 -8.06434825e-02 +1.28850713e-01 -1.14198245e-01 +5.99104203e-02 -1.65431306e-01 -1.34736285e-01 -1.30571947e-01 -2.19017304e-02 -2.12037843e-02 +9.71517339e-02 -1.56413093e-02 -8.86449218e-02 +4.48745675e-03 +3.99830043e-02 +6.98485225e-03 -1.49989218e-01 -4.52394634e-02 -1.60965979e-01 -7.27046654e-02 +5.55394813e-02 -1.06475256e-01 -4.28867973e-02 +9.02338475e-02 +1.61481556e-02 -1.64757684e-01 -1.06872536e-01 -1.19111482e-02 -1.00839242e-01 +2.98944227e-02 -8.05457458e-02 -8.38302523e-02 -4.75264788e-02 +1.25445044e-02 -1.31600603e-01 -2.16286536e-02 +9.49881375e-02 -1.52883986e-02 -3.44163291e-02 -1.67864799e-01 +9.07263681e-02 -1.17105583e-03 +9.63038132e-02 +5.87428780e-03 -1.34666190e-01 -1.04229756e-01 -2.40664352e-02 +4.24389914e-02 -7.47211576e-02 +2.99821198e-02 -2.44314643e-03 +2.35415343e-02 -1.85791776e-02 +5.89011349e-02 +1.83327824e-01 +6.69039637e-02 -1.00550745e-02 +6.21594116e-02 +1.15791492e-01 +5.97670525e-02 +1.12301283e-01 +3.11828814e-02 -1.27732769e-01 +8.00964609e-02 -1.02720387e-01 +2.66025692e-01 +1.36060297e-01 +5.88999242e-02 +1.06970631e-01 +9.09141451e-02 -2.81095952e-02 +5.42695373e-02 +4.02004197e-02 -1.22984231e-01 -4.32670340e-02 -1.14203535e-01 -1.81950908e-02 -2.98003107e-02 +1.48104904e-02 +5.22118248e-02 +1.02424473e-01 +8.67035463e-02 -3.50915529e-02 +5.10040410e-02 +9.44592431e-02 -1.09853921e-02 +3.99941429e-02 -4.09635790e-02 -2.58714762e-02 -1.64351135e-01 +1.94804724e-02 -6.46897405e-02 +4.36322317e-02 +5.89826237e-03 +1.04225330e-01 -9.22765210e-02 +1.53573766e-01 -1.39658362e-01 -6.06719695e-04 +3.87901819e-04 -3.86236049e-02 -3.00307907e-02 +4.45790589e-02 -3.66313197e-02 +3.49148014e-03 +6.75068796e-02 -1.21511959e-01 +2.41471380e-01 +6.02889992e-02 +2.06090033e-01 -1.70526817e-01 +5.66795729e-02 -6.76398650e-02 -2.42450777e-02 +2.98955068e-02 +4.17907611e-02 -5.52681275e-02 -1.04783051e-01 +1.07157752e-01 -2.70740385e-03 -9.69305485e-02 +8.87758657e-02 +5.69757596e-02 -5.14702126e-02 -1.68470025e-01 -1.79181382e-01 +7.16629624e-02 -9.53955725e-02 -2.25802436e-01 -2.99507566e-02 -1.57745685e-02 +7.11347675e-03 -2.49992628e-02 +2.22901836e-01 +2.79746810e-03 +3.39983553e-02 -6.75097778e-02 +2.00854138e-01 +4.15378585e-02 +5.70441745e-02 +9.20376554e-02 +5.13491035e-02 +1.15365058e-01 -5.30957654e-02 +4.54562828e-02 -1.59389097e-02 -3.36280987e-02 +2.22323518e-02 -1.71468005e-01 +6.70069978e-02 +2.25573662e-03 -9.82087180e-02 +6.01023771e-02 -1.78051576e-01 +3.17594886e-01 -5.91137819e-02 -2.71590892e-03 -4.45836335e-02 +3.52557488e-02 +4.73167598e-02 -7.08675245e-03 -2.99324710e-02 -7.54647553e-02 +3.09272148e-02 -3.03526781e-02 +1.76299305e-03 +1.12609312e-01 +6.72451481e-02 +3.05751171e-02 +1.85185694e-03 +8.07219148e-02 +9.69898477e-02 +4.36220095e-02 +2.06733063e-01 -6.74965829e-02 +5.10706082e-02 +1.44180030e-01 -4.18064445e-02 -1.49522811e-01 -1.09739102e-01 +1.05777504e-02 +2.99145095e-02 +1.38999864e-01 -5.01820967e-02 -9.86321247e-04 +1.47319399e-02 +3.17991972e-02 +1.16841167e-01 -3.18252742e-02 -8.20741653e-02 -4.06624041e-02 -4.05933708e-02 -7.02074021e-02 +7.27784634e-03 -6.36721700e-02 -8.66882503e-02 -3.62849124e-02 +5.73266894e-02 -7.51542524e-02 +4.10588197e-02 -1.58195928e-01 -1.14853360e-01 +6.35701492e-02 +2.41447985e-02 +2.14295518e-02 +1.93998795e-02 -9.69972834e-02 -1.14525549e-01 -1.75806263e-03 -8.19443539e-02 +8.73603597e-02 -4.11532726e-03 -1.28263727e-01 +5.79342656e-02 -3.58004458e-02 -8.89803097e-02 -8.98505189e-03 +4.91609573e-02 +4.16774563e-02 -1.41007295e-02 +1.19839258e-01 -1.17757760e-01 -1.51275367e-01 +2.96266843e-02 +8.35954584e-03 +8.16796422e-02 -2.74003390e-02 -5.90817071e-02 +2.53757797e-02 -3.49504128e-02 -3.88664054e-03 -5.48658939e-03 +6.00296073e-02 -3.06228474e-02 +1.87877156e-02 -1.19455755e-01 -6.78307340e-02 -3.68020236e-02 +5.09909503e-02 -6.22040853e-02 +1.24440737e-01 -6.55453559e-03 -6.02555871e-02 +8.40393305e-02 +1.18244074e-01 -1.66422710e-01 -9.02876407e-02 -1.06649004e-01 +1.10366344e-01 +1.12987004e-01 -5.06604686e-02 -5.87042011e-02 +1.75892040e-01 +1.07081689e-01 -5.79189043e-04 +1.92473922e-02 +3.42853479e-02 +3.48960906e-02 -1.10606663e-01 +5.14054075e-02 +1.82989866e-01 +3.03020198e-02 -6.66876957e-02 -8.13539699e-03 -7.70907290e-03 +2.40581706e-02 -1.86455939e-02 -5.55219539e-02 -2.05678552e-01 +1.85935006e-01 -4.17685471e-02 +3.55906337e-02 +7.56757408e-02 +1.10179223e-02 -1.03167504e-01 -1.55325338e-01 +2.68522482e-02 -6.20275363e-02 +3.77342217e-02 -1.29744625e-02 -2.47939434e-02 +4.36222591e-02 -1.24213137e-01 -3.88479158e-02 -2.31689941e-02 +1.09565765e-01 -1.04290619e-01 +1.36467051e-02 -1.54400125e-01 -1.34856448e-01 -5.57820089e-02 +5.56319579e-02 +1.79651510e-02 +2.78137494e-02 +8.00547153e-02 +1.08365387e-01 +9.95852891e-03 +1.47669196e-01 +5.04526077e-03 +5.14695048e-02 +4.32804152e-02 +1.21003184e-02 -1.69682264e-01 -6.88602030e-02 -1.88875869e-02 +1.60012413e-02 -4.06421982e-02 -9.47885811e-02 +1.25124827e-01 -2.21182555e-02 +2.06877422e-02 +9.90735516e-02 -7.60677755e-02 -1.80491418e-01 +1.25831008e-01 -5.97187467e-02 -7.90139884e-02 -7.88463354e-02 -2.14963909e-02 +6.69083968e-02 -1.87901378e-01 -8.40940624e-02 +1.97770998e-01 +1.31837204e-01 -5.10299243e-02 -7.77247455e-03 -9.82492641e-02 +7.53986016e-02 +2.72700816e-01 +7.18740895e-02 -7.07445145e-02 -4.41221260e-02 -1.24369405e-01 -7.17652440e-02 -1.83196113e-01 +1.25251427e-01 -4.91317771e-02 +1.05172597e-01 +3.20548727e-03 -2.84360629e-02 +3.12919617e-02 +2.91289203e-02 +1.82248987e-02 -4.42378297e-02 +3.49648064e-03 +3.07499375e-02 +1.03537209e-01 +1.52599201e-01 -3.21944207e-02 +4.12665606e-02 -1.78594720e-02 +7.20033646e-02 -1.81631148e-02 -1.75326958e-01 +8.76240805e-02 +4.44747694e-02 -1.64026767e-01 +2.27901623e-01 +5.13683669e-02 -1.14466630e-01 +2.67729368e-02 -1.44765899e-01 +1.09868594e-01 -1.13641374e-01 -7.60706216e-02 +5.49528226e-02 +5.93803190e-02 +1.33511692e-01 -1.91311091e-01 +5.64048104e-02 +2.12054923e-02 -4.45372760e-02 -9.56067294e-02 +1.25259221e-01 +1.26692593e-01 +3.18505585e-01 -1.71072558e-01 -3.37541252e-02 -1.70551967e-02 +6.28250688e-02 +1.23066269e-01 -6.12929426e-02 -2.61813790e-01 -5.00594787e-02 +1.44776657e-01 +1.37566077e-02 +5.04184663e-02 -1.23294420e-03 -3.21650840e-02 -1.52816251e-01 -6.48059845e-02 +2.01349005e-01 +1.04344219e-01 +6.05378449e-02 +2.38716573e-01 +2.26653889e-01 +1.83833558e-02 +4.22792099e-02 +1.32226482e-01 +1.55651802e-02 -9.29846540e-02 -1.79815486e-01 +1.81892380e-01 +6.38813898e-02 -3.77648473e-02 +2.67438013e-02 +1.79469660e-01 +1.99514791e-01 +1.10390827e-01 -1.51900835e-02 -6.99347332e-02 -9.55758318e-02 +1.23340383e-01 +1.49054118e-02 -7.37786740e-02 -6.27443939e-02 -3.34793814e-02 -1.26868682e-02 -5.89842647e-02 +2.15653956e-01 -1.19377166e-01 -2.68515423e-02 -1.59271106e-01 -1.22617625e-01 +5.99128492e-02 -9.59770307e-02 -9.23407972e-02 +5.28280996e-02 +1.58037126e-01 +5.27918078e-02 +9.03916825e-03 +1.15628712e-01 +7.90082514e-02 -1.14464425e-01 +1.35274539e-02 +2.04387121e-03 -3.69355120e-02 +1.54242441e-02 -1.00610308e-01 +4.46841493e-02 +1.64769236e-02 -2.07052380e-01 -2.71223694e-01 -8.93568993e-03 +6.36467412e-02 +1.14126662e-02 -7.06417263e-02 +1.05432972e-01 -4.24633235e-01 +6.21663034e-02 +7.12456033e-02 +1.27062872e-01 +2.33917180e-02 -3.07216551e-02 +1.50931656e-01 +3.11723296e-02 +1.18359819e-01 -1.56125883e-02 -3.61758173e-02 +1.37029767e-01 +6.38016686e-03 -3.95646319e-02 -1.02135055e-01 -1.38615981e-01 -3.88338976e-02 -5.51745534e-01 +7.49521935e-03 -1.50408641e-01 -5.08637317e-02 -6.56568706e-01 -3.98552790e-02 -1.45765945e-01 -3.49404756e-03 -4.95839603e-02 +2.12216973e-01 +2.26427004e-01 +1.03587538e-01 -2.12805718e-02 +1.15623400e-01 +6.98045269e-02 +1.73034385e-01 +2.90409494e-02 +1.01916268e-01 +2.17869535e-01 -3.16353925e-02 +1.98420674e-01 +8.95082504e-02 +1.06138639e-01 +2.20028721e-02 +1.45829946e-01 -1.03286169e-01 +3.63920107e-02 -1.40567183e-01 -9.74384323e-02 -3.42015088e-01 -1.90678820e-01 -1.86977118e-01 -5.19660339e-02 +8.48487541e-02 +7.22185597e-02 -3.12074888e-02 +1.81466341e-01 +6.71542734e-02 -9.65090841e-02 +1.50586013e-02 +2.13053778e-01 +1.15319259e-01 -7.94299543e-02 +1.05827838e-01 +1.41001910e-01 +1.15054503e-01 +4.09973636e-02 +2.43709926e-02 -4.78552505e-02 -5.06489836e-02 +3.43124568e-02 -4.31816094e-02 -1.42164975e-01 +3.93643938e-02 +8.62499401e-02 +8.52782652e-02 +1.29466072e-01 -8.89539532e-03 -3.69917631e-01 -4.11591649e-01 -7.26571083e-02 +6.74322844e-02 -1.08534440e-01 -1.34832323e-01 -2.54747480e-01 -3.47357728e-02 +1.71683058e-01 +1.53370693e-01 +1.19708978e-01 -1.02827232e-02 -1.08739205e-01 -1.81374401e-01 +3.12668458e-02 +1.51022926e-01 -4.97907074e-03 +7.77910724e-02 +1.25398293e-01 +1.23541594e-01 +6.26104772e-01 +2.67339289e-01 +7.52455220e-02 +7.72973448e-02 -1.30461335e-01 -1.80975581e-03 +1.78629413e-01 +2.11698674e-02 +7.23547339e-02 -1.38330180e-02 -1.94689278e-02 -7.38028884e-02 -2.48330478e-02 +8.89509320e-02 +7.02002570e-02 +8.60030800e-02 +7.69436583e-02 -2.99862418e-02 -9.55035910e-02 -1.08899973e-01 -5.47908694e-02 +1.48495480e-01 +5.63259702e-03 -4.74205837e-02 -3.09446663e-01 -1.06554121e-01 -1.16695710e-01 +2.50668675e-01 -1.81690231e-02 -3.08890790e-01 -6.36860803e-02 -4.01832759e-02 +6.89860657e-02 +1.30027607e-01 -1.69215593e-02 -1.01926602e-01 -1.13524750e-01 -2.15991912e-03 -1.13575384e-01 -1.31681226e-02 +1.81225631e-02 -2.40034983e-01 +9.66252014e-02 -9.59890336e-02 -9.45127942e-03 +4.14048806e-02 -6.10598363e-02 +6.50507867e-01 +1.23654651e-02 +3.60936560e-02 +3.06403078e-02 -8.91734287e-02 -7.54773840e-02 -8.32972676e-02 +2.50943843e-02 +1.37377501e-01 +7.27827847e-02 +2.63672732e-02 +8.42948258e-02 -2.51388133e-01 -5.69204018e-02 -8.62507299e-02 -2.49547535e-03 -3.38343829e-02 +9.17614102e-02 +1.14046375e-03 -2.40810625e-02 +6.82756901e-02 +1.89162508e-01 +7.37731829e-02 -2.70142909e-02 +6.63139671e-02 -9.70017686e-02 +4.41561118e-02 +2.11089235e-02 +4.38964851e-02 +1.25343695e-01 +8.43049884e-02 +2.15024114e-01 -4.75249104e-02 +3.01709082e-02 +3.28132361e-01 +5.85070923e-02 +4.81302813e-02 +6.83592807e-04 +7.09578907e-03 +7.95282423e-02 -2.54827738e-02 -1.98388383e-01 -1.10463671e-01 +1.75730288e-01 +3.54369208e-02 -4.20180224e-02 +4.03188430e-02 +1.33811206e-01 +3.47198457e-01 +1.20294057e-01 +3.24511044e-02 +7.88058061e-03 -1.79387850e-03 +2.21573263e-01 +1.05567109e-02 -4.53570560e-02 +8.16108808e-02 +1.60420522e-01 +6.95016161e-02 -8.84798318e-02 -1.33574918e-01 -1.70225948e-01 +4.53817576e-01 -9.40578505e-02 +2.11991444e-01 +1.17793307e-01 +7.71165714e-02 -1.38388246e-01 +2.60388434e-01 +6.43717125e-02 -2.33939752e-01 -3.87753323e-02 -1.49045572e-01 -1.18074203e-02 -1.12023145e-01 +4.08432782e-02 +7.57090971e-02 +3.85954772e-04 +8.70856121e-02 +3.24730091e-02 -1.46364868e-01 -4.83763218e-02 -1.62549287e-01 -9.35062543e-02 -2.48478472e-01 -1.34701535e-01 +6.77830866e-03 -1.65066924e-02 +3.73426713e-02 -7.82620236e-02 +1.71192586e-01 -1.06550241e-02 +1.08269051e-01 -2.30263229e-02 -6.13324083e-02 -1.23202048e-01 +1.06794154e-02 +6.61338940e-02 -4.02478911e-02 +7.76258558e-02 -1.26724347e-01 +8.99960101e-03 -3.39207239e-02 +3.32773328e-01 -7.18185678e-02 -1.03757083e-02 -3.57110682e-03 -1.97310731e-01 -7.63751715e-02 -1.15376629e-01 -4.46367078e-02 +1.47073224e-01 -4.41319682e-02 -1.07841536e-01 +6.77616745e-02 -2.12352872e-02 +1.15216106e-01 +9.07094218e-03 +4.74070534e-02 -3.51236574e-02 +8.38234425e-02 -1.38108045e-01 -1.39523298e-01 +6.13950752e-02 +3.42724063e-02 +3.59008685e-02 +7.71382302e-02 -6.05304874e-02 +2.44026501e-02 +1.44476578e-01 +2.19711870e-01 -2.92930603e-02 +2.99217403e-02 -8.30752775e-02 +3.04721054e-02 +1.16025396e-02 +5.33864722e-02 -1.44972708e-02 -2.17248220e-02 +6.10458665e-02 +9.35585499e-02 -1.15828596e-01 +9.64747295e-02 +8.43440592e-02 +1.20906010e-01 -2.84363348e-02 +5.66756018e-02 -9.74160284e-02 -1.38164043e-01 +1.05085567e-01 -4.05902416e-02 +1.15322312e-02 +1.13199495e-01 -1.05819240e-01 -1.37009129e-01 -4.87412885e-02 -1.16012394e-01 +2.91734468e-02 -6.03301451e-03 +1.03256859e-01 +5.98156080e-02 +5.85629642e-02 -1.41105264e-01 -1.34129776e-03 +6.94847712e-03 +5.67220412e-02 +1.07298367e-01 +1.30721955e-02 +6.38946220e-02 -2.19796151e-02 +5.08264115e-04 +1.11502312e-01 -1.07376777e-01 -5.41219637e-02 -4.91610030e-03 +1.45593524e-01 -6.97413683e-02 +6.50282353e-02 -1.35382891e-01 +2.24045180e-02 +5.76343536e-02 -8.11503306e-02 +3.70522998e-02 +2.33597666e-01 -3.78924236e-02 -1.69182897e-01 +3.29977833e-02 -1.15763701e-01 -7.55802616e-02 +2.08462283e-01 -4.70330156e-02 -4.36225384e-02 -8.49363133e-02 +9.93650630e-02 +1.80282351e-02 +5.05755246e-02 +3.83916162e-02 +7.52360225e-02 -4.29552048e-02 -1.04162022e-01 +1.65047407e-01 +7.38632530e-02 +8.52728337e-02 +9.98244286e-02 -1.90829374e-02 +3.74648683e-02 -2.28282977e-02 -2.58112282e-01 +9.70243216e-02 +1.08270511e-01 -1.68500528e-01 +6.83996305e-02 +1.03128351e-01 -1.19127221e-02 +6.35023564e-02 +4.48752642e-02 -1.99764505e-01 -1.80413648e-01 -1.51838630e-01 -1.90218762e-02 -1.70184486e-02 +1.86284669e-02 -9.99243115e-04 -1.72887564e-01 +5.72437085e-02 -8.52616057e-02 -1.06957711e-01 +4.84852158e-02 +1.94137752e-01 +6.54691309e-02 +1.83028087e-01 -1.86409146e-01 +1.23995207e-01 -1.40722590e-02 -3.64938844e-03 -5.02168387e-02 -2.02993885e-01 -1.62393883e-01 -9.66286212e-02 -8.41566771e-02 -5.92132770e-02 -1.03786938e-01 +3.08378357e-02 -1.66673034e-01 +2.22295318e-02 +3.90389301e-02 +1.13283560e-01 -1.37240067e-03 -7.16958195e-02 +5.60914390e-02 -5.14870435e-02 -2.10234225e-02 +1.74376070e-02 -5.69282137e-02 +6.53207228e-02 +1.16113937e-02 +2.33827513e-02 +9.68279690e-03 +1.09959126e-01 +5.87719344e-02 -4.85052615e-02 -1.30497247e-01 -2.32643001e-02 +1.76921953e-02 +1.05314188e-01 -2.06166312e-01 -2.41262108e-01 -7.61831366e-03 -1.78742670e-02 +7.11373389e-02 +1.17923774e-01 -1.39525652e-01 -1.16673745e-01 -4.44294093e-03 -1.73890740e-02 -5.08208089e-02 -2.53666222e-01 -1.03150479e-01 +2.92495452e-02 +3.82559150e-02 -1.18762515e-01 +3.80498879e-02 +7.28362724e-02 -1.09961040e-01 -1.86664492e-01 -1.19017176e-01 -3.21061388e-02 +2.83750314e-02 +7.69971684e-02 -4.25302275e-02 -5.67815565e-02 -3.93564217e-02 +3.04758996e-02 -5.12910821e-02 +7.69996271e-02 +7.37796957e-03 -6.24602139e-02 -3.01925559e-03 +1.14278525e-01 -2.89783441e-02 +4.26348066e-03 +1.47737311e-02 -8.22927896e-03 -1.20421462e-01 +1.02450490e-01 +2.18524188e-02 -2.64843460e-02 -8.82990807e-02 -1.96031686e-02 -3.68810706e-02 -1.23504363e-01 -6.32942542e-02 +5.32603897e-02 -1.22009404e-01 +6.94324747e-02 -1.79544315e-02 -4.80534928e-03 -1.17854677e-01 +1.53657719e-02 +8.94261803e-03 +8.17099866e-03 -5.05696163e-02 -4.13755737e-02 -1.31634936e-01 -1.03309296e-01 +4.00809571e-02 -2.01712288e-02 +7.24266544e-02 -1.12027880e-02 -2.19774377e-02 +7.51917437e-02 -2.07627416e-01 +7.64729977e-02 +2.79941987e-02 +3.79229449e-02 -1.25431657e-01 +1.14481598e-02 +7.85594210e-02 +4.65964638e-02 +7.43143857e-02 -6.90960735e-02 +1.84831768e-02 -7.84001723e-02 -3.82390581e-02 +7.65805170e-02 -1.57562513e-02 -1.44458339e-01 -2.63751298e-01 +1.61628537e-02 +6.41433217e-05 -3.79463769e-02 -1.12809250e-02 +1.03931949e-01 -1.07424691e-01 +2.30829045e-02 +1.65658325e-01 +1.77403260e-02 -3.10707819e-02 +5.36386296e-02 -1.69663683e-01 -3.52802477e-03 +4.96944003e-02 +7.11332588e-03 -8.41669515e-02 -2.69133076e-02 +1.37959411e-02 +2.81876512e-02 -6.97145313e-02 -9.31461006e-02 -1.03187384e-02 -3.72140855e-01 +2.37880554e-02 -3.79384980e-02 -1.68383881e-01 +6.09968044e-02 -1.73461065e-02 +1.09840957e-02 +8.55495483e-02 +6.75193444e-02 -6.65396228e-02 -1.90911546e-01 -2.55663425e-01 -1.29162343e-02 +9.71463323e-02 +3.91577363e-01 +5.71867041e-02 -7.42163286e-02 -9.02544856e-02 +1.28729299e-01 +4.15959628e-03 -3.95819023e-02 -1.00659028e-01 -2.81779736e-01 -1.61936820e-01 -3.19942720e-02 +7.16549009e-02 -3.16961408e-02 -8.31725821e-03 +1.15510106e-01 +1.11014023e-01 -5.51445223e-02 -4.80442867e-02 +8.25758278e-02 -5.60113182e-03 +1.73784466e-03 -4.33640517e-02 -4.12651524e-02 +6.61173835e-02 -2.53626555e-02 -1.59667060e-02 +6.93789572e-02 +4.03495617e-02 -6.33437485e-02 +3.11334748e-02 -1.25220299e-01 +2.60117427e-02 -3.48250240e-01 -7.50438720e-02 -1.42130122e-01 +1.27652153e-01 +3.50576825e-02 -5.98942637e-02 -1.59365460e-01 -1.03412814e-01 +1.18229045e-02 +8.83536413e-02 +1.21719204e-01 +9.08505842e-02 +1.19452313e-01 -8.24537873e-02 +1.82260200e-01 +1.23992488e-02 +4.79655378e-02 -1.65004447e-01 +2.68898830e-02 -3.63143929e-03 -1.95415974e-01 +1.72970654e-03 +3.75707448e-02 -1.07319407e-01 +2.62899667e-01 +3.86515819e-02 -4.13622111e-02 -5.94891682e-02 +2.85405759e-02 +2.44509391e-02 +3.04469109e-01 +5.11080213e-02 -1.20832913e-01 -1.46405473e-01 -6.97316751e-02 -5.98027445e-02 +1.67204723e-01 +6.11302592e-02 -1.09616794e-01 +8.55439454e-02 -7.48164952e-02 -2.85184413e-01 -1.21660031e-01 -7.20270053e-02 +1.52800024e-01 +1.29001901e-01 -2.51020283e-01 +6.10251091e-02 +6.24012575e-02 -4.41573672e-02 +6.96034059e-02 -8.19483027e-02 -1.04166783e-01 +1.32040367e-01 -3.12534091e-03 +7.98423067e-02 +2.31221437e-01 +1.17041677e-01 -1.96023971e-01 -3.41546424e-02 -5.16960993e-02 +1.44019574e-01 +7.53688812e-02 +1.70003444e-01 +7.61569366e-02 +2.84907408e-02 +4.84770536e-02 -2.60098845e-01 -1.11182056e-01 -9.59801450e-02 -1.88886866e-01 +8.71931389e-02 -1.64283037e-01 -2.11908743e-02 -1.78745240e-02 +6.66290969e-02 -1.93430055e-02 +8.00618976e-02 +2.81195752e-02 -1.76407546e-01 +2.55643148e-02 +1.08279563e-01 -4.97244410e-02 -2.90778801e-02 -1.62839428e-01 +6.71414137e-02 -7.18860850e-02 -2.97905207e-02 +1.75264552e-01 +1.34534031e-01 +5.27416952e-02 -1.59253076e-01 +4.49758656e-02 +3.92220244e-02 -6.17151335e-02 -6.19491041e-02 -3.61681363e-04 +1.30282110e-02 -6.53951196e-03 +6.54223040e-02 -7.85848126e-03 -1.47784099e-01 +5.90942241e-02 +1.87343970e-01 -9.07756686e-02 +1.32788867e-01 +7.42482170e-02 +1.59834668e-01 -1.36533797e-01 -8.61750916e-02 -1.24475630e-02 +1.92843694e-02 -2.90927738e-01 +1.57180831e-01 +6.17819792e-03 +2.00451598e-01 -1.03758030e-01 -1.01418436e-01 +4.05304246e-02 +1.14212804e-01 +5.09151928e-02 -1.06619142e-01 -2.27558818e-02 +7.85426795e-02 -3.54279834e-03 -4.87569571e-02 +2.67349388e-02 +1.04043841e-01 +1.53981611e-01 +8.65505822e-03 -3.24682519e-02 -1.55562162e-01 +7.08817616e-02 -1.20806880e-01 -8.92320424e-02 +1.57708246e-02 +1.25619015e-02 -2.48776861e-02 +2.15293299e-02 +8.66440907e-02 -1.61287114e-02 +3.38150747e-02 +5.98411262e-03 -7.25648329e-02 +2.51750387e-02 -3.75657249e-03 +1.88440651e-01 +1.15605323e-02 +2.27339361e-02 -3.68688107e-02 +1.96490183e-01 -7.33289868e-02 -1.91870648e-02 -1.58985667e-02 -6.39436245e-02 -1.52303010e-01 -2.50957645e-02 +8.66096839e-02 +1.13405749e-01 -1.12459987e-01 -8.93549249e-02 -2.27799360e-02 -1.24867328e-01 -5.63096181e-02 -9.43184569e-02 -8.83445740e-02 +8.49051327e-02 -1.03429705e-01 +9.93738882e-03 -3.87970768e-02 +7.45244175e-02 -1.65276796e-01 -4.90213335e-02 -1.11219376e-01 -7.22302720e-02 -2.60112584e-02 +2.02880036e-02 +1.09443344e-01 +3.14899310e-02 -4.50422764e-02 -5.48021384e-02 -5.89206293e-02 +7.94395059e-02 +2.35177344e-03 -2.52666622e-02 +1.87199675e-02 +1.50490748e-02 -9.49526876e-02 +1.28553505e-03 +2.02684756e-02 -9.23853740e-02 -8.87396112e-02 -9.22706872e-02 +1.00367457e-01 +2.84234118e-02 -3.65552790e-02 +3.40630300e-02 +2.26656839e-01 -6.53310120e-02 -4.16893363e-02 -1.48176157e-03 -2.90160738e-02 +4.87412252e-02 -1.52698318e-02 -7.37464353e-02 -4.37611528e-02 -4.88481894e-02 -2.60389354e-02 +1.67402610e-01 -1.20265372e-01 +1.90147869e-02 +7.88995177e-02 +4.01471294e-02 +1.01242280e-02 -6.89442456e-02 +9.28809866e-02 +9.38583165e-03 +2.05508545e-01 -9.88899618e-02 -2.06704974e-01 +1.34453550e-01 +1.15506187e-01 -8.67822692e-02 +6.46388680e-02 -5.75326867e-02 +2.06522103e-02 +1.56778879e-02 +2.95805205e-02 +8.59719589e-02 +1.38078574e-02 +1.02852926e-01 -1.05094500e-01 -3.89245823e-02 +3.14939991e-02 +1.91508979e-03 +6.78872988e-02 -5.63809872e-02 +1.27052544e-02 +6.10849774e-03 +1.19455852e-01 -1.57996628e-03 -2.11354852e-01 -8.99448767e-02 +5.06970217e-04 +1.12545386e-01 +9.67160240e-02 -1.23083793e-01 -1.79019734e-01 +9.72438902e-02 -1.31255478e-01 -1.10124826e-01 -2.44350564e-02 +3.99153344e-02 -8.20291340e-02 -7.34752044e-02 +4.00812812e-02 -8.11951160e-02 +6.75859898e-02 +1.42364532e-01 -4.89724167e-02 -1.12132549e-01 -1.18261211e-01 -1.81493819e-01 +3.18570100e-02 -1.17031910e-01 -7.83497617e-02 +6.06294014e-02 -3.76137681e-02 -1.90612301e-01 -1.02527793e-02 +5.90463355e-03 -5.04811965e-02 +5.34295104e-02 -6.20283047e-03 +8.22547227e-02 -1.22394990e-02 -1.02714173e-01 +4.10665512e-01 +9.25777927e-02 -2.59165447e-02 +6.18958585e-02 +1.48724064e-01 -1.69205755e-01 -1.01421531e-02 -1.81082617e-02 +7.56099075e-02 +1.56037025e-02 +2.45276000e-02 -6.54663444e-02 +3.86044569e-02 +5.35242967e-02 -9.10030007e-02 -2.16286927e-01 -2.03695651e-02 -2.23511130e-01 +3.26624662e-02 +3.19497809e-02 -1.89853027e-01 +1.48637190e-01 -6.93510696e-02 +5.18692955e-02 +5.30092381e-02 -9.31454226e-02 -6.26526922e-02 +1.78415745e-01 -7.72962719e-02 +7.82796070e-02 +6.15071431e-02 +3.53484415e-02 +4.12029302e-04 -2.28811819e-02 +6.55157045e-02 -5.32139577e-02 -1.36683777e-01 -1.35065600e-01 +6.04163446e-02 -4.27316688e-02 +1.22531570e-01 -6.53441474e-02 +7.50316605e-02 +1.53681591e-01 +9.56265405e-02 +9.54071879e-02 -4.54588272e-02 -1.26025468e-01 -6.96975812e-02 +5.19781746e-03 -8.12649131e-02 -1.84717312e-01 +9.25723314e-02 +2.43771728e-02 +3.64267714e-02 -1.41976312e-01 -9.49489847e-02 +1.22450769e-01 -4.92408983e-02 +9.63753536e-02 +4.50405404e-02 -4.54369858e-02 +7.76306773e-03 -1.09052218e-01 +4.95190322e-02 +1.93696246e-02 +4.35768291e-02 -1.00241713e-01 -1.46152952e-03 +7.35443681e-02 +9.38922092e-02 +2.53568441e-01 +1.60333589e-01 +4.16398160e-02 -8.92655998e-02 -9.31808725e-02 +1.04281083e-01 +5.17395623e-02 -3.87911573e-02 +2.29636300e-02 +8.53845403e-02 +6.74233735e-02 -8.59170929e-02 -6.73737600e-02 +8.61885399e-02 -9.98811796e-03 -1.06117480e-01 -6.78168237e-02 +2.02139057e-02 -1.27292842e-01 +1.75766237e-02 +3.27011123e-02 +1.57952622e-01 -8.28837678e-02 +1.26113847e-01 -1.20756871e-04 +6.84751347e-02 -3.69500034e-02 +1.14430673e-02 +4.09571640e-02 +1.01662595e-02 +1.10873692e-01 -1.24319173e-01 -6.20923191e-02 -6.75629871e-03 -6.33454397e-02 -5.18923625e-02 +1.46287203e-01 +1.46362893e-02 -3.18693161e-01 -1.11866459e-01 -1.26758348e-02 +1.57637224e-01 +2.66470783e-03 -1.76924750e-01 -8.12788680e-02 -1.32639378e-01 +1.02699036e-02 +1.96571033e-02 -1.41931064e-02 +9.01621878e-02 -1.19736686e-01 +2.78125733e-01 +1.93280399e-01 -8.87223482e-02 -5.39460359e-03 -1.38790578e-01 +1.00873582e-01 -4.56554592e-02 +9.34084132e-02 +5.74591570e-02 +3.81540388e-01 -1.39370218e-01 -1.29976030e-02 +1.50616392e-01 +2.87592574e-03 +4.81519513e-02 +1.47328824e-02 -7.41492072e-03 -1.82955906e-01 -1.73983678e-01 +1.20901883e-01 +1.99477404e-01 +1.24378718e-01 -5.19055240e-02 -1.75102125e-03 -1.20533735e-01 +3.79879996e-02 +2.88068894e-02 +9.31900069e-02 +1.36924302e-02 +6.53687716e-02 +9.39177945e-02 +6.95388541e-02 +2.48827577e-01 -8.29036608e-02 -8.42148364e-02 -2.70031281e-02 +8.11337680e-02 +1.56851783e-01 +5.64243272e-02 +1.25185043e-01 -1.32691443e-01 -2.11677072e-03 -4.09383997e-02 +3.84533629e-02 +3.87108512e-02 -7.36773163e-02 -1.85575232e-01 -7.85894319e-02 -4.60766070e-02 +5.41696511e-02 -3.19419689e-02 +1.12073332e-01 -6.00892827e-02 +2.41183594e-01 +1.54498875e-01 -2.66603492e-02 +5.94031252e-02 -1.12199433e-01 -4.02835272e-02 -7.78379990e-03 -3.93502489e-02 -8.35344847e-03 +5.49458861e-02 -9.16019976e-02 -6.49349168e-02 -2.07353998e-02 +6.62944764e-02 -2.38304511e-02 -1.43563434e-01 -2.20746640e-02 -8.59102607e-02 -4.90455292e-02 -2.61950623e-02 +4.50755134e-02 -5.60530275e-03 -9.05734580e-03 -1.48824118e-02 +1.04722768e-01 -3.03349760e-03 +2.48040967e-02 +5.86321428e-02 +5.46403490e-02 -2.22943835e-02 +3.23161781e-02 -5.33277690e-02 +7.12387264e-02 -2.15963405e-02 +6.63335621e-02 +2.84702284e-04 -1.52099123e-02 -3.87396030e-02 +5.71585707e-02 -9.99323651e-03 -7.46008754e-02 -7.85513222e-02 -2.14015995e-03 +1.02905497e-01 -4.15510638e-03 +1.65524036e-02 -4.05418091e-02 -2.33012475e-02 +1.09033637e-01 +2.65660416e-02 -5.94836138e-02 +3.70878950e-02 +5.34471013e-02 -1.94604378e-02 -1.12429693e-01 -4.02645506e-02 +5.99535257e-02 -1.12973817e-01 -7.13473186e-03 -4.27400358e-02 +3.80407483e-03 -5.14518507e-02 -6.44823760e-02 +1.47632901e-02 -1.63279489e-01 +7.52970725e-02 -1.80617459e-02 -1.41663169e-02 -1.14558591e-02 -3.04110367e-02 +9.17514563e-02 +5.10157049e-02 -1.27812149e-02 +2.23350916e-02 +7.41694961e-03 +7.90459737e-02 -5.58376387e-02 -7.12655932e-02 -1.98767688e-02 -1.03624143e-01 -1.14491224e-01 +1.85929686e-01 +4.46857605e-03 -1.11451663e-01 -9.79448576e-03 +3.98282148e-03 +4.88768667e-02 +5.12920469e-02 -6.79329336e-02 +1.21011496e-01 +3.64807099e-02 -1.59899607e-01 -1.16631694e-01 -1.90439411e-02 +8.45988095e-03 +1.11331269e-01 -6.58179447e-02 +9.87330154e-02 +5.86104169e-02 -1.32129312e-01 +4.37503196e-02 +1.53807402e-02 -1.33759886e-01 +9.72681344e-02 +6.84769005e-02 -3.47026549e-02 +4.84215654e-02 -1.01917699e-01 +5.24291955e-02 -1.15502797e-01 +5.45295738e-02 +1.83204282e-02 +4.12132684e-03 -2.54582558e-02 +1.79537144e-02 -2.97853500e-02 -9.26690400e-02 +4.85641137e-02 -1.02888651e-01 +1.74154416e-01 -1.63482845e-01 -5.52596375e-02 -8.19328986e-03 -8.59316364e-02 -2.77333949e-02 +1.11450776e-02 +3.36537249e-02 -9.20832157e-02 +8.99985880e-02 -3.62618379e-02 +7.32487217e-02 -1.33660272e-01 -2.84022912e-02 -9.05467421e-02 +2.91534364e-02 +1.48764951e-02 +7.00141303e-03 -1.11567602e-01 -5.18571474e-02 +2.35135704e-01 -5.70602063e-03 -2.60721496e-03 +1.97865590e-01 -1.41473308e-01 +3.47944111e-01 -1.29668161e-01 +5.64573780e-02 +5.21213077e-02 -9.00835320e-02 -1.77641362e-01 -1.87801644e-01 +4.32225242e-02 -1.19164757e-01 -4.61558290e-02 +3.81327905e-02 -7.42843226e-02 -1.11910418e-01 -8.01648274e-02 +1.01241447e-01 +2.75322068e-02 -1.24530680e-01 -1.27494767e-01 +1.82850897e-01 -6.18990697e-02 +7.87045211e-02 -1.10739872e-01 +6.91170916e-02 +1.30886585e-01 -5.34453727e-02 -9.78891701e-02 -2.39121206e-02 -5.88280037e-02 +1.45290285e-01 +7.88841769e-02 +1.70794681e-01 -1.22248977e-01 -4.35546041e-03 +2.81060115e-02 -8.65109786e-02 -1.12841286e-01 +1.82104662e-01 +5.69306612e-02 +8.77327025e-02 +9.99582261e-02 -1.37509808e-01 -7.37338513e-02 -2.38175374e-02 -3.00099067e-02 +3.80679257e-02 -2.44402848e-02 -4.82845530e-02 +1.55942753e-01 +1.01229222e-02 -1.29086152e-01 +9.71727297e-02 +7.56922811e-02 +1.26667783e-01 -2.19812873e-03 +4.29549403e-02 +4.45257165e-02 +6.58226535e-02 +5.12193404e-02 +5.18344194e-02 -8.20678845e-02 +1.32972980e-02 +2.08214838e-02 -1.20010778e-01 -8.89907703e-02 +7.64807686e-02 -9.30908471e-02 -2.30208058e-02 +2.21429467e-01 -1.75278157e-01 -2.55708843e-01 +7.97010660e-02 +7.65607134e-02 -1.87218502e-01 -1.74152419e-01 -6.64949566e-02 +1.77384540e-01 +9.16575175e-03 +1.06246680e-01 +5.53723238e-02 +1.32269664e-02 +2.24946178e-02 +1.38456002e-01 -4.50683907e-02 +8.34308378e-03 +8.27221125e-02 -1.32384505e-02 -2.47378442e-02 +3.06313299e-02 -1.36114489e-02 +5.92664108e-02 -6.44262806e-02 -6.31398633e-02 -1.74260885e-01 +1.24373108e-01 -1.35537997e-01 +8.88588503e-02 +3.52984779e-02 -1.40283331e-01 +5.93033507e-02 -2.27942705e-01 -4.65191975e-02 +9.76646598e-03 -8.64014681e-03 +8.57311115e-02 -3.63346636e-02 +1.02586737e-02 +6.53561279e-02 +1.43772840e-01 -7.33531862e-02 -6.74231872e-02 +1.74889504e-03 +1.99155733e-01 +1.46194011e-01 -9.07615572e-02 -4.28822748e-02 +2.42220387e-02 -2.74529383e-02 +9.38123912e-02 -1.34847015e-02 +8.12618211e-02 +8.93138424e-02 +3.54837216e-02 -3.09414238e-01 -1.52540088e-01 +1.95422061e-02 -2.67371554e-02 +2.68256307e-01 -4.82381769e-02 +9.09995586e-02 +3.12807232e-01 +9.53592062e-02 -9.41607431e-02 +3.82042453e-02 -5.22958525e-02 +1.40038714e-01 -1.15069449e-01 +4.97992449e-02 -1.86180416e-02 -5.72498627e-02 +2.31342725e-02 -2.44094029e-01 +9.31189731e-02 -2.25894973e-02 -8.82781446e-02 +1.39096156e-01 +4.09635305e-02 +1.20837435e-01 -3.00472349e-01 +7.31089190e-02 -2.75151525e-02 +1.07090352e-02 +1.63957961e-02 -6.85333163e-02 +1.47650808e-01 -1.43796578e-01 +1.77712739e-02 -1.65944099e-02 +1.26304731e-01 -6.62495419e-02 -2.22764835e-02 +2.81899385e-02 +6.33795559e-01 -1.77646771e-01 +5.03830425e-02 +3.99495885e-02 -8.51382017e-02 -1.00895971e-01 -2.77998466e-02 +6.56636655e-02 -2.04653606e-01 -9.91709977e-02 +8.85930359e-02 +3.81226569e-01 +1.29759058e-01 +1.33150786e-01 +5.22216074e-02 +1.10022677e-02 -9.98458192e-02 -3.95784713e-02 +1.45683959e-01 -1.53003946e-01 +1.84061512e-01 -2.67933197e-02 -3.98513749e-02 +9.26462188e-03 +7.86871433e-01 -5.15205692e-03 +2.14016773e-02 +2.25260869e-01 +3.70678395e-01 +9.87283047e-03 +4.25019413e-02 +9.82951373e-02 -2.27500312e-02 +9.24476311e-02 -1.22969486e-01 +2.05337167e-01 +1.92412555e-01 -4.87103127e-02 -4.91841137e-02 +1.91461314e-02 +7.30096996e-02 -3.77498150e-01 -5.56061938e-02 -2.83776373e-01 +9.47181955e-02 -1.45181835e-01 +7.34578893e-02 -9.55058932e-02 +3.02473810e-02 +1.90451920e-01 -2.43984982e-02 +4.16359752e-01 +1.85180113e-01 +3.57583016e-02 +3.83633785e-02 -8.52422863e-02 -1.51808798e-01 -2.23646592e-03 -9.44395065e-02 +5.05364649e-02 -1.32975087e-01 +1.02503218e-01 +1.35081813e-01 +5.00573888e-02 +8.58758092e-02 -4.77820933e-02 -3.62902880e-01 -2.85307586e-01 -3.42541449e-02 -7.97444955e-02 +2.96151582e-02 -1.11276373e-01 -3.58468592e-01 -8.28372240e-02 -5.53311519e-02 +1.28649538e-02 +9.33759585e-02 +3.70610803e-02 +4.50455062e-02 +5.89422286e-02 +9.07259807e-02 +7.95077235e-02 -1.66573361e-01 +7.81571195e-02 +3.79245207e-02 +8.18856806e-03 -2.51740799e-03 -1.57338176e-02 +3.74319293e-02 -4.36438136e-02 -4.79738507e-03 -1.27111794e-02 -6.17555305e-02 -3.76449898e-02 +1.01275221e-01 +1.11640938e-01 -2.94731762e-02 -1.82502456e-02 -8.85519758e-02 +8.78512103e-04 -1.88013911e-01 +7.62667954e-02 -4.17999029e-02 -9.39337984e-02 -1.25884354e-01 +1.52407764e-02 -1.17500499e-01 -5.41307591e-02 -6.14672061e-03 +3.09393238e-02 -4.23868634e-02 +2.74936296e-02 +1.85554475e-01 -4.45128083e-02 -1.05689624e-02 +4.67910096e-02 +5.68854921e-02 -5.62094897e-02 -2.88392194e-02 +1.46930981e-02 -2.79746670e-02 +3.42594907e-02 +1.73422560e-01 +9.69694089e-03 +1.75176468e-02 -1.41341105e-01 -2.16681249e-02 -1.58462822e-02 +4.62655053e-02 -8.22862145e-04 -7.77892992e-02 -4.73684147e-02 +1.37636155e-01 +8.43272805e-02 -2.89049931e-02 +9.00714099e-02 +8.93241018e-02 +1.29455179e-01 +1.49534065e-02 +6.57493100e-02 +2.57210489e-02 +2.99694948e-03 +1.23585328e-01 +3.95799847e-03 +3.35159563e-02 +1.19486518e-01 +1.97444037e-02 -2.75322162e-02 -2.46968567e-02 -1.48382606e-02 +9.68403742e-03 +1.99471079e-02 -2.08876841e-02 -2.65861712e-02 +1.80335734e-02 +5.43190129e-02 -2.67825462e-02 +6.30539656e-02 +9.41256508e-02 -1.04702957e-01 -1.58858433e-01 -2.05833744e-02 +1.52618485e-02 -7.33773336e-02 -7.11691007e-02 -9.76041332e-02 +4.61961366e-02 +4.73718084e-02 -5.65767437e-02 -2.74907686e-02 +6.02899827e-02 -1.08528435e-01 -1.15382215e-02 +3.84131595e-02 +5.90715110e-02 -5.54343164e-02 -5.64294830e-02 +1.20197602e-01 -2.59311516e-02 -2.63896259e-03 -1.75619438e-01 +2.58233938e-02 -3.51313837e-02 -9.45413392e-03 +4.37130556e-02 +1.00303686e-03 +4.96308543e-02 +5.02157472e-02 -1.05460033e-01 -2.66244356e-02 -4.11318652e-02 +1.35132512e-02 -5.44865839e-02 -2.89104935e-02 +2.76855212e-02 +6.93335477e-03 -1.02820121e-01 +1.98329538e-02 -3.78757752e-02 +6.79031834e-02 -1.76723655e-02 +9.33238715e-02 -8.65984634e-02 -7.03031346e-02 -3.07486439e-03 -1.01032043e-02 -1.07024729e-01 +2.32806411e-02 -1.85766399e-01 +7.48990774e-02 +6.09313101e-02 +1.17097102e-01 -5.08174002e-02 -7.53288493e-02 -4.94212136e-02 -1.27751768e-01 +5.39695192e-03 -3.55233736e-02 +1.24481224e-01 +1.64871514e-01 -2.15579700e-02 -2.29364308e-03 -1.43285707e-01 -9.82161611e-02 -6.91121221e-02 +2.39815280e-01 -7.15355352e-02 +1.40572235e-03 +5.87837733e-02 -4.17568944e-02 -1.61610052e-01 -4.13463935e-02 -3.67111005e-02 +7.69657791e-02 +8.65916535e-03 -2.18037330e-02 -2.67753154e-02 -7.46541768e-02 +1.12787820e-01 +7.68527240e-02 -1.47948377e-02 -2.51806825e-02 +4.81668971e-02 +5.46129011e-02 -2.55004317e-01 -1.04436703e-01 +1.33568302e-01 +9.15562510e-02 -8.24400410e-03 +3.12376097e-02 -5.27214259e-02 -6.01728670e-02 -1.12034539e-02 -1.20526642e-01 -3.54875065e-02 +1.15734883e-01 +8.13208800e-03 -3.67446989e-02 +1.65825803e-02 -1.36004195e-01 +2.22248640e-02 -1.22649662e-01 -2.26378664e-01 +1.50349796e-01 -9.38153788e-02 +1.61473583e-02 -2.53354255e-02 +1.17094539e-01 +4.45919968e-02 -1.60259083e-01 -1.47350386e-01 -2.21440457e-02 -8.76207948e-02 +3.90258878e-02 +2.85596419e-02 -9.41741690e-02 +1.56788439e-01 +6.46557137e-02 +4.35856842e-02 +5.04947342e-02 +8.41388665e-03 -2.67294049e-03 +1.75240904e-01 -1.25235170e-01 +2.55938005e-02 +8.56809467e-02 -7.64231086e-02 -9.75171477e-02 +1.86203364e-02 +6.00335561e-02 +8.75683129e-02 +3.42394970e-02 -1.44135570e-02 +1.41915157e-01 -1.63645014e-01 -3.43260355e-02 -2.13320144e-02 -7.12044761e-02 +3.74853127e-02 -5.15978737e-03 -3.49433348e-02 -6.09781183e-02 -5.74384034e-02 +7.55718872e-02 +6.18008748e-02 +1.86029430e-02 +1.57583542e-02 +7.49485567e-02 -6.49854913e-02 +7.91131705e-02 +6.57163411e-02 -2.33634911e-03 -2.14178890e-01 -2.39588860e-02 +9.72343981e-02 -1.31484360e-01 +7.69733340e-02 +4.17640805e-02 +9.62307211e-03 +6.60307854e-02 -1.10765092e-01 -6.64712042e-02 -2.73823645e-02 -1.98720340e-02 +8.44413124e-04 +1.45826861e-01 -1.30620867e-01 -2.25307003e-01 -1.37328848e-01 +1.32485300e-01 +3.63707021e-02 +2.07615092e-01 -8.55032261e-03 +8.11089277e-02 +3.95051055e-02 +5.61402217e-02 -2.20618635e-01 +8.58300701e-02 -4.58695777e-02 +2.20257998e-03 +8.35028419e-04 -5.40817715e-02 +8.97621289e-02 -1.34004606e-03 -2.18007304e-02 -2.55337417e-01 +1.03133671e-01 -5.77595010e-02 -6.82837591e-02 +2.94810653e-01 -2.55632121e-02 +5.17606437e-02 +2.46108368e-01 +3.20939720e-02 -2.16868892e-02 -5.12246452e-02 -1.20704085e-01 +1.20837212e-01 -8.10455084e-02 +2.88788211e-02 -8.00070986e-02 +7.38578737e-02 +3.70163582e-02 -1.34532511e-01 +1.23256333e-01 -1.36918083e-01 -5.62027209e-02 +5.63432239e-02 -2.99814087e-03 +2.61711422e-02 -3.13557208e-01 +8.56516808e-02 -6.85269162e-02 -7.30611458e-02 +1.21940821e-01 -1.09231278e-01 +2.49115136e-02 -1.22645698e-01 +3.12376977e-03 +1.00833729e-01 +7.10647088e-03 -8.64061266e-02 -3.59442644e-02 +3.73738781e-02 +4.12384063e-01 -8.29550847e-02 +1.90527048e-02 -2.52334331e-03 -1.47398025e-01 -2.14390829e-01 -1.11746304e-01 +2.23137274e-01 -7.52330795e-02 +1.94761548e-02 +1.18857920e-01 +2.74110675e-01 +2.94363331e-02 +2.00415567e-01 -7.35506415e-03 -5.40084392e-02 -5.57655916e-02 +3.85578237e-02 +1.94463149e-01 -3.14788818e-02 +6.49698079e-02 +1.67789713e-01 -6.60753399e-02 -2.72681098e-02 +4.75242376e-01 +9.54817384e-02 +4.36233319e-02 +2.22909555e-01 +3.24496657e-01 -6.56840131e-02 -6.55457303e-02 +5.24263009e-02 +1.31136253e-01 +5.07759228e-02 -2.15168446e-01 +2.25813061e-01 +9.53556672e-02 -5.68953827e-02 -1.17071666e-01 -5.46656214e-02 -6.78529590e-02 -2.59397119e-01 -1.20408339e-02 -2.23393783e-01 +7.04116896e-02 -4.95785065e-02 +8.59493762e-02 -3.52284722e-02 +4.97241579e-02 +1.95992738e-01 +1.23906080e-02 +1.81327045e-01 +1.41971275e-01 -2.70465966e-02 -1.35730468e-02 -9.22893305e-05 -8.97997618e-02 +2.83464715e-02 -1.65379625e-02 +1.20628634e-02 -4.55864146e-02 +4.34909351e-02 -6.22384548e-02 +1.69890195e-01 +1.03809237e-01 +2.18337309e-02 -2.86210775e-01 -1.98444784e-01 +1.41942099e-01 -1.54166594e-01 -6.03391305e-02 -1.33428564e-02 -1.75599694e-01 +6.16361611e-02 -1.30153924e-01 +6.88214079e-02 -2.78216247e-02 -5.13391220e-04 -9.92735848e-02 +1.20142944e-01 -4.42657247e-02 -1.28643112e-02 -1.89450741e-01 +6.75755292e-02 -1.32094979e-01 +4.90735993e-02 -5.50321937e-01 +1.42439296e-02 -1.43976778e-01 +2.46056193e-03 +2.53633014e-03 -3.87294106e-02 +9.39472616e-02 +5.33330664e-02 -2.56965999e-02 -1.79336607e-01 -1.52121961e-01 -7.04550231e-03 +7.65251368e-02 +8.54930934e-03 -4.59254943e-02 +1.99633569e-01 +4.67422307e-02 +6.49179891e-03 -3.47783417e-02 -1.47093134e-02 -3.71875837e-02 +1.94635577e-02 -1.06061451e-01 +3.66782427e-01 +4.43776339e-01 +2.34700009e-01 -4.83748205e-02 +3.24594826e-02 -2.05849737e-01 +1.95929911e-02 +7.55562708e-02 +9.23109148e-03 -2.28670567e-01 -8.07319432e-02 -7.12120114e-03 +3.15530151e-02 -1.73700705e-01 +1.18471906e-01 +7.74889514e-02 +6.56393915e-02 +8.49818215e-02 -9.67850983e-02 -5.70332296e-02 -3.35981101e-02 -2.01778904e-01 -7.65148178e-02 +3.76877114e-02 -1.58031225e-01 +1.45391703e-01 +1.89336285e-01 +1.93861663e-01 -9.83554753e-04 +2.43411705e-01 -1.48291156e-01 -1.64158288e-02 +2.90265769e-01 +4.77677286e-02 -3.97171043e-02 -2.62960605e-02 +3.22544220e-05 +2.57171672e-02 -5.88602386e-02 -9.63540226e-02 -1.25806734e-01 -5.36931641e-02 +7.13849626e-03 -4.02630493e-02 +7.17232451e-02 +2.98760682e-01 +1.89727649e-01 +3.12120672e-02 +1.25624686e-01 -8.68399590e-02 +3.94443795e-03 +1.89523533e-01 -3.50873023e-02 +3.29504013e-02 -2.46630147e-01 +1.34668007e-01 +1.35326713e-01 +1.84591915e-02 -1.33638471e-01 -3.70195419e-01 -2.65484806e-02 -1.79272294e-02 -6.59176186e-02 -1.12017252e-01 -4.79749665e-02 -6.72980323e-02 -1.52590081e-01 -3.82054113e-02 +1.72511101e-01 +1.47944272e-01 -3.97770070e-02 +7.34739155e-02 -1.14804901e-01 +3.67355607e-02 +2.80557685e-02 -7.22542852e-02 +2.66789407e-01 -8.65229517e-02 -2.98088998e-01 -7.91012347e-02 +8.18779022e-02 -4.87835519e-02 -5.13757356e-02 -7.41335824e-02 -2.81231906e-02 -1.73891410e-02 -2.23729104e-01 +8.38717297e-02 -6.82665929e-02 -4.14284021e-02 +8.78695119e-03 +1.10966444e-01 -9.29118320e-02 +1.14765624e-02 -9.85245630e-02 -5.39805479e-02 +6.64286166e-02 +2.14569584e-01 +3.93892005e-02 -9.44619477e-02 +5.45178652e-02 +1.78641886e-01 +4.80004363e-02 -2.25045495e-02 -9.65313986e-02 +1.14192143e-01 +1.07565254e-01 +1.19830377e-01 +7.86766931e-02 -1.73350740e-02 -1.47345185e-01 +3.87933291e-02 -1.47407010e-01 +1.42805114e-01 +1.29331984e-02 +3.87261137e-02 -7.66508356e-02 -2.95867380e-02 -3.80320586e-02 -1.54737160e-01 +1.08366795e-01 -1.12989582e-02 +7.01634027e-03 +1.84434988e-02 +4.22999039e-02 -3.78384143e-02 -1.48079515e-01 +5.10164872e-02 -1.63827520e-02 -2.65994743e-02 +5.77626638e-02 +2.07835600e-01 +5.25673963e-02 -6.41726628e-02 +4.30821590e-02 +2.09813237e-01 -4.07515047e-03 +1.78530097e-01 +8.19371119e-02 +1.81528497e-02 +1.00984439e-01 -5.49143329e-02 +2.74465582e-03 -3.70510034e-02 +4.57979459e-03 +5.49416244e-02 -4.72065955e-02 -2.16582753e-02 +2.48085633e-02 -6.68442324e-02 +2.84706112e-02 +9.03005060e-03 +1.71623975e-02 +1.77556440e-01 +1.11823331e-03 +7.92569146e-02 -8.38693157e-02 +1.71473011e-01 -3.67324464e-02 +7.27784187e-02 +5.75530268e-02 +8.22239742e-02 -2.16311170e-03 +4.87293713e-02 +2.53846589e-02 -2.79998239e-02 +1.86054166e-02 +3.29979882e-02 -2.74806917e-02 +3.64358770e-03 +7.16794804e-02 -2.58872807e-02 -1.30321831e-01 +2.01334935e-02 +5.32601066e-02 +3.68342437e-02 -1.03329860e-01 +1.26292288e-01 -1.15239561e-01 -7.04332590e-02 -1.63848940e-02 -1.08171187e-01 -1.65292978e-01 +1.15821756e-01 +1.28757328e-01 -1.90318543e-02 +8.30593184e-02 +9.80406404e-02 -4.08498049e-02 -6.17688242e-03 -2.40069088e-02 -1.94412135e-02 +1.32610202e-01 +3.13399769e-02 +3.63611244e-02 -1.03930000e-03 -4.42654677e-02 -2.96005271e-02 -1.24384858e-01 +1.29364878e-01 -6.94236830e-02 +2.49308106e-02 -6.55612648e-02 +3.24396156e-02 -8.62239674e-03 -1.26595154e-01 -3.76316644e-02 -7.66734034e-02 +6.19921610e-02 +4.00081202e-02 -5.34960777e-02 -1.27794534e-01 -5.85134467e-03 +1.50749991e-02 +7.66609423e-03 -8.76797177e-03 +4.23830152e-02 -1.68407187e-02 -3.40142241e-03 -6.47653043e-02 -1.16093464e-01 +5.54273911e-02 -8.03871304e-02 +6.03685295e-03 -1.09216245e-02 -7.02294782e-02 -4.83307131e-02 +1.14422038e-01 +1.58164483e-02 -3.20213870e-03 -1.31391257e-01 +4.32140306e-02 +2.79321317e-02 -1.08719682e-02 -6.29435703e-02 -7.31267780e-02 -1.35725304e-01 +6.09821938e-02 -5.03881127e-02 +6.20607361e-02 +9.56573859e-02 -2.94295233e-02 +5.88336848e-02 +1.43061221e-01 +2.80022807e-02 -1.65556334e-02 -8.26908499e-02 +1.33125884e-02 +8.20621029e-02 +3.33472714e-02 +4.94940802e-02 -6.60161115e-03 -1.27701744e-01 +1.10873662e-01 -9.18127820e-02 +9.32981074e-02 +7.15302303e-02 +2.79615372e-02 -6.27651066e-03 +7.23941391e-03 -4.54445509e-03 -2.04659868e-02 +7.25252777e-02 +6.92352727e-02 +5.71391024e-02 +5.17908074e-02 +7.71327317e-02 +1.06482834e-01 -2.45449021e-02 +3.37931700e-02 +7.44445771e-02 +2.18072738e-02 +9.35639068e-02 -2.19143610e-02 +4.89391871e-02 +3.51258278e-01 -5.64844534e-02 +4.88576666e-02 +1.55677460e-02 +7.84489810e-02 -2.31569447e-02 -1.10297926e-01 -1.59130548e-03 -3.01439571e-03 -6.91543669e-02 +4.99281250e-02 +2.16852143e-01 -3.29266712e-02 +6.99609332e-03 +4.29939963e-02 +3.81581783e-02 -3.01593859e-02 +3.72797716e-03 +9.53625143e-02 -2.82143839e-02 +9.31826532e-02 -8.31855461e-02 -7.94413388e-02 -7.83624819e-06 +2.78483361e-01 -4.92431670e-02 +3.74736190e-02 +1.29063547e-01 +2.35739708e-01 +9.65812430e-02 +8.11883137e-02 -4.48061302e-02 -6.58064429e-03 +5.06861694e-02 -6.76389113e-02 +5.51050194e-02 +2.12763045e-02 -3.52920145e-02 -7.88788348e-02 -1.26888528e-02 +2.16131490e-02 -1.18240543e-01 +9.32912715e-03 -7.36379698e-02 -5.90724237e-02 -4.16618362e-02 +1.19549885e-01 -9.70806181e-02 +1.53430393e-02 +4.23621163e-02 +1.09972276e-01 +6.76885471e-02 +8.03485960e-02 -8.29459541e-03 -3.06749903e-02 -1.33300453e-01 -8.07095543e-02 -3.88545059e-02 +2.24177726e-02 +6.96754977e-02 -1.24023043e-01 -4.58870176e-03 -1.62165891e-02 +1.00584835e-01 +1.43160850e-01 +9.84188616e-02 -2.75054842e-01 -7.68173486e-02 -1.09329894e-01 -3.24253142e-02 +1.62931196e-02 -1.15540568e-02 -1.30023867e-01 -1.82449911e-02 -7.45160952e-02 +3.05277370e-02 -2.69508753e-02 +7.08470494e-02 +1.53492048e-01 -8.88472348e-02 -8.66010711e-02 +7.77940825e-02 -6.20223358e-02 -5.21582738e-02 -9.66453701e-02 -4.54585114e-03 +2.93555826e-01 -1.32962555e-01 -2.77672559e-02 -2.47026086e-01 +2.58624237e-02 -4.90766652e-02 +6.03999160e-02 -3.08626741e-01 +2.58852154e-01 +9.35729146e-02 -3.11277092e-01 -7.93725103e-02 -9.35357884e-02 +8.31042230e-02 +6.28889650e-02 -2.61289328e-02 +1.32985622e-01 +1.15022935e-01 +1.25573963e-01 +1.99314374e-02 -6.88051432e-02 +4.97375131e-01 -3.30196656e-02 -1.59261804e-02 +9.27158073e-03 -1.46798640e-01 +2.00009067e-02 -5.65606318e-02 -2.61161357e-01 -7.18154013e-02 +6.12574555e-02 +1.19676128e-01 +7.07534924e-02 -7.01502040e-02 -8.12328756e-02 -4.21500765e-02 -5.43156303e-02 -4.16053273e-02 +1.91825077e-01 +6.40671179e-02 -2.71079727e-02 -1.14427634e-01 +1.86904028e-01 -1.21316247e-01 +2.12111145e-01 +1.67973880e-02 +1.54765680e-01 -5.33639491e-02 +1.73655510e-01 -2.02643812e-01 -3.82080972e-02 -4.76777330e-02 +2.62107491e-01 -2.61620224e-01 -2.64641404e-01 +1.63452607e-02 +4.99067195e-02 +1.14794016e-01 +2.41267327e-02 +4.20744233e-02 -1.28649147e-02 +7.41895735e-02 +2.52505299e-02 -2.85403524e-02 +1.03018414e-02 +1.73325092e-01 -3.49050686e-02 -1.25306964e-01 +2.90510263e-02 +6.79787815e-01 -4.02982533e-02 -3.24303247e-02 -2.71016229e-02 -1.08995186e-02 +1.40287519e-01 +4.41789366e-02 -2.09496215e-01 +5.68435729e-01 +1.03600174e-02 +1.17585488e-01 +4.12831875e-03 -2.17089020e-02 -1.21313423e-01 +1.87401175e-02 +1.67102776e-02 -1.48500964e-01 -1.16767600e-01 +4.76791337e-02 -1.00479834e-01 +3.79248381e-01 +7.78620243e-02 -3.09094757e-01 +7.41150305e-02 -7.71474838e-02 -4.05791014e-01 -1.49006322e-01 +1.04485065e-01 +5.71663901e-02 -3.37748416e-02 -1.15055896e-01 -9.34350491e-02 -2.41402879e-01 +1.13356508e-01 -3.35692853e-01 -1.00951649e-01 -9.13229063e-02 -7.41692185e-02 +2.15660669e-02 +3.97147015e-02 +5.28394461e-01 +1.66351404e-02 +1.07490920e-01 -6.18238673e-02 -5.91010004e-02 -1.63429365e-01 -3.58296596e-02 +1.37313813e-01 -1.48349479e-01 -3.46395932e-02 -4.11840044e-02 -1.47955894e-01 -1.03538431e-01 -5.87915145e-02 -1.54741585e-01 +3.02089840e-01 -2.70464318e-03 +4.90843542e-02 -9.26838964e-02 +4.99094948e-02 -3.76811624e-02 -7.98383635e-03 +1.18110448e-01 -1.79001801e-02 -4.23173793e-02 +1.46834031e-01 +1.08556207e-02 +3.51035520e-02 -6.78279921e-02 -9.05231610e-02 +1.71976164e-02 +6.95143491e-02 -1.14578187e-01 -5.27371839e-02 +6.05002716e-02 +7.49498010e-02 -8.72422531e-02 -1.86154637e-02 -1.19327150e-01 +7.99622312e-02 +3.45675424e-02 -3.96068357e-02 +7.05874041e-02 +1.22483242e-02 -2.51291730e-02 +4.14942130e-02 -7.39948750e-02 -8.62474889e-02 +1.86456565e-03 -1.00990925e-02 +5.89033701e-02 -1.63687188e-02 +1.72613598e-02 +6.35128329e-03 -6.60754144e-02 -5.06636277e-02 +1.97229646e-02 +2.90053040e-02 -1.03629626e-01 -1.23723470e-01 -6.59726113e-02 +6.70626238e-02 +5.70416003e-02 -5.76135032e-02 -1.57761663e-01 -5.30709401e-02 +3.02404091e-02 +6.13904148e-02 +3.28073762e-02 -1.96776148e-02 +2.19890270e-02 +1.37549154e-02 -7.55356923e-02 -2.76676659e-02 -8.50251019e-02 +1.63987383e-01 -1.77901741e-02 +1.92109160e-02 +1.20916270e-01 -1.16183847e-01 +5.06095178e-02 +5.40802777e-02 +1.80048384e-02 -9.22698751e-02 -2.75560357e-02 -1.42621156e-02 -3.09652183e-02 -5.22146672e-02 +1.36422962e-01 -1.10877350e-01 -4.73705940e-02 +9.25680995e-02 +5.66020012e-02 +7.36100972e-02 -1.29529655e-01 +1.12885432e-02 +4.57659960e-02 +8.09936970e-02 +9.21448395e-02 +9.05585214e-02 -1.30022075e-02 +3.14376801e-02 +3.64178494e-02 +1.37889445e-01 +2.76616924e-02 +7.87071302e-04 -1.41185373e-01 -1.45236209e-01 -1.76827274e-02 -8.79643708e-02 -2.74555795e-02 +2.42793020e-02 -4.91381474e-02 -6.81761131e-02 +5.17337816e-03 +1.34525195e-01 +9.01631713e-02 +1.52915362e-02 +1.96496546e-02 +1.14128198e-02 -1.36293560e-01 +3.20985392e-02 -1.04208685e-01 +4.53848159e-03 -5.00614829e-02 +1.90398581e-02 -1.57660365e-01 -6.27847835e-02 -8.83889012e-03 +5.97765483e-02 -7.50024617e-02 -1.79497479e-03 +3.54642347e-02 -1.10510707e-01 +1.16528727e-01 +9.04376730e-02 +5.49248867e-02 -1.45922333e-01 -1.14307918e-01 -5.41593507e-02 +1.25115141e-01 +6.22109398e-02 -9.80850235e-02 +2.05556881e-02 +6.92397803e-02 -1.97208840e-02 -1.12730369e-01 +9.49588940e-02 -1.71209171e-01 -6.64865645e-03 -5.70302345e-02 -7.60105327e-02 +3.97485048e-02 -8.67770687e-02 -2.92228963e-02 +9.83513370e-02 -9.67506692e-02 +2.34299123e-01 -1.53086469e-01 +5.61656780e-04 -8.07924643e-02 +1.15660205e-01 +7.59824589e-02 -9.23564136e-02 +7.17030913e-02 -2.66533792e-02 -8.89513493e-02 +1.41045451e-01 -1.24794118e-01 +4.94666286e-02 -1.08826116e-01 +8.02945644e-02 +7.08939433e-02 +6.66196048e-02 +4.70307842e-02 +1.39225438e-01 -4.46555717e-03 -8.53536800e-02 +2.06546694e-01 -1.87082216e-02 -8.53079408e-02 -5.15598096e-02 -2.92603150e-02 +3.91349643e-02 -1.41170859e-01 -1.19859967e-02 -1.50624216e-01 -9.87365246e-02 +9.13740769e-02 +9.82141048e-02 +4.46526445e-02 +1.47168770e-01 -6.20070696e-02 -2.06567973e-01 +1.10106967e-01 -1.32332429e-01 +1.20322232e-03 -1.62177950e-01 -1.33210272e-01 -6.88029602e-02 +1.46672919e-01 +1.45406360e-02 -1.95395220e-02 -5.90665862e-02 -1.09099913e-02 +1.60562117e-02 -9.06451344e-02 +7.08313659e-02 -8.41778815e-02 +4.09681387e-02 -5.16533963e-02 +6.07355013e-02 -2.74099931e-02 +4.53236103e-02 +1.11622503e-02 +8.00914913e-02 +7.93498978e-02 -1.75230317e-02 -2.78348569e-02 +2.91748434e-01 -1.12961926e-01 -1.07726722e-03 +9.28354561e-02 -1.99075103e-01 +1.18326239e-01 +2.22226474e-02 -9.41779166e-02 +2.97925621e-03 +1.66795194e-01 +8.10434204e-03 -4.11255024e-02 +7.23187476e-02 -1.36374399e-01 +6.88475445e-02 +1.16036378e-01 -3.75699364e-02 -4.70285900e-02 +1.50980175e-01 -2.26948410e-01 +7.15829851e-03 +6.88311532e-02 -2.82713939e-02 -2.38018343e-03 +9.54508558e-02 -2.97118723e-02 +6.24510758e-02 -1.52092129e-01 +4.74156858e-03 -1.67215317e-01 -7.21091812e-04 -4.15662117e-02 +6.63193911e-02 +1.04627870e-01 -2.43261196e-02 +1.02808669e-01 -9.58748385e-02 -1.52022898e-01 -4.68410626e-02 -3.97900790e-02 -7.45329037e-02 -1.74385995e-01 +1.67705659e-02 -1.08369708e-01 -1.50771841e-01 -1.00951211e-03 -1.03798866e-01 -6.38120100e-02 -4.80896868e-02 +7.28562921e-02 -2.03733351e-02 +4.75179292e-02 -1.62555218e-01 -3.81262824e-02 -8.48731622e-02 -9.77054313e-02 +1.23741224e-01 -4.93708551e-02 -6.56546354e-02 -1.58460382e-02 -8.88601225e-03 -6.63448349e-02 -5.58799803e-02 -4.91696820e-02 +8.02130848e-02 -3.41136754e-02 -4.29352671e-02 +5.61163649e-02 -7.98380119e-04 +4.42827158e-02 +2.52686236e-02 -8.23138505e-02 +8.22203010e-02 +1.41738579e-01 -8.33498091e-02 +1.76140722e-02 +1.68202326e-01 +1.40321562e-02 -6.14421535e-03 +7.43396878e-02 -1.63935795e-02 -3.22914124e-02 +9.50427502e-02 +3.05403676e-02 -3.36487442e-02 -7.57002756e-02 -1.38442218e-01 +9.78610590e-02 +7.55932257e-02 -7.97859877e-02 -6.12425208e-02 -4.84668314e-02 +6.23937957e-02 +9.99876484e-02 -3.26613598e-02 -1.77461997e-01 +1.41835943e-01 -1.74218658e-02 -1.21818418e-02 +6.33866042e-02 +4.33132537e-02 -1.94651112e-02 -1.08763099e-01 -2.06224178e-03 -1.38028786e-01 +1.46754444e-01 +1.25001073e-01 +8.04788321e-02 -6.78938180e-02 -7.62358010e-02 +3.90927605e-02 +1.30284913e-02 -2.02952195e-02 +8.16545710e-02 -4.38550711e-02 -6.12231493e-02 +3.45631950e-02 +1.39510483e-01 -2.68299915e-02 +5.86285926e-02 +2.54613142e-02 +1.93136111e-02 +1.56979263e-02 +9.71696749e-02 -2.69391686e-02 -2.57930048e-02 -2.14445852e-02 -8.20170194e-02 -2.51082294e-02 -9.73079633e-03 -2.24922016e-01 -9.20627452e-03 +1.02902368e-01 +1.68317527e-01 -4.53898013e-02 +3.22486125e-02 +7.42027611e-02 -6.93476945e-02 -2.37896200e-02 +1.88277274e-01 +1.08143620e-01 +2.63058376e-02 +7.14021251e-02 +1.55048117e-01 +1.78859308e-02 -1.51007026e-01 +4.39469628e-02 +2.25994065e-02 +1.47519365e-01 +2.21889187e-02 -9.08692405e-02 +4.97965440e-02 -3.94722223e-02 -3.96401472e-02 -1.56143531e-01 +5.85593283e-02 -2.88624391e-02 +1.00830726e-01 +1.74773827e-01 -2.83239745e-02 -1.18799262e-01 +8.76135081e-02 -4.71340716e-02 -1.29940659e-01 -4.61683609e-02 +4.34086984e-03 +1.22010700e-01 -1.02285020e-01 -8.66584629e-02 +2.48855919e-01 -1.11764759e-01 -1.66695267e-01 +2.46622991e-02 +2.18784556e-01 +7.44741783e-02 +4.13234308e-02 +1.07790142e-01 +1.66314933e-02 +5.92274591e-02 -8.82581398e-02 +1.36607707e-01 +1.57016981e-02 +7.77072608e-02 +1.17829576e-01 -3.12109049e-02 +7.91538600e-03 +3.39317061e-02 -1.96944661e-02 -3.89345293e-03 -2.97550950e-02 -9.84790027e-02 +6.26477003e-02 -7.19727501e-02 -7.85000063e-03 +8.27651322e-02 +9.65476707e-02 -2.93008331e-02 +5.17447516e-02 +1.06654294e-01 -1.06435185e-02 -1.23895369e-01 +1.74675256e-01 -2.12268289e-02 +2.05856040e-01 +5.70536777e-02 -1.81286056e-02 +6.54260069e-02 -7.61738569e-02 +6.22820668e-03 +2.50919875e-05 -2.00502738e-01 -3.08883400e-03 -2.53126165e-03 -1.10034041e-01 -4.21984345e-02 -1.04243621e-01 +1.65026307e-01 +6.81788102e-03 +1.49882957e-01 -6.94415495e-02 +3.81856710e-02 -4.22403365e-02 +3.81368734e-02 +1.61841840e-01 -1.42949343e-01 +1.51869759e-01 +5.82674481e-02 -1.27916649e-01 +2.09773760e-02 -4.60533425e-02 +3.86364721e-02 -9.32407603e-02 -9.67598520e-04 +5.93702011e-02 +2.99399607e-02 +1.02051832e-02 +6.57311007e-02 -1.44263700e-01 +2.48913933e-02 -5.84551170e-02 -1.68820322e-01 -2.94350237e-02 -6.92710131e-02 +4.14498486e-02 +3.40268649e-02 -1.20714895e-01 +5.49848191e-02 +1.89355195e-01 +5.63064888e-02 -1.80880185e-02 -4.75769117e-02 +8.52240324e-02 -6.67458773e-02 -7.45755285e-02 -4.23401147e-02 -2.27155313e-02 +1.82375401e-01 +1.98968172e-01 +7.41978809e-02 +1.47810668e-01 +3.92887555e-03 +7.46147633e-02 -3.20623517e-02 -9.61977914e-02 -1.08390331e-01 +1.41482621e-01 +1.16109416e-01 +3.80041264e-02 +1.18634328e-01 +3.41484174e-02 +4.30677943e-02 +9.71467420e-02 +1.15303576e-01 -4.39576358e-02 +7.90255666e-02 -6.70745940e-05 -1.93628833e-01 +7.53170103e-02 +7.28476718e-02 +8.70017856e-02 -7.92748928e-02 -1.37406632e-01 -2.02944815e-01 +4.98489924e-02 -1.69644430e-01 +4.83532213e-02 -1.55186774e-02 +7.06905797e-02 -2.71234270e-02 -2.03999262e-02 +2.51748171e-02 +7.68822059e-03 +1.38470620e-01 -3.64067517e-02 -2.49154698e-02 -1.80814508e-02 -1.33581743e-01 -1.82293773e-01 -6.66563585e-02 -1.98517114e-01 -5.89614473e-02 +8.33130330e-02 +1.00369729e-01 +6.77379454e-03 -1.11896098e-01 -1.06033668e-01 +2.72837356e-02 -1.46693001e-02 +4.90102433e-02 -1.75569672e-02 -1.09457048e-02 -1.51119549e-02 -9.56902355e-02 -2.97778733e-02 +7.40831271e-02 +3.65942121e-02 +7.57520795e-02 +1.15130745e-01 -3.71561782e-03 -3.15432139e-02 +2.82781525e-03 -3.32467631e-02 -3.33566740e-02 +1.13685653e-01 -3.26214097e-02 +1.43691897e-01 +1.39569595e-01 +9.64965522e-02 +8.93929377e-02 -5.04126400e-02 +5.22956550e-02 -5.04915714e-02 +9.18119447e-04 +2.63120830e-02 +5.20317890e-02 -1.47180095e-01 +1.95466802e-02 -1.31008282e-01 -9.38443989e-02 +7.19462484e-02 +9.79913622e-02 -6.95517138e-02 -4.93317842e-03 +7.11842403e-02 +1.41963558e-02 -5.78699894e-02 -1.56069919e-01 -6.63916916e-02 +4.99790795e-02 +1.50363415e-01 -5.82786761e-02 -5.31740040e-02 -3.44071910e-02 +1.10087253e-01 +8.29739310e-03 +1.11089526e-02 +1.47519670e-02 -1.23416655e-01 +9.71432589e-03 -5.78295104e-02 +1.50420308e-01 -3.63817587e-02 -1.43822897e-02 -9.48219150e-02 -2.12192927e-02 -3.88994440e-02 -1.24614798e-02 -2.46436261e-02 +1.04905657e-01 +2.96619423e-02 -9.27150901e-03 +1.52939767e-01 +2.20831987e-02 +7.25748390e-02 +7.33897090e-02 -1.12925448e-01 +3.87196802e-02 -1.12112045e-01 -6.20196015e-03 -2.95392703e-02 -6.53567025e-03 -6.41216263e-02 +7.22525045e-02 +1.17923453e-01 -4.16664891e-02 -3.53056006e-02 +4.76749539e-02 -6.38886318e-02 +9.18521266e-03 +6.96319938e-02 +5.86894974e-02 +3.57595459e-02 -1.45120189e-01 -3.51369977e-02 -2.59494334e-02 -4.19150069e-02 -4.14755419e-02 +8.12497437e-02 -8.62146541e-03 -3.24495323e-02 -1.43615864e-02 +6.64115474e-02 +1.88779682e-02 -1.11836586e-02 +1.18824564e-01 +6.84347749e-02 -9.50834751e-02 +1.51064798e-01 +5.11578843e-02 -1.30600527e-01 