#Parameter# /Linear.99fb15e0/_0 {55,512} 450561 ZERO_GRAD
-4.09352705e-02 -7.76077732e-02 +3.38235460e-02 -7.12082908e-02 -4.09344286e-02 -4.09343801e-02 -4.09350060e-02 -4.09353338e-02 -4.09336388e-02 -1.10640503e-01 +5.49139231e-02 -4.09320630e-02 +2.67322987e-01 -1.76376805e-01 -4.09348272e-02 -4.09335829e-02 -4.09315117e-02 -4.09342572e-02 -7.09963068e-02 -1.62256911e-01 +1.12359866e-01 -5.70665933e-02 -4.09345403e-02 -4.09354903e-02 -4.09359783e-02 -5.37869669e-02 -1.95260361e-01 -2.53992140e-01 +1.53803453e-01 -8.29310939e-02 -4.09318395e-02 +8.47254321e-02 -4.09302302e-02 -4.09357622e-02 -4.09320407e-02 -4.09336202e-02 -2.23466149e-03 -9.42113549e-02 -2.46442065e-01 -2.23753139e-01 -1.15616351e-01 +3.04617524e-01 -4.09331433e-02 -4.09343801e-02 -4.09312807e-02 -4.09362987e-02 -6.49922267e-02 -9.72788557e-02 -1.80283934e-01 +1.53494343e-01 -4.09333482e-02 -1.33118853e-01 -4.09321412e-02 +8.84353220e-02 -4.09296006e-02 -1.81965351e-01 -1.90943182e-01 +7.08286092e-02 +1.72367766e-02 -1.81966022e-01 -1.81966081e-01 -1.81965545e-01 -1.81965277e-01 -1.81966633e-01 -1.38015851e-01 +5.48014976e-02 -1.81968153e-01 +8.33798200e-02 -1.95986882e-01 -1.81965709e-01 -1.81966707e-01 -1.81968436e-01 -1.81966171e-01 -4.94803973e-02 -8.23087692e-02 -1.15700379e-01 -6.50527924e-02 -1.81965962e-01 -1.81965142e-01 -1.81964830e-01 -1.56516507e-01 -1.20670855e-01 -3.22526284e-02 +1.16450002e-03 -6.30538240e-02 -1.81968302e-01 -1.84416771e-01 -1.81969479e-01 -1.81965008e-01 -1.81968182e-01 -1.81966648e-01 -6.22877032e-02 -3.10376734e-01 +1.55559406e-01 +8.77411216e-02 +3.37377697e-01 +8.39748904e-02 -1.81967124e-01 -1.81966111e-01 -1.81968585e-01 -1.81964517e-01 -7.06999153e-02 -1.73375439e-02 -1.35191336e-01 -5.46106370e-03 -1.81966901e-01 -1.08930655e-01 -1.81968018e-01 -2.30196670e-01 -1.81970060e-01 +1.05222523e-01 -7.11961240e-02 -1.57603085e-01 +4.97171208e-02 +1.05223671e-01 +1.05223760e-01 +1.05222903e-01 +1.05222389e-01 +1.05224818e-01 +2.02259019e-01 +4.92667500e-03 +1.05227046e-01 +2.61370003e-01 -1.00702509e-01 +1.05223157e-01 +1.05224892e-01 +1.05227768e-01 +1.05223924e-01 +1.51925623e-01 +1.36081874e-02 +1.80155545e-01 -7.10146055e-02 +1.05223544e-01 +1.05222225e-01 +1.05221659e-01 +1.03415795e-01 +1.19539529e-01 -2.04127386e-01 +3.29776406e-02 +1.41337782e-01 +1.05227396e-01 -2.78336164e-02 +1.05229571e-01 +1.05221905e-01 +1.05227090e-01 +1.05224840e-01 -4.05676812e-02 +7.48166516e-02 +1.99184660e-02 -4.47286144e-02 -1.02514960e-01 -7.87210315e-02 +1.05225511e-01 +1.05223790e-01 +1.05228059e-01 +1.05221197e-01 -2.27939524e-02 +7.36638755e-02 +6.34453818e-02 +7.44357109e-01 +1.05225191e-01 +6.08578920e-02 +1.05226971e-01 +1.24482170e-01 +1.05230540e-01 +4.17458639e-02 +1.52212232e-02 +1.21368924e-02 +2.12141499e-01 +4.17460129e-02 +4.17460278e-02 +4.17458788e-02 +4.17458154e-02 +4.17462029e-02 -7.18243271e-02 -4.71492931e-02 +4.17464674e-02 +8.69191960e-02 +2.12380871e-01 +4.17459197e-02 +4.17462103e-02 +4.17465828e-02 +4.17460538e-02 +1.20876707e-01 +7.94403404e-02 -1.53488601e-02 -1.02677442e-01 +4.17460054e-02 +4.17458043e-02 +4.17457223e-02 +5.00495173e-02 +1.07848108e-01 -2.61169106e-01 +1.40306877e-03 -2.14562401e-01 +4.17465121e-02 -3.56102169e-01 +4.17468213e-02 +4.17457297e-02 +4.17464785e-02 +4.17461954e-02 +9.94052067e-02 -1.13168798e-01 -4.06571291e-02 +3.53567079e-02 -4.03294154e-02 +2.31199503e-01 +4.17462848e-02 +4.17460315e-02 +4.17466313e-02 +4.17456590e-02 -1.98314823e-02 +1.87621832e-01 +6.07115254e-02 -3.20444137e-01 +4.17462550e-02 +5.84907159e-02 +4.17464562e-02 -1.65900234e-02 +4.17469963e-02 -1.64953656e-02 +2.72097886e-02 +5.00190966e-02 +2.54234642e-01 -1.64963212e-02 -1.64963827e-02 -1.64956935e-02 -1.64952371e-02 -1.64972320e-02 -2.00074345e-01 +7.18702972e-02 -1.64991356e-02 -7.66428709e-02 +1.33057445e-01 -1.64958686e-02 -1.64972935e-02 -1.64997820e-02 -1.64965205e-02 +1.33544177e-01 -3.39517981e-01 +1.22396303e-02 +1.25584856e-01 -1.64961871e-02 -1.64950732e-02 -1.64945628e-02 -2.61910483e-02 -9.44227651e-02 -2.02193558e-01 +4.12995331e-02 -1.01322785e-01 -1.64994132e-02 +8.42375867e-03 -1.65012851e-02 -1.64947920e-02 -1.64991897e-02 -1.64972413e-02 +1.72782704e-01 +1.11269258e-01 -3.17403786e-02 -8.21285918e-02 -7.46887773e-02 -2.63309330e-01 -1.64978150e-02 -1.64964180e-02 -1.65000446e-02 -1.64942238e-02 -1.18409336e-01 -5.78427762e-02 +7.44495019e-02 -2.22217262e-01 -1.64975449e-02 -4.48289774e-02 -1.64990574e-02 +5.12377545e-02 -1.65020172e-02 +2.65377313e-02 +6.14925101e-02 +7.52623379e-02 -1.69371903e-01 +2.65374109e-02 +2.65373792e-02 +2.65376549e-02 +2.65377723e-02 +2.65370905e-02 -2.74897367e-03 -1.76530570e-01 +2.65364572e-02 -8.83294716e-02 -4.16556001e-02 +2.65375841e-02 +2.65370794e-02 +2.65362468e-02 +2.65373364e-02 -1.20602481e-01 +1.17709883e-01 +1.12825014e-01 -1.71065986e-01 +2.65374705e-02 +2.65378449e-02 +2.65380088e-02 +5.70451282e-02 -4.74432446e-02 -1.08997889e-01 -2.29688823e-01 +1.87794447e-01 +2.65363492e-02 +2.24802166e-01 +2.65357494e-02 +2.65379623e-02 +2.65364368e-02 +2.65370905e-02 +2.24388108e-01 +8.37821737e-02 +9.67082009e-02 +3.09841454e-01 -1.51396930e-01 -1.15711182e-01 +2.65369117e-02 +2.65373699e-02 +2.65361685e-02 +2.65381932e-02 +2.25940105e-02 +2.69336641e-01 +7.97821954e-02 +2.48321086e-01 +2.65369862e-02 +6.75797313e-02 +2.65364945e-02 +7.95538649e-02 +2.65355054e-02 +2.84176078e-02 -1.50078144e-02 -2.13409718e-02 -6.43975511e-02 +2.84182653e-02 +2.84183212e-02 +2.84178127e-02 +2.84175109e-02 +2.84188334e-02 +2.67296106e-01 +2.91947797e-02 +2.84201074e-02 -3.60650532e-02 +5.66515438e-02 +2.84179319e-02 +2.84188893e-02 +2.84205675e-02 +2.84184180e-02 +2.90208280e-01 -6.99426755e-02 -1.63646236e-01 +8.67319778e-02 +2.84181815e-02 +2.84174066e-02 +2.84170527e-02 +3.49202126e-01 +6.53234199e-02 -8.28642845e-02 -5.35719171e-02 -7.64434487e-02 +2.84203328e-02 +8.40537176e-02 +2.84215361e-02 +2.84172036e-02 +2.84201410e-02 +2.84188483e-02 -7.39527866e-02 +1.85569033e-01 +1.01786666e-01 -1.62663907e-02 -1.04930634e-02 -5.56329429e-01 +2.84192227e-02 +2.84183435e-02 +2.84207072e-02 +2.84168255e-02 +2.84219179e-02 +6.33286014e-02 +4.95021604e-02 -1.39637500e-01 +2.84190457e-02 +4.00911011e-02 +2.84200516e-02 +3.28800045e-02 +2.84220427e-02 -4.05218527e-02 -3.53562273e-02 -4.35002968e-02 -7.60425301e-03 -4.05228138e-02 -4.05228771e-02 -4.05221693e-02 -4.05217484e-02 -4.05236818e-02 +1.01970226e-01 +4.41977605e-02 -4.05254290e-02 +5.15516810e-02 -6.39308617e-03 -4.05223742e-02 -4.05237377e-02 -4.05260213e-02 -4.05229963e-02 +8.18961784e-02 +9.19636618e-03 +4.45189357e-01 -9.13358033e-02 -4.05226909e-02 -4.05215845e-02 -4.05211598e-02 -6.20473512e-02 +1.03244483e-01 +5.59897721e-03 -2.10720878e-02 -5.14096171e-02 -4.05257195e-02 +4.73434597e-01 -4.05273736e-02 -4.05213758e-02 -4.05254774e-02 -4.05237004e-02 -2.13771816e-02 +1.11758830e-02 -2.05697902e-02 -4.42364253e-02 -2.87188321e-01 -6.78153150e-03 -4.05241847e-02 -4.05228995e-02 -4.05262597e-02 -4.05208245e-02 +5.50603010e-02 -8.76497701e-02 +4.85088862e-03 -3.90141606e-02 -4.05240022e-02 +6.38742894e-02 -4.05253395e-02 -6.92735910e-02 -4.05280963e-02 +1.08436802e-02 -1.13404086e-02 -1.59025058e-01 +9.46842730e-02 +1.08442670e-02 +1.08443154e-02 +1.08438730e-02 +1.08435983e-02 +1.08448677e-02 -1.21135421e-01 +1.01179101e-01 +1.08460458e-02 -9.54336897e-02 +2.13085279e-01 +1.08439792e-02 +1.08448993e-02 +1.08464360e-02 +1.08444141e-02 +9.91241727e-03 +3.25507045e-01 +2.21566379e-01 +1.02297045e-01 +1.08441869e-02 +1.08434968e-02 +1.08432034e-02 +1.58914905e-02 -1.27520889e-01 -1.69696838e-01 -9.69044045e-02 +7.47217052e-03 +1.08462162e-02 -2.70430923e-01 +1.08473459e-02 +1.08433357e-02 +1.08460551e-02 +1.08448742e-02 -5.23526445e-02 +7.98553228e-04 -2.21082568e-01 -4.62307595e-02 +3.93507481e-02 -2.45120049e-01 +1.08452085e-02 +1.08443368e-02 +1.08465934e-02 +1.08429650e-02 +2.10614711e-01 -1.06056318e-01 -6.79830387e-02 +1.79957375e-02 +1.08450353e-02 -1.11046936e-02 +1.08459881e-02 +1.42608449e-01 +1.08478582e-02 +4.74559888e-02 +8.64559934e-02 -3.85785066e-02 -2.12195456e-01 +4.74559329e-02 +4.74559478e-02 +4.74560224e-02 +4.74560000e-02 +4.74559069e-02 +1.04759395e-01 +8.08241740e-02 +4.74558435e-02 +4.24898043e-02 -1.44521862e-01 +4.74559925e-02 +4.74559069e-02 +4.74558361e-02 +4.74559627e-02 +1.95815444e-01 +2.96433065e-02 +1.25836164e-01 -1.19171157e-01 +4.74559553e-02 +4.74560373e-02 +4.74560671e-02 +1.16561815e-01 -7.59938732e-02 +1.63530409e-01 +1.28367618e-01 +1.03125013e-01 +4.74558622e-02 -9.15836096e-02 +4.74557392e-02 +4.74560559e-02 +4.74558324e-02 +4.74558957e-02 +8.79561231e-02 +1.07808955e-01 +2.37129912e-01 +5.82733974e-02 -1.34192973e-01 +2.77183745e-02 +4.74558733e-02 +4.74559516e-02 +4.74557988e-02 +4.74561416e-02 -7.58424774e-02 +1.44624993e-01 +9.24371416e-04 -6.60341000e-03 +4.74559218e-02 +7.92364776e-02 +4.74558398e-02 -4.80556577e-01 +4.74557057e-02 +1.44903421e-01 -2.34115385e-02 -5.52944362e-01 +1.60894454e-01 +1.44904211e-01 +1.44904301e-01 +1.44903809e-01 +1.44903392e-01 +1.44904792e-01 +6.08370313e-03 -3.98847610e-02 +1.44906193e-01 -7.83832669e-02 -1.09101161e-01 +1.44903913e-01 +1.44904882e-01 +1.44906625e-01 +1.44904345e-01 +1.41436875e-01 -4.91137505e-02 +1.50335982e-01 +1.63615793e-01 +1.44904137e-01 +1.44903168e-01 +1.44902721e-01 +1.01476222e-01 +1.29814923e-01 +1.03190750e-01 +1.86535623e-02 -3.31739150e-02 +1.44906342e-01 +6.67584985e-02 +1.44907743e-01 +1.44902915e-01 +1.44906208e-01 +1.44904807e-01 +1.18086739e-02 +1.87136129e-01 +8.42576101e-03 -3.24109010e-03 +1.02083482e-01 +7.48160705e-02 +1.44905224e-01 +1.44904301e-01 +1.44906834e-01 +1.44902468e-01 +1.27868474e-01 +2.08506033e-01 +1.33164495e-01 +8.61068889e-02 +1.44904986e-01 +1.34889409e-01 +1.44906059e-01 +5.38631231e-02 +1.44908190e-01 -1.90434769e-01 -2.36071542e-01 -1.50688857e-01 +1.14705861e-01 -1.90434605e-01 -1.90434620e-01 -1.90434709e-01 -1.90434724e-01 -1.90434456e-01 -1.72920212e-01 +6.27831835e-03 -1.90433756e-01 -3.16524431e-02 +1.38035506e-01 -1.90434635e-01 -1.90434426e-01 -1.90433785e-01 -1.90434560e-01 -6.73699528e-02 -9.52006578e-02 -6.37402087e-02 +2.88627893e-01 -1.90434605e-01 -1.90434739e-01 -1.90434813e-01 -1.76920533e-01 -1.29646629e-01 +1.65283695e-01 -9.50712897e-03 -3.74297798e-02 -1.90433785e-01 +1.19422324e-01 -1.90433532e-01 -1.90434843e-01 -1.90433785e-01 -1.90434441e-01 -2.69477248e-01 -1.74154893e-01 +1.41772792e-01 -1.94408864e-01 -2.83064153e-02 +7.53022209e-02 -1.90434247e-01 -1.90434575e-01 -1.90433756e-01 -1.90435007e-01 -1.89936578e-01 -2.10922047e-01 -2.95026362e-01 -1.90647215e-01 -1.90434396e-01 -9.44009647e-02 -1.90433845e-01 -2.72566885e-01 -1.90433338e-01 +1.17700745e-03 -1.44169414e-02 -3.85327935e-02 -1.14619613e-01 +1.17759558e-03 +1.17763830e-03 +1.17719464e-03 +1.17693911e-03 +1.17816299e-03 -3.34134877e-01 +5.69754913e-02 +1.17929501e-03 -5.61650954e-02 +1.39869064e-01 +1.17730803e-03 +1.17819791e-03 +1.17967930e-03 +1.17771502e-03 -1.44082904e-01 +1.23069651e-01 -1.84931263e-01 -2.34428599e-01 +1.17749942e-03 +1.17684505e-03 +1.17653073e-03 +7.91080222e-02 -1.02157116e-01 +1.63229600e-01 +3.65119100e-01 +2.27591824e-02 +1.17946963e-03 -3.11975211e-01 +1.18059292e-03 +1.17667345e-03 +1.17931666e-03 +1.17817079e-03 +8.06690007e-02 +1.92850567e-02 -2.10614756e-01 -2.13296022e-02 -4.48653102e-02 +1.64859205e-01 +1.17850432e-03 +1.17764459e-03 +1.17983448e-03 +1.17631163e-03 +1.24927394e-01 -1.13405045e-02 -1.47165701e-01 +1.31483272e-01 +1.17835810e-03 -3.58616263e-02 +1.17924635e-03 +8.45225304e-02 +1.18104625e-03 -7.57427067e-02 -3.48467007e-02 -1.01223722e-01 -1.70053452e-01 -7.57430717e-02 -7.57431015e-02 -7.57427663e-02 -7.57426322e-02 -7.57434517e-02 -3.07742553e-03 +4.10301059e-01 -7.57442638e-02 +1.93374082e-02 +4.92802542e-03 -7.57428631e-02 -7.57434964e-02 -7.57445395e-02 -7.57431537e-02 +5.88350780e-02 +5.32348514e-01 -2.44777247e-01 -1.08806007e-01 -7.57429972e-02 -7.57425800e-02 -7.57423714e-02 -3.32347214e-01 +3.58938515e-01 -1.08493734e-02 +3.71897817e-02 +2.11533830e-02 -7.57444054e-02 -4.02071849e-02 -7.57452324e-02 -7.57424459e-02 -7.57443011e-02 -7.57434368e-02 +1.20513126e-01 +3.14239524e-02 -1.47672728e-01 -1.24387063e-01 -1.21710617e-02 -2.54104808e-02 -7.57437572e-02 -7.57431164e-02 -7.57446438e-02 -7.57422075e-02 -3.18005055e-01 -3.09980288e-02 +1.46919876e-01 -5.34104742e-02 -7.57436231e-02 +1.29163126e-02 -7.57442489e-02 +9.95347798e-02 -7.57454932e-02 -1.46779390e-02 -6.31461963e-02 -5.61904311e-02 -4.65182327e-02 -1.46793136e-02 -1.46793900e-02 -1.46783590e-02 -1.46777909e-02 -1.46805933e-02 +8.83490518e-02 -2.58385032e-01 -1.46832261e-02 -6.52083233e-02 -5.06214947e-02 -1.46786338e-02 -1.46806650e-02 -1.46840727e-02 -1.46795763e-02 -1.61076888e-01 -1.62470751e-02 +2.85350345e-02 +1.28011391e-01 -1.46791032e-02 -1.46775553e-02 -1.46768913e-02 -2.90938076e-02 -6.49229139e-02 +3.24538648e-02 -5.80956936e-02 +2.90727496e-01 -1.46836136e-02 +1.60910264e-01 -1.46861030e-02 -1.46771641e-02 -1.46832848e-02 -1.46806054e-02 -2.80203372e-01 -9.06504840e-02 +2.30408564e-01 -1.35730505e-01 +5.65938912e-02 -2.55142242e-01 -1.46813905e-02 -1.46794338e-02 -1.46844238e-02 -1.46763995e-02 -1.78976595e-01 +4.63050365e-01 +1.17061399e-02 -5.49624711e-02 -1.46810459e-02 -1.67242423e-01 -1.46830995e-02 -9.84621197e-02 -1.46871423e-02 -9.64432023e-03 -1.28539493e-02 +9.72409472e-02 +1.53533891e-01 -9.64513887e-03 -9.64518357e-03 -9.64457449e-03 -9.64424387e-03 -9.64591745e-03 +2.70542111e-02 -1.55616086e-03 -9.64752771e-03 -3.19283545e-01 +1.63179934e-01 -9.64474026e-03 -9.64597706e-03 -9.64806229e-03 -9.64528602e-03 +2.05633938e-02 -3.74760479e-02 -8.46522972e-02 +1.59579724e-01 -9.64501221e-03 -9.64408182e-03 -9.64368042e-03 +1.07128294e-02 -3.35909612e-02 -2.02655628e-01 -1.32311523e-01 -3.06721199e-02 -9.64777730e-03 +8.76140669e-02 -9.64933448e-03 -9.64383781e-03 -9.64756496e-03 -9.64593142e-03 +1.01592846e-03 +9.98018216e-03 +1.43106595e-01 -1.94208212e-02 -5.58643565e-02 -6.49555624e-02 -9.64642316e-03 -9.64519195e-03 -9.64829046e-03 -9.64337308e-03 -6.25308454e-02 +9.60827321e-02 -3.21751274e-02 -4.35598910e-01 -9.64619778e-03 -2.23694947e-02 -9.64745041e-03 +7.70746777e-03 -9.64994542e-03 +6.37898035e-03 +1.15043316e-02 -5.14603294e-02 +1.02320962e-01 +6.37795124e-03 +6.37788791e-03 +6.37864741e-03 +6.37907954e-03 +6.37692865e-03 -2.38886386e-01 +6.18229620e-02 +6.37491746e-03 -1.95750356e-01 -2.45733753e-01 +6.37844671e-03 +6.37686625e-03 +6.37425249e-03 +6.37771469e-03 -8.92318860e-02 -1.24853358e-01 -1.59924682e-02 +9.70826298e-02 +6.37809886e-03 +6.37925556e-03 +6.37979666e-03 +4.41334881e-02 +3.01428288e-02 -1.13491289e-01 +3.12621817e-02 -1.57035872e-01 +6.37462689e-03 +1.32842541e-01 +6.37269113e-03 +6.37955451e-03 +6.37487555e-03 +6.37692166e-03 -6.17229864e-02 -6.57438859e-02 -7.72237927e-02 -5.33089340e-02 +3.33878487e-01 +3.88009489e-01 +6.37630932e-03 +6.37785718e-03 +6.37395866e-03 +6.38017105e-03 +4.65590879e-02 -7.33585507e-02 -2.38390006e-02 +1.29280880e-01 +6.37657382e-03 -4.55673039e-02 +6.37502642e-03 +6.70200586e-02 +6.37187995e-03 +2.51328684e-02 +6.94853254e-04 -2.17290875e-02 +1.05270021e-01 +2.51322575e-02 +2.51322202e-02 +2.51326673e-02 +2.51329150e-02 +2.51316931e-02 -4.04359847e-02 -2.79843897e-01 +2.51304992e-02 +1.49782121e-01 +3.12962323e-01 +2.51325686e-02 +2.51316521e-02 +2.51301043e-02 +2.51321346e-02 +1.40844822e-01 -9.11788046e-02 +5.54744191e-02 -3.11954349e-01 +2.51323432e-02 +2.51330286e-02 +2.51333434e-02 +5.03375754e-02 +4.02704291e-02 +2.99276207e-02 +7.47329518e-02 -2.44016200e-01 +2.51303036e-02 +5.62035628e-02 +2.51291953e-02 +2.51332074e-02 +2.51304787e-02 +2.51316819e-02 -8.05802923e-03 +4.53507341e-02 +7.41301700e-02 +3.76387462e-02 +1.20788209e-01 -3.41022044e-01 +2.51313150e-02 +2.51321997e-02 +2.51299571e-02 +2.51335576e-02 +8.94283876e-02 +5.75228781e-02 -1.71333347e-02 +1.15024544e-01 +2.51314715e-02 +1.04548689e-02 +2.51305569e-02 +9.80053321e-02 +2.51287241e-02 -9.51875970e-02 -1.22141175e-01 -8.91603827e-02 -1.74378715e-02 -9.51888412e-02 -9.51889232e-02 -9.51879919e-02 -9.51874703e-02 -9.51899439e-02 -2.79242210e-02 +2.49666005e-01 -9.51922610e-02 +1.77219674e-01 -9.89837274e-02 -9.51882377e-02 -9.51900110e-02 -9.51930061e-02 -9.51890722e-02 -1.11377448e-01 +1.61242232e-01 +3.13720018e-01 -3.77527922e-01 -9.51887146e-02 -9.51872319e-02 -9.51866210e-02 -4.48757857e-02 -1.83153778e-01 -6.23416007e-02 -4.55750413e-02 +3.27702612e-02 -9.51925740e-02 -5.13365529e-02 -9.51947644e-02 -9.51868743e-02 -9.51923057e-02 -9.51899514e-02 +5.71536198e-02 +5.92629425e-03 -1.24270648e-01 -6.38202727e-02 +1.65243506e-01 -1.69682369e-01 -9.51907039e-02 -9.51889455e-02 -9.51933265e-02 -9.51861739e-02 +6.82187080e-03 -4.06236239e-02 -4.74032648e-02 -4.94161919e-02 -9.51903537e-02 -3.89069803e-02 -9.51921344e-02 -4.95743267e-02 -9.51956958e-02 +5.72204702e-02 +9.00587738e-02 -1.56989302e-02 -4.25532281e-01 +5.72213419e-02 +5.72213829e-02 +5.72207384e-02 +5.72203696e-02 +5.72221763e-02 +1.35995358e-01 -2.44682748e-02 +5.72240278e-02 +3.08300033e-02 +1.19722679e-01 +5.72208837e-02 +5.72222695e-02 +5.72245643e-02 +5.72215058e-02 +1.02275811e-01 +1.02875844e-01 +8.73530731e-02 +1.05024792e-01 +5.72211929e-02 +5.72201721e-02 +5.72197288e-02 +4.39469591e-02 +3.98571528e-02 +1.37063846e-01 +4.19293530e-02 +2.92851645e-02 +5.72242439e-02 +2.03308642e-01 +5.72259463e-02 +5.72199561e-02 +5.72240688e-02 +5.72221838e-02 -1.12785213e-02 +4.37523536e-02 -9.47018191e-02 +2.81033646e-02 +1.05037272e-01 +2.11187467e-01 +5.72227575e-02 +5.72214164e-02 +5.72248213e-02 +5.72193526e-02 +1.03941992e-01 -1.06287360e-01 +6.49107993e-02 +6.31895661e-02 +5.72225116e-02 +6.12639487e-02 +5.72239347e-02 +7.41922185e-02 +5.72266281e-02 -2.15008184e-02 +5.83958719e-03 -2.14894991e-02 +5.24993939e-03 -2.15017814e-02 -2.15018634e-02 -2.15011071e-02 -2.15007048e-02 -2.15027034e-02 +8.62588659e-02 +3.19695426e-03 -2.15046201e-02 +8.65737423e-02 -1.03241540e-02 -2.15013176e-02 -2.15027463e-02 -2.15052497e-02 -2.15019938e-02 +3.84840146e-02 -3.37736517e-01 +1.45021202e-02 +1.76340833e-01 -2.15016268e-02 -2.15005241e-02 -2.15000343e-02 +5.62014617e-02 -4.56296168e-02 +2.31467053e-01 +1.05590820e-01 -5.27716130e-02 -2.15049051e-02 +1.06667630e-01 -2.15067379e-02 -2.15002298e-02 -2.15046648e-02 -2.15027183e-02 +2.40516756e-02 +3.61407362e-02 +4.73754331e-02 -2.03709994e-02 +1.27841040e-01 +4.50308993e-02 -2.15033032e-02 -2.15018820e-02 -2.15055048e-02 -2.14996897e-02 -2.23460458e-02 -4.01553571e-01 +7.91362673e-02 -3.91928852e-01 -2.15030387e-02 -2.02729493e-01 -2.15045288e-02 +2.59400219e-01 -2.15074662e-02 -3.53264227e-03 -1.96793191e-02 +2.13163979e-02 -1.65946968e-03 -3.53257870e-03 -3.53258266e-03 -3.53264459e-03 -3.53265670e-03 -3.53249139e-03 -8.94278660e-02 -9.46292728e-02 -3.53230746e-03 +4.50112997e-03 -2.99800247e-01 -3.53261898e-03 -3.53248185e-03 -3.53227113e-03 -3.53257125e-03 +6.07435368e-02 -1.77424643e-02 +1.00383066e-01 +3.29602689e-01 -3.53260036e-03 -3.53267556e-03 -3.53271584e-03 +5.54454792e-03 +4.98076417e-02 +5.87194189e-02 -7.29611097e-03 +3.01777534e-02 -3.53228347e-03 -5.60515448e-02 -3.53213726e-03 -3.53269791e-03 -3.53230396e-03 -3.53248254e-03 +5.62642254e-02 +8.68853852e-02 +1.24014191e-01 +5.55525087e-02 -9.30731297e-02 -4.50295210e-01 -3.53243505e-03 -3.53258220e-03 -3.53223318e-03 -3.53275286e-03 +8.20903704e-02 -1.98047776e-02 +7.96417817e-02 +1.76852301e-01 -3.53245251e-03 -1.78744927e-01 -3.53232562e-03 -6.39617890e-02 -3.53205227e-03 -1.05493806e-01 -4.80531789e-02 -3.86592671e-02 +1.57228917e-01 -1.05493151e-01 -1.05493113e-01 -1.05493598e-01 -1.05493903e-01 -1.05492607e-01 -9.38130394e-02 -8.13730359e-02 -1.05491266e-01 +9.31258798e-02 +5.12215078e-01 -1.05493486e-01 -1.05492562e-01 -1.05490871e-01 -1.05493069e-01 -6.30044490e-02 -7.52338171e-02 -8.24227482e-02 -2.54712582e-01 -1.05493255e-01 -1.05494060e-01 -1.05494380e-01 -1.73530370e-01 -3.47518399e-02 -1.24010168e-01 -1.69049174e-01 -4.36601602e-02 -1.05491042e-01 +6.42293990e-02 -1.05489805e-01 -1.05494238e-01 -1.05491243e-01 -1.05492584e-01 -1.73565835e-01 +2.34546456e-02 +3.54410447e-02 -6.98742643e-03 -8.67370144e-02 +1.81187764e-01 -1.05492175e-01 -1.05493121e-01 -1.05490655e-01 -1.05494648e-01 -2.91516095e-01 +1.84932984e-02 -1.14855498e-01 +2.27958779e-03 -1.05492353e-01 -1.28646851e-01 -1.05491318e-01 -6.56142086e-02 -1.05489336e-01 -2.80717593e-02 +2.67285109e-02 -7.53064454e-02 -9.62064043e-02 -2.80713886e-02 -2.80713663e-02 -2.80716438e-02 -2.80717835e-02 -2.80710664e-02 -4.73476797e-02 +1.01096511e-01 -2.80703492e-02 +4.83182222e-02 +3.29677999e-01 -2.80715507e-02 -2.80710422e-02 -2.80701108e-02 -2.80713271e-02 -2.98205391e-02 +2.90121362e-02 +2.91937888e-02 -6.75879791e-02 -2.80714314e-02 -2.80718450e-02 -2.80720443e-02 +6.55895611e-03 -6.53972030e-02 -6.09503081e-03 +2.23369878e-02 -1.98168494e-02 -2.80702244e-02 -1.19390704e-01 -2.80695613e-02 -2.80719716e-02 -2.80703325e-02 -2.80710589e-02 -5.92876710e-02 +1.77779477e-02 -1.83583811e-01 -5.60602695e-02 -3.89050096e-01 +2.45309860e-01 -2.80708410e-02 -2.80713476e-02 -2.80700047e-02 -2.80721691e-02 +5.68155684e-02 -2.13452160e-01 +2.36910880e-02 +6.33035898e-02 -2.80709378e-02 +4.06447127e-02 -2.80703735e-02 +3.68219800e-02 -2.80692745e-02 +1.14542749e-02 +7.29452372e-02 -5.09582311e-02 -1.97385252e-02 +1.14549343e-02 +1.14549920e-02 +1.14544742e-02 +1.14541855e-02 +1.14556029e-02 -1.23312317e-01 -1.49373084e-01 +1.14569338e-02 +1.82864144e-02 +3.55325282e-01 +1.14546129e-02 +1.14556402e-02 +1.14573538e-02 +1.14550777e-02 -1.07813887e-01 +2.90497154e-01 -1.64127320e-01 -4.76816995e-03 +1.14548551e-02 +1.14540774e-02 +1.14537515e-02 +4.24507633e-03 +1.72558218e-01 -1.96238291e-02 +9.27141756e-02 -7.92771131e-02 +1.14571210e-02 +2.24476978e-01 +1.14584090e-02 +1.14538660e-02 +1.14569683e-02 +1.14556151e-02 -2.77924119e-03 -1.98466145e-02 -7.69299939e-02 -2.49742746e-01 -6.57858774e-02 +5.17002158e-02 +1.14560137e-02 +1.14550116e-02 +1.14575317e-02 +1.14534674e-02 -2.94906627e-02 -9.67045352e-02 -2.10656598e-02 -1.72287628e-01 +1.14558255e-02 -7.97853768e-02 +1.14568807e-02 +9.27723721e-02 +1.14589166e-02 -6.15115911e-02 -3.52369919e-02 -6.15487583e-02 -1.23389594e-01 -6.15121163e-02 -6.15121573e-02 -6.15117773e-02 -6.15114830e-02 -6.15127273e-02 -6.32286072e-02 -1.85921136e-02 -6.15138486e-02 +7.91324899e-02 +1.93896025e-01 -6.15118779e-02 -6.15127534e-02 -6.15142621e-02 -6.15122467e-02 +7.72447437e-02 +1.04373671e-01 -2.01127321e-01 -2.04528600e-01 -6.15120456e-02 -6.15114011e-02 -6.15111031e-02 +8.07116330e-02 -3.17605585e-02 +4.47410438e-03 +4.48569842e-02 +3.36720422e-02 -6.15140609e-02 +6.55182675e-02 -6.15151115e-02 -6.15112521e-02 -6.15138747e-02 -6.15127236e-02 -1.53035164e-01 -1.11200968e-02 +2.67542481e-01 -6.32092059e-02 -1.45447537e-01 -2.20523253e-01 -6.15130775e-02 -6.15121499e-02 -6.15144111e-02 -6.15108721e-02 -6.35699779e-02 -1.66914627e-01 -1.40482292e-01 -1.03228986e-01 -6.15128800e-02 +9.70169529e-03 -6.15138113e-02 -1.22616693e-01 -6.15156032e-02 -5.86288497e-02 -1.05308242e-01 -8.03367198e-02 +3.39398742e-01 -5.86286783e-02 -5.86286485e-02 -5.86288087e-02 -5.86288422e-02 -5.86284213e-02 +5.65339103e-02 +9.10265148e-02 -5.86279742e-02 -1.36096962e-02 -1.90401569e-01 -5.86287752e-02 -5.86284138e-02 -5.86278699e-02 -5.86286262e-02 +2.83630434e-02 +3.95841375e-02 +3.22944492e-01 +5.75019568e-02 -5.86286858e-02 -5.86289167e-02 -5.86290024e-02 +1.39935100e-02 -2.04657484e-02 +1.24489451e-02 -1.74728498e-01 +1.40362866e-02 -5.86278960e-02 -4.97877225e-02 -5.86275421e-02 -5.86289614e-02 -5.86279631e-02 -5.86284287e-02 -1.74481571e-01 -1.02244085e-02 -1.46404535e-01 -1.00060999e-01 -7.22603202e-02 +2.18611538e-01 -5.86282946e-02 -5.86286411e-02 -5.86278141e-02 -5.86290956e-02 -5.24514057e-02 +1.10230938e-01 -1.18171811e-01 -2.71278560e-01 -5.86283430e-02 -8.01149756e-02 -5.86279966e-02 -8.77597481e-02 -5.86273670e-02 +1.72300749e-02 -8.07536358e-04 -6.67232201e-02 -3.95427942e-01 +1.72297508e-02 +1.72297265e-02 +1.72299705e-02 +1.72301121e-02 +1.72294173e-02 -1.35784247e-03 +7.57430587e-03 +1.72287244e-02 +6.83115721e-02 -1.04034506e-01 +1.72299072e-02 +1.72294024e-02 +1.72285046e-02 +1.72296800e-02 -1.92199163e-02 +4.60788533e-02 +8.23021680e-02 -1.67409062e-01 +1.72297955e-02 +1.72301698e-02 +1.72303561e-02 +5.47283702e-03 -5.73271625e-02 +1.33933499e-01 -3.88506167e-02 +3.98297496e-02 +1.72286164e-02 +1.34248957e-01 +1.72279999e-02 +1.72302872e-02 +1.72287095e-02 +1.72294080e-02 +1.08565390e-01 -4.37025242e-02 -4.30931821e-02 -4.05012630e-02 +1.68119743e-01 +3.86629343e-01 +1.72292199e-02 +1.72297135e-02 +1.72284041e-02 +1.72304753e-02 +9.19630006e-02 +7.92642087e-02 -1.26985824e-02 +1.09658018e-01 +1.72293168e-02 -1.37913525e-01 +1.72287654e-02 -4.12931591e-02 +1.72277298e-02 +4.56273835e-03 +1.98136885e-02 -1.56698361e-01 -2.77045459e-01 +4.56241332e-03 +4.56238259e-03 +4.56263218e-03 +4.56277374e-03 +4.56205104e-03 +7.97711015e-02 +1.74991846e-01 +4.56136372e-03 +1.62575126e-01 +3.15327793e-01 +4.56258142e-03 +4.56203381e-03 +4.56112111e-03 +4.56233602e-03 +1.31976586e-02 -2.22027972e-01 +1.08635530e-01 -1.68630257e-01 +4.56245942e-03 +4.56283614e-03 +4.56301821e-03 -1.84679776e-02 +8.99556503e-02 +6.71757990e-03 -8.53098556e-02 +7.86879361e-02 +4.56126034e-03 +8.73250421e-03 +4.56060655e-03 +4.56295861e-03 +4.56135534e-03 +4.56204917e-03 +4.32790555e-02 -1.10474758e-01 +2.71585071e-03 +1.07325822e-01 -6.84464946e-02 -3.87751877e-01 +4.56184894e-03 +4.56236769e-03 +4.56104614e-03 +4.56317794e-03 -4.54239324e-02 +6.13110289e-02 +5.88104911e-02 +4.42766920e-02 +4.56193089e-03 +2.52117659e-03 +4.56139492e-03 -4.57974412e-02 +4.56032855e-03 +4.73805629e-02 +2.58392897e-02 +5.58013618e-02 +1.28281847e-01 +4.73807231e-02 +4.73807417e-02 +4.73806225e-02 +4.73805591e-02 +4.73808311e-02 -1.74190085e-02 -5.21177351e-02 +4.73811552e-02 -2.87836522e-01 +1.24332525e-01 +4.73806337e-02 +4.73808497e-02 +4.73812483e-02 +4.73807529e-02 -2.71586329e-01 -4.24933620e-02 +1.05963022e-01 +2.54955202e-01 +4.73806858e-02 +4.73805442e-02 +4.73804846e-02 -3.34246233e-02 +8.03614631e-02 -1.37165785e-01 -1.58229351e-01 -1.98663071e-01 +4.73811962e-02 +2.36190230e-01 +4.73815054e-02 +4.73804921e-02 +4.73811552e-02 +4.73808385e-02 -7.16062859e-02 -1.05968699e-01 -1.06049307e-01 +7.50291198e-02 +2.14287005e-02 +1.61804214e-01 +4.73809280e-02 +4.73807231e-02 +4.73812856e-02 +4.73804139e-02 -2.62692869e-01 -1.80126354e-01 -5.60936369e-02 +6.94696903e-02 +4.73808870e-02 -2.62655579e-02 +4.73811440e-02 +4.22126334e-03 +4.73816134e-02 +2.41885707e-03 +1.12054106e-02 +3.76169570e-02 +1.62189201e-01 +2.41809874e-03 +2.41803937e-03 +2.41861190e-03 +2.41893902e-03 +2.41735834e-03 +9.60287377e-02 +3.59378047e-02 +2.41587148e-03 +1.65728793e-01 -1.45327762e-01 +2.41846335e-03 +2.41732574e-03 +2.41537206e-03 +2.41792784e-03 +1.72108814e-01 -1.26818325e-02 -1.71604201e-01 -1.08671054e-01 +2.41820375e-03 +2.41906894e-03 +2.41946196e-03 -1.49355412e-01 +1.56778889e-03 -1.26289204e-03 -4.05235495e-03 -2.88502667e-02 +2.41562910e-03 -1.59054771e-01 +2.41423748e-03 +2.41928152e-03 +2.41582980e-03 +2.41735461e-03 +3.78987826e-02 -3.85373794e-02 -6.28243014e-02 -5.99374473e-02 -6.57955855e-02 -5.77804707e-02 +2.41692201e-03 +2.41800793e-03 +2.41517834e-03 +2.41973856e-03 +4.46421690e-02 -1.65937752e-01 +3.74068459e-03 +5.56804895e-01 +2.41712364e-03 +1.59579515e-01 +2.41593877e-03 -1.82356387e-02 +2.41361815e-03 +3.78015414e-02 -4.29821608e-04 +3.76798846e-02 +5.13798892e-02 +3.78022380e-02 +3.78022827e-02 +3.78017426e-02 +3.78014706e-02 +3.78028788e-02 -1.04902625e-01 +1.79490253e-01 +3.78042534e-02 +2.90984735e-02 -1.48199290e-01 +3.78019065e-02 +3.78029309e-02 +3.78046893e-02 +3.78023908e-02 +7.60323973e-03 -6.33950159e-02 -6.15581930e-01 +9.33813304e-02 +3.78021300e-02 +3.78013253e-02 +3.78009826e-02 +1.04449533e-01 +2.24206224e-02 +4.84671704e-02 +3.11697256e-02 +4.17078733e-02 +3.78044322e-02 +1.55433267e-01 +3.78057919e-02 +3.78011391e-02 +3.78042758e-02 +3.78028825e-02 -1.06690586e-01 -1.00914203e-02 -4.33010459e-02 +1.44133538e-01 -1.34655014e-01 +2.29163498e-01 +3.78032848e-02 +3.78023051e-02 +3.78048941e-02 +3.78007255e-02 -1.93340108e-01 -2.77089626e-01 -2.30926871e-02 -7.76847526e-02 +3.78031321e-02 +1.11267768e-01 +3.78041826e-02 +1.20310739e-01 +3.78063023e-02 +7.62562975e-02 +8.59900489e-02 -5.15353262e-01 -2.19232365e-02 +7.62570277e-02 +7.62570947e-02 +7.62565285e-02 +7.62562379e-02 +7.62578100e-02 +1.43725470e-01 -2.64247097e-02 +7.62592256e-02 -8.21115226e-02 -2.52461378e-02 +7.62566850e-02 +7.62578994e-02 +7.62597024e-02 +7.62572289e-02 -2.37585798e-01 -3.45182642e-02 -1.34366363e-01 +1.72077656e-01 +7.62569010e-02 +7.62560889e-02 +7.62557536e-02 -2.85771657e-02 +5.11377156e-02 +2.54997239e-02 +5.53062372e-02 +1.31215900e-01 +7.62594193e-02 +6.61600754e-02 +7.62608498e-02 +7.62558952e-02 +7.62592405e-02 +7.62578323e-02 +7.95034096e-02 +1.28281340e-02 +1.42728463e-01 +1.66659966e-01 -1.04413033e-01 +3.92580070e-02 +7.62582719e-02 +7.62571245e-02 +7.62599185e-02 +7.62554482e-02 +1.47377193e-01 +1.09153934e-01 +1.31029878e-02 +1.87483430e-01 +7.62581080e-02 +7.00826198e-02 +7.62591437e-02 +1.08038411e-01 +7.62614012e-02 -3.87619324e-02 -7.43329525e-02 -2.75813788e-02 +3.85517448e-01 -3.87620293e-02 -3.87620479e-02 -3.87619734e-02 -3.87619212e-02 -3.87621038e-02 -8.45861435e-02 -1.09031253e-01 -3.87623236e-02 -1.25089176e-02 -2.42608637e-01 -3.87619920e-02 -3.87621224e-02 -3.87623534e-02 -3.87620516e-02 +3.95577513e-02 +4.70357910e-02 +4.20894986e-03 -3.02258004e-02 -3.87620144e-02 -3.87618802e-02 -3.87618616e-02 -1.07426286e-01 -2.20582671e-02 -2.48451550e-02 +5.98064216e-04 -5.68394326e-02 -3.87623459e-02 -1.98014125e-01 -3.87625434e-02 -3.87618914e-02 -3.87623198e-02 -3.87621149e-02 -9.94305760e-02 +8.74852091e-02 -1.19126141e-01 +1.82603285e-01 -1.57621369e-01 +3.25502217e-01 -3.87621857e-02 -3.87620665e-02 -3.87624167e-02 -3.87618542e-02 +8.81710798e-02 +9.41336378e-02 -2.53682621e-02 -1.41359776e-01 -3.87621783e-02 -6.64607435e-02 -3.87623049e-02 -4.62344103e-02 -3.87625769e-02 +1.31910248e-02 -8.65470897e-03 -1.16011379e-02 -1.59517869e-01 +1.31907072e-02 +1.31906709e-02 +1.31909028e-02 +1.31910434e-02 +1.31903728e-02 +6.67002657e-03 -1.31123781e-01 +1.31896902e-02 +5.05494736e-02 -7.78449327e-02 +1.31908422e-02 +1.31903449e-02 +1.31894499e-02 +1.31906206e-02 +1.76358834e-01 +6.20634519e-02 +3.79522741e-01 +1.27721548e-01 +1.31907379e-02 +1.31911086e-02 +1.31913014e-02 +2.07941998e-02 -2.96880468e-03 -2.05950454e-01 +1.64436415e-01 +7.47848898e-02 +1.31895831e-02 +2.63725549e-01 +1.31889228e-02 +1.31912315e-02 +1.31896790e-02 +1.31903719e-02 +1.13581130e-02 +1.05552405e-01 -1.04153506e-01 +8.76391828e-02 -2.32188672e-01 -2.03549847e-01 +1.31901717e-02 +1.31906671e-02 +1.31893568e-02 +1.31914318e-02 -1.50931418e-01 -2.53588259e-02 -1.03643835e-01 +3.75762843e-02 +1.31902592e-02 -1.24548659e-01 +1.31897256e-02 +1.06194027e-01 +1.31886695e-02 -9.66686476e-03 -8.29782858e-02 -1.56719446e-01 -1.06801130e-01 -9.66697466e-03 -9.66697931e-03 -9.66690853e-03 -9.66685545e-03 -9.66708083e-03 -1.17825180e-01 -1.67774886e-01 -9.66726523e-03 -2.04828158e-01 +3.60379934e-01 -9.66690108e-03 -9.66709852e-03 -9.66732483e-03 -9.66699235e-03 +5.09130210e-02 +1.41221702e-01 -7.60983825e-02 -1.80295080e-01 -9.66697931e-03 -9.66684055e-03 -9.66678467e-03 +7.93486014e-02 +2.06787497e-01 +1.21811233e-01 +5.10037541e-02 +1.12723634e-01 -9.66729783e-03 +7.86403120e-02 -9.66746826e-03 -9.66679305e-03 -9.66726243e-03 -9.66707617e-03 +1.54240057e-03 -3.67620662e-02 -8.43103975e-02 -8.55081603e-02 -4.89444658e-03 +1.08787112e-01 -9.66714043e-03 -9.66697652e-03 -9.66734439e-03 -9.66673344e-03 +6.85369521e-02 +1.42294079e-01 -2.61237081e-02 +1.50743574e-02 -9.66710504e-03 +3.31927300e-03 -9.66726802e-03 -1.29422575e-01 -9.66756698e-03 -3.44274454e-02 +1.44072473e-02 -9.73469988e-02 +2.02450696e-02 -3.44286785e-02 -3.44287492e-02 -3.44278216e-02 -3.44273336e-02 -3.44298929e-02 -4.65072021e-02 -7.59787485e-02 -3.44323665e-02 +1.32076368e-02 -1.71152577e-02 -3.44280824e-02 -3.44299600e-02 -3.44331563e-02 -3.44289392e-02 -5.63223921e-02 +6.72903717e-01 -1.64074078e-01 +9.71730053e-02 -3.44284885e-02 -3.44270989e-02 -3.44264098e-02 -7.39641041e-02 -1.67178400e-02 -1.12168528e-02 -1.35972187e-01 +6.21717563e-03 -3.44327129e-02 -6.61128312e-02 -3.44351195e-02 -3.44267003e-02 -3.44324037e-02 -3.44299152e-02 -6.04906641e-02 +6.74047787e-03 +2.06215471e-01 +6.98501766e-02 -4.45460305e-02 +1.10973164e-01 -3.44306454e-02 -3.44287977e-02 -3.44334878e-02 -3.44259776e-02 -8.22712407e-02 -4.84036766e-02 -1.02956019e-01 +5.82881831e-03 -3.44303250e-02 -3.02752517e-02 -3.44322398e-02 -1.16757855e-01 -3.44360769e-02 -4.07377034e-02 +1.31159248e-02 -1.63941849e-02 -1.72306448e-02 -4.07378003e-02 -4.07378003e-02 -4.07377370e-02 -4.07376960e-02 -4.07378376e-02 +1.36580085e-02 +4.59489137e-01 -4.07380983e-02 -1.44136339e-01 +3.78115959e-02 -4.07377630e-02 -4.07378599e-02 -4.07381505e-02 -4.07378450e-02 +2.18525548e-02 -1.71122383e-02 -8.33484381e-02 -1.22988753e-01 -4.07377817e-02 -4.07376625e-02 -4.07376476e-02 -5.44659719e-02 +6.75362051e-02 -2.23942641e-02 -9.65764150e-02 +1.74688958e-02 -4.07381058e-02 +9.52264667e-03 -4.07382995e-02 -4.07376401e-02 -4.07381020e-02 -4.07378562e-02 +5.48993051e-01 +7.76501372e-02 -5.49162924e-02 +2.35115234e-02 +1.21783778e-01 -2.16266184e-04 -4.07379195e-02 -4.07378115e-02 -4.07381989e-02 -4.07376029e-02 -6.19282536e-02 -1.04041845e-01 -1.61726356e-01 +8.39893892e-02 -4.07378711e-02 -8.09092969e-02 -4.07380983e-02 -6.47017956e-02 -4.07383405e-02 -1.06245317e-01 -5.28194271e-02 -6.75677657e-02 +4.08819079e-01 -1.06246106e-01 -1.06246166e-01 -1.06245555e-01 -1.06245227e-01 -1.06246874e-01 -2.39781439e-01 -9.01520848e-02 -1.06248483e-01 -1.21024475e-02 +8.42101276e-02 -1.06245741e-01 -1.06246933e-01 -1.06248990e-01 -1.06246278e-01 +1.27299149e-02 -1.65856943e-01 +9.46456045e-02 +3.63378435e-01 -1.06246009e-01 -1.06245108e-01 -1.06244713e-01 -5.05872555e-02 -2.32363883e-02 -6.68250769e-02 -1.75677910e-01 -1.48261622e-01 -1.06248729e-01 +2.49319613e-01 -1.06250256e-01 -1.06244870e-01 -1.06248513e-01 -1.06246911e-01 +2.17545349e-02 +4.39134240e-02 +4.83377278e-02 -1.53275937e-01 +7.45599996e-03 +9.41470861e-02 -1.06247351e-01 -1.06246173e-01 -1.06249236e-01 -1.06244393e-01 -2.67291337e-01 -1.37542233e-01 -1.38174012e-01 -1.03083037e-01 -1.06247164e-01 -2.09670141e-01 -1.06248386e-01 +9.52926930e-03 -1.06250890e-01 -4.99786176e-02 -9.17596444e-02 -8.37978274e-02 +3.65769297e-01 -4.99786288e-02 -4.99786474e-02 -4.99786399e-02 -4.99785878e-02 -4.99786772e-02 +7.69103393e-02 +1.03762679e-01 -4.99787442e-02 -2.56717682e-01 +2.55537108e-02 -4.99786548e-02 -4.99786548e-02 -4.99787517e-02 -4.99786027e-02 -1.45676076e-01 +4.98061031e-02 -3.90636288e-02 +8.30214769e-02 -4.99786176e-02 -4.99785617e-02 -4.99786101e-02 -1.15134910e-01 -4.59861234e-02 -5.17331213e-02 +8.79245624e-02 +6.94679469e-02 -4.99787331e-02 +7.64842033e-02 -4.99788113e-02 -4.99786064e-02 -4.99787219e-02 -4.99786735e-02 -2.59679407e-01 -1.99907795e-02 +1.46565646e-01 -2.30568618e-01 +7.48586133e-02 -1.03008792e-01 -4.99787293e-02 -4.99786511e-02 -4.99787517e-02 -4.99786027e-02 -3.65961939e-01 +8.24060515e-02 -2.14822739e-02 -3.29569541e-02 -4.99786995e-02 -1.06151447e-01 -4.99787331e-02 -1.11903787e-01 -4.99788374e-02 -4.94529866e-02 +1.68516412e-02 +2.67232093e-03 -1.29053563e-01 -4.94542085e-02 -4.94542830e-02 -4.94533964e-02 -4.94528413e-02 -4.94553559e-02 -4.39907521e-01 +1.90103855e-02 -4.94577773e-02 +7.67172724e-02 +5.71589246e-02 -4.94536161e-02 -4.94554378e-02 -4.94585149e-02 -4.94544543e-02 +5.46253324e-02 -5.82010709e-02 +2.47172266e-01 +2.03677207e-01 -4.94540296e-02 -4.94526438e-02 -4.94520515e-02 -3.52606587e-02 -1.30603731e-01 +1.61048248e-01 -2.15725787e-02 -9.20760483e-02 -4.94580828e-02 -1.59795597e-01 -4.94603254e-02 -4.94523235e-02 -4.94578108e-02 -4.94553819e-02 -7.01143742e-02 +2.23409031e-02 -5.95941134e-02 +2.53057871e-02 -3.01089939e-02 +4.76741046e-01 -4.94561009e-02 -4.94543165e-02 -4.94588315e-02 -4.94515784e-02 -1.02228485e-01 -4.91135661e-03 +1.18287340e-01 +5.88678308e-02 -4.94557656e-02 -1.02063850e-01 -4.94576618e-02 -6.63215518e-02 -4.94612977e-02 +2.94080726e-03 +3.98267396e-02 +1.58148315e-02 -1.71722591e-01 +2.93967361e-03 +2.93957582e-03 +2.94045242e-03 +2.94091925e-03 +2.93855043e-03 +4.62834816e-03 +2.19129443e-01 +2.93629337e-03 -5.12362421e-02 -2.02821851e-01 +2.94021959e-03 +2.93847546e-03 +2.93553853e-03 +2.93941353e-03 +1.35630006e-02 +1.11665010e-01 -2.80389041e-02 -4.68170404e-01 +2.93981819e-03 +2.94114230e-03 +2.94172601e-03 +1.96597204e-02 -1.06691755e-02 -8.47159252e-02 +1.14156723e-01 +1.65142104e-01 +2.93594506e-03 +3.20806444e-01 +2.93379463e-03 +2.94147129e-03 +2.93623516e-03 +2.93853157e-03 +4.45943661e-02 +1.46508515e-01 +3.64709198e-02 +1.77874863e-01 +1.06475987e-02 +1.43069044e-01 +2.93785776e-03 +2.93954648e-03 +2.93520675e-03 +2.94215349e-03 -1.29963428e-01 -4.64790128e-03 -5.30051142e-02 +1.18608743e-01 +2.93816510e-03 -7.13051483e-02 +2.93640676e-03 +6.44159466e-02 +2.93290964e-03 +3.03733014e-02 +1.54269766e-02 +7.39090890e-02 -2.20346581e-02 +3.03738974e-02 +3.03739496e-02 +3.03734820e-02 +3.03732418e-02 +3.03745307e-02 -1.02971211e-01 +9.91795287e-02 +3.03757563e-02 -1.50857661e-02 +1.64930239e-01 +3.03735975e-02 +3.03745624e-02 +3.03761400e-02 +3.03740446e-02 -8.47438797e-02 -1.32223293e-01 -1.09123729e-01 -1.11187719e-01 +3.03738136e-02 +3.03731337e-02 +3.03728078e-02 +8.81858021e-02 +6.03543855e-02 -1.50269553e-01 +8.12397674e-02 -8.86008218e-02 +3.03759109e-02 +3.12162191e-01 +3.03771421e-02 +3.03729493e-02 +3.03757824e-02 +3.03745288e-02 +1.92945898e-01 -4.44057658e-02 -6.43341169e-02 -1.88223012e-02 +2.09701471e-02 -3.01138401e-01 +3.03748976e-02 +3.03739738e-02 +3.03762853e-02 +3.03725656e-02 -3.76624577e-02 +1.16235994e-01 +4.40199375e-02 +1.18716776e-01 +3.03747505e-02 -7.29266554e-02 +3.03756986e-02 +2.16412507e-02 +3.03776041e-02 +2.83915177e-02 +3.99331562e-02 +1.90597951e-01 -4.52615917e-02 +2.83928066e-02 +2.83928942e-02 +2.83919349e-02 +2.83913650e-02 +2.83940546e-02 +3.81228812e-02 -1.23730175e-01 +2.83966307e-02 +9.48433876e-02 -1.52110279e-01 +2.83921864e-02 +2.83941161e-02 +2.83974744e-02 +2.83930860e-02 +6.32159226e-03 +1.52027369e-01 -5.98188192e-02 -8.71246979e-02 +2.83926390e-02 +2.83911433e-02 +2.83904821e-02 +2.33722776e-02 +4.09696177e-02 -3.55162919e-02 -1.36094749e-01 +1.65253524e-02 +2.83970181e-02 +2.11473867e-01 +2.83994507e-02 +2.83907577e-02 +2.83966754e-02 +2.83940602e-02 -8.31551291e-03 -4.25705500e-02 -1.04078487e-01 -6.09578639e-02 -2.74730027e-01 +1.27108991e-01 +2.83948220e-02 +2.83929352e-02 +2.83978172e-02 +2.83900015e-02 -1.01340590e-02 +4.28538546e-02 +2.32596043e-02 -9.23671797e-02 +2.83944812e-02 -3.93598974e-02 +2.83965003e-02 +8.02753121e-02 +2.84004435e-02 -5.97748756e-02 -2.70938221e-02 -1.66357942e-02 +4.48105261e-02 -5.97743206e-02 -5.97742833e-02 -5.97746968e-02 -5.97749576e-02 -5.97738065e-02 -1.08981263e-02 +1.81509089e+00 -5.97726628e-02 -1.17023744e-01 -6.29183426e-02 -5.97746223e-02 -5.97737916e-02 -5.97723238e-02 -5.97741865e-02 -1.00930914e-01 -1.63729668e-01 +3.11639197e-02 +6.43535778e-02 -5.97744063e-02 -5.97750656e-02 -5.97753301e-02 +1.75266108e-03 +4.72983681e-02 -5.95418811e-02 -9.59106162e-02 -1.46628737e-01 -5.97725064e-02 +2.45992225e-02 -5.97714894e-02 -5.97752221e-02 -5.97726516e-02 -5.97738177e-02 -1.89613968e-01 -5.01076393e-02 -1.92123055e-02 -7.87244551e-03 +1.08422544e-02 -1.86800361e-01 -5.97734340e-02 -5.97742647e-02 -5.97721636e-02 -5.97755499e-02 -1.10190019e-01 +9.11096670e-03 +6.60253093e-02 -1.66778758e-01 -5.97736388e-02 -2.26076648e-01 -5.97727187e-02 -1.43434688e-01 -5.97710535e-02 -1.26276668e-02 +1.87491253e-02 -7.38048833e-03 -3.00705761e-01 -1.26278894e-02 -1.26279052e-02 -1.26277590e-02 -1.26276594e-02 -1.26281111e-02 +8.30361322e-02 +6.33155480e-02 -1.26285236e-02 -1.43889517e-01 +3.81827913e-03 -1.26277888e-02 -1.26281204e-02 -1.26286708e-02 -1.26279313e-02 -4.14965451e-02 -4.89538349e-02 +3.09203025e-02 +3.92558545e-01 -1.26278512e-02 -1.26276212e-02 -1.26275029e-02 +2.43003555e-02 +6.16199113e-02 +1.70980394e-01 +8.88326690e-02 +3.70589830e-02 -1.26285991e-02 +1.64328545e-01 -1.26290070e-02 -1.26275476e-02 -1.26285451e-02 -1.26281194e-02 +2.81078778e-02 -9.38829556e-02 -3.70355248e-02 -7.01718479e-02 -1.37926236e-01 +6.13708496e-02 -1.26282535e-02 -1.26279080e-02 -1.26287211e-02 -1.26274200e-02 -1.24994285e-01 +8.21499601e-02 -1.37681514e-01 +2.30869632e-02 -1.26281912e-02 -1.63339987e-01 -1.26284994e-02 +7.17540383e-02 -1.26291355e-02 -1.47968344e-03 +3.04079615e-02 +1.00016631e-01 +1.46128193e-01 -1.48058019e-03 -1.48063619e-03 -1.47998030e-03 -1.47958053e-03 -1.48143142e-03 -1.32342100e-01 -3.79541703e-02 -1.48319360e-03 +8.81686658e-02 +1.10855848e-01 -1.48014992e-03 -1.48148544e-03 -1.48378254e-03 -1.48075446e-03 +1.35383161e-03 -3.47884744e-02 +4.96308655e-02 +4.82893586e-02 -1.48045423e-03 -1.47943094e-03 -1.47896097e-03 +1.26487017e-01 +9.36933383e-02 +1.05153255e-01 +5.02980575e-02 -2.71658469e-02 -1.48345006e-03 +1.16565451e-01 -1.48513040e-03 -1.47917354e-03 -1.48322561e-03 -1.48144423e-03 +2.05636513e-03 +3.77047062e-02 -9.24496472e-01 -4.06195596e-02 +5.47036156e-02 +1.46667100e-02 -1.48197869e-03 -1.48065435e-03 -1.48399477e-03 -1.47863571e-03 +5.38425632e-02 +7.47691467e-03 +1.32961804e-02 -2.23750606e-01 -1.48174120e-03 +5.15688509e-02 -1.48310571e-03 +1.76117688e-01 -1.48583471e-03 -4.36311997e-02 +2.98387799e-02 +6.14550486e-02 +5.13519980e-02 -4.36319895e-02 -4.36320417e-02 -4.36314493e-02 -4.36310917e-02 -4.36327159e-02 +4.42323014e-02 -2.17572987e-01 -4.36342619e-02 -7.42984936e-03 -2.16348112e-01 -4.36315946e-02 -4.36327718e-02 -4.36347723e-02 -4.36321460e-02 +1.81492284e-01 +5.30711040e-02 +4.03853983e-01 -2.57003270e-02 -4.36318778e-02 -4.36309464e-02 -4.36305329e-02 +1.26180023e-01 +2.06667766e-01 +1.85256228e-01 +9.85259190e-02 +2.38579735e-01 -4.36345115e-02 -4.80246663e-01 -4.36360054e-02 -4.36307229e-02 -4.36342955e-02 -4.36327197e-02 -2.71115243e-01 +7.72220865e-02 -5.32942936e-02 +1.01181448e-01 -1.44641891e-01 -4.23915721e-02 -4.36332151e-02 -4.36320566e-02 -4.36349995e-02 -4.36302610e-02 -5.82985990e-02 +5.65479733e-02 +1.47215858e-01 -2.24184319e-01 -4.36329842e-02 +1.38052151e-01 -4.36341837e-02 +1.37616172e-01 -4.36366014e-02 +9.52395611e-04 +2.46934295e-02 -4.22212258e-02 +2.46283367e-01 +9.53797542e-04 +9.53900046e-04 +9.52859526e-04 +9.52236995e-04 +9.55157215e-04 +1.12405131e-02 +1.68415934e-01 +9.57923476e-04 +7.21389949e-02 -1.12571038e-01 +9.53147653e-04 +9.55233467e-04 +9.58836055e-04 +9.54106916e-04 +1.05893120e-01 -8.39320719e-02 +2.13201270e-02 +2.10304916e-01 +9.53629380e-04 +9.51996655e-04 +9.51269933e-04 -2.03677546e-02 -1.17761418e-01 -1.50422631e-02 +5.02791107e-02 -1.30155817e-01 +9.58329299e-04 +2.51965057e-02 +9.61027399e-04 +9.51591705e-04 +9.57979064e-04 +9.55169438e-04 -7.23770186e-02 -6.48365766e-02 -9.76527929e-02 +1.38650149e-01 -6.44288808e-02 -3.93405616e-01 +9.56023461e-04 +9.53924377e-04 +9.59207129e-04 +9.50744143e-04 -6.27580062e-02 +4.88869175e-02 +1.01487590e-02 -8.81477147e-02 +9.55631782e-04 +5.37472181e-02 +9.57788201e-04 -1.66284814e-01 +9.62107675e-04 +5.13851792e-02 +4.90028597e-02 +4.33182567e-02 -4.99941140e-01 +5.13853021e-02 +5.13853021e-02 +5.13851903e-02 +5.13851307e-02 +5.13854735e-02 +2.10913673e-01 +1.30698532e-01 +5.13857789e-02 +9.31978747e-02 +1.42941892e-01 +5.13852462e-02 +5.13854735e-02 +5.13858348e-02 +5.13853319e-02 +9.35590640e-02 +1.16033278e-01 +1.40197456e-01 -2.28583500e-01 +5.13852984e-02 +5.13850898e-02 +5.13850451e-02 +9.67420563e-02 +2.64241844e-02 -3.15558654e-03 +4.50235717e-02 +2.14441419e-02 +5.13857938e-02 -3.57520878e-01 +5.13861179e-02 +5.13850972e-02 +5.13857864e-02 +5.13854697e-02 +1.33031495e-02 -4.15764078e-02 +9.09151584e-02 +6.84488341e-02 +1.52026579e-01 +5.41219600e-02 +5.13855740e-02 +5.13853244e-02 +5.13859279e-02 +5.13849817e-02 -3.78723592e-02 -5.35461754e-02 +7.68222213e-02 -6.13342971e-02 +5.13855107e-02 -3.70116606e-02 +5.13857491e-02 +1.90805756e-02 +5.13862111e-02 +1.84665546e-02 +3.59458439e-02 -2.58883624e-03 -3.07112515e-01 +1.84665360e-02 +1.84665211e-02 +1.84665248e-02 +1.84665602e-02 +1.84664950e-02 -1.05680078e-01 -2.66126662e-01 +1.84664987e-02 -1.48890289e-02 +1.53981239e-01 +1.84665453e-02 +1.84665043e-02 +1.84664689e-02 +1.84665173e-02 -1.34063046e-02 -1.89791888e-01 +1.59149319e-01 +6.11800589e-02 +1.84665192e-02 +1.84665471e-02 +1.84665471e-02 +1.06796727e-01 +1.33671373e-01 +1.88042253e-01 -1.49080589e-01 +2.33388296e-03 +1.84664950e-02 -2.04292238e-01 +1.84664987e-02 +1.84665732e-02 +1.84664987e-02 +1.84665006e-02 -1.19262479e-01 +1.06742546e-01 -1.01670720e-01 +2.20871955e-01 +2.54388690e-01 +1.27273723e-01 +1.84665173e-02 +1.84665173e-02 +1.84664875e-02 +1.84665304e-02 +1.86482817e-01 +1.55628115e-01 -2.88449135e-02 -9.22682229e-03 +1.84665117e-02 -8.03671181e-02 +1.84664894e-02 +4.30149995e-02 +1.84664540e-02 +2.38718912e-02 +1.16209239e-01 -1.15039842e-02 -1.47677928e-01 +2.38721129e-02 +2.38721408e-02 +2.38719452e-02 +2.38718707e-02 +2.38723252e-02 -4.65627722e-02 +2.98077315e-01 +2.38727983e-02 -3.68002579e-02 +2.64987610e-02 +2.38720048e-02 +2.38723382e-02 +2.38729399e-02 +2.38721706e-02 +1.63609177e-01 -1.62574470e-01 +3.27314250e-02 -1.04884498e-01 +2.38720849e-02 +2.38718279e-02 +2.38717292e-02 +1.59014255e-01 +1.46349880e-03 +4.26432043e-02 +1.23443604e-02 -6.82161376e-02 +2.38728877e-02 +7.28842169e-02 +2.38732975e-02 +2.38717459e-02 +2.38728095e-02 +2.38723326e-02 +7.03217834e-03 +3.25830188e-03 -9.45722312e-02 -1.28722966e-01 -2.47931972e-01 +3.53822142e-01 +2.38724705e-02 +2.38721501e-02 +2.38730144e-02 +2.38716006e-02 -5.82055524e-02 +6.41299188e-02 +3.95284267e-03 +8.12176466e-02 +2.38723904e-02 -6.58667982e-02 +2.38727890e-02 +4.39854860e-02 +2.38734968e-02 -4.77043800e-02 -4.58819531e-02 -5.45316413e-02 -4.61155884e-02 -4.77041528e-02 -4.77041416e-02 -4.77043316e-02 -4.77044098e-02 -4.77039814e-02 -7.83497244e-02 +2.28684872e-01 -4.77035195e-02 +2.23793939e-01 -2.50469059e-01 -4.77042682e-02 -4.77039628e-02 -4.77033667e-02 -4.77041341e-02 +3.31811025e-03 +2.75257200e-01 -4.13929410e-02 +9.83082410e-03 -4.77041937e-02 -4.77044694e-02 -4.77045961e-02 -1.91593677e-01 -6.73016608e-02 +7.48395249e-02 +1.51880711e-01 +8.38314090e-03 -4.77034412e-02 +1.76309720e-01 -4.77030054e-02 -4.77045365e-02 -4.77035157e-02 -4.77039963e-02 -3.65211032e-02 -4.95204069e-02 +1.21220089e-01 +2.13565350e-01 -1.49876401e-01 -3.41310620e-01 -4.77038175e-02 -4.77041490e-02 -4.77033220e-02 -4.77046482e-02 -7.56286532e-02 -2.54455715e-01 -1.02467775e-01 +2.85601616e-01 -4.77038696e-02 +2.05941629e-02 -4.77035381e-02 +2.00086102e-01 -4.77028415e-02 -8.24605767e-03 -6.28746524e-02 -3.59705873e-02 +3.15494627e-01 -8.24596174e-03 -8.24588444e-03 -8.24602973e-03 -8.24601576e-03 -8.24572798e-03 +9.82094184e-02 -2.61279613e-01 -8.24577268e-03 -1.15873940e-01 +4.40775082e-02 -8.24596081e-03 -8.24566465e-03 -8.24568421e-03 -8.24604370e-03 +1.30985349e-01 +9.13065597e-02 +1.72554590e-02 -1.95280276e-02 -8.24595056e-03 -8.24600738e-03 -8.24617408e-03 +8.64536166e-02 +6.11496456e-02 -7.16580972e-02 -1.36770502e-01 -5.19486703e-02 -8.24578293e-03 -1.61222011e-01 -8.24542716e-03 -8.24601576e-03 -8.24579038e-03 -8.24567955e-03 +6.00376874e-02 +1.63758278e-01 +8.15654993e-02 +3.03722788e-02 -1.18491817e-02 -4.92191494e-01 -8.24554730e-03 -8.24600831e-03 -8.24581180e-03 -8.24628118e-03 -2.61964165e-02 +5.12290560e-02 -3.57360928e-03 -1.18121877e-01 -8.24557990e-03 +7.41066188e-02 -8.24578665e-03 +6.80473521e-02 -8.24539457e-03 +9.89177004e-02 +2.34845467e-02 +7.03679174e-02 +2.30396152e-01 +9.89192650e-02 +9.89193469e-02 +9.89182070e-02 +9.89175066e-02 +9.89207178e-02 +1.37232035e-01 -1.39426827e-01 +9.89238843e-02 +8.68972167e-02 +6.17061649e-03 +9.89185274e-02 +9.89208072e-02 +9.89248827e-02 +9.89195779e-02 -4.84730378e-02 -4.36859876e-02 +1.75900254e-02 +2.03258201e-01 +9.89190489e-02 +9.89172459e-02 +9.89164487e-02 +1.51685923e-01 +1.70142740e-01 +3.75704691e-02 -1.49957910e-01 +6.38469383e-02 +9.89243537e-02 +3.55447619e-03 +9.89272669e-02 +9.89168063e-02 +9.89239588e-02 +9.89207402e-02 -1.88369811e-01 +1.01425074e-01 +1.26610592e-01 -3.72438550e-01 -9.03058946e-02 -1.99254721e-01 +9.89216343e-02 +9.89193916e-02 +9.89252999e-02 +9.89158973e-02 -6.65901229e-02 -1.34131968e-01 +5.45951426e-02 +1.14868553e-02 +9.89212915e-02 +2.48451736e-02 +9.89237204e-02 +1.13267265e-01 +9.89284590e-02 -3.36159877e-02 -1.90937286e-03 +1.09572886e-02 -2.17600733e-01 -3.36163826e-02 -3.36164311e-02 -3.36161107e-02 -3.36159468e-02 -3.36167961e-02 +4.27413918e-02 +7.70371035e-03 -3.36176157e-02 -5.67198247e-02 -4.18462276e-01 -3.36161889e-02 -3.36168334e-02 -3.36178802e-02 -3.36164683e-02 +7.33454004e-02 -4.64332886e-02 +4.46300916e-02 +2.57779717e-01 -3.36163156e-02 -3.36158574e-02 -3.36156525e-02 +6.22212254e-02 +3.98878120e-02 -5.12857661e-02 -6.77775890e-02 +6.83895200e-02 -3.36177386e-02 +1.14419438e-01 -3.36185172e-02 -3.36157531e-02 -3.36176567e-02 -3.36168036e-02 -4.11926880e-02 -3.69792506e-02 -3.23452801e-02 -4.48634848e-02 +8.33715796e-02 +3.63611221e-01 -3.36170681e-02 -3.36164199e-02 -3.36179808e-02 -3.36154550e-02 +9.42325518e-02 +9.80380923e-02 -1.11499645e-01 +8.94898474e-02 -3.36169414e-02 +1.50376819e-02 -3.36175784e-02 -4.64131087e-02 -3.36188860e-02 -6.19618862e-04 +2.70830244e-02 +1.12444786e-02 +2.20437676e-01 -6.20224921e-04 -6.20269275e-04 -6.19809027e-04 -6.19552738e-04 -6.20797975e-04 -4.91307415e-02 -1.85752690e-01 -6.21999905e-04 +8.70141834e-02 +2.22871423e-01 -6.19929400e-04 -6.20846171e-04 -6.22389023e-04 -6.20359089e-04 +2.83781379e-01 +2.86453357e-03 -8.39958433e-03 -2.55658291e-03 -6.20131963e-04 -6.19449012e-04 -6.19136845e-04 +7.03674480e-02 -1.36589194e-02 -2.01299697e-01 +1.52286366e-01 -7.64145702e-02 -6.22174761e-04 -5.09473030e-03 -6.23335014e-04 -6.19267754e-04 -6.22031162e-04 -6.20805600e-04 -3.31708401e-01 -3.88693735e-02 -2.95053385e-02 -1.70354813e-01 +1.79414049e-01 -8.27607438e-02 -6.21177896e-04 -6.20276958e-04 -6.22567604e-04 -6.18894992e-04 -3.49125326e-01 -9.45589691e-03 -6.37425557e-02 +1.21485651e-01 -6.21014740e-04 +1.19554892e-01 -6.21936982e-04 +1.77124366e-01 -6.23808184e-04 +9.48617458e-02 +8.40868354e-02 +2.55964044e-02 +1.40784398e-01 +9.48620141e-02 +9.48620513e-02 +9.48618352e-02 +9.48616937e-02 +9.48622972e-02 -1.69044305e-02 -9.63709578e-02 +9.48627740e-02 -4.91472706e-02 +9.41333622e-02 +9.48618948e-02 +9.48622674e-02 +9.48629677e-02 +9.48620811e-02 -4.18095337e-03 -5.11042960e-02 -5.82245062e-04 +5.22000305e-02 +9.48619843e-02 +9.48616862e-02 +9.48615670e-02 +4.71367724e-02 +7.75488690e-02 +1.05348803e-01 +8.08068514e-02 +3.26039433e-01 +9.48628709e-02 -9.68411192e-02 +9.48633552e-02 +9.48616043e-02 +9.48627740e-02 +9.48622897e-02 +5.28336428e-02 +1.44398019e-01 -3.95065069e-01 +2.41960317e-01 +1.09438293e-01 -2.80511051e-01 +9.48624313e-02 +9.48620439e-02 +9.48630869e-02 +9.48614776e-02 +2.03420557e-02 -1.16441898e-01 +2.70223409e-01 +2.10176915e-01 +9.48623568e-02 +1.90934286e-01 +9.48627815e-02 -5.50691076e-02 +9.48635936e-02 +9.52996127e-03 +4.45755497e-02 -1.04739508e-02 +4.53626625e-02 +9.52952728e-03 +9.52948350e-03 +9.52983089e-03 +9.53002274e-03 +9.52909794e-03 +1.72480643e-01 +2.01965094e-01 +9.52821318e-03 -1.01894304e-01 +1.17148973e-01 +9.52974707e-03 +9.52907000e-03 +9.52793378e-03 +9.52944253e-03 -1.09994642e-01 -1.14419915e-01 -4.10656035e-02 -6.29661558e-03 +9.52958688e-03 +9.53011960e-03 +9.53032821e-03 +1.06002688e-01 -4.96091768e-02 -4.86475602e-02 +1.36966571e-01 +1.97864980e-01 +9.52809211e-03 -3.19103271e-01 +9.52723157e-03 +9.53023974e-03 +9.52820014e-03 +9.52908769e-03 +2.50158966e-01 +2.04885732e-02 -3.78468148e-02 -2.30250478e-01 +7.87832439e-02 -1.73105329e-01 +9.52882133e-03 +9.52948071e-03 +9.52781644e-03 +9.53048188e-03 -1.28810227e-01 +2.14214697e-02 -3.85401547e-02 -1.05090678e-01 +9.52894986e-03 +1.24940597e-01 +9.52827279e-03 +5.76635636e-02 +9.52687953e-03 -1.82797745e-01 -2.19980732e-01 -8.34904313e-02 -1.16177611e-02 -1.82797194e-01 -1.82797119e-01 -1.82797566e-01 -1.82797849e-01 -1.82796568e-01 -9.98010114e-02 +7.67319056e-04 -1.82795450e-01 -8.86402279e-03 -1.18909009e-01 -1.82797492e-01 -1.82796508e-01 -1.82795092e-01 -1.82797030e-01 -8.09972212e-02 -1.45454377e-01 -1.55256525e-01 +8.59134924e-03 -1.82797238e-01 -1.82797939e-01 -1.82798162e-01 -4.00372222e-02 -1.36836782e-01 -2.23084480e-01 -1.59035102e-01 -3.17720175e-02 -1.82795241e-01 -8.43934044e-02 -1.82794303e-01 -1.82798058e-01 -1.82795420e-01 -1.82796553e-01 -8.03847983e-02 -1.31432801e-01 -1.98862508e-01 -1.01164296e-01 +1.68427086e+00 -1.09786987e-01 -1.82796165e-01 -1.82797104e-01 -1.82794914e-01 -1.82798386e-01 -1.62577093e-01 -7.79764503e-02 -1.49846375e-01 -1.37492776e-01 -1.82796329e-01 -1.83382869e-01 -1.82795495e-01 -1.99223176e-01 -1.82793930e-01 -4.38178107e-02 -8.86640046e-03 -4.26505506e-02 -1.21350184e-01 -4.38169502e-02 -4.38168980e-02 -4.38175313e-02 -4.38178889e-02 -4.38161902e-02 +6.55329302e-02 +3.12303483e-01 -4.38145362e-02 -8.08258057e-02 -1.85266938e-02 -4.38173711e-02 -4.38161343e-02 -4.38140444e-02 -4.38167527e-02 -1.80434912e-01 +8.60946178e-02 -3.89703922e-02 +2.48287275e-01 -4.38170619e-02 -4.38180193e-02 -4.38184664e-02 -1.44977868e-01 -2.56786466e-01 +3.41979205e-03 +1.23550132e-01 -8.72211084e-02 -4.38143164e-02 -8.95289853e-02 -4.38128076e-02 -4.38182801e-02 -4.38145064e-02 -4.38161865e-02 -4.94370051e-02 +9.64333043e-02 +2.53227036e-02 -2.42611185e-01 -1.79934688e-02 +2.23193631e-01 -4.38157171e-02 -4.38168682e-02 -4.38138507e-02 -4.38187607e-02 +1.63247436e-01 -1.23771869e-01 -1.91166356e-01 -4.64108698e-02 -4.38159145e-02 -1.81986224e-02 -4.38146405e-02 +5.72596863e-02 -4.38121669e-02 -5.14471754e-02 +2.26515258e-04 -1.75029431e-02 -5.29632755e-02 -5.14481775e-02 -5.14482446e-02 -5.14474474e-02 -5.14470674e-02 -5.14490865e-02 +5.22087663e-02 -1.02549240e-01 -5.14509752e-02 +4.62130457e-01 -2.50034302e-01 -5.14476523e-02 -5.14491610e-02 -5.14516197e-02 -5.14483899e-02 +1.02888517e-01 +1.41778484e-01 -1.06019385e-01 +1.15342855e-01 -5.14480397e-02 -5.14469109e-02 -5.14464006e-02 -2.70820353e-02 -3.08567047e-01 -1.28317100e-03 -2.42965929e-02 +5.11595048e-02 -5.14512807e-02 +9.46813002e-02 -5.14530949e-02 -5.14466278e-02 -5.14510274e-02 -5.14491014e-02 +1.16850495e-01 -3.20708513e-01 +2.65372675e-02 -4.85536195e-02 +7.10972697e-02 +9.11508780e-03 -5.14496453e-02 -5.14482595e-02 -5.14519028e-02 -5.14460504e-02 -3.26709270e-01 +1.91925128e-03 +1.72360390e-02 -5.91136292e-02 -5.14493994e-02 +1.76065370e-01 -5.14508896e-02 -1.53933223e-02 -5.14538735e-02 +6.62483089e-03 -1.29976906e-02 -3.91813703e-02 +2.82252938e-01 +6.62508933e-03 +6.62510376e-03 +6.62492076e-03 +6.62478665e-03 +6.62531238e-03 +6.44743741e-02 -2.41050512e-01 +6.62581017e-03 +1.22496583e-01 +1.04583949e-01 +6.62497524e-03 +6.62534218e-03 +6.62600156e-03 +6.62515033e-03 -1.21646866e-01 -7.02169165e-02 +2.98820604e-02 -2.98776686e-01 +6.62505534e-03 +6.62477268e-03 +6.62463205e-03 +2.86793597e-02 -1.42358420e-02 -6.27130643e-02 -1.37984216e-01 -6.69913068e-02 +6.62589818e-03 +4.81202118e-02 +6.62636105e-03 +6.62468793e-03 +6.62581809e-03 +6.62532169e-03 +1.26768008e-01 +3.72361504e-02 -1.37496144e-02 -1.07083067e-01 +1.43945858e-01 -5.50130531e-02 +6.62547722e-03 +6.62510935e-03 +6.62604114e-03 +6.62453193e-03 -2.64028490e-01 +7.43823964e-03 +3.22188474e-02 -1.91824123e-01 +6.62542647e-03 +6.63253292e-02 +6.62578084e-03 +8.84272158e-02 +6.62655430e-03 +2.46815886e-02 +2.48192381e-02 -2.29859129e-02 -5.92723012e-01 +2.46815290e-02 +2.46815234e-02 +2.46815756e-02 +2.46815942e-02 +2.46815234e-02 -4.35162932e-02 -3.57346572e-02 +2.46814415e-02 -5.89352995e-02 -1.94392800e-01 +2.46815700e-02 +2.46815123e-02 +2.46814303e-02 +2.46815328e-02 -6.51781932e-02 +8.74985158e-02 +6.00657016e-02 +2.38257572e-01 +2.46815290e-02 +2.46816259e-02 +2.46815998e-02 -4.58878279e-02 +7.39647355e-03 +1.41915670e-02 +1.75895199e-01 +2.73824148e-02 +2.46814378e-02 -8.20140019e-02 +2.46813782e-02 +2.46816147e-02 +2.46814433e-02 +2.46815160e-02 +3.81902717e-02 -4.18800004e-02 +6.33640662e-02 -2.22137813e-02 -1.41483799e-01 +3.18566933e-02 +2.46815085e-02 +2.46815234e-02 +2.46814042e-02 +2.46816110e-02 +2.17777286e-02 +2.07029432e-01 +3.53932604e-02 +1.38701037e-01 +2.46815234e-02 +3.07824858e-03 +2.46814564e-02 +7.17747658e-02 +2.46813726e-02 -2.56213471e-02 -1.95074063e-02 -3.41755562e-02 +3.30609709e-01 -2.56208349e-02 -2.56207939e-02 -2.56212074e-02 -2.56213956e-02 -2.56203245e-02 -2.13830143e-01 +3.43544898e-03 -2.56192498e-02 -1.10237218e-01 -2.43931599e-02 -2.56210770e-02 -2.56203040e-02 -2.56188791e-02 -2.56207176e-02 -3.77018638e-02 -2.19345957e-01 -1.69982135e-01 -1.46626025e-01 -2.56209057e-02 -2.56215315e-02 -2.56217960e-02 -1.05542680e-02 -2.00923644e-02 -3.65380794e-02 -1.31738251e-02 +6.95714056e-02 -2.56190803e-02 -1.45728514e-01 -2.56180316e-02 -2.56216768e-02 -2.56192274e-02 -2.56203171e-02 +2.23298967e-02 -2.42966134e-02 +2.98880428e-01 -8.10617432e-02 +1.18424058e-01 +1.72544837e-01 -2.56199930e-02 -2.56207827e-02 -2.56187189e-02 -2.56219897e-02 -7.44799227e-02 -1.23741493e-01 -1.24758512e-01 -3.36407386e-02 -2.56201420e-02 +1.10869549e-01 -2.56193075e-02 -5.06132841e-02 -2.56176032e-02 +8.63592774e-02 -7.09070936e-02 -3.44153732e-01 +6.64723245e-03 +8.63595456e-02 +8.63595232e-02 +8.63593519e-02 +8.63592550e-02 +8.63597840e-02 +3.57831448e-01 +3.48983556e-01 +8.63602906e-02 +2.34122053e-02 +1.59876883e-01 +8.63593817e-02 +8.63598138e-02 +8.63604248e-02 +8.63595605e-02 +9.45079476e-02 +8.30328614e-02 +2.08248640e-03 -1.07633257e-02 +8.63594934e-02 +8.63592178e-02 +8.63590539e-02 -3.42382910e-03 +5.03194258e-02 +7.75063410e-02 -3.36513110e-02 +3.75339761e-02 +8.63603950e-02 +1.87816903e-01 +8.63608047e-02 +8.63591209e-02 +8.63603055e-02 +8.63597840e-02 -7.25889727e-02 -3.35776731e-02 -3.08529288e-01 +1.16381571e-01 -2.32631657e-02 +4.54385579e-02 +8.63599628e-02 +8.63595381e-02 +8.63604844e-02 +8.63589495e-02 +8.77015293e-02 -1.11400269e-01 +1.50875166e-01 -9.11417902e-02 +8.63599405e-02 +1.35332450e-01 +8.63602534e-02 -1.13525070e-01 +8.63609761e-02 +1.83568802e-02 -2.04774388e-03 +9.46967080e-02 -8.43786672e-02 +1.83562506e-02 +1.83562022e-02 +1.83566641e-02 +1.83569528e-02 +1.83556732e-02 +8.96585062e-02 -1.09585814e-01 +1.83544680e-02 +2.62787063e-02 +2.62061715e-01 +1.83565468e-02 +1.83556266e-02 +1.83540825e-02 +1.83561239e-02 -1.25069156e-01 -1.59332007e-01 +4.90078516e-02 -1.42718107e-01 +1.83563419e-02 +1.83570590e-02 +1.83573626e-02 +1.39925435e-01 -5.25897071e-02 -1.70580670e-02 -1.18098803e-01 -7.45642409e-02 +1.83542967e-02 +1.93541020e-01 +1.83531512e-02 +1.83572210e-02 +1.83544438e-02 +1.83556601e-02 -6.25830516e-02 +8.99974108e-02 +1.07630091e-02 +1.20632090e-01 -1.53902695e-01 +9.94485915e-02 +1.83552932e-02 +1.83561780e-02 +1.83539260e-02 +1.83575843e-02 -5.81491292e-02 +3.64788592e-01 -2.55752858e-02 +9.30533782e-02 +1.83554441e-02 -1.34269685e-01 +1.83545221e-02 -8.40927139e-02 +1.83527097e-02 +8.47245529e-02 +5.74791692e-02 +7.62920752e-02 +3.19837295e-02 +8.47254843e-02 +8.47255662e-02 +8.47248659e-02 +8.47245008e-02 +8.47263932e-02 -1.12322960e-02 -1.48268968e-01 +8.47282708e-02 -5.97211383e-02 +1.43747240e-01 +8.47250447e-02 +8.47264603e-02 +8.47288892e-02 +8.47257003e-02 -4.58242059e-01 -1.71999425e-01 +1.25309125e-01 +1.11760661e-01 +8.47253576e-02 +8.47242996e-02 +8.47238675e-02 +1.79337770e-01 -1.48603737e-01 +6.16788156e-02 +3.49338278e-02 -5.16745031e-01 +8.47285390e-02 +3.07820886e-02 +8.47303420e-02 +8.47240761e-02 +8.47283006e-02 +8.47264081e-02 +2.03984424e-01 -5.91736101e-02 +1.08344303e-02 -1.81155562e-01 +2.54101723e-01 +6.83079585e-02 +8.47269520e-02 +8.47255886e-02 +8.47291350e-02 +8.47235322e-02 -3.67697448e-01 -6.51028231e-02 +2.19408438e-01 +2.19747290e-01 +8.47267285e-02 +2.04465464e-01 +8.47281516e-02 +5.04241176e-02 +8.47310647e-02 +2.75091492e-02 +9.51218084e-02 -5.79183064e-02 +3.32063287e-01 +2.75099222e-02 +2.75099836e-02 +2.75093820e-02 +2.75090579e-02 +2.75106747e-02 +1.23428963e-01 +1.31594479e-01 +2.75122467e-02 +7.79661536e-02 -2.05069393e-01 +2.75095180e-02 +2.75107399e-02 +2.75127552e-02 +2.75100954e-02 +8.51712897e-02 -5.18865995e-02 -2.66565625e-02 +1.01053037e-01 +2.75097992e-02 +2.75089107e-02 +2.75085084e-02 -1.46629792e-02 +5.91354184e-02 +2.18735665e-01 +1.02272600e-01 +7.46646598e-02 +2.75125057e-02 -2.51298875e-01 +2.75140125e-02 +2.75086891e-02 +2.75122914e-02 +2.75106914e-02 +3.19459923e-02 +8.93157423e-02 +1.57222837e-01 -4.76714931e-02 +9.23083052e-02 +1.35732606e-01 +2.75111776e-02 +2.75100116e-02 +2.75129806e-02 +2.75082253e-02 -1.44231617e-01 -1.75436258e-01 +1.18373215e-01 +4.84504811e-02 +2.75109559e-02 +8.39418620e-02 +2.75121816e-02 -6.15594769e-03 +2.75145881e-02 -3.61450054e-02 -2.92697735e-02 -2.53733009e-01 +8.75300840e-02 -3.61445546e-02 -3.61445174e-02 -3.61448564e-02 -3.61450724e-02 -3.61441188e-02 +3.69490944e-02 +6.35439157e-02 -3.61431241e-02 -1.44453362e-01 -1.01668358e-01 -3.61447446e-02 -3.61440927e-02 -3.61428149e-02 -3.61444429e-02 +9.44447741e-02 +6.94787055e-02 -6.73108622e-02 -5.60798123e-03 -3.61446105e-02 -3.61451730e-02 -3.61454114e-02 +1.10130711e-02 +9.64901820e-02 +3.45184743e-01 -1.41358310e-02 +2.23152801e-01 -3.61429565e-02 -1.73949018e-01 -3.61420512e-02 -3.61453146e-02 -3.61431018e-02 -3.61441188e-02 +8.84968340e-02 +2.15310627e-03 +1.62097644e-02 -9.05909948e-03 +1.44295022e-02 +1.75631166e-01 -3.61438282e-02 -3.61445025e-02 -3.61426957e-02 -3.61455828e-02 -1.56083405e-01 +9.43199620e-02 +6.36777952e-02 +6.87708557e-02 -3.61439623e-02 +7.58769214e-02 -3.61431800e-02 -4.96840710e-03 -3.61417048e-02 -2.63767615e-02 -2.87312306e-02 -1.70200720e-01 +1.55126601e-01 -2.63763946e-02 -2.63763703e-02 -2.63766591e-02 -2.63768043e-02 -2.63760872e-02 -2.71528587e-03 +4.49430617e-03 -2.63753738e-02 -8.21875583e-04 -4.58945557e-02 -2.63765845e-02 -2.63760556e-02 -2.63751913e-02 -2.63763126e-02 -2.54581850e-02 +7.37847984e-02 +1.25154123e-01 -6.92339092e-02 -2.63764467e-02 -2.63768751e-02 -2.63770390e-02 -9.01501700e-02 -1.40957832e-01 +7.77851231e-03 -3.17382902e-01 +1.18236065e-01 -2.63752900e-02 -1.40265852e-01 -2.63746548e-02 -2.63769850e-02 -2.63753589e-02 -2.63760779e-02 +8.43700647e-01 +2.23022085e-02 +5.76138869e-02 -3.60483080e-02 +4.71837781e-02 -2.17096776e-01 -2.63758656e-02 -2.63763592e-02 -2.63750665e-02 -2.63771582e-02 -7.79520944e-02 -5.69047369e-02 +8.91410261e-02 +3.01800549e-01 -2.63759810e-02 +1.58769682e-01 -2.63754129e-02 +2.11213231e-01 -2.63743736e-02 +6.41139299e-02 +1.83746312e-02 +1.37433052e-01 -4.23059940e-01 +6.41142875e-02 +6.41143098e-02 +6.41140640e-02 +6.41138703e-02 +6.41147122e-02 -4.70262878e-02 +1.62201628e-01 +6.41153976e-02 +9.51518044e-02 +1.30418584e-01 +6.41141236e-02 +6.41147345e-02 +6.41157031e-02 +6.41144067e-02 +3.94722000e-02 -1.28891114e-02 -8.76658335e-02 +7.81758428e-02 +6.41142279e-02 +6.41138479e-02 +6.41136244e-02 +1.33725643e-01 +3.65319327e-02 -3.05568986e-02 +6.62142932e-02 +8.03021044e-02 +6.41155541e-02 +9.67798308e-02 +6.41162768e-02 +6.41137213e-02 +6.41154274e-02 +6.41147122e-02 +1.30453661e-01 +1.35265589e-01 +3.78397033e-02 +3.75767015e-02 -3.42486292e-01 -2.88663153e-02 +6.41149506e-02 +6.41143173e-02 +6.41158074e-02 +6.41134754e-02 +7.19370618e-02 +8.45458657e-02 +1.65316150e-01 +1.40503138e-01 +6.41148388e-02 +4.52156505e-03 +6.41153976e-02 +6.82271793e-02 +6.41165599e-02 +1.33830300e-02 -5.75992803e-04 -1.25653878e-01 +1.18881270e-01 +1.33840591e-02 +1.33841345e-02 +1.33833596e-02 +1.33829052e-02 +1.33850742e-02 +8.87924284e-02 +5.07071391e-02 +1.33871175e-02 -8.73266235e-02 +3.08578223e-01 +1.33835748e-02 +1.33851338e-02 +1.33877620e-02 +1.33842994e-02 -1.50212040e-03 -2.74207816e-02 -3.63737307e-02 -3.96512657e-01 +1.33839222e-02 +1.33827170e-02 +1.33821936e-02 -3.50132249e-02 +2.21194401e-01 -5.10228463e-02 -4.10228819e-02 -9.90156233e-02 +1.33874193e-02 -7.45864585e-04 +1.33893955e-02 +1.33824041e-02 +1.33871771e-02 +1.33850873e-02 -9.18328166e-02 -8.04039557e-03 -6.55754134e-02 +1.57870546e-01 +2.42767319e-01 +3.43439393e-02 +1.33856898e-02 +1.33841671e-02 +1.33880563e-02 +1.33818127e-02 -8.83212462e-02 +2.34362613e-02 +2.88405996e-02 -3.39986309e-02 +1.33854095e-02 +1.84157630e-03 +1.33870002e-02 -3.43461931e-02 +1.33901723e-02 +5.98151274e-02 +8.29835460e-02 +3.76328230e-02 +7.42699802e-02 +5.98162636e-02 +5.98163456e-02 +5.98155186e-02 +5.98150082e-02 +5.98172881e-02 +1.78625062e-01 -1.25465780e-01 +5.98194636e-02 -9.36071426e-02 +1.52002528e-01 +5.98157309e-02 +5.98173551e-02 +5.98201305e-02 +5.98164722e-02 -6.10185936e-02 -2.17464775e-01 +1.67962331e-02 -3.27967316e-01 +5.98161146e-02 +5.98148294e-02 +5.98142631e-02 +8.15800130e-02 -1.10537522e-02 +2.86206044e-03 -7.57811889e-02 +7.75068775e-02 +5.98197952e-02 -8.33349489e-03 +5.98218776e-02 +5.98144941e-02 +5.98195232e-02 +5.98173030e-02 +3.00119132e-01 -3.10599804e-02 -2.15263069e-01 +2.33490378e-01 -4.59112879e-03 +6.37852550e-02 +5.98179400e-02 +5.98163642e-02 +5.98204695e-02 +5.98138459e-02 -2.33460978e-01 +7.64320865e-02 -2.02465244e-02 +3.68793339e-01 +5.98176569e-02 +2.97767334e-02 +5.98193668e-02 -7.40649104e-02 +5.98227270e-02 +4.05976502e-03 +8.95629376e-02 +1.95554197e-02 +1.18107051e-01 +4.05974966e-03 +4.05976130e-03 +4.05976409e-03 +4.05977247e-03 +4.05976875e-03 -6.59642741e-02 +2.52935380e-01 +4.05976688e-03 -6.36935383e-02 +1.24773286e-01 +4.05975804e-03 +4.05976875e-03 +4.05976735e-03 +4.05976688e-03 +2.60714322e-01 -2.29033604e-01 +1.87050670e-01 +3.90279922e-03 +4.05975152e-03 +4.05976968e-03 +4.05977620e-03 +1.15563430e-01 -3.67097519e-02 +1.71992898e-01 +4.58811037e-02 +1.76655293e-01 +4.05975990e-03 -2.36732829e-02 +4.05975012e-03 +4.05979902e-03 +4.05976782e-03 +4.05977340e-03 -1.08627625e-01 +5.25617078e-02 -2.76360661e-01 -4.55636755e-02 -2.32317895e-01 -2.75430351e-01 +4.05976409e-03 +4.05975571e-03 +4.05975524e-03 +4.05979017e-03 -1.84914067e-01 +2.84408718e-01 -8.99187699e-02 +3.17395367e-02 +4.05976456e-03 +6.31360337e-02 +4.05976409e-03 +7.67608136e-02 +4.05973149e-03 -1.41430311e-02 -1.82408616e-02 -4.87164361e-03 -1.80826649e-01 -1.41418958e-02 -1.41418166e-02 -1.41426651e-02 -1.41431578e-02 -1.41407978e-02 +2.06097573e-01 -1.29440781e-02 -1.41385943e-02 +2.07474053e-01 +2.61793703e-01 -1.41424369e-02 -1.41407289e-02 -1.41378650e-02 -1.41416397e-02 -1.72769517e-01 +9.23895389e-02 -9.49429795e-02 -1.93649545e-01 -1.41420579e-02 -1.41433384e-02 -1.41439158e-02 +4.41843038e-03 +3.07275858e-02 -1.71553954e-01 -3.15985709e-01 -4.88556102e-02 -1.41382450e-02 -1.99083403e-01 -1.41361179e-02 -1.41436737e-02 -1.41385421e-02 -1.41407819e-02 -1.60241574e-01 -2.13414878e-01 +6.14981093e-02 -1.40391335e-01 -3.58838588e-02 +4.46171239e-02 -1.41401263e-02 -1.41417785e-02 -1.41375642e-02 -1.41443443e-02 -7.89184647e-04 +3.61799747e-01 -7.82647729e-02 +2.10818976e-01 -1.41404169e-02 +1.65673211e-01 -1.41386930e-02 +1.28963798e-01 -1.41352294e-02 +1.29388869e-02 +7.69150769e-03 -2.58128047e-02 +9.42864120e-02 +1.29390107e-02 +1.29390173e-02 +1.29389334e-02 +1.29388804e-02 +1.29391262e-02 +1.06612213e-01 +1.11251734e-01 +1.29394410e-02 -3.42745066e-01 -3.66137959e-02 +1.29389539e-02 +1.29391393e-02 +1.29395239e-02 +1.29390331e-02 -3.58939201e-01 -2.45783970e-01 -3.76933962e-02 +2.77050883e-01 +1.29390033e-02 +1.29388375e-02 +1.29387649e-02 +1.62281729e-02 -1.93642870e-01 +1.42064899e-01 -2.95767491e-03 -5.63262738e-02 +1.29394839e-02 +3.53610143e-02 +1.29397428e-02 +1.29388059e-02 +1.29394457e-02 +1.29391355e-02 +1.17576070e-01 +6.99526221e-02 +3.11288575e-04 -6.12886585e-02 +8.56560767e-02 -1.02858227e-02 +1.29392175e-02 +1.29390145e-02 +1.29395556e-02 +1.29387286e-02 -5.68933114e-02 +9.02144238e-02 -5.57921454e-02 -8.95125940e-02 +1.29391858e-02 +1.07677601e-01 +1.29394308e-02 +3.20820138e-02 +1.29398480e-02 +7.54711255e-02 +3.15295383e-02 -1.97546557e-02 +2.69541144e-01 +7.54709169e-02 +7.54709020e-02 +7.54710883e-02 +7.54711404e-02 +7.54706785e-02 -2.90427748e-02 -2.95992583e-01 +7.54702762e-02 +5.40154539e-02 +1.97633896e-02 +7.54710585e-02 +7.54706636e-02 +7.54701793e-02 +7.54708499e-02 +1.01653799e-01 -4.69358079e-02 +5.74904419e-02 -3.14961225e-01 +7.54709095e-02 +7.54711255e-02 +7.54712746e-02 +6.54954165e-02 +8.63897130e-02 +9.95886400e-02 +2.36457139e-02 +4.94007282e-02 +7.54702017e-02 -1.12464130e-01 +7.54699409e-02 +7.54712299e-02 +7.54702613e-02 +7.54706785e-02 +7.89179131e-02 +1.15709426e-02 +1.54337898e-01 -1.24109901e-01 +1.60467491e-01 -1.23774193e-01 +7.54705220e-02 +7.54708871e-02 +7.54701495e-02 +7.54712895e-02 +4.29110751e-02 +6.00402020e-02 +4.24371272e-01 +7.22724274e-02 +7.54705817e-02 +1.11338057e-01 +7.54702985e-02 +1.74502544e-02 +7.54697472e-02 -7.67003819e-02 -6.29749373e-02 -5.94646484e-02 +4.94686104e-02 -7.67010450e-02 -7.67010748e-02 -7.67005831e-02 -7.67002851e-02 -7.67016187e-02 +7.26060346e-02 -1.14414781e-01 -7.67030716e-02 -2.12937132e-01 -1.35855004e-02 -7.67007023e-02 -7.67017081e-02 -7.67034888e-02 -7.67011642e-02 +2.57090658e-01 -2.54405469e-01 +6.38930619e-01 -1.03564695e-01 -7.67009705e-02 -7.67001137e-02 -7.66996965e-02 +1.64721400e-01 -3.66854191e-01 +9.13488716e-02 -9.99324471e-02 -1.78088307e-01 -7.67032951e-02 +1.76673770e-01 -7.67045915e-02 -7.66998827e-02 -7.67031163e-02 -7.67016411e-02 -2.06255108e-01 -2.43279248e-01 +9.51429307e-02 -1.46505296e-01 -1.33821964e-01 +1.73938572e-01 -7.67020807e-02 -7.67010897e-02 -7.67036602e-02 -7.66994506e-02 +5.47651649e-02 +2.21866127e-02 +1.00915097e-02 +1.19171865e-01 -7.67018944e-02 +7.36684129e-02 -7.67030045e-02 +5.49971946e-02 -7.67050683e-02 +4.70359847e-02 -6.57434342e-03 +5.74272797e-02 +5.20618595e-02 +4.70365025e-02 +4.70365435e-02 +4.70361412e-02 +4.70359363e-02 +4.70370203e-02 +4.64480519e-02 -2.26060525e-01 +4.70380485e-02 +1.34432778e-01 +2.98262596e-01 +4.70362343e-02 +4.70370501e-02 +4.70383428e-02 +4.70366254e-02 +2.85060197e-01 -1.62658945e-01 -1.14671037e-01 -6.99224398e-02 +4.70364280e-02 +4.70358394e-02 +4.70355973e-02 +4.11938224e-03 +3.34949680e-02 -2.12684413e-03 +8.87870714e-02 -1.26037464e-01 +4.70382199e-02 -1.50726244e-01 +4.70391400e-02 +4.70357165e-02 +4.70380783e-02 +4.70370390e-02 +4.80484916e-03 +3.95878017e-01 -2.12525278e-02 -5.37263304e-02 -1.33628815e-01 -1.30656704e-01 +4.70373333e-02 +4.70365584e-02 +4.70385253e-02 +4.70354334e-02 -5.67364059e-02 -8.08913112e-02 +9.60869491e-02 +2.74297856e-02 +4.70371917e-02 +4.45676483e-02 +4.70380150e-02 +1.29127845e-01 +4.70395647e-02 +8.69618915e-03 -9.76774003e-03 -1.17879264e-01 +1.57950312e-01 +8.69690813e-03 +8.69696587e-03 +8.69641546e-03 +8.69611744e-03 +8.69761501e-03 -5.66264018e-02 -1.85657725e-01 +8.69905856e-03 -2.38273457e-01 +5.01453936e-01 +8.69654585e-03 +8.69766064e-03 +8.69953819e-03 +8.69705249e-03 -1.42156303e-01 -3.35853636e-01 -8.79473686e-02 +3.43035400e-01 +8.69680941e-03 +8.69597867e-03 +8.69558379e-03 -1.49288967e-01 -1.61082476e-01 +1.00656189e-01 -9.86941680e-02 +9.10271183e-02 +8.69928766e-03 -6.97184876e-02 +8.70069303e-03 +8.69574118e-03 +8.69909860e-03 +8.69761873e-03 -1.53549731e-01 -1.28226921e-01 +7.58761093e-02 -1.24639533e-01 -1.29905745e-01 +8.60067159e-02 +8.69804621e-03 +8.69699102e-03 +8.69974121e-03 +8.69531557e-03 -1.12954199e-01 +3.48032266e-02 +2.28980705e-02 -6.45799637e-02 +8.69786926e-03 +4.17213850e-02 +8.69898964e-03 +7.64063969e-02 +8.70126300e-03 +3.21498094e-03 -6.11137487e-02 +8.20897520e-04 -1.88201621e-01 +3.21560632e-03 +3.21565592e-03 +3.21518164e-03 +3.21491156e-03 +3.21619469e-03 -9.59659144e-02 -1.59778893e-02 +3.21742939e-03 -2.24054046e-02 +1.85696483e-01 +3.21529713e-03 +3.21623147e-03 +3.21782171e-03 +3.21573345e-03 -1.76139250e-02 -1.25535131e-01 +3.05599235e-02 +2.22375527e-01 +3.21552111e-03 +3.21479980e-03 +3.21447430e-03 -2.25234516e-02 +3.84389497e-02 +5.25968894e-02 +2.25599483e-02 +5.11278696e-02 +3.21760844e-03 +7.32032880e-02 +3.21879634e-03 +3.21462145e-03 +3.21745290e-03 +3.21620353e-03 +1.41917974e-01 -8.20606500e-02 -4.14569587e-01 +2.82712728e-01 -1.24199837e-01 -1.96262375e-01 +3.21657304e-03 +3.21566616e-03 +3.21800029e-03 +3.21424683e-03 +4.17643674e-02 +1.35255605e-01 -2.87179220e-02 -8.56839567e-02 +3.21640796e-03 -1.21443823e-01 +3.21737025e-03 +8.28843787e-02 +3.21926456e-03 +7.65081346e-02 +4.04357500e-02 +1.63747847e-01 -2.70223886e-01 +7.65086412e-02 +7.65086785e-02 +7.65082687e-02 +7.65080824e-02 +7.65090659e-02 -1.89522877e-02 +1.28347889e-01 +7.65100792e-02 +6.30350411e-02 +1.35363832e-01 +7.65083954e-02 +7.65091255e-02 +7.65104145e-02 +7.65087232e-02 +2.31505428e-02 +1.35390162e-01 +2.45024427e-03 -1.55432358e-01 +7.65085742e-02 +7.65079930e-02 +7.65077546e-02 +1.43612295e-01 +1.69568006e-02 +1.33354411e-01 +3.52565236e-02 -1.62423570e-02 +7.65102506e-02 -2.52971977e-01 +7.65110999e-02 +7.65078515e-02 +7.65101165e-02 +7.65090957e-02 +8.48567188e-02 +1.34519204e-01 +5.35521917e-02 -1.42560467e-01 +1.28649044e-05 -5.33536728e-03 +7.65093938e-02 +7.65086859e-02 +7.65105188e-02 +7.65075386e-02 +6.20927028e-02 +8.14303383e-03 +1.24393053e-01 +7.64625818e-02 +7.65092969e-02 +1.35090843e-01 +7.65100420e-02 +2.97376484e-01 +7.65114948e-02 -4.34442684e-02 +2.88796835e-02 -9.01662707e-02 +1.21017799e-01 -4.34452184e-02 -4.34452929e-02 -4.34445627e-02 -4.34441455e-02 -4.34461348e-02 -5.24833016e-02 -1.07480966e-01 -4.34480272e-02 -8.79867449e-02 +6.09717593e-02 -4.34447676e-02 -4.34461907e-02 -4.34486717e-02 -4.34454158e-02 -2.82133743e-02 +5.94456214e-03 +8.18154931e-01 +4.75375019e-02 -4.34450954e-02 -4.34439518e-02 -4.34434749e-02 -2.62651294e-02 -5.55712618e-02 -7.73280114e-02 +7.65937716e-02 +4.28230837e-02 -4.34483290e-02 -1.67796940e-01 -4.34501395e-02 -4.34436835e-02 -4.34480608e-02 -4.34461497e-02 -5.94272092e-02 -1.17425427e-01 +2.40099087e-01 +1.06613571e-02 -3.32621932e-02 -3.34138982e-02 -4.34466936e-02 -4.34453115e-02 -4.34489734e-02 -4.34431285e-02 +9.93005112e-02 -2.34737457e-03 +9.04334709e-02 -2.54201561e-01 -4.34464701e-02 -6.27037659e-02 -4.34479229e-02 -4.10841554e-02 -4.34509106e-02 -8.02260041e-02 +9.60991997e-03 -8.25766772e-02 +1.24540150e-01 -8.02256763e-02 -8.02256539e-02 -8.02258849e-02 -8.02260414e-02 -8.02253634e-02 -1.98304012e-01 -5.23805544e-02 -8.02247599e-02 -5.20630914e-04 -1.87136352e-01 -8.02258402e-02 -8.02253261e-02 -8.02245513e-02 -8.02256018e-02 -2.67623626e-02 +6.90915138e-02 +3.71917009e-01 +1.87419936e-01 -8.02257061e-02 -8.02260712e-02 -8.02262649e-02 +8.91019106e-02 -6.03547087e-04 -1.18183360e-01 +1.00946918e-01 -1.90254617e-02 -8.02246556e-02 -1.31316409e-01 -8.02240297e-02 -8.02261680e-02 -8.02247450e-02 -8.02253559e-02 -1.18955337e-01 -3.65876630e-02 -1.03883080e-01 +2.19484977e-03 +1.30431727e-01 -3.73675786e-02 -8.02251920e-02 -8.02256465e-02 -8.02244693e-02 -8.02263916e-02 +4.13945764e-02 +1.25982970e-01 -2.80057220e-03 +1.40378810e-02 -8.02252516e-02 -3.92771140e-02 -8.02247822e-02 +1.08933961e-02 -8.02237689e-02 +4.32727626e-03 +4.20828834e-02 +4.02772613e-02 -4.78714053e-03 +4.32821084e-03 +4.32828628e-03 +4.32757521e-03 +4.32715984e-03 +4.32913145e-03 +1.35803640e-01 +9.09809321e-02 +4.33099503e-03 -1.61951199e-01 +3.29611778e-01 +4.32776008e-03 +4.32919804e-03 +4.33161249e-03 +4.32841294e-03 -1.34817198e-01 -2.61794962e-02 +8.39787200e-02 +8.44089389e-02 +4.32808697e-03 +4.32697777e-03 +4.32649069e-03 -4.77634929e-02 -2.09448516e-01 -3.95798236e-02 -1.76062986e-01 -8.33052173e-02 +4.33128141e-03 +1.56534344e-01 +4.33309004e-03 +4.32668580e-03 +4.33103647e-03 +4.32914495e-03 -5.95484562e-02 +3.94097418e-02 +3.20677040e-03 -6.83582500e-02 -7.15356367e-03 +1.61476918e-02 +4.32970421e-03 +4.32831189e-03 +4.33188770e-03 +4.32614377e-03 -1.28713787e-01 -3.55800420e-01 -1.55050391e-02 -1.65238515e-01 +4.32945788e-03 +5.34985140e-02 +4.33091028e-03 +6.11752234e-02 +4.33382997e-03 +7.63431042e-02 +9.37409997e-02 +6.81197941e-02 -5.08339442e-02 +7.63425454e-02 +7.63425007e-02 +7.63429180e-02 +7.63431489e-02 +7.63420165e-02 +2.34405339e-01 +1.75713003e-01 +7.63410479e-02 +1.86741669e-02 +1.10716388e-01 +7.63428435e-02 +7.63419867e-02 +7.63406903e-02 +7.63424262e-02 -2.23724812e-01 -2.87337485e-03 +4.87310030e-02 -3.90477359e-01 +7.63426572e-02 +7.63432607e-02 +7.63434768e-02 +9.10567567e-02 +1.55036882e-01 +1.83511689e-01 +8.83309394e-02 +8.20539426e-03 +7.63408840e-02 -3.70906562e-01 +7.63399154e-02 +7.63434023e-02 +7.63410106e-02 +7.63420165e-02 +2.12803423e-01 +8.76733754e-03 -2.55921185e-01 +3.86702865e-02 -1.05548576e-02 -9.42813829e-02 +7.63416961e-02 +7.63424635e-02 +7.63405412e-02 +7.63436481e-02 -1.04136035e-01 -1.16407610e-02 +2.24528402e-01 +2.80118018e-01 +7.63418376e-02 +1.30481839e-01 +7.63410628e-02 +1.52554482e-01 +7.63394907e-02 -1.61222760e-02 -3.20745967e-02 -5.96852694e-03 +6.27245903e-02 -1.61220524e-02 -1.61220264e-02 -1.61222033e-02 -1.61222834e-02 -1.61218457e-02 +1.29417300e-01 -6.20243475e-02 -1.61213446e-02 +1.08488813e-01 +1.91333443e-02 -1.61221568e-02 -1.61218289e-02 -1.61211956e-02 -1.61220152e-02 -3.06330733e-02 -4.60324883e-02 +1.83098346e-01 +1.19126253e-01 -1.61220767e-02 -1.61223486e-02 -1.61224455e-02 +1.01600857e-02 -4.90030646e-02 +7.32741877e-02 -7.25558251e-02 +1.05735801e-01 -1.61212645e-02 -1.02560796e-01 -1.61208324e-02 -1.61224008e-02 -1.61213316e-02 -1.61218364e-02 -9.10076872e-02 +5.27969003e-02 -3.49046849e-02 +1.23650553e-02 -4.12145078e-01 -2.20860299e-02 -1.61216799e-02 -1.61220264e-02 -1.61211360e-02 -1.61225516e-02 +8.69212393e-03 +2.16438323e-02 -8.48414227e-02 -1.00555398e-01 -1.61217414e-02 -4.03764797e-03 -1.61213595e-02 +3.53778675e-02 -1.61206350e-02 +1.31003395e-01 +9.80221480e-02 +4.91314940e-02 +5.32915853e-02 +1.31004184e-01 +1.31004259e-01 +1.31003618e-01 +1.31003290e-01 +1.31004900e-01 -8.26003194e-01 -3.46236974e-02 +1.31006226e-01 +1.37606058e-02 +8.41332376e-02 +1.31003797e-01 +1.31004944e-01 +1.31006718e-01 +1.31004363e-01 +5.21487109e-02 +1.41721452e-02 +6.76804036e-02 +9.05214846e-02 +1.31004110e-01 +1.31003231e-01 +1.31002828e-01 +2.16523632e-01 -9.04367507e-01 +2.20637005e-02 +1.17656536e-01 +1.60011396e-01 +1.31006464e-01 +8.45994279e-02 +1.31007925e-01 +1.31003007e-01 +1.31006271e-01 +1.31004930e-01 -9.27843988e-01 +2.74542242e-01 +5.23855835e-02 +3.98926698e-02 +8.02760478e-03 +1.05598487e-01 +1.31005302e-01 +1.31004289e-01 +1.31006941e-01 +1.31002516e-01 +1.32960901e-01 -5.01425937e-03 +9.87461433e-02 +1.36627048e-01 +1.31005123e-01 +2.43299678e-01 +1.31006181e-01 +2.04773277e-01 +1.31008521e-01 -6.95442408e-02 -2.59830765e-02 +9.97746810e-02 +4.15270418e-01 -6.95455074e-02 -6.95456192e-02 -6.95446283e-02 -6.95440993e-02 -6.95466921e-02 +3.33094969e-02 -2.03418121e-01 -6.95491582e-02 +7.78166205e-03 -1.03287436e-01 -6.95448741e-02 -6.95467740e-02 -6.95499629e-02 -6.95457831e-02 -1.34528548e-01 -3.80879976e-02 -8.81671384e-02 +5.45865037e-02 -6.95453137e-02 -6.95439130e-02 -6.95432574e-02 -6.13620877e-03 -2.22223505e-01 +9.92633924e-02 -5.41970506e-02 +1.08304590e-01 -6.95495531e-02 +1.03082284e-01 -6.95517808e-02 -6.95435107e-02 -6.95492476e-02 -6.95466921e-02 -1.60922572e-01 -3.80768217e-02 -1.38257250e-01 -6.38594246e-03 +4.54696268e-02 -1.60879120e-01 -6.95474371e-02 -6.95456415e-02 -6.95502684e-02 -6.95428848e-02 +2.11072385e-01 -2.01459587e-01 -1.40693471e-01 +7.73247033e-02 -6.95470795e-02 -1.63221389e-01 -6.95490614e-02 -6.05642721e-02 -6.95527121e-02 -1.24329003e-02 +1.55947031e-02 -4.30218540e-02 -8.26985911e-02 -1.24335550e-02 -1.24336118e-02 -1.24331163e-02 -1.24328202e-02 -1.24341995e-02 +9.76333320e-02 -1.88996300e-01 -1.24355406e-02 +2.63219416e-01 -7.45733688e-03 -1.24332421e-02 -1.24342525e-02 -1.24359718e-02 -1.24337012e-02 -1.84321970e-01 -7.92931914e-02 -2.08903179e-01 -8.95492807e-02 -1.24334767e-02 -1.24326991e-02 -1.24323489e-02 -8.87420028e-02 -2.26782456e-01 +1.82224333e-01 +1.52264938e-01 -2.26138964e-01 -1.24357454e-02 +2.34351188e-01 -1.24370065e-02 -1.24324951e-02 -1.24355713e-02 -1.24342088e-02 +6.75123259e-02 +1.71895232e-02 +8.62165987e-02 +5.73176891e-02 -2.23661996e-02 +1.81983262e-01 -1.24346167e-02 -1.24336369e-02 -1.24361552e-02 -1.24321254e-02 -1.83009952e-02 +1.60831541e-01 +8.54983106e-02 -2.43721142e-01 -1.24344407e-02 -1.07244253e-02 -1.24354744e-02 +4.54444438e-02 -1.24375420e-02 -3.97571288e-02 -4.33333218e-02 +3.57061252e-03 +4.86978963e-02 -3.97571102e-02 -3.97571437e-02 -3.97571176e-02 -3.97571474e-02 -3.97570953e-02 -2.67926827e-02 +7.37630874e-02 -3.97570096e-02 -1.33298248e-01 -1.68480948e-01 -3.97571176e-02 -3.97571065e-02 -3.97570468e-02 -3.97571363e-02 -8.59789327e-02 -1.73109084e-01 +2.54533321e-01 -3.98642309e-02 -3.97571027e-02 -3.97571288e-02 -3.97571474e-02 -1.23255193e-01 -7.63020739e-02 +3.98358051e-03 -4.46022637e-02 -3.98422964e-02 -3.97570431e-02 +5.25659502e-01 -3.97569798e-02 -3.97571065e-02 -3.97570021e-02 -3.97570841e-02 -8.94701108e-03 -2.15887338e-01 +7.98250288e-02 -1.04480684e-01 -5.58730401e-02 -5.49276695e-02 -3.97570804e-02 -3.97571549e-02 -3.97570170e-02 -3.97571549e-02 -1.91965923e-01 -1.19582318e-01 -2.82261278e-02 -4.01082486e-02 -3.97570655e-02 -1.37838915e-01 -3.97570431e-02 -1.00178011e-01 -3.97569686e-02 +3.78545187e-02 -1.69663876e-02 -1.78326070e-02 +3.39798093e-01 +3.78540196e-02 +3.78539823e-02 +3.78543399e-02 +3.78545709e-02 +3.78535129e-02 -5.58209382e-02 -1.20252080e-01 +3.78525369e-02 +2.02425390e-01 +1.69243902e-01 +3.78542542e-02 +3.78534794e-02 +3.78522277e-02 +3.78539041e-02 -6.93929195e-02 +1.97767168e-02 +1.59739088e-02 -2.77226597e-01 +3.78540754e-02 +3.78546566e-02 +3.78549062e-02 +1.66854616e-02 -1.69778487e-03 +1.24174885e-01 +1.05584808e-01 +5.02138287e-02 +3.78523991e-02 -1.55524537e-01 +3.78514268e-02 +3.78547981e-02 +3.78525145e-02 +3.78534906e-02 +2.53340621e-02 -2.56668217e-02 -2.01295950e-02 -4.47651707e-02 -1.25193065e-02 -2.81984508e-01 +3.78532372e-02 +3.78539748e-02 +3.78520712e-02 +3.78551073e-02 +2.07371771e-01 +7.24608824e-02 +5.52738905e-02 +8.79228264e-02 +3.78533490e-02 -1.26430735e-01 +3.78525928e-02 -4.43207659e-02 +3.78510654e-02 +2.89928410e-02 -3.72671597e-02 +4.85962890e-02 +1.60500228e-01 +2.89937612e-02 +2.89938077e-02 +2.89931260e-02 +2.89927386e-02 +2.89946478e-02 +1.04836792e-01 +2.46785395e-03 +2.89964322e-02 -1.02685355e-01 -3.20578590e-02 +2.89933253e-02 +2.89946999e-02 +2.89970245e-02 +2.89939530e-02 +4.65446599e-02 +8.17544106e-03 -1.37888968e-01 -7.23684579e-02 +2.89936215e-02 +2.89925858e-02 +2.89921053e-02 -2.49925293e-02 +9.05239061e-02 +1.73822418e-01 -1.13916323e-01 -1.15026750e-01 +2.89967135e-02 -4.26028013e-01 +2.89984066e-02 +2.89923064e-02 +2.89964695e-02 +2.89946571e-02 -3.60783674e-02 +5.84346652e-02 -2.03485548e-01 +1.41616315e-01 +8.36812854e-02 +3.81778747e-01 +2.89952140e-02 +2.89938413e-02 +2.89972853e-02 +2.89917737e-02 +2.53718551e-02 -1.20435417e-01 -2.49636751e-02 +1.87583372e-01 +2.89949570e-02 +1.60607211e-02 +2.89963447e-02 -2.72959974e-02 +2.89991293e-02 -9.01370775e-03 -1.00416364e-02 -2.62185223e-02 +6.98663592e-02 -9.01206490e-03 -9.01195221e-03 -9.01318435e-03 -9.01388284e-03 -9.01045464e-03 -3.41497660e-02 -5.92820719e-02 -9.00719594e-03 +4.22844961e-02 +1.16380848e-01 -9.01287422e-03 -9.01035964e-03 -9.00614075e-03 -9.01170075e-03 -2.13770539e-01 -1.92480206e-01 -1.88731670e-01 +4.55267318e-02 -9.01229400e-03 -9.01417900e-03 -9.01504420e-03 -1.08132854e-01 -7.19084367e-02 -1.24157583e-02 -4.29795645e-02 -1.02084763e-01 -9.00670793e-03 +2.14646310e-01 -9.00355820e-03 -9.01466981e-03 -9.00713168e-03 -9.01043601e-03 -3.98821048e-02 +9.92552936e-02 -5.58690540e-02 -1.98951483e-01 -1.68717504e-01 +1.53925672e-01 -9.00947209e-03 -9.01191216e-03 -9.00568720e-03 -9.01564490e-03 -3.10725020e-03 +5.51159322e-01 -1.44283017e-02 -6.42397404e-02 -9.00989491e-03 +1.19069703e-01 -9.00734682e-03 -1.75083727e-01 -9.00228228e-03 -2.03287248e-02 +7.28886724e-02 +9.48809087e-03 -2.30423331e-01 -2.03282721e-02 -2.03282442e-02 -2.03285776e-02 -2.03287713e-02 -2.03278549e-02 -2.47413695e-01 -2.21952200e-01 -2.03269757e-02 +1.08940005e-01 -2.49973342e-01 -2.03285143e-02 -2.03278158e-02 -2.03266703e-02 -2.03281958e-02 +6.21379726e-02 -4.22716327e-02 +3.78832445e-02 +3.10913622e-01 -2.03283280e-02 -2.03288514e-02 -2.03290842e-02 -6.98872209e-02 +1.07494749e-01 -8.55168030e-02 +1.26162380e-01 +6.97387606e-02 -2.03268304e-02 +5.58546893e-02 -2.03259867e-02 -2.03290042e-02 -2.03269664e-02 -2.03278437e-02 +9.70463902e-02 -1.88585129e-02 -1.95522164e-03 +2.33649641e-01 +9.13148047e-04 -2.98329473e-01 -2.03275587e-02 -2.03282386e-02 -2.03265697e-02 -2.03292370e-02 +6.08896166e-02 +1.17374785e-01 +6.07446060e-02 +8.78284425e-02 -2.03276891e-02 +1.51578197e-02 -2.03270223e-02 +1.17786989e-01 -2.03256309e-02 -2.60438374e-03 -3.40480134e-02 -2.10370958e-01 +6.76797852e-02 -2.60423776e-03 -2.60420353e-03 -2.60434207e-03 -2.60439981e-03 -2.60403776e-03 -8.94831344e-02 +1.70567930e-02 -2.60367640e-03 +1.44184917e-01 +2.67731011e-01 -2.60430411e-03 -2.60403217e-03 -2.60355067e-03 -2.60417582e-03 +1.39236033e-01 -4.99694906e-02 +3.26598771e-02 -2.46518806e-01 -2.60425382e-03 -2.60441890e-03 -2.60453089e-03 -3.42855304e-02 +1.72421902e-01 +1.67117678e-02 -5.60543202e-02 +4.76308353e-02 -2.60360586e-03 +1.00106955e-01 -2.60327011e-03 -2.60449131e-03 -2.60366942e-03 -2.60402844e-03 +1.62440896e-01 +2.67011896e-02 +2.93141395e-01 +4.80932696e-03 -1.42402440e-01 -1.12983711e-01 -2.60392670e-03 -2.60420260e-03 -2.60350830e-03 -2.60461122e-03 -1.65518746e-01 -3.73665951e-02 -1.27755031e-01 -1.98867664e-01 -2.60398956e-03 +9.33459122e-03 -2.60368804e-03 -9.87440422e-02 -2.60310853e-03 +1.09295652e-03 -1.05464377e-01 +9.34650525e-02 -4.46890108e-02 +1.09253649e-03 +1.09252089e-03 +1.09281507e-03 +1.09300902e-03 +1.09210878e-03 +1.37252912e-01 +5.62424920e-02 +1.09123916e-03 -5.66535108e-02 -1.64437935e-01 +1.09273079e-03 +1.09206676e-03 +1.09094393e-03 +1.09245442e-03 -4.35303524e-02 -1.27928862e-02 +1.46885440e-01 +1.72344342e-01 +1.09259679e-03 +1.09310052e-03 +1.09336036e-03 -7.76698217e-02 +3.11758459e-01 -1.07837282e-01 +1.28360555e-01 +7.90015459e-02 +1.09110365e-03 -2.15212569e-01 +1.09023380e-03 +1.09325198e-03 +1.09123415e-03 +1.09209446e-03 +5.01124203e-01 +7.16200273e-04 -1.10518269e-01 -2.57101767e-02 -2.08856225e-01 -2.69897096e-02 +1.09184673e-03 +1.09250890e-03 +1.09082332e-03 +1.09350774e-03 +6.21066950e-02 -3.15644704e-02 -2.03376457e-01 -1.75618634e-01 +1.09194091e-03 -4.79240455e-02 +1.09126838e-03 +4.85032499e-02 +1.08989445e-03 +4.61976882e-03 -2.75050726e-04 -6.99396506e-02 +4.66822125e-02 +4.62008687e-03 +4.62009758e-03 +4.61985404e-03 +4.61973622e-03 +4.62038303e-03 -2.21437216e-01 -2.01897010e-01 +4.62098420e-03 +5.15129805e-01 -1.52281458e-02 +4.61992621e-03 +4.62039607e-03 +4.62121703e-03 +4.62014182e-03 -8.51200595e-02 -1.37877375e-01 -2.33965233e-01 -2.01948285e-01 +4.62002866e-03 +4.61969012e-03 +4.61953320e-03 +3.09657045e-02 -5.51588461e-02 +7.46100843e-02 +5.34340367e-02 -3.73543985e-02 +4.62108711e-03 +2.13228151e-01 +4.62166965e-03 +4.61958814e-03 +4.62099724e-03 +4.62038023e-03 +2.68883973e-01 -4.16291133e-02 -1.36249483e-01 -1.68403521e-01 -6.70529902e-02 +9.15983319e-03 +4.62056603e-03 +4.62011714e-03 +4.62129293e-03 +4.61940933e-03 +2.05734551e-01 +7.14184046e-02 -6.41761953e-03 -3.39234695e-02 +4.62047849e-03 -1.76430792e-02 +4.62095859e-03 +7.89009873e-03 +4.62190714e-03 -3.91315036e-02 -2.01690500e-03 -1.41215026e-01 -9.44939181e-02 -3.91323864e-02 -3.91324311e-02 -3.91318016e-02 -3.91313955e-02 -3.91331688e-02 -2.61417687e-01 +2.49385297e-01 -3.91347744e-02 +2.48088595e-02 +3.14518660e-02 -3.91319655e-02 -3.91332097e-02 -3.91353406e-02 -3.91325839e-02 -3.64900217e-03 +2.64795452e-01 -8.23013484e-02 -4.17510793e-02 -3.91322412e-02 -3.91312614e-02 -3.91308777e-02 -6.05316572e-02 +1.58621803e-01 +4.98816557e-02 +3.54232006e-02 +2.47908205e-01 -3.91350426e-02 -7.44415149e-02 -3.91366370e-02 -3.91310453e-02 -3.91348302e-02 -3.91331725e-02 -5.71359769e-02 +4.14553881e-02 +4.17712986e-01 -7.43125603e-02 +1.01903342e-01 -3.25541571e-02 -3.91336791e-02 -3.91324572e-02 -3.91355641e-02 -3.91305573e-02 -2.99492538e-01 -1.56052977e-01 +5.20807095e-02 -1.78250879e-01 -3.91334370e-02 +3.25385705e-02 -3.91346812e-02 -4.58011739e-02 -3.91372442e-02 +1.40658952e-02 +3.19464803e-02 -6.23496175e-02 -2.13815004e-01 +1.40654370e-02 +1.40653914e-02 +1.40657527e-02 +1.40659371e-02 +1.40650077e-02 +6.95238531e-01 -1.97298795e-01 +1.40640959e-02 +4.05926317e-01 -2.43821256e-02 +1.40656410e-02 +1.40649881e-02 +1.40638016e-02 +1.40653271e-02 -6.27591787e-03 +6.92097992e-02 +2.84466408e-02 -9.78058651e-02 +1.40654948e-02 +1.40660126e-02 +1.40662491e-02 -1.14703283e-01 -4.00020368e-03 -2.48818025e-01 -2.90574320e-02 -1.18281953e-01 +1.40639478e-02 -1.63416304e-02 +1.40630994e-02 +1.40661448e-02 +1.40640829e-02 +1.40650030e-02 +1.98195100e-01 +1.06158666e-01 -2.67665505e-01 +1.62436828e-01 +2.31617302e-01 -1.20078161e-01 +1.40647367e-02 +1.40653867e-02 +1.40636768e-02 +1.40664130e-02 +7.14033395e-02 +7.78396726e-02 +1.09276637e-01 +1.69090807e-01 +1.40648754e-02 -8.54460299e-02 +1.40641518e-02 +1.52874425e-01 +1.40627744e-02 +4.81146947e-02 +4.83499803e-02 +4.54144590e-02 -4.42313999e-02 +4.81139459e-02 +4.81138714e-02 +4.81144786e-02 +4.81147803e-02 +4.81131896e-02 +3.87317203e-02 +1.29391521e-01 +4.81116548e-02 +4.83164899e-02 +4.50004451e-02 +4.81143333e-02 +4.81131449e-02 +4.81111445e-02 +4.81137745e-02 -4.55098134e-03 +3.27477157e-02 -3.00299637e-02 +5.76446280e-02 +4.81140427e-02 +4.81149517e-02 +4.81153056e-02 +2.88943965e-02 -1.16528654e-02 -7.84166396e-01 +1.46214828e-01 +1.53011885e-02 +4.81113940e-02 +4.33710665e-02 +4.81099598e-02 +4.81151752e-02 +4.81116213e-02 +4.81131710e-02 +1.29382372e-01 +1.31683975e-01 +1.08953249e-02 +2.94756237e-02 -4.96565737e-02 +1.04131445e-01 +4.81127538e-02 +4.81138565e-02 +4.81109284e-02 +4.81156334e-02 -1.31231602e-02 +1.35415541e-02 -7.68178934e-03 +1.18166283e-01 +4.81129251e-02 +4.33691256e-02 +4.81117032e-02 +5.86523637e-02 +4.81093526e-02 -3.98319401e-02 -2.20354833e-03 +1.56217907e-02 -2.51761049e-01 -3.98317613e-02 -3.98317315e-02 -3.98318805e-02 -3.98319475e-02 -3.98316197e-02 -1.99336335e-01 -2.23372970e-02 -3.98312509e-02 +9.30457786e-02 +2.24320695e-01 -3.98318246e-02 -3.98315825e-02 -3.98311466e-02 -3.98317315e-02 -8.29764456e-02 -1.15601301e-01 +2.02176650e-03 -2.10057169e-01 -3.98317575e-02 -3.98319960e-02 -3.98320556e-02 -2.34433860e-02 +1.30311651e-02 -4.36790697e-02 +1.07274741e-01 +4.52907681e-02 -3.98311988e-02 +2.54394084e-01 -3.98308858e-02 -3.98320407e-02 -3.98312472e-02 -3.98316085e-02 +1.75351769e-01 -4.26905900e-02 +5.75888865e-02 +9.60609615e-02 +1.30370175e-02 -2.57069260e-01 -3.98315154e-02 -3.98317240e-02 -3.98311019e-02 -3.98321487e-02 -1.77279875e-01 -8.14694613e-02 -5.60020395e-02 -4.46580797e-02 -3.98315750e-02 +5.28257303e-02 -3.98312807e-02 -2.05003563e-02 -3.98307331e-02 -3.18750949e-03 -5.81848361e-02 +7.40087554e-02 +2.29976833e-01 -3.18742427e-03 -3.18740308e-03 -3.18745314e-03 -3.18752159e-03 -3.18734418e-03 +1.45005673e-01 +3.42460610e-02 -3.18720215e-03 -9.13599357e-02 -1.30393237e-01 -3.18746385e-03 -3.18735070e-03 -3.18715023e-03 -3.18738469e-03 -9.30421203e-02 -5.78044876e-02 -1.72123209e-01 +1.25402078e-01 -3.18742660e-03 -3.18752811e-03 -3.18757747e-03 -5.99825047e-02 -1.27777681e-01 -4.56772856e-02 -1.91479325e-02 +1.31236523e-01 -3.18719773e-03 +6.03364082e-03 -3.18705640e-03 -3.18756537e-03 -3.18719959e-03 -3.18733952e-03 -1.55808870e-03 +5.22688739e-02 +2.19724178e-01 +4.92778681e-02 -1.95608437e-01 -8.57898518e-02 -3.18731391e-03 -3.18739982e-03 -3.18713882e-03 -3.18758609e-03 -1.23103067e-01 +1.04631118e-01 +1.23066073e-02 +1.09667450e-01 -3.18734301e-03 -7.33044595e-02 -3.18721589e-03 +4.53042611e-02 -3.18695954e-03 +3.11692394e-02 +2.60365568e-02 +4.01262380e-02 -2.93216527e-01 +3.11695542e-02 +3.11695691e-02 +3.11693456e-02 +3.11692059e-02 +3.11698224e-02 +1.62861988e-01 -1.12916075e-01 +3.11704725e-02 -3.54207791e-02 +2.73061365e-01 +3.11693978e-02 +3.11698485e-02 +3.11707035e-02 +3.11696064e-02 -5.68127036e-02 +1.22627415e-01 -3.73299345e-02 +2.08735794e-01 +3.11695170e-02 +3.11691575e-02 +3.11689861e-02 +8.60833973e-02 +1.69222176e-01 -1.27606168e-01 -1.18734457e-01 -2.06735179e-01 +3.11705694e-02 -7.31341466e-02 +3.11711263e-02 +3.11690681e-02 +3.11704800e-02 +3.11698262e-02 -5.83243147e-02 +4.09978777e-02 +4.59951758e-02 +6.18732646e-02 +9.37569141e-02 -2.25789502e-01 +3.11700497e-02 +3.11695840e-02 +3.11707333e-02 +3.11688483e-02 +3.15026380e-02 +1.84478238e-01 +1.18945343e-02 -1.52412072e-01 +3.11699603e-02 -9.16401297e-02 +3.11704315e-02 -3.25195640e-02 +3.11713908e-02 -4.34640497e-02 -3.38474326e-02 -7.57297501e-02 -1.68465748e-01 -4.34638746e-02 -4.34638858e-02 -4.34640124e-02 -4.34640571e-02 -4.34637442e-02 +9.44576263e-02 -1.05054855e-01 -4.34634648e-02 -4.33785096e-02 +4.72538769e-02 -4.34639752e-02 -4.34637479e-02 -4.34633791e-02 -4.34638597e-02 -3.29708755e-02 +4.07634862e-02 +8.92304033e-02 +2.88186908e-01 -4.34639193e-02 -4.34640832e-02 -4.34641838e-02 -8.44220817e-02 -3.71356867e-02 -5.12108132e-02 -5.79526685e-02 +1.48376832e-02 -4.34634164e-02 -2.88455784e-01 -4.34631519e-02 -4.34641279e-02 -4.34634611e-02 -4.34637330e-02 +1.06039457e-01 +8.55014566e-03 -5.82077727e-02 +1.04569681e-02 +6.13895319e-02 +2.38688722e-01 -4.34636660e-02 -4.34638709e-02 -4.34633419e-02 -4.34642509e-02 -1.57267332e-01 +7.02005699e-02 +5.01241274e-02 -1.79141924e-01 -4.34637144e-02 -6.14482127e-02 -4.34634984e-02 -4.46570218e-02 -4.34630364e-02 +1.03644878e-01 +1.69315681e-01 -1.70883872e-02 -2.12511420e-01 +1.03644736e-01 +1.03644773e-01 +1.03644796e-01 +1.03644900e-01 +1.03644699e-01 +1.46604061e-01 +1.97554484e-01 +1.03644446e-01 +8.69316310e-02 -3.29076946e-01 +1.03644848e-01 +1.03644684e-01 +1.03644319e-01 +1.03644773e-01 +1.32162403e-02 +1.63512632e-01 +2.01477960e-01 -1.19662270e-01 +1.03644766e-01 +1.03644922e-01 +1.03644982e-01 +2.06210762e-01 +1.63359225e-01 -1.54163226e-01 -1.47040123e-02 -7.48342648e-02 +1.03644393e-01 -6.57348335e-02 +1.03644215e-01 +1.03644952e-01 +1.03644446e-01 +1.03644706e-01 +4.60573062e-02 +9.71049294e-02 -6.42368849e-03 +1.21426165e-01 +4.98712175e-02 -1.09962448e-02 +1.03644602e-01 +1.03644766e-01 +1.03644341e-01 +1.03644945e-01 +2.25827724e-01 +9.22662392e-02 +1.48953155e-01 +2.36147419e-02 +1.03644684e-01 +2.33216628e-01 +1.03644423e-01 +3.21624458e-01 +1.03644133e-01 +1.09559678e-01 +4.76650037e-02 +3.23434509e-02 +1.85284317e-02 +1.09561309e-01 +1.09561443e-01 +1.09560162e-01 +1.09559499e-01 +1.09562956e-01 +9.76531208e-02 +7.85819814e-02 +1.09566160e-01 -1.26225511e-02 +1.31968200e-01 +1.09560519e-01 +1.09563045e-01 +1.09567150e-01 +1.09561712e-01 -7.67744482e-02 +5.35338465e-03 +7.69311786e-02 -9.84804332e-02 +1.09561078e-01 +1.09559260e-01 +1.09558381e-01 +7.53086507e-02 +2.17598900e-01 -7.27464119e-03 -3.23220670e-01 -1.75159886e-01 +1.09566636e-01 +2.37474501e-01 +1.09569721e-01 +1.09558813e-01 +1.09566234e-01 +1.09562971e-01 -2.79505491e-01 -1.97746861e-03 -9.75415856e-02 -9.46191400e-02 -8.18188637e-02 -1.23270482e-01 +1.09563880e-01 +1.09561495e-01 +1.09567650e-01 +1.09557763e-01 -2.99775023e-02 -1.11265890e-01 +1.44550830e-01 +1.66014284e-01 +1.09563477e-01 -5.72220515e-03 +1.09566011e-01 +1.21250920e-01 +1.09570958e-01 -1.84179805e-02 -1.76543295e-02 +1.01176634e-01 +1.02081046e-01 -1.84187200e-02 -1.84187796e-02 -1.84182301e-02 -1.84179209e-02 -1.84194371e-02 +8.80408958e-02 +3.26474488e-01 -1.84209347e-02 +1.66747406e-01 +8.43687356e-02 -1.84183810e-02 -1.84195004e-02 -1.84213873e-02 -1.84188727e-02 -4.53540497e-03 -1.05483159e-02 -8.62956867e-02 +4.33177799e-02 -1.84186362e-02 -1.84177924e-02 -1.84173845e-02 +5.42345457e-02 -3.54538783e-02 +8.78118649e-02 -7.43333548e-02 +9.87672433e-02 -1.84211377e-02 -1.13855459e-01 -1.84225440e-02 -1.84175633e-02 -1.84209570e-02 -1.84194557e-02 +3.37280035e-02 -9.29071568e-04 +1.78868100e-01 -2.70921290e-01 -2.63721824e-01 -6.89056888e-02 -1.84198841e-02 -1.84187982e-02 -1.84216071e-02 -1.84171014e-02 -2.60418584e-03 -4.76119369e-02 -2.27854773e-02 -2.03354046e-01 -1.84197184e-02 -7.69376233e-02 -1.84208415e-02 -1.32104782e-02 -1.84231196e-02 -8.45287591e-02 -3.61565016e-02 +1.76816493e-01 +8.91053081e-02 -8.45310166e-02 -8.45311582e-02 -8.45294520e-02 -8.45285058e-02 -8.45331848e-02 -1.13959648e-01 -3.53102721e-02 -8.45375955e-02 -5.24124093e-02 -2.89275914e-01 -8.45298916e-02 -8.45333263e-02 -8.45390782e-02 -8.45314786e-02 +7.26130754e-02 +7.44250268e-02 -9.20410454e-02 +1.11985818e-01 -8.45306963e-02 -8.45281258e-02 -8.45269784e-02 -3.71896103e-02 -1.01006426e-01 +2.42134690e-01 +2.35950381e-01 +7.70819187e-02 -8.45382661e-02 +1.98475420e-02 -8.45425650e-02 -8.45274776e-02 -8.45376924e-02 -8.45332071e-02 +4.79154065e-02 -6.01939037e-02 -5.68221696e-02 -3.80084395e-01 +3.98723036e-02 -3.15215513e-02 -8.45345035e-02 -8.45312253e-02 -8.45396817e-02 -8.45260918e-02 +5.25493063e-02 -1.02390811e-01 +7.59205967e-02 -4.10300680e-02 -8.45339149e-02 +1.22544751e-01 -8.45373496e-02 +5.40792793e-02 -8.45442563e-02 +2.22939886e-02 +1.34901432e-02 +1.18524484e-01 -9.44417790e-02 +2.22946145e-02 +2.22946629e-02 +2.22941935e-02 +2.22939141e-02 +2.22952329e-02 -2.47668158e-02 +3.43839601e-02 +2.22964268e-02 +1.84631217e-02 +2.62542635e-01 +2.22943034e-02 +2.22952645e-02 +2.22967993e-02 +2.22947393e-02 -7.61575252e-02 +7.63248801e-02 -7.75154829e-02 -5.38858354e-01 +2.22945362e-02 +2.22938098e-02 +2.22935323e-02 +1.37900533e-02 -5.40926084e-02 +1.55844644e-01 +8.56111869e-02 +1.56770274e-01 +2.22966000e-02 +1.21991307e-01 +2.22977810e-02 +2.22936440e-02 +2.22964268e-02 +2.22952329e-02 -6.37634769e-02 +1.10502960e-03 +1.32145897e-01 -3.34107503e-02 -5.72108589e-02 -2.65445679e-01 +2.22955588e-02 +2.22946741e-02 +2.22969986e-02 +2.22932715e-02 +6.79301918e-02 +9.31100082e-03 -8.61939192e-02 +1.14149660e-01 +2.22953986e-02 +7.17261434e-02 +2.22963691e-02 -5.81308752e-02 +2.22982466e-02 -8.40658098e-02 -9.12695602e-02 -4.25033681e-02 +7.32423440e-02 -8.40665027e-02 -8.40665475e-02 -8.40659663e-02 -8.40657875e-02 -8.40671286e-02 -9.82140079e-02 -2.67145276e-01 -8.40685442e-02 +1.04273356e-01 +2.36804977e-01 -8.40661153e-02 -8.40672031e-02 -8.40690583e-02 -8.40666816e-02 -2.59323597e-01 -4.18089837e-01 +9.16778445e-02 +3.47912848e-01 -8.40663984e-02 -8.40655863e-02 -8.40652585e-02 -1.05902307e-01 -2.56455000e-02 -1.46006674e-01 -6.75332323e-02 +1.18818961e-01 -8.40687826e-02 +1.01336285e-01 -8.40700567e-02 -8.40654150e-02 -8.40685815e-02 -8.40671360e-02 -3.82945985e-02 -1.88563362e-01 +6.51840195e-02 -9.35464073e-03 -2.10081395e-02 -4.36817072e-02 -8.40675831e-02 -8.40665475e-02 -8.40692446e-02 -8.40650126e-02 +5.09362668e-03 -1.74815059e-01 -3.66926529e-02 -6.55400828e-02 -8.40674043e-02 +1.24980109e-02 -8.40684623e-02 +9.61974561e-02 -8.40706453e-02 +6.96601570e-02 +7.47837499e-02 -4.27341610e-02 -5.57635948e-02 +6.96609840e-02 +6.96610361e-02 +6.96604401e-02 +6.96600750e-02 +6.96618184e-02 +1.92647219e-01 +3.04199696e-01 +6.96636140e-02 +7.44134374e-03 +1.61739349e-01 +6.96606115e-02 +6.96618408e-02 +6.96641505e-02 +6.96611777e-02 +8.87050331e-02 -1.39454618e-01 -2.01408956e-02 +7.20869228e-02 +6.96609244e-02 +6.96599111e-02 +6.96595460e-02 +1.27341509e-01 +1.53882280e-01 -1.01403981e-01 +4.34699357e-02 -1.24636896e-01 +6.96638376e-02 -1.01230204e-01 +6.96654096e-02 +6.96596801e-02 +6.96636140e-02 +6.96618184e-02 +1.61427736e-01 +7.96815827e-02 +3.72179970e-03 -3.49728197e-01 +4.73733023e-02 +5.45119010e-02 +6.96623251e-02 +6.96610659e-02 +6.96643442e-02 +6.96592629e-02 +4.22743373e-02 +2.22499408e-02 +1.42337769e-01 +1.36797965e-01 +6.96620941e-02 -5.97541593e-03 +6.96634874e-02 +3.53883803e-02 +6.96661472e-02 +4.61689662e-03 -2.81515755e-02 -7.53451064e-02 +8.63651931e-02 +4.61725192e-03 +4.61728266e-03 +4.61700466e-03 +4.61685099e-03 +4.61761979e-03 +1.14653269e-02 +1.85799487e-02 +4.61830711e-03 -1.93390213e-02 -3.95137787e-01 +4.61707311e-03 +4.61764773e-03 +4.61854273e-03 +4.61733062e-03 +1.47443801e-01 -1.03908576e-01 +1.68995991e-01 -2.74620336e-02 +4.61718580e-03 +4.61678347e-03 +4.61661071e-03 +1.59239128e-01 -2.28174757e-02 -1.10930437e-02 +8.48947763e-02 +1.79840595e-01 +4.61840350e-03 