#Parameter# /MlpAttender.d853df2e/_0 {128,512} 1048577 ZERO_GRAD
-3.67308408e-03 +1.72831237e-01 +1.05752852e-02 -1.39213398e-01 -1.18404860e-02 +5.07825278e-02 +1.09236345e-01 +7.56917298e-02 +5.50631247e-02 +8.04582909e-02 -7.07526952e-02 -1.32390663e-01 +1.41194493e-01 -8.78526121e-02 -5.09212911e-02 -1.16704635e-01 +1.04949050e-01 -7.47228339e-02 -2.19642699e-01 +2.11120382e-01 +1.90451071e-01 +1.40900567e-01 +1.85854565e-02 +8.76375362e-02 +2.07089618e-01 -1.62873507e-01 -4.84449603e-02 -1.89349398e-01 -2.65564490e-02 -1.48221612e-01 +1.33715108e-01 -3.57692763e-02 +5.78294061e-02 -3.40627842e-02 -1.22515194e-01 +5.73649518e-02 +2.27628410e-01 +5.56709953e-02 +2.34450530e-02 +9.64518338e-02 +3.16363107e-03 -4.71147150e-02 +1.11055568e-01 -1.25449887e-02 -1.02992065e-01 +4.58506681e-02 +3.81094520e-03 +4.36519086e-02 +6.49721622e-02 -5.46591952e-02 +2.75430977e-02 +4.02598381e-02 +9.30144489e-02 -2.09717304e-02 +3.36967781e-02 -2.38046721e-01 -7.08829612e-02 +8.77267271e-02 -1.30007222e-01 -8.40795338e-02 +1.65530499e-02 -6.95276111e-02 +2.07781062e-01 -1.07343540e-01 +4.18043733e-02 -1.11883413e-02 +4.93619069e-02 -9.46438964e-03 -1.80574991e-02 -3.27875316e-02 +7.58171873e-03 +8.22759271e-02 +2.70955190e-02 +6.47396073e-02 -1.53327286e-01 -7.60837197e-02 +2.17455439e-02 +1.82923123e-01 -7.85906911e-02 +1.46368891e-01 -4.96526733e-02 +6.33272575e-03 +1.14643708e-01 -1.91109404e-01 -1.50675803e-01 +2.93073691e-02 +7.85882622e-02 -1.69002518e-01 +1.86674997e-01 -8.02863166e-02 -1.44245565e-01 -1.83301032e-01 -1.65979452e-02 +6.78939894e-02 -6.40115961e-02 +6.24905936e-02 +3.31387855e-02 +1.25632972e-01 +1.48405001e-01 +3.25299762e-02 -7.63609335e-02 -1.28400162e-01 -2.67872941e-02 -3.74860154e-03 -2.47754157e-03 -1.51119828e-01 -1.21141866e-01 +5.01628444e-02 -8.92703459e-02 -1.61274299e-01 -2.34068148e-02 -4.11698408e-02 +3.23854648e-02 -6.78845569e-02 +1.07053883e-01 +7.73940934e-03 +1.92207471e-01 +1.20470859e-01 +1.13019824e-01 +1.48913726e-01 +1.20965436e-01 +4.64500450e-02 -4.36617285e-02 +6.98517710e-02 -1.23233303e-01 +3.54065336e-02 +9.43362415e-02 -6.85391054e-02 -5.82942292e-02 -1.12769522e-01 +3.11680697e-02 -1.53652262e-02 +3.47111151e-02 -5.68821952e-02 +1.00059984e-02 -6.41704351e-02 +7.03882873e-02 -3.13951597e-02 -5.36631346e-02 -6.60258755e-02 -2.62179393e-02 -5.14076799e-02 -1.57586992e-01 -4.80770431e-02 +2.17214208e-02 -6.62059188e-02 -1.94759760e-02 +4.40614261e-02 +5.26823103e-02 -3.64889926e-03 -9.78534389e-03 -3.44887041e-02 +3.38795148e-02 -1.83604788e-02 +1.50092810e-01 -2.46200394e-02 +1.16538666e-02 -7.23154172e-02 +3.85054834e-02 -4.07745764e-02 +1.73050538e-02 +1.29131870e-02 -7.60149285e-02 -7.21782520e-02 +1.31864697e-01 -1.14471633e-02 -2.30814628e-02 +4.63247746e-02 -7.85519108e-02 -3.85527164e-02 -4.36727814e-02 +4.36468236e-02 -5.23176603e-03 +4.57089990e-02 -2.20781676e-02 +3.82334031e-02 +2.02473521e-01 +3.62573564e-02 +4.06562351e-02 +8.19133893e-02 +4.45168130e-02 -3.29700895e-02 +2.16507912e-02 +6.23374358e-02 +7.79561177e-02 +8.90581384e-02 -8.57526511e-02 +7.78439641e-02 +8.06017146e-02 -1.05401635e-01 +1.31317182e-03 -3.33432257e-02 +4.27637398e-02 -2.22533923e-02 +4.16641822e-03 +4.77594277e-03 -4.58865017e-02 +5.22572063e-02 -1.19984336e-02 +5.18464223e-02 -4.29062098e-02 -9.84447170e-03 -5.70548698e-03 +9.69096925e-03 +4.42965105e-02 -3.99251236e-03 +3.62027413e-03 -7.27957999e-03 +5.29011302e-02 +4.79657613e-02 +3.67619097e-02 -2.26413701e-02 +2.23760847e-02 +1.99408666e-03 +8.53159428e-02 -8.49462971e-02 -6.08129203e-02 +2.10581943e-02 +5.77326939e-02 -8.04226846e-02 -2.31467616e-02 +1.89317763e-02 +1.04736149e-01 +2.98471265e-02 -6.61905855e-02 +6.69558123e-02 +5.98528162e-02 -1.07835084e-01 +2.22220663e-02 -2.10822821e-02 +1.15034603e-01 +1.35285752e-02 -3.12992036e-02 -4.09002900e-02 -5.01238629e-02 +1.03143770e-02 +1.54762007e-02 +1.17154205e-02 +5.64037971e-02 +6.93712709e-03 -4.19025496e-02 -1.25886902e-01 +6.00373819e-02 +1.03110880e-01 -7.42875040e-02 -5.74523769e-03 -1.86157927e-01 -3.14405151e-02 -3.69580351e-02 -5.67513518e-02 +7.84147680e-02 +3.01788338e-02 +6.77710474e-02 +2.61630297e-01 -5.29261772e-03 +2.72080973e-02 -2.49618649e-01 -2.04470214e-02 -1.49795651e-01 +2.16305163e-02 +2.07133945e-02 -1.94792837e-01 +1.61591381e-01 -1.31746784e-01 +3.44484113e-02 +6.95395283e-03 +5.74722737e-02 +7.75705874e-02 -2.73766518e-01 +4.66619320e-02 -2.27481693e-01 -1.17071345e-01 -6.55848235e-02 +1.56434298e-01 +1.87262625e-01 +2.21839711e-01 -5.52242026e-02 +1.41050681e-01 +8.25107098e-03 -4.42884415e-02 -9.30427462e-02 +3.20302136e-02 +4.18705195e-02 -1.86642140e-01 +1.74227431e-02 +7.16918409e-02 +5.15873134e-02 -4.17808369e-02 -6.12680465e-02 -1.24734975e-01 +1.77874163e-01 -2.14884400e-01 +9.50578228e-02 +2.17595562e-01 -6.34038597e-02 +1.37089387e-01 +8.52393731e-02 +6.57354593e-02 +1.01574741e-01 -5.35327494e-02 +4.41939384e-02 -2.65695080e-02 -6.16525561e-02 +1.73173487e-01 +4.73020822e-02 -1.64036062e-02 +2.43754452e-03 +6.80903122e-02 +3.60648297e-02 -3.88637260e-02 -4.89168316e-02 -1.42821316e-02 +5.71611300e-02 -1.84894186e-02 +1.15730509e-01 +8.25455934e-02 +1.24137066e-01 -1.33490160e-01 +3.66103858e-01 +2.63956748e-02 +4.60772924e-02 -2.54892893e-02 -1.19607821e-01 +4.71371897e-02 +6.33422956e-02 +4.11235318e-02 +1.77294593e-02 -2.65079141e-02 -2.59532146e-02 -5.76369166e-02 -3.40628698e-02 +1.31162167e-01 -6.65739328e-02 -2.09149018e-01 -7.17769787e-02 +2.00350314e-01 -3.74335572e-02 -9.89837572e-02 -1.43334016e-01 +7.05680177e-02 -1.31809905e-01 -1.05590455e-01 +1.67459860e-01 -8.83642882e-02 +1.72982901e-01 -4.91782743e-03 +1.97696447e-01 +5.67818284e-02 +1.43884629e-01 +1.17438458e-01 -1.39496952e-01 +1.84089854e-01 -1.05734445e-01 +1.68486144e-02 +2.78051853e-01 +1.09844975e-01 -7.61577189e-02 -1.96452122e-02 +1.69692468e-03 +7.32857212e-02 +3.65877114e-02 -9.56544057e-02 -1.03788935e-01 -9.83937681e-02 -3.26961242e-02 -6.91753021e-03 +2.13466361e-02 -1.01320617e-01 -3.84505652e-02 -8.06049258e-02 +1.02163732e-01 +2.03842103e-01 -1.09713770e-01 +3.62995900e-02 -4.95562851e-02 +1.12797879e-01 +5.62646426e-02 -2.04891786e-01 +4.42751050e-02 -3.65215354e-02 -6.58671781e-02 +2.69337654e-01 +3.02828476e-02 -8.90534464e-03 +1.72781020e-01 +2.30094016e-01 +1.15368841e-02 +5.92522556e-03 +1.20389659e-03 +5.66898510e-02 -3.80522050e-02 -2.82251313e-02 -1.88522600e-02 -5.18381260e-02 -1.02418311e-01 +2.63210773e-01 +9.57156122e-02 -4.35753986e-02 -7.19409660e-02 +8.87660906e-02 -2.54867394e-02 -8.04728717e-02 -1.55317992e-01 +1.10933557e-02 -1.74755558e-01 -4.42261323e-02 -3.70288864e-02 -6.71197996e-02 -1.38428109e-02 -9.73738655e-02 -8.48812982e-02 -1.05794251e-01 +1.22491512e-02 +1.31756812e-01 -2.34890297e-01 +1.09657496e-02 +1.57682613e-01 +1.33588478e-01 -1.04386441e-01 -1.33654952e-01 +6.72970861e-02 -1.66588455e-01 +1.19468734e-01 +1.89418290e-02 -1.59542963e-01 +4.50483933e-02 +1.48242712e-01 -1.62391528e-01 -9.99600962e-02 -7.54733104e-03 +2.20365644e-01 -3.04331444e-02 -1.76267296e-01 +4.65966649e-02 -1.04037873e-01 +3.29587236e-02 +9.61664915e-02 +1.03093863e-01 +2.14816883e-01 +1.63791671e-01 +6.93286881e-02 -9.48492158e-03 +2.69840837e-01 -1.48079813e-01 -1.65558495e-02 -3.31617408e-02 +1.02740020e-01 -1.48900464e-01 +7.12978654e-03 +1.35142550e-01 -6.61843568e-02 +5.67604639e-02 +1.79940477e-01 +4.26084315e-03 -2.00942475e-02 -1.32334203e-01 -2.12742537e-02 +5.31647541e-02 -7.96013474e-02 -6.96325749e-02 +3.25043537e-02 -2.67563015e-01 +6.08734824e-02 -2.10804567e-01 -1.03141554e-01 -8.54991153e-02 +1.00757346e-01 +1.56418055e-01 -7.12859258e-02 -2.15764483e-03 -1.14832841e-01 +1.97137475e-01 +1.59304291e-01 +1.26188789e-02 +7.68377185e-02 +7.13557824e-02 +2.47509643e-01 -9.86987874e-02 +2.81409491e-02 -2.18398124e-02 +1.15387119e-01 -1.45975456e-01 -4.37076166e-02 +8.04992095e-02 +8.48897919e-03 +3.16808999e-01 -1.65397868e-01 +2.08094627e-01 +6.54437067e-03 +9.22035612e-03 -1.27560943e-01 +5.47089195e-03 +4.07883041e-02 +8.37769061e-02 -4.74180840e-03 -1.00246519e-01 +6.22651242e-02 +1.74367487e-01 -2.96072364e-02 +1.71200223e-02 +1.06305564e-02 +4.37695719e-02 -1.90169588e-02 +1.06013723e-01 +4.94615808e-02 +2.70112115e-03 +1.86026487e-02 +2.33645141e-02 -1.36759104e-02 -2.19340369e-01 -1.85057476e-01 -4.17176113e-02 -1.33882016e-01 +9.23916250e-02 +3.29946255e-04 -1.58044193e-02 -2.46135443e-02 +2.49137267e-01 +8.83731768e-02 +1.51765883e-01 -8.51354562e-03 +1.42879829e-01 -7.05591813e-02 -8.56057256e-02 +7.14291334e-02 +9.03197452e-02 +1.64667796e-02 +2.81108487e-02 +9.94711369e-02 +1.42963529e-01 -7.31590092e-02 -1.00182712e-01 -5.07273013e-03 +1.77493125e-01 -5.63504659e-02 +6.85838088e-02 +2.23670583e-02 +3.54914032e-02 -6.28798828e-02 -5.22421449e-02 +1.58317201e-02 -1.99367389e-01 +1.59806415e-01 -7.37334117e-02 -2.29826272e-01 -8.56451243e-02 +5.15752882e-02 -7.13273836e-03 +1.27012292e-02 -1.02638267e-01 +2.18963772e-02 -6.39655627e-03 -9.36154556e-03 -3.81590016e-02 -7.50819668e-02 +1.15940034e-01 +5.15681356e-02 +5.89072593e-02 -7.11942837e-02 -1.76140726e-01 +1.52706787e-01 -1.26767784e-01 -9.95779037e-02 +1.34612629e-02 +6.70713708e-02 -3.00628133e-02 -1.79793462e-01 -3.39279622e-02 +9.60966758e-03 -6.90024942e-02 +4.42617275e-02 -1.55532360e-01 -2.28510141e-01 -6.95139216e-03 -3.40533741e-02 +1.41938617e-02 -2.77689368e-01 +1.85088217e-02 -3.21363695e-02 -3.27202003e-03 -6.77859783e-02 +5.02004884e-02 -4.13143598e-02 -2.38383263e-02 -1.04496896e-01 +2.80354731e-02 -1.44104972e-01 +7.89845213e-02 -1.32014170e-01 +1.37093067e-01 +5.73496483e-02 -7.88882375e-02 +9.50163044e-03 +9.58837122e-02 -8.75174254e-02 -1.39929548e-01 +1.47308577e-02 -6.07764907e-02 -2.77697891e-02 +8.52869228e-02 +1.01341404e-01 +2.41963957e-02 -1.83669233e-03 -3.11754420e-02 +8.58570188e-02 +5.31672128e-02 +8.09132159e-02 +1.37658026e-02 -5.33519797e-02 -1.13776736e-01 +5.51181883e-02 -3.30337472e-02 +2.30087480e-03 -1.36841144e-02 +3.65031101e-02 -1.33569896e-01 -6.48820102e-02 +2.58340966e-02 -5.14210500e-02 +2.85568479e-02 +3.81526314e-02 +2.11637598e-02 +1.37464136e-01 +9.97764803e-03 +5.69437481e-02 -6.62875324e-02 +3.29938382e-02 -8.04740041e-02 -1.90205827e-01 +4.03252867e-04 +2.14630645e-02 +7.30170356e-03 +6.53198734e-02 +8.87675881e-02 +1.48672014e-01 +1.86609314e-03 +4.81520295e-02 +2.70656586e-01 +1.17418274e-01 -6.02262793e-03 +5.99042438e-02 -1.17163779e-02 +4.55731712e-02 -7.92125240e-03 -6.18815534e-02 -8.38067532e-02 +2.51895357e-02 +1.52677059e-01 +2.04808451e-02 -8.45000222e-02 +6.38103634e-02 -4.81874309e-03 +2.51673549e-01 +1.58853099e-01 -5.45641631e-02 +9.45582334e-03 -2.14997381e-01 -5.94155714e-02 -1.56261604e-02 -3.41056585e-02 -2.35128924e-02 +1.06030703e-02 -5.03238328e-02 -2.04977486e-02 -1.91404000e-02 -1.24397408e-02 -3.47766280e-02 -3.99827324e-02 +6.83842748e-02 +1.05328776e-01 -5.93987666e-02 +4.40440699e-02 -1.27431855e-01 -6.06945157e-02 +4.08227630e-02 +4.46916446e-02 +4.56251316e-02 -1.09486379e-01 -6.00004829e-02 -9.19483788e-03 -1.04510142e-02 +3.60965393e-02 -2.36704070e-02 -1.27109155e-01 +1.10690407e-01 -5.84171945e-03 +5.99481985e-02 +8.67323428e-02 +1.68954447e-01 -1.46918416e-01 -6.46052286e-02 -7.78780654e-02 -8.78067240e-02 +9.09489244e-02 +1.18354306e-01 +6.08345792e-02 -8.46484303e-02 -3.78239974e-02 +6.03472777e-02 -3.47920731e-02 -1.01641595e-01 +9.58796218e-02 +7.76004568e-02 +1.06113493e-01 -5.22208586e-02 -1.71099696e-02 +8.06533024e-02 +3.60351871e-03 +1.65850632e-02 -2.84434501e-02 -3.80889289e-02 +1.25835026e-02 +5.12428097e-02 +2.75132805e-02 +9.27452818e-02 +7.36630382e-03 -1.22997002e-03 +1.35550136e-02 -7.65695125e-02 -1.38729230e-01 +5.18490858e-02 +7.18186274e-02 -2.28708088e-02 +8.12932998e-02 -2.17144340e-02 -3.09731234e-02 +9.11564752e-02 -3.01408675e-02 -1.68961138e-02 -1.07692080e-02 -2.34908946e-02 +1.08739115e-01 -8.10199156e-02 -3.99841368e-02 +5.67821339e-02 -6.32256344e-02 +1.77873485e-02 -5.59423827e-02 -5.49344458e-02 -7.42270425e-02 +1.02654919e-01 -7.07137808e-02 -2.65049953e-02 +6.40872940e-02 +1.98100060e-01 -1.22922599e-01 +1.72964688e-02 -7.43976142e-03 +4.31238823e-02 +1.00934736e-01 -1.91147357e-01 +6.59916401e-02 -3.49537516e-03 +3.71861667e-03 -1.36388661e-02 +1.38762861e-01 +1.81187004e-01 +4.83510531e-02 -1.79452132e-02 -1.47313461e-01 +9.47577804e-02 -5.13287075e-02 -7.28699118e-02 -1.16523765e-01 +1.38230503e-01 -1.19090460e-01 -2.19991971e-02 +2.65603815e-03 -7.33449608e-02 -7.03694597e-02 -4.66532372e-02 +1.54679769e-03 -2.98688281e-02 +1.58989355e-02 -3.05869747e-02 +1.28065646e-01 -6.93098977e-02 +6.72402084e-02 -5.75130172e-02 +9.67675149e-02 -2.03325301e-01 +5.44856600e-02 -1.14454679e-01 -2.62205917e-02 +1.42817330e-02 -8.04343000e-02 +4.40921858e-02 +2.69032791e-02 +4.02222276e-02 -2.30194688e-01 +7.76754990e-02 -9.51540284e-03 +4.43149684e-03 -5.22956848e-02 +8.24782904e-03 +7.38251731e-02 +1.15748802e-02 +8.44905339e-03 +6.32083416e-02 -1.69456601e-02 +1.50070354e-01 -1.93307474e-01 +1.36091877e-02 +4.28634835e-03 -1.01317219e-01 +1.70706864e-02 +2.13620737e-02 +5.80655448e-02 -1.71871021e-01 +6.64486140e-02 -3.98645960e-02 +6.36663288e-02 -6.18401803e-02 +3.86924408e-02 -6.51746392e-02 +1.08675594e-02 +4.81639504e-02 +9.46112350e-02 +1.70368448e-01 -8.61252621e-02 -4.22913954e-02 -7.76875541e-02 -2.43938491e-02 +1.78937172e-03 -7.35599175e-02 -2.25215312e-02 +1.07207531e-02 +2.46659815e-01 -1.63964704e-02 -3.04931961e-02 +1.53649867e-01 -1.64988209e-02 -7.61345252e-02 +1.47619126e-02 -1.97946295e-01 -1.42486971e-02 +1.49104116e-03 +1.86881982e-02 -8.17236826e-02 +1.42662162e-02 +6.18497953e-02 +3.40769179e-02 +3.89808835e-03 +1.22087644e-02 +1.19976088e-01 -1.71676278e-01 +6.97358251e-02 +3.49178612e-02 -5.16928993e-02 -1.06998138e-01 +1.51361739e-02 -2.42124638e-03 +2.07522556e-01 -4.04236885e-03 -4.82690036e-02 +6.96965754e-02 -5.34525774e-02 +2.27888878e-02 -1.37292072e-02 -9.36823338e-02 +8.57441723e-02 +1.26862824e-02 +1.28330886e-01 -8.55637118e-02 -8.02802853e-03 +3.00311953e-01 -1.05655678e-01 +7.63043985e-02 -1.36517256e-01 +3.87114026e-02 +1.79981478e-02 +4.48538736e-02 -1.09296314e-01 +7.35017732e-02 -1.40828649e-02 +2.91547067e-02 +3.83506343e-02 +1.17324509e-01 -1.44656990e-02 +9.24831703e-02 -7.89838731e-02 -1.06885396e-01 +1.57285169e-01 -7.11702704e-02 +3.38453911e-02 -1.55973900e-02 -2.25158423e-01 +2.62567792e-02 -5.14355227e-02 +3.23340832e-03 -4.38168505e-03 +7.94542134e-02 +3.34682055e-02 +7.70962611e-02 +7.87489209e-03 +8.01424012e-02 +1.88273400e-01 -4.86500412e-02 +7.96343237e-02 -1.31602352e-02 -1.00350052e-01 +6.79889470e-02 +2.63705440e-02 +1.38706028e-01 -3.94302085e-02 -4.95981872e-02 +4.66113426e-02 +7.14917183e-02 +6.98316544e-02 +5.37122637e-02 +1.61827669e-01 +2.38855034e-01 +7.97370225e-02 -5.04305400e-02 +1.06318435e-02 -9.68323424e-02 -8.08278769e-02 -1.65539294e-01 +2.01791450e-01 +1.42498836e-01 -7.95670226e-02 +1.46324607e-02 -2.03798003e-02 -2.18660925e-02 -6.29095435e-02 -4.40687081e-03 -7.23651722e-02 +2.37505464e-03 +2.18785461e-02 -2.13635676e-02 -1.09683976e-01 +1.02531137e-02 -1.14398692e-02 -1.91278774e-02 +5.17335832e-02 +4.42750379e-02 +2.73814872e-02 -1.06082879e-01 -8.44231546e-02 -2.13460103e-01 +1.49213701e-01 +1.65144578e-02 -6.61868975e-02 -9.84784663e-02 +1.14170099e-02 +1.20953806e-02 +5.02014421e-02 +1.80789139e-04 +5.84377013e-02 -9.47970375e-02 +7.45782852e-02 +1.32609038e-02 +1.68094024e-01 +1.47088952e-02 -1.88054040e-01 +8.52269605e-02 -6.13598377e-02 +3.99650447e-02 +7.43701160e-02 -1.13337561e-01 -5.46974614e-02 +1.59982068e-03 +1.41732201e-01 +3.30192745e-02 -1.00596696e-01 +1.64831299e-02 +5.63122183e-02 -6.53488841e-03 +8.10645223e-02 +5.47687784e-02 -4.11878750e-02 +1.60598561e-01 +1.30624205e-01 +7.94325862e-03 +4.99221422e-02 +1.60142660e-01 -8.60552788e-02 -2.96434928e-02 +9.35839489e-02 -4.75844555e-02 +1.62501186e-01 +9.66709945e-03 -1.11411296e-01 -1.59511715e-02 +8.82432684e-02 -4.38595302e-02 -9.34446231e-02 +1.22464590e-01 +3.49234678e-02 +3.85781601e-02 -2.54314188e-02 -1.40872210e-01 +4.57889922e-02 -1.25344008e-01 +8.46531689e-02 +1.92657337e-02 -2.72673238e-02 +9.69273895e-02 +3.33782434e-02 -5.62033476e-03 -1.11974053e-01 +1.05840683e-01 -1.23007275e-01 -7.10922703e-02 -1.67165413e-01 -8.21228325e-02 -5.37832780e-03 +3.39639150e-02 -1.39165759e-01 -9.70200896e-02 +2.20866185e-02 -8.36502984e-02 -2.37538964e-02 +1.56509370e-01 +8.31160098e-02 -6.08187579e-02 +3.55012566e-02 -6.43138140e-02 +4.74004559e-02 +2.44026389e-02 -8.09997506e-03 -1.22586325e-01 +1.54575631e-01 +3.73327769e-02 +1.15452809e-02 -1.44012839e-01 +3.12032513e-02 -1.06705710e-01 -7.09589943e-02 -4.55047376e-02 -5.37780263e-02 +7.73419887e-02 +6.71341345e-02 -6.96008354e-02 +8.97681117e-02 -8.07807893e-02 -2.36894619e-02 +1.11487182e-02 -1.72813237e-02 -4.34465595e-02 -4.61952128e-02 -1.04227327e-01 +2.69176252e-02 -3.94212231e-02 -6.85707927e-02 -1.32760927e-02 +3.39537747e-02 +3.43361080e-01 +3.88061516e-02 -7.05896839e-02 +6.58712611e-02 +2.02342391e-01 +1.38058484e-01 +1.09815545e-01 -2.40949746e-02 -4.04033698e-02 -1.70474038e-01 -7.33489729e-03 +1.61616921e-01 -9.69755352e-02 +2.22165063e-02 -6.58953637e-02 -9.44453701e-02 +5.61364926e-02 +7.49319270e-02 -1.43374518e-01 -6.48754463e-02 -5.92551045e-02 +1.92880146e-02 -8.46511796e-02 -3.93583588e-02 +3.10754869e-02 +2.56044348e-03 +3.59868668e-02 -1.72916561e-01 +2.84024347e-02 +8.46491978e-02 -1.03263870e-01 +8.59605521e-02 -7.77119026e-02 -3.44447121e-02 +4.82788533e-02 +1.34901986e-01 -1.59751147e-01 -3.50296535e-02 +4.03436311e-02 -1.23008534e-01 -2.03533635e-01 +8.42225254e-02 +3.64004038e-02 +4.30282131e-02 +1.76063646e-02 -1.55682850e-03 +2.00018175e-02 +1.34485126e-01 +4.69758734e-02 +2.44550511e-01 -8.80199596e-02 -1.49834111e-01 +6.79645985e-02 +4.63639610e-02 -7.97128677e-02 -8.82319361e-03 -6.73145875e-02 +2.46096589e-02 +5.88204451e-02 -6.20952025e-02 +1.03081599e-01 +1.93761494e-02 -7.52721429e-02 +1.99208651e-02 -6.89674839e-02 -3.19710048e-03 +4.20409488e-03 -3.20810340e-02 +6.19030222e-02 -8.21822882e-02 -9.36492532e-02 +2.07840335e-02 -1.35756969e-01 +1.32514328e-01 +3.05026881e-02 -1.40548691e-01 -1.44081041e-02 +3.29149654e-03 +9.68953744e-02 -9.40899998e-02 -4.72408421e-02 +4.47118655e-02 -1.78741932e-01 -5.60509898e-02 -2.80556586e-02 +1.15227253e-04 +8.51639062e-02 -1.19546223e-02 -1.12052949e-03 -5.93445376e-02 +5.08660860e-02 +5.51767908e-02 +8.05686340e-02 +1.28549516e-01 +3.26075666e-02 +5.67275025e-02 -1.92900494e-01 +4.84586507e-02 -8.64891335e-03 +8.62819552e-02 -2.79480629e-02 -5.29079437e-02 +3.78156081e-02 +4.86286320e-02 +7.95045570e-02 +1.49652004e-01 +1.44346848e-01 +5.41479290e-02 +2.21991882e-01 +1.46308586e-01 +6.99346364e-02 -1.09630451e-02 +1.21681459e-01 -3.08836848e-01 +1.43539712e-01 -2.29782745e-01 +3.94183040e-01 +2.45630875e-01 +1.37680113e-01 -2.16971170e-02 -2.39892215e-01 +1.11761831e-01 -4.63972129e-02 -7.33434111e-02 +7.96970576e-02 +1.02258861e-01 -1.00251049e-01 +9.59842652e-02 +7.91606307e-02 +2.05664355e-02 +6.74828421e-03 -2.39869520e-01 +4.20790091e-02 -1.31412774e-01 -1.75618798e-01 -1.14686213e-01 -6.80775717e-02 +1.71580896e-01 +5.14042825e-02 +6.92520961e-02 -7.40409363e-03 +4.76699285e-02 -1.85843930e-01 +5.14922552e-02 -5.46133183e-02 -1.63163900e-01 +5.30997142e-02 +4.56195399e-02 +8.08648393e-02 +1.06844395e-01 +6.21340796e-02 -5.68146408e-02 -7.07548261e-02 -1.62998226e-03 +1.65559813e-01 +2.73192912e-01 +4.51417536e-01 -1.58446297e-01 +1.35257915e-01 +1.60837844e-02 +1.50467187e-01 +1.22542065e-02 -7.65193254e-02 +1.12986848e-01 -3.66823226e-02 +1.31929293e-01 +2.64416598e-02 +3.26800384e-02 +4.44658436e-02 +5.59030212e-02 +9.64303687e-02 -6.35961518e-02 -7.97889456e-02 +1.42215908e-01 +6.45296723e-02 -1.98526378e-03 +8.33095089e-02 +1.54576451e-01 -4.43853699e-02 -4.52233069e-02 +1.04186989e-01 -1.36485919e-01 +1.07765328e-02 -1.83657348e-01 +8.35622028e-02 -9.99195725e-02 -3.87838185e-02 -2.10025497e-02 -6.63684532e-02 -9.06691104e-02 +1.34334758e-01 +9.45373476e-02 +1.17222644e-01 +1.60610735e-01 -2.09647894e-01 +2.12941244e-01 -1.94942594e-01 -9.50772911e-02 -1.89886615e-01 +2.24151224e-01 +6.11746088e-02 +1.26603723e-01 -8.86438340e-02 +7.49036148e-02 -9.05368403e-02 +4.69181240e-02 +3.60704074e-03 +2.20769346e-02 +6.04344606e-02 +5.78891262e-02 +1.32725881e-02 +1.87996343e-01 +7.39312768e-02 -1.78782299e-01 +7.03933388e-02 -3.61402556e-02 +5.90437278e-02 -4.44231462e-03 +5.10688163e-02 -2.13803500e-01 +4.38783579e-02 -4.11368869e-02 -4.33757789e-02 +1.01721808e-01 -4.53920831e-04 -1.12175040e-01 +1.88936427e-01 +2.13270888e-01 -7.96502978e-02 +1.06010884e-02 -5.07003143e-02 -1.38108596e-01 -1.08231075e-01 -5.01542240e-02 +7.37015530e-02 +1.22720279e-01 -1.37904689e-01 +4.89923498e-03 +1.77435845e-01 +2.24433899e-01 -1.89613886e-02 +1.95939932e-02 -1.37978137e-01 -2.71979332e-01 -8.52475911e-02 +3.88633460e-02 -2.14715526e-01 -3.38198841e-02 +1.97631642e-01 -6.70996606e-02 +1.05797343e-01 -1.23351298e-01 +6.88278079e-02 +8.55884254e-02 +8.29762667e-02 +1.03963781e-02 -2.41783820e-02 +1.28111050e-01 +9.86621752e-02 +5.96905798e-02 +9.83493328e-02 +1.34743620e-02 +1.79893956e-01 -3.32288481e-02 +5.92160404e-01 -5.04169911e-02 +2.54055802e-02 +5.22166453e-02 -3.49398069e-02 -3.28707732e-02 -1.45757660e-01 +1.92049202e-02 +4.61470746e-02 -3.48748220e-03 -1.10468008e-01 -9.08773988e-02 +1.18011601e-01 +6.96949214e-02 -5.70711434e-01 +8.89836326e-02 +3.20459530e-02 -7.39100352e-02 +2.92535275e-02 +9.44890678e-02 -8.51722658e-02 -1.29080573e-02 +3.51229087e-02 -8.24537501e-02 -1.78380072e-01 -3.95697415e-01 +6.07902482e-02 +6.38568550e-02 +1.37423947e-01 -2.45090574e-01 -1.61669925e-02 -9.13343281e-02 -5.27214296e-02 -3.90843675e-02 +5.09983227e-02 -9.12280977e-02 +5.96088096e-02 -1.86884657e-01 -7.51475394e-01 -2.95466706e-02 +1.15660289e-02 -1.94454387e-01 -7.24621475e-01 +9.56934039e-03 +1.37988433e-01 +1.25451982e-01 +1.21718235e-01 +4.32535335e-02 +8.04026239e-03 -4.95230313e-03 -4.77829240e-02 -1.24830253e-01 -1.44203216e-01 +3.71754616e-02 +6.77675009e-02 +3.00785333e-01 -1.71015337e-01 +4.90863435e-03 -2.62650126e-03 -2.52698027e-02 -1.02565169e-01 -3.94348539e-02 +3.28838527e-02 -1.63154736e-01 -6.42784089e-02 -4.53672290e-01 -1.56667769e-01 +3.02231628e-02 +1.28265321e-01 +3.21348831e-02 -8.53555743e-03 +2.14677360e-02 +1.87196843e-02 -1.04036331e-02 +1.17653226e-02 -1.24652088e-02 +1.59161225e-01 +1.21239843e-02 -1.04513438e-02 +5.85488463e-03 +6.95785165e-01 +6.00674748e-02 -1.00992657e-01 +4.00416739e-02 +6.34885877e-02 -8.41578692e-02 +2.86115557e-01 -7.80346990e-02 -4.82546873e-02 +4.33123112e-02 +2.52038278e-02 +1.26592338e-01 -8.62117633e-02 +1.75253749e-02 +5.32135591e-02 +2.04729680e-02 +3.15430880e-01 +1.03371382e-01 +1.69504748e-03 +1.86277375e-01 +1.55694604e-01 -2.20205516e-01 -3.66012976e-02 -1.48678824e-01 -3.51327695e-02 -6.47164732e-02 +8.94957110e-02 +1.74890205e-01 -5.16283289e-02 -2.98717245e-03 +2.23526821e-01 -4.41334285e-02 +1.52088508e-01 -1.46001866e-02 +3.02702427e-01 -3.69554162e-01 -8.37675929e-02 +1.46038443e-01 -2.07453415e-01 +1.03482813e-01 +4.60113585e-02 -1.49730757e-01 +1.69297919e-01 -2.65446305e-01 -1.75723676e-02 -5.01183756e-02 -1.68880336e-02 +4.30703387e-02 +1.31121770e-01 +9.58639663e-03 +1.15267053e-01 +4.65334728e-02 -6.56311959e-02 +2.10032277e-02 +4.27118465e-02 +1.18219644e-01 +1.54254539e-03 -6.65428042e-02 -2.01683000e-01 +2.31800955e-02 -6.77772239e-02 -5.78048676e-02 -1.30070567e-01 -2.24256203e-01 -3.82571220e-02 -8.60126968e-03 +1.04400985e-01 -2.69609660e-01 -1.15909375e-01 +1.85492948e-01 -1.54542014e-01 -4.35938733e-03 +2.49811679e-01 -1.14030637e-01 +6.65312484e-02 +1.09917663e-01 -1.41751558e-01 -1.01875715e-01 -3.10934409e-02 -6.44707754e-02 -1.62529826e-01 -4.65769507e-02 +3.71160984e-01 -1.45752221e-01 -8.35719481e-02 -9.51017719e-03 -4.04103771e-02 -1.71021864e-01 -3.78500402e-01 -5.11610657e-02 -1.16033040e-01 +3.55570257e-04 +1.69380114e-03 -3.95291205e-03 -2.34079376e-01 -1.01409972e-01 -2.66941905e-01 -2.02702001e-01 -2.21594751e-01 -4.63855788e-02 -1.46764442e-02 -8.38059746e-03 +1.43483922e-01 -1.09874576e-01 +7.74900243e-02 -3.57352942e-01 +2.09189486e-02 +6.07550032e-02 +4.08234954e-01 -1.70015663e-01 -4.80176434e-02 -4.70348299e-01 -3.20497155e-02 +2.95965195e-01 -2.93412834e-01 -7.66838267e-02 +1.25919610e-01 +4.43567336e-02 +4.45093587e-02 -1.96339920e-01 -2.79123392e-02 -1.56202167e-01 -3.79133262e-02 -2.48129405e-02 +9.60432459e-03 +1.73071399e-01 +4.07400914e-02 -4.64225225e-02 +1.90511331e-01 +5.52737415e-02 +3.32879722e-02 +4.14646119e-02 +3.23489159e-02 -1.09790243e-01 +1.42173886e-01 +7.64604807e-02 -1.54385522e-01 -1.88511506e-01 +6.06779344e-02 +5.92822880e-02 -9.66371074e-02 -1.81433573e-01 +1.16151504e-01 -6.30354434e-02 -2.94921339e-01 -8.29562023e-02 -4.57434878e-02 -5.63842990e-02 +1.76093280e-01 -7.43878782e-02 -9.47881415e-02 -2.86426932e-01 +6.11557551e-02 -6.29683658e-02 +3.51143889e-02 +2.93118000e-01 +1.22921601e-01 +2.06493121e-02 +3.47695768e-01 +1.00505454e-02 -8.68392140e-02 -1.91217251e-02 -9.99939218e-02 +2.44360045e-01 +1.66632161e-01 -5.51975146e-02 -4.10955995e-02 -1.68710146e-02 -5.45998365e-02 -2.05772042e-01 -3.57588492e-02 -1.79615691e-01 -1.42716896e-02 -1.03748918e-01 -1.05677471e-01 -6.29592538e-02 -4.55700248e-01 +5.45992069e-02 -9.78299901e-02 +3.74984518e-02 -3.63816097e-02 +5.97445443e-02 +1.56395286e-01 +1.85918078e-01 -7.68676996e-02 -1.14217147e-01 +6.28158450e-02 +2.99795084e-02 -3.18243611e-03 +1.85945407e-02 +4.34818327e-01 -7.76722953e-02 -1.36020230e-02 -9.78938341e-02 +7.88451508e-02 -7.35968798e-02 +9.97017324e-02 +1.32163435e-01 -1.66796938e-01 +1.27095096e-02 +4.83821109e-02 +4.76072580e-01 -1.15856737e-01 +1.06214486e-01 +6.64209872e-02 +1.98775336e-01 +9.74998623e-03 -4.43553478e-02 +1.64442975e-02 +6.14006594e-02 +7.23629817e-02 +1.91738397e-01 -4.53703478e-02 +6.90193325e-02 +3.59241992e-01 +5.57043664e-02 -6.15223609e-02 +3.20071816e-01 +6.16806507e-01 -5.66938370e-02 -9.91369947e-04 +3.77083644e-02 -8.09733272e-02 -2.65797209e-02 -7.60186184e-03 +1.65862814e-01 -2.69571804e-02 +3.79569717e-02 -5.20099886e-02 -1.35605142e-01 -6.34975731e-02 -3.54844362e-01 +9.96544510e-02 -8.67304057e-02 -1.49449781e-02 -2.94903778e-02 -1.09543614e-02 -2.22478136e-02 -8.33170041e-02 +2.41552353e-01 +1.15652710e-01 +3.55740905e-01 -6.05874062e-02 -6.68789223e-02 -7.17137707e-03 -4.35147285e-02 +5.60975708e-02 -4.66648079e-02 +5.26116155e-02 +2.86129396e-02 -1.96785554e-02 +2.67210379e-02 -1.62717961e-02 +1.42296061e-01 +6.13643834e-03 -5.75068370e-02 -7.02787697e-01 -1.98786288e-01 -2.99135409e-02 -2.89269239e-02 -8.03318620e-02 +1.71255171e-02 -4.03233677e-01 -1.28321396e-02 +1.14816882e-01 -1.25602148e-02 -1.09565385e-01 -8.46013054e-03 -1.65710613e-01 -1.00487486e-01 +3.66140306e-02 +1.78228819e-03 -1.39256671e-01 -8.65033455e-03 +1.27189774e-02 +3.64520140e-02 -1.15045970e-02 +8.56463145e-03 +1.03943333e-01 -3.64438482e-02 -5.48461415e-02 -2.67707324e-03 -3.30363996e-02 +2.19782919e-01 -4.68613803e-02 -9.41934735e-02 +1.10212445e-01 -8.33239965e-03 -3.89245190e-02 -1.65326465e-02 -5.61026484e-02 -1.91414043e-01 -2.45737925e-01 -1.07108310e-01 +1.89080551e-01 -9.03833285e-02 -8.30853265e-03 -1.67462498e-01 +4.09702137e-02 -2.63175294e-02 +7.02722073e-02 +1.16117410e-02 -6.55032136e-03 +5.12699969e-03 -1.33215308e-01 -1.96139840e-03 +1.06922224e-01 -6.40901970e-03 -1.00541383e-01 +3.69364806e-02 -7.82602951e-02 -8.95048454e-02 -3.62692103e-02 +4.57923335e-04 +1.43495470e-01 -5.03866076e-02 +1.10666759e-01 -1.57948860e-04 +9.02072415e-02 -1.12566121e-01 +4.60810550e-02 +2.91683841e-02 +5.30913025e-02 +8.23392496e-02 -1.21165238e-01 -6.04920164e-02 -6.95072860e-02 -5.99682666e-02 +1.23875394e-01 -6.47528917e-02 +3.07770558e-02 +2.24529877e-01 -1.29914179e-01 -2.07395166e-01 -1.07333712e-01 -4.65949997e-03 +9.97679457e-02 +1.30905788e-02 -6.40841499e-02 -4.00975794e-02 +5.56301028e-02 +1.22225441e-01 +1.01825051e-01 -3.15288529e-02 -2.77125537e-02 -6.67514354e-02 +1.05157152e-01 +9.47351903e-02 +7.09820911e-02 -1.61845878e-01 +2.35348474e-02 -1.38142422e-01 -1.84315488e-01 -5.95160164e-02 +2.82118231e-01 -4.97576334e-02 -8.25876743e-02 +6.28109649e-02 +1.05544232e-01 -1.96301024e-02 -9.35551077e-02 -3.38639058e-02 +7.44002238e-02 +1.97985396e-01 +1.02387965e-01 -9.49216709e-02 -1.14817783e-01 +5.38496412e-02 -2.19576254e-01 +1.11757768e-02 -1.74995318e-01 -4.88656722e-02 -1.25840217e-01 -8.66837576e-02 -3.11621726e-02 +1.11652911e-01 +1.75656766e-01 -5.30133583e-03 -2.46547237e-01 -1.18977809e-02 +5.07896133e-02 -1.26959175e-01 -1.40673250e-01 -2.18201168e-02 -1.52631655e-01 +8.60375613e-02 +8.79254788e-02 +7.11674839e-02 +1.80113260e-02 -6.72294199e-02 -6.92431405e-02 -9.40289255e-03 -5.88720068e-02 -1.09563641e-01 +1.30574867e-01 +6.68414533e-02 +1.62904933e-01 +2.48554070e-02 +5.12364320e-03 -6.34043217e-02 +2.39280134e-01 -4.11268584e-02 +1.06676683e-01 +1.27676623e-02 +1.47494078e-01 -1.28711788e-02 +2.04863679e-02 -1.34595096e-01 -2.15123698e-01 -9.52326432e-02 +1.29497731e-02 +3.25902961e-02 +1.54003620e-01 +1.19386159e-01 -1.66980922e-02 +1.14943139e-01 +7.33885840e-02 -4.19469550e-02 -3.11522707e-02 -7.87303820e-02 +7.53568485e-02 -1.23135038e-01 +1.46235824e-02 +1.66589513e-01 -2.46115401e-02 -2.18535170e-01 +8.54756013e-02 +3.83488238e-02 +1.57950222e-01 +8.10334284e-04 +3.97073738e-02 -6.41562492e-02 -7.97904134e-02 -6.76067770e-02 +3.80071625e-02 +8.73769224e-02 -7.48556778e-02 -1.44206375e-01 -8.17823634e-02 -1.62866071e-01 -1.46411449e-01 +3.31832081e-01 -1.01042517e-01 +5.02127409e-02 +9.45921093e-02 -4.22707126e-02 -7.03163445e-02 -1.09320760e-01 -1.02907997e-02 -8.94082859e-02 +1.42284617e-01 -5.50114028e-02 +2.62821317e-02 -2.84709960e-01 +2.02408507e-01 +1.63205769e-02 +1.09984688e-01 -1.19700085e-03 -2.41274163e-02 +4.83736135e-02 +1.19771935e-01 +1.89679876e-01 +1.18396850e-02 +1.02768131e-01 +3.96358848e-01 +3.73856090e-02 -1.75974905e-01 +1.76469442e-02 +6.73372746e-02 -3.90686952e-02 -9.69461650e-02 -2.83271726e-02 -2.08994616e-02 -1.70937441e-02 -2.98706181e-02 -5.92927448e-02 +5.49354106e-02 +7.04993755e-02 -9.85935554e-02 -1.89146809e-02 +7.69689754e-02 -5.40076979e-02 +4.41834331e-03 -1.83085725e-02 +7.92946666e-02 +1.81256440e-02 +1.45647109e-01 -1.50030151e-01 +1.85789198e-01 -1.70590766e-02 -8.04744214e-02 +4.15544165e-03 +1.16282880e-01 +1.01100221e-01 +8.40078592e-02 -4.57439013e-02 +2.11057682e-02 +8.01733285e-02 +2.07506567e-01 -7.56622106e-03 +4.50056046e-02 +7.51693845e-02 -1.86516400e-02 +4.38880660e-02 -2.80833781e-01 +1.06180487e-02 +2.48588786e-01 -9.50981826e-02 +1.25751838e-01 +1.17348306e-01 -1.11136138e-01 +1.52924314e-01 -2.44868696e-02 +5.28868139e-02 -1.21280625e-01 +6.25178888e-02 -1.84773833e-01 -9.33392253e-03 -1.82550214e-02 +6.92125857e-02 +2.94564590e-02 -1.02462262e-01 +8.17002077e-03 +1.54513437e-02 -1.69386156e-02 -1.59851253e-01 -1.42469406e-01 +1.21271253e-01 +9.60009266e-03 +6.96115419e-02 -2.71565914e-01 +7.74508566e-02 -8.53438750e-02 -1.51050627e-01 -6.92237692e-04 -2.09772304e-01 +3.18435661e-04 +1.42772198e-01 -2.22350210e-02 +1.51435077e-01 -4.04666141e-02 +2.52561390e-01 +3.96355912e-02 +1.05111107e-01 +7.41117224e-02 -4.92590703e-02 -2.15538442e-01 +5.12976803e-05 +3.19273360e-02 +6.55325204e-02 -1.19328454e-01 +1.00827865e-01 +2.41401717e-01 -2.90475618e-02 +1.70429721e-01 +3.12529594e-01 -1.11848876e-01 +2.40461364e-01 +8.80548060e-02 +1.31458402e-01 -1.03349842e-01 +6.51116967e-02 -2.07699537e-02 -2.95303613e-02 +1.90968439e-01 -4.08737436e-02 -2.00178567e-02 -5.48382401e-02 +7.73375761e-03 -8.25895667e-02 -1.87217057e-01 -2.20550615e-02 +2.10471861e-02 +1.58239603e-01 -8.24535564e-02 -2.55389690e-01 -9.48163942e-02 +1.17542714e-01 -2.21568361e-01 +1.11202784e-01 -4.85069342e-02 -1.85095090e-02 +2.03610748e-01 -3.09497230e-02 +3.80794033e-02 -2.06692621e-01 +2.73056701e-02 -5.56554087e-03 +7.91288912e-02 +1.54962018e-01 +1.82706147e-01 -6.21944442e-02 -4.86911535e-02 -1.32739702e-02 +4.19303566e-01 +7.23692924e-02 +2.53098369e-01 +5.74658886e-02 -1.88427065e-02 +1.69801354e-01 -6.92291260e-02 -1.40559331e-01 -4.80585024e-02 -2.59469509e-01 -1.76659247e-04 +3.02512757e-02 +4.01371866e-02 -3.84276845e-02 +2.35652030e-01 -7.03480793e-03 -3.81280831e-03 -7.15927407e-03 -4.31596227e-02 -2.12678351e-02 +2.74877369e-01 -1.69017121e-01 -1.56080842e-01 -7.57431149e-01 -1.63312733e-01 -8.71637315e-02 +2.10000575e-01 -2.16131106e-01 +1.03253789e-01 -6.22817054e-02 -3.02700419e-02 +5.88525534e-02 -1.15663648e-01 -1.05773069e-01 +5.48098385e-02 -1.60713062e-01 -1.05342172e-01 -6.09264970e-02 -4.54548281e-03 -2.27628741e-02 -1.09950125e-01 +1.50816157e-01 +1.08670682e-01 +4.74959947e-02 +5.77136390e-02 -2.45155916e-02 +9.73050855e-03 +2.87404329e-01 -2.08522752e-02 -2.39938751e-01 -5.22388518e-02 -1.54718667e-01 -7.62366429e-02 +7.76348710e-02 +2.75561735e-02 +3.85670513e-02 -3.56382839e-02 +1.46759629e-01 +2.32462175e-02 -2.05571994e-01 -3.63897830e-02 -8.62927213e-02 -4.61811759e-02 +1.35567322e-01 -8.84836465e-02 +8.49037468e-02 +2.99456064e-02 +1.00829497e-01 +9.18648764e-02 -1.46524906e-01 -1.41255498e-01 +9.88143310e-02 +1.74696431e-01 -6.13594130e-02 +3.83445248e-02 -1.51595086e-01 +3.02372247e-01 -1.14586867e-01 -1.17947832e-01 -1.13663457e-01 -2.08194152e-01 +5.13215810e-02 -1.98050156e-01 -1.20276980e-01 +4.87182513e-02 -1.02606617e-01 -3.62547077e-02 +5.13055781e-03 +6.49439916e-02 -8.23190063e-02 +1.72365516e-01 -8.35981127e-03 +9.22034308e-03 +2.34571248e-02 -5.73300309e-02 -7.98288584e-02 -5.69515638e-02 -1.48019373e-01 +2.16878936e-01 -1.14252374e-01 -3.88005539e-03 -3.16253528e-02 +1.96594745e-02 -1.48990229e-01 -8.61869603e-02 +4.12342958e-02 +1.00576445e-01 -4.23777923e-02 -5.29177822e-02 +7.62027577e-02 +1.61661565e-01 +3.72607931e-02 +4.13428620e-02 +1.62940413e-01 -3.87491025e-02 -2.12784827e-01 +3.57267447e-02 +1.15939423e-01 +1.75276220e-01 +5.25391959e-02 +9.04574841e-02 -6.11513034e-02 -7.88549706e-03 +1.75964981e-01 +1.13306277e-01 +8.92257260e-04 +1.07479393e-02 -1.08694673e-01 +2.70545222e-02 -1.90393880e-01 +1.25481270e-03 +1.26432516e-02 -4.30760756e-02 -1.77802786e-01 -7.06318021e-02 -2.93421205e-02 +1.37308806e-01 +4.30716835e-02 +1.28331095e-01 -4.37876582e-02 -1.93575397e-01 +1.48684829e-01 -3.11924279e-01 +8.82112905e-02 -4.39343713e-02 +1.32131413e-01 +6.09936081e-02 +1.28704518e-01 -1.39013112e-01 +7.03515932e-02 +9.93978381e-02 -8.94589648e-02 -2.96577420e-02 +4.84838784e-02 +1.64260924e-01 +1.13298208e-01 -1.67584941e-02 +1.46133095e-01 -1.36713490e-01 +8.60500615e-03 +6.17513470e-02 -4.42106370e-03 -1.12331152e-01 -1.48155048e-01 -1.17126390e-01 +2.20963508e-01 +1.78133085e-01 -2.61067241e-01 -7.41637573e-02 -2.60611270e-02 -7.26629570e-02 -1.42444879e-01 +1.74588740e-01 +1.92421066e-04 +6.41806498e-02 +1.44369110e-01 +1.20877013e-01 +6.05497733e-02 -1.09237149e-01 +1.06448005e-03 -8.91811475e-02 -4.64407429e-02 +3.58739938e-03 -1.31556585e-01 -1.46268740e-01 +4.75154221e-02 +9.13553312e-03 -1.06903590e-01 -5.72272278e-02 -3.07868775e-02 +1.96531817e-01 -1.80396922e-02 -2.20933780e-01 -4.37894557e-03 +5.83814420e-02 +1.17075764e-01 -2.39911359e-02 +1.74979031e-01 +2.57001389e-02 -2.61042602e-02 -1.19639479e-01 +2.14096650e-01 +1.06887706e-01 -1.24715842e-01 +1.45828733e-02 -1.64026320e-01 +8.25426951e-02 +2.42583640e-02 -1.32201100e-02 +4.03879508e-02 -6.21955059e-02 +5.65949455e-02 -1.69379085e-01 +1.06870413e-01 +5.72834723e-02 +9.04461890e-02 -4.94134724e-02 +1.36778712e-01 +4.02527582e-03 -1.07630648e-01 -1.94780603e-01 -4.55882177e-02 +1.63894385e-01 +8.96789134e-02 -3.39208245e-02 +5.16367704e-02 +1.36730030e-01 -2.25380823e-01 -4.13820297e-02 +2.87933052e-02 -9.81673077e-02 +3.91094051e-02 -3.10557485e-01 +9.10543799e-02 -1.50996111e-02 +5.99785820e-02 -2.02902853e-01 +4.98266965e-02 -2.49918133e-01 +5.11794863e-03 +3.14550544e-03 -1.61547102e-02 -2.31098905e-02 +6.94125965e-02 +1.83900088e-01 +5.05325720e-02 +7.44569441e-03 +9.33973417e-02 +4.58962843e-02 +1.08553141e-01 -8.53125602e-02 +1.65714771e-02 -5.29317074e-02 +2.08379384e-02 -1.67793706e-01 -2.13433499e-03 -2.76189625e-01 +1.91340357e-01 +9.96141806e-02 +2.92796269e-02 +5.99310212e-02 +8.28540102e-02 -1.14619836e-01 +5.55196777e-02 +2.65696973e-01 +2.03058440e-02 -5.68957403e-02 -4.51649986e-02 +1.99375957e-01 +7.93493092e-02 +1.51052296e-01 -4.28808302e-01 -5.81798479e-02 -1.10126458e-01 +8.50788578e-02 -2.38205016e-01 -2.01896772e-01 +2.04434812e-01 -1.86430663e-01 +2.69864351e-01 -1.11828700e-01 -8.93676281e-02 +8.58114436e-02 -1.40329555e-01 +1.03414848e-01 +5.52557781e-02 -1.10649250e-01 -5.15080839e-02 +4.65704724e-02 -4.15530689e-02 +4.54134531e-02 +7.14724734e-02 +4.71574441e-03 -2.50108004e-01 -1.44387156e-01 +1.14530258e-01 +8.98659527e-02 +1.19245566e-01 -6.40776008e-02 +8.15780312e-02 -1.11473553e-01 +5.97317033e-02 +4.56016399e-02 -8.76381546e-02 -1.71642180e-03 -1.11141965e-01 -6.15203157e-02 +4.52070460e-02 +2.38756850e-01 -5.47212809e-02 +1.30242720e-01 +6.76514059e-02 +1.32948747e-02 -4.23266627e-02 +1.53504431e-01 -1.42788412e-02 -8.91790241e-02 +1.00583598e-01 -5.47562130e-02 -1.58250615e-01 +5.35559058e-02 +1.12356782e-01 +1.14199305e-02 -3.61718275e-02 -1.64932422e-02 -1.91468075e-02 -2.52141058e-01 +1.07030375e-02 -4.37422730e-02 -2.95278267e-03 +4.26722467e-02 -8.81623179e-02 +2.52090078e-02 -6.37722611e-02 +5.02226949e-02 +4.99745980e-02 -6.37655407e-02 -1.74356475e-02 +6.83053210e-02 +3.01932730e-02 +4.69764434e-02 +1.87424384e-02 -1.36881573e-02 +1.63174514e-02 +2.31633410e-02 +8.80005397e-03 +4.13296111e-02 +5.97351138e-03 -4.45345789e-03 -3.04988343e-02 -5.84790818e-02 -2.81515587e-02 +8.27146918e-02 -7.79070854e-02 +7.00572282e-02 -6.76444694e-02 -6.48669153e-02 +2.80085653e-02 +6.64760545e-02 -5.50059415e-02 -2.72667855e-02 -2.06947457e-02 +1.00803494e-01 -5.65558486e-02 -5.24235219e-02 +2.05846671e-02 +8.08714479e-02 +6.76545650e-02 -9.73221939e-03 -1.48055583e-01 -6.13550842e-02 +5.46515025e-02 -4.01750617e-02 +6.17472567e-02 +3.03160287e-02 -1.74393393e-02 -1.67771094e-02 +4.70645400e-03 -1.46217048e-01 +1.19352981e-01 -3.87367345e-02 +8.41210186e-02 -5.63106090e-02 +1.99203603e-02 -1.07700266e-01 +5.83974160e-02 +3.76616493e-02 +2.56880224e-02 -1.20187821e-02 +6.18503392e-02 -5.15580177e-02 -1.04208961e-01 -3.78764644e-02 +7.69411847e-02 -6.60504252e-02 +3.09294052e-02 +3.11374329e-02 +3.14504690e-02 -6.92837164e-02 +6.99416362e-03 -6.98556229e-02 +1.80796757e-02 +1.53276771e-02 +5.43316416e-02 -3.75515334e-02 -9.50002745e-02 +1.13665454e-01 -1.30606201e-02 +1.89837515e-02 +8.46765712e-02 -4.41607907e-02 +5.96424267e-02 -6.63669109e-02 -1.67070888e-02 -1.82840917e-02 -1.14155136e-01 +1.22428060e-01 -6.27046227e-02 +1.10889114e-01 +2.20771395e-02 +6.97237700e-02 +1.48426811e-03 -4.59796488e-02 +7.12056831e-02 +5.53201465e-03 -8.53297412e-02 +3.55353877e-02 +8.86025727e-02 -3.90759334e-02 +4.48041689e-03 -1.00993454e-01 +2.25277734e-03 +9.70729366e-02 +5.02788723e-02 -6.68043569e-02 -2.68312935e-02 -5.73848486e-02 -2.84166820e-02 -3.06266155e-02 -1.63413838e-01 +2.51827873e-02 +5.18026277e-02 +6.54872879e-02 +3.65901217e-02 +1.22314356e-01 -1.22945514e-02 -1.11501418e-01 +4.54370528e-02 +2.52603423e-02 -3.12967482e-03 +1.54864118e-01 +2.11133398e-02 -8.01734906e-03 -2.05129478e-02 -5.58862351e-02 +7.50123039e-02 -8.58920068e-02 +9.66763943e-02 -9.66609046e-02 -1.15490794e-01 -1.55188635e-01 -1.17054343e-01 -2.21953429e-02 -1.52054712e-01 -5.33770993e-02 -2.03881767e-02 +9.35113803e-02 +1.00108936e-01 -1.10795652e-03 -1.60209060e-01 -2.73822788e-02 -7.06311017e-02 +4.76901680e-02 +6.34139078e-03 -3.26419212e-02 +3.00891232e-02 -3.15677747e-02 +6.49301335e-02 +4.08932893e-03 +5.60008325e-02 -1.20741934e-01 +1.44443378e-01 -2.36536205e-01 -1.66608676e-01 +9.14444551e-02 -1.68350115e-02 +1.06392011e-01 -9.29401940e-05 +2.05532953e-01 -1.07214727e-01 -8.43753293e-02 -9.97412503e-02 +7.00692832e-02 -1.12893648e-01 +1.13034032e-01 +1.29164368e-01 -7.44769722e-02 -8.92143324e-03 -8.97959620e-02 +6.48024976e-02 -9.40525997e-03 +9.32984694e-05 +5.54198176e-02 +8.00347626e-02 +1.30196318e-01 -1.74345464e-01 -1.51324540e-01 +9.60357934e-02 +9.29502696e-02 -2.46857256e-02 +1.83391422e-01 -7.51929283e-02 -5.59984855e-02 +7.94637278e-02 -4.22313102e-02 +3.57159264e-02 -5.62175596e-03 -1.27955358e-02 +7.47148991e-02 -1.73256055e-01 -1.61532044e-01 -8.88138544e-03 -4.40955497e-02 +1.08228460e-01 +2.30967268e-01 +1.12665690e-01 -8.70680809e-02 +3.62395751e-03 +3.26990709e-02 -3.27420607e-02 -3.96396220e-03 +9.39175580e-03 -9.13391784e-02 -7.01972023e-02 -4.46976721e-02 -1.47878692e-01 -4.00954522e-02 +5.54986708e-02 -2.91371136e-03 +3.80008332e-02 -2.10048873e-02 +1.31510377e-01 -2.82598436e-02 -8.88762716e-03 -1.65290982e-02 -4.32096981e-02 -2.87361126e-02 -8.32104310e-02 +2.32855342e-02 +5.68923876e-02 +5.13961054e-02 +1.02243960e-01 -1.16115853e-01 +1.60396934e-01 +1.69971824e-01 +4.43906486e-02 -5.16201444e-02 -6.14585020e-02 -9.48617160e-02 -2.07129084e-02 +7.52624348e-02 +2.49522716e-01 +5.49304411e-02 -7.02680722e-02 -1.50505140e-01 -7.36868009e-03 -5.64110018e-02 -6.24006800e-02 -1.28017247e-01 -1.09861694e-01 +6.00028634e-02 +3.41429859e-02 -1.53045997e-01 -7.65420794e-02 -5.25777750e-02 +9.20639634e-02 -1.55017927e-01 +2.04505175e-01 +4.63207364e-02 -1.24248497e-01 -3.19131464e-03 -1.44671753e-01 -7.42642721e-03 -6.07979670e-02 -8.80440846e-02 +1.68944135e-01 -6.83667734e-02 +1.56792104e-01 +1.73479542e-01 -1.06799677e-01 -1.06644165e-02 -1.87282503e-01 -1.58219099e-01 -1.74618855e-01 -1.57961205e-01 -8.62190872e-02 -1.65575191e-01 +1.08461916e-01 +2.72909462e-01 -9.00814459e-02 -7.47730397e-03 -1.74290631e-02 -2.60748267e-01 -3.81591916e-02 +1.28084365e-02 +1.46571279e-01 -9.53101963e-02 +1.72730554e-02 +9.06557739e-02 -7.54465610e-02 +2.16720045e-01 +1.51791736e-01 +2.85992082e-02 +4.92105111e-02 -1.57276131e-02 -9.17155594e-02 -2.10807160e-01 +7.45592965e-03 +1.43985599e-02 +1.47913918e-01 -4.44820300e-02 -2.34476805e-01 -2.56877765e-02 +5.10137044e-02 +3.75593156e-02 -8.37351307e-02 +1.24796376e-01 +2.47741267e-02 +2.04287171e-02 -8.37096423e-02 +9.04322714e-02 -1.92090720e-01 +6.18624873e-02 -1.16321787e-01 -9.57507417e-02 +4.74451408e-02 +8.95710066e-02 -1.37957066e-01 -3.33359316e-02 +2.66261622e-02 +2.19289195e-02 +6.83983266e-02 +3.87273468e-02 -8.06622505e-02 -4.89796437e-02 +9.43478867e-02 -2.10247084e-01 -2.20893435e-02 -3.65652815e-02 -2.93774400e-02 -1.06474599e-02 +4.54724096e-02 +1.05200239e-01 -2.91607436e-02 +2.79390588e-02 -2.42938936e-01 +1.18455529e-01 -3.81159931e-02 +2.15787403e-02 -1.38863787e-01 -1.29671440e-01 +1.02241952e-02 +2.10599843e-02 -3.59904319e-01 +9.95535520e-04 -9.76403505e-02 +2.18647599e-01 -3.45203757e-01 -1.97862480e-02 +1.20907626e-03 +5.19021228e-02 +5.54493144e-02 -1.92786500e-01 -1.46125302e-01 -7.25606605e-02 -5.10455668e-02 +8.27026442e-02 +1.05770856e-01 +3.24861184e-02 +4.50833738e-02 -8.05361643e-02 +1.06322587e-01 +6.45424500e-02 +3.65302525e-03 +9.26783755e-02 +1.86136648e-01 +1.15079157e-01 -5.29704615e-02 +1.96735084e-01 -1.59360897e-02 -2.69510727e-02 +3.28172185e-02 +3.15006897e-02 +2.54975371e-02 -9.43670329e-03 -6.74144700e-02 -7.18670636e-02 +1.29247561e-01 -1.33591115e-01 +1.07854649e-01 -5.66018932e-03 -6.64937645e-02 -6.68247491e-02 +6.30485788e-02 -3.55271429e-01 -1.90937951e-01 -6.44847900e-02 -2.04800561e-01 -4.97549810e-02 -1.98551983e-01 +1.27371505e-01 -3.07570398e-02 -5.40829338e-02 +1.29012540e-01 +3.77315708e-04 +2.05170549e-02 -5.92337660e-02 +2.23646984e-01 -1.26354128e-01 +1.82617038e-01 -7.69873336e-02 +5.89110004e-03 -1.01007342e-01 +9.33032632e-02 +6.40940890e-02 +3.48862112e-01 +1.06031261e-01 +2.34534413e-01 +6.37422353e-02 -3.89409475e-02 -6.75384596e-04 -2.16033325e-01 -2.91704476e-01 +2.39928067e-01 +1.73183680e-02 +1.06431045e-01 -1.42282873e-01 -3.18645090e-01 +3.78755063e-01 +1.83642462e-01 +4.07726802e-02 -3.10144946e-02 -1.91238478e-01 -4.28074598e-01 +6.36617988e-02 -3.00999023e-02 -1.82763025e-01 +2.15092637e-02 -1.23333983e-01 -5.31252399e-02 -3.30667458e-02 -1.11971144e-02 +2.84654852e-02 +1.51959091e-01 +1.46372497e-01 -7.12421304e-03 -1.98143069e-03 -5.23883328e-02 +5.31604625e-02 +1.00110911e-01 -2.21562982e-01 -2.30974808e-01 -2.13215306e-01 -2.86081098e-02 +4.00652876e-03 +2.18360290e-01 -1.45732522e-01 -1.39996961e-01 +8.74366015e-02 +1.30421832e-01 +2.60108560e-01 -1.06413446e-01 +6.45119622e-02 +4.96113896e-02 -1.80564657e-01 +6.72109649e-02 +1.00124575e-01 +7.08748354e-03 +6.48068562e-02 +3.77014163e-03 +9.12113264e-02 +7.97126517e-02 +9.61275026e-02 +2.26814613e-01 -2.58776903e-01 -2.66808510e-01 -1.74003579e-02 +9.91305485e-02 -3.02427769e-01 +1.39648348e-01 -8.24620873e-02 +1.30256236e-01 -2.83812374e-01 +7.63688460e-02 +2.30040789e-01 -1.30902559e-01 -5.16488822e-03 +1.69425067e-02 +2.33693719e-01 +2.70106830e-02 -2.21551314e-01 +1.72756627e-01 -2.90165633e-01 -1.32918701e-01 -1.81139827e-01 -3.95226292e-02 +2.56835699e-01 -1.43857136e-01 -5.50827459e-02 +1.92489818e-01 -5.13334246e-03 -2.72161514e-01 +5.65486737e-02 -5.46782650e-02 -6.72823712e-02 +1.76563233e-01 -2.22322747e-01 -7.79138580e-02 -4.20049489e-01 -1.42868340e-01 -6.76626861e-02 -1.40338317e-01 +3.81614417e-02 -1.65214837e-01 -1.21210642e-01 +2.68890202e-01 +3.15669477e-01 -6.10387586e-02 +7.88240582e-02 +5.86823188e-02 -9.54253003e-02 -8.79520774e-02 -1.40233144e-01 -2.08971389e-02 -2.01903701e-01 -6.70497268e-02 -2.08324239e-01 -3.99822078e-04 +7.43770823e-02 -1.11135304e-01 +1.89002592e-03 +1.46912172e-01 -1.50098577e-01 -4.34067212e-02 -8.23458210e-02 +4.50305119e-02 -1.89963594e-01 -7.64590800e-02 +1.42380863e-01 +6.38094097e-02 -3.32264006e-02 +5.44652008e-02 +1.24428058e-02 -1.10968880e-01 -1.26372203e-01 -1.17426500e-01 -2.99186200e-01 +2.03169942e-01 +1.62434727e-02 +5.59559744e-03 -3.10388673e-02 +4.18715775e-02 -5.92524372e-02 +1.98633656e-01 +8.41941833e-02 +5.72060682e-02 -1.70470431e-01 +3.12037971e-02 +7.15274885e-02 +1.87535331e-01 +3.97472493e-02 +2.01913156e-02 +3.33116688e-02 +2.04610154e-02 +3.01009510e-02 -2.85526216e-02 -1.07858293e-01 +1.45181110e-02 +1.38712689e-01 -1.01371989e-01 +7.08409175e-02 -2.42423490e-02 +2.13020876e-01 -5.62506579e-02 -5.67347482e-02 +1.48612484e-01 -3.34771015e-02 +1.17877737e-01 -1.68309435e-02 -7.44302273e-02 +5.34934886e-02 +2.01852005e-02 -1.93132490e-01 +4.33052257e-02 -1.27428994e-01 -7.02090561e-02 -2.29748711e-01 -7.12089911e-02 -1.19982161e-01 +1.96580589e-02 -2.00220607e-02 +6.44601434e-02 -6.34377599e-02 +4.77622487e-02 -2.21517216e-02 -2.35775299e-03 -8.33067447e-02 +1.25585452e-01 -1.19919010e-01 +6.04637116e-02 -1.68505996e-01 -1.32921219e-01 -1.33601680e-01 -1.96918938e-02 -2.19892617e-02 +1.00520931e-01 -1.21234655e-02 -9.13401097e-02 +9.63118579e-03 +4.35188971e-02 +1.06786080e-02 -1.50136322e-01 -4.57853377e-02 -1.59581348e-01 -7.00857788e-02 +5.76454662e-02 -1.04309715e-01 -4.39186245e-02 +9.48886946e-02 +1.75289828e-02 -1.64355680e-01 -1.06495507e-01 -1.15044704e-02 -1.02032863e-01 +3.59370224e-02 -8.27051252e-02 -8.51628929e-02 -4.61258516e-02 +1.65706091e-02 -1.36250913e-01 -2.01597661e-02 +9.49635208e-02 -1.70024075e-02 -3.42882834e-02 -1.63581282e-01 +8.94678906e-02 -5.21362899e-03 +9.89279449e-02 +7.62083009e-03 -1.38639674e-01 -1.07744932e-01 -2.82408148e-02 +3.73568051e-02 -7.32776970e-02 +3.14415582e-02 -6.58926740e-03 +2.12438889e-02 -2.19975803e-02 +6.06172718e-02 +1.88595161e-01 +6.60523772e-02 -9.23598465e-03 +5.90584576e-02 +1.13189779e-01 +6.03786781e-02 +1.07273608e-01 +3.20893973e-02 -1.25064701e-01 +7.80459419e-02 -9.95901152e-02 +2.61091381e-01 +1.39151394e-01 +5.78516833e-02 +1.02819011e-01 +8.94792527e-02 -2.69080643e-02 +5.24790771e-02 +4.32249457e-02 -1.22203209e-01 -4.27144840e-02 -1.15120888e-01 -2.47822069e-02 -2.47016922e-02 +1.55381272e-02 +4.94673438e-02 +1.00552820e-01 +8.83153975e-02 -3.44101153e-02 +5.10396846e-02 +9.33020487e-02 -8.50242656e-03 +4.00614180e-02 -4.41794805e-02 -2.46791635e-02 -1.70331985e-01 +2.00822651e-02 -6.46930411e-02 +4.18086052e-02 +8.23205803e-03 +1.01386212e-01 -9.50093046e-02 +1.62500575e-01 -1.33992136e-01 +7.97576504e-04 +6.95327835e-05 -3.92285958e-02 -3.43460366e-02 +4.40480672e-02 -3.91578861e-02 +1.38569891e-03 +6.53276369e-02 -1.26190692e-01 +2.42334798e-01 +5.87765649e-02 +2.09710494e-01 -1.73736915e-01 +5.91769889e-02 -6.26072660e-02 -2.50384733e-02 +3.01546007e-02 +4.18273956e-02 -5.51136881e-02 -9.90031958e-02 +1.06214166e-01 -1.55562814e-03 -9.63084847e-02 +9.29276049e-02 +5.02511151e-02 -5.27668484e-02 -1.68581828e-01 -1.80058777e-01 +7.14428648e-02 -9.48968455e-02 -2.24770620e-01 -2.92786080e-02 -1.18249729e-02 +7.77191529e-03 -2.51934994e-02 +2.22000867e-01 -4.09635622e-03 +3.62643898e-02 -6.70731738e-02 +1.96347266e-01 +4.24408577e-02 +5.53177744e-02 +9.13644284e-02 +5.34470454e-02 +1.16063587e-01 -5.43244146e-02 +4.19588424e-02 -1.63074974e-02 -3.11531778e-02 +1.76384617e-02 -1.77309483e-01 +6.63489997e-02 +3.78969521e-03 -9.82246026e-02 +5.62015921e-02 -1.70249686e-01 +3.21154654e-01 -5.75619452e-02 +4.46310872e-03 -4.50175367e-02 +3.46777178e-02 +4.74060811e-02 -1.27571952e-02 -3.24520506e-02 -8.08768719e-02 +3.66287157e-02 -3.05245649e-02 +1.05765811e-03 +1.13037489e-01 +6.88629001e-02 +2.97647621e-02 +1.88575697e-03 +7.40163326e-02 +9.51979533e-02 +4.43327241e-02 +2.07292378e-01 -7.14180842e-02 +5.13647608e-02 +1.43829092e-01 -4.03969064e-02 -1.47826806e-01 -1.09755665e-01 +2.28706375e-02 +2.67031509e-02 +1.35857567e-01 -4.93755639e-02 -4.91189677e-03 +1.23516060e-02 +3.64892296e-02 +1.11201704e-01 -3.53136584e-02 -8.19992051e-02 -3.47440690e-02 -4.36146930e-02 -7.17716217e-02 +9.42529738e-03 -5.40757217e-02 -8.81398320e-02 -3.67502421e-02 +5.45777157e-02 -7.31455833e-02 +4.57423106e-02 -1.51459530e-01 -1.16246901e-01 +6.16672598e-02 +2.00300459e-02 +2.05813888e-02 +2.49954592e-02 -9.71774757e-02 -1.09785445e-01 +9.90189219e-05 -8.15515816e-02 +8.68544653e-02 -1.35982677e-03 -1.31990373e-01 +5.60576282e-02 -2.81505883e-02 -8.88221860e-02 -1.14163943e-02 +4.88102846e-02 +4.13287245e-02 -1.12371137e-02 +1.19110331e-01 -1.20775968e-01 -1.48287699e-01 +2.98887175e-02 +9.70534422e-03 +7.82486647e-02 -2.83242296e-02 -6.00640737e-02 +2.89523955e-02 -3.03868931e-02 -5.54981234e-04 -7.05921696e-03 +6.27439097e-02 -3.42490338e-02 +1.61103942e-02 -1.19415589e-01 -6.85892031e-02 -3.42619754e-02 +5.64884655e-02 -6.34200424e-02 +1.27856776e-01 -9.75657778e-04 -5.67148812e-02 +8.80587250e-02 +1.25012815e-01 -1.72098607e-01 -8.99582654e-02 -1.05786614e-01 +1.08349994e-01 +1.15006521e-01 -4.91765253e-02 -5.93746863e-02 +1.76705748e-01 +1.07948102e-01 -1.74863194e-03 +1.84853356e-02 +3.82606126e-02 +4.41237576e-02 -1.11837924e-01 +5.96666597e-02 +1.79307684e-01 +3.03375330e-02 -6.28155470e-02 -4.87829885e-03 -1.36334365e-02 +2.12510582e-02 -1.84711292e-02 -5.61239012e-02 -2.04873189e-01 +1.79841533e-01 -3.59593816e-02 +3.67213339e-02 +7.25406259e-02 +6.92674750e-03 -9.90067646e-02 -1.62646368e-01 +2.69055143e-02 -6.63837940e-02 +3.51613462e-02 -1.35082863e-02 -2.56679673e-02 +4.17202078e-02 -1.24203168e-01 -3.93860452e-02 -2.56324932e-02 +1.02338143e-01 -1.04437046e-01 +1.18208472e-02 -1.53326720e-01 -1.30557388e-01 -5.08139320e-02 +5.59548326e-02 +2.29297802e-02 +2.68191695e-02 +7.78006986e-02 +1.04598805e-01 +1.38146896e-02 +1.48937345e-01 +2.37182481e-03 +4.81884666e-02 +4.17261682e-02 +1.41185541e-02 -1.72663733e-01 -6.55878559e-02 -1.62996333e-02 +1.50112929e-02 -3.79621089e-02 -8.83135721e-02 +1.29454553e-01 -1.68478228e-02 +2.25447472e-02 +1.08178563e-01 -7.75698498e-02 -1.77009508e-01 +1.29825637e-01 -5.83822951e-02 -7.64601454e-02 -8.10017660e-02 -1.81147419e-02 +6.70208707e-02 -1.88989908e-01 -8.60914811e-02 +1.99920848e-01 +1.30122110e-01 -4.32304591e-02 -3.70642799e-03 -9.58371088e-02 +7.65996501e-02 +2.78945118e-01 +7.02987611e-02 -6.35790974e-02 -4.84241322e-02 -1.26545325e-01 -7.55899325e-02 -1.79351285e-01 +1.31553024e-01 -5.08077890e-02 +9.67911705e-02 +9.07012844e-04 -3.03358398e-02 +2.95641162e-02 +2.76834462e-02 +2.64046527e-02 -5.24821505e-02 +7.15218857e-03 +2.96626128e-02 +1.02962367e-01 +1.59808978e-01 -3.63085680e-02 +4.62853834e-02 -1.89097542e-02 +7.08193928e-02 -2.00589579e-02 -1.73256934e-01 +8.57479945e-02 +4.31572497e-02 -1.63902655e-01 +2.31670111e-01 +5.18844612e-02 -1.17437437e-01 +2.22942829e-02 -1.42884642e-01 +1.06202334e-01 -1.15889169e-01 -7.95789063e-02 +5.15334159e-02 +5.69358915e-02 +1.37009069e-01 -1.90049440e-01 +6.59055337e-02 +2.08295546e-02 -4.24837694e-02 -1.00127123e-01 +1.27638817e-01 +1.24439985e-01 +3.20416719e-01 -1.74897030e-01 -3.29542980e-02 -1.73991024e-02 +5.94729483e-02 +1.24042265e-01 -6.26588017e-02 -2.59718508e-01 -4.78842333e-02 +1.46777347e-01 +1.33400373e-02 +5.06522506e-02 -2.78678862e-03 -3.12664658e-02 -1.56582952e-01 -6.69680312e-02 +2.03208387e-01 +1.05130151e-01 +6.36329353e-02 +2.38970608e-01 +2.29891241e-01 +2.01213621e-02 +4.30194214e-02 +1.31824791e-01 +1.30389454e-02 -9.43728015e-02 -1.76051885e-01 +1.80977464e-01 +6.14697710e-02 -3.65051404e-02 +2.64161322e-02 +1.85030937e-01 +2.00043350e-01 +1.14831284e-01 -1.17771719e-02 -7.09818527e-02 -1.02050982e-01 +1.24132305e-01 +1.60336904e-02 -7.24785998e-02 -6.18185960e-02 -3.06860339e-02 -1.36829130e-02 -5.77332079e-02 +2.17952684e-01 -1.22386113e-01 -3.15760076e-02 -1.62098244e-01 -1.27341002e-01 +5.81671149e-02 -9.39089730e-02 -9.34703797e-02 +5.48343956e-02 +1.54557914e-01 +5.17797060e-02 +6.15071598e-03 +1.22546628e-01 +8.20700899e-02 -1.07132465e-01 +9.43824928e-03 +3.80720099e-04 -3.28740105e-02 +9.84501187e-03 -1.01962186e-01 +3.90475206e-02 +1.91327855e-02 -2.11588919e-01 -2.75387943e-01 -1.37499105e-02 +6.09770976e-02 +9.87457763e-03 -7.31089786e-02 +1.04763336e-01 -4.26141530e-01 +6.18510805e-02 +7.11425990e-02 +1.24512628e-01 +2.90803313e-02 -3.35770771e-02 +1.46705955e-01 +3.14800963e-02 +1.17804483e-01 -1.86411999e-02 -3.99412252e-02 +1.29207432e-01 +2.28433730e-03 -3.74782607e-02 -1.02623664e-01 -1.42867014e-01 -3.90284583e-02 -5.54457188e-01 +8.33661482e-03 -1.47035331e-01 -5.22473454e-02 -6.56506062e-01 -4.02344801e-02 -1.46237627e-01 -4.55409614e-03 -4.33585905e-02 +2.16251746e-01 +2.25810066e-01 +1.04622379e-01 -1.61664803e-02 +1.13893911e-01 +6.56409189e-02 +1.77166849e-01 +2.89719161e-02 +1.04678348e-01 +2.19057366e-01 -3.25202979e-02 +1.96192548e-01 +8.65313932e-02 +1.04264818e-01 +1.76771712e-02 +1.47513658e-01 -1.02200113e-01 +3.71064842e-02 -1.43417567e-01 -9.59868953e-02 -3.44806433e-01 -1.91871345e-01 -1.81209549e-01 -4.73317876e-02 +8.64681900e-02 +7.30665252e-02 -3.39427143e-02 +1.84776559e-01 +6.56538531e-02 -9.87594873e-02 +1.93301588e-02 +2.11564332e-01 +1.08904667e-01 -7.66547471e-02 +1.08436078e-01 +1.46422356e-01 +1.16056286e-01 +4.05547209e-02 +2.78117787e-02 -4.46828753e-02 -4.79948893e-02 +3.83851118e-02 -4.62482683e-02 -1.45722464e-01 +3.98231521e-02 +9.12970379e-02 +8.32485855e-02 +1.31595969e-01 -1.28377574e-02 -3.77711087e-01 -4.06461596e-01 -7.33084753e-02 +6.49372563e-02 -1.04029156e-01 -1.35293365e-01 -2.55930394e-01 -3.83746400e-02 +1.64769277e-01 +1.51469514e-01 +1.17579840e-01 -9.23529919e-03 -1.11960456e-01 -1.78365186e-01 +3.27877030e-02 +1.48984000e-01 -3.79981170e-03 +7.95420408e-02 +1.25909895e-01 +1.19631238e-01 +6.35292768e-01 +2.70366371e-01 +7.95837119e-02 +7.89789334e-02 -1.23810127e-01 -5.81519958e-03 +1.76999062e-01 +2.06919387e-02 +7.45922625e-02 -2.02067401e-02 -1.49395587e-02 -7.27750808e-02 -2.70527937e-02 +8.80024582e-02 +6.76247552e-02 +8.15765634e-02 +7.72570074e-02 -2.56688036e-02 -9.44057480e-02 -1.08771890e-01 -5.38348593e-02 +1.49424314e-01 +3.78004275e-03 -5.37071563e-02 -3.12692821e-01 -1.03437282e-01 -1.16163783e-01 +2.50107259e-01 -1.87236983e-02 -3.12634379e-01 -6.28972352e-02 -4.67929095e-02 +7.20444173e-02 +1.29793242e-01 -1.51600512e-02 -9.97719765e-02 -1.11641392e-01 +6.31434785e-04 -1.17536105e-01 -8.97268951e-03 +1.62468310e-02 -2.43843690e-01 +1.00395940e-01 -1.04726732e-01 -5.94019517e-03 +4.42182906e-02 -6.20102920e-02 +6.52532697e-01 +5.97759755e-03 +3.26498449e-02 +2.95035169e-02 -9.17026624e-02 -7.87638128e-02 -8.41911882e-02 +2.76005398e-02 +1.33922100e-01 +7.59921372e-02 +2.81135123e-02 +8.15104246e-02 -2.56818116e-01 -5.84478118e-02 -8.87707397e-02 -6.35148631e-03 -3.57770883e-02 +8.93731639e-02 +3.83085525e-03 -2.28508916e-02 +6.88785464e-02 +1.91046163e-01 +6.70510232e-02 -2.69328877e-02 +6.58465177e-02 -9.72105190e-02 +4.43255492e-02 +2.36238670e-02 +4.85994592e-02 +1.26600578e-01 +8.64548311e-02 +2.14958459e-01 -4.63504642e-02 +3.09247728e-02 +3.30802560e-01 +6.08946532e-02 +5.45880012e-02 -1.24931685e-04 +1.57104041e-02 +7.72873908e-02 -2.85204910e-02 -1.98237360e-01 -1.13209672e-01 +1.75689161e-01 +4.17808704e-02 -4.19011563e-02 +3.96651663e-02 +1.38451859e-01 +3.45657110e-01 +1.21721417e-01 +3.06155365e-02 +6.31030789e-03 +6.27382542e-04 +2.22850129e-01 +6.39680540e-03 -4.56223451e-02 +8.21238682e-02 +1.59057647e-01 +6.26466498e-02 -8.74420330e-02 -1.32834628e-01 -1.69484213e-01 +4.54452157e-01 -9.68141034e-02 +2.11651266e-01 +1.15816690e-01 +7.68602937e-02 -1.34834990e-01 +2.66880631e-01 +7.04468638e-02 -2.32739851e-01 -3.46515961e-02 -1.51085064e-01 -1.26416665e-02 -1.08943187e-01 +4.10942174e-02 +7.56307542e-02 -6.37563702e-04 +8.62732977e-02 +2.80953236e-02 -1.45206451e-01 -4.58338708e-02 -1.61490455e-01 -9.58380178e-02 -2.46602282e-01 -1.33349970e-01 +1.24313012e-02 -1.61257572e-02 +3.82456966e-02 -7.50532970e-02 +1.73464552e-01 -1.40310498e-02 +1.10415705e-01 -2.11232007e-02 -6.32289499e-02 -1.25299588e-01 +1.44885043e-02 +6.30605668e-02 -4.37343977e-02 +7.78375641e-02 -1.24922998e-01 +9.27923713e-03 -2.92867571e-02 +3.31214935e-01 -6.61981255e-02 -1.07735759e-02 -1.90342963e-03 -1.95403278e-01 -8.04088637e-02 -1.19267493e-01 -4.00391556e-02 +1.44466355e-01 -4.57378067e-02 -1.08969659e-01 +7.02345595e-02 -2.16623899e-02 +1.11802272e-01 +9.41341650e-03 +5.24413474e-02 -3.12398449e-02 +8.20799321e-02 -1.39184311e-01 -1.39132202e-01 +6.27326965e-02 +3.26090679e-02 +3.98247764e-02 +7.80308321e-02 -5.85402474e-02 +1.48054380e-02 +1.46452203e-01 +2.19041005e-01 -2.72605419e-02 +2.80208699e-02 -8.40055421e-02 +3.36789377e-02 +1.08218957e-02 +5.32171577e-02 -1.07140522e-02 -2.43174117e-02 +6.47764429e-02 +9.79146734e-02 -1.19805351e-01 +9.68533382e-02 +8.81270766e-02 +1.19093858e-01 -2.69042421e-02 +5.72875813e-02 -9.62568671e-02 -1.30483136e-01 +1.03112198e-01 -4.53076884e-02 +1.35952411e-02 +1.13185212e-01 -1.04997590e-01 -1.40823409e-01 -5.81600517e-02 -1.14387982e-01 +2.93390639e-02 -1.01841623e-02 +1.10579953e-01 +5.73903024e-02 +5.88038824e-02 -1.38694838e-01 +3.51115013e-03 +7.62152346e-03 +5.85582666e-02 +1.05962448e-01 +1.06468592e-02 +6.33475110e-02 -3.23638357e-02 +2.66043167e-03 +1.15193851e-01 -1.07937902e-01 -5.62530272e-02 -1.36348046e-03 +1.48964688e-01 -7.13766590e-02 +6.57321662e-02 -1.33934900e-01 +2.12056544e-02 +5.40924929e-02 -8.24928209e-02 +3.37966830e-02 +2.36427739e-01 -3.72922160e-02 -1.73602283e-01 +3.41064893e-02 -1.16957366e-01 -7.64737874e-02 +2.05947801e-01 -5.00096418e-02 -4.35481817e-02 -8.07595178e-02 +9.86398980e-02 +2.00169068e-02 +5.42156398e-02 +4.08916883e-02 +7.59248361e-02 -4.44405824e-02 -1.04332425e-01 +1.65100202e-01 +7.54035860e-02 +8.71989056e-02 +9.81122404e-02 -1.88901629e-02 +3.91094424e-02 -1.97354965e-02 -2.60008246e-01 +1.01055846e-01 +1.09621666e-01 -1.72770768e-01 +7.28255063e-02 +1.05429761e-01 -2.04651523e-02 +6.50929734e-02 +4.78384793e-02 -2.00819716e-01 -1.83757856e-01 -1.49693921e-01 -1.77517738e-02 -1.75708383e-02 +2.16395538e-02 +4.82418202e-03 -1.73024341e-01 +5.57136610e-02 -8.76953155e-02 -1.10298127e-01 +5.18345684e-02 +1.96059465e-01 +6.47116527e-02 +1.82573602e-01 -1.86843991e-01 +1.26644522e-01 -1.69794708e-02 -8.35255906e-03 -4.87848036e-02 -2.00085148e-01 -1.62964433e-01 -9.90202129e-02 -8.95069093e-02 -5.70650436e-02 -1.04909010e-01 +2.30273940e-02 -1.69100419e-01 +1.93869136e-02 +4.05069105e-02 +1.18414640e-01 -9.67624539e-04 -7.65433982e-02 +5.67797832e-02 -4.59041186e-02 -2.25573331e-02 +1.49850920e-02 -6.03615306e-02 +6.00141548e-02 +1.67220645e-02 +2.79293973e-02 +1.36141200e-02 +1.08997583e-01 +6.23240210e-02 -4.20261137e-02 -1.23168565e-01 -2.13106442e-02 +1.68478545e-02 +1.07504569e-01 -2.04235137e-01 -2.40762487e-01 -5.75649692e-03 -2.05962695e-02 +7.40193129e-02 +1.16479956e-01 -1.41219318e-01 -1.08789548e-01 -4.19969577e-03 -2.21490022e-02 -4.95887846e-02 -2.50740349e-01 -1.02105215e-01 +3.15180868e-02 +4.00443077e-02 -1.12831809e-01 +4.39529754e-02 +7.03022107e-02 -1.03022389e-01 -1.87331676e-01 -1.14201680e-01 -3.30093168e-02 +3.45378928e-02 +7.70560801e-02 -4.08833176e-02 -6.02734908e-02 -4.16878052e-02 +2.77100597e-02 -4.45130020e-02 +7.84469470e-02 +1.01919519e-02 -6.52186126e-02 -8.78330134e-03 +1.11676268e-01 -3.47749442e-02 +5.64743159e-03 +1.12504261e-02 -8.03182181e-03 -1.24243051e-01 +1.03936307e-01 +2.42173895e-02 -2.18613874e-02 -8.51631239e-02 -2.18725856e-02 -4.08721715e-02 -1.25754640e-01 -6.08057752e-02 +5.55778854e-02 -1.19350672e-01 +6.77526221e-02 -1.73887853e-02 -9.51492880e-03 -1.19287193e-01 +1.40743256e-02 +1.36145046e-02 +9.94136184e-03 -5.13543598e-02 -3.54661793e-02 -1.31140798e-01 -9.80377346e-02 +3.64377201e-02 -1.83456838e-02 +7.16268197e-02 -1.32989166e-02 -2.30442751e-02 +8.29310194e-02 -2.07238719e-01 +7.91049004e-02 +2.89106555e-02 +3.54886428e-02 -1.26805454e-01 +1.37074068e-02 +8.12649280e-02 +4.50105928e-02 +7.92373121e-02 -6.79817423e-02 +1.96222570e-02 -7.79851675e-02 -3.85668948e-02 +7.99674913e-02 -2.10749581e-02 -1.41159520e-01 -2.69423008e-01 +1.80115607e-02 -2.23351899e-03 -3.79063860e-02 -1.29194530e-02 +1.01728119e-01 -1.07607633e-01 +2.63504889e-02 +1.66081920e-01 +2.20302641e-02 -2.32821461e-02 +6.17192164e-02 -1.71135917e-01 -6.76874025e-03 +4.82331254e-02 +1.61279412e-03 -9.21243653e-02 -3.29974778e-02 +9.88598634e-03 +2.70183943e-02 -6.43646941e-02 -9.66331139e-02 -5.15498221e-03 -3.71016711e-01 +2.62515452e-02 -4.09121327e-02 -1.68565825e-01 +5.96697256e-02 -2.08145604e-02 +1.25114368e-02 +8.40387419e-02 +6.48338869e-02 -6.55270740e-02 -1.98920980e-01 -2.56437778e-01 -7.51867751e-03 +9.87507775e-02 +3.91524106e-01 +5.64495437e-02 -6.75307661e-02 -8.69357213e-02 +1.20492637e-01 -2.65581487e-03 -3.86542529e-02 -9.80889499e-02 -2.90330619e-01 -1.62797049e-01 -3.64168696e-02 +7.09242448e-02 -2.95136422e-02 -6.07704883e-03 +1.26961082e-01 +1.08300336e-01 -5.41738980e-02 -5.05137444e-02 +8.40995535e-02 -8.30835663e-03 +7.92332692e-04 -4.35325317e-02 -4.07738574e-02 +6.21214621e-02 -2.57249735e-02 -1.47045357e-02 +7.00635314e-02 +3.95435244e-02 -6.53035566e-02 +2.92413961e-02 -1.24085546e-01 +1.71701889e-02 -3.47301632e-01 -7.58155733e-02 -1.46550432e-01 +1.23999313e-01 +4.07240875e-02 -5.60934581e-02 -1.56292543e-01 -1.04310870e-01 +9.50375479e-03 +9.30088237e-02 +1.25784189e-01 +1.00789241e-01 +1.19686015e-01 -8.13836306e-02 +1.84998021e-01 +1.43566988e-02 +4.89087217e-02 -1.70579910e-01 +1.85800102e-02 -6.79244241e-03 -1.91032514e-01 +8.02636892e-03 +3.87494527e-02 -1.11534908e-01 +2.68098980e-01 +3.88820395e-02 -3.70764732e-02 -5.57286739e-02 +2.99975444e-02 +2.75207702e-02 +3.03495675e-01 +4.91353795e-02 -1.19071141e-01 -1.50310367e-01 -7.23747909e-02 -6.52310029e-02 +1.64009541e-01 +6.84398860e-02 -1.15041472e-01 +9.03345346e-02 -7.55385235e-02 -2.80836970e-01 -1.24602050e-01 -8.37341771e-02 +1.56683058e-01 +1.33820504e-01 -2.48780712e-01 +5.86070083e-02 +6.19977936e-02 -4.41480801e-02 +7.08724260e-02 -7.70960972e-02 -1.06017761e-01 +1.33475631e-01 +1.98963145e-03 +8.11269805e-02 +2.26124540e-01 +1.19272105e-01 -1.89263806e-01 -4.25042585e-02 -5.04294261e-02 +1.42111987e-01 +6.99649528e-02 +1.72500700e-01 +7.70833194e-02 +1.86401270e-02 +4.31271009e-02 -2.63214678e-01 -1.19492233e-01 -9.61226597e-02 -1.88383877e-01 +9.04087275e-02 -1.64369613e-01 -1.72864720e-02 -1.32269152e-02 +6.53079301e-02 -1.56943519e-02 +7.93941990e-02 +2.35474929e-02 -1.77659675e-01 +2.22584940e-02 +1.10516705e-01 -4.82197329e-02 -2.74069384e-02 -1.67138502e-01 +6.95587173e-02 -6.21481724e-02 -2.95851436e-02 +1.70576543e-01 +1.36705205e-01 +5.26797250e-02 -1.55351460e-01 +4.75124605e-02 +4.35032956e-02 -6.34858683e-02 -6.31821305e-02 -6.90488145e-03 +1.30429082e-02 -6.37528533e-03 +6.62619993e-02 -3.44432937e-03 -1.47723198e-01 +5.95838763e-02 +1.87997550e-01 -8.40336084e-02 +1.37686953e-01 +7.67182931e-02 +1.64649382e-01 -1.33411780e-01 -8.87855738e-02 -1.43969636e-02 +1.68662556e-02 -2.88636237e-01 +1.55389816e-01 +7.81307556e-03 +2.00404480e-01 -1.03881687e-01 -1.01902105e-01 +3.77229340e-02 +1.13889053e-01 +4.67763394e-02 -1.07717089e-01 -2.19084863e-02 +7.69803748e-02 -1.72264199e-03 -4.86637838e-02 +2.61479169e-02 +1.04568332e-01 +1.52998671e-01 +8.83977115e-03 -3.37722823e-02 -1.56241596e-01 +7.29620159e-02 -1.19051710e-01 -8.90045017e-02 +1.11210058e-02 +1.11797387e-02 -2.23169718e-02 +2.07361616e-02 +8.50609392e-02 -1.57535914e-02 +3.47121060e-02 -1.92822807e-03 -7.44642168e-02 +2.24040560e-02 -7.67137017e-03 +1.90909788e-01 +1.26151415e-02 +2.11436730e-02 -3.24457996e-02 +1.95943788e-01 -7.49726817e-02 -1.22453691e-02 -1.74514931e-02 -6.03530072e-02 -1.56954110e-01 -1.92789026e-02 +8.31141397e-02 +1.10977270e-01 -1.11492068e-01 -8.90337378e-02 -2.06203572e-02 -1.23285435e-01 -5.68409450e-02 -9.53694358e-02 -8.29885006e-02 +8.88939127e-02 -1.03960752e-01 +8.53668898e-03 -3.61300409e-02 +7.29804337e-02 -1.59990564e-01 -4.70864475e-02 -1.10045463e-01 -7.55440965e-02 -2.46908460e-02 +2.48613600e-02 +1.09423473e-01 +3.19014937e-02 -4.99797203e-02 -5.72678596e-02 -6.27822205e-02 +8.04794878e-02 +4.44732746e-03 -2.52561271e-02 +2.10467428e-02 +1.55928163e-02 -9.57713649e-02 -2.83921720e-03 +2.20885258e-02 -9.40070078e-02 -8.77005830e-02 -8.73944461e-02 +1.02251992e-01 +2.62405630e-02 -3.66178565e-02 +3.30589823e-02 +2.24627897e-01 -6.46880567e-02 -4.31482121e-02 +3.24045937e-03 -3.11965328e-02 +5.21493666e-02 -1.58217158e-02 -7.09543377e-02 -4.05745953e-02 -4.61029448e-02 -2.63079442e-02 +1.69144943e-01 -1.22230731e-01 +1.36840260e-02 +7.50084966e-02 +4.30594124e-02 +8.76365602e-03 -6.75697699e-02 +1.02711059e-01 +1.08399997e-02 +2.04447821e-01 -9.73507762e-02 -2.06661463e-01 +1.35486752e-01 +1.17525786e-01 -8.89772475e-02 +6.56624138e-02 -5.48503175e-02 +1.71392579e-02 +6.95292559e-03 +2.01177206e-02 +9.22952071e-02 +1.41764805e-02 +1.10046521e-01 -1.02444284e-01 -3.46172899e-02 +2.65657473e-02 +3.30630084e-03 +6.80523291e-02 -5.75045981e-02 +1.72945876e-02 +2.71751522e-03 +1.21053502e-01 -3.07716057e-03 -2.10081264e-01 -8.84213224e-02 +3.61355278e-03 +1.13436662e-01 +9.51191932e-02 -1.23214304e-01 -1.77653030e-01 +9.55757350e-02 -1.33584917e-01 -1.15238957e-01 -1.70522723e-02 +3.79554108e-02 -7.83492103e-02 -7.05684721e-02 +4.11254540e-02 -8.50653425e-02 +7.63821155e-02 +1.38624698e-01 -4.68734801e-02 -1.18431121e-01 -1.19505234e-01 -1.87842280e-01 +3.44483070e-02 -1.10029720e-01 -7.14688525e-02 +5.89194857e-02 -4.13425080e-02 -1.91459328e-01 -1.29317809e-02 +7.12642120e-03 -5.11358865e-02 +5.61726503e-02 -1.90122810e-03 +8.06364119e-02 -1.50432047e-02 -9.85808447e-02 +4.13231939e-01 +9.50406119e-02 -3.32700498e-02 +6.53806031e-02 +1.50350794e-01 -1.67188764e-01 -1.39184454e-02 -1.87516585e-02 +6.83184192e-02 +1.84386279e-02 +1.94424409e-02 -5.86731397e-02 +3.98448333e-02 +5.35659678e-02 -9.18117166e-02 -2.21515626e-01 -1.76811256e-02 -2.18460858e-01 +2.88675390e-02 +3.33660431e-02 -1.91087246e-01 +1.52440533e-01 -6.52703792e-02 +4.82494235e-02 +5.11294119e-02 -9.49841440e-02 -6.06947318e-02 +1.72713920e-01 -7.67405108e-02 +7.70630240e-02 +5.39412946e-02 +3.57512310e-02 +2.17230525e-03 -2.65915133e-02 +6.31541535e-02 -5.30057475e-02 -1.36575773e-01 -1.34899780e-01 +5.58272786e-02 -4.62837145e-02 +1.17605858e-01 -6.91791922e-02 +7.05806836e-02 +1.54380500e-01 +9.24130008e-02 +9.49284956e-02 -3.96387950e-02 -1.28290176e-01 -6.58056363e-02 +5.45379380e-03 -7.95537755e-02 -1.82835028e-01 +9.51395482e-02 +2.40234304e-02 +3.88125144e-02 -1.40347064e-01 -9.68660563e-02 +1.26293361e-01 -4.96357977e-02 +9.96688232e-02 +4.37581725e-02 -4.66315001e-02 +6.26307307e-03 -1.07200064e-01 +5.13927117e-02 +2.28950456e-02 +4.66459617e-02 -1.02303453e-01 -1.49301704e-05 +7.17217922e-02 +9.71357822e-02 +2.53147691e-01 +1.58033475e-01 +4.50991318e-02 -8.67424458e-02 -9.43693519e-02 +9.96505246e-02 +4.89537157e-02 -3.72531079e-02 +1.77287161e-02 +8.48204121e-02 +6.08399548e-02 -8.20944533e-02 -6.73204660e-02 +9.03398544e-02 -1.10491561e-02 -1.08117267e-01 -6.77186027e-02 +1.64875332e-02 -1.28897652e-01 +1.67800412e-02 +3.40465717e-02 +1.59563944e-01 -8.50131214e-02 +1.21100545e-01 +6.40452199e-04 +7.11702332e-02 -3.55975591e-02 +1.15475757e-02 +4.38017659e-02 +7.86556769e-03 +1.15572706e-01 -1.27344146e-01 -6.40511140e-02 -4.84663108e-03 -6.20010048e-02 -4.91465814e-02 +1.50303781e-01 +1.42709799e-02 -3.12849343e-01 -1.13015957e-01 -9.84212477e-03 +1.59162506e-01 +3.04679014e-03 -1.75785393e-01 -8.13382268e-02 -1.35626227e-01 +1.82421692e-02 +1.64925158e-02 -1.35737062e-02 +9.54975635e-02 -1.18303217e-01 +2.80112147e-01 +1.93192035e-01 -9.06742141e-02 -9.99573525e-03 -1.39306664e-01 +1.02025889e-01 -4.98058647e-02 +9.05544981e-02 +6.10833503e-02 +3.87401462e-01 -1.34506389e-01 -1.06845088e-02 +1.50405526e-01 +2.84479698e-03 +4.82605882e-02 +1.15049258e-02 -7.13940151e-03 -1.84357479e-01 -1.74300775e-01 +1.22085892e-01 +1.95801511e-01 +1.29962906e-01 -5.37142120e-02 -4.89954883e-03 -1.17907286e-01 +4.46976721e-02 +3.01469509e-02 +9.52339396e-02 +1.57140791e-02 +6.74320534e-02 +9.97489914e-02 +7.60135427e-02 +2.50179201e-01 -8.11910406e-02 -8.78032446e-02 -3.11254766e-02 +7.89152831e-02 +1.57616884e-01 +5.70966341e-02 +1.31390586e-01 -1.31445050e-01 +1.62484520e-03 -4.29744087e-02 +3.72337624e-02 +4.02843915e-02 -7.49272481e-02 -1.86949655e-01 -7.71686882e-02 -4.34996560e-02 +5.56421131e-02 -3.00735999e-02 +1.10945463e-01 -5.55803739e-02 +2.41341993e-01 +1.57952994e-01 -2.45229937e-02 +5.81435747e-02 -1.11378521e-01 -3.42562385e-02 -4.14355099e-03 -3.30753289e-02 -6.49861712e-03 +5.60104027e-02 -9.04851630e-02 -6.37611374e-02 -1.75807867e-02 +6.99236915e-02 -1.93772912e-02 -1.44197613e-01 -1.53298918e-02 -8.62707943e-02 -4.76229265e-02 -2.19146758e-02 +4.09038588e-02 -5.94950840e-03 -1.22117801e-02 -2.19210479e-02 +1.04464516e-01 -4.60291654e-03 +2.52432246e-02 +6.00204393e-02 +5.52573502e-02 -1.68852974e-02 +3.47117446e-02 -5.39912693e-02 +6.48526326e-02 -2.56580785e-02 +6.83489591e-02 -5.31173973e-05 -1.25790918e-02 -4.01242152e-02 +5.50478734e-02 -1.34707326e-02 -7.85965919e-02 -7.83698559e-02 -2.55142222e-03 +1.10755987e-01 -4.00037708e-04 +2.28086058e-02 -4.21916842e-02 -2.10567974e-02 +1.06457993e-01 +2.68874411e-02 -6.46675155e-02 +4.03291732e-02 +5.07055894e-02 -1.66763701e-02 -1.13023475e-01 -3.94584723e-02 +5.76119050e-02 -1.14284053e-01 -9.91296489e-03 -4.14095521e-02 +5.63457655e-03 -5.82749881e-02 -6.82904571e-02 +2.21088454e-02 -1.67168781e-01 +8.13701004e-02 -2.42718942e-02 -1.72872078e-02 -9.12706926e-03 -2.86991224e-02 +8.77565891e-02 +5.03474772e-02 -1.93149149e-02 +2.03032251e-02 +1.56682413e-02 +8.19047168e-02 -5.84462546e-02 -6.89998716e-02 -1.64392479e-02 -1.02551900e-01 -1.16633140e-01 +1.82643741e-01 +5.02152136e-04 -1.06127895e-01 -1.37958387e-02 +3.34829441e-03 +5.32863848e-02 +4.97694798e-02 -6.54590204e-02 +1.15192026e-01 +3.64431143e-02 -1.67168498e-01 -1.11774325e-01 -1.59771778e-02 +4.05731797e-03 +1.12641238e-01 -6.61885664e-02 +9.92997289e-02 +5.95018119e-02 -1.30560175e-01 +4.62853946e-02 +1.11850463e-02 -1.28553554e-01 +9.99645889e-02 +6.82468042e-02 -3.88585441e-02 +4.69333082e-02 -1.01267286e-01 +5.32894731e-02 -1.11155175e-01 +5.71891144e-02 +2.07193103e-02 +7.09946780e-03 -2.39395332e-02 +1.70789752e-02 -3.00852358e-02 -9.12389532e-02 +4.36318144e-02 -1.04785107e-01 +1.78516701e-01 -1.64562106e-01 -5.16445264e-02 -6.08006399e-03 -9.08343345e-02 -2.97490060e-02 +1.20852944e-02 +3.16518284e-02 -9.36705172e-02 +9.73536894e-02 -3.42827030e-02 +7.38717988e-02 -1.37509555e-01 -2.53528766e-02 -9.05071348e-02 +3.07271238e-02 +2.32004933e-02 +3.05877160e-03 -1.09178565e-01 -5.60121611e-02 +2.35008851e-01 -5.81862126e-03 -4.11761226e-03 +2.02614471e-01 -1.36985004e-01 +3.44297111e-01 -1.28206626e-01 +5.53526245e-02 +4.76167686e-02 -9.45117921e-02 -1.80292353e-01 -1.86288938e-01 +4.36094813e-02 -1.21206991e-01 -4.81216088e-02 +3.79335396e-02 -7.48375952e-02 -1.12458147e-01 -8.25391784e-02 +9.64761749e-02 +2.62874942e-02 -1.27183229e-01 -1.27395302e-01 +1.79063782e-01 -6.19924963e-02 +7.68437535e-02 -1.12233564e-01 +6.48776293e-02 +1.31072015e-01 -5.38242646e-02 -9.90207642e-02 -1.95080172e-02 -5.59384711e-02 +1.41924158e-01 +7.88211003e-02 +1.67493254e-01 -1.26314372e-01 -2.24224967e-03 +2.62105819e-02 -8.77975300e-02 -1.13399290e-01 +1.86198846e-01 +5.99142350e-02 +8.57691392e-02 +9.50080305e-02 -1.39329225e-01 -7.73081258e-02 -2.58574821e-02 -2.87669692e-02 +3.94421443e-02 -1.86328478e-02 -4.91896607e-02 +1.61193922e-01 +1.44257443e-02 -1.28254518e-01 +9.07867402e-02 +8.10542926e-02 +1.25858724e-01 -7.12027354e-03 +4.62638028e-02 +4.28620577e-02 +6.08922727e-02 +5.48961349e-02 +5.26212156e-02 -7.52797797e-02 +1.52769554e-02 +2.34865155e-02 -1.16084442e-01 -8.82380903e-02 +8.32508877e-02 -9.22824368e-02 -2.11707745e-02 +2.16393024e-01 -1.78357646e-01 -2.53222764e-01 +7.72217885e-02 +8.21197331e-02 -1.89624637e-01 -1.72665253e-01 -6.71928003e-02 +1.80850625e-01 +1.09874783e-02 +1.03317179e-01 +5.65217026e-02 +1.40349651e-02 +2.30606422e-02 +1.39017716e-01 -4.58916873e-02 +6.53709704e-03 +8.01000074e-02 -1.49566438e-02 -2.64246929e-02 +3.03755235e-02 -1.23336921e-02 +5.36581874e-02 -6.01389036e-02 -6.28730059e-02 -1.76300138e-01 +1.20604679e-01 -1.36765361e-01 +8.56315568e-02 +3.71037647e-02 -1.38727278e-01 +5.66046052e-02 -2.31190994e-01 -5.02369963e-02 +1.00047467e-02 -1.12793203e-02 +8.50276276e-02 -3.71686146e-02 +9.27967578e-03 +6.11902736e-02 +1.50259942e-01 -7.26797283e-02 -6.94953278e-02 -3.68695892e-03 +2.01637954e-01 +1.45510778e-01 -9.57134813e-02 -4.09669243e-02 +2.21648552e-02 -3.41177955e-02 +9.37553421e-02 -1.50704728e-02 +7.96500444e-02 +8.90441984e-02 +3.69186625e-02 -3.06740701e-01 -1.51725739e-01 +1.59610640e-02 -3.02743483e-02 +2.67424881e-01 -4.55543064e-02 +8.91771317e-02 +3.12747896e-01 +9.15680826e-02 -8.38862732e-02 +3.62987705e-02 -4.81199585e-02 +1.42476127e-01 -1.11431055e-01 +4.82545011e-02 -1.57245863e-02 -5.97849898e-02 +2.37461533e-02 -2.44954988e-01 +9.72029269e-02 -2.54533030e-02 -9.02788341e-02 +1.40461802e-01 +4.08433490e-02 +1.23155788e-01 -3.00786644e-01 +7.62321800e-02 -2.50060447e-02 +1.45457787e-02 +1.72288287e-02 -6.50115088e-02 +1.46022111e-01 -1.45085752e-01 +1.46774752e-02 -1.28359515e-02 +1.22185014e-01 -6.62777871e-02 -2.51634847e-02 +2.20392440e-02 +6.32893920e-01 -1.77949652e-01 +4.94140051e-02 +4.53270078e-02 -8.86862278e-02 -1.00617729e-01 -2.18591746e-02 +6.67774975e-02 -2.06763625e-01 -9.81568396e-02 +9.09524783e-02 +3.81313115e-01 +1.32502168e-01 +1.31556660e-01 +4.97982949e-02 +7.40108173e-03 -1.02628529e-01 -4.03938107e-02 +1.41254053e-01 -1.55457869e-01 +1.84530392e-01 -2.65195128e-02 -4.09863815e-02 +8.07041116e-03 +7.85517871e-01 -2.65938579e-03 +1.74170453e-02 +2.23163486e-01 +3.72322977e-01 +5.60296525e-04 +4.54022139e-02 +9.86116976e-02 -2.38864589e-02 +9.44600552e-02 -1.22152299e-01 +2.02913359e-01 +1.92924634e-01 -5.19385822e-02 -4.72220816e-02 +1.87799111e-02 +7.34661669e-02 -3.77517045e-01 -6.26619905e-02 -2.81018257e-01 +9.36457738e-02 -1.42019153e-01 +6.99693561e-02 -9.45717916e-02 +3.57790031e-02 +1.92036256e-01 -2.30516288e-02 +4.19606686e-01 +1.84483126e-01 +3.72948498e-02 +3.99130583e-02 -8.06329250e-02 -1.51963845e-01 -3.78214382e-03 -9.13659483e-02 +4.60979678e-02 -1.31566167e-01 +1.00757115e-01 +1.34539112e-01 +4.80161123e-02 +8.25147927e-02 -4.94102165e-02 -3.63057047e-01 -2.85997987e-01 -3.56927812e-02 -8.08672234e-02 +2.87924986e-02 -1.09362498e-01 -3.56511652e-01 -8.42633173e-02 -5.79516403e-02 +1.93601716e-02 +9.51362029e-02 +4.40508202e-02 +4.71585132e-02 +7.02233240e-02 +9.77182090e-02 +7.12268651e-02 -1.64902464e-01 +8.10069665e-02 +3.80247124e-02 +9.74528771e-03 -4.30682441e-03 -9.67375562e-03 +3.74191813e-02 -3.88453640e-02 -1.35640930e-02 -1.38589088e-02 -6.40581995e-02 -3.63950655e-02 +1.00427464e-01 +1.11703001e-01 -2.93892864e-02 -1.47300763e-02 -8.12783837e-02 -6.80844579e-03 -1.86843663e-01 +7.75888488e-02 -4.32891510e-02 -9.85088572e-02 -1.29628390e-01 +1.99984200e-02 -1.16507739e-01 -5.37503585e-02 -1.20304432e-02 +3.12604494e-02 -4.94473018e-02 +2.65811905e-02 +1.89666986e-01 -4.24607806e-02 -9.38173849e-03 +4.75734584e-02 +5.48317507e-02 -5.99612035e-02 -2.89969854e-02 +1.38392113e-02 -2.61325091e-02 +3.60004157e-02 +1.75534606e-01 +2.94907368e-03 +1.87636204e-02 -1.46882847e-01 -2.55399309e-02 -1.64466184e-02 +4.03902046e-02 -4.49522166e-03 -7.22208917e-02 -4.58437875e-02 +1.32003322e-01 +8.62236097e-02 -2.86927838e-02 +9.15236399e-02 +9.09130350e-02 +1.22176968e-01 +1.76494177e-02 +6.50360659e-02 +2.93489937e-02 +6.93146000e-03 +1.23629913e-01 +5.54257305e-04 +3.04517541e-02 +1.17473833e-01 +2.23312899e-02 -3.33752334e-02 -2.14111879e-02 -9.65119805e-03 +1.09683760e-02 +1.90001521e-02 -2.52117477e-02 -2.47649439e-02 +1.94426291e-02 +5.41699007e-02 -2.41235141e-02 +6.40550405e-02 +9.38595459e-02 -1.01970308e-01 -1.56690910e-01 -2.21472997e-02 +1.28215449e-02 -7.31053054e-02 -6.85864612e-02 -9.26706269e-02 +4.06348631e-02 +4.70667742e-02 -5.38219884e-02 -2.75676809e-02 +5.58536947e-02 -1.06251411e-01 -9.67236329e-03 +3.42345908e-02 +5.99779189e-02 -5.72852567e-02 -5.96997216e-02 +1.22689806e-01 -2.17936300e-02 -1.81831792e-03 -1.79184943e-01 +2.74344049e-02 -3.54947820e-02 -1.38706975e-02 +4.05560583e-02 +6.19099988e-03 +4.83557247e-02 +4.88355048e-02 -1.07683837e-01 -2.36076731e-02 -4.23322655e-02 +1.24545656e-02 -4.85812649e-02 -3.01938429e-02 +2.37522833e-02 +1.26922538e-03 -1.04067668e-01 +1.36717623e-02 -3.72515842e-02 +6.40563145e-02 -1.97676755e-02 +9.22235250e-02 -8.37481841e-02 -7.42061883e-02 -4.55116341e-03 -9.99180507e-03 -1.02507569e-01 +2.63929516e-02 -1.84932679e-01 +7.33108371e-02 +5.70840016e-02 +1.15838453e-01 -4.78972569e-02 -7.03587905e-02 -5.42315245e-02 -1.24225006e-01 +8.82000942e-03 -3.19875889e-02 +1.16797276e-01 +1.65966660e-01 -2.60868892e-02 -4.57517477e-03 -1.48522988e-01 -1.00069068e-01 -6.89826310e-02 +2.44902968e-01 -6.50968701e-02 -3.03868414e-03 +5.53268790e-02 -3.70700099e-02 -1.62112296e-01 -4.64619957e-02 -3.97580490e-02 +7.56194443e-02 +9.53891594e-03 -2.04891693e-02 -2.33518183e-02 -7.78020471e-02 +1.10470556e-01 +8.14053938e-02 -8.94147996e-03 -2.25932393e-02 +4.50153202e-02 +5.82458302e-02 -2.53114760e-01 -1.07280038e-01 +1.27638966e-01 +8.82163420e-02 +1.05486182e-03 +2.96177454e-02 -4.77487706e-02 -6.16371706e-02 -6.89812051e-03 -1.26419887e-01 -3.72812152e-02 +1.21660471e-01 +6.69826195e-03 -3.75148579e-02 +1.58433653e-02 -1.40570983e-01 +2.25107931e-02 -1.26972437e-01 -2.21876472e-01 +1.48098961e-01 -9.51315612e-02 +1.42877372e-02 -2.14284770e-02 +1.10543430e-01 +5.34946658e-02 -1.65739045e-01 -1.39407158e-01 -2.39077825e-02 -9.47103575e-02 +3.76186892e-02 +2.71231402e-02 -9.89886373e-02 +1.56032607e-01 +6.22993372e-02 +3.95289809e-02 +5.31381369e-02 +6.19703485e-03 +1.19360792e-03 +1.75695911e-01 -1.24298461e-01 +3.15991305e-02 +8.77297670e-02 -7.22931102e-02 -9.48298797e-02 +2.06304602e-02 +5.44440299e-02 +9.27941203e-02 +2.81244498e-02 -1.05296131e-02 +1.35732457e-01 -1.67895004e-01 -3.64003554e-02 -2.41582729e-02 -6.71940148e-02 +3.00918277e-02 -4.18377947e-03 -3.59361954e-02 -6.50741309e-02 -5.30983061e-02 +7.43485242e-02 +5.78089990e-02 +2.53884736e-02 +1.33146606e-02 +7.49477074e-02 -6.65174872e-02 +8.76480341e-02 +6.51663318e-02 -7.72615313e-04 -2.21276551e-01 -2.44481023e-02 +9.80097875e-02 -1.33872718e-01 +8.26618075e-02 +4.23859581e-02 +1.20493062e-02 +7.38697648e-02 -1.04246870e-01 -6.84408620e-02 -2.72183996e-02 -1.98813919e-02 -5.80338947e-03 +1.43613905e-01 -1.32273376e-01 -2.32944950e-01 -1.38155296e-01 +1.26316294e-01 +3.76011059e-02 +2.09393322e-01 -5.33938687e-03 +8.43481049e-02 +4.22718152e-02 +5.93650006e-02 -2.16760740e-01 +8.47452953e-02 -5.12629114e-02 +1.54473586e-03 +4.59018722e-03 -5.20216376e-02 +9.68493521e-02 -1.67001842e-03 -2.02836096e-02 -2.56190509e-01 +1.01154633e-01 -6.03946112e-02 -6.46323487e-02 +2.95188010e-01 -2.56354380e-02 +5.56830131e-02 +2.43108958e-01 +3.13830748e-02 -1.52864968e-02 -5.23885339e-02 -1.21165425e-01 +1.24732383e-01 -8.19870979e-02 +3.19669545e-02 -8.21590498e-02 +7.42467716e-02 +3.21565792e-02 -1.37171730e-01 +1.26242399e-01 -1.42587274e-01 -5.90827577e-02 +5.58884032e-02 -1.32347653e-02 +2.91079916e-02 -3.15541923e-01 +9.01260152e-02 -6.73712268e-02 -7.20778555e-02 +1.16357125e-01 -1.08223327e-01 +2.81786583e-02 -1.18539169e-01 +8.41273752e-04 +1.02241278e-01 +1.05150761e-02 -8.04927126e-02 -3.58107723e-02 +3.54074799e-02 +4.12280232e-01 -7.68531039e-02 +2.43045464e-02 -4.74516349e-03 -1.50514826e-01 -2.16610104e-01 -1.10853568e-01 +2.20979705e-01 -7.38999695e-02 +1.78244412e-02 +1.14349075e-01 +2.79177636e-01 +2.49376111e-02 +1.97387964e-01 -9.04412195e-03 -5.98640554e-02 -6.50125220e-02 +3.37720625e-02 +1.92882925e-01 -2.80199870e-02 +6.13602065e-02 +1.65672556e-01 -6.85784146e-02 -3.01648043e-02 +4.71221715e-01 +1.00058049e-01 +4.14078161e-02 +2.20285982e-01 +3.27648520e-01 -5.89360408e-02 -6.28486648e-02 +4.91507985e-02 +1.31262541e-01 +5.04571609e-02 -2.13900700e-01 +2.25164726e-01 +8.97512361e-02 -5.36897480e-02 -1.15870267e-01 -6.08082898e-02 -7.40442649e-02 -2.62375802e-01 -1.68137532e-02 -2.21828341e-01 +7.50606880e-02 -4.78455834e-02 +8.39757696e-02 -2.98572555e-02 +5.03903814e-02 +1.98840290e-01 +7.45238131e-03 +1.97990283e-01 +1.40680030e-01 -3.10878530e-02 -1.19200172e-02 +3.06086079e-03 -8.41370821e-02 +3.01316213e-02 -1.68973040e-02 +8.78923479e-03 -4.42378893e-02 +4.48713377e-02 -5.82407117e-02 +1.70180440e-01 +1.01269655e-01 +2.73807757e-02 -2.88293213e-01 -1.99555606e-01 +1.38225257e-01 -1.53668031e-01 -5.65155111e-02 -2.20582243e-02 -1.78719103e-01 +5.35911210e-02 -1.31328121e-01 +6.36534318e-02 -3.20234597e-02 -6.57327939e-04 -1.01169236e-01 +1.19538397e-01 -4.91557606e-02 -2.03891899e-02 -1.95639685e-01 +7.01879933e-02 -1.35530382e-01 +5.02245501e-02 -5.51598132e-01 +1.44439321e-02 -1.39781758e-01 +6.18522940e-03 +7.40148127e-04 -4.19749245e-02 +9.82007608e-02 +5.99558353e-02 -2.55072732e-02 -1.78326979e-01 -1.51498541e-01 -2.51855049e-03 +7.44808763e-02 +6.75887521e-03 -4.63850684e-02 +1.98892578e-01 +4.50537726e-02 +1.09942015e-02 -3.52961011e-02 -2.09610555e-02 -4.04659919e-02 +1.85293294e-02 -1.05910793e-01 +3.66550267e-01 +4.44199026e-01 +2.36064240e-01 -4.83538918e-02 +3.46680880e-02 -2.07918882e-01 +1.78232603e-02 +7.80204609e-02 +4.29156376e-03 -2.30846092e-01 -7.94399902e-02 -6.80857664e-03 +2.41432227e-02 -1.72836304e-01 +1.16362207e-01 +7.82235563e-02 +6.15114383e-02 +8.65010843e-02 -9.82319787e-02 -5.92840500e-02 -3.05324011e-02 -2.03228921e-01 -7.31335953e-02 +3.47388573e-02 -1.55931219e-01 +1.43747166e-01 +1.95611164e-01 +1.88425541e-01 -6.19799830e-03 +2.51032352e-01 -1.50012121e-01 -1.43407760e-02 +2.90113956e-01 +4.32459339e-02 -3.69108804e-02 -2.50878558e-02 +1.30355754e-03 +1.79758854e-02 -5.60871698e-02 -1.04844354e-01 -1.21543899e-01 -5.07604517e-02 +4.33129398e-03 -3.99291776e-02 +7.55355060e-02 +2.99862772e-01 +1.91844791e-01 +3.51770408e-02 +1.27291277e-01 -9.24773961e-02 +1.72290020e-03 +1.87648162e-01 -3.40111293e-02 +3.54076661e-02 -2.50450343e-01 +1.31595671e-01 +1.41150728e-01 +1.55062191e-02 -1.34257376e-01 -3.69578600e-01 -2.51115095e-02 -1.65228937e-02 -6.34399876e-02 -1.11089803e-01 -5.03754616e-02 -6.92113191e-02 -1.53900146e-01 -3.93127017e-02 +1.72130033e-01 +1.55275628e-01 -3.65520269e-02 +7.56691098e-02 -1.10338010e-01 +3.83818038e-02 +2.43667755e-02 -6.54824972e-02 +2.71887392e-01 -7.87539780e-02 -2.96563029e-01 -8.28858390e-02 +8.16026852e-02 -4.59899753e-02 -5.44478446e-02 -7.06404448e-02 -3.21045369e-02 -1.80381257e-02 -2.28164881e-01 +8.17133188e-02 -7.16058090e-02 -4.27588150e-02 +8.02607089e-03 +1.13287136e-01 -8.71840119e-02 +1.39301587e-02 -1.02025412e-01 -4.85544838e-02 +6.77493066e-02 +2.14845076e-01 +4.20634709e-02 -9.52887014e-02 +5.15579768e-02 +1.85225502e-01 +4.68484759e-02 -2.06942968e-02 -9.32563245e-02 +1.19052134e-01 +1.08122170e-01 +1.26016051e-01 +8.46242458e-02 -2.38645915e-02 -1.45514265e-01 +3.22884880e-02 -1.48228392e-01 +1.39584512e-01 +1.22437365e-02 +3.63815166e-02 -7.63781220e-02 -2.72807013e-02 -4.71850783e-02 -1.61882386e-01 +1.15130804e-01 -1.93042550e-02 +8.98814201e-03 +1.28801214e-02 +4.15480435e-02 -3.54352258e-02 -1.43354505e-01 +5.04413433e-02 -1.95761248e-02 -3.19142677e-02 +5.71584962e-02 +2.07530439e-01 +5.46480305e-02 -6.87044263e-02 +4.25998084e-02 +2.06740707e-01 -7.59139797e-03 +1.68651268e-01 +8.23073536e-02 +1.76060181e-02 +1.03597946e-01 -4.85713370e-02 +1.36604637e-03 -3.42638306e-02 +2.54540035e-04 +5.56797832e-02 -4.84283753e-02 -2.59149764e-02 +1.74136981e-02 -6.27924502e-02 +2.20583547e-02 +3.14686098e-04 +1.69721898e-02 +1.72987744e-01 +2.57244625e-04 +8.23139101e-02 -8.45086202e-02 +1.67655766e-01 -4.24102955e-02 +7.22282156e-02 +5.70906550e-02 +8.52577388e-02 +1.39291259e-03 +4.44550179e-02 +2.44413801e-02 -3.05747557e-02 +1.38946837e-02 +2.94408370e-02 -2.39926223e-02 -3.87658976e-04 +6.26580194e-02 -3.01984921e-02 -1.27784580e-01 +1.55637339e-02 +5.47976606e-02 +3.88520844e-02 -1.00396521e-01 +1.27137318e-01 -1.14208102e-01 -7.33219087e-02 -2.03547571e-02 -1.01756833e-01 -1.67665705e-01 +1.15845054e-01 +1.26618728e-01 -2.42709350e-02 +8.48199502e-02 +9.67940316e-02 -3.72160859e-02 -8.83818697e-03 -2.27176603e-02 -1.77245084e-02 +1.27573878e-01 +3.49935219e-02 +3.83350775e-02 -7.96678942e-03 -4.47307453e-02 -3.96470726e-02 -1.14791512e-01 +1.29493862e-01 -7.25600049e-02 +2.62058936e-02 -7.19948560e-02 +3.23458165e-02 -1.18784560e-02 -1.27338588e-01 -3.93136740e-02 -7.25759268e-02 +6.23459034e-02 +3.84357758e-02 -4.87602353e-02 -1.20880879e-01 -6.21130876e-03 +1.22641362e-02 +1.62521820e-03 -1.36148781e-02 +3.65722664e-02 -1.34281311e-02 -1.10260705e-02 -7.01175183e-02 -1.15765043e-01 +4.86991070e-02 -8.05380717e-02 +7.74285616e-03 -1.09161660e-02 -6.84599802e-02 -4.58529852e-02 +1.11127131e-01 +1.49303460e-02 -6.65782718e-03 -1.31942376e-01 +4.27732989e-02 +3.26291658e-02 -1.08470069e-02 -6.42603263e-02 -7.78557956e-02 -1.39476255e-01 +5.94029427e-02 -5.01196831e-02 +6.41302615e-02 +9.73900333e-02 -3.27311084e-02 +6.30926043e-02 +1.40223652e-01 +2.42277440e-02 -2.06358302e-02 -7.31930956e-02 +1.26312990e-02 +7.97367617e-02 +3.63663062e-02 +4.99930084e-02 -7.58627523e-03 -1.29416987e-01 +1.09806024e-01 -9.28897187e-02 +8.84983689e-02 +7.24900663e-02 +2.54958533e-02 -8.76782276e-03 +2.32712808e-03 -2.14203680e-03 -1.67597495e-02 +7.07659125e-02 +6.90114051e-02 +6.08780123e-02 +5.09036481e-02 +8.15589353e-02 +1.07901528e-01 -3.07331830e-02 +3.55407149e-02 +8.44576731e-02 +2.04191804e-02 +9.98942629e-02 -2.64520850e-02 +4.39869463e-02 +3.51231515e-01 -5.88402078e-02 +4.57076803e-02 +1.54100414e-02 +8.03905949e-02 -2.14147512e-02 -1.10799693e-01 +5.18611027e-03 -6.58356305e-03 -6.59717023e-02 +4.63078693e-02 +2.13287905e-01 -2.85498984e-02 +7.21556181e-03 +4.84567024e-02 +3.57123651e-02 -3.78422625e-02 -1.08143431e-03 +9.29938480e-02 -3.00569087e-02 +9.64324474e-02 -8.55381191e-02 -8.20817724e-02 -1.43271987e-03 +2.82319218e-01 -4.63040099e-02 +4.17062566e-02 +1.26165107e-01 +2.36529589e-01 +9.86727104e-02 +7.55071864e-02 -4.41168025e-02 -6.45688269e-03 +4.48559858e-02 -7.02540800e-02 +5.35268821e-02 +2.15876885e-02 -3.83221731e-02 -7.35832527e-02 -1.31655466e-02 +2.62674130e-02 -1.21129051e-01 +1.11611150e-02 -7.82186985e-02 -5.82289360e-02 -4.11812700e-02 +1.15908511e-01 -1.03430659e-01 +1.41956471e-02 +4.23593484e-02 +1.08854212e-01 +6.61053732e-02 +7.91762397e-02 -1.01383217e-02 -2.93978751e-02 -1.31182954e-01 -8.50850940e-02 -2.63860561e-02 +2.26395838e-02 +6.35013729e-02 -1.24004275e-01 -3.75789963e-03 -1.94550604e-02 +9.93904173e-02 +1.39971405e-01 +9.66837481e-02 -2.77577639e-01 -8.08855295e-02 -1.08509794e-01 -2.76394729e-02 +1.43626388e-02 -1.39493970e-02 -1.30116805e-01 -2.17453428e-02 -7.11129457e-02 +3.15683447e-02 -3.09602227e-02 +6.63168654e-02 +1.52544454e-01 -9.23405737e-02 -8.61393586e-02 +7.70113617e-02 -6.53929263e-02 -5.08083440e-02 -9.83206928e-02 -1.01944515e-02 +2.86315411e-01 -1.34366751e-01 -3.35186534e-02 -2.44734228e-01 +2.75894944e-02 -5.48488870e-02 +5.60218133e-02 -3.14160377e-01 +2.62753516e-01 +9.10632312e-02 -3.07529032e-01 -7.54118189e-02 -9.79073048e-02 +8.60613063e-02 +6.34633675e-02 -3.10200024e-02 +1.28563583e-01 +1.09860651e-01 +1.20824710e-01 +1.70882624e-02 -7.05613121e-02 +5.01193941e-01 -3.87850814e-02 -1.68470461e-02 +6.59864023e-03 -1.46628797e-01 +1.51811615e-02 -5.77150881e-02 -2.59789944e-01 -7.62137696e-02 +5.78991622e-02 +1.23601444e-01 +6.95702136e-02 -7.25596622e-02 -7.33289197e-02 -4.47951369e-02 -5.59929907e-02 -4.90622148e-02 +1.95442483e-01 +6.62682503e-02 -2.59100292e-02 -1.15833633e-01 +1.92804143e-01 -1.16420560e-01 +2.04826459e-01 +2.22533308e-02 +1.62587613e-01 -5.20420969e-02 +1.77315339e-01 -1.99647442e-01 -3.93748209e-02 -4.19719107e-02 +2.60428041e-01 -2.62317508e-01 -2.63743073e-01 +1.83708351e-02 +4.98294197e-02 +1.26253486e-01 +2.77894232e-02 +4.64252457e-02 -7.38627370e-03 +7.50730187e-02 +3.47489379e-02 -3.25996429e-02 +1.23548266e-02 +1.78245544e-01 -2.84989979e-02 -1.34736896e-01 +2.95208562e-02 +6.78993106e-01 -4.18821126e-02 -3.40426937e-02 -2.18165964e-02 -8.79192725e-03 +1.48834720e-01 +4.15693149e-02 -2.09088996e-01 +5.70931911e-01 +1.36307422e-02 +1.15855783e-01 +1.03122033e-02 -1.96412485e-02 -1.23967245e-01 +2.00709626e-02 +2.48926096e-02 -1.46804422e-01 -1.21513881e-01 +5.20683229e-02 -1.03347212e-01 +3.74200225e-01 +7.62843490e-02 -3.09908777e-01 +7.74390027e-02 -7.86436349e-02 -4.04135257e-01 -1.49263367e-01 +1.01442583e-01 +5.83450831e-02 -3.33064161e-02 -1.13780029e-01 -9.55774188e-02 -2.38056868e-01 +1.15217693e-01 -3.31818461e-01 -1.01360962e-01 -8.90171304e-02 -7.09674358e-02 +1.82335898e-02 +4.66086604e-02 +5.26090741e-01 +2.20670793e-02 +1.10835478e-01 -6.13675639e-02 -5.31643629e-02 -1.57153636e-01 -3.49985845e-02 +1.41962215e-01 -1.41146213e-01 -3.38640995e-02 -4.59460169e-02 -1.43757820e-01 -1.00178875e-01 -6.02472536e-02 -1.44801721e-01 +3.06178659e-01 -2.81166472e-03 +5.14282025e-02 -9.48626995e-02 +4.63535264e-02 -3.98317464e-02 -9.86651890e-03 +1.19797900e-01 -1.71330050e-02 -4.15628701e-02 +1.49467632e-01 +8.17857496e-03 +4.22673076e-02 -7.27289170e-02 -9.03695300e-02 +1.68722607e-02 +7.07187578e-02 -1.12017900e-01 -5.91503307e-02 +6.66343495e-02 +7.36044124e-02 -9.04760137e-02 -2.02733520e-02 -1.15791544e-01 +8.10652748e-02 +3.79905552e-02 -4.03544642e-02 +6.61604851e-02 +1.35983014e-02 -2.16528680e-02 +3.41277234e-02 -7.83122778e-02 -8.03853273e-02 -1.02849165e-03 -4.88811964e-03 +6.31223097e-02 -2.02960838e-02 +1.96221061e-02 +8.95202626e-03 -6.33333549e-02 -5.24828285e-02 +2.02431772e-02 +3.24161090e-02 -1.01585537e-01 -1.31739348e-01 -6.81041703e-02 +6.83482140e-02 +5.96280843e-02 -5.94930165e-02 -1.52706981e-01 -5.29697277e-02 +3.15100625e-02 +6.34444132e-02 +3.66166122e-02 -2.35457178e-02 +2.19056122e-02 +1.63371898e-02 -7.92261958e-02 -2.55929027e-02 -8.28690603e-02 +1.64923534e-01 -2.84405760e-02 +2.12130863e-02 +1.22434914e-01 -1.16983764e-01 +5.39015345e-02 +5.11374213e-02 +1.82109829e-02 -9.22352001e-02 -3.05625219e-02 -9.72401444e-03 -2.74573900e-02 -5.09179793e-02 +1.42188430e-01 -1.14445455e-01 -4.96440418e-02 +9.16017890e-02 +5.60146198e-02 +6.95378184e-02 -1.31175876e-01 +1.55395763e-02 +4.52781767e-02 +8.19028467e-02 +9.35727879e-02 +9.17912275e-02 -1.15801822e-02 +3.22934538e-02 +3.51984017e-02 +1.33405656e-01 +2.69727018e-02 -3.78021854e-03 -1.36206463e-01 -1.47777870e-01 -1.80998072e-02 -8.59668255e-02 -3.29335332e-02 +2.61096451e-02 -4.42022756e-02 -6.53494000e-02 +9.81441699e-03 +1.33880839e-01 +8.70291069e-02 +1.87257268e-02 +2.25649904e-02 +1.45593872e-02 -1.38750404e-01 +2.93799434e-02 -1.06000178e-01 +2.03117597e-04 -5.09981662e-02 +2.20353194e-02 -1.55805975e-01 -5.96699640e-02 -7.18752993e-03 +5.72610162e-02 -7.59095475e-02 +1.37403340e-03 +3.92451547e-02 -1.12306565e-01 +1.18961185e-01 +9.95610431e-02 +5.30453883e-02 -1.49809182e-01 -1.14039950e-01 -5.58242910e-02 +1.26113251e-01 +6.28482923e-02 -1.00239076e-01 +2.17972305e-02 +6.52039424e-02 -2.39294730e-02 -1.14722520e-01 +9.29095298e-02 -1.67340517e-01 -5.69084845e-03 -6.13296553e-02 -7.33858570e-02 +3.90351824e-02 -8.77811313e-02 -2.72589084e-02 +9.75238755e-02 -1.03545293e-01 +2.30121449e-01 -1.54790252e-01 +7.66500132e-03 -8.15271363e-02 +1.17072865e-01 +7.48674646e-02 -8.40946212e-02 +7.63389617e-02 -2.03694850e-02 -8.97614062e-02 +1.33802459e-01 -1.27975240e-01 +5.06412685e-02 -1.12002194e-01 +7.63741583e-02 +7.67856687e-02 +6.69862628e-02 +4.78200056e-02 +1.40068367e-01 -4.29292559e-04 -8.31948221e-02 +2.05624342e-01 -1.77407097e-02 -8.64374712e-02 -4.96675484e-02 -3.01685724e-02 +3.67606245e-02 -1.37428179e-01 -1.77029837e-02 -1.44756183e-01 -1.00256279e-01 +8.85806084e-02 +9.77430567e-02 +4.92820479e-02 +1.45606697e-01 -5.84110394e-02 -2.07203105e-01 +1.06422178e-01 -1.34682015e-01 +7.91293941e-03 -1.63480580e-01 -1.31966978e-01 -7.05248713e-02 +1.44591555e-01 +1.29111055e-02 -1.90182850e-02 -5.59837148e-02 -6.13963092e-03 +1.91106368e-02 -9.14935172e-02 +6.85528666e-02 -7.81151950e-02 +4.02661487e-02 -5.72665110e-02 +6.39557466e-02 -3.21099982e-02 +4.25941944e-02 +6.44577760e-03 +7.99289793e-02 +7.83458501e-02 -1.67257972e-02 -2.93209683e-02 +2.93583483e-01 -1.14007413e-01 -2.31704884e-03 +8.76549408e-02 -1.99643359e-01 +1.18869849e-01 +2.15107612e-02 -9.18378159e-02 +4.57636852e-05 +1.66280478e-01 +5.40477829e-03 -4.15435322e-02 +6.81016222e-02 -1.38106734e-01 +6.96423426e-02 +1.19204447e-01 -3.65134180e-02 -4.25895192e-02 +1.55006528e-01 -2.24868923e-01 -4.26218845e-04 +7.25702867e-02 -2.46712286e-02 -3.97510943e-04 +9.41584185e-02 -3.23114209e-02 +6.06894940e-02 -1.57211572e-01 +6.42305939e-03 -1.65337384e-01 -5.23645373e-04 -4.48116139e-02 +6.43323958e-02 +1.07934937e-01 -2.37973910e-02 +1.05223797e-01 -9.82356220e-02 -1.51273474e-01 -4.78649475e-02 -4.51652072e-02 -7.71466345e-02 -1.76416084e-01 +2.09078044e-02 -1.12092428e-01 -1.55334905e-01 +4.02282285e-06 -1.05074547e-01 -6.27654716e-02 -4.94812690e-02 +6.80244341e-02 -1.72440279e-02 +4.14670072e-02 -1.64580300e-01 -3.66040878e-02 -8.47330168e-02 -9.87667367e-02 +1.24589078e-01 -4.69487235e-02 -7.14498237e-02 -1.36887738e-02 -6.10376569e-03 -6.61695972e-02 -5.24883494e-02 -4.58653383e-02 +7.86047876e-02 -3.64360027e-02 -4.72305864e-02 +5.06563634e-02 -2.08228827e-03 +4.26513404e-02 +2.58813817e-02 -8.44706818e-02 +8.40631500e-02 +1.42479330e-01 -8.35212618e-02 +2.03983411e-02 +1.66124180e-01 +1.44884372e-02 -8.89094919e-03 +7.40023330e-02 -2.27158461e-02 -3.54525298e-02 +9.24406871e-02 +2.91578751e-02 -3.50787938e-02 -7.51819909e-02 -1.36125207e-01 +9.74246189e-02 +7.14263469e-02 -8.17166716e-02 -5.92430010e-02 -4.31184098e-02 +5.88217117e-02 +1.05002061e-01 -3.53724137e-02 -1.86184555e-01 +1.39569566e-01 -1.81085281e-02 -1.38978921e-02 +6.05177358e-02 +4.48848344e-02 -2.16681585e-02 -1.10727936e-01 -3.61924031e-04 -1.42214701e-01 +1.46129981e-01 +1.23739608e-01 +7.95425102e-02 -6.80285543e-02 -7.78980702e-02 +3.82289775e-02 +1.23224268e-02 -1.98704675e-02 +8.41200203e-02 -3.78392711e-02 -6.41948730e-02 +4.14204933e-02 +1.41656592e-01 -2.15499140e-02 +6.61539510e-02 +3.06404196e-02 +1.73646174e-02 +1.41958324e-02 +9.29566994e-02 -2.45252736e-02 -1.93788446e-02 -2.52701994e-02 -8.56706128e-02 -3.05555966e-02 -1.26688108e-02 -2.16919288e-01 -1.12496447e-02 +1.03247724e-01 +1.68626964e-01 -4.36855406e-02 +3.62835079e-02 +6.96783140e-02 -6.66599497e-02 -2.31711529e-02 +1.85854346e-01 +1.08595006e-01 +2.49007680e-02 +6.73740655e-02 +1.54899850e-01 +1.77196078e-02 -1.50718525e-01 +4.86219861e-02 +2.33509187e-02 +1.48334876e-01 +1.86479334e-02 -8.58121142e-02 +5.02095297e-02 -4.10748608e-02 -4.10306565e-02 -1.59882635e-01 +6.20413311e-02 -2.60935128e-02 +1.03320129e-01 +1.71748072e-01 -2.28913072e-02 -1.19262479e-01 +8.85360315e-02 -5.29832840e-02 -1.29059866e-01 -4.72236983e-02 +4.09040414e-03 +1.29543900e-01 -9.82735306e-02 -8.85873660e-02 +2.52313763e-01 -1.08449407e-01 -1.66870788e-01 +2.67750956e-02 +2.19917998e-01 +7.42287636e-02 +4.15634289e-02 +1.06296606e-01 +1.07030608e-02 +5.84310777e-02 -9.07641277e-02 +1.35196850e-01 +1.59184486e-02 +7.57992193e-02 +1.22765809e-01 -2.78478228e-02 +8.29616468e-03 +3.07515878e-02 -2.27040406e-02 -6.52093499e-04 -3.35197262e-02 -1.00952134e-01 +6.12075999e-02 -7.15545043e-02 -3.83712468e-03 +8.84415209e-02 +9.68146622e-02 -3.65466960e-02 +4.40977775e-02 +1.08084284e-01 -1.26603190e-02 -1.23043992e-01 +1.73064470e-01 -2.44518463e-02 +2.02051356e-01 +5.96521311e-02 -1.97222736e-02 +6.78945184e-02 -7.63712451e-02 +4.53606993e-03 -6.11681398e-03 -1.99137419e-01 +2.33813553e-04 -6.52430858e-03 -1.09732628e-01 -4.11598980e-02 -1.03288338e-01 +1.69698626e-01 +9.79369786e-03 +1.48085594e-01 -5.68589009e-02 +3.93621475e-02 -3.79282236e-02 +3.91455442e-02 +1.54797733e-01 -1.49992153e-01 +1.50500178e-01 +5.75422309e-02 -1.29575297e-01 +1.97725743e-02 -4.95983437e-02 +4.09518071e-02 -8.92091841e-02 -5.51608810e-03 +5.92843927e-02 +2.74947472e-02 +1.55973583e-02 +6.55202791e-02 -1.43448338e-01 +2.46104151e-02 -5.79989851e-02 -1.71877667e-01 -2.89522298e-02 -6.89942315e-02 +3.82806398e-02 +3.31571773e-02 -1.19107343e-01 +5.20128235e-02 +1.84648782e-01 +5.60126901e-02 -2.03666892e-02 -5.20682000e-02 +8.49940255e-02 -6.63203597e-02 -7.66552985e-02 -3.88528630e-02 -1.89347435e-02 +1.86327189e-01 +1.94969520e-01 +7.79982954e-02 +1.44249469e-01 -8.20420508e-04 +7.48768151e-02 -3.10971905e-02 -9.56102163e-02 -1.11529589e-01 +1.40365481e-01 +1.14586413e-01 +3.50751802e-02 +1.18098259e-01 +3.13662067e-02 +4.49409522e-02 +9.73771885e-02 +1.11541815e-01 -4.52977903e-02 +8.04617554e-02 +2.42623035e-03 -1.92104846e-01 +7.64307380e-02 +6.99544027e-02 +8.67816731e-02 -8.12521800e-02 -1.35983184e-01 -2.05066919e-01 +4.89758663e-02 -1.65914327e-01 +5.26112691e-02 -1.53145296e-02 +7.27624670e-02 -2.46176329e-02 -1.74313802e-02 +2.05618162e-02 +8.35978147e-03 +1.37955591e-01 -3.92636172e-02 -1.95063073e-02 -1.81682073e-02 -1.31574064e-01 -1.80025756e-01 -6.33441359e-02 -2.00129926e-01 -6.21017665e-02 +8.65430608e-02 +1.01768263e-01 +6.66349567e-03 -1.11665927e-01 -1.01338059e-01 +2.22922564e-02 -1.88546572e-02 +4.81587425e-02 -1.83336101e-02 -9.13307257e-03 -1.59340240e-02 -9.08804461e-02 -2.47435011e-02 +7.90512562e-02 +4.16282639e-02 +7.47083500e-02 +1.13364600e-01 -3.99729190e-03 -3.31716277e-02 -2.93077785e-03 -3.80529910e-02 -3.68042141e-02 +1.18394375e-01 -3.01785078e-02 +1.42839417e-01 +1.39076173e-01 +1.04863279e-01 +8.12270790e-02 -5.62820174e-02 +4.76678908e-02 -4.20143120e-02 +3.64330783e-03 +3.06829903e-02 +5.24192788e-02 -1.51765659e-01 +2.00012624e-02 -1.33331850e-01 -9.21997502e-02 +7.50734732e-02 +9.72980410e-02 -6.72847778e-02 -3.80160147e-03 +6.70662299e-02 +1.36377625e-02 -6.73999563e-02 -1.56633750e-01 -6.27586544e-02 +4.83534113e-02 +1.52388573e-01 -5.59365526e-02 -4.91933674e-02 -4.33716513e-02 +1.10611990e-01 +1.12169422e-02 +8.00377782e-03 +1.70805044e-02 -1.25046059e-01 +7.39001110e-03 -5.59481271e-02 +1.48982689e-01 -3.78434770e-02 -1.85060352e-02 -9.74643752e-02 -2.06825957e-02 -3.23487483e-02 -1.33812185e-02 -2.99358293e-02 +1.10446788e-01 +2.34496556e-02 -1.29471645e-02 +1.41211852e-01 +2.18806602e-02 +7.29375631e-02 +7.33326972e-02 -1.11917399e-01 +3.98852080e-02 -1.14615589e-01 -8.31124373e-03 -3.02746929e-02 -1.02358507e-02 -5.74292243e-02 +6.90909550e-02 +1.21251345e-01 -3.90687324e-02 -3.38927619e-02 +4.93865088e-02 -6.91042095e-02 +8.49433616e-03 +7.63654336e-02 +5.81362695e-02 +4.15581129e-02 -1.47960380e-01 -3.79651673e-02 -2.53143851e-02 -3.84021103e-02 -4.01074551e-02 +8.43891501e-02 -4.19744616e-03 -3.59257758e-02 -1.79505590e-02 +6.67219907e-02 +2.27722991e-02 -1.13704707e-02 +1.11778587e-01 +6.26262277e-02 -9.81871486e-02 +1.52813807e-01 +5.25495857e-02 -1.35201484e-01 