#Parameter# /KMeans.11733911/_0 {50,512} 409601 ZERO_GRAD
+6.98126331e-02 -1.11306447e-03 +1.25091657e-01 +6.08386956e-02 +1.50241358e-02 +1.99929044e-01 -3.71851912e-03 +2.77822576e-02 +9.15328914e-04 +7.31424754e-03 +1.93297774e-01 +1.60038304e-02 +5.35446107e-02 -2.17271852e-03 +1.02555737e-01 +3.16262513e-01 +2.69855529e-01 +2.43417323e-01 -8.08618441e-02 +4.74119373e-02 +9.87160876e-02 -6.56609330e-03 -5.62144481e-02 +3.15029500e-03 +7.76645392e-02 +6.58428788e-01 -9.73824561e-02 +2.39417553e-02 +7.46482089e-02 +1.35305390e-01 +1.05383269e-01 +4.71935906e-02 +2.63724625e-02 +6.25770092e-02 +8.62059370e-02 +3.48491035e-02 +1.24608554e-01 +5.51102571e-02 -1.56718642e-02 +1.14174463e-01 +2.19701990e-01 +7.54878158e-04 +4.71552834e-02 +1.42869400e-02 +1.61102459e-01 +3.18242051e-02 +2.26887032e-01 +8.03731903e-02 +4.85534221e-02 +1.29123047e-01 -2.18393415e-01 -8.55608881e-02 -1.57304317e-01 -3.75964530e-02 +3.67555507e-02 -2.01232374e-01 -2.70300396e-02 -2.11725980e-02 +6.09608889e-01 -9.71793756e-02 -1.31152704e-01 +3.30956340e-01 -1.26895979e-01 +3.41157436e-01 -1.12008944e-01 -4.76330593e-02 +8.27268437e-02 +5.61451539e-02 -2.34533986e-03 -5.77337928e-02 -2.51022838e-02 -2.28452706e-03 -1.61585193e-02 +2.43518263e-01 -5.48726954e-02 -1.36685789e-01 -3.51882912e-02 -2.31907517e-01 +4.39255200e-02 -1.19661659e-01 -1.00004159e-01 +5.75594485e-01 -4.49370267e-03 +4.44981098e-01 -2.89881498e-01 -9.20510739e-02 -8.06373451e-03 +5.19023955e-01 -4.54587996e-01 +5.23271458e-03 -1.36519909e-01 -6.12693354e-02 -9.91007164e-02 -4.47408110e-02 +6.61294386e-02 -5.89881502e-02 -1.57543212e-01 -2.76436787e-02 -1.91727757e-01 +5.73393889e-02 -2.64770985e-02 +3.80111523e-02 +3.75586711e-02 +1.76782861e-01 +1.13517977e-02 +1.25966975e-02 +6.77364971e-03 -3.05515202e-03 -8.19141325e-03 -2.50775181e-03 +5.63721359e-03 -3.73074459e-03 +4.99960124e-01 -5.89153869e-03 +7.81924929e-03 -5.77011937e-03 +7.45165069e-03 -2.48543976e-04 -1.84233226e-02 -8.59304331e-03 +5.29597281e-03 -3.22966240e-02 -2.54956540e-02 -1.54633410e-04 -6.31930772e-03 +3.24621680e-03 -3.23346779e-02 +1.78802907e-02 -1.16355456e-02 -3.11576156e-03 +2.16971827e-03 -1.88926555e-04 +1.54163428e-02 +1.18722981e-02 +4.64804564e-03 -3.78720649e-02 -2.31189914e-02 +4.48352715e-04 +3.09811835e-03 -1.99218094e-03 -2.06858814e-02 -5.56926243e-04 -3.24808955e-02 -2.14560702e-02 +7.01963365e-01 +3.62067558e-02 -4.64236513e-02 -1.71500188e-03 -1.11951232e-02 +7.74691906e-03 +3.48299235e-01 +3.87709320e-01 +2.91974898e-02 +8.04308280e-02 +6.94404170e-02 -1.05583258e-02 -7.33520687e-02 +9.20407195e-03 +1.25251058e-02 +2.28065744e-01 -1.73573811e-02 -4.98921089e-02 +5.09270690e-02 -1.31982127e-02 -4.75465134e-02 -4.06851396e-02 -3.76647711e-02 -4.61808108e-02 -8.72309282e-02 +1.15611115e-02 -2.69437730e-02 -3.40327583e-02 -4.96287644e-03 +8.41486976e-02 +2.23391484e-02 -9.70539358e-03 +6.80879178e-03 +3.16821396e-01 +2.05180161e-02 +4.48320620e-02 -4.39516790e-02 +2.10745120e-03 +1.36176432e-02 -1.38863502e-03 +7.50273988e-02 +1.07107513e-01 +1.77231263e-02 +7.25354115e-03 -5.99234970e-03 -1.31586604e-02 +8.16457793e-02 +9.69144925e-02 +2.09795266e-01 +2.23267645e-01 -2.97779292e-02 +3.15266214e-02 +1.11935265e-01 +2.44512171e-01 +8.16320926e-02 -1.55618377e-02 -2.33069450e-01 -3.01136058e-02 -3.11614573e-02 -2.75504977e-01 -4.52033468e-02 -4.48459648e-02 -4.34462652e-02 -2.95543168e-02 -3.09039801e-02 -2.21669510e-01 -2.09747497e-02 -8.14254507e-02 -1.32371441e-01 -6.12518862e-02 -3.16165596e-01 -2.38795970e-02 -1.69929489e-02 -1.81720793e-01 -6.27400950e-02 -1.82891995e-01 -1.06414780e-01 -1.42518878e-02 -3.62985730e-02 -2.72184778e-02 -1.02207787e-01 -4.71643284e-02 -5.40252626e-02 -6.98057190e-02 -6.82828724e-02 -1.90388542e-02 -1.48695316e-02 -1.90919526e-02 -1.82181880e-01 -8.47936422e-02 -6.61797598e-02 -1.13542423e-01 -2.15663180e-01 -2.57699117e-02 -1.61226373e-02 -6.66602049e-03 -1.46655396e-01 -2.02307716e-01 -9.11326557e-02 -4.21764590e-02 -2.66555548e-01 -9.56460908e-02 -7.06148148e-02 -4.86446209e-02 -3.45869698e-02 -1.70397490e-01 -1.34578701e-02 +1.23311199e-01 +3.80595438e-02 -3.02468669e-02 +1.01320865e-02 +8.80409777e-03 +2.51864195e-02 +3.15648466e-02 -2.99936861e-01 +2.19330727e-03 +1.32478684e-01 -4.50004861e-02 +8.51740465e-02 -3.14146429e-02 +4.13077287e-02 +1.02696471e-01 +9.42754075e-02 -2.42649406e-01 +2.97440980e-02 -2.70316005e-03 +1.76955357e-01 +6.58896565e-03 +2.26516947e-02 -4.58507091e-02 +5.73744886e-02 +3.54180448e-02 +2.09207181e-03 +3.44186351e-02 +2.13468447e-02 +5.19301631e-02 +9.26367491e-02 -3.51712376e-01 -3.47155670e-04 -7.36706972e-01 -1.87320616e-02 -2.78129634e-02 -1.11624449e-02 -3.34598601e-01 -4.93214905e-01 +1.14975907e-01 -1.82539955e-01 +4.35872786e-02 +4.23664153e-02 -9.90225933e-04 -3.12624569e-03 +4.01091343e-03 -5.26413731e-02 -1.66455023e-02 -9.40967258e-03 +1.13420688e-01 -5.85016072e-01 -2.11523902e-02 -1.15526393e-02 +1.19919531e-01 -2.69125178e-02 -3.64772347e-03 -1.54005200e-01 +1.65791158e-02 +1.69049092e-02 -7.38759711e-03 -7.22179860e-02 +2.64137596e-01 +3.75622511e-02 +7.01288879e-01 -4.62132692e-02 -1.74935892e-01 -4.39066410e-01 +1.28236245e-02 -1.38999745e-02 -5.19961603e-02 -5.87082766e-02 -1.19599160e-02 -6.66224584e-02 +1.04492093e-02 -5.11179455e-02 -4.05303091e-02 -5.67356385e-02 -1.48411496e-02 -3.76894251e-02 -1.54756278e-01 -5.03528975e-02 +8.97630826e-02 -7.01937601e-02 +8.39389443e-01 -8.01995117e-03 -8.32548514e-02 -2.37400290e-02 +6.66730627e-02 -1.60150677e-02 -6.76103234e-01 -6.27726853e-01 +4.44990732e-02 -3.85554098e-02 -4.24438864e-02 -4.48497897e-03 -7.09553435e-02 -5.93159974e-01 +8.50028172e-03 -1.42548215e-02 -1.21892169e-01 -3.14161450e-01 -3.22540849e-02 +3.20030630e-01 -8.94442424e-02 +1.49814123e-02 -4.77444343e-02 -7.36979991e-02 -1.16789870e-01 -1.32621005e-01 -8.01110268e-02 +8.21048841e-02 -3.38545465e-03 +4.55072559e-02 -3.21035553e-03 +9.97730419e-02 -8.11271146e-02 +3.73168997e-02 +9.02774371e-03 +4.70337346e-02 +2.30157718e-01 +2.25563347e-01 -5.13115991e-03 -1.62009656e-01 -1.13385990e-01 +1.04461201e-01 -1.02368943e-01 -1.51665121e-01 -8.43981802e-02 +6.78041056e-02 -2.50684493e-03 -5.85762598e-02 -1.22971579e-01 -3.64683345e-02 -8.65683481e-02 -9.12033021e-02 -2.02499956e-01 +3.12114879e-02 -1.36815190e-01 -1.95815921e-01 +2.40241084e-03 -2.97433883e-01 -5.80717996e-02 -9.51204523e-02 +3.27077173e-02 +3.77437919e-02 +2.19159022e-01 -2.70859987e-01 -2.81306002e-02 +1.22925565e-02 +6.55318319e-04 -6.12319350e-01 -1.20738223e-01 -1.12836488e-01 -2.88111325e-02 -1.41062774e-02 -6.00237250e-02 -1.76253915e-03 -7.42442235e-02 -1.32098541e-01 -3.98877412e-02 -3.53062451e-02 -2.63335221e-02 -1.09943509e-01 -2.89687030e-02 -3.95276658e-02 -8.74702558e-02 -4.01789658e-02 -2.98001375e-02 -1.47806164e-02 -4.27230261e-02 -1.92136858e-02 -1.68600813e-01 -2.94474531e-02 -7.25779310e-02 -5.18764369e-02 -1.05013400e-02 -2.22115200e-02 -1.23172246e-01 -5.02596349e-02 -7.62632266e-02 -9.04904678e-02 -1.59606133e-02 -2.96459924e-02 -2.97454745e-02 -3.30217406e-02 -1.79806128e-01 -5.31744212e-02 -3.82372811e-02 -8.85274708e-02 -1.07409634e-01 -4.38120753e-01 -9.72251296e-02 +3.17998044e-03 -2.92420834e-01 -5.94124906e-02 -8.31474960e-02 -5.91636062e-01 -1.06244991e-02 -9.68894511e-02 -1.23444954e-02 +4.09454368e-02 +3.80401537e-02 +4.14463043e-01 +5.95402084e-02 +3.76590081e-02 +9.98965353e-02 +6.95819110e-02 +2.44831055e-01 +1.65278897e-01 +1.42525705e-02 +1.80620551e-01 +1.35092631e-01 +7.11327791e-02 +3.87037963e-01 +1.25128895e-01 +1.25263467e-01 +5.92445731e-02 +4.42938767e-02 +8.42333958e-02 +9.91040468e-02 +2.04213038e-01 +4.15029265e-02 +4.56285998e-02 +8.95964727e-02 +1.07497737e-01 +9.25669000e-02 +8.08415487e-02 +5.12513481e-02 +7.52315000e-02 +6.88483790e-02 +4.38680276e-02 +1.30190402e-01 +5.55199645e-02 +2.90587753e-01 +2.10298628e-01 +5.99314794e-02 +2.57121295e-01 +1.45971477e-01 +5.41831888e-02 +9.36688781e-02 +1.00621469e-02 +1.06063560e-01 +7.96350464e-02 +2.82382350e-02 +2.16877177e-01 +1.33101001e-01 +3.36132608e-02 +6.09776735e-01 +9.03447568e-02 +3.88348848e-02 -5.02657592e-01 +1.91350048e-03 -1.16313331e-01 +7.03432932e-02 -1.76947549e-01 -6.45922869e-02 -1.70322806e-01 -1.58609137e-01 -2.55391419e-01 -2.83443600e-01 -8.17948058e-02 -2.19918534e-01 -6.78150654e-02 -2.06074286e-02 -1.20780371e-01 +1.02667831e-01 -1.14008427e-01 -3.47496942e-02 -4.51271888e-03 -1.46187410e-01 -1.27365172e-01 -8.96659717e-02 +1.00845635e-01 -6.71942160e-02 +1.05153993e-01 -5.28131053e-02 -2.75424331e-01 -6.69881999e-02 -2.77003706e-01 -2.61790127e-01 -2.82908864e-02 -2.20309064e-01 -1.46728739e-01 +1.06965251e-01 +1.53872117e-01 -1.18329920e-01 -1.68169737e-01 +1.06159747e-01 -1.33299425e-01 -1.14764638e-01 -4.68271643e-01 -7.21318424e-02 +1.20415561e-01 -3.12002283e-02 -1.33031636e-01 -1.91572949e-01 -3.65522623e-01 +2.39826068e-02 -1.46999896e-01 -9.66822058e-02 -1.83609445e-02 +2.12306842e-01 -1.39307305e-01 +8.27972293e-02 +4.99877930e-02 -7.07875341e-02 -2.70819589e-02 +6.47185594e-02 -1.34601370e-01 +1.88335210e-01 -3.63400728e-02 -1.71854600e-01 -8.12448710e-02 -8.34609866e-02 -8.50333497e-02 +5.32422550e-02 -1.05131090e-01 -3.12884748e-02 -2.43633334e-02 -4.66159098e-02 -2.49026250e-02 +3.15093696e-01 -3.42640057e-02 -1.25433683e-01 +3.38335000e-02 +7.47993439e-02 -5.51934242e-02 +8.01113471e-02 -3.80235352e-02 -2.86053913e-03 -3.38526554e-02 -1.32397458e-01 +1.32030681e-01 -5.22626517e-03 -7.42546096e-02 -8.84451345e-03 -1.43385306e-01 -1.12717904e-01 -9.34191048e-02 -1.05077654e-01 -3.31983566e-01 -5.36818877e-02 +7.99262226e-02 +5.63760623e-02 +7.33383819e-02 -2.30042990e-02 -5.95854819e-02 -1.09703671e-02 -1.19934313e-01 +3.87661345e-02 +1.74933061e-01 -4.42066416e-02 +4.57846969e-02 -5.62897846e-02 +9.21314955e-02 +3.62747163e-02 +6.12793081e-02 +6.07822612e-02 +1.16825677e-01 +4.35326435e-02 +4.96556461e-02 +1.35663778e-01 +5.96340559e-02 -1.45235742e-02 +5.83731346e-02 -7.84967840e-02 +5.92401028e-02 -1.90334935e-02 -8.55334103e-03 +5.52407876e-02 +5.94612025e-02 -1.52165014e-02 -6.49334341e-02 +1.52897332e-02 -7.29734972e-02 +1.18708303e-02 +1.03519514e-01 +2.85068285e-02 +1.42259687e-01 +1.19717151e-01 +2.17593368e-02 +1.09341979e-01 +9.21934396e-02 -1.15945585e-01 -7.24758208e-02 +5.63618578e-02 +6.94184229e-02 -6.97800815e-02 +4.78203185e-02 +6.38781711e-02 +2.18657449e-01 -8.27695616e-03 -7.60076642e-02 +3.99471633e-03 +5.43079488e-02 +6.79740757e-02 +1.46815866e-01 -2.54513938e-02 +8.09249729e-02 +4.63750586e-02 -1.60917312e-01 -5.01369908e-02 -5.55100963e-02 -4.38198090e-01 -2.45351762e-01 -2.99723893e-02 -1.43527806e-01 -2.35063862e-02 -6.74712956e-02 -3.38487439e-02 -2.21959762e-02 -7.11839795e-02 -2.96735242e-02 -5.80294430e-02 -4.32855710e-02 -3.75910066e-02 -5.17927483e-02 -1.65662110e-01 -8.58121067e-02 -4.57495973e-02 -4.24398370e-02 -1.40748899e-02 -4.03396711e-02 -8.60560536e-02 -4.88063209e-02 -1.02521829e-01 -2.82012690e-02 -4.88753989e-02 -6.31255582e-02 -7.80624151e-02 -5.22090010e-02 -6.38558716e-02 -4.27713782e-01 -4.94558036e-01 +3.24758887e-03 -4.38088402e-02 -1.87267121e-02 -5.49577847e-02 -2.64951102e-02 -4.97092903e-02 -1.27497017e-01 -7.33219460e-02 -6.76918030e-02 -4.32829633e-02 -8.86333212e-02 -4.88663502e-02 -1.48987710e-01 -5.88583946e-02 -1.03823030e-02 -4.68215585e-01 +8.18561856e-03 +2.27000847e-01 -4.41479236e-02 +3.87511104e-02 -2.80935407e-01 -3.09032667e-02 -1.58867687e-02 -2.17358414e-02 +1.10410452e-02 -1.93823934e-01 +5.61684258e-02 -2.04961252e-04 -6.13583624e-02 -3.61432768e-02 -9.68793556e-02 -7.58963972e-02 +4.24554795e-02 -4.06719297e-02 -1.44154862e-01 +1.04688434e-02 -1.25042811e-01 +1.59944445e-01 -1.42509993e-02 +4.99615371e-02 -1.17010430e-01 -7.35887587e-02 -5.43323383e-02 -5.87344319e-02 -1.86205730e-01 -8.82822201e-02 +3.32491100e-02 +3.31819765e-02 -2.62489952e-02 +7.52800424e-03 -3.57723273e-02 +1.72966376e-01 +1.18095390e-02 +9.76941828e-03 +6.54051453e-02 +1.02199115e-01 +3.62483144e-01 -4.38218849e-04 +6.17976151e-02 +7.11129084e-02 -7.56574795e-02 -2.13824034e-01 +3.29071581e-01 -8.07212815e-02 -1.47220232e-02 -8.51007551e-02 -1.68386698e-01 -6.73559085e-02 -9.59308147e-02 -8.56934115e-02 -2.16936111e-01 -2.36198619e-01 -1.44208908e-01 -1.91716537e-01 -6.08288683e-02 -7.41990358e-02 -1.17429353e-01 -7.01411143e-02 -1.09823346e-01 -7.41346925e-02 -1.96067303e-01 -1.02313228e-01 -1.74919948e-01 -5.64855188e-02 -8.93841982e-02 -8.96097347e-02 -1.53470278e-01 -1.01250872e-01 -1.36617318e-01 -1.00000016e-01 -1.54266566e-01 -2.91051686e-01 -1.15654238e-01 -1.56670958e-01 -1.46772802e-01 -2.05193177e-01 -2.22724289e-01 -1.07523754e-01 -2.02330276e-01 +8.10381994e-02 -1.07064098e-01 -1.33634910e-01 -1.72652945e-01 -8.51713121e-02 -8.09961855e-02 -1.04975700e-01 -6.80126771e-02 -1.75181329e-01 -1.41306981e-01 -1.70153260e-01 -1.18060015e-01 -7.93217272e-02 -9.35402587e-02 -1.72270760e-02 -9.60646868e-02 -2.14402661e-01 +1.71406552e-01 +1.13490187e-01 -1.80839881e-01 +2.47697439e-02 -1.32241827e-02 -1.13475574e-02 -1.02963835e-01 +9.75739062e-02 +4.09231894e-02 +9.50479582e-02 -1.53249800e-01 +3.68864872e-02 +5.13562821e-02 +3.97722200e-02 +3.55891958e-02 -1.75115943e-01 -2.86908686e-01 -4.91721667e-02 +3.37294750e-02 +1.56031186e-02 +4.69617173e-02 +4.61169295e-02 +1.96001399e-02 +9.96209085e-02 +4.51932177e-02 -5.98822460e-02 +6.64426163e-02 +4.44006324e-02 +2.37366594e-02 -1.03268132e-01 -2.16273610e-02 -6.46388456e-02 -2.14063544e-02 +1.93439052e-02 -4.81981970e-02 +5.10973595e-02 +7.26812035e-02 -3.74189094e-02 -5.60352020e-02 -3.83207023e-01 +2.02849567e-01 -2.85680983e-02 +4.58854325e-02 -1.34142544e-02 +2.89579146e-02 +1.39441446e-03 +2.93115914e-01 -4.21767496e-03 -9.54486206e-02 -1.18407376e-01 +6.34055808e-02 -1.26243353e-01 +1.45235926e-01 -4.50336076e-02 +3.49037200e-02 +1.30835429e-01 +1.02150448e-01 +1.07298851e-01 +1.53277919e-01 +1.77372769e-01 +2.23548815e-01 +1.41669556e-01 +5.75526021e-02 +2.59539902e-01 +4.86861803e-02 +1.11561053e-01 +2.37096593e-01 +1.57475293e-01 +2.12294325e-01 +8.48202780e-02 +5.94677739e-02 +1.87487945e-01 +1.27530292e-01 +1.43375918e-01 +1.02806777e-01 +5.09185195e-02 +1.25905722e-01 +5.68695590e-02 +8.92186835e-02 +7.61140585e-02 +1.46683082e-01 +2.55494148e-01 +6.66878894e-02 -1.36992723e-01 +1.17351100e-01 +1.98621407e-01 +1.39377862e-01 +2.13719487e-01 +3.21669638e-01 +1.41664758e-01 +1.48340121e-01 +1.44511715e-01 +2.95570474e-02 +6.96434155e-02 +9.75932702e-02 +6.99681640e-02 +9.16003585e-02 +6.45618811e-02 +1.63186505e-01 +8.76494721e-02 +1.15088850e-01 -1.51115386e-02 -2.92313583e-02 -7.22643957e-02 -5.05376399e-01 -2.32200697e-02 -4.88999896e-02 -1.83661804e-01 +4.44109380e-01 -1.37796894e-01 -2.12582424e-02 +6.05596080e-02 -2.35043392e-02 +1.78517476e-01 -9.91584286e-02 -1.81450434e-02 +7.52017088e-03 -1.08385429e-01 -4.29653861e-02 -7.72716403e-02 -8.01689327e-02 -2.96489567e-01 -5.91139868e-02 +4.53933030e-01 -1.54069200e-01 -1.65780019e-02 -1.16302937e-01 -4.74978909e-02 -3.84089112e-01 -6.49325177e-02 -6.10027462e-02 +2.15184629e-01 -1.58499151e-01 +1.40324876e-01 -1.40897974e-01 -1.26592860e-01 -7.33268335e-02 +2.72795618e-01 -1.08998008e-01 +8.05058237e-03 +4.90625262e-01 +8.66433978e-03 -1.00128047e-01 -3.77042711e-01 -1.30915744e-02 -2.52894253e-01 +2.84708709e-01 -1.25619695e-01 -1.13731325e-01 -7.36475140e-02 +1.17842425e-02 -3.97038460e-02 +4.51811124e-03 -1.36226518e-02 -3.14838137e-03 -1.14420615e-01 -1.73177570e-01 +5.02427742e-02 +2.54699178e-02 -2.83747092e-02 -1.25076190e-01 -2.82365549e-02 +1.14019553e-03 +9.04691406e-03 -4.45299894e-02 -5.28779030e-02 -6.75271079e-02 -3.26592237e-01 -3.62495899e-01 +1.69242397e-02 +2.32986435e-02 +4.25113514e-02 -1.72769732e-03 +1.56301353e-02 +8.02758522e-03 -1.98974073e-01 +1.74537934e-02 -9.82506275e-02 +1.55349518e-03 -5.20712771e-02 -7.55058601e-02 -6.26052320e-02 +6.39644358e-03 -1.12523986e-02 -2.29059067e-02 +4.91153114e-02 -1.20063737e-01 -5.60527779e-02 -1.42574579e-01 +8.12634267e-03 +3.22511117e-03 -1.24493139e-02 -2.53394917e-02 +2.74399593e-02 -3.06717511e-02 +4.10941131e-02 +7.15193897e-03 -5.50641818e-03 +5.47655672e-03 -2.04604179e-01 -1.43121943e-01 -1.44834360e-02 -3.31380591e-02 +3.47226821e-02 -1.36012807e-01 +1.05108365e-01 -9.79201403e-03 +6.01386689e-02 -8.47732052e-02 +3.00962459e-02 -1.65479764e-01 +1.18116592e-03 +5.14814770e-03 +1.05409540e-01 -2.03510039e-02 +5.77812502e-03 -6.33355379e-02 +1.31993964e-01 +3.07681933e-02 -1.35698944e-01 -1.01135619e-01 +9.85809490e-02 +3.88888530e-02 -1.77088857e-01 -1.41106304e-02 +3.42871584e-02 -3.15435603e-03 -4.51036766e-02 -7.83634111e-02 -1.41028658e-01 -3.19109112e-02 -1.73998863e-01 +1.11189567e-01 +7.63929496e-03 -9.22622159e-02 -9.70114470e-02 -4.69848001e-03 -7.60075375e-02 -5.91048412e-02 -1.46797165e-01 -1.34580508e-01 +1.29050404e-01 -8.05444084e-03 -8.23032558e-02 +5.88286147e-02 -3.82554368e-04 -6.31444454e-02 -2.29500625e-02 -2.49084815e-01 +1.57210380e-01 +2.07609516e-02 -5.70770353e-02 +7.88212172e-04 -9.47973579e-02 -5.77216558e-02 +9.96870920e-02 +7.41069391e-03 +1.17874175e-01 +9.69494134e-02 +3.25968146e-01 -3.52123715e-02 +7.92149231e-02 +6.62320554e-02 +1.24807775e-01 +6.12873733e-02 -9.09100473e-02 -1.10844523e-01 +3.74844745e-02 +3.26554514e-02 +1.13617918e-02 +1.60141438e-01 +2.34075204e-01 +2.23639738e-02 -4.52928320e-02 +1.40702546e-01 -4.30454277e-02 +1.09913768e-02 +1.75201148e-02 +4.31963727e-02 +2.95394529e-02 -1.51029341e-02 +8.23060274e-02 +7.06909150e-02 -1.32908896e-01 -9.40899402e-02 +2.94838995e-02 +1.33614704e-01 +9.40625817e-02 +5.97539265e-03 -4.32192907e-02 +3.17850336e-02 -1.33783454e-02 -5.31775095e-02 -6.03379831e-02 +8.89295638e-02 +1.31811410e-01 +8.18672031e-02 -5.15554696e-02 -5.16607575e-02 -7.09203864e-03 -1.58980221e-01 -8.37115869e-02 -3.42326462e-02 -3.85552421e-02 +3.12946178e-02 +1.77018911e-01 +1.60085142e-01 +1.26300886e-01 -4.04725447e-02 +1.16255827e-01 +4.67621088e-02 +1.13810398e-01 -1.10783139e-02 +3.03979162e-02 +2.82212287e-01 +3.06341536e-02 +2.24353224e-02 +3.72271329e-01 +2.62667567e-01 -5.74962012e-02 +5.28444499e-02 +4.19862986e-01 -4.47056256e-02 -5.89983575e-02 +7.92402178e-02 +4.31637727e-02 -3.21319029e-02 +3.96292377e-03 +7.22723901e-02 +4.86457013e-02 -1.16717322e-02 +6.19553812e-02 +1.68089289e-03 +2.32687895e-03 -2.13822853e-02 -9.23915505e-02 +3.19003344e-01 +2.31108796e-02 +1.06883518e-01 -5.82694300e-02 -1.65476680e-01 +1.74840353e-02 -2.40121577e-02 -6.16704673e-02 +3.14438045e-01 -6.82155427e-04 -1.49698600e-01 +2.27360763e-02 -8.85732099e-02 +1.20633952e-01 +6.30574534e-03 +8.16271156e-02 +1.44750744e-01 +9.10628960e-02 +1.47871161e-02 +6.65279701e-02 +3.88096720e-01 +5.04810885e-02 +8.41354132e-02 +5.29240072e-01 +1.49450883e-01 +2.92040575e-02 +1.28448829e-02 +1.88205242e-02 +2.64800996e-01 +3.75693329e-02 +1.49651561e-02 +4.40677218e-02 +7.48524144e-02 +4.39107306e-02 +2.47473549e-02 +6.96084723e-02 +1.01622961e-01 +1.93122208e-01 +6.92914873e-02 +2.16485336e-02 +1.04567103e-01 +5.92712313e-02 +6.84290901e-02 +2.29041614e-02 +4.65024449e-02 +1.11661799e-01 +9.88887995e-02 +1.45650003e-02 +1.95166871e-01 +8.59999135e-02 +1.68787628e-01 +1.25140831e-01 +1.00010753e-01 +2.32315180e-03 +4.31101443e-03 +2.11362671e-02 +3.08684975e-01 +5.31588607e-02 +1.01160761e-02 +4.60390151e-02 +8.45278800e-03 +3.26034464e-02 +7.64148757e-02 +3.81185532e-01 +1.44749731e-02 -1.31997475e-02 -8.02966650e-04 +1.65084787e-02 +5.00684194e-02 +8.65163058e-02 -1.78102218e-02 +3.38922620e-01 +5.07214926e-02 -1.18021993e-02 -4.57612947e-02 +3.37610091e-03 -3.46880849e-03 +1.13970153e-02 -7.35061690e-02 -8.32213927e-03 -2.61607580e-03 +1.92415975e-02 -1.74393840e-02 -1.03340317e-02 -1.23795206e-02 +7.18701124e-01 -8.63176491e-03 +4.57399189e-02 +3.04619633e-02 +6.01730403e-03 -2.40645949e-02 +7.94379115e-02 +2.05391236e-02 +1.53599977e-02 +7.19053019e-03 -3.52843069e-02 +2.66522579e-02 -4.71108011e-04 +3.06523424e-02 +1.81481224e-02 -1.91959023e-01 +3.67326774e-02 -1.15225613e-01 +5.19339275e-03 +2.71725818e-03 +7.18446821e-02 +4.07521240e-02 +1.84325613e-02 -8.84559005e-03 +2.69425698e-02 +5.74467797e-03 +3.36222202e-02 +1.55582856e-02 +5.26737049e-03 -5.09183466e-01 -5.01781926e-02 -9.76230130e-02 -6.68574423e-02 +6.80934191e-02 -3.74978897e-03 +6.55896440e-02 -2.34959126e-01 +7.43097737e-02 +1.44741714e-01 +1.31159939e-03 +3.80190313e-02 +1.30594730e-01 +1.50548033e-02 +1.73208147e-01 +5.29859327e-02 +1.31599717e-02 +2.53272783e-02 +1.12336859e-01 -4.66497913e-02 +1.66717365e-01 -6.00308359e-01 -1.07087856e-02 +2.39526518e-02 +1.13862415e-03 +4.31921184e-02 +2.36955774e-03 -1.55053865e-02 +5.02325743e-02 +3.53343114e-02 -2.28721779e-02 +1.91843994e-02 +5.92821389e-02 -1.93770491e-02 -5.04956208e-02 -8.94255266e-02 -1.32040977e-02 +1.82470512e-02 -3.48416856e-03 -3.36035080e-02 -7.24123657e-01 -3.65639813e-02 -1.60999924e-01 -7.51753002e-02 +1.79514065e-01 +5.09722494e-02 -7.02477396e-01 -8.47107619e-02 -6.70381784e-02 +4.77100909e-02 +3.48215818e-01 +1.80529833e-01 +7.13020489e-02 +2.31852859e-01 +3.39218602e-02 +6.98909983e-02 +7.70415291e-02 +1.30694777e-01 +2.90015668e-01 -1.69854760e-01 +1.93327323e-01 +1.84528708e-01 -1.73815265e-01 +2.58104473e-01 -5.88289928e-03 -1.11657334e-02 +1.99790075e-01 +3.64017487e-01 +1.10086873e-01 +4.48966399e-02 -3.70164216e-02 -1.13696612e-01 +1.25858888e-01 +1.95842922e-01 +2.87117045e-02 +8.35896656e-02 +1.13795660e-01 +7.74418265e-02 +1.27431020e-01 -6.52696937e-02 +6.07469529e-02 +2.00953066e-01 +2.84340559e-03 +1.95315197e-01 +1.02237709e-01 +1.05777733e-01 +1.06551103e-01 +1.85238257e-01 +1.22978017e-01 +6.29516542e-02 +8.54767859e-01 +3.01474571e-01 +1.49871856e-01 +3.66985612e-02 +3.74057777e-02 +1.34106502e-01 +1.40418738e-01 +8.69913325e-02 +1.46634012e-01 +1.48907363e-01 +2.50004053e-01 +2.28603646e-01 +6.04414530e-02 +2.24923655e-01 -8.14408883e-02 -3.12273521e-02 -1.92917377e-01 -1.35825858e-01 -3.18210572e-02 +2.10584328e-01 -7.92748258e-02 -2.31866047e-01 +1.48334056e-01 -7.41048679e-02 -5.25711812e-02 +1.18083932e-01 -5.32910712e-02 -1.48689672e-01 -1.32953793e-01 +1.63256917e-02 -1.19035237e-01 +5.19986637e-02 -6.87894505e-03 +2.32729286e-01 -3.49816829e-02 -5.35638221e-02 -3.20144556e-02 -5.02430722e-02 -1.32624626e-01 +4.93476428e-02 +1.24665573e-02 -2.60270629e-02 -6.77646399e-02 +2.40690187e-01 +8.74320716e-02 +9.41931531e-02 -3.61853391e-02 +1.09778926e-01 -6.47769272e-02 +6.18030578e-02 +3.33579004e-01 +7.58492947e-02 +1.93109572e-01 +9.98435542e-02 -8.55108649e-02 -7.30204880e-02 +4.57690716e-01 +9.08228531e-02 +8.79454464e-02 -1.02378517e-01 -5.31532653e-02 +5.09349070e-02 -7.78187141e-02 +6.55359998e-02 -3.03880852e-02 -1.29492329e-02 -2.83923268e-01 +6.45914639e-04 -7.88544212e-03 -4.43529725e-01 +2.55628288e-01 -3.18841904e-01 -8.00156295e-02 +7.47849792e-02 -1.76346228e-01 +7.81822503e-02 +2.51034439e-01 +3.30942385e-02 +9.58495811e-02 -1.22005910e-01 -2.57992856e-02 -5.66513427e-02 -2.77967662e-01 -7.42152259e-02 -6.18445352e-02 -2.25012302e-01 -1.57510966e-01 -1.91879608e-02 -2.01014876e-02 -5.97538799e-02 +1.41325951e-01 +6.54494911e-02 -1.47642195e-01 +2.66749740e-01 +1.17903482e-03 -1.09969102e-01 +3.14146071e-03 +5.87219149e-02 +3.06173950e-01 +5.18551320e-02 -1.56478621e-02 -1.55438564e-03 -1.96090877e-01 -6.50120378e-02 +9.72651318e-02 -2.91159470e-02 -3.71545739e-02 -1.65029205e-02 -2.11384557e-02 +3.06737535e-02 -8.81633610e-02 -8.53247046e-02 -1.98582157e-01 +2.77157258e-02 -2.78654210e-02 +7.48494387e-01 -3.50011498e-01 +4.79497492e-01 -3.28550395e-03 -1.65217847e-01 -8.60759020e-02 -6.97315410e-02 +6.01543605e-01 -1.51819400e-02 -2.37747222e-01 -8.73831511e-02 -9.66688097e-02 +6.61082892e-03 -7.49212690e-03 -9.83083397e-02 -1.11781150e-01 +4.73657966e-01 -1.22557834e-01 -2.39797998e-02 +1.36091541e-02 -4.01279032e-01 -1.09182574e-01 -3.96833867e-01 -8.12729597e-02 -1.99439883e-01 +3.27371471e-02 -6.64757937e-02 +1.19114637e-01 -2.45279688e-02 +4.32983749e-02 -3.82019058e-02 +1.24646112e-01 -4.29951176e-02 -9.68875736e-02 -3.76455523e-02 -6.00572154e-02 +5.34473717e-01 +3.18389945e-02 -6.15443438e-02 -1.04972357e-02 -5.12130111e-02 -7.18256906e-02 -9.21154395e-03 -2.61542778e-02 -1.51263133e-01 +2.78397347e-03 +7.34858215e-02 +9.85743701e-02 +9.14088562e-02 +7.42825270e-02 +5.70122972e-02 +1.34082194e-02 +4.61154766e-02 +9.32497345e-03 +1.34038199e-02 +6.19830340e-02 +1.58721339e-02 +1.53233469e-01 +4.06811908e-02 +7.19708949e-02 +9.04937387e-02 +2.10492071e-02 +6.98482012e-03 +4.95996326e-02 +1.45702019e-01 +2.23093525e-01 +6.75280988e-02 +6.31128550e-02 +6.81715831e-02 +1.48751944e-01 +2.54882555e-02 +5.84425107e-02 +6.11819774e-02 +9.67747048e-02 +1.00094564e-01 +9.05368924e-02 +3.04575004e-02 +7.55214244e-02 +1.40798381e-02 +1.44271985e-01 +6.70765638e-02 +8.57000947e-02 +3.47824320e-02 +8.28300565e-02 +2.77468171e-02 +1.65123737e-03 +4.32036184e-02 +2.43163496e-01 +1.11082651e-01 +6.65599480e-02 +8.04440752e-02 +4.03315341e-03 +1.03949085e-01 +7.37565085e-02 +1.92241408e-02 +3.74878161e-02 -1.66919187e-01 -3.69985215e-02 +2.47724354e-02 +6.99292719e-02 -2.28180196e-02 -1.34340554e-01 -1.51320487e-01 +4.12055105e-01 -2.24858969e-01 -8.13496336e-02 +3.30767244e-01 +5.92763943e-04 +3.37220460e-01 -5.60380481e-02 -1.25960242e-02 +4.96182553e-02 -3.15892249e-01 -1.49365515e-01 -2.86244959e-01 -8.78361613e-02 -6.42849430e-02 -2.27001190e-01 +2.29928076e-01 -1.95444170e-02 -4.36226390e-02 -3.57688695e-01 -2.33624522e-02 -6.30047591e-03 -8.55645239e-02 -6.65059537e-02 +4.93222594e-01 -6.75945580e-02 +1.83441982e-01 +1.40681192e-02 -2.49011055e-01 -1.21934757e-01 +4.55866098e-01 +2.44052872e-01 -5.00012673e-02 +1.35113876e-02 +4.33957623e-03 -1.28542751e-01 +9.76694748e-03 +1.33672580e-02 -8.82112328e-03 +5.18687628e-02 -1.78070515e-02 -1.04415238e-01 -1.60523087e-01 -6.26831800e-02 -2.40419194e-01 -2.37777680e-01 -2.50110298e-01 -1.43783009e-02 -1.11044198e-01 +1.35439053e-01 -1.91431761e-01 -3.09425145e-02 +2.70389114e-02 -2.77673364e-01 -1.40330913e-02 -1.15346901e-01 -5.05151711e-02 +2.03861952e-01 -2.55643707e-02 -8.10968429e-02 -2.84291238e-01 +4.97729052e-03 -2.48096194e-02 -4.98026563e-03 -8.26034248e-02 -1.27370372e-01 -9.53280628e-02 +1.25684924e-02 -1.72549948e-01 -7.37190396e-02 -2.50550628e-01 +7.72642642e-02 -1.79667994e-01 -3.71817797e-01 -3.68312672e-02 -9.89313945e-02 -3.40183973e-02 -4.04964425e-02 -3.44830081e-02 -1.73297040e-02 -5.12008928e-02 -8.09849799e-02 -9.81735960e-02 -2.80683897e-02 -2.27924645e-01 +9.60420817e-02 +4.51567732e-02 -3.15619111e-02 -8.41931626e-03 -3.98493148e-02 -2.45093666e-02 -2.54674107e-02 +4.48422730e-02 +6.69589192e-02 -2.44133174e-02 -4.23029028e-02 +1.68039277e-01 +5.11263162e-02 -6.86599240e-02 -1.85493529e-01 -2.34549075e-01 -1.58163458e-02 +5.59561402e-02 -8.11326206e-02 -1.20155243e-02 +8.00937861e-02 -5.98371513e-02 -2.46007830e-01 +3.07082497e-02 +3.76459286e-02 +1.82900093e-02 -2.39722222e-01 -1.37949646e-01 -1.65536001e-01 -3.59819204e-01 -1.51235685e-01 -4.68068421e-02 -4.72551286e-02 -3.07076238e-02 -1.01260796e-01 +2.37359460e-02 -2.00296249e-02 +9.18308720e-02 +1.94736440e-02 -3.87621596e-02 +1.80729181e-01 +3.13254297e-02 +4.71186601e-02 -5.94471358e-02 -2.81902432e-01 -3.34363617e-02 -1.61184240e-02 +5.62196188e-02 +1.93021223e-02 -1.22509792e-01 -1.00315973e-01 -4.29473631e-03 -1.86360944e-02 +1.01675220e-01 +2.37252414e-02 +7.25360215e-02 +1.84231177e-02 +1.61570162e-01 +5.27240261e-02 -6.91146553e-02 -9.64253321e-02 -1.64510421e-02 -9.84378383e-02 -1.00653410e-01 -1.87495977e-01 -1.73076570e-01 -3.64856608e-02 -8.16751271e-02 +9.09674987e-02 +1.04107633e-01 +3.78668368e-01 +2.18097717e-01 -8.10029134e-02 -9.60613191e-02 +1.60360068e-01 -6.78024217e-02 -1.67834997e-01 -6.08448945e-02 +5.22472441e-01 -5.49002290e-02 -8.25559795e-02 -6.29977137e-02 -1.04857504e-01 -1.07997179e-01 -7.68011808e-02 -3.10377274e-02 -1.02224320e-01 -1.82868823e-01 +6.86344028e-01 +9.02915373e-02 -4.29139957e-02 +2.78940052e-01 -2.03436948e-02 -2.65901722e-02 -8.37838426e-02 +7.87378848e-02 +4.31114584e-02 +1.22681253e-01 +1.21991619e-01 -3.41280326e-02 -6.83511570e-02 -7.12396279e-02 -1.46823823e-01 +5.69436997e-02 +9.47332755e-02 +8.29546526e-02 -4.75196056e-02 -8.78237784e-02 +8.58241785e-03 +4.45249230e-01 +3.93603705e-02 +2.39162788e-01 +1.69816874e-02 +4.61142696e-02 +8.77505988e-02 +1.13722384e-01 +1.32290935e-02 +4.81696352e-02 +6.78403825e-02 +1.25219569e-01 +3.98461446e-02 +9.51271877e-02 +2.05720484e-01 -2.25557946e-02 +9.53220576e-02 +2.03381017e-01 +1.31895334e-01 +2.53948689e-01 +8.66777152e-02 +1.58525109e-02 +5.37531339e-02 +1.19556308e-01 +1.01284832e-01 +2.23688092e-02 +3.45652774e-02 +7.12247863e-02 +1.08878970e-01 +5.81307411e-02 +2.56145801e-02 +7.62002543e-02 +3.33165564e-02 +2.41528347e-01 +7.21027516e-03 +7.91743770e-02 +2.92269081e-01 +4.95173596e-02 +8.74861330e-02 +7.32011348e-02 +1.26208486e-02 +5.94246686e-02 -4.88273278e-02 +6.14125356e-02 +1.58501923e-01 +2.64342539e-02 +1.68446712e-02 -7.35935345e-02 +8.02545473e-02 +1.42470464e-01 -3.98131579e-01 -8.95083010e-01 -7.77914584e-01 -8.11315894e-01 -7.51830220e-01 -8.37468982e-01 -7.74084926e-01 -7.21538424e-01 -6.75702989e-01 -6.97761595e-01 -8.39092672e-01 -6.32998168e-01 -8.59733343e-01 -9.30459678e-01 -8.12096298e-01 -8.85644972e-01 -8.30133617e-01 -8.60228658e-01 -8.95875990e-01 -8.60481679e-01 -7.94787943e-01 -8.38305414e-01 -9.60333824e-01 -8.71469676e-01 -9.62695420e-01 -8.38834167e-01 -6.49913073e-01 -8.31652105e-01 -6.55529320e-01 -7.01722026e-01 -8.53162348e-01 -7.37548769e-01 -7.86235988e-01 -8.46145093e-01 -8.32308590e-01 -8.25216830e-01 -7.64155507e-01 -9.67681289e-01 -8.12439740e-01 -8.41164410e-01 -3.38584274e-01 -8.70511115e-01 -7.04261482e-01 -8.90320361e-01 -7.96496987e-01 -7.69975007e-01 -5.16228497e-01 -3.33200932e-01 -8.44966948e-01 -8.17337632e-01 -2.08201051e-01 -8.16633254e-02 -4.86426830e-01 -1.20671041e-01 +1.03972033e-01 -3.42394710e-01 -9.56527963e-02 -2.97695547e-01 -2.08382159e-02 -7.48471096e-02 -2.08138302e-01 -1.72619093e-02 -1.36388034e-01 -2.20232867e-02 +2.68122666e-02 -8.06084052e-02 -6.28396729e-03 -1.33949667e-01 -9.11319405e-02 -3.35067622e-02 -5.25761358e-02 -7.58208558e-02 -1.05375387e-01 -8.82507190e-02 -1.42425578e-02 -2.64038771e-01 -8.73920694e-02 +7.47685850e-01 +2.93801188e-01 -5.31292967e-02 -5.86591065e-02 -3.98409627e-02 -7.46032819e-02 -3.26433107e-02 -2.10724756e-01 -1.60624757e-01 -5.90367056e-02 -3.16360444e-02 -1.20478623e-01 -2.77250875e-02 -3.16512346e-01 -3.69922787e-01 -8.90817791e-02 +1.12370558e-01 -2.30827108e-02 -4.27030586e-02 -3.30410361e-01 +8.54131207e-03 -1.27219945e-01 +1.26045393e-02 +3.66538428e-02 -1.62762389e-01 -5.55242375e-02 +9.85890068e-03 +1.04358178e-02 +1.92761328e-02 -3.56024146e-01 +2.53303945e-02 +5.79814368e-04 -2.43831035e-02 -1.12979800e-01 -2.22101016e-03 +1.16143972e-02 -3.02077760e-03 -7.38390833e-02 -1.04957588e-01 -1.93572901e-02 +1.37346154e-02 -2.39051014e-01 -3.40239378e-03 -3.96276899e-02 +8.75728950e-02 -1.19205460e-01 -2.09620502e-03 -1.37437563e-02 -5.18380068e-02 -1.16140783e-01 -7.82577973e-03 -1.04691647e-02 -1.05310148e-02 -1.46187274e-02 -1.55270072e-02 -2.66784686e-03 -1.57654122e-03 -1.35767031e-02 +3.34564317e-03 -1.18877264e-02 -8.09110235e-03 -1.31410565e-02 +2.08006310e-03 +3.30060907e-02 +5.02112806e-02 -3.36470008e-02 +9.31682531e-03 -2.61843652e-01 -5.21307113e-03 +4.69072387e-02 -2.10471521e-03 -1.39622530e-02 +2.67682504e-02 -4.31326956e-01 -1.41434252e-01 -1.59818649e-01 -1.25388399e-01 -1.74422950e-01 -1.70453280e-01 -1.60079107e-01 -2.44430527e-01 -2.71366775e-01 -2.54103124e-01 -1.20092444e-01 -2.55760133e-01 -1.40245616e-01 -1.38216302e-01 -1.38747022e-01 -1.08752079e-01 -1.50867105e-01 -1.61716908e-01 -1.09888047e-01 -1.42916217e-01 -1.51433378e-01 -3.11251730e-01 -8.26409608e-02 -1.52686447e-01 -8.41801316e-02 -1.33340687e-01 -2.25030541e-01 -1.38307616e-01 -2.56846964e-01 -2.48704895e-01 -1.46680400e-01 -2.07169160e-01 -1.51012227e-01 -1.68288201e-01 -9.23630297e-02 -2.08617613e-01 -1.84202492e-01 -9.41893682e-02 -1.75463602e-01 -1.83311492e-01 -4.26648408e-01 -2.04676688e-01 -1.63185015e-01 -1.59586027e-01 -1.67950436e-01 -1.94114342e-01 -2.85289526e-01 -1.59813002e-01 -1.49965271e-01 -1.38871208e-01 -3.10906112e-01 +6.43356070e-02 +1.72714666e-02 +5.48240542e-02 -2.14365628e-02 +1.42593995e-01 -3.98377739e-02 -1.61263511e-01 -1.61681220e-01 +2.78161131e-02 +1.26241773e-01 -2.50934958e-01 +1.30395681e-01 +7.22662881e-02 +3.52377556e-02 +1.33330926e-01 +1.66817099e-01 -1.55685827e-01 -7.33555034e-02 +1.27714891e-02 +3.23301964e-02 -6.22384027e-02 +8.48838966e-03 +2.74532065e-02 -3.89384775e-04 +6.04288392e-02 -3.86255682e-02 +2.49810163e-02 -1.16029516e-01 +9.38730538e-02 +9.94934961e-02 +1.52709410e-01 +9.60079357e-02 +5.19480556e-03 +1.10382866e-02 -1.42980322e-01 -1.33554544e-02 +1.04291424e-01 -2.35887337e-02 +2.92696897e-02 -3.53322387e-01 +9.49124023e-02 +2.62790844e-02 -1.96550533e-01 -3.07479911e-02 -7.66069368e-02 -3.19469154e-01 -1.98726635e-02 -4.79757562e-02 +4.32412773e-02 -6.31728098e-02 +6.81129172e-02 +1.89913958e-01 -1.13549508e-01 +6.08375706e-02 +1.35743886e-01 +1.12237193e-01 +1.12824932e-01 -2.79544741e-02 -1.04528265e-02 +1.25918433e-01 +1.37656853e-02 +1.87978342e-01 -1.79079489e-03 +4.35473956e-02 -7.34607037e-03 -6.79938495e-03 -7.75456950e-02 +2.71313600e-02 +8.84357747e-03 +3.67796384e-02 -1.88597515e-02 +3.20908204e-02 -1.12523049e-01 +5.72635718e-02 +3.07080358e-01 +1.81781035e-02 +5.19914508e-01 +5.79170845e-02 +2.44251788e-02 +7.03298077e-02 +5.24744252e-03 +6.78452924e-02 -6.73670694e-03 +8.73398222e-03 -4.62987926e-03 +8.97799581e-02 -3.81532428e-03 +8.96396767e-03 -7.99916908e-02 -2.28748340e-02 -6.97567701e-01 -1.21735865e-02 +2.30984911e-02 +1.11165889e-01 +1.68888215e-02 +1.73535869e-02 -9.69397184e-03 -1.16993405e-03 +4.97079007e-02 +7.60055287e-03 -1.40607670e-01 +7.14645907e-02 -3.18045646e-01 +6.49761930e-02 +6.00286797e-02 +7.54505321e-02 +1.13183588e-01 +4.28822041e-02 +1.01579562e-01 +7.09462911e-02 +7.73343369e-02 +1.11861579e-01 +3.08491942e-02 +9.46821198e-02 -1.34928182e-01 +6.32497668e-02 +6.80561215e-02 +5.69414757e-02 +1.09250754e-01 +6.57548532e-02 +1.04447253e-01 -1.15862586e-01 +3.17124315e-02 -1.92177415e-01 +1.54541424e-02 +6.37649447e-02 +9.28706750e-02 +1.61042675e-01 +1.13254987e-01 +2.08931137e-02 +1.32073790e-01 +1.06806181e-01 -2.15064332e-01 -2.35516235e-01 +9.89126191e-02 +1.92054763e-01 -2.33976170e-01 +1.05956644e-01 +6.03063628e-02 +5.57779614e-03 +1.43716007e-01 -4.91934568e-01 +1.07176676e-01 +2.64451131e-02 +7.06327632e-02 +9.27265082e-03 -8.50699991e-02 +1.21656388e-01 +8.49982798e-02 +2.26229399e-01 +1.87895522e-01 +2.45529220e-01 +2.47208014e-01 +8.22670311e-02 +2.05576241e-01 +1.29294425e-01 +1.35284945e-01 +1.63204357e-01 +4.90838766e-01 +1.47716135e-01 +5.43438792e-02 +1.61455795e-01 +5.73425144e-02 +1.81505173e-01 +2.11704746e-01 +1.07705906e-01 +8.07379782e-02 +7.97677562e-02 +1.25252068e-01 +7.19798654e-02 +1.50256470e-01 +1.47586405e-01 +1.31736279e-01 +8.62837285e-02 +2.03879505e-01 +1.51235759e-01 +1.63018599e-01 +1.22289367e-01 +1.59116849e-01 +1.26643330e-01 +1.22831561e-01 +1.04349226e-01 +3.34871560e-01 +3.58330190e-01 +1.75687179e-01 +1.62887320e-01 +1.27664417e-01 +1.64565220e-01 +1.21508859e-01 +2.87700564e-01 +2.24110827e-01 +3.03103417e-01 +1.27184018e-01 +2.00424254e-01 +1.08005397e-01 +3.19188774e-01 +1.88937545e-01 +2.42468089e-01 +1.25987753e-01 -4.50414605e-03 +9.61544400e-04 +1.31893411e-01 +4.79253680e-01 +2.06957057e-01 +1.07441247e-01 +3.01617146e-01 +4.86121550e-02 +4.09563966e-02 +5.38580418e-01 +2.61637606e-02 +2.16921508e-01 +3.11651779e-03 +2.08407864e-02 -4.91370098e-04 +1.61621068e-02 -2.69463714e-02 +7.23008335e-01 +3.71580943e-02 +8.72004628e-02 +8.47544596e-02 +4.37709019e-02 +3.02804112e-01 +6.73586503e-02 +7.05530867e-02 +1.74895570e-01 +7.72506520e-02 +7.07128718e-02 +5.45298457e-02 +1.25407457e-01 +2.58507151e-02 +3.03071570e-02 +6.14732683e-01 +3.49764153e-02 +6.56403676e-02 +5.16550913e-02 +8.79305135e-03 +3.28362808e-02 +1.56439617e-02 +1.00760959e-01 -3.66394296e-02 +1.16018998e-02 +5.28790094e-02 +9.09967050e-02 +2.65969749e-04 +4.35176343e-02 -2.42477525e-02 +2.04242836e-03 +2.32261829e-02 +5.29944003e-01 -9.05727874e-03 -7.54517689e-02 -7.46400952e-02 -9.49758384e-03 -1.60690043e-02 -3.54124866e-02 -2.24390551e-01 -5.10325022e-02 -2.16363445e-02 -9.25009474e-02 -2.01914042e-01 -3.44484597e-02 -1.77618563e-02 -3.26194242e-02 -2.12369617e-02 -2.08049178e-01 -2.24458069e-01 -2.89542824e-02 -4.87551630e-01 -5.34489937e-02 -5.62922955e-02 -1.51902037e-02 -2.94210672e-01 -5.17737381e-02 -5.70848063e-02 -2.13332176e-01 -4.85227138e-01 -3.76818180e-02 -1.65540189e-01 -4.65301275e-02 -3.53695899e-02 -5.22497818e-02 -6.35678740e-03 -4.29976918e-02 -7.58349225e-02 -8.45693275e-02 -1.42955601e-01 -4.03836444e-02 -2.75301337e-01 -5.43749519e-02 -1.59893539e-02 -4.94837351e-02 -4.75886688e-02 -4.22720537e-02 -7.75935575e-02 -1.66500099e-02 -1.30778551e-02 -1.57742694e-01 -6.40866682e-02 -1.34849735e-02 -7.51507953e-02 +1.16642732e-02 +1.08972806e-02 +9.09464154e-03 +6.96238279e-02 +3.24606895e-02 +3.91721260e-03 +2.49169604e-03 +1.18456036e-02 +9.54155694e-04 +6.16650879e-02 +1.81150287e-02 -1.02831237e-02 +1.26669900e-02 +9.09784436e-02 +7.61307823e-03 +5.05505763e-02 +9.45158675e-03 +1.00425789e-02 +1.31308623e-02 +6.45744894e-03 +1.15720183e-02 +9.88275837e-03 +1.46072230e-03 +5.75545579e-02 +6.17836006e-02 +6.84148911e-03 +9.60204303e-02 +2.62846172e-01 +3.68551388e-02 +2.58498520e-01 +2.67524850e-02 +4.78382595e-03 +3.92893300e-04 +2.13380083e-02 -1.62504148e-03 +3.14593241e-02 +1.55221941e-02 +7.71551579e-02 +2.86401212e-02 -2.19942987e-01 +8.88262540e-02 +8.74175429e-02 +1.40342027e-01 +3.29959877e-02 +3.13452119e-03 -2.51783371e-01 -9.91653930e-03 +5.81510961e-02 +1.04273278e-02 -7.59729836e-03 -7.77831022e-03 -3.15181352e-02 -1.23030372e-01 -3.63524795e-01 -3.11176255e-02 -7.13046417e-02 -1.59456860e-02 -3.31169404e-02 -5.11406422e-01 -9.65270866e-03 -5.76992631e-02 -2.19497625e-02 -8.57971981e-02 -9.18718353e-02 -8.68790597e-02 -3.39421220e-02 -3.13351080e-02 -2.16678325e-02 -3.19991782e-02 -7.72622004e-02 -2.15160418e-02 -1.18276298e-01 -4.11016271e-02 -7.93462470e-02 -1.10304086e-02 -1.60630848e-02 -5.05859032e-02 -7.12101012e-02 -1.61927879e-01 -1.54951718e-02 -1.03279669e-02 -1.41758084e-01 -1.45388590e-02 -4.60458696e-02 -5.17929941e-02 -2.17419360e-02 -1.81827806e-02 -1.11769019e-02 -2.45932098e-02 -4.55898046e-03 -1.17061250e-02 -1.14819981e-01 -1.49331018e-01 -3.35175581e-02 -5.66007681e-02 -4.30776598e-03 -2.62865014e-02 -2.37043463e-02 -3.01125854e-01 -2.21119802e-02 -1.01835459e-01 -2.37864330e-02 -3.47935110e-02 -4.35085688e-03 -3.34153771e-02 -5.50139472e-02 +3.10146604e-02 -1.25329411e-02 -3.12290359e-02 +2.52250228e-02 -1.47293489e-02 -1.18489988e-01 +4.70932126e-02 -1.01015344e-01 +2.18447760e-01 +3.97609435e-02 +1.28244713e-01 +4.12400544e-01 -9.46587846e-02 -2.71948278e-02 +1.46205619e-01 +1.05085909e-01 -7.93542787e-02 +1.03059812e-02 +9.16904435e-02 +1.66608498e-01 -5.58535680e-02 +2.08672066e-03 +7.62442593e-03 +2.98685655e-02 -3.16411406e-02 -3.51718441e-02 -1.63597055e-02 -4.31849211e-02 -8.19012336e-03 -7.03931833e-03 -2.97396798e-02 -1.05575435e-02 -2.63070018e-04 -4.03197706e-02 +1.88264832e-01 -8.08797479e-02 +1.48420827e-02 -4.66162059e-03 +3.26508889e-03 -6.65011480e-02 -3.87905762e-02 -3.27817947e-02 -7.44578019e-02 -1.15457721e-01 -2.05695331e-01 +7.80129209e-02 -3.02362479e-02 -5.20335399e-02 +1.46759123e-01 -2.07245618e-01 +1.53942123e-01 -1.91003792e-02 -1.72627810e-02 +7.81578198e-03 -2.10085317e-01 +2.28919134e-01 +1.94786891e-01 -2.83798240e-02 -1.96244761e-01 -4.91337292e-02 -2.88710352e-02 +6.70215562e-02 -9.49759781e-02 -1.27255201e-01 +1.32675260e-01 -1.45555764e-01 -1.89548042e-02 +3.58293913e-02 +4.15342562e-02 +9.69103014e-04 +7.64062181e-02 -4.85324673e-02 -6.69487044e-02 -1.10047124e-02 -4.05175425e-02 +1.19797662e-02 +6.62072897e-02 -2.77989339e-02 +2.42805686e-02 +6.62199035e-02 -2.98753148e-03 +8.13254789e-02 -4.61387075e-02 +1.68727994e-01 +2.21342161e-01 +2.34129690e-02 +1.78774330e-03 +1.09739602e-01 +4.53711376e-02 +2.45346650e-02 +7.13536218e-02 -4.29445319e-02 -1.22813679e-01 +1.88100729e-02 -3.13328877e-02 -8.72349143e-02 +3.18027064e-02 +6.30649775e-02 -1.48322731e-01 +1.95634112e-01 -1.16493590e-02 +9.05320197e-02 +2.28814483e-01 -3.29738706e-01 +1.73724115e-01 +1.48119956e-01 +7.15893656e-02 +6.33254796e-02 -4.61901650e-02 +3.42850983e-02 +6.75814822e-02 +7.58770704e-02 +6.07958920e-02 +1.86712161e-01 -1.59909114e-01 +4.88040932e-02 +1.30388569e-02 -1.72102568e-03 +3.00383102e-03 +3.72742042e-02 -1.01618797e-01 +2.60402951e-02 +1.61099676e-02 +3.72338742e-01 +5.80601171e-02 -4.23192494e-02 +1.35301024e-01 -1.22743025e-01 -1.65485460e-02 +6.18753806e-02 +5.97712062e-02 +1.62796210e-02 +1.41468838e-01 +5.05249128e-02 -1.20583870e-01 +8.79606698e-03 +1.42093236e-02 +2.51965057e-02 +6.68745264e-02 +1.80101991e-02 -5.52593805e-02 -1.79777548e-01 +6.74079284e-02 +8.48152395e-03 -6.94239512e-02 -1.35606050e-01 -3.42976302e-02 -2.49121361e-03 -3.77460681e-02 +8.90946388e-03 +1.77660286e-02 +4.55522351e-02 -2.29253285e-02 -4.77866352e-01 +1.32588353e-02 -1.09020792e-01 +1.30470674e-02 -4.50515887e-03 -2.86456980e-02 -8.91216621e-02 +9.68746550e-04 -2.74909828e-02 +2.95462478e-02 -4.76527326e-02 -2.96439119e-02 -2.15573646e-02 +3.04749273e-02 +4.55939919e-02 -9.80623886e-02 -1.70037267e-04 -4.52748500e-02 +3.44355181e-02 -1.57918632e-02 -2.12166682e-01 +4.26159166e-02 +3.55086260e-04 +7.81658012e-03 +8.11183006e-02 +1.20853908e-01 +5.77386878e-02 +6.30091280e-02 +7.98298538e-01 +1.24564040e-02 +5.11279330e-03 -2.44664345e-02 +1.96707491e-02 -3.30875791e-03 +4.32987371e-03 +5.20617701e-02 +1.21712713e-02 +3.01072863e-03 +6.13391139e-02 +1.61558054e-02 -3.27665694e-02 -2.23109405e-02 -2.93903928e-02 -4.21100445e-02 -1.54101789e-01 -2.55500302e-02 +3.25495523e-04 -7.55991340e-02 -9.74984374e-03 -3.20500019e-03 -8.40778723e-02 -5.18430863e-03 -2.55259201e-02 -2.78186165e-02 -2.17848737e-02 -2.49258596e-02 -8.93443264e-03 -2.63824910e-01 +1.00563411e-02 -3.17646936e-02 -7.99288526e-02 -9.64661613e-02 -2.76837917e-03 -3.59272072e-03 -1.03882380e-01 -9.31877270e-03 +1.57817360e-03 -1.04341939e-01 -2.24988833e-01 -2.25058869e-02 -3.80418673e-02 -2.20916327e-02 -6.51119351e-02 -5.01748128e-03 -1.87912956e-02 -1.38708428e-01 -1.24135092e-01 -4.29775268e-02 -1.17347026e-02 -4.74644499e-03 -5.25007211e-02 -3.78365628e-02 -1.23195693e-01 -1.32832482e-01 -4.58179275e-03 -2.16066279e-02 -3.20678391e-02 -6.51708841e-02 -4.17608023e-02 -1.97071269e-01 +4.61018175e-01 -2.23475490e-02 +1.24940373e-01 -1.41295627e-01 +2.52547920e-01 +8.49877149e-02 +1.82289228e-01 +2.14531749e-01 +2.58749396e-01 +2.87879348e-01 +1.11570075e-01 +2.10104257e-01 +1.74296424e-01 +6.12350367e-02 +1.49964362e-01 -1.88411996e-01 +1.60437971e-01 +1.35469377e-01 +4.41495404e-02 +1.99087381e-01 +1.74164563e-01 +2.24554479e-01 -1.11973606e-01 +8.97924006e-02 -1.67222306e-01 +6.50478303e-02 +3.21197897e-01 +1.02438115e-01 +3.22286546e-01 +3.26346219e-01 +3.49619724e-02 +2.72488624e-01 +2.01092467e-01 -2.86705583e-01 -3.32081646e-01 +1.83159858e-01 +2.51904219e-01 -1.64892644e-01 +1.35390028e-01 +1.33195803e-01 +4.74729717e-01 +1.25075370e-01 -2.98961878e-01 +1.34628400e-01 +1.14750177e-01 +2.21699193e-01 +3.71247411e-01 -1.19630918e-01 +1.95774481e-01 +1.39343917e-01 -8.19476992e-02 -1.29987672e-01 +3.22485645e-03 -2.98691958e-01 +1.70796420e-02 -2.87160389e-02 -6.32691255e-04 -5.90826347e-02 -1.16745913e-02 +1.93351641e-01 -6.29762635e-02 -1.29911095e-01 +1.51421085e-01 +1.51262105e-01 +2.79947687e-02 -1.15273923e-01 -1.94703024e-02 -3.61925393e-01 -2.35703923e-02 -5.52639291e-02 +3.60828079e-02 +1.88746050e-01 -4.31250520e-02 -1.34398043e-02 +4.03606333e-02 -9.37512070e-02 +6.40966296e-02 -7.99442455e-03 -3.54315639e-02 +1.59358960e-02 -9.61534753e-02 +1.80593729e-02 +1.21237980e-02 -3.00387740e-01 -1.56284064e-01 -6.70320764e-02 -1.21818194e-02 +6.26489613e-03 -6.86653517e-03 -2.91906912e-02 -5.90097345e-03 -3.17647010e-02 -1.79910049e-01 -1.28349379e-01 -2.04417831e-03 +2.92695500e-02 -1.23617277e-02 -9.04203430e-02 -8.78757089e-02 -9.62008759e-02 -8.62491410e-03 -4.96154428e-01 +5.80765260e-03 +3.26478213e-01 -2.23251823e-02 -8.13917965e-02 -8.63571689e-02 -2.83750948e-02 -2.18723305e-02 +3.03189099e-01 -3.27890776e-02 -1.74721166e-01 -2.33746096e-01 -4.27421592e-02 -4.43937659e-01 -1.78126302e-02 -8.63169134e-02 +1.24202399e-02 -1.77336872e-01 -1.51296139e-01 -8.37970152e-02 -1.07872311e-03 +1.83503553e-02 -1.48872554e-01 -8.09204578e-02 -6.54652808e-03 -2.58020293e-02 -1.16450749e-02 -1.69381797e-01 -3.34356539e-02 -1.37725189e-01 -3.17323096e-02 +9.36469808e-02 +4.25793268e-02 -8.91136937e-03 -6.45760223e-02 -1.06161870e-01 -4.34229411e-02 -2.52245832e-02 -1.26943821e-02 -1.92329213e-02 -6.46350160e-02 -1.60523698e-01 -1.32043242e-01 -5.85317612e-01 -7.20886514e-02 -2.56157927e-02 -4.25440259e-02 -1.12822885e-02 +2.25704059e-01 -1.92812979e-01 +9.81313810e-02 +1.93959638e-01 +2.15861034e-02 -1.38338399e-03 -1.59248158e-01 +5.01327850e-02 -2.01469380e-02 -4.92454916e-02 +3.95369157e-02 +2.89336413e-01 -1.44118294e-01 -1.62720487e-01 -3.16563427e-01 +2.62776911e-02 +1.62750840e-01 -3.47606212e-01 -4.53452691e-02 +9.58713666e-02 +5.72464131e-02 -1.23736851e-01 +9.58230533e-03 +2.83192620e-02 -1.80808157e-02 +1.29207131e-02 +2.90854871e-02 +5.61222173e-02 -1.49472803e-02 +3.98193747e-02 +1.20149948e-01 +2.14492619e-01 -1.01224989e-01 -1.27278790e-02 -4.82636213e-01 +3.42998132e-02 -1.66829135e-02 +5.16137406e-02 -8.56718346e-02 +9.51595381e-02 -1.98348209e-01 -3.94336134e-01 -7.50064924e-02 +5.87659143e-02 +1.71550587e-02 -5.29341213e-02 -8.27653110e-02 -3.40019703e-01 -1.20330928e-02 +9.74091794e-03 +5.47606610e-02 -9.39886738e-03 +6.72689900e-02 -4.88783466e-03 -9.11091268e-03 +2.08425876e-02 -1.38854859e-02 +2.05632541e-02 -3.90701406e-02 -3.43852043e-02 -1.92987416e-02 +5.49262054e-02 +1.13049783e-02 -6.50947122e-03 -2.48364955e-02 +1.84403844e-02 +3.94097343e-02 +4.00110446e-02 +4.71900171e-03 -2.41606265e-01 +3.21449758e-03 -1.24697364e-03 -2.03281045e-02 -5.86832650e-02 -3.67248207e-02 -2.89847758e-02 +3.29106376e-02 -2.15109736e-01 +2.74968706e-02 -1.90231800e-02 +5.05891070e-03 -8.73968191e-03 -1.62945967e-02 +2.40189279e-03 -5.20421541e-04 -2.43057311e-03 -5.79499155e-02 -1.08215846e-02 -3.85630429e-02 -1.47692829e-01 +1.28259510e-02 -7.62404408e-03 -2.34049365e-01 -1.42102297e-02 -1.95328668e-02 -1.86073333e-02 -3.60343643e-02 -9.50625539e-03 -1.88390855e-02 -4.48696949e-02 +3.06433416e-03 -3.03284489e-02 -7.38122035e-03 +5.65957651e-02 -3.78610939e-02 +5.06671555e-02 +2.23661885e-01 -2.37822123e-02 +7.09413216e-02 -1.53543316e-02 -7.35486969e-02 +1.83610454e-01 -1.43259503e-02 +5.47433309e-02 +1.44189578e-02 -3.54747623e-02 +1.55409575e-01 +1.56898960e-01 +3.01195849e-02 -4.16432917e-02 +5.05814999e-02 +4.25620191e-02 +1.28619075e-02 +2.23522149e-02 +2.53843404e-02 +4.46345583e-02 +1.93056017e-01 +1.07571743e-02 +8.39698836e-02 +2.07111947e-02 +2.29935288e-01 +2.92072058e-01 +7.20250905e-02 +7.89316893e-02 -7.29405433e-02 -4.48744334e-02 +2.79171839e-02 -2.37900410e-02 +1.32131362e-02 +1.28765494e-01 +3.58259231e-02 -2.80754212e-02 +1.21803740e-02 -5.16857989e-02 +2.42685005e-02 -5.19883558e-02 -2.03414168e-03 -5.59437387e-02 -4.55147922e-02 +2.85987072e-02 -2.27947757e-02 -1.23247132e-02 -2.60726828e-02 +1.81514129e-01 +4.07066531e-02 -2.63068676e-02 -6.28813982e-01 -9.53462273e-02 +2.11631693e-02 -1.08052203e-02 -4.55027297e-02 +9.72750504e-03 -2.15424894e-04 -5.01061857e-01 -2.19786796e-03 -8.08144137e-02 -3.27979401e-02 -2.63646971e-02 -3.64164710e-02 -6.92922473e-02 -1.81517527e-02 -3.75163108e-02 +7.76223256e-04 -5.15332185e-02 +1.20396111e-02 -5.04263565e-02 -1.95825562e-01 -3.78869995e-02 +5.57309866e-01 -2.54276209e-02 -5.30419052e-02 -2.96323863e-03 -4.23210189e-02 -7.22446367e-02 -1.45020988e-02 -6.41472489e-02 -1.72866508e-02 -7.56137893e-02 -2.22373754e-02 -3.54184583e-02 -8.95376690e-03 -3.29115503e-02 +5.61638534e-01 -8.60925298e-03 -1.11900805e-03 -1.32033035e-01 -2.35047545e-02 -4.97966930e-02 +3.28446086e-03 -4.16994132e-02 -8.17239210e-02 +8.40938449e-01 -6.05893321e-02 +2.40999892e-01 -1.45648703e-01 +3.93556297e-01 +1.62897393e-01 +3.15214664e-01 +3.63996327e-01 +4.19892132e-01 +4.94299531e-01 +2.01967672e-01 +4.42755669e-01 +2.80733556e-01 +1.32129252e-01 +2.38655478e-01 -1.74695671e-01 +2.33663172e-01 +1.10958941e-01 +5.10048121e-02 +3.14628690e-01 +2.95695961e-01 +3.12072992e-01 -1.65109754e-01 +1.36502922e-01 -2.07152039e-01 +1.50325298e-01 +4.74014759e-01 +1.79405898e-01 +5.30554533e-01 +5.13966024e-01 +1.28554761e-01 +4.02838677e-01 +3.28262031e-01 -1.92272335e-01 -2.14287415e-01 +3.01141024e-01 +3.56122345e-01 -1.62307605e-01 +2.51769334e-01 +2.30575070e-01 +8.47119749e-01 +1.57080337e-01 -2.54269898e-01 +1.46694109e-01 +2.13122964e-01 +3.75283211e-01 +7.51769125e-01 -7.33361244e-02 +3.03739518e-01 +2.58098125e-01 +4.24294529e-04 -5.08133993e-02 +9.01658311e-02 +6.78016022e-02 +2.08818186e-02 +1.25889763e-01 -1.95821598e-02 +2.36805137e-02 +1.80382524e-02 -1.20823709e-02 -1.75039861e-02 +1.28510520e-02 -6.11498021e-02 +4.50605853e-03 -1.54575482e-01 +7.71832094e-02 -1.26962010e-02 +6.75546890e-03 -3.31925601e-02 -4.77428362e-02 -3.70894279e-03 -9.47950333e-02 -1.54810166e-02 -1.29342740e-02 -3.62639166e-02 -1.14985332e-02 -1.08102690e-02 +1.01996951e-01 +1.82714611e-02 +6.94329366e-02 -3.14748324e-02 +1.96435098e-02 +1.09901786e-01 +1.02335904e-02 +5.84735334e-01 -7.93737620e-02 -1.84016407e-01 +2.64069475e-02 +1.75479949e-02 +3.72501165e-02 -1.17889866e-02 -3.91316973e-02 -1.23379864e-01 -4.22232300e-02 -2.69985378e-01 -1.99589860e-02 +5.80032465e-05 +6.62599057e-02 +5.68506062e-01 -2.69198027e-02 +2.77489603e-01 +2.00555936e-01 +3.09499502e-01 +1.76984116e-01 +2.89985418e-01 +2.79688746e-01 +3.11128646e-01 +3.10782373e-01 +2.26748317e-01 +2.55057871e-01 +3.21588010e-01 +1.79746538e-01 +3.15255910e-01 +2.27763996e-01 +3.09312612e-01 +1.89471155e-01 +2.67908722e-01 +2.42295906e-01 +2.67872512e-01 +2.76225567e-01 +2.71861374e-01 +3.85994136e-01 +1.60886735e-01 +2.66243935e-01 +1.80783615e-01 +3.00259620e-01 +3.15270811e-01 +2.58188814e-01 +3.19165051e-01 +3.21407795e-01 +2.53958315e-01 +2.82388180e-01 +3.10696721e-01 +1.30907834e-01 +2.15789422e-01 +3.18411082e-01 +3.62290472e-01 +1.40481949e-01 +3.32516938e-01 +3.08022261e-01 +2.93762028e-01 +3.64266485e-01 +1.64476141e-01 +3.32508653e-01 +2.81053334e-01 +2.71570802e-01 +3.85200590e-01 +8.89628530e-02 +4.21058327e-01 +2.60544747e-01 +4.69148345e-03 +2.33051330e-01 +1.38107479e-01 +4.17883903e-01 +1.10173933e-01 +5.78841455e-02 +8.40455741e-02 +3.98822650e-02 +1.14619490e-02 +5.81847541e-02 +3.14531401e-02 +5.65776043e-03 +7.24039599e-02 +3.60688544e-03 +9.40443128e-02 +1.25716683e-02 +5.53452037e-03 +1.47639969e-02 +2.33064499e-02 +3.36434618e-02 +3.89467105e-02 +4.39894013e-02 +4.33666706e-02 +4.81049493e-02 +5.34595996e-02 +1.05049476e-01 +2.51837671e-02 +3.76835540e-02 +2.10221279e-02 +3.09908018e-02 +1.96869187e-02 +1.52960168e-02 +4.80375797e-01 +1.40233925e-02 +9.95136350e-02 +7.72953629e-02 +5.75125366e-02 +1.96910165e-02 +2.41408590e-02 +9.13284812e-03 +3.90424160e-03 +5.33857048e-02 +1.23226829e-01 +5.10960035e-02 +3.29904765e-01 +5.19438162e-02 +7.31772371e-03 +7.28569180e-02 +5.08791283e-02 +3.85961026e-01 +1.14653721e-01 +7.66854286e-02 +1.04074933e-01 +2.05578040e-02 +2.50607021e-02 +3.91792692e-02 +2.89532100e-03 +1.11655537e-02 +1.10463508e-04 +7.59590475e-04 -5.08589223e-02 -8.32819671e-04 +7.05753922e-01 +1.20507432e-02 +8.04357976e-02 -2.16985662e-02 -4.11558151e-02 -2.25250682e-04 +1.18290950e-02 +5.34050725e-02 +1.40697166e-01 +8.96046683e-02 +1.23531064e-02 +3.22919413e-02 +5.80377467e-02 +1.81335043e-02 +1.54029885e-02 +1.31312504e-01 +7.82927126e-02 +2.54074428e-02 +5.69600333e-03 +2.13655503e-03 +5.49468026e-03 -8.00511800e-03 +1.11738895e-03 +3.17962356e-02 +1.38462469e-01 +1.55567611e-02 -6.19572401e-02 -1.00711109e-02 +1.88200355e-01 +2.80718267e-01 +5.01111858e-02 +6.31776303e-02 +1.45190015e-01 +3.30094844e-02 +1.93676278e-01 -2.46919401e-04 -6.72105514e-03 +6.07939856e-03 -3.58250678e-01 -5.01587391e-01 +7.31705874e-02 -4.10614252e-01 +1.65359620e-02 +1.83786079e-01 -2.20401175e-02 -5.48604690e-03 -4.11730371e-02 -5.51294923e-01 -4.75468598e-02 -5.68445206e-01 +3.60091805e-01 -4.59377676e-01 +1.67046878e-02 -3.69997993e-02 -2.46051997e-01 -2.71730702e-02 -4.83651385e-02 +2.61122994e-02 +9.08775926e-02 -2.82256417e-02 -1.14215262e-01 -1.91502068e-02 +1.03201857e-02 +1.30186737e-01 -9.97204334e-02 +1.87871531e-01 -6.27661273e-02 -7.94576555e-02 -1.23890065e-01 -9.56476778e-02 +4.40926887e-02 -4.87461030e-01 +1.32229403e-01 -9.05381814e-02 +2.94370726e-02 -4.47627455e-02 -4.00628299e-02 -3.26977491e-01 -3.49186420e-01 +1.01798587e-01 -3.04193180e-02 -4.19536456e-02 +9.95722562e-02 -5.30295111e-02 -3.34642559e-01 +1.17673539e-01 +1.38963476e-01 -7.71493465e-02 -5.16235456e-03 +1.05271898e-02 -2.96283681e-02 +1.81624368e-02 -9.08609778e-02 -1.14447195e-02 -2.15869546e-01 -8.17477852e-02 -5.02293892e-02 -1.32473409e-01 -1.56005964e-01 -1.74840335e-02 +5.81431529e-03 +8.47730506e-03 -1.19516656e-01 -5.29880263e-02 -1.91410452e-01 -7.58111477e-02 -4.82195109e-01 -5.75041920e-02 -2.38248169e-01 -3.68452072e-02 -2.38168091e-01 -1.93057731e-02 -4.40218374e-02 -1.64447203e-01 -4.13722873e-01 -1.16203995e-02 -1.39042243e-01 -1.89822279e-02 +1.26409912e-02 -4.25510705e-02 -5.83471847e-05 +3.01635545e-02 -3.36642377e-02 -2.25453060e-02 -9.32585150e-02 -3.21610570e-02 -4.44580853e-01 -4.80355248e-02 -9.95776989e-03 -6.85787341e-03 +2.26580836e-02 -4.26312070e-03 -5.55000901e-02 -6.32707104e-02 -9.68536595e-04 +4.37266491e-02 -4.77705747e-02 -6.31298963e-03 -3.38916838e-01 +4.20297861e-01 +1.64298579e-01 +1.00616634e-01 -8.96534696e-02 +2.60541365e-02 +9.15783737e-03 +5.24370596e-02 +3.16333681e-01 +1.23501748e-01 +3.43030095e-01 +4.64552827e-02 +7.04820966e-03 +1.40943937e-02 -1.35877803e-01 -6.00606166e-02 -8.89731720e-02 +3.87314744e-02 +3.27714570e-02 -1.52444229e-01 -2.51386818e-02 -4.08694834e-01 +3.74874170e-03 +4.76486057e-01 -7.14062378e-02 +2.40548272e-02 -3.70995025e-03 +2.85312593e-01 -1.57579258e-02 -5.87633364e-02 -5.27846701e-02 +4.65090573e-02 -3.60787380e-03 -6.07950555e-04 +2.77817529e-02 -7.61511773e-02 -9.64898095e-02 +1.25497580e-01 -1.37948357e-02 -8.47344846e-02 -2.29956329e-01 +7.22956061e-02 -1.44894481e-01 -2.81847775e-01 -1.19151957e-02 -1.03585228e-01 -3.46332997e-01 -5.93627095e-02 -4.27118642e-03 +4.78737764e-02 -3.56798738e-01 +3.75633165e-02 +3.89802232e-02 -4.92926352e-02 -2.46170744e-01 +1.07321203e-01 -5.56624634e-03 -1.12616653e-02 -4.91104454e-01 -3.85084823e-02 +2.65598800e-02 -1.43710524e-01 -5.88662028e-02 -1.77101076e-01 +2.76891589e-01 -3.92012484e-02 -7.04391077e-02 -9.68599766e-02 -2.88367970e-03 -1.18717730e-01 -1.14940526e-02 -1.37035437e-02 -1.77375097e-02 -7.47992843e-02 -8.91236439e-02 +7.46507524e-03 -1.81260556e-02 -3.97217683e-02 +5.06871417e-02 -1.96223259e-02 +2.89175063e-02 -1.30132213e-01 -6.01551458e-02 -1.76333264e-02 +4.62475978e-02 -5.40889651e-02 +2.92943511e-02 -1.23759724e-01 -5.98424114e-02 -7.09788203e-02 -8.05560723e-02 -1.73762757e-02 +5.44180162e-02 +5.16554192e-02 +1.62544455e-02 -4.32855248e-01 -3.12971100e-02 -3.13261718e-01 +5.94147779e-02 -1.22748472e-01 -1.31096318e-01 -5.90217561e-02 +1.95487365e-02 -8.31525475e-02 +6.66721985e-02 +1.31579593e-01 +1.90660372e-01 +9.94679928e-02 -9.36039016e-02 +2.69166946e-01 -2.87664011e-02 +1.21726632e-01 +3.07416655e-02 +7.96998590e-02 +9.84672233e-02 +4.40288484e-02 +2.75910012e-02 +5.70240736e-01 +1.70233488e-01 +5.67643344e-02 +3.29210469e-03 +8.94701630e-02 +9.97670218e-02 +1.56532153e-01 -5.60758337e-02 +1.97875410e-01 +1.16539180e-01 +3.68584543e-02 +5.15139736e-02 +1.07225314e-01 +3.91351953e-02 -2.78100092e-02 +1.92288145e-01 -6.74879923e-02 -6.73350021e-02 +3.34205441e-02 -2.84195244e-02 -2.91696303e-02 -6.43756613e-02 +3.59647945e-02 -2.28809223e-01 +2.15649545e-01 -7.84842074e-02 +8.45401138e-02 -3.48114520e-02 -1.27318367e-01 -2.19502762e-01 -2.23905258e-02 +4.24113423e-02 +2.12604970e-01 -3.25431935e-02 -3.75016332e-02 -6.98887557e-03 -1.21809617e-01 +5.30493617e-01 +1.81760982e-01 +2.32036918e-01 +1.84931085e-01 +2.92085065e-03 +6.34888038e-02 +2.03422569e-02 +5.50266027e-01 +2.46531427e-01 +2.74419934e-02 +1.14503786e-01 -1.10587347e-02 +7.50952307e-03 +4.53927815e-01 +3.11667696e-02 -1.48812653e-02 +1.27338618e-01 +1.38338730e-01 -8.90833419e-03 -1.58863869e-02 +7.23607019e-02 +1.18060865e-01 +7.86715280e-03 +2.19340891e-01 +1.42400548e-01 +4.20722924e-02 +1.09717641e-02 +5.63581325e-02 +4.25486714e-01 -3.69076245e-02 -2.39432640e-02 -5.52860796e-02 +6.89033866e-02 +1.53752370e-02 -3.60707846e-03 -4.03800979e-02 -3.64602096e-02 -1.68696027e-02 -4.75152619e-02 -9.10241380e-02 +1.38679966e-01 +3.93803939e-02 -2.83589587e-02 -1.14733838e-01 -4.47533913e-02 +4.35329288e-01 -2.30359584e-02 +1.74132567e-02 -7.41138309e-02 -4.04805452e-01 -4.01450731e-02 -7.10985297e-03 +5.56861656e-03 -3.08254156e-02 -9.06417798e-03 -3.42936873e-01 -1.70008764e-02 +2.51107991e-01 +7.28708729e-02 -5.76267466e-02 +7.31346682e-02 -5.21518029e-02 -2.67303772e-02 +8.49644188e-03 -5.76549098e-02 -2.08778188e-01 +7.43920207e-02 -4.78060506e-02 -1.12908445e-01 -2.22549930e-01 -4.39466722e-02 -6.96379617e-02 -4.08571176e-02 -4.47092764e-02 -1.53793385e-02 -1.01273641e-01 -4.22598347e-02 +3.78837995e-02 -2.41986960e-01 -2.07233250e-01 -4.73942906e-02 -9.95610133e-02 +6.60440326e-02 +2.59684306e-02 -3.38419639e-02 -6.52441680e-02 -3.57707702e-02 -3.43647897e-02 -1.67089269e-01 -1.57063112e-01 +5.61048910e-02 -4.97400910e-02 -3.65824029e-02 -6.45115925e-03 -3.62692960e-02 +8.66889954e-02 -8.98301951e-04 -7.23277256e-02 -8.52179453e-02 -7.65298307e-02 -4.54843156e-02 -5.38674630e-02 -1.29120648e-02 -6.60579875e-02 -4.50445525e-02 -7.30487471e-03 -1.03604972e-01 -2.32672486e-02 -5.39273508e-02 -6.48505166e-02 -3.21045257e-02 -1.33423686e-01 -6.32276163e-02 -1.23036010e-02 -1.51676591e-02 -1.75490230e-01 -1.36926144e-01 -2.70311851e-02 -3.20228823e-02 -1.03762686e-01 -8.71258527e-02 -3.48357633e-02 -3.48950252e-02 -4.04781401e-02 -2.54287254e-02 -9.86323059e-02 -8.28545839e-02 -2.47197941e-01 -4.58208211e-02 -8.86223242e-02 -2.95780182e-01 -5.78326993e-02 -5.53772859e-02 -2.12250948e-01 -5.48621304e-02 -7.49707669e-02 -9.99299926e-04 -1.65282618e-02 -1.24301799e-01 -1.96745843e-02 -5.26671335e-02 -7.38868564e-02 -1.64645945e-03 -5.87430120e-01 -1.05431132e-01 -2.65280362e-02 -7.94337615e-02 +7.03853071e-02 -4.95270453e-02 -1.12393618e-01 -1.24857575e-01 -1.51823074e-01 -3.74737084e-02 +4.07511368e-02 -2.55540442e-02 -1.04332641e-02 +5.66366389e-02 -1.33066922e-01 -2.35431656e-01 -2.79564839e-02 -1.17686309e-01 -3.04071307e-01 +2.32867882e-01 +6.87888414e-02 +8.24725330e-02 -2.58690841e-03 -1.01115443e-02 +2.40504816e-02 -6.29916927e-03 -1.28314076e-02 -2.51757856e-02 -2.79014528e-01 -1.24673136e-02 -1.16138207e-02 -7.98595138e-03 -1.74681753e-01 +1.11297056e-01 +6.15764298e-02 -2.92846411e-01 -2.58687973e-01 -1.05154797e-01 +2.44265124e-02 +5.69833852e-02 +6.68802857e-02 +9.89204720e-02 +2.53064604e-03 -3.98906134e-02 +5.75445145e-02 +1.21664861e-02 -3.00954133e-02 +1.98058616e-02 -9.21706334e-02 -8.80438685e-02 -1.76462885e-02 -6.25258908e-02 -1.81597337e-01 -1.19131955e-03 +1.97321214e-02 +5.17468341e-03 +4.44284901e-02 -1.96721014e-02 -2.38577109e-02 -1.39436588e-01 -1.39547437e-01 -2.64239646e-02 -3.11789196e-02 -2.25284491e-02 -2.78292656e-01 +1.93789124e-03 -1.49400979e-01 -1.01393104e-01 +2.59756818e-02 -8.02813172e-02 -2.03200579e-02 -1.29984677e-01 -4.38319258e-02 -1.44963726e-01 -6.24888465e-02 -2.81128865e-02 -2.32238472e-02 -3.07956990e-02 +5.05915610e-03 -6.87626898e-02 -1.97615642e-02 -5.36180027e-02 -3.88949960e-02 -1.75891612e-02 -9.16161314e-02 -7.74115995e-02 +8.80779177e-02 +1.16766423e-01 -2.22873688e-02 -9.99616385e-02 -2.86680218e-02 -2.27319682e-03 -1.45780761e-02 +2.50643073e-03 -1.62689527e-03 +9.93565843e-02 -8.26573838e-03 -7.28576928e-02 -5.02409227e-02 +2.05200166e-03 +6.13816142e-01 -1.69659089e-02 -7.13490248e-02 -3.14374752e-02 +4.59376603e-01 +9.55732390e-02 +2.66525835e-01 +6.73753172e-02 +1.74876228e-01 +1.40160784e-01 +7.68159032e-02 -3.26729682e-03 -3.52976116e-04 +1.94026217e-01 +5.23889698e-02 +2.12695077e-02 +1.48931876e-01 +1.01888902e-01 +4.88741696e-01 +1.27682552e-01 +1.13546111e-01 +2.48409554e-01 +4.57231551e-02 +1.20026737e-01 +4.21932451e-02 +5.83929241e-01 +2.48789459e-01 +5.75692415e-01 +1.65741131e-01 -3.73057649e-02 +1.57865420e-01 -2.14111079e-02 -1.24591421e-02 +2.37527668e-01 -7.47330766e-03 +4.48318198e-02 +2.58711219e-01 +3.73931199e-01 +3.77815701e-02 +2.43900362e-02 +5.60449421e-01 +1.02734521e-01 +1.40741363e-01 -2.04601567e-02 +1.07941687e-01 +2.60442525e-01 +8.88888910e-02 +1.45921305e-01 +1.60364714e-03 -2.46785041e-02 +1.46811947e-01 +5.95179722e-02 +9.16309655e-02 +1.33149391e-02 -4.25041765e-02 +1.81260030e-03 -3.98233496e-02 -4.16213125e-01 +2.07965206e-02 -2.62996554e-02 -6.30594732e-04 -7.28601078e-03 +1.93718402e-03 -4.93684076e-02 -2.78435126e-02 -2.40754753e-01 -1.96704585e-02 -7.00350292e-03 +1.27456561e-01 -2.96173930e-01 -1.42664667e-02 -1.12693347e-02 +4.92719598e-02 -1.84944078e-01 -1.67792421e-02 +1.90974474e-02 +2.65736952e-02 -2.72609964e-02 -3.96052317e-04 +1.23572079e-02 -4.82025789e-03 -3.54204029e-02 +8.53824764e-02 -3.04846019e-01 -1.05845705e-01 +2.39925161e-02 -2.91257165e-02 +7.44750910e-03 +1.78594906e-02 -2.77290307e-02 -4.66975905e-02 -6.73475489e-02 +6.13896325e-02 +2.97280913e-03 +3.55160562e-03 -1.12639721e-02 -4.04680963e-04 -2.80757397e-02 -1.00440793e-01 +1.20034600e-02 -2.97568366e-02 +1.17147103e-01 -1.35760710e-01 +1.04469016e-01 -1.51808504e-02 +1.03898346e-02 -1.67255867e-02 -2.34832540e-02 +8.46998096e-02 -3.25163305e-02 +4.79391925e-02 +7.91662931e-02 -3.64010036e-02 +4.66983840e-02 -2.57483851e-02 -1.23992674e-02 -7.60711357e-03 -2.48967912e-02 +8.08134675e-02 +1.51051238e-01 +5.60596362e-02 +4.87050079e-02 +1.63424630e-02 +4.93104346e-02 -5.24898246e-02 -7.98847061e-03 -1.84643827e-02 -3.77114373e-03 -1.54599566e-02 +2.50320183e-03 +6.12185383e-03 +4.30728011e-02 +2.01639980e-02 -3.15135494e-02 +2.91932076e-01 -2.96097770e-02 +1.95442677e-01 +1.73801944e-01 -1.70944561e-03 +3.36184986e-02 +2.18337297e-01 +1.27027407e-01 +4.01955172e-02 +1.22580826e-01 +1.53381787e-02 -6.55532032e-02 -3.20343450e-02 +7.49573065e-03 +5.27951680e-02 +3.15854102e-02 +7.49721453e-02 +1.08379602e-01 -1.89202745e-02 -2.95780785e-02 +5.69018960e-01 +1.39698446e-01 +6.98742568e-01 +5.74088991e-02 +2.25988105e-01 +1.13943562e-01 +4.56399545e-02 -2.48854738e-02 -6.00471199e-02 +1.87971935e-01 +3.29976492e-02 +1.36122992e-02 +1.86495200e-01 +1.19155265e-01 +7.48703063e-01 +9.15974081e-02 +2.00776652e-01 +2.90336847e-01 +2.97472514e-02 +1.60364300e-01 -1.16618024e-02 +7.43083835e-01 +2.37070069e-01 +8.05239677e-01 +2.34641582e-01 -1.05542041e-01 +1.88090220e-01 -6.62776679e-02 -6.15926422e-02 +2.73835361e-01 -6.40965253e-02 +3.32202278e-02 +7.79711604e-01 +8.66061211e-01 +2.13059429e-02 -4.06904444e-02 +6.98330820e-01 +1.00754030e-01 +1.41351089e-01 -3.62359285e-02 +1.09370328e-01 +9.20912325e-01 +1.27878129e-01 +2.33461529e-01 -1.82610769e-02 -5.73844090e-02 +7.10538924e-01 +1.86794344e-02 +1.14348769e-01 -1.70245647e-01 +2.23909914e-01 -1.44688413e-01 +4.94831055e-02 -1.44352585e-01 -1.39603242e-01 -2.28380725e-01 -1.69483706e-01 -2.34842613e-01 +1.06916092e-01 -1.46725610e-01 -2.03246593e-01 -6.09410778e-02 +3.81040350e-02 -2.00590149e-01 +1.95277408e-01 -1.51177064e-01 +5.63517436e-02 -1.03617102e-01 -2.12665021e-01 -1.38722405e-01 +2.36539915e-01 +1.26755700e-01 -2.07261354e-01 -1.30982148e-02 -8.44920129e-02 -1.69613808e-01 -1.33082166e-01 -1.95732042e-01 -2.10412726e-01 -1.29016817e-01 -1.96574837e-01 -6.26342744e-02 +5.36873788e-02 +2.42498349e-02 -2.77281076e-01 -1.92942426e-01 -1.22565096e-02 -1.50517955e-01 -1.29844621e-01 -9.96146351e-02 +5.62296249e-02 +8.47945809e-02 -8.23085681e-02 -1.51611149e-01 -1.41420960e-01 -9.60853547e-02 +6.03365488e-02 -1.83921352e-01 -6.91455305e-02 +1.22577667e-01 +1.12512514e-01 -4.17767325e-03 +9.56672058e-02 +1.73113257e-01 +2.70737112e-01 +3.81363273e-01 +2.68510282e-01 -2.11057261e-01 +1.58962846e-01 -1.21405810e-01 +4.12406921e-02 +4.09925953e-02 -1.54911235e-01 +2.31566474e-01 -1.19109459e-01 -4.92805302e-01 +2.29347110e-01 +3.95236731e-01 +9.99544039e-02 +4.59199622e-02 +2.76195854e-01 +1.97520018e-01 +4.34638700e-03 +1.35983571e-01 +2.41897821e-01 +1.44916520e-01 +9.59184319e-02 +3.00375521e-01 -4.42381762e-02 -3.10929626e-01 -3.32503468e-01 +6.94380850e-02 -6.53233707e-01 -5.02732098e-02 +1.18717082e-01 +2.86516279e-01 -2.90985405e-01 -2.84763038e-01 -3.00559938e-01 +2.63708293e-01 +1.42822623e-01 +1.03950843e-01 +1.63681269e-01 +2.75344700e-01 +2.11115628e-02 +1.48575157e-01 +2.34306883e-03 +2.88374983e-02 +2.69661307e-01 +1.67962979e-03 +3.45359743e-02 -1.70052141e-01 -3.07428353e-02 -1.65217686e-02 +8.00648928e-02 -1.25391828e-02 -2.49707922e-02 +9.38554853e-03 -6.18518825e-05 -5.82314253e-01 +3.01964185e-03 +1.85540579e-02 +2.00475845e-03 -4.15644236e-03 -2.33095720e-01 -4.18883771e-01 +4.41766856e-03 -1.20492643e-02 -3.10649034e-02 -2.03061458e-02 -6.42164191e-03 -5.25347292e-02 -1.13771129e-02 -2.29929704e-02 +1.63254645e-02 -5.05555384e-02 +3.53966206e-02 +3.23557830e-03 -1.14202611e-01 +9.33206156e-02 +5.17859533e-02 -4.81660701e-02 -6.81784842e-03 -2.91826218e-01 -7.71971270e-02 -1.72281619e-02 +2.94301100e-02 -1.30830472e-02 -6.00164652e-01 -2.64071207e-02 +4.65253368e-03 -6.12051263e-02 +3.46097089e-02 +2.72427853e-02 -2.16688123e-02 -4.65838723e-02 -5.80358366e-03 -3.33654374e-01 -3.27830948e-02 -2.26124022e-02 +1.31579593e-01 -1.15345484e-02 +1.45232484e-01 +4.92495187e-02 +2.47455575e-02 +1.68210398e-02 +1.44354152e-02 +4.48734034e-03 +5.98133076e-03 +4.31054644e-02 +3.17910574e-02 +2.75370455e-03 +8.76478627e-02 +4.62110192e-02 +6.49511442e-02 +1.73641723e-02 +1.39476750e-02 +3.89421210e-02 +5.79456519e-03 +2.99114510e-02 +1.28145171e-02 +1.42706528e-01 +7.04073980e-02 +2.68609881e-01 -1.31471707e-02 -2.01299018e-03 +1.18946368e-02 -1.92182546e-03 +1.12225430e-03 +1.34248072e-02 +2.21304974e-04 +2.12011114e-02 -1.68863669e-01 -1.76278148e-02 +7.02087069e-03 +6.64302241e-03 +1.73614383e-01 +1.97579209e-02 +1.79591365e-02 -4.13963251e-04 +4.80067823e-03 +8.12711790e-02 +1.87024083e-02 +1.03167489e-01 +3.83283780e-03 -1.11573115e-02 -5.44648767e-01 +3.39857885e-04 +4.41449247e-02 -1.31926844e-02 -7.80863268e-03 -3.16474326e-02 +1.58818495e-02 -1.80444482e-03 -7.32885068e-03 -1.25485100e-02 -3.46236788e-02 +3.13190892e-02 -7.88159575e-03 +3.21985751e-01 +3.77730131e-02 -1.02627436e-02 +3.51864807e-02 +9.89361294e-03 -2.71165650e-02 +6.63990229e-02 -3.79584543e-03 -7.83912931e-03 +1.39712496e-03 +4.20072712e-02 -5.45161124e-03 -2.99040899e-02 -9.72356182e-03 -2.01842431e-02 -4.77474555e-02 -5.45750279e-03 -5.96995875e-02 +1.02711748e-03 -6.41970187e-02 +3.31804119e-02 +9.21989456e-02 -7.76910922e-03 +2.78589055e-02 -8.42720270e-03 -1.78390238e-02 +1.75259374e-02 +7.36808479e-02 +6.66437030e-01 +1.07805757e-02 -1.47051616e-02 -2.66859215e-02 -2.35222168e-02 -2.28182692e-03 +2.00835019e-02 +4.56907786e-03 -3.50111164e-02 -2.67178845e-03 -1.74931102e-02 +5.93994372e-03 +4.99464618e-03 +1.09758703e-02 +2.54238527e-02 +1.12048090e-02 +2.66701318e-02 +7.05797374e-02 +3.98672931e-02 +2.78910920e-02 +1.56595528e-01 +8.59725103e-02 +2.32153721e-02 +1.73989415e-01 +1.08652515e-02 +7.39987716e-02 +7.36610517e-02 +1.74719095e-01 +1.54249072e-01 +4.62150052e-02 +2.13426556e-02 +5.05899712e-02 +2.86048446e-02 +1.20597884e-01 +3.51314321e-02 +1.76331162e-01 +3.90820503e-02 +4.15854268e-02 +3.82417366e-02 +1.48609448e-02 +5.55543713e-02 +1.03861257e-01 +2.35628821e-02 +2.34134048e-01 +2.40253378e-02 +2.23662421e-01 +2.06375018e-01 +5.68734519e-02 +7.20817894e-02 +1.82471350e-01 +1.79365918e-01 +6.89325780e-02 +1.82980811e-03 +1.33839305e-02 +1.13097377e-01 +7.10420832e-02 +1.45043850e-01 +2.49281004e-02 +4.79068933e-03 +2.63214499e-01 +1.22232467e-01 +2.56673843e-02 +2.53771674e-02 +4.70755473e-02 +1.33348748e-01 +7.94671401e-02 -1.72654375e-01 +5.60954325e-02 +3.15131806e-02 -2.13737842e-02 -6.95815161e-02 -1.85371011e-01 -1.40592940e-02 -3.68515611e-01 -1.89748853e-01 -1.42066509e-01 -1.46153823e-01 +1.14598036e-01 +2.65096575e-02 -1.85391784e-01 -1.74477533e-01 -6.19485788e-02 -1.83943436e-01 +3.89857799e-01 -1.08174291e-02 -6.25421405e-02 -5.47971912e-02 +7.00889304e-02 -7.74088427e-02 +2.55450569e-02 -1.44396424e-01 +6.90915659e-02 +1.11938953e-01 -2.20478177e-02 -6.79894835e-02 +6.71520010e-02 +4.64470647e-02 +4.86073792e-02 +6.42605964e-03 -2.68563125e-02 +2.06297133e-02 +8.43813345e-02 +2.35050563e-02 -4.69194129e-05 +1.22718528e-01 +6.24626391e-02 +4.12399247e-02 -1.38852254e-01 +4.65739071e-02 +1.83080640e-02 +3.58877815e-02 -3.81109081e-02 +7.14923441e-03 -2.13423178e-01 -7.62783960e-02 -5.47681868e-01 -2.24977545e-02 -9.07715112e-02 -6.15929766e-03 -1.00402646e-02 +4.02153376e-03 +1.05991960e-02 -1.05621293e-01 -3.66461906e-03 +9.91091784e-03 -9.45212469e-02 -4.05735970e-02 -4.17408645e-01 -1.31367920e-02 -1.63898673e-02 -2.78232712e-02 +2.48386874e-03 -2.64645368e-02 +6.89769862e-03 -1.87243119e-01 -4.81240302e-02 -2.87580669e-01 -1.11435287e-01 +1.86388213e-02 -6.82647377e-02 +9.76817776e-03 +1.35747232e-02 -1.25031412e-01 +9.74285044e-03 +2.74685118e-03 -6.58754885e-01 -6.19471610e-01 +2.90975021e-03 +1.42551132e-03 -2.86169231e-01 -3.98998745e-02 -4.26833443e-02 +2.80119060e-03 -4.58807759e-02 -6.37114763e-01 -2.80488166e-03 -1.30887896e-01 +7.73895206e-03 +5.08842757e-03 -1.42780259e-01 +7.41360756e-03 -5.20955808e-02 +6.91371188e-02 -1.90500244e-01 -2.28373706e-01 -1.35360554e-01 -1.08036824e-01 -2.95482337e-01 -1.83951065e-01 -1.81951627e-01 -9.86652449e-02 -6.51265979e-02 -2.53197908e-01 -1.08984672e-01 -3.18020374e-01 -2.40286663e-01 -2.76100427e-01 -2.02071130e-01 -2.34619960e-01 -3.52390677e-01 -4.54365402e-01 -3.09417069e-01 -2.04984158e-01 -2.36570925e-01 -3.03839386e-01 -2.88273066e-01 -2.19128430e-01 -2.93643564e-01 -1.24865323e-01 -2.98673987e-01 -1.16407089e-01 -1.28813490e-01 -2.03857422e-01 -1.50089890e-01 -1.92532420e-01 -9.60481763e-02 -9.86656994e-02 -2.45797366e-01 -2.40150988e-01 -2.05596521e-01 -2.02719197e-01 -2.51163572e-01 +6.12052567e-02 -3.57587188e-01 -1.07147507e-01 -3.10932457e-01 -2.19120681e-01 -1.96881220e-01 +1.05625698e-02 -5.39677553e-02 -2.57105082e-01 -2.21206039e-01 -4.58115712e-02 -2.13846534e-01 -6.91670775e-02 -1.22467633e-02 +4.05957215e-02 +1.00782119e-01 +2.15548009e-01 +1.46174565e-01 -1.46021098e-01 -3.98749150e-02 +1.04346067e-01 +5.95997751e-01 +3.58111039e-02 +5.12471855e-01 -9.20440815e-03 -5.48714101e-02 +2.56660968e-01 +4.43264097e-01 +1.04952954e-01 +4.39499095e-02 +3.18991780e-01 +5.18955961e-02 -8.10104236e-02 -2.23111540e-01 +8.51177201e-02 -1.53389648e-01 -1.20756559e-01 +5.56943342e-02 +7.33207688e-02 -2.10083020e-03 +6.25884980e-02 +1.16551317e-01 -4.08368930e-03 +2.61530936e-01 -1.38174564e-01 -1.08884625e-01 +7.47501105e-02 +6.46209344e-02 -7.53627419e-02 +1.92500409e-02 -1.26974627e-01 -4.51036766e-02 -1.10524707e-01 -1.16487019e-01 -2.38310900e-02 +1.00882232e-01 -8.87895972e-02 -5.90776168e-02 -1.52252734e-01 +2.50520736e-01 -8.94001499e-02 -9.12668556e-02 -6.89189583e-02 -2.17475127e-02 -7.72033706e-02 -1.87068343e-01 -9.59397852e-02 -7.62660652e-02 -1.71825424e-01 -3.37987155e-01 -7.16321990e-02 -9.63189676e-02 -3.49395066e-01 -1.57669500e-01 -1.96607664e-01 -1.71423480e-01 -1.23574637e-01 -3.10295913e-02 -1.16661914e-01 -9.19564590e-02 -1.98974371e-01 -3.99191827e-01 -1.19242996e-01 -1.60654828e-01 -1.40704781e-01 -1.46000102e-01 -1.17699102e-01 -9.06545147e-02 -7.82716870e-02 -1.93761811e-01 -1.51854798e-01 -1.65573418e-01 -2.10695237e-01 -2.46698093e-02 -2.45305523e-02 -1.45678192e-01 -1.84843495e-01 -1.25983328e-01 -7.14151710e-02 -1.59216404e-01 -9.12799239e-02 -6.33779317e-02 -1.05333151e-02 -9.92968380e-02 -1.73854560e-01 -1.38965905e-01 -1.08549230e-01 +2.00810172e-02 -8.61005113e-02 -1.24372803e-01 +4.42788482e-01 -5.08083105e-01 -1.08841844e-01 -5.95407724e-01 +5.06847203e-02 -1.89778045e-01 -6.36492893e-02 +6.85547367e-02 +1.26564458e-01 +2.48702973e-01 -2.04711914e-01 +5.67794852e-02 +9.28876549e-02 -2.02792302e-01 -9.60417315e-02 -7.20666528e-01 -1.33091718e-01 -1.73629194e-01 -3.37972164e-01 -5.52770346e-02 -9.63877514e-02 +1.96006700e-01 -7.53328502e-01 -2.98359156e-01 -8.27111959e-01 -2.01509178e-01 +2.45617017e-01 -1.70215502e-01 +2.25177363e-01 +1.76652968e-01 -2.81243563e-01 +1.13592170e-01 +3.43969166e-02 -5.75644851e-01 -6.88053846e-01 +1.15395607e-02 +9.49486271e-02 -7.54054427e-01 -6.75241649e-02 -1.55504704e-01 +3.57061803e-01 -7.70657957e-02 -7.00285375e-01 -1.74882889e-01 -1.40467867e-01 +1.14205427e-01 +3.49548727e-01 -2.91094065e-01 -3.99489999e-02 -1.11958422e-01 +1.52160525e-01 +8.17515235e-03 +8.89266580e-02 -4.29991260e-03 +7.31161460e-02 +1.80639029e-02 +4.93718795e-02 +1.23481136e-02 +9.46603417e-02 +1.98034700e-02 +5.62719442e-02 +1.08660422e-01 +1.13700647e-02 +7.91253224e-02 +1.47486776e-01 +1.21204183e-02 +1.48282582e-02 +8.37542042e-02 +1.49521858e-01 +2.03089342e-02 +8.66403580e-02 +2.38634557e-01 +2.81915367e-02 +9.12621841e-02 +7.44069666e-02 +3.57901421e-03 +5.67234419e-02 +9.31005701e-02 +1.95522815e-01 +4.95656654e-02 +9.87942982e-03 +5.50316125e-02 +1.60277225e-02 -2.87422594e-02 -1.95966382e-02 +1.21079281e-01 +1.32607758e-01 +6.16866946e-02 +4.62458655e-02 +1.33570926e-02 +7.76992962e-02 +9.15892199e-02 -4.85680019e-03 +1.76453933e-01 +9.78450999e-02 +7.11994171e-02 +5.30108809e-02 -7.45468121e-03 +4.28354330e-02 +7.09104538e-02 +4.72545536e-04 -3.52841944e-01 -4.09813486e-02 -3.36356044e-01 -7.05276802e-02 -9.16856974e-02 -3.48704904e-01 -2.37482786e-03 -3.13772447e-02 -1.22189738e-01 -1.79734919e-02 -1.56157762e-01 -4.87829715e-01 -1.51971340e-01 -7.97036961e-02 -1.71174973e-01 -9.19255987e-02 -5.68604469e-02 -7.58406222e-02 -3.88631709e-02 -5.29940128e-02 -9.06489883e-03 -1.74082324e-01 -1.55035406e-01 -7.13799447e-02 -1.67635128e-01 -1.06672786e-01 -3.86940986e-02 -1.55113393e-03 -9.24618766e-02 -1.09300509e-01 -9.67457592e-02 -1.57335728e-01 -1.00479938e-01 -5.45392856e-02 -2.30840165e-02 -2.20417399e-02 -1.03115067e-01 -6.29887544e-03 -5.51341586e-02 -5.79519081e-04 -7.10631236e-02 -1.05504960e-01 +1.31138158e-03 -3.16909522e-01 -4.34805565e-02 +5.67430070e-05 -3.08811665e-02 -1.89822279e-02 -2.09727705e-01 -1.81754977e-01 +2.94618849e-02 +4.56105657e-02 +2.18716059e-02 -1.73352100e-02 +3.19907665e-02 +2.20941450e-03 -3.53949098e-03 -4.05094624e-02 -1.17387539e-02 +4.25704569e-02 -7.18417168e-02 +9.72871035e-02 +7.74405599e-02 +2.86211520e-02 +3.51261087e-02 +4.47551049e-02 +2.11644955e-02 +5.18955775e-02 +3.92169431e-02 +2.41373619e-03 +8.94706920e-02 +3.14870477e-02 +3.78902704e-02 +1.63829084e-02 +5.08384295e-02 +2.55067670e-03 +2.85771266e-02 -3.58928330e-02 -1.71737757e-03 +5.21834157e-02 +2.41020266e-02 +4.10155691e-02 +1.48750069e-02 +4.83731646e-03 +6.75382689e-02 +3.54850255e-02 +2.31792666e-02 +4.01444100e-02 +3.44416499e-02 -2.18814760e-01 +9.35648754e-02 +3.50163830e-03 +7.92351887e-02 +6.19669491e-03 +2.71969456e-02 -9.47216600e-02 +5.84073830e-03 +5.24951853e-02 +3.07543837e-02 +6.62188828e-01 +1.32208774e-02 -5.17934673e-02 -4.35767844e-02 -2.83669204e-01 -3.50072905e-02 -2.62665302e-02 -1.13024972e-02 +4.43755299e-01 -4.41069603e-02 +3.96804959e-02 +1.21357791e-01 +1.29314229e-01 +3.14057976e-01 -2.94574932e-03 +1.73031483e-02 +6.89898133e-02 +1.15537532e-01 +5.19606238e-03 -1.98798358e-01 +2.46682927e-01 +1.27916232e-01 -7.91892335e-02 -1.81666136e-01 +4.77675200e-02 -3.08400597e-02 -6.04002960e-02 -9.52033103e-02 -1.04625233e-01 -3.54106101e-04 +9.46199894e-02 +1.32168949e-01 -1.38220996e-01 +2.75998682e-01 -5.33918180e-02 -8.78262985e-03 +2.98172664e-02 +1.64964676e-01 +4.81931567e-02 +5.15899323e-02 +5.40300965e-01 -2.12452076e-02 -1.65534005e-01 -3.51985514e-01 +3.09063774e-02 +4.53418076e-01 +5.56884527e-01 +1.25772476e-01 -8.13316330e-02 -3.12482789e-02 +4.38140752e-03 -1.57922328e-01 -4.25514067e-03 -2.96815276e-01 +7.85404991e-04 -3.42222042e-02 +2.62659625e-03 +2.08566114e-02 +1.04344655e-02 +2.45110542e-02 -8.50495622e-02 +3.83375399e-03 +4.77457903e-02 -6.71977475e-02 +1.18625974e-02 -2.38898292e-01 +3.25642503e-03 -5.68162603e-03 -9.61508323e-03 +1.71505194e-02 -6.33486314e-04 +8.46250635e-03 -1.41282409e-01 -3.12550366e-02 -1.86041072e-01 -5.33077121e-02 +4.32574004e-02 -2.69713569e-02 +3.66894864e-02 +3.83164361e-02 -6.84271231e-02 +2.05129478e-02 +1.51725244e-02 -2.75542527e-01 -3.26611757e-01 +1.65230613e-02 +4.31333520e-02 -2.82709181e-01 -2.64327303e-02 -3.57345566e-02 +2.40310444e-03 -1.73647981e-02 -3.57764184e-01 +9.55905393e-03 -5.43034151e-02 +2.14780048e-02 +4.68939543e-03 -8.64621773e-02 +1.56781953e-02 -2.05301438e-02 -1.40760862e-03 -1.45136407e-02 -2.89948122e-03 -2.05234322e-03 -1.62020121e-02 -4.88578081e-02 -1.52934700e-01 -8.86722654e-02 -4.05802168e-02 -2.39463463e-01 -7.82757346e-03 -1.10224724e-01 -2.23978460e-02 -1.93178635e-02 -3.08341205e-01 -2.79776305e-02 -1.05954865e-02 -8.24714825e-03 -1.51332945e-01 -2.43018717e-02 -2.35432293e-02 -1.83885738e-01 -1.27427772e-01 -1.95669532e-01 -9.43462029e-02 -3.16001549e-02 -1.33859247e-01 -5.90216648e-03 -1.79240108e-01 -2.90473867e-02 -1.26684969e-02 -6.84408322e-02 -2.79522855e-02 -3.39138578e-03 -3.27603221e-02 -1.62635058e-01 -3.36955726e-01 -4.79015820e-02 -2.78993752e-02 -1.16901491e-02 -8.18059663e-04 -2.42140256e-02 -1.60777017e-01 -1.07600547e-01 -3.03722560e-01 -3.63676958e-02 -1.76342193e-03 -9.15478915e-02 -5.90057075e-02 -2.62571573e-02 -1.33314207e-01 -1.33561850e-01 -1.82928041e-01 -1.98814110e-03 +1.00684725e-01 -4.46277391e-03 -1.73736047e-02 -4.28058580e-02 -9.87949073e-02 +3.98427248e-02 -2.16235816e-01 -7.93002825e-03 +1.48787215e-01 -2.19417829e-02 -1.57882631e-01 -3.47679883e-01 -1.72809318e-01 -1.12200513e-01 -8.20755865e-03 -3.79353106e-01 +3.33706528e-01 -3.00122832e-04 -3.67154106e-02 -3.44823226e-02 -1.73827082e-01 +1.84372470e-01 -7.27061927e-02 -9.68921259e-02 -1.39994338e-01 +8.28357711e-02 +4.84353483e-01 -6.98417947e-02 -1.75999198e-02 -2.66667083e-03 -9.18355361e-02 -6.76507726e-02 -5.42968623e-02 -7.46814981e-02 -7.78402463e-02 -1.16680615e-01 -6.46770597e-02 -3.47522385e-02 -8.44350606e-02 -7.45596066e-02 -1.60368066e-02 -3.79054397e-01 -1.11801542e-01 -7.00530037e-02 -8.49347189e-02 -3.23715657e-02 +9.52231511e-02 -2.49514310e-03 -7.34868795e-02 +1.01488166e-01 +2.16070965e-01 -2.63313562e-01 -2.56409943e-02 -5.94152391e-01 +3.61161344e-02 -2.87328586e-02 -6.83273422e-03 +1.55856786e-02 +6.77947178e-02 +6.56425906e-03 +9.36297253e-02 -4.32008877e-02 +2.29806080e-03 -2.43650153e-02 +8.14965963e-02 +4.28857394e-02 +7.02999532e-02 -5.62960029e-01 -7.51642436e-02 +9.41132102e-03 -7.11512577e-04 +5.56506589e-02 -4.86393794e-02 +2.17040647e-02 +1.96327254e-01 +3.81220952e-02 +3.53458039e-02 +2.73356903e-02 +5.11228032e-02 +1.97468996e-02 -1.26335934e-01 -7.31000528e-02 -1.92802161e-01 +5.80540393e-03 -9.10890568e-03 -8.41976888e-03 +6.53667469e-03 +1.21827543e-01 -6.94546551e-02 +1.71797499e-01 +4.77322936e-02 +9.97836217e-02 +1.09982369e-02 +1.08944857e-02 -9.79201272e-02 +9.84061733e-02 -5.94938686e-03 -9.86155346e-02 +3.86139840e-01 -8.15602317e-02 -1.12644203e-01 -4.59131673e-02 -1.10752776e-01 -1.52247697e-01 -1.27713293e-01 -1.46454833e-02 -8.77463967e-02 -2.34429762e-02 -4.86630723e-02 -1.51160881e-01 -3.04218009e-02 +3.08131725e-01 -7.48898536e-02 -8.27908218e-02 -1.01951018e-01 +5.43413274e-02 -4.87165339e-02 -4.48008746e-01 -5.92105575e-02 +3.66992429e-02 -3.54388612e-03 -1.74045131e-01 -7.12465718e-02 +3.96092758e-02 -5.72867729e-02 +6.88271374e-02 -6.80329278e-02 -3.04594964e-01 -6.33419584e-03 -3.20849895e-01 +3.80682945e-01 +2.24360377e-02 -3.96095030e-02 -1.77880317e-01 -2.53117383e-01 -8.78791809e-02 -4.80574332e-02 -1.52783412e-02 -2.66317111e-02 +3.41521129e-02 -1.35332197e-01 -3.88514586e-02 -8.26547220e-02 -3.20928134e-02 +2.81422049e-01 -1.37534827e-01 +6.53989375e-01 -4.92149405e-02 -5.41374646e-02 +1.88847154e-01 -3.14311199e-02 +2.33468898e-02 -2.06164066e-02 +3.27350982e-02 +2.36507505e-01 +5.35723157e-02 +4.56879893e-03 -3.89314117e-03 -3.76504101e-02 +2.17296500e-02 -1.89868845e-02 -6.39495328e-02 +4.86359373e-03 +3.27546895e-02 -2.37579405e-01 +2.44735014e-02 -3.42192836e-02 +5.42010546e-01 +1.40271202e-01 +1.33160859e-01 -1.04621416e-02 +3.18457372e-02 +1.05766423e-01 -5.98668717e-02 -8.26953724e-03 +2.65035182e-02 -1.44902859e-02 +2.09590551e-02 +5.38133793e-02 +9.82422307e-02 +2.52254847e-02 +3.38823527e-01 -1.97143242e-01 +7.45078474e-02 +8.05056915e-02 +3.55985947e-02 +6.70074463e-01 -2.61907250e-01 +1.02782927e-01 +8.56656134e-02 -2.06777081e-01 +1.19172350e-01 +5.44347763e-01 +7.19036609e-02 +8.09325352e-02 -1.91254914e-02 +3.36004347e-01 -2.70476211e-02 +3.29330951e-01 +3.90870171e-03 -2.16847956e-02 +1.70604914e-01 -3.91748659e-02 +3.98789272e-02 +2.44400669e-02 -3.32463175e-01 +3.66738848e-02 -7.78403040e-03 +5.35556972e-01 +1.13338325e-02 -8.76132250e-02 -1.41641587e-01 -1.06466841e-02 -4.29845080e-02 -2.41724942e-02 +8.89783551e-04 +1.36394463e-02 -4.34162514e-03 -3.55982445e-02 +1.37558114e-02 +1.00194837e-03 +8.71660262e-02 +1.11797713e-02 +9.57654864e-02 -2.13239081e-02 -4.20785174e-02 -9.97071248e-03 +4.13666898e-03 -3.31199579e-02 +2.59752441e-02 +1.52576953e-01 -1.40560663e-03 -3.71060520e-03 +5.42685157e-03 +3.84351574e-02 -1.95050854e-02 +2.09512383e-01 +4.97190416e-01 -6.07906142e-03 -1.94873270e-02 +6.76715896e-02 +2.96769049e-02 +2.15400502e-01 +3.07838470e-01 +1.22426510e-01 -6.86824024e-02 +6.13706233e-03 +5.64418314e-03 -1.16726808e-01 +1.88489750e-01 +1.19211003e-02 +1.82025805e-01 +1.83142424e-02 -4.47297050e-03 +3.57218385e-02 +1.13299182e-02 -1.51198089e-01 +2.10238963e-01 -1.27097949e-01 +1.81692138e-01 -8.10189396e-02 +5.94185144e-02 +1.70025498e-01 +1.66854411e-02 -9.54182539e-03 -1.04342895e-02 +5.11363670e-02 -2.07782742e-02 +2.37307157e-02 +4.90445420e-02 +2.54747514e-02 +1.93494663e-01 +1.39028234e-02 +3.94514710e-01 +2.37663519e-02 +8.33993852e-02 +1.67101622e-01 +1.39176637e-01 +9.61638689e-02 +3.85669678e-01 +7.45251104e-02 +1.09535363e-02 +1.84931159e-02 +1.22589134e-01 +9.12650377e-02 +4.72932607e-02 -1.29325045e-02 -5.62767452e-03 +5.03334850e-02 +1.35719925e-02 -2.05386411e-02 -1.67031027e-02 -9.71364975e-03 +3.60624585e-03 +4.68050614e-02 +1.73933238e-01 +2.72221019e-04 +7.91286305e-03 +2.32230499e-02 +3.95401381e-02 +1.06374554e-01 +5.08553758e-02 +1.38947479e-02 +1.01134025e-01 +4.97400481e-03 +3.25255468e-03 +3.97990160e-02 +3.90523762e-01 +3.42474021e-02 +4.57217731e-02 +1.87676623e-02 +5.24416864e-02 +5.74298501e-02 +4.27256793e-01 +4.65497039e-02 +2.65022844e-01 +2.98568845e-01 +6.80789398e-03 +7.97926188e-02 +3.70282270e-02 +1.21856458e-01 +3.25387940e-02 +9.47290584e-02 +3.50607224e-02 +1.17105290e-01 +5.25450371e-02 +3.39003317e-02 +5.95152043e-02 +2.41019949e-02 +2.42741201e-02 +3.50156128e-02 +7.27288872e-02 +1.32619170e-02 +8.15621391e-02 +5.89877740e-02 +1.40602306e-01 +4.53012355e-04 +2.79967599e-02 +7.97775611e-02 +6.18222505e-02 +3.29650776e-03 +5.46373762e-02 +7.08894862e-04 -9.10986513e-02 +8.31153765e-02 +2.48111561e-02 -6.62915129e-03 -2.63641011e-02 -3.32960971e-02 +4.57150489e-02 +2.89096124e-02 -6.03736266e-02 +4.43522334e-02 -2.41227925e-01 -4.21759347e-03 +7.95506015e-02 -4.50405516e-02 +2.22232807e-02 -7.14311702e-03 +6.40074210e-03 +7.63976276e-02 -6.59743175e-02 +2.28054728e-02 -6.25676438e-02 -4.17927325e-01 +2.85497513e-02 +4.12564201e-04 -7.08862841e-01 -4.01708297e-02 +9.97070782e-03 -6.17100038e-02 +2.56866571e-02 -6.80752769e-02 -3.62984613e-02 -3.33387032e-02 +1.23635819e-02 -6.83626207e-03 -7.64735695e-03 +1.57419965e-02 +1.00989640e-01 -3.86733259e-03 -5.87661415e-02 -3.20612043e-01 -5.74512500e-03 -3.53938863e-02 +5.04884403e-03 -2.60089040e-02 -2.35447943e-01 -2.76826452e-02 +7.56201297e-02 -1.79866821e-01 -3.47644236e-04 -2.83972528e-02 -3.02343406e-02 -3.28415097e-03 +8.25560838e-02 +2.27329396e-02 +6.48807764e-01 +1.14751644e-02 +2.05937624e-01 +1.82992928e-02 +1.13147274e-02 +1.09089985e-01 +3.72260176e-02 +2.19994709e-02 +9.37360972e-02 +8.91846791e-02 +2.00879145e-02 +1.58933736e-02 +1.64483339e-02 +2.95711190e-01 +4.21740040e-02 +1.12339914e-01 +3.55223492e-02 +2.01600671e-01 +3.66031267e-02 +5.55890016e-02 +5.77834845e-02 +8.24941099e-02 +8.23971555e-02 +4.93502282e-02 +3.79122235e-02 +8.90158564e-02 +2.72577088e-02 +9.52063799e-02 +1.31136123e-02 +2.11169839e-01 +3.24771479e-02 +3.29987705e-02 +7.95976967e-02 +1.32482266e-02 +1.20450236e-01 +2.02846155e-01 +4.35253419e-02 +2.45895088e-02 +4.01111692e-02 +1.90139320e-02 +1.26339113e-02 +9.51029062e-02 +3.91249657e-02 +1.92279294e-01 +1.55031215e-02 +9.05823335e-03 -5.09905703e-02 +3.42616439e-02 +4.37692218e-02 -5.31427741e-01 -8.95138308e-02 -6.67759553e-02 +6.66866172e-03 -9.63197649e-02 -1.03602380e-01 -1.33761615e-01 -1.12135768e-01 -3.07576358e-01 -7.71158636e-02 -1.95058003e-01 -5.44441752e-02 -4.18900102e-02 -1.73044279e-01 -5.08604608e-02 -1.36132747e-01 -2.21974581e-01 -9.70844179e-02 -1.12004183e-01 -2.43536904e-01 -1.69661000e-01 -1.22795701e-02 -1.72541574e-01 -1.64507180e-01 -1.23561218e-01 -2.73136586e-01 -2.11304829e-01 -1.62718669e-01 -1.24830641e-01 -2.03777194e-01 -1.97679281e-01 -1.41933754e-01 -7.35697150e-02 -5.94658079e-03 -1.16468240e-02 -1.65473551e-01 -5.64141525e-03 -1.53999999e-01 -1.56250373e-01 -3.14844579e-01 -1.63595229e-01 -6.97336793e-02 +1.29134031e-02 -1.85565993e-01 -2.42690053e-02 -1.95179403e-01 -2.33161420e-01 +4.48853634e-02 -1.00974388e-01 -6.01332337e-02 -1.11082397e-01 +2.74828402e-03 +6.11535646e-02 +5.30717015e-01 +1.47483721e-01 -7.23708421e-02 -1.84433907e-01 -5.17973229e-02 -5.76406904e-02 -5.15319943e-01 -4.26976755e-02 -4.85710353e-02 -9.92855057e-02 -1.12164073e-01 -5.56061380e-02 -1.54009178e-01 -4.69968505e-02 -3.83236185e-02 -1.31418869e-01 -5.91534302e-02 -4.71780822e-02 -1.56205609e-01 -2.55372465e-01 -1.47194624e-01 -6.94891065e-02 -2.23561414e-02 -1.10200040e-01 -4.90412936e-02 -5.17182127e-02 -8.89416263e-02 +1.44527256e-02 +7.35300221e-03 +1.78622201e-01 +1.69089898e-01 +1.68643668e-02 -9.84059796e-02 -3.86775136e-02 -4.22259122e-02 -2.24377271e-02 -3.03413775e-02 -5.04646786e-02 -1.41813964e-01 -4.24888404e-03 +6.36714324e-03 -9.90750939e-02 -6.00424744e-02 -4.04387653e-01 +3.23943719e-02 -3.98257151e-02 +2.85720795e-01 -1.18377097e-01 -2.63022054e-02 -2.92836130e-01 -1.08385161e-01 -9.49333683e-02 -6.78798705e-02 -1.29946116e-02 -3.96906622e-02 +4.09945957e-02 -6.37831818e-03 -1.39940232e-01 +6.13874057e-03 -2.49813467e-01 +3.16943973e-02 -5.98639064e-02 -4.38341588e-01 -1.31402224e-01 -1.30738229e-01 +1.32327089e-02 -2.91671127e-01 -1.11016713e-01 +3.90096381e-02 -7.68974749e-03 +3.64570990e-02 -9.16372091e-02 -4.48788926e-02 -1.11678550e-02 -5.10639884e-02 -4.13299948e-02 -2.44135767e-01 -1.38392434e-01 +7.52285346e-02 -2.06642151e-02 +5.36688045e-02 -4.46274251e-01 -3.74623090e-02 -1.95872374e-02 +7.49361366e-02 +2.67920122e-02 -4.37673002e-01 +8.78816769e-02 -8.91165212e-02 -9.08862501e-02 -8.41467828e-02 -7.21588824e-03 -1.85183734e-01 -8.10679123e-02 -2.89206445e-01 -2.53733695e-01 -9.77236107e-02 +3.94966640e-02 +5.70204705e-02 -1.89373463e-01 -2.14130171e-02 +2.33056266e-02 -1.93030000e-01 +6.52387738e-02 -1.11027900e-02 +3.06539927e-02 -1.99982867e-01 +3.49901244e-02 +6.75091818e-02 -1.81733906e-01 +6.13704659e-02 -1.36324391e-01 -1.49124190e-01 +4.92640510e-02 +1.09221824e-01 -8.80159996e-03 -4.50161994e-02 -1.12794321e-02 -1.35358229e-01 -2.67374031e-02 +3.16347368e-02 -8.01065192e-02 -2.34812185e-01 -4.24830578e-02 -1.16609775e-01 -2.56609749e-02 -2.03387961e-01 +3.78348939e-02 +4.01161276e-02 -2.10779101e-01 +2.51103509e-02 -1.46242492e-02 +1.21621601e-02 -6.17948845e-02 +4.07661051e-02 +6.19821064e-02 +8.93037915e-02 +2.33556554e-02 -4.79517020e-02 -8.49366412e-02 -2.31159925e-02 -8.43540505e-02 -2.01718379e-02 +3.49454433e-02 +1.14379115e-02 -2.55527385e-02 -1.69513505e-02 -6.42273249e-03 -1.39244884e-01 -7.88994431e-02 +7.19574615e-02 -5.08794934e-02 -8.76259133e-02 -2.12835789e-01 -1.49393544e-01 -8.15680251e-02 -1.28906459e-01 -1.07098244e-01 -1.93021633e-02 -8.06231126e-02 -7.97678530e-02 -9.67787355e-02 -5.60913235e-02 -2.43771523e-01 -1.28093079e-01 -1.55096963e-01 -1.21409096e-01 -1.11308612e-01 -2.89181292e-01 -2.36771896e-01 -2.26714507e-01 -1.32105917e-01 -3.93937342e-02 -1.26831159e-01 -1.12645179e-01 -4.55908775e-02 -1.57022789e-01 -1.54011935e-01 -2.02010781e-01 -1.13194786e-01 +3.11300814e-01 +2.15761587e-01 -1.89984784e-01 -2.03646123e-01 -1.38865650e-01 -5.92119284e-02 -2.68493474e-01 -1.70878936e-02 -1.33250505e-01 +2.34972879e-01 -1.66070208e-01 +1.63956452e-02 -7.25928843e-02 -1.15021067e-02 +4.48053062e-01 -1.39866382e-01 -1.40884846e-01 +2.94276148e-01 -3.64972889e-01 -1.58153042e-01 -5.29005349e-01 -5.61897196e-02 -2.58515537e-01 -8.62638131e-02 -8.74544755e-02 +1.76772173e-03 +4.82055284e-02 -1.97047442e-01 -1.01523586e-02 -1.81445956e-01 -3.37195784e-01 -1.50992319e-01 -5.20522177e-01 -1.39171839e-01 -3.28766435e-01 -3.13524216e-01 -1.52486101e-01 -1.83660820e-01 -1.93144813e-01 -5.74709296e-01 -2.95564681e-01 -5.95242381e-01 -2.94365019e-01 +3.42729501e-02 -2.08452016e-01 +5.78760989e-02 +3.95546816e-02 -2.60348290e-01 -6.28786255e-03 -1.13532305e-01 -4.90093887e-01 -4.61893678e-01 -1.55675232e-01 -7.31384307e-02 -6.01228714e-01 -1.54400617e-01 -1.62589133e-01 +2.71890372e-01 -2.26166010e-01 -5.05342066e-01 -3.28542978e-01 -1.97159871e-01 -5.84969148e-02 +1.71853170e-01 -1.53735325e-01 -1.31530046e-01 -1.46344870e-01 +1.69570357e-01 +7.34084547e-02 +1.37357548e-01 +1.12048447e-01 +3.68069150e-02 +5.85715063e-02 +6.24801926e-02 +1.18243434e-01 +2.17949674e-02 +5.19934408e-02 +6.86788559e-02 +2.44778723e-01 +9.19827819e-02 +1.49677098e-01 +1.22942239e-01 +1.60315156e-01 +1.06473155e-01 +7.73257166e-02 +2.02554852e-01 +1.32974759e-01 +4.03229073e-02 +1.54235736e-01 +7.50038698e-02 +1.66984051e-02 +1.01969928e-01 +3.92370671e-02 +8.43506902e-02 +6.61584139e-02 +1.75125182e-01 +3.55413444e-02 +6.71616122e-02 +1.69474557e-02 +1.63165387e-02 +1.14344992e-01 +4.88546677e-02 +1.60090446e-01 +1.84076115e-01 +2.35168915e-02 +8.23109373e-02 +1.68731771e-02 +1.37243211e-01 +1.80418894e-01 +1.86536759e-01 +1.69965044e-01 +1.21024869e-01 +5.99355511e-02 +8.87432024e-02 +2.56214440e-01 +5.13992272e-02 +3.09463460e-02 -2.74969697e-01 -2.79606551e-01 -2.08088249e-01 -1.73383430e-01 -1.05680689e-01 -2.03887030e-01 -2.17167005e-01 -1.31662115e-01 -8.07500556e-02 -1.15574077e-01 -1.82764485e-01 -1.74059182e-01 -1.05927520e-01 -4.08766195e-02 -1.59344018e-01 -2.34165505e-01 -1.87548459e-01 -8.05569589e-02 -2.09277138e-01 -1.19757868e-01 -8.23097453e-02 -2.51492739e-01 -1.18887819e-01 -1.65358499e-01 -1.12095773e-01 -2.69107163e-01 -1.10411793e-01 -2.00995639e-01 -1.68147907e-01 -2.18754455e-01 -2.94987500e-01 -1.25223890e-01 -1.74169779e-01 -4.59914766e-02 -1.08808354e-01 -1.88815713e-01 -1.35261655e-01 -9.02817547e-02 -1.96421400e-01 -1.08760186e-01 -6.42701983e-02 -2.07248226e-01 -1.59288228e-01 -2.48986527e-01 -2.27627471e-01 -9.85138640e-02 -1.68045431e-01 -1.38869718e-01 -1.95951432e-01 -2.44915619e-01 -3.64933573e-02 -1.16720870e-01 -7.94817135e-02 -7.48125836e-02 -8.10316205e-02 -5.60617261e-02 -1.49474293e-01 -1.17371216e-01 -1.24464080e-01 +4.65809345e-01 -5.14767393e-02 -2.42134035e-01 -3.18464905e-01 -4.28724766e-01 -1.89929962e-01 -1.31408209e-02 -2.21547820e-02 -3.63970990e-03 -1.22897938e-01 -6.58346042e-02 -1.46584615e-01 -1.01405226e-01 -3.33428271e-02 -1.31263211e-01 -1.25644296e-01 -1.96758453e-02 -1.78669348e-01 -8.91211778e-02 -7.51914158e-02 -5.93986697e-02 -3.84048522e-02 -1.84299022e-01 -7.93623403e-02 -4.77787890e-02 -1.88668836e-02 -9.46899652e-02 -2.12703958e-01 -1.16488807e-01 -1.19577587e-01 -1.10733816e-02 -2.55465005e-02 -2.20269889e-01 -3.62831391e-02 -4.93376926e-02 -1.51078686e-01 -1.65715575e-01 -2.70846318e-02 -8.84088315e-03 -5.95250204e-02 -6.72436059e-02 +6.66986585e-01 +1.65791903e-02 -6.32289276e-02 +5.45533374e-02 -7.71908835e-02 -2.30007302e-02 +4.98452298e-02 +1.99489072e-02 +3.75059247e-01 +1.69345979e-02 +6.07717857e-02 +3.71426195e-01 -1.80187419e-01 +1.87628850e-01 -1.11401752e-01 -5.67145385e-02 +9.53719392e-02 +1.95355847e-01 +4.00747843e-02 -2.20502242e-02 -5.35731018e-02 -6.11691661e-02 +6.10695279e-04 +8.48235562e-02 -7.67143592e-02 +9.81312842e-05 -5.82635496e-03 -7.61386305e-02 +2.62162229e-03 -3.74829099e-02 +6.01462126e-02 +1.68347448e-01 -1.15489867e-02 +2.99501091e-01 -5.24942242e-02 +3.71128544e-02 -8.69432837e-03 +1.64364338e-01 +2.69848611e-02 +1.22313574e-02 +7.86737025e-01 -1.32079199e-02 -5.76615185e-02 -3.32539566e-02 -7.05707297e-02 +4.79360931e-02 +6.94181979e-01 +2.23491490e-01 -7.37728272e-03 +5.04937097e-02 +1.09205864e-01 +1.88570693e-01 -4.85424325e-02 +5.25533080e-01 +3.04586589e-01 +4.16518748e-02 +1.29548654e-01 +3.70068997e-02 +1.24131218e-02 +1.56384572e-01 -1.23159267e-01 +1.14171796e-01 +8.29064474e-02 -2.26914091e-03 -6.53454885e-02 -3.29503864e-01 -2.97449261e-01 +1.10321507e-01 -1.05482405e-02 -1.00391604e-01 -1.18626378e-01 +2.47706771e-02 +5.32877557e-02 +3.12190074e-02 -5.60122170e-02 -7.63360485e-02 +7.44399056e-02 -1.01977633e-02 -3.72175686e-02 -2.31232896e-01 -1.23974912e-01 -1.32429553e-02 +3.89558673e-01 +3.51603657e-01 -6.49475753e-02 +6.28052279e-02 -8.18616077e-02 -7.33000552e-03 +1.01572208e-01 -2.23743334e-01 +2.27255479e-01 +1.16791770e-01 +4.15382348e-02 +4.26906021e-03 +2.51660168e-01 -1.63891450e-01 +9.34821740e-02 +1.01924106e-01 -1.64032236e-01 +1.31062448e-01 -1.88852157e-02 +4.42045122e-01 +1.22134656e-01 +5.99040449e-01 +6.34051487e-02 +1.62018135e-01 +5.69258630e-02 +5.95606901e-02 +1.11594023e-02 -1.31767187e-02 +1.37752399e-01 +3.35973054e-02 +1.37543082e-02 +1.21647961e-01 +7.12572187e-02 +5.96146107e-01 +6.01004623e-02 +7.14010447e-02 +1.39476433e-01 +2.69811507e-02 +9.72260088e-02 +3.12420707e-02 +4.64199424e-01 +1.02309488e-01 +4.59338456e-01 +2.00496271e-01 -1.45807071e-02 +1.16376840e-01 +2.83729192e-03 -1.65276555e-03 +1.88802704e-01 +3.23631521e-03 +3.70193161e-02 +6.61802769e-01 +7.31687665e-01 +2.74679903e-02 +1.60989165e-02 +3.80225271e-01 +9.44346339e-02 +7.29458928e-02 -9.85598098e-03 +1.09887719e-01 +8.36670041e-01 +5.82807884e-02 +1.87904537e-01 +1.29493168e-02 -6.67384220e-03 +7.51453459e-01 +2.34900136e-02 +8.39610845e-02 -4.23577353e-02 +1.37069672e-01 +7.48769194e-02 +1.02812015e-01 +8.17839950e-02 +1.10674262e-01 +6.69365674e-02 +6.08550049e-02 +7.17944279e-02 +1.01950727e-02 +7.66760930e-02 +1.03763133e-01 +1.55521959e-01 +1.59061715e-01 +1.63336053e-01 +1.30514324e-01 +1.64828077e-01 +2.38192394e-01 +1.83708146e-01 +1.23861924e-01 +1.11150898e-01 +1.01198986e-01 +1.98693484e-01 +2.14375004e-01 +2.25782976e-01 +1.52064756e-01 +1.35295885e-02 +1.14154518e-01 +1.79881155e-02 +2.73613613e-02 +1.00401588e-01 +8.19459632e-02 +9.42664072e-02 +2.11318359e-01 +1.56761065e-01 +8.47582668e-02 +7.12154880e-02 +3.74463946e-01 +8.19728449e-02 +1.29310340e-01 -3.32212597e-02 +1.18173242e-01 +1.07514158e-01 +2.45809972e-01 +8.28418881e-02 +7.91014656e-02 -1.16826370e-02 +1.52508602e-01 +1.18340947e-01 +1.05648123e-01 +1.84348315e-01 +1.35410234e-01 +1.41234145e-01 +1.98851094e-01 +4.72703241e-02 -3.12803127e-03 +1.11907702e-02 +7.66278878e-02 +1.52446404e-01 +5.91252670e-02 +9.79939010e-03 -1.91062670e-02 -5.80023751e-02 +3.24365334e-03 +1.71423368e-02 +7.63285011e-02 +6.31947294e-02 +1.41809704e-02 +1.17646400e-02 +1.72127888e-01 -2.14266907e-02 +4.99455966e-02 +7.89409876e-02 +3.48507196e-01 +3.16965543e-02 +4.18639630e-02 +1.07062273e-01 +9.42286178e-02 +1.17086224e-01 +9.55298245e-02 +3.12256832e-02 -4.54730849e-04 -3.30025866e-03 +2.30757538e-02 +9.21256915e-02 +1.48880795e-01 +5.42666055e-02 +8.05091411e-02 +5.82951047e-02 +1.56815484e-01 +4.66181338e-01 +1.64026290e-01 +1.35638475e-01 +2.34566793e-01 -3.50960307e-02 +3.54560688e-02 +1.22411281e-01 +2.40882467e-02 +2.31984004e-01 +1.22435587e-02 +2.35455856e-02 -9.57971439e-02 -1.26557931e-01 -8.04449916e-02 -8.87225196e-02 -1.85888499e-01 -8.22269842e-02 -8.16736147e-02 +6.15197681e-02 -1.28961831e-01 -1.13269508e-01 +3.06065306e-02 -1.49913803e-01 -1.26649395e-01 -9.56002101e-02 -2.20945597e-01 -9.44012627e-02 -6.19980693e-02 -6.31037205e-02 -1.34878546e-01 -8.08073282e-02 -1.08056620e-01 -1.60158604e-01 -4.40984778e-02 -7.84595981e-02 -1.32467195e-01 -1.24968454e-01 -1.21330880e-01 +3.59394550e-02 -1.48394704e-01 -1.54291496e-01 +2.03234367e-02 -1.91717163e-01 -5.02210408e-02 -8.90631676e-02 -7.38484114e-02 -4.79456708e-02 +1.28034167e-02 +1.29670911e-02 -6.85422719e-02 +5.90506494e-02 -1.72144681e-01 -1.24318682e-01 -3.79011519e-02 -1.18645832e-01 -8.59267265e-02 -1.02133110e-01 -4.48592603e-02 -1.13435082e-01 -1.04086734e-01 -2.53394642e-03 -1.19867213e-01 -4.87866923e-02 -2.73387898e-02 +5.88825271e-02 -3.59825157e-02 +5.98312030e-03 +2.38508999e-01 +6.29317224e-01 +1.87908262e-01 -3.49304564e-02 +3.92337799e-01 -2.13609487e-02 +2.48100102e-01 -1.70880500e-02 -2.59051472e-02 +4.14726734e-02 -2.56672472e-01 +3.68708447e-02 -1.46229625e-01 +5.09199090e-02 +2.18462162e-02 +1.37117114e-02 -6.96701705e-02 -2.04193909e-02 -3.52558084e-02 +1.03489429e-01 -9.13442299e-03 +1.45358726e-01 -1.58545878e-02 -2.53338385e-02 +2.12307543e-01 -1.37395123e-02 +2.71687051e-04 -2.88665984e-02 -2.67508533e-02 +5.64960986e-02 +5.82548007e-02 +3.30637395e-02 +5.04276119e-02 -2.07345448e-02 -1.16623312e-01 -9.66620892e-02 -8.78340825e-02 +3.53999599e-03 +1.41474009e-01 -2.77773570e-02 -1.87865598e-03 -5.01457341e-02 -1.09791085e-02 -2.84137651e-02 -2.06785068e-01 -2.72763427e-02 +1.75710544e-02 +4.74221185e-02 +3.08703929e-02 -1.41622752e-01 +2.42722966e-02 -3.41449589e-01 -3.95178143e-03 -2.57431656e-01 -3.79522070e-02 -3.39221917e-02 -3.73021066e-01 -6.20546304e-02 -5.91628738e-02 -2.72256881e-01 +8.69444087e-02 -8.34474154e-03 +1.90702498e-01 -6.98333234e-02 -4.33047935e-02 +2.80115046e-02 +1.31105497e-01 -4.43359874e-02 -3.55672911e-02 +5.06904647e-02 -6.60462603e-02 +1.11964636e-01 +6.15477301e-02 -1.88751325e-01 -1.18152633e-01 +3.54750901e-02 -1.11774899e-01 +4.36920896e-02 +5.99357076e-02 +2.27051508e-02 -2.07013443e-01 -4.03289735e-01 +8.33702553e-03 -2.42740083e-02 -4.16894108e-02 +4.27188650e-02 +4.39138338e-02 -2.79523269e-03 -2.70072371e-01 -1.13369543e-02 -7.19659030e-02 +7.11947307e-02 +6.13293871e-02 -3.07713691e-02 -8.18738267e-02 -6.21851832e-02 -5.53342588e-02 -1.05139473e-02 -7.05033019e-02 -1.75074503e-01 -1.56847566e-01 -4.25483286e-02 +4.31817502e-01 -8.31367746e-02 -5.57777733e-02 -1.08694166e-01 -6.04090579e-02 -2.02279031e-01 +4.13668379e-02 -6.44455329e-02 -5.25047518e-02 -1.82231158e-01 -6.18736073e-02 -2.27990709e-02 +4.36471514e-02 +1.01809064e-02 -6.39241859e-02 -5.04452176e-02 +3.03532816e-02 +7.94423185e-03 -2.76691448e-02 -7.82661587e-02 +1.38222543e-03 -6.28356710e-02 -7.14356005e-02 +3.21085425e-03 -1.20710181e-02 -4.67179306e-02 -2.68503856e-02 -1.72062963e-01 -5.52585386e-02 -1.03200085e-01 -1.72330607e-02 -3.44064236e-02 -7.68026039e-02 -7.99571052e-02 -1.58994831e-02 -2.10446060e-01 -3.52307446e-02 -5.44506945e-02 -2.37534449e-01 -6.53093457e-02 -4.25033942e-02 +3.72275472e-01 +7.86514282e-02 +6.36647865e-02 +4.04959768e-02 +8.14064965e-02 +4.73588891e-02 +1.98116079e-02 +3.83986235e-02 +1.94818988e-01 +3.16176653e-01 +1.47698568e-02 +3.77068035e-02 +2.51612872e-01 +4.50757667e-02 +8.29096362e-02 +2.20027063e-02 +5.28274961e-02 +2.66191158e-02 +5.09789698e-02 +1.09995432e-01 +8.38869512e-02 +2.06809253e-01 +6.52489141e-02 +1.15026176e-01 +9.50575396e-02 +1.77213475e-02 +1.23141110e-01 +1.03354178e-01 +9.92561579e-02 +1.18909009e-01 +1.39211901e-02 +7.07354322e-02 +6.09626919e-02 -1.64513234e-02 +2.94825565e-02 +1.34776413e-01 +7.93750435e-02 +8.99377465e-02 +7.62041211e-02 +1.60547793e-01 +2.50877559e-01 +6.22498542e-02 +4.24511284e-02 +1.15983658e-01 +1.86554149e-01 +1.61507025e-01 