#Parameter# /Linear.99fb15e0/_0 {55,512} 450561 ZERO_GRAD
-3.91694270e-02 -7.57976845e-02 +3.07377521e-02 -7.14006871e-02 -3.91686857e-02 -3.91686447e-02 -3.91691923e-02 -3.91694792e-02 -3.91679779e-02 -1.10263906e-01 +5.37324883e-02 -3.91666032e-02 +2.62445927e-01 -1.74069509e-01 -3.91690321e-02 -3.91679257e-02 -3.91661078e-02 -3.91685329e-02 -6.95759878e-02 -1.65312320e-01 +1.11859962e-01 -5.76304346e-02 -3.91687676e-02 -3.91696207e-02 -3.91700491e-02 -5.72626404e-02 -1.95787609e-01 -2.50625402e-01 +1.45359173e-01 -8.33129287e-02 -3.91664095e-02 +8.46408382e-02 -3.91649865e-02 -3.91698703e-02 -3.91665772e-02 -3.91679555e-02 -4.53901105e-03 -8.92387629e-02 -2.37193763e-01 -2.22365916e-01 -1.17903426e-01 +3.00727367e-01 -3.91675644e-02 -3.91686410e-02 -3.91659103e-02 -3.91703285e-02 -6.63917735e-02 -9.62470546e-02 -1.82183459e-01 +1.51965812e-01 -3.91677283e-02 -1.42179906e-01 -3.91666740e-02 +9.28466395e-02 -3.91644277e-02 -1.76254600e-01 -1.87442794e-01 +7.01103434e-02 +1.79505777e-02 -1.76255256e-01 -1.76255301e-01 -1.76254824e-01 -1.76254526e-01 -1.76255882e-01 -1.40192091e-01 +5.34506291e-02 -1.76257402e-01 +8.45047012e-02 -1.96165711e-01 -1.76254973e-01 -1.76255956e-01 -1.76257759e-01 -1.76255405e-01 -5.58031015e-02 -8.28143209e-02 -1.17235102e-01 -6.61612824e-02 -1.76255181e-01 -1.76254392e-01 -1.76254049e-01 -1.53801531e-01 -1.18848324e-01 -3.27343829e-02 -2.74993945e-03 -5.63809872e-02 -1.76257566e-01 -1.82734460e-01 -1.76258758e-01 -1.76254228e-01 -1.76257432e-01 -1.76255897e-01 -5.98518811e-02 -3.18298668e-01 +1.49317920e-01 +8.40142667e-02 +3.34999025e-01 +8.54367018e-02 -1.76256359e-01 -1.76255330e-01 -1.76257879e-01 -1.76253751e-01 -6.96826279e-02 -1.77706704e-02 -1.27195522e-01 -5.18295309e-03 -1.76256135e-01 -1.08275861e-01 -1.76257282e-01 -2.31008515e-01 -1.76259339e-01 +1.02776177e-01 -6.97237551e-02 -1.53488412e-01 +5.07816635e-02 +1.02777310e-01 +1.02777399e-01 +1.02776565e-01 +1.02776051e-01 +1.02778427e-01 +2.03310609e-01 +7.73501163e-03 +1.02780633e-01 +2.56305218e-01 -9.97197479e-02 +1.02776811e-01 +1.02778509e-01 +1.02781296e-01 +1.02777556e-01 +1.52482972e-01 +1.16000213e-02 +1.81850776e-01 -7.21977130e-02 +1.02777183e-01 +1.02775864e-01 +1.02775313e-01 +1.06761120e-01 +1.17972352e-01 -2.08085492e-01 +3.64991426e-02 +1.38248801e-01 +1.02780946e-01 -2.69658193e-02 +1.02783032e-01 +1.02775551e-01 +1.02780662e-01 +1.02778450e-01 -3.98966037e-02 +8.10778514e-02 +2.14283839e-02 -4.40936498e-02 -9.84850526e-02 -8.02354962e-02 +1.02779105e-01 +1.02777429e-01 +1.02781564e-01 +1.02774858e-01 -2.84310579e-02 +7.19101503e-02 +5.27647808e-02 +7.43427753e-01 +1.02778792e-01 +6.13757074e-02 +1.02780558e-01 +1.29799142e-01 +1.02784008e-01 +4.32316400e-02 +9.70336329e-03 +1.15512805e-02 +2.08910316e-01 +4.32317890e-02 +4.32318002e-02 +4.32316512e-02 +4.32315953e-02 +4.32319380e-02 -7.07694516e-02 -4.26416360e-02 +4.32321727e-02 +8.44619200e-02 +2.10425168e-01 +4.32316996e-02 +4.32319455e-02 +4.32322919e-02 +4.32318226e-02 +1.22041933e-01 +7.71192312e-02 -1.22480784e-02 -1.03405103e-01 +4.32317853e-02 +4.32315953e-02 +4.32315096e-02 +5.38139157e-02 +1.07844703e-01 -2.57314712e-01 +1.53952662e-03 -2.10844949e-01 +4.32322100e-02 -3.53895873e-01 +4.32325043e-02 +4.32315208e-02 +4.32321839e-02 +4.32319306e-02 +9.49968100e-02 -1.17621399e-01 -3.80182713e-02 +3.27449068e-02 -4.05127294e-02 +2.28810295e-01 +4.32320088e-02 +4.32318039e-02 +4.32323329e-02 +4.32314463e-02 -1.90453753e-02 +1.88702434e-01 +6.11890145e-02 -3.19862366e-01 +4.32319827e-02 +6.05213791e-02 +4.32321541e-02 -1.84763707e-02 +4.32326682e-02 -1.79898273e-02 +3.75487320e-02 +4.65935618e-02 +2.52965897e-01 -1.79906674e-02 -1.79907158e-02 -1.79901160e-02 -1.79897137e-02 -1.79914422e-02 -1.97625697e-01 +7.33968616e-02 -1.79930963e-02 -7.30883554e-02 +1.33369237e-01 -1.79902725e-02 -1.79914925e-02 -1.79936737e-02 -1.79908350e-02 +1.37126818e-01 -3.32277924e-01 +1.32479733e-02 +1.23480439e-01 -1.79905500e-02 -1.79895777e-02 -1.79891232e-02 -2.31010150e-02 -9.17625055e-02 -2.03753516e-01 +3.98316719e-02 -9.79145095e-02 -1.79933403e-02 +7.46068824e-03 -1.79949626e-02 -1.79893281e-02 -1.79931447e-02 -1.79914497e-02 +1.69633895e-01 +1.19609401e-01 -3.17103453e-02 -8.23025778e-02 -7.36446232e-02 -2.62640178e-01 -1.79919489e-02 -1.79907512e-02 -1.79938860e-02 -1.79888438e-02 -1.18747167e-01 -5.56196421e-02 +7.36459121e-02 -2.21423522e-01 -1.79917067e-02 -4.86921407e-02 -1.79930273e-02 +5.53006865e-02 -1.79955959e-02 +2.44121104e-02 +6.24995157e-02 +7.35440850e-02 -1.69765070e-01 +2.44118422e-02 +2.44118124e-02 +2.44120490e-02 +2.44121365e-02 +2.44115889e-02 -3.62107833e-03 -1.74982235e-01 +2.44110841e-02 -8.91046152e-02 -4.22471687e-02 +2.44120024e-02 +2.44115740e-02 +2.44109016e-02 +2.44117826e-02 -1.18019313e-01 +1.20795198e-01 +1.13199167e-01 -1.68695107e-01 +2.44118981e-02 +2.44121924e-02 +2.44123284e-02 +6.42033368e-02 -4.77829687e-02 -1.02546811e-01 -2.28021488e-01 +1.85944453e-01 +2.44109817e-02 +2.25118801e-01 +2.44105011e-02 +2.44122986e-02 +2.44110748e-02 +2.44115870e-02 +2.24647447e-01 +8.91507864e-02 +9.56537873e-02 +3.08598518e-01 -1.49429634e-01 -1.17538355e-01 +2.44114455e-02 +2.44118124e-02 +2.44108327e-02 +2.44124811e-02 +1.98709592e-02 +2.70865083e-01 +7.84907863e-02 +2.45852336e-01 +2.44114995e-02 +7.80544132e-02 +2.44111195e-02 +8.17964673e-02 +2.44102944e-02 +2.81136297e-02 -1.99163407e-02 -2.01951154e-02 -6.24073148e-02 +2.81142723e-02 +2.81143263e-02 +2.81138364e-02 +2.81135291e-02 +2.81148162e-02 +2.75847644e-01 +2.79703178e-02 +2.81160828e-02 -3.78050320e-02 +5.68677783e-02 +2.81139500e-02 +2.81148665e-02 +2.81165298e-02 +2.81144157e-02 +2.95064062e-01 -6.98745623e-02 -1.66657239e-01 +8.73468071e-02 +2.81141847e-02 +2.81134229e-02 +2.81130709e-02 +3.61523747e-01 +6.43161088e-02 -8.47191438e-02 -5.61638027e-02 -7.76680708e-02 +2.81163026e-02 +8.47443864e-02 +2.81174909e-02 +2.81132255e-02 +2.81161144e-02 +2.81148292e-02 -7.91046247e-02 +1.95203483e-01 +1.00875549e-01 -1.79949366e-02 -1.05616366e-02 -5.58269262e-01 +2.81151980e-02 +2.81143468e-02 +2.81166639e-02 +2.81128623e-02 +3.10526229e-02 +6.07915409e-02 +5.14789186e-02 -1.39984146e-01 +2.81150229e-02 +4.00356241e-02 +2.81160269e-02 +3.69105004e-02 +2.81179864e-02 -4.17471603e-02 -3.66382152e-02 -4.36956398e-02 -6.45275880e-03 -4.17481549e-02 -4.17482108e-02 -4.17474769e-02 -4.17470597e-02 -4.17490453e-02 +1.04538478e-01 +4.55318429e-02 -4.17508520e-02 +5.08861803e-02 -4.88562277e-03 -4.17477004e-02 -4.17491160e-02 -4.17514741e-02 -4.17483337e-02 +8.02387595e-02 +6.69298740e-03 +4.43511724e-01 -9.01912749e-02 -4.17480320e-02 -4.17468920e-02 -4.17464562e-02 -6.42026737e-02 +1.02884457e-01 +5.25638228e-03 -2.35902555e-02 -5.22418283e-02 -4.17511500e-02 +4.74122912e-01 -4.17529121e-02 -4.17466685e-02 -4.17509079e-02 -4.17490676e-02 -2.29799617e-02 +1.88479312e-02 -2.18710229e-02 -4.25441563e-02 -2.79692292e-01 -7.23554567e-03 -4.17495817e-02 -4.17482331e-02 -4.17517051e-02 -4.17461023e-02 +5.91340512e-02 -9.11897495e-02 +1.55234360e-03 -3.70692611e-02 -4.17493954e-02 +6.02680147e-02 -4.17507663e-02 -7.22219795e-02 -4.17536348e-02 +1.30592315e-02 -1.48773158e-03 -1.58657566e-01 +9.33685377e-02 +1.30596543e-02 +1.30596869e-02 +1.30593749e-02 +1.30591709e-02 +1.30600920e-02 -1.27402768e-01 +1.01186931e-01 +1.30609330e-02 -9.24338475e-02 +2.10682198e-01 +1.30594512e-02 +1.30601134e-02 +1.30612152e-02 +1.30597642e-02 +1.10706184e-02 +3.20816934e-01 +2.21845523e-01 +1.00205325e-01 +1.30595993e-02 +1.30590964e-02 +1.30589008e-02 +1.64972674e-02 -1.29654154e-01 -1.70714110e-01 -1.02191232e-01 +3.01068928e-03 +1.30610568e-02 -2.69873172e-01 +1.30618652e-02 +1.30589856e-02 +1.30609367e-02 +1.30600957e-02 -5.53999990e-02 +6.80299290e-03 -2.18459293e-01 -4.83216718e-02 +4.04569581e-02 -2.44883850e-01 +1.30603276e-02 +1.30597018e-02 +1.30613251e-02 +1.30587313e-02 +2.14580804e-01 -1.08279765e-01 -6.22152090e-02 +1.99323334e-02 +1.30602028e-02 -6.12234464e-03 +1.30608939e-02 +1.45806193e-01 +1.30622368e-02 +4.81952727e-02 +8.74251872e-02 -3.59061845e-02 -2.12588444e-01 +4.81952503e-02 +4.81952690e-02 +4.81953211e-02 +4.81952876e-02 +4.81952764e-02 +1.05920687e-01 +8.43477324e-02 +4.81952652e-02 +4.18971889e-02 -1.44328222e-01 +4.81953025e-02 +4.81952690e-02 +4.81952764e-02 +4.81952839e-02 +1.95587337e-01 +3.08773275e-02 +1.26393273e-01 -1.20168798e-01 +4.81952652e-02 +4.81953248e-02 +4.81953509e-02 +1.16656587e-01 -7.74563178e-02 +1.64684325e-01 +1.26919270e-01 +1.00516215e-01 +4.81952876e-02 -9.20346454e-02 +4.81952280e-02 +4.81953397e-02 +4.81952541e-02 +4.81952652e-02 +8.50021541e-02 +1.10175915e-01 +2.36962214e-01 +5.88634983e-02 -1.31349236e-01 +2.66079847e-02 +4.81952541e-02 +4.81952801e-02 +4.81952615e-02 +4.81953956e-02 -7.52061829e-02 +1.43559381e-01 +1.23144430e-03 -5.57891838e-03 +4.81952876e-02 +7.61525854e-02 +4.81952615e-02 -4.84681815e-01 +4.81952503e-02 +1.50444269e-01 -1.62947997e-02 -5.54632783e-01 +1.58686385e-01 +1.50444806e-01 +1.50444895e-01 +1.50444552e-01 +1.50444269e-01 +1.50445297e-01 +1.44973788e-02 -4.10440005e-02 +1.50446311e-01 -8.02906975e-02 -1.13454118e-01 +1.50444627e-01 +1.50445372e-01 +1.50446594e-01 +1.50444925e-01 +1.42781079e-01 -4.97211218e-02 +1.49121672e-01 +1.60956949e-01 +1.50444731e-01 +1.50444120e-01 +1.50443777e-01 +1.01529717e-01 +1.32158771e-01 +1.02618851e-01 +1.93466824e-02 -3.34217772e-02 +1.50446385e-01 +6.38553873e-02 +1.50447443e-01 +1.50443926e-01 +1.50446311e-01 +1.50445312e-01 +9.51152947e-03 +1.88868016e-01 +1.04804039e-02 -3.37652629e-03 +1.00445762e-01 +7.45223090e-02 +1.50445610e-01 +1.50444895e-01 +1.50446758e-01 +1.50443569e-01 +1.31226808e-01 +2.11779952e-01 +1.36104211e-01 +8.86811838e-02 +1.50445446e-01 +1.41041875e-01 +1.50446221e-01 +5.27153686e-02 +1.50447711e-01 -1.91597834e-01 -2.34791204e-01 -1.48435071e-01 +1.15419790e-01 -1.91597641e-01 -1.91597626e-01 -1.91597745e-01 -1.91597804e-01 -1.91597432e-01 -1.74356535e-01 +8.86445493e-03 -1.91596702e-01 -3.09304800e-02 +1.38197854e-01 -1.91597670e-01 -1.91597402e-01 -1.91596687e-01 -1.91597566e-01 -6.75589442e-02 -9.90723670e-02 -6.33338615e-02 +2.89448649e-01 -1.91597641e-01 -1.91597819e-01 -1.91597939e-01 -1.76814333e-01 -1.28232807e-01 +1.64749220e-01 -1.10346358e-02 -3.67265791e-02 -1.91596702e-01 +1.20177366e-01 -1.91596389e-01 -1.91597939e-01 -1.91596717e-01 -1.91597417e-01 -2.71118164e-01 -1.68357790e-01 +1.40307277e-01 -1.94326237e-01 -2.60683615e-02 +7.32702240e-02 -1.91597283e-01 -1.91597581e-01 -1.91596642e-01 -1.91598132e-01 -1.94301933e-01 -2.13522643e-01 -2.91732401e-01 -1.92008913e-01 -1.91597387e-01 -8.82450193e-02 -1.91596791e-01 -2.71293432e-01 -1.91596165e-01 +2.32747686e-03 -1.72045156e-02 -3.72487158e-02 -1.14024550e-01 +2.32800981e-03 +2.32805009e-03 +2.32764450e-03 +2.32741376e-03 +2.32852600e-03 -3.39087427e-01 +5.54614142e-02 +2.32954579e-03 -5.70575483e-02 +1.39709681e-01 +2.32774485e-03 +2.32855720e-03 +2.32989946e-03 +2.32811412e-03 -1.44790873e-01 +1.20423675e-01 -1.88317299e-01 -2.34249175e-01 +2.32792180e-03 +2.32732994e-03 +2.32703937e-03 +7.63017014e-02 -1.01685993e-01 +1.60578445e-01 +3.65311086e-01 +2.22333390e-02 +2.32970552e-03 -3.11988294e-01 +2.33073300e-03 +2.32717232e-03 +2.32956372e-03 +2.32853368e-03 +8.40599015e-02 +2.07360629e-02 -2.10282251e-01 -2.13514157e-02 -4.74831238e-02 +1.65706262e-01 +2.32883450e-03 +2.32805335e-03 +2.33004102e-03 +2.32683611e-03 +1.25181898e-01 -1.28188776e-02 -1.54581115e-01 +1.32011667e-01 +2.32870295e-03 -3.23711745e-02 +2.32950086e-03 +8.74480084e-02 +2.33113836e-03 -7.41921067e-02 -2.52502374e-02 -9.48193893e-02 -1.70402944e-01 -7.41925687e-02 -7.41925985e-02 -7.41922036e-02 -7.41920248e-02 -7.41930306e-02 -3.94943217e-03 +4.05620784e-01 -7.41939470e-02 +1.66446399e-02 +3.98382219e-03 -7.41923228e-02 -7.41930753e-02 -7.41942823e-02 -7.41926506e-02 +5.85739166e-02 +5.25235772e-01 -2.43556172e-01 -1.07404813e-01 -7.41924867e-02 -7.41919652e-02 -7.41917267e-02 -3.35192144e-01 +3.58759612e-01 -7.97558483e-03 +3.32371779e-02 +1.82942115e-02 -7.41941109e-02 -3.87599468e-02 -7.41950795e-02 -7.41918311e-02 -7.41939843e-02 -7.41930157e-02 +1.15334019e-01 +2.58667003e-02 -1.48173809e-01 -1.20942920e-01 -1.05950907e-02 -2.60685999e-02 -7.41933808e-02 -7.41926134e-02 -7.41944015e-02 -7.41915405e-02 -3.24709445e-01 -3.17990147e-02 +1.43421113e-01 -5.47193699e-02 -7.41932169e-02 +1.44899329e-02 -7.41939247e-02 +1.00319564e-01 -7.41953626e-02 -1.57883838e-02 -5.48244640e-02 -5.75453751e-02 -4.64085527e-02 -1.57897230e-02 -1.57898031e-02 -1.57887898e-02 -1.57882329e-02 -1.57909840e-02 +9.12473574e-02 -2.55931318e-01 -1.57935601e-02 -6.39260262e-02 -5.15952706e-02 -1.57890655e-02 -1.57910548e-02 -1.57943852e-02 -1.57899875e-02 -1.60032213e-01 -1.86456330e-02 +2.77989693e-02 +1.28401816e-01 -1.57895181e-02 -1.57880038e-02 -1.57873370e-02 -3.08250226e-02 -6.52876198e-02 +3.14250626e-02 -5.56925498e-02 +2.90938824e-01 -1.57939289e-02 +1.60545453e-01 -1.57963671e-02 -1.57876089e-02 -1.57936141e-02 -1.57909933e-02 -2.85350472e-01 -9.09253806e-02 +2.30887324e-01 -1.32832453e-01 +5.78798391e-02 -2.55148083e-01 -1.57917608e-02 -1.57898460e-02 -1.57947280e-02 -1.57868601e-02 -1.83342978e-01 +4.67748463e-01 +8.70719180e-03 -5.56673259e-02 -1.57914180e-02 -1.65101185e-01 -1.57934260e-02 -9.83592793e-02 -1.57973766e-02 -9.22458805e-03 -1.04410267e-02 +9.38532054e-02 +1.52650520e-01 -9.22528375e-03 -9.22532473e-03 -9.22479574e-03 -9.22451820e-03 -9.22596920e-03 +3.06905396e-02 -1.78833655e-03 -9.22736619e-03 -3.18287373e-01 +1.62412912e-01 -9.22493730e-03 -9.22601763e-03 -9.22783464e-03 -9.22541413e-03 +2.06451714e-02 -3.89181264e-02 -8.27721059e-02 +1.59492701e-01 -9.22517292e-03 -9.22437292e-03 -9.22403205e-03 +1.01967091e-02 -3.40601839e-02 -2.02452257e-01 -1.35372773e-01 -3.04477252e-02 -9.22758505e-03 +8.61107782e-02 -9.22894571e-03 -9.22417082e-03 -9.22740065e-03 -9.22597852e-03 +3.05134105e-03 +1.11081256e-02 +1.42307043e-01 -1.72110405e-02 -5.35198376e-02 -6.71746284e-02 -9.22641065e-03 -9.22533311e-03 -9.22803115e-03 -9.22376290e-03 -6.38320148e-02 +9.64217260e-02 -2.33401824e-02 -4.34629858e-01 -9.22620483e-03 -1.91006288e-02 -9.22730286e-03 +9.15216841e-03 -9.22946073e-03 +4.92047518e-03 +9.20134503e-03 -4.91746850e-02 +1.02697834e-01 +4.91947029e-03 +4.91940789e-03 +4.92015807e-03 +4.92057391e-03 +4.91847936e-03 -2.35882908e-01 +6.15002587e-02 +4.91650822e-03 -1.93672419e-01 -2.43962899e-01 +4.91995830e-03 +4.91842115e-03 +4.91585489e-03 +4.91923606e-03 -9.32846814e-02 -1.19541332e-01 -1.60602517e-02 +9.42457169e-02 +4.91961045e-03 +4.92074387e-03 +4.92127007e-03 +4.74824607e-02 +3.12430207e-02 -1.12547129e-01 +3.28153633e-02 -1.52296290e-01 +4.91622230e-03 +1.32031128e-01 +4.91432147e-03 +4.92102932e-03 +4.91646584e-03 +4.91847470e-03 -6.26003668e-02 -6.97967485e-02 -7.65776262e-02 -5.29891737e-02 +3.30030382e-01 +3.89937103e-01 +4.91786841e-03 +4.91937948e-03 +4.91556292e-03 +4.92163468e-03 +4.34211083e-02 -7.78721496e-02 -2.44331416e-02 +1.26489565e-01 +4.91812918e-03 -4.42912653e-02 +4.91660740e-03 +6.75222054e-02 +4.91352892e-03 +2.22969018e-02 +1.48184667e-03 -2.09361091e-02 +1.03977144e-01 +2.22962908e-02 +2.22962536e-02 +2.22966988e-02 +2.22969484e-02 +2.22957730e-02 -3.84467542e-02 -2.78883100e-01 +2.22946145e-02 +1.46967500e-01 +3.12760174e-01 +2.22966000e-02 +2.22957376e-02 +2.22942345e-02 +2.22961791e-02 +1.43248692e-01 -8.99930596e-02 +5.92894889e-02 -3.09078842e-01 +2.22963747e-02 +2.22970489e-02 +2.22973302e-02 +4.89072874e-02 +4.32414040e-02 +3.02186478e-02 +7.74795339e-02 -2.42416248e-01 +2.22944189e-02 +5.65050654e-02 +2.22933609e-02 +2.22972054e-02 +2.22945940e-02 +2.22957637e-02 -8.79597478e-03 +4.90258746e-02 +7.39245415e-02 +3.31239589e-02 +1.18639514e-01 -3.41310352e-01 +2.22953912e-02 +2.22962350e-02 +2.22940929e-02 +2.22975556e-02 +9.02489200e-02 +5.59634119e-02 -2.03690771e-02 +1.17212385e-01 +2.22955551e-02 +1.40214683e-02 +2.22946741e-02 +9.97838378e-02 +2.22928990e-02 -9.55044851e-02 -1.18656665e-01 -8.43921676e-02 -1.84079017e-02 -9.55056921e-02 -9.55057815e-02 -9.55048800e-02 -9.55043584e-02 -9.55067724e-02 -3.03731710e-02 +2.46818393e-01 -9.55090448e-02 +1.74830958e-01 -9.72987413e-02 -9.55051184e-02 -9.55068395e-02 -9.55098122e-02 -9.55059305e-02 -1.16763368e-01 +1.55866444e-01 +3.09781700e-01 -3.74262989e-01 -9.55055654e-02 -9.55041423e-02 -9.55035463e-02 -5.36768138e-02 -1.86773732e-01 -5.99055402e-02 -4.94215861e-02 +2.88295560e-02 -9.55093652e-02 -5.13218381e-02 -9.55115110e-02 -9.55037922e-02 -9.55090970e-02 -9.55067798e-02 +5.33485822e-02 +4.44105966e-03 -1.23777188e-01 -5.65031432e-02 +1.63704008e-01 -1.68504089e-01 -9.55074728e-02 -9.55058038e-02 -9.55101326e-02 -9.55031067e-02 +1.00536440e-02 -4.48316187e-02 -4.43419330e-02 -5.12504056e-02 -9.55071598e-02 -4.13843170e-02 -9.55089107e-02 -4.62122038e-02 -9.55124274e-02 +5.56564853e-02 +9.42925587e-02 -1.26610659e-02 -4.21761513e-01 +5.56573644e-02 +5.56574017e-02 +5.56567498e-02 +5.56563772e-02 +5.56582324e-02 +1.31296024e-01 -2.30413545e-02 +5.56600727e-02 +3.12195867e-02 +1.18573569e-01 +5.56569099e-02 +5.56583218e-02 +5.56606241e-02 +5.56575246e-02 +9.83034745e-02 +1.00863509e-01 +8.29759985e-02 +1.06783435e-01 +5.56572191e-02 +5.56561835e-02 +5.56557178e-02 +3.86207141e-02 +4.28293236e-02 +1.37139097e-01 +3.81892845e-02 +2.89326012e-02 +5.56603074e-02 +2.02271983e-01 +5.56620024e-02 +5.56559525e-02 +5.56601249e-02 +5.56582436e-02 -1.60883646e-02 +3.88952121e-02 -9.26171020e-02 +2.64812876e-02 +1.00820020e-01 +2.12892324e-01 +5.56588061e-02 +5.56574352e-02 +5.56608737e-02 +5.56553379e-02 +1.06564291e-01 -1.08616598e-01 +6.31664991e-02 +6.10703938e-02 +5.56585602e-02 +5.83351254e-02 +5.56599759e-02 +8.23965967e-02 +5.56626953e-02 -2.19312944e-02 +2.37600831e-03 -2.26606205e-02 +5.09915827e-03 -2.19322536e-02 -2.19323356e-02 -2.19315793e-02 -2.19311845e-02 -2.19331440e-02 +8.54249746e-02 +5.82236191e-03 -2.19350681e-02 +8.84454474e-02 -8.96339770e-03 -2.19317917e-02 -2.19331905e-02 -2.19356865e-02 -2.19324585e-02 +4.00367118e-02 -3.34135622e-01 +1.50350267e-02 +1.76635936e-01 -2.19321046e-02 -2.19310019e-02 -2.19305176e-02 +5.84329739e-02 -4.16849852e-02 +2.31771126e-01 +1.04611084e-01 -5.08335941e-02 -2.19353512e-02 +1.06022730e-01 -2.19371878e-02 -2.19307132e-02 -2.19351109e-02 -2.19331589e-02 +2.38379538e-02 +3.77483368e-02 +4.66281213e-02 -1.59357004e-02 +1.28191337e-01 +4.45207059e-02 -2.19337530e-02 -2.19323561e-02 -2.19359472e-02 -2.19301824e-02 -2.69713048e-02 -4.01455373e-01 +8.32786784e-02 -3.92905295e-01 -2.19334904e-02 -2.07635283e-01 -2.19349731e-02 +2.56330281e-01 -2.19378974e-02 -4.00945591e-03 -2.37545669e-02 +2.39170250e-02 -1.14677090e-03 -4.00933111e-03 -4.00933390e-03 -4.00943961e-03 -4.00947453e-03 -4.00919514e-03 -9.19908434e-02 -9.29156840e-02 -4.00889479e-03 +3.07225389e-03 -3.00733805e-01 -4.00940143e-03 -4.00918210e-03 -4.00881656e-03 -4.00931900e-03 +6.42440394e-02 -2.17004884e-02 +1.00899689e-01 +3.28595519e-01 -4.00936138e-03 -4.00950573e-03 -4.00957791e-03 +3.83535051e-03 +4.80558127e-02 +5.68277761e-02 -4.83751623e-03 +2.82980204e-02 -4.00885940e-03 -5.60921133e-02 -4.00859257e-03 -4.00954997e-03 -4.00888873e-03 -4.00918396e-03 +6.28365800e-02 +9.25537497e-02 +1.26311451e-01 +5.51338159e-02 -9.30887759e-02 -4.50146556e-01 -4.00910433e-03 -4.00933204e-03 -4.00876673e-03 -4.00964636e-03 +8.46359581e-02 -2.06862986e-02 +7.88298473e-02 +1.77276209e-01 -4.00914066e-03 -1.74380958e-01 -4.00891853e-03 -6.68297857e-02 -4.00846358e-03 -1.07118279e-01 -4.56790961e-02 -3.86326648e-02 +1.59021229e-01 -1.07117571e-01 -1.07117526e-01 -1.07118055e-01 -1.07118405e-01 -1.07116923e-01 -9.85803381e-02 -8.09417069e-02 -1.07115410e-01 +9.20067653e-02 +5.11548877e-01 -1.07117914e-01 -1.07116871e-01 -1.07114941e-01 -1.07117467e-01 -6.35234937e-02 -7.96453580e-02 -7.98327252e-02 -2.56748497e-01 -1.07117675e-01 -1.07118584e-01 -1.07118934e-01 -1.79049700e-01 -3.60233746e-02 -1.23027548e-01 -1.69427469e-01 -4.19417545e-02 -1.07115157e-01 +6.41282573e-02 -1.07113719e-01 -1.07118778e-01 -1.07115388e-01 -1.07116893e-01 -1.74455062e-01 +3.42716388e-02 +3.54430825e-02 -2.10661863e-04 -8.72438028e-02 +1.79843083e-01 -1.07116431e-01 -1.07117526e-01 -1.07114673e-01 -1.07119247e-01 -2.93790132e-01 +1.90267097e-02 -1.10574096e-01 +2.04522931e-03 -1.07116625e-01 -1.24411523e-01 -1.07115462e-01 -6.57004714e-02 -1.07113145e-01 -2.55766828e-02 +2.23622341e-02 -7.70185664e-02 -9.66682360e-02 -2.55761947e-02 -2.55761631e-02 -2.55765375e-02 -2.55767182e-02 -2.55757831e-02 -4.60469797e-02 +9.99651849e-02 -2.55748611e-02 +4.81097996e-02 +3.27868938e-01 -2.55764108e-02 -2.55757552e-02 -2.55745593e-02 -2.55761109e-02 -2.50122473e-02 +3.09947114e-02 +2.95014177e-02 -6.80867434e-02 -2.55762544e-02 -2.55767908e-02 -2.55770348e-02 +3.37263918e-03 -6.37327209e-02 -7.08186487e-03 +2.12321542e-02 -2.15481576e-02 -2.55747102e-02 -1.20260380e-01 -2.55738255e-02 -2.55769361e-02 -2.55748387e-02 -2.55757775e-02 -5.99464141e-02 +1.77933034e-02 -1.83255494e-01 -5.75043038e-02 -3.86397094e-01 +2.46888682e-01 -2.55754944e-02 -2.55761389e-02 -2.55744159e-02 -2.55771894e-02 +5.48038334e-02 -2.13277146e-01 +2.48996783e-02 +6.21681958e-02 -2.55756155e-02 +3.79700400e-02 -2.55748928e-02 +3.49385627e-02 -2.55734846e-02 +7.73640396e-03 +6.89038634e-02 -5.27260005e-02 -1.97847430e-02 +7.73689989e-03 +7.73694878e-03 +7.73655111e-03 +7.73633411e-03 +7.73742329e-03 -1.23699687e-01 -1.47269368e-01 +7.73846544e-03 +1.91155579e-02 +3.52776349e-01 +7.73666007e-03 +7.73744937e-03 +7.73878070e-03 +7.73701211e-03 -1.06918246e-01 +2.90358663e-01 -1.64272845e-01 -1.86704274e-03 +7.73684960e-03 +7.73625262e-03 +7.73600582e-03 +1.62946421e-03 +1.71488523e-01 -1.71447229e-02 +9.27048400e-02 -7.87462518e-02 +7.73861120e-03 +2.25011453e-01 +7.73959886e-03 +7.73609104e-03 +7.73849152e-03 +7.73743447e-03 -2.08358257e-03 -1.84075404e-02 -7.48393536e-02 -2.49292418e-01 -6.40532151e-02 +5.27381748e-02 +7.73774646e-03 +7.73697020e-03 +7.73892552e-03 +7.73578929e-03 -3.13313343e-02 -9.37118456e-02 -1.47346631e-02 -1.75013199e-01 +7.73759931e-03 -7.72882253e-02 +7.73841981e-03 +9.26454291e-02 +7.73999561e-03 -5.97659126e-02 -3.61160934e-02 -5.81683964e-02 -1.22605793e-01 -5.97664565e-02 -5.97664975e-02 -5.97660989e-02 -5.97658008e-02 -5.97670786e-02 -6.70558512e-02 -2.08654571e-02 -5.97681738e-02 +7.76475817e-02 +1.92629486e-01 -5.97662106e-02 -5.97671010e-02 -5.97685613e-02 -5.97665906e-02 +7.38217980e-02 +1.02437668e-01 -2.00111970e-01 -2.03415588e-01 -5.97663857e-02 -5.97657263e-02 -5.97654283e-02 +7.63923377e-02 -3.41464244e-02 +1.63561082e-03 +4.65470664e-02 +3.16792130e-02 -5.97683787e-02 +6.41090199e-02 -5.97694032e-02 -5.97655699e-02 -5.97681999e-02 -5.97670786e-02 -1.46001548e-01 -1.27412826e-02 +2.62956142e-01 -6.29481822e-02 -1.42173365e-01 -2.19344646e-01 -5.97674213e-02 -5.97664900e-02 -5.97686917e-02 -5.97651936e-02 -6.24232180e-02 -1.68032050e-01 -1.44894883e-01 -1.01692900e-01 -5.97672202e-02 +3.87874362e-03 -5.97681329e-02 -1.27871722e-01 -5.97698577e-02 -5.91320172e-02 -1.06489256e-01 -7.62521550e-02 +3.37318540e-01 -5.91318943e-02 -5.91318645e-02 -5.91319874e-02 -5.91320097e-02 -5.91316782e-02 +5.41545264e-02 +9.11623687e-02 -5.91313168e-02 -1.48642175e-02 -1.87912822e-01 -5.91319688e-02 -5.91316707e-02 -5.91312349e-02 -5.91318570e-02 +2.69318819e-02 +3.96774113e-02 +3.16355556e-01 +5.91572709e-02 -5.91318980e-02 -5.91320582e-02 -5.91321290e-02 +1.31777124e-02 -1.98504422e-02 +1.11209983e-02 -1.74461156e-01 +9.31855943e-03 -5.91312535e-02 -5.04353344e-02 -5.91309778e-02 -5.91320917e-02 -5.91313019e-02 -5.91316894e-02 -1.70132771e-01 -4.07522218e-03 -1.42937377e-01 -1.02630995e-01 -7.11278617e-02 +2.15494201e-01 -5.91315851e-02 -5.91318607e-02 -5.91311939e-02 -5.91322184e-02 -4.57252041e-02 +1.12395622e-01 -1.10650569e-01 -2.71405131e-01 -5.91316186e-02 -7.31900409e-02 -5.91313392e-02 -8.73103216e-02 -5.91308437e-02 +1.81146879e-02 +3.26328864e-03 -6.50213659e-02 -3.96189690e-01 +1.81143228e-02 +1.81142986e-02 +1.81145743e-02 +1.81147326e-02 +1.81139521e-02 +2.63834023e-03 +4.72813984e-03 +1.81131810e-02 +6.70745596e-02 -1.03215560e-01 +1.81144997e-02 +1.81139391e-02 +1.81129333e-02 +1.81142427e-02 -2.12402027e-02 +4.80024181e-02 +7.99676105e-02 -1.67348057e-01 +1.81143843e-02 +1.81148015e-02 +1.81150176e-02 +6.62254123e-03 -5.75623699e-02 +1.31307781e-01 -4.15707231e-02 +3.86875756e-02 +1.81130655e-02 +1.35926604e-01 +1.81123726e-02 +1.81149300e-02 +1.81131624e-02 +1.81139428e-02 +1.08328931e-01 -5.04449420e-02 -4.32504863e-02 -3.85137312e-02 +1.68575957e-01 +3.87463152e-01 +1.81137472e-02 +1.81142837e-02 +1.81128141e-02 +1.81151368e-02 +9.06506926e-02 +7.87592083e-02 -1.00218086e-02 +1.06328048e-01 +1.81138497e-02 -1.43288806e-01 +1.81132238e-02 -3.93068306e-02 +1.81120764e-02 +2.89412728e-03 +1.94039848e-02 -1.56666726e-01 -2.77193010e-01 +2.89385836e-03 +2.89383694e-03 +2.89404206e-03 +2.89416360e-03 +2.89356289e-03 +8.38654563e-02 +1.75259143e-01 +2.89299013e-03 +1.63712576e-01 +3.12913328e-01 +2.89400038e-03 +2.89354660e-03 +2.89279805e-03 +2.89380038e-03 +1.41412616e-02 -2.21487746e-01 +1.09862216e-01 -1.67662039e-01 +2.89389491e-03 +2.89421482e-03 +2.89436616e-03 -1.31599177e-02 +8.77545401e-02 +6.07200386e-03 -8.86276215e-02 +7.74547532e-02 +2.89291050e-03 +8.91968794e-03 +2.89237942e-03 +2.89431773e-03 +2.89298315e-03 +2.89355800e-03 +4.44714800e-02 -1.13772981e-01 +5.58110652e-03 +1.06254421e-01 -6.85349703e-02 -3.88527751e-01 +2.89339502e-03 +2.89382227e-03 +2.89273844e-03 +2.89450097e-03 -4.52782474e-02 +5.95792755e-02 +6.37083873e-02 +4.65095192e-02 +2.89346371e-03 -1.81263208e-03 +2.89302296e-03 -4.26979288e-02 +2.89214985e-03 +5.11375666e-02 +2.31115241e-02 +5.19042239e-02 +1.28664196e-01 +5.11377044e-02 +5.11377193e-02 +5.11376187e-02 +5.11375591e-02 +5.11378199e-02 -1.21433446e-02 -4.91656885e-02 +5.11380844e-02 -2.88793862e-01 +1.25192508e-01 +5.11376299e-02 +5.11378385e-02 +5.11381887e-02 +5.11377342e-02 -2.70106077e-01 -3.79780978e-02 +1.07579559e-01 +2.53759921e-01 +5.11376746e-02 +5.11375330e-02 +5.11374883e-02 -3.24008800e-02 +8.16864297e-02 -1.37816966e-01 -1.60941884e-01 -1.95677370e-01 +5.11381179e-02 +2.35407427e-01 +5.11384495e-02 +5.11374883e-02 +5.11380881e-02 +5.11378273e-02 -7.36702234e-02 -1.09145813e-01 -1.05194382e-01 +7.30299726e-02 +1.95615236e-02 +1.61153942e-01 +5.11378981e-02 +5.11377007e-02 +5.11382073e-02 +5.11374287e-02 -2.57449657e-01 -1.84029907e-01 -5.82065620e-02 +6.99145868e-02 +5.11378646e-02 -2.60776486e-02 +5.11380807e-02 +3.62291234e-03 +5.11385500e-02 +3.66833387e-03 +1.13214888e-02 +3.80334109e-02 +1.60889238e-01 +3.66765005e-03 +3.66759556e-03 +3.66811524e-03 +3.66840442e-03 +3.66699020e-03 +9.57280844e-02 +3.39325927e-02 +3.66565818e-03 +1.65669277e-01 -1.43474832e-01 +3.66797461e-03 +3.66696203e-03 +3.66520579e-03 +3.66749708e-03 +1.74799621e-01 -1.57475248e-02 -1.72856390e-01 -1.07608996e-01 +3.66774132e-03 +3.66852200e-03 +3.66887334e-03 -1.56586587e-01 -5.54435421e-04 -6.68929890e-04 -3.31861246e-03 -2.79135313e-02 +3.66544048e-03 -1.58443898e-01 +3.66419461e-03 +3.66871292e-03 +3.66562512e-03 +3.66698718e-03 +4.03404459e-02 -3.57505828e-02 -6.62093237e-02 -5.99946268e-02 -6.73987716e-02 -5.77641167e-02 +3.66660883e-03 +3.66756530e-03 +3.66503256e-03 +3.66911804e-03 +4.21528034e-02 -1.59260005e-01 -4.26037150e-05 +5.52922904e-01 +3.66678881e-03 +1.55482799e-01 +3.66571802e-03 -1.86808780e-02 +3.66364070e-03 +3.73996235e-02 -2.72194995e-03 +3.95817943e-02 +4.93378602e-02 +3.74003313e-02 +3.74003761e-02 +3.73998396e-02 +3.73995490e-02 +3.74009572e-02 -1.05888821e-01 +1.81645349e-01 +3.74023281e-02 +2.78016012e-02 -1.47856846e-01 +3.73999961e-02 +3.74010056e-02 +3.74027826e-02 +3.74004692e-02 +8.87093786e-03 -6.06856011e-02 -6.10519111e-01 +9.22283977e-02 +3.74002159e-02 +3.73994000e-02 +3.73990498e-02 +1.07926823e-01 +2.35993452e-02 +4.58150916e-02 +3.23638134e-02 +4.26200405e-02 +3.74025144e-02 +1.53412357e-01 +3.74038890e-02 +3.73992063e-02 +3.74023505e-02 +3.74009684e-02 -1.08210348e-01 -2.79425015e-03 -4.02570143e-02 +1.43227279e-01 -1.32081404e-01 +2.24685922e-01 +3.74013484e-02 +3.74003910e-02 +3.74029912e-02 +3.73987965e-02 -1.95502400e-01 -2.76634991e-01 -1.39965098e-02 -7.75279701e-02 +3.74011956e-02 +1.05510980e-01 +3.74022499e-02 +1.23142108e-01 +3.74043882e-02 +8.09636265e-02 +8.99991170e-02 -5.16209245e-01 -2.33810488e-02 +8.09643269e-02 +8.09643865e-02 +8.09638500e-02 +8.09635669e-02 +8.09651017e-02 +1.46341339e-01 -2.71362662e-02 +8.09664801e-02 -8.16453472e-02 -2.56941002e-02 +8.09640214e-02 +8.09651762e-02 +8.09669793e-02 +8.09645206e-02 -2.35450745e-01 -3.29400375e-02 -1.34903520e-01 +1.69313475e-01 +8.09642002e-02 +8.09634104e-02 +8.09630752e-02 -2.07589790e-02 +5.29662371e-02 +1.89990979e-02 +5.19261770e-02 +1.32455826e-01 +8.09666738e-02 +6.55703619e-02 +8.09681341e-02 +8.09632093e-02 +8.09664950e-02 +8.09651166e-02 +8.01769346e-02 +1.85627807e-02 +1.42779589e-01 +1.61345422e-01 -1.04873478e-01 +4.05827165e-02 +8.09655637e-02 +8.09644163e-02 +8.09672102e-02 +8.09627771e-02 +1.49340317e-01 +1.03404783e-01 +1.17066642e-02 +1.84213936e-01 +8.09653997e-02 +7.52600655e-02 +8.09663907e-02 +1.05547242e-01 +8.09686556e-02 -4.22003940e-02 -7.28183463e-02 -2.85328906e-02 +3.84491235e-01 -4.22005318e-02 -4.22005504e-02 -4.22004499e-02 -4.22003753e-02 -4.22006808e-02 -8.16030577e-02 -1.06608376e-01 -4.22010086e-02 -1.28785744e-02 -2.42178112e-01 -4.22004797e-02 -4.22007032e-02 -4.22010794e-02 -4.22005653e-02 +3.95837948e-02 +4.74363789e-02 +3.55388597e-03 -3.04282419e-02 -4.22005244e-02 -4.22003232e-02 -4.22002673e-02 -1.08178250e-01 -2.46709008e-02 -2.35925168e-02 +4.82227886e-04 -5.24763428e-02 -4.22010571e-02 -1.95927039e-01 -4.22013663e-02 -4.22003195e-02 -4.22010124e-02 -4.22006920e-02 -9.91479456e-02 +8.80672857e-02 -1.19296722e-01 +1.78860888e-01 -1.57415658e-01 +3.23141754e-01 -4.22007926e-02 -4.22005728e-02 -4.22011502e-02 -4.22002561e-02 +8.91761482e-02 +9.51106772e-02 -1.81815661e-02 -1.39381334e-01 -4.22007702e-02 -6.04919456e-02 -4.22009863e-02 -4.65178080e-02 -4.22014482e-02 +1.37423929e-02 -7.27246574e-04 -1.39002269e-02 -1.56084418e-01 +1.37422113e-02 +1.37421861e-02 +1.37423230e-02 +1.37424041e-02 +1.37420241e-02 +6.03113417e-03 -1.34622052e-01 +1.37416013e-02 +4.76373397e-02 -7.60506019e-02 +1.37422839e-02 +1.37420055e-02 +1.37414588e-02 +1.37421610e-02 +1.75561443e-01 +6.30297512e-02 +3.79337281e-01 +1.27126619e-01 +1.37422318e-02 +1.37424404e-02 +1.37425615e-02 +2.16036383e-02 -2.26720795e-03 -2.03668699e-01 +1.62783831e-01 +7.43985921e-02 +1.37415361e-02 +2.62163907e-01 +1.37411403e-02 +1.37425233e-02 +1.37415947e-02 +1.37420250e-02 +1.10608106e-02 +1.06356442e-01 -1.03039645e-01 +8.74203518e-02 -2.30419859e-01 -2.03458548e-01 +1.37419049e-02 +1.37421843e-02 +1.37414113e-02 +1.37426415e-02 -1.54150933e-01 -2.78289635e-02 -1.02860227e-01 +3.65619883e-02 +1.37419561e-02 -1.32494509e-01 +1.37416236e-02 +1.08027659e-01 +1.37409829e-02 -9.78204701e-03 -7.95338228e-02 -1.53702289e-01 -1.05890617e-01 -9.78222117e-03 -9.78223328e-03 -9.78211220e-03 -9.78203584e-03 -9.78240650e-03 -1.18278429e-01 -1.65801853e-01 -9.78274178e-03 -2.04281166e-01 +3.56028348e-01 -9.78212059e-03 -9.78242792e-03 -9.78285354e-03 -9.78225749e-03 +4.81793806e-02 +1.38239235e-01 -7.29694963e-02 -1.81192711e-01 -9.78222117e-03 -9.78199579e-03 -9.78189241e-03 +8.92261639e-02 +2.08153322e-01 +1.21204339e-01 +5.30329309e-02 +1.08331561e-01 -9.78279673e-03 +7.73570612e-02 -9.78311058e-03 -9.78191756e-03 -9.78274364e-03 -9.78240091e-03 +5.58222085e-03 -3.63016538e-02 -8.46961662e-02 -8.46707225e-02 -3.04626091e-03 +1.08727060e-01 -9.78251174e-03 -9.78223234e-03 -9.78289731e-03 -9.78181604e-03 +6.73089847e-02 +1.40894726e-01 -3.00667919e-02 +1.61118414e-02 -9.78245400e-03 +3.38869006e-03 -9.78272967e-03 -1.30079851e-01 -9.78326891e-03 -3.77273895e-02 +1.95668954e-02 -9.05568376e-02 +1.91177148e-02 -3.77285071e-02 -3.77285667e-02 -3.77277322e-02 -3.77272889e-02 -3.77296284e-02 -4.69804406e-02 -7.23654851e-02 -3.77318747e-02 +1.55373942e-02 -1.80260874e-02 -3.77279669e-02 -3.77296880e-02 -3.77326123e-02 -3.77287418e-02 -5.09681143e-02 +6.69080734e-01 -1.61064908e-01 +9.72310379e-02 -3.77283208e-02 -3.77270728e-02 -3.77264693e-02 -7.73804188e-02 -1.91503223e-02 -1.18529210e-02 -1.38131946e-01 +8.14057142e-03 -3.77321951e-02 -6.69224262e-02 -3.77343856e-02 -3.77267301e-02 -3.77319194e-02 -3.77296470e-02 -5.93211316e-02 +6.88531343e-03 +2.05787808e-01 +7.27165714e-02 -4.48732786e-02 +1.11505732e-01 -3.77303064e-02 -3.77286151e-02 -3.77329029e-02 -3.77260670e-02 -8.46610069e-02 -4.73961309e-02 -1.07637830e-01 +5.67641621e-03 -3.77300307e-02 -3.27238478e-02 -3.77317704e-02 -1.08352453e-01 -3.77352536e-02 -4.06773165e-02 +1.24113727e-02 -1.68102924e-02 -1.62915383e-02 -4.06773835e-02 -4.06773835e-02 -4.06773277e-02 -4.06773016e-02 -4.06774096e-02 +1.16846617e-02 +4.62822318e-01 -4.06776555e-02 -1.43702522e-01 +3.73245738e-02 -4.06773500e-02 -4.06774394e-02 -4.06776853e-02 -4.06774245e-02 +2.11602077e-02 -1.61480904e-02 -8.31803903e-02 -1.22827441e-01 -4.06773724e-02 -4.06772718e-02 -4.06772718e-02 -5.59242778e-02 +6.93601817e-02 -2.22583581e-02 -9.77731422e-02 +1.63443759e-02 -4.06776518e-02 +1.13364281e-02 -4.06777710e-02 -4.06772494e-02 -4.06776518e-02 -4.06774320e-02 +5.50409377e-01 +7.59007856e-02 -5.09208366e-02 +2.06934661e-02 +1.19197629e-01 -3.02190869e-03 -4.06774879e-02 -4.06773947e-02 -4.06777337e-02 -4.06772457e-02 -5.75974807e-02 -1.02740191e-01 -1.71616346e-01 +8.20271149e-02 -4.06774580e-02 -8.30935836e-02 -4.06776555e-02 -6.09695986e-02 -4.06778380e-02 -1.05185963e-01 -4.43013161e-02 -6.49165437e-02 +4.06659216e-01 -1.05186671e-01 -1.05186731e-01 -1.05186187e-01 -1.05185874e-01 -1.05187394e-01 -2.37468258e-01 -8.55785757e-02 -1.05188832e-01 -1.33524518e-02 +8.32522139e-02 -1.05186351e-01 -1.05187453e-01 -1.05189301e-01 -1.05186842e-01 +1.62822437e-02 -1.67937890e-01 +9.70112309e-02 +3.60920668e-01 -1.05186582e-01 -1.05185755e-01 -1.05185397e-01 -5.33555001e-02 -2.88478415e-02 -6.44653291e-02 -1.77180573e-01 -1.49501964e-01 -1.05189063e-01 +2.48798683e-01 -1.05190486e-01 -1.05185546e-01 -1.05188861e-01 -1.05187431e-01 +2.02136356e-02 +4.14305516e-02 +4.72669788e-02 -1.46161675e-01 +6.40591793e-03 +9.38726366e-02 -1.05187804e-01 -1.05186738e-01 -1.05189525e-01 -1.05185099e-01 -2.60400981e-01 -1.37634218e-01 -1.35767698e-01 -1.05976745e-01 -1.05187669e-01 -2.06433401e-01 -1.05188742e-01 +7.41112186e-03 -1.05191045e-01 -5.00673018e-02 -8.93013552e-02 -7.91772977e-02 +3.62930894e-01 -5.00672795e-02 -5.00672869e-02 -5.00673130e-02 -5.00672758e-02 -5.00673093e-02 +7.97191858e-02 +1.01619065e-01 -5.00673391e-02 -2.51821190e-01 +2.55623050e-02 -5.00673167e-02 -5.00672869e-02 -5.00673391e-02 -5.00672385e-02 -1.39515400e-01 +4.96028438e-02 -3.59314159e-02 +8.04554895e-02 -5.00672683e-02 -5.00672497e-02 -5.00672907e-02 -1.18095204e-01 -4.57245968e-02 -5.21776825e-02 +8.32120031e-02 +6.86477646e-02 -5.00673279e-02 +7.66307786e-02 -5.00673689e-02 -5.00672832e-02 -5.00673205e-02 -5.00673056e-02 -2.55847216e-01 -2.05468293e-02 +1.43906757e-01 -2.28659824e-01 +7.50363767e-02 -1.04058161e-01 -5.00673391e-02 -5.00672869e-02 -5.00673279e-02 -5.00672981e-02 -3.62488300e-01 +7.88511038e-02 -1.50789684e-02 -3.74322794e-02 -5.00673279e-02 -1.07346952e-01 -5.00673279e-02 -1.13027237e-01 -5.00673950e-02 -5.29117361e-02 +2.23014969e-02 +5.05828811e-03 -1.24985151e-01 -5.29129319e-02 -5.29130176e-02 -5.29121347e-02 -5.29115908e-02 -5.29140830e-02 -4.39951330e-01 +1.99741088e-02 -5.29164150e-02 +8.12871233e-02 +5.54884784e-02 -5.29123507e-02 -5.29141650e-02 -5.29171303e-02 -5.29131815e-02 +5.61066270e-02 -5.80648854e-02 +2.47038111e-01 +2.00710610e-01 -5.29127605e-02 -5.29113971e-02 -5.29108346e-02 -3.67716737e-02 -1.27777696e-01 +1.60858944e-01 -1.78956706e-02 -8.55552033e-02 -5.29167056e-02 -1.56785503e-01 -5.29188886e-02 -5.29110879e-02 -5.29164486e-02 -5.29141091e-02 -6.90378919e-02 +1.79350525e-02 -5.89842871e-02 +2.38793809e-02 -2.95800269e-02 +4.76319194e-01 -5.29147945e-02 -5.29130474e-02 -5.29174358e-02 -5.29103838e-02 -1.05545029e-01 -3.82377882e-03 +1.24976195e-01 +5.62019795e-02 -5.29144742e-02 -1.03045262e-01 -5.29162996e-02 -7.04465881e-02 -5.29198423e-02 +1.18192763e-03 +4.13480848e-02 +2.07417868e-02 -1.68335602e-01 +1.18083169e-03 +1.18074392e-03 +1.18158571e-03 +1.18203415e-03 +1.17974984e-03 +3.86328925e-03 +2.18929738e-01 +1.17756240e-03 -4.91055064e-02 -2.00548559e-01 +1.18135801e-03 +1.17968186e-03 +1.17685460e-03 +1.18058652e-03 +1.10072838e-02 +1.13991678e-01 -2.65266057e-02 -4.66182381e-01 +1.18096755e-03 +1.18225010e-03 +1.18281285e-03 +9.89294983e-03 -9.74064693e-03 -8.39832649e-02 +1.14157312e-01 +1.61968991e-01 +1.17724005e-03 +3.15723091e-01 +1.17515470e-03 +1.18257327e-03 +1.17750827e-03 +1.17973238e-03 +4.42250259e-02 +1.40115976e-01 +3.59979123e-02 +1.75377876e-01 +9.23218206e-03 +1.41873389e-01 +1.17907906e-03 +1.18071400e-03 +1.17652863e-03 +1.18321774e-03 -1.31019577e-01 -6.64275745e-03 -5.83190732e-02 +1.19862773e-01 +1.17937790e-03 -6.81382716e-02 +1.17767008e-03 +6.30420670e-02 +1.17429788e-03 +2.96886284e-02 +1.22944666e-02 +7.18209594e-02 -2.09749471e-02 +2.96892617e-02 +2.96893138e-02 +2.96888221e-02 +2.96885632e-02 +2.96899229e-02 -1.03775539e-01 +1.00004159e-01 +2.96911951e-02 -1.49600059e-02 +1.63204089e-01 +2.96889395e-02 +2.96899527e-02 +2.96916086e-02 +2.96894126e-02 -8.37177709e-02 -1.25330120e-01 -1.06482834e-01 -1.11702636e-01 +2.96891686e-02 +2.96884552e-02 +2.96881013e-02 +8.90394002e-02 +5.49394488e-02 -1.47175789e-01 +8.29760954e-02 -8.44930038e-02 +2.96913628e-02 +3.08929294e-01 +2.96926480e-02 +2.96882577e-02 +2.96912305e-02 +2.96899248e-02 +1.87894955e-01 -4.52128947e-02 -6.45505637e-02 -1.97781753e-02 +2.06704941e-02 -3.01346809e-01 +2.96902936e-02 +2.96893418e-02 +2.96917669e-02 +2.96878666e-02 -3.78987566e-02 +1.17417701e-01 +4.36645821e-02 +1.21670514e-01 +2.96901539e-02 -6.99653402e-02 +2.96911281e-02 +2.32999586e-02 +2.96931416e-02 +2.80025937e-02 +4.08423766e-02 +1.91101596e-01 -4.59429398e-02 +2.80037690e-02 +2.80038472e-02 +2.80029755e-02 +2.80024428e-02 +2.80048996e-02 +3.48768197e-02 -1.19243138e-01 +2.80072615e-02 +9.37197730e-02 -1.52464449e-01 +2.80032028e-02 +2.80049592e-02 +2.80080251e-02 +2.80040205e-02 +5.90139907e-03 +1.47974700e-01 -6.11976199e-02 -8.52853283e-02 +2.80036181e-02 +2.80022416e-02 +2.80016437e-02 +1.64475944e-02 +4.40787449e-02 -3.57824750e-02 -1.37944713e-01 +1.41084921e-02 +2.80076060e-02 +2.11156175e-01 +2.80098245e-02 +2.80018896e-02 +2.80072950e-02 +2.80049071e-02 -8.16373993e-03 -3.93792875e-02 -1.04039654e-01 -5.99591322e-02 -2.73672640e-01 +1.26381144e-01 +2.80056261e-02 +2.80038808e-02 +2.80083492e-02 +2.80012265e-02 -9.43758059e-03 +4.14084978e-02 +2.93131545e-02 -9.32473019e-02 +2.80052945e-02 -4.17043790e-02 +2.80071497e-02 +8.25974569e-02 +2.80107465e-02 -5.96294478e-02 -2.24349536e-02 -1.63509659e-02 +4.52066995e-02 -5.96289113e-02 -5.96288741e-02 -5.96292764e-02 -5.96295372e-02 -5.96284084e-02 -9.73319914e-03 +1.80957711e+00 -5.96273132e-02 -1.17255092e-01 -6.32746965e-02 -5.96291982e-02 -5.96283898e-02 -5.96269816e-02 -5.96287809e-02 -1.01520762e-01 -1.61734685e-01 +3.25942114e-02 +6.54203445e-02 -5.96289933e-02 -5.96296377e-02 -5.96299022e-02 +1.10546150e-03 +4.65248600e-02 -6.08340763e-02 -9.53108594e-02 -1.44188836e-01 -5.96271753e-02 +2.46870890e-02 -5.96261546e-02 -5.96297942e-02 -5.96273094e-02 -5.96284159e-02 -1.89490169e-01 -5.26080579e-02 -1.79443993e-02 -9.77017451e-03 +8.72965530e-03 -1.87376529e-01 -5.96280694e-02 -5.96288592e-02 -5.96268177e-02 -5.96300848e-02 -1.13284826e-01 +9.13569890e-03 +5.66258803e-02 -1.64321348e-01 -5.96282594e-02 -2.28006423e-01 -5.96273653e-02 -1.44638151e-01 -5.96257038e-02 -1.14218686e-02 +2.60903779e-02 -9.58209578e-03 -2.98514068e-01 -1.14220539e-02 -1.14220632e-02 -1.14219477e-02 -1.14218593e-02 -1.14222299e-02 +8.25103521e-02 +6.35273382e-02 -1.14225587e-02 -1.40998304e-01 +4.53165919e-03 -1.14219729e-02 -1.14222337e-02 -1.14226760e-02 -1.14220828e-02 -3.80945690e-02 -4.52915542e-02 +3.27882022e-02 +3.90842170e-01 -1.14220204e-02 -1.14218295e-02 -1.14217298e-02 +2.59088390e-02 +6.00705519e-02 +1.69266313e-01 +8.72637331e-02 +3.89736332e-02 -1.14226174e-02 +1.63958579e-01 -1.14229564e-02 -1.14217671e-02 -1.14225764e-02 -1.14222355e-02 +2.52652280e-02 -1.05126202e-01 -3.55954356e-02 -7.06928149e-02 -1.38060719e-01 +6.35781139e-02 -1.14223398e-02 -1.14220651e-02 -1.14227151e-02 -1.14216758e-02 -1.22373499e-01 +7.94448256e-02 -1.41883835e-01 +1.92929376e-02 -1.14222867e-02 -1.67507097e-01 -1.14225401e-02 +7.24436864e-02 -1.14230439e-02 -2.78696814e-03 +2.55442094e-02 +9.93544459e-02 +1.46208405e-01 -2.78779468e-03 -2.78784544e-03 -2.78724707e-03 -2.78687128e-03 -2.78858608e-03 -1.34492517e-01 -3.66892442e-02 -2.79023359e-03 +9.27339643e-02 +1.09391034e-01 -2.78739817e-03 -2.78863683e-03 -2.79078726e-03 -2.78795371e-03 -2.97416176e-04 -2.85451710e-02 +5.15655987e-02 +4.81977426e-02 -2.78767850e-03 -2.78672832e-03 -2.78629409e-03 +1.29789636e-01 +9.13429260e-02 +1.01855554e-01 +4.99430038e-02 -2.66380087e-02 -2.79047620e-03 +1.15617424e-01 -2.79204920e-03 -2.78648827e-03 -2.79026199e-03 -2.78859795e-03 +3.75622325e-03 +3.93587314e-02 -9.22055244e-01 -3.96559127e-02 +5.53800762e-02 +1.65530145e-02 -2.78909900e-03 -2.78785988e-03 -2.79098656e-03 -2.78598676e-03 +5.15089147e-02 +7.88652711e-03 +1.33283939e-02 -2.23327443e-01 -2.78887595e-03 +4.28909659e-02 -2.79015000e-03 +1.80319592e-01 -2.79270345e-03 -4.60032225e-02 +2.75681205e-02 +6.05162345e-02 +5.13648018e-02 -4.60042097e-02 -4.60042767e-02 -4.60035428e-02 -4.60031033e-02 -4.60051261e-02 +4.08760309e-02 -2.14689568e-01 -4.60069962e-02 -8.24094098e-03 -2.13474825e-01 -4.60037366e-02 -4.60051894e-02 -4.60076332e-02 -4.60044071e-02 +1.79769963e-01 +5.27441017e-02 +4.02644068e-01 -2.41251104e-02 -4.60040830e-02 -4.60029095e-02 -4.60023805e-02 +1.26839787e-01 +2.03844234e-01 +1.86595097e-01 +9.61959139e-02 +2.35621944e-01 -4.60073017e-02 -4.78896230e-01 -4.60092425e-02 -4.60026227e-02 -4.60070372e-02 -4.60051373e-02 -2.65539080e-01 +7.94044137e-02 -5.33104613e-02 +1.00991897e-01 -1.43325120e-01 -4.10885066e-02 -4.60057296e-02 -4.60042916e-02 -4.60079275e-02 -4.60020266e-02 -5.65635152e-02 +5.94775341e-02 +1.38456807e-01 -2.22688377e-01 -4.60054539e-02 +1.35197610e-01 -4.60068919e-02 +1.35238454e-01 -4.60099615e-02 +1.92957278e-03 +1.67151596e-02 -4.38400060e-02 +2.45105848e-01 +1.93091028e-03 +1.93100912e-03 +1.93001586e-03 +1.92942156e-03 +1.93220365e-03 +1.20016178e-02 +1.66764781e-01 +1.93483906e-03 +7.48438686e-02 -1.12679511e-01 +1.93028653e-03 +1.93227653e-03 +1.93570834e-03 +1.93120947e-03 +1.04642414e-01 -8.16796795e-02 +2.00294666e-02 +2.09345520e-01 +1.93074392e-03 +1.92919595e-03 +1.92849780e-03 -2.09969506e-02 -1.16823755e-01 -1.18837198e-02 +5.45028262e-02 -1.23622887e-01 +1.93522556e-03 +2.46303249e-02 +1.93780137e-03 +1.92880700e-03 +1.93489052e-03 +1.93221529e-03 -7.44060874e-02 -6.65613413e-02 -9.78262424e-02 +1.37828171e-01 -6.28921837e-02 -3.93231183e-01 +1.93303358e-03 +1.93103205e-03 +1.93606399e-03 +1.92799582e-03 -6.55199885e-02 +5.00274263e-02 +7.61693669e-03 -8.98402929e-02 +1.93265814e-03 +5.47416918e-02 +1.93471345e-03 -1.63794681e-01 +1.93883595e-03 +4.98085283e-02 +5.00260033e-02 +4.42370549e-02 -4.97793376e-01 +4.98087853e-02 +4.98087890e-02 +4.98085730e-02 +4.98084687e-02 +4.98090908e-02 +2.12281987e-01 +1.28047571e-01 +4.98096645e-02 +9.11264494e-02 +1.42246321e-01 +4.98086624e-02 +4.98090908e-02 +4.98098694e-02 +4.98088449e-02 +9.55179706e-02 +1.13152400e-01 +1.36757582e-01 -2.25608617e-01 +4.98087667e-02 +4.98083979e-02 +4.98082563e-02 +1.00146726e-01 +2.43869405e-02 -4.67555923e-03 +4.32142206e-02 +1.80643201e-02 +4.98097651e-02 -3.54798168e-01 +4.98103797e-02 +4.98083346e-02 +4.98096868e-02 +4.98090908e-02 +1.15790209e-02 -4.22385037e-02 +8.61213803e-02 +6.74689934e-02 +1.53014719e-01 +5.41682765e-02 +4.98092584e-02 +4.98088114e-02 +4.98099998e-02 +4.98081334e-02 -3.99071276e-02 -4.92475703e-02 +7.79102966e-02 -5.73760495e-02 +4.98091616e-02 -4.74834144e-02 +4.98096310e-02 +1.98419504e-02 +4.98105809e-02 +1.74188260e-02 +2.57600974e-02 -8.48932017e-04 -3.05947810e-01 +1.74187552e-02 +1.74187403e-02 +1.74187757e-02 +1.74188372e-02 +1.74186528e-02 -1.02791399e-01 -2.60436922e-01 +1.74185690e-02 -1.45862829e-02 +1.51439399e-01 +1.74187869e-02 +1.74186584e-02 +1.74184944e-02 +1.74187273e-02 -1.34037277e-02 -1.96087018e-01 +1.60051838e-01 +5.94532676e-02 +1.74187459e-02 +1.74188428e-02 +1.74188651e-02 +1.07697815e-01 +1.36693567e-01 +1.86466798e-01 -1.47326663e-01 +5.80142578e-03 +1.74185410e-02 -2.03303307e-01 +1.74184423e-02 +1.74188782e-02 +1.74185652e-02 +1.74186546e-02 -1.16650745e-01 +1.03453882e-01 -9.78729129e-02 +2.19291449e-01 +2.53813505e-01 +1.31744578e-01 +1.74186453e-02 +1.74187347e-02 +1.74185019e-02 +1.74188875e-02 +1.84579328e-01 +1.55325443e-01 -3.85436267e-02 -8.72536562e-03 +1.74186490e-02 -7.95194805e-02 +1.74185652e-02 +3.95156778e-02 +1.74183492e-02 +2.38943826e-02 +1.20987192e-01 -1.05105257e-02 -1.46994025e-01 +2.38946136e-02 +2.38946397e-02 +2.38944292e-02 +2.38943677e-02 +2.38948278e-02 -4.46243882e-02 +2.98931122e-01 +2.38953158e-02 -4.23108153e-02 +2.59400811e-02 +2.38944925e-02 +2.38948446e-02 +2.38954704e-02 +2.38946751e-02 +1.64003924e-01 -1.60326064e-01 +3.54129076e-02 -1.06750801e-01 +2.38945764e-02 +2.38943249e-02 +2.38942169e-02 +1.60311073e-01 +3.35586665e-04 +4.01757546e-02 +1.21139232e-02 -6.79870099e-02 +2.38954127e-02 +7.17580095e-02 +2.38958169e-02 +2.38942355e-02 +2.38953270e-02 +2.38948353e-02 +5.12429606e-03 -9.89966793e-04 -9.45605189e-02 -1.23360649e-01 -2.41626576e-01 +3.53145391e-01 +2.38949843e-02 +2.38946527e-02 +2.38955431e-02 +2.38940753e-02 -6.11815155e-02 +6.77169189e-02 +7.90396705e-03 +7.94914663e-02 +2.38949042e-02 -7.41236806e-02 +2.38953065e-02 +4.61173989e-02 +2.38960367e-02 -4.59755026e-02 -4.41476107e-02 -5.53231314e-02 -4.50056382e-02 -4.59752679e-02 -4.59752567e-02 -4.59754616e-02 -4.59755287e-02 -4.59750742e-02 -8.30985606e-02 +2.24843815e-01 -4.59745713e-02 +2.21684992e-01 -2.49409720e-01 -4.59753908e-02 -4.59750555e-02 -4.59743850e-02 -4.59752455e-02 +1.53043505e-03 +2.75043786e-01 -4.28483896e-02 +1.00424616e-02 -4.59753089e-02 -4.59755957e-02 -4.59757261e-02 -1.93125919e-01 -7.03333095e-02 +7.68695623e-02 +1.50835767e-01 +1.09050358e-02 -4.59744856e-02 +1.77974045e-01 -4.59739864e-02 -4.59756702e-02 -4.59745638e-02 -4.59750891e-02 -3.91816311e-02 -4.68464158e-02 +1.21603809e-01 +2.11188808e-01 -1.47220910e-01 -3.39893609e-01 -4.59748954e-02 -4.59752604e-02 -4.59743328e-02 -4.59758006e-02 -7.74436370e-02 -2.57086396e-01 -9.52126086e-02 +2.84211397e-01 -4.59749661e-02 +2.22461466e-02 -4.59745899e-02 +1.96919084e-01 -4.59738001e-02 -8.53149313e-03 -6.42305911e-02 -3.64864916e-02 +3.11995566e-01 -8.53128359e-03 -8.53120908e-03 -8.53142794e-03 -8.53148103e-03 -8.53095297e-03 +9.27639306e-02 -2.59647936e-01 -8.53074342e-03 -1.13644794e-01 +4.16826792e-02 -8.53134692e-03 -8.53089336e-03 -8.53059068e-03 -8.53131432e-03 +1.35771900e-01 +9.05478597e-02 +1.62921399e-02 -1.68762524e-02 -8.53128918e-03 -8.53149779e-03 -8.53170734e-03 +8.30480382e-02 +6.00523800e-02 -7.39554167e-02 -1.28353998e-01 -5.20913154e-02 -8.53071362e-03 -1.60910070e-01 -8.53017904e-03 -8.53153784e-03 -8.53075087e-03 -8.53090640e-03 +6.61060661e-02 +1.75190195e-01 +7.71720558e-02 +3.02788820e-02 -1.10031962e-02 -4.91178721e-01 -8.53074342e-03 -8.53130501e-03 -8.53065122e-03 -8.53184704e-03 -2.52961311e-02 +4.95455340e-02 -9.00078751e-03 -1.16805345e-01 -8.53079557e-03 +7.47666061e-02 -8.53076763e-03 +6.76931217e-02 -8.53003934e-03 +9.97810662e-02 +2.07444765e-02 +6.39099479e-02 +2.29135439e-01 +9.97824669e-02 +9.97825414e-02 +9.97815356e-02 +9.97809023e-02 +9.97836962e-02 +1.34688571e-01 -1.38696566e-01 +9.97865424e-02 +8.48541558e-02 +7.99246132e-03 +9.97818261e-02 +9.97837633e-02 +9.97874364e-02 +9.97827426e-02 -4.36366275e-02 -4.57551666e-02 +1.69426333e-02 +2.04187959e-01 +9.97822806e-02 +9.97806787e-02 +9.97799858e-02 +1.57781079e-01 +1.75783738e-01 +3.82181965e-02 -1.47334963e-01 +6.15020916e-02 +9.97869670e-02 +3.92887322e-03 +9.97895449e-02 +9.97803062e-02 +9.97866094e-02 +9.97837111e-02 -1.87102914e-01 +1.05691560e-01 +1.25514701e-01 -3.69322747e-01 -9.01184157e-02 -1.99850276e-01 +9.97844636e-02 +9.97825786e-02 +9.97878090e-02 +9.97794792e-02 -6.62410855e-02 -1.35871932e-01 +5.54320961e-02 +8.72594118e-03 +9.97841433e-02 +2.39482820e-02 +9.97863859e-02 +1.12743028e-01 +9.97905806e-02 -3.48754562e-02 -3.64365056e-03 +1.45322978e-02 -2.15191841e-01 -3.48759405e-02 -3.48759890e-02 -3.48756202e-02 -3.48754078e-02 -3.48764285e-02 +4.52016480e-02 +7.89258163e-03 -3.48774418e-02 -5.40817529e-02 -4.16565984e-01 -3.48757170e-02 -3.48764732e-02 -3.48777659e-02 -3.48760337e-02 +7.12678358e-02 -4.47936244e-02 +4.27274480e-02 +2.57287145e-01 -3.48758660e-02 -3.48753110e-02 -3.48750651e-02 +5.63978292e-02 +3.86617593e-02 -5.31577542e-02 -6.71299547e-02 +6.66134432e-02 -3.48775871e-02 +1.13210924e-01 -3.48785296e-02 -3.48751843e-02 -3.48774828e-02 -3.48764323e-02 -4.24468666e-02 -4.26700264e-02 -3.19050550e-02 -4.04377282e-02 +8.10515061e-02 +3.63112718e-01 -3.48767862e-02 -3.48759778e-02 -3.48778814e-02 -3.48748416e-02 +9.27857161e-02 +9.40550566e-02 -1.08937189e-01 +8.72811079e-02 -3.48766372e-02 +2.18510814e-02 -3.48773971e-02 -4.88645434e-02 -3.48789692e-02 -3.02389101e-03 +2.59354506e-02 +8.53566173e-03 +2.20717609e-01 -3.02441465e-03 -3.02444841e-03 -3.02406261e-03 -3.02384002e-03 -3.02490033e-03 -4.38776948e-02 -1.83178037e-01 -3.02592036e-03 +8.52396190e-02 +2.22433686e-01 -3.02416319e-03 -3.02494294e-03 -3.02625191e-03 -3.02452035e-03 +2.80051172e-01 -1.83610618e-03 -9.64432769e-03 -1.03237876e-03 -3.02433432e-03 -3.02374922e-03 -3.02348169e-03 +6.60561696e-02 -1.29050203e-02 -2.00618833e-01 +1.51521280e-01 -7.59927258e-02 -3.02606984e-03 -4.72117122e-03 -3.02706705e-03 -3.02359788e-03 -3.02594551e-03 -3.02490895e-03 -3.22823405e-01 -3.44730951e-02 -3.08316182e-02 -1.68635264e-01 +1.78644940e-01 -8.37231055e-02 -3.02522955e-03 -3.02445097e-03 -3.02640861e-03 -3.02327587e-03 -3.42286766e-01 -6.97447825e-03 -6.01299554e-02 +1.19239300e-01 -3.02509149e-03 +1.21056803e-01 -3.02586914e-03 +1.81135878e-01 -3.02746007e-03 +9.70209390e-02 +9.20209587e-02 +2.35565640e-02 +1.40645653e-01 +9.70211998e-02 +9.70212370e-02 +9.70210284e-02 +9.70208943e-02 +9.70214829e-02 -2.03174967e-02 -9.86743197e-02 +9.70219597e-02 -4.81600091e-02 +9.30340737e-02 +9.70210880e-02 +9.70214605e-02 +9.70221311e-02 +9.70212519e-02 -5.88957279e-04 -5.45110181e-02 +7.33725028e-04 +5.31767756e-02 +9.70211700e-02 +9.70209017e-02 +9.70207900e-02 +4.89042923e-02 +7.49665946e-02 +1.05597705e-01 +7.95137137e-02 +3.19985002e-01 +9.70220342e-02 -9.67931747e-02 +9.70225334e-02 +9.70208198e-02 +9.70219597e-02 +9.70214754e-02 +5.74367121e-02 +1.45473763e-01 -3.94490004e-01 +2.40070611e-01 +1.09640531e-01 -2.79435009e-01 +9.70216542e-02 +9.70212296e-02 +9.70222652e-02 +9.70207080e-02 +2.23980229e-02 -1.13884412e-01 +2.63707787e-01 +2.09526166e-01 +9.70215574e-02 +1.85312539e-01 +9.70219746e-02 -5.38527258e-02 +9.70227420e-02 +8.92647263e-03 +4.50270735e-02 -1.05206864e-02 +4.53931652e-02 +8.92604329e-03 +8.92599672e-03 +8.92634131e-03 +8.92653037e-03 +8.92560463e-03 +1.67214543e-01 +1.96199954e-01 +8.92471056e-03 -1.01059258e-01 +1.14353836e-01 +8.92626215e-03 +8.92557856e-03 +8.92441627e-03 +8.92595109e-03 -1.09182425e-01 -1.11304268e-01 -4.36666496e-02 -5.05655631e-03 +8.92610569e-03 +8.92662629e-03 +8.92684422e-03 +9.99513492e-02 -5.01928143e-02 -4.69107255e-02 +1.33793458e-01 +1.95480466e-01 +8.92458390e-03 -3.12821031e-01 +8.92370660e-03 +8.92675947e-03 +8.92469473e-03 +8.92559811e-03 +2.46128350e-01 +1.44577138e-02 -3.61507982e-02 -2.29421735e-01 +7.71840438e-02 -1.71741560e-01 +8.92532337e-03 +8.92599113e-03 +8.92428681e-03 +8.92700534e-03 -1.26735330e-01 +1.98834538e-02 -3.98648456e-02 -1.02899745e-01 +8.92544445e-03 +1.30570754e-01 +8.92476644e-03 +5.29431626e-02 +8.92333500e-03 -1.91386059e-01 -2.25508869e-01 -8.44054669e-02 -1.15744649e-02 -1.91385567e-01 -1.91385493e-01 -1.91385895e-01 -1.91386163e-01 -1.91384986e-01 -9.89747718e-02 +5.21257101e-03 -1.91384047e-01 -8.93818960e-03 -1.16460480e-01 -1.91385821e-01 -1.91384926e-01 -1.91383705e-01 -1.91385403e-01 -8.05211589e-02 -1.44623712e-01 -1.52921364e-01 +9.24025755e-03 -1.91385612e-01 -1.91386253e-01 -1.91386461e-01 -4.89758104e-02 -1.41389757e-01 -2.18775302e-01 -1.55631483e-01 -2.66643316e-02 -1.91383854e-01 -8.44682083e-02 -1.91382945e-01 -1.91386357e-01 -1.91384032e-01 -1.91384971e-01 -7.90764689e-02 -1.38463020e-01 -1.96360096e-01 -1.00180306e-01 +1.68578863e+00 -1.08917467e-01 -1.91384688e-01 -1.91385478e-01 -1.91383526e-01 -1.91386640e-01 -1.64071918e-01 -8.06782693e-02 -1.55469716e-01 -1.35640040e-01 -1.91384822e-01 -1.93076149e-01 -1.91384092e-01 -2.04731897e-01 -1.91382542e-01 -3.98350656e-02 -1.49670383e-02 -4.65306789e-02 -1.20458581e-01 -3.98341641e-02 -3.98341045e-02 -3.98347676e-02 -3.98351476e-02 -3.98333594e-02 +6.67548627e-02 +3.15260619e-01 -3.98316942e-02 -7.98671320e-02 -1.87248830e-02 -3.98345999e-02 -3.98333073e-02 -3.98311764e-02 -3.98339592e-02 -1.81040347e-01 +8.48316923e-02 -3.74015942e-02 +2.47278661e-01 -3.98342870e-02 -3.98352891e-02 -3.98357585e-02 -1.41064256e-01 -2.61537015e-01 +2.00361479e-03 +1.23107843e-01 -8.64394382e-02 -3.98314595e-02 -9.15174037e-02 -3.98299284e-02 -3.98355722e-02 -3.98316607e-02 -3.98333557e-02 -4.97300178e-02 +1.00788474e-01 +2.57038586e-02 -2.40245610e-01 -2.02360805e-02 +2.22123340e-01 -3.98328863e-02 -3.98340784e-02 -3.98309790e-02 -3.98360565e-02 +1.60733029e-01 -1.22712858e-01 -1.93336532e-01 -4.51734625e-02 -3.98330949e-02 -1.42252501e-02 -3.98318060e-02 +5.58675379e-02 -3.98292765e-02 -5.37526682e-02 -5.00987936e-03 -1.43050738e-02 -5.38368672e-02 -5.37535027e-02 -5.37535548e-02 -5.37528954e-02 -5.37525862e-02 -5.37542589e-02 +4.96632904e-02 -9.39244702e-02 -5.37558943e-02 +4.59550947e-01 -2.45769113e-01 -5.37530743e-02 -5.37543185e-02 -5.37564419e-02 -5.37536815e-02 +1.06074870e-01 +1.37988940e-01 -1.03220306e-01 +1.14361338e-01 -5.37533835e-02 -5.37524447e-02 -5.37519939e-02 -2.38845758e-02 -3.15286189e-01 -2.20648316e-03 -2.26911921e-02 +5.07528186e-02 -5.37561588e-02 +9.28578004e-02 -5.37576936e-02 -5.37521914e-02 -5.37559465e-02 -5.37542701e-02 +1.18419349e-01 -3.28407794e-01 +2.69996412e-02 -4.62084301e-02 +7.08814561e-02 +1.09160226e-02 -5.37547283e-02 -5.37535734e-02 -5.37566803e-02 -5.37516885e-02 -3.22276741e-01 +1.60040439e-03 +1.17930286e-02 -6.18992448e-02 -5.37545234e-02 +1.75581738e-01 -5.37558161e-02 -1.28213661e-02 -5.37583455e-02 +2.35035014e-03 -8.45995266e-03 -3.52017283e-02 +2.77898610e-01 +2.35056737e-03 +2.35057948e-03 +2.35043000e-03 +2.35030567e-03 +2.35075294e-03 +6.76878616e-02 -2.34449357e-01 +2.35120393e-03 +1.23691298e-01 +1.05328329e-01 +2.35047797e-03 +2.35078274e-03 +2.35138368e-03 +2.35062116e-03 -1.22102521e-01 -7.10240975e-02 +3.30975726e-02 -2.96708256e-01 +2.35053501e-03 +2.35029147e-03 +2.35016830e-03 +2.43210122e-02 -1.48106394e-02 -5.96424080e-02 -1.34098202e-01 -6.70489520e-02 +2.35128286e-03 +4.70319763e-02 +2.35169427e-03 +2.35022279e-03 +2.35121395e-03 +2.35076179e-03 +1.23261832e-01 +3.82200330e-02 -1.53973671e-02 -1.05925865e-01 +1.39190197e-01 -5.59661463e-02 +2.35090079e-03 +2.35058204e-03 +2.35141371e-03 +2.35007564e-03 -2.60850400e-01 +1.48850761e-03 +3.40249427e-02 -1.91556245e-01 +2.35085515e-03 +6.47264868e-02 +2.35118042e-03 +9.14787427e-02 +2.35186308e-03 +2.44374312e-02 +2.49280613e-02 -2.48755794e-02 -5.90871453e-01 +2.44374033e-02 +2.44374089e-02 +2.44374163e-02 +2.44374238e-02 +2.44374070e-02 -3.97727937e-02 -3.47688869e-02 +2.44374070e-02 -5.76082841e-02 -1.91021889e-01 +2.44374163e-02 +2.44373996e-02 +2.44374163e-02 +2.44374126e-02 -6.04803190e-02 +8.29608291e-02 +5.92229106e-02 +2.36745834e-01 +2.44373959e-02 +2.44374555e-02 +2.44374201e-02 -4.51026820e-02 +1.06567238e-02 +1.44450963e-02 +1.74123123e-01 +2.76331659e-02 +2.44374219e-02 -8.20043832e-02 +2.44374163e-02 +2.44374387e-02 +2.44374108e-02 +2.44374089e-02 +3.55633423e-02 -3.77788097e-02 +6.48131520e-02 -2.06335504e-02 -1.40964478e-01 +3.21293920e-02 +2.44374163e-02 +2.44374070e-02 +2.44374033e-02 +2.44374089e-02 +2.53370740e-02 +2.04291493e-01 +3.46069783e-02 +1.35827467e-01 +2.44374126e-02 +1.45453680e-03 +2.44374126e-02 +6.84255958e-02 +2.44374461e-02 -2.79229581e-02 -2.04502959e-02 -3.11499462e-02 +3.29986870e-01 -2.79224236e-02 -2.79223882e-02 -2.79228222e-02 -2.79230122e-02 -2.79219132e-02 -2.13244304e-01 +1.88743440e-03 -2.79208161e-02 -1.11970238e-01 -2.33232081e-02 -2.79226862e-02 -2.79218890e-02 -2.79204343e-02 -2.79223118e-02 -3.67311202e-02 -2.18941227e-01 -1.69110313e-01 -1.45455912e-01 -2.79225037e-02 -2.79231444e-02 -2.79234163e-02 -9.59682092e-03 -1.53377866e-02 -3.50812525e-02 -1.47622265e-02 +6.34773448e-02 -2.79206373e-02 -1.46835178e-01 -2.79195756e-02 -2.79232971e-02 -2.79207900e-02 -2.79219057e-02 +2.15800814e-02 -2.43264437e-02 +2.98385918e-01 -7.99858123e-02 +1.17811747e-01 +1.75255105e-01 -2.79215723e-02 -2.79223789e-02 -2.79202685e-02 -2.79235989e-02 -7.50385299e-02 -1.21107362e-01 -1.23550288e-01 -3.31664868e-02 -2.79217232e-02 +1.07464001e-01 -2.79208627e-02 -4.91477251e-02 -2.79191379e-02 +8.60857591e-02 -6.75251484e-02 -3.40123028e-01 +6.73876749e-03 +8.60861391e-02 +8.60861242e-02 +8.60858560e-02 +8.60857293e-02 +8.60864520e-02 +3.59629005e-01 +3.45287502e-01 +8.60871449e-02 +2.47076601e-02 +1.59996852e-01 +8.60859305e-02 +8.60864967e-02 +8.60873163e-02 +8.60861689e-02 +9.17934924e-02 +8.11416283e-02 +1.61133253e-03 -1.23916594e-02 +8.60860720e-02 +8.60856846e-02 +8.60855207e-02 -3.40139237e-03 +4.53142300e-02 +7.76715800e-02 -3.25106680e-02 +3.53067890e-02 +8.60872641e-02 +1.86566234e-01 +8.60878006e-02 +8.60855952e-02 +8.60871524e-02 +8.60864520e-02 -7.67349824e-02 -3.64721641e-02 -3.08855772e-01 +1.15177587e-01 -1.95565578e-02 +4.38758060e-02 +8.60866681e-02 +8.60861465e-02 +8.60873908e-02 +8.60853940e-02 +8.63087475e-02 -1.12790778e-01 +1.43368661e-01 -9.42518041e-02 +8.60866234e-02 +1.32362664e-01 +8.60870928e-02 -1.09555773e-01 +8.60880166e-02 +1.85082033e-02 -2.58762669e-03 +9.14082080e-02 -8.07185844e-02 +1.85076017e-02 +1.85075551e-02 +1.85080040e-02 +1.85082778e-02 +1.85070336e-02 +9.33440104e-02 -1.09545864e-01 +1.85058713e-02 +2.78806426e-02 +2.61151105e-01 +1.85078830e-02 +1.85069926e-02 +1.85054764e-02 +1.85074788e-02 -1.23627357e-01 -1.54139429e-01 +5.19102141e-02 -1.43564090e-01 +1.85076855e-02 +1.85083747e-02 +1.85086690e-02 +1.39740780e-01 -5.24003394e-02 -1.82845108e-02 -1.15530223e-01 -7.23005906e-02 +1.85056888e-02 +1.92567319e-01 +1.85045917e-02 +1.85085293e-02 +1.85058434e-02 +1.85070187e-02 -6.55529499e-02 +9.61012691e-02 +9.44385212e-03 +1.18008621e-01 -1.51279509e-01 +9.67878550e-02 +1.85066797e-02 +1.85075346e-02 +1.85053293e-02 +1.85088757e-02 -5.65124415e-02 +3.64564955e-01 -2.64081769e-02 +9.22077596e-02 +1.85068194e-02 -1.34829178e-01 +1.85059197e-02 -8.23877826e-02 +1.85041707e-02 +8.72092843e-02 +4.78040129e-02 +7.21837506e-02 +3.31531279e-02 +8.72102380e-02 +8.72103274e-02 +8.72096121e-02 +8.72092322e-02 +8.72111842e-02 -1.59374587e-02 -1.50064737e-01 +8.72131139e-02 -5.98875321e-02 +1.42778188e-01 +8.72097909e-02 +8.72112513e-02 +8.72137249e-02 +8.72104689e-02 -4.58314925e-01 -1.68912902e-01 +1.24575131e-01 +1.12614706e-01 +8.72101039e-02 +8.72090459e-02 +8.72085690e-02 +1.79021463e-01 -1.48074314e-01 +5.86702004e-02 +3.74397859e-02 -5.13885915e-01 +8.72133821e-02 +3.11533082e-02 +8.72151777e-02 +8.72087926e-02 +8.72131437e-02 +8.72111991e-02 +2.04785615e-01 -5.43165505e-02 +1.15456255e-02 -1.82219714e-01 +2.48255149e-01 +7.26802573e-02 +8.72117504e-02 +8.72103423e-02 +8.72139484e-02 +8.72082412e-02 -3.67951632e-01 -6.94174469e-02 +2.22323507e-01 +2.17599362e-01 +8.72115195e-02 +1.99055254e-01 +8.72130021e-02 +5.01559675e-02 +8.72159228e-02 +2.81985477e-02 +1.01802588e-01 -5.61149456e-02 +3.28377664e-01 +2.81992182e-02 +2.81992629e-02 +2.81987488e-02 +2.81984694e-02 +2.81998739e-02 +1.27092779e-01 +1.31013870e-01 +2.82011796e-02 +7.67943636e-02 -2.03337342e-01 +2.81988643e-02 +2.81999260e-02 +2.82016173e-02 +2.81993449e-02 +9.07432884e-02 -5.25693782e-02 -2.39275843e-02 +1.00083373e-01 +2.81991176e-02 +2.81983390e-02 +2.81980131e-02 -9.20783263e-03 +5.68908416e-02 +2.17830524e-01 +9.79331434e-02 +7.45841190e-02 +2.82013882e-02 -2.48825878e-01 +2.82026678e-02 +2.81981565e-02 +2.82012112e-02 +2.81998869e-02 +3.04016396e-02 +8.48597586e-02 +1.57867551e-01 -5.22854812e-02 +9.09266174e-02 +1.36052176e-01 +2.82002855e-02 +2.81992834e-02 +2.82018129e-02 +2.81977765e-02 -1.48136050e-01 -1.77502885e-01 +1.20170012e-01 +5.00710607e-02 +2.82001067e-02 +9.12617743e-02 +2.82011237e-02 -7.17047090e-03 +2.82031540e-02 -3.33926678e-02 -2.12779436e-02 -2.52709299e-01 +8.70298594e-02 -3.33924219e-02 -3.33924070e-02 -3.33926007e-02 -3.33927125e-02 -3.33921611e-02 +3.62743922e-02 +6.35281429e-02 -3.33915092e-02 -1.43449321e-01 -1.00948311e-01 -3.33925299e-02 -3.33921462e-02 -3.33913267e-02 -3.33923548e-02 +9.65986475e-02 +6.95623085e-02 -6.97078481e-02 -7.18158111e-03 -3.33924592e-02 -3.33927870e-02 -3.33929472e-02 +1.87305566e-02 +9.58946198e-02 +3.42875451e-01 -1.86019428e-02 +2.18478769e-01 -3.33914086e-02 -1.74911976e-01 -3.33908424e-02 -3.33928689e-02 -3.33914980e-02 -3.33921611e-02 +8.68733898e-02 -2.11208360e-03 +1.51243741e-02 -9.06261895e-03 +1.34509979e-02 +1.73778549e-01 -3.33919525e-02 -3.33923884e-02 -3.33912596e-02 -3.33930664e-02 -1.53483614e-01 +9.44032297e-02 +6.69188127e-02 +6.91155419e-02 -3.33920568e-02 +8.20733905e-02 -3.33915427e-02 -2.97037442e-03 -3.33906114e-02 -3.10144071e-02 -1.60221718e-02 -1.66293427e-01 +1.54335707e-01 -3.10140569e-02 -3.10140401e-02 -3.10143027e-02 -3.10144331e-02 -3.10137812e-02 -7.32855825e-03 +4.95954650e-03 -3.10130827e-02 +2.94019090e-04 -4.56423983e-02 -3.10142301e-02 -3.10137589e-02 -3.10129076e-02 -3.10139768e-02 -2.54158806e-02 +6.51652738e-02 +1.26276493e-01 -6.77460805e-02 -3.10140941e-02 -3.10144983e-02 -3.10146511e-02 -8.91801640e-02 -1.49023712e-01 +5.17234812e-03 -3.16022903e-01 +1.16890490e-01 -3.10129970e-02 -1.38007358e-01 -3.10123898e-02 -3.10145896e-02 -3.10130678e-02 -3.10137738e-02 +8.49553764e-01 +2.42314059e-02 +5.66172749e-02 -3.53846774e-02 +4.44387719e-02 -2.16003209e-01 -3.10135689e-02 -3.10140178e-02 -3.10127810e-02 -3.10147479e-02 -7.62835667e-02 -5.72013222e-02 +8.88033807e-02 +3.00193757e-01 -3.10136788e-02 +1.49652526e-01 -3.10131237e-02 +2.15425685e-01 -3.10121272e-02 +6.78707436e-02 +1.43539282e-02 +1.33821055e-01 -4.23077554e-01 +6.78710267e-02 +6.78710416e-02 +6.78708553e-02 +6.78706840e-02 +6.78713694e-02 -5.09031229e-02 +1.60940751e-01 +6.78719580e-02 +9.54679325e-02 +1.29818246e-01 +6.78709075e-02 +6.78713918e-02 +6.78722188e-02 +6.78711161e-02 +3.99406850e-02 -1.07436767e-02 -8.25945735e-02 +7.94036239e-02 +6.78709820e-02 +6.78706691e-02 +6.78704605e-02 +1.43637359e-01 +3.21242362e-02 -3.02953217e-02 +6.48172274e-02 +8.01208541e-02 +6.78720847e-02 +9.54525173e-02 +6.78726882e-02 +6.78705499e-02 +6.78719878e-02 +6.78713694e-02 +1.32787332e-01 +1.37989134e-01 +3.65323983e-02 +3.56933102e-02 -3.40355903e-01 -2.90811602e-02 +6.78715780e-02 +6.78710416e-02 +6.78723156e-02 +6.78703338e-02 +7.05532506e-02 +8.10086131e-02 +1.74616784e-01 +1.41840428e-01 +6.78714812e-02 +1.96669321e-03 +6.78719655e-02 +6.33857176e-02 +6.78729340e-02 +1.44189186e-02 +5.01973927e-03 -1.19628996e-01 +1.17709287e-01 +1.44199263e-02 +1.44199999e-02 +1.44192418e-02 +1.44188041e-02 +1.44209126e-02 +8.98870006e-02 +4.98723425e-02 +1.44229149e-02 -8.80623683e-02 +3.05091023e-01 +1.44194476e-02 +1.44209675e-02 +1.44235371e-02 +1.44201573e-02 +1.03056279e-03 -3.30157205e-02 -3.42622027e-02 -3.92972827e-01 +1.44197885e-02 +1.44186262e-02 +1.44181214e-02 -3.57817449e-02 +2.21366376e-01 -5.03372885e-02 -4.39369082e-02 -1.03852235e-01 +1.44232064e-02 -6.55922806e-04 +1.44251343e-02 +1.44183328e-02 +1.44229755e-02 +1.44209247e-02 -9.20355394e-02 -1.25427758e-02 -6.72520548e-02 +1.58077434e-01 +2.40060076e-01 +3.46181467e-02 +1.44215124e-02 +1.44200306e-02 +1.44238314e-02 +1.44177387e-02 -8.66931081e-02 +2.02793293e-02 +2.72065327e-02 -3.01135015e-02 +1.44212404e-02 +1.23927486e-03 +1.44227957e-02 -3.55999731e-02 +1.44258915e-02 +5.99435270e-02 +8.23458582e-02 +3.79774868e-02 +7.29975924e-02 +5.99446334e-02 +5.99447154e-02 +5.99439070e-02 +5.99434078e-02 +5.99456616e-02 +1.72747746e-01 -1.26807213e-01 +5.99477440e-02 -9.26610827e-02 +1.51365340e-01 +5.99441081e-02 +5.99457175e-02 +5.99484220e-02 +5.99448383e-02 -6.22999296e-02 -2.16845378e-01 +1.55680152e-02 -3.27489316e-01 +5.99444844e-02 +5.99432290e-02 +5.99426664e-02 +8.00174996e-02 -8.36521573e-03 +3.98935936e-03 -7.78818727e-02 +7.62264207e-02 +5.99480830e-02 -9.24778637e-03 +5.99500909e-02 +5.99428937e-02 +5.99477999e-02 +5.99456765e-02 +2.98541158e-01 -2.81517413e-02 -2.13128567e-01 +2.33148977e-01 -5.82681689e-03 +6.63432702e-02 +5.99462651e-02 +5.99447340e-02 +5.99487461e-02 +5.99422790e-02 -2.35211372e-01 +7.70927370e-02 -2.10878402e-02 +3.67682815e-01 +5.99459969e-02 +3.19011584e-02 +5.99476546e-02 -7.47236758e-02 +5.99509068e-02 +3.96675384e-03 +9.61538479e-02 +1.74699258e-02 +1.16936862e-01 +3.96669330e-03 +3.96670355e-03 +3.96673335e-03 +3.96676315e-03 +3.96667188e-03 -6.29357919e-02 +2.48008609e-01 +3.96658154e-03 -6.54817596e-02 +1.25538409e-01 +3.96672171e-03 +3.96666769e-03 +3.96655314e-03 +3.96670215e-03 +2.62195796e-01 -2.26259992e-01 +1.84855863e-01 +5.50168287e-03 +3.96670774e-03 +3.96676920e-03 +3.96680180e-03 +1.12911858e-01 -3.75300460e-02 +1.69081852e-01 +4.60822061e-02 +1.73492640e-01 +3.96656245e-03 -2.18197685e-02 +3.96647397e-03 +3.96681344e-03 +3.96657828e-03 +3.96667514e-03 -1.08727723e-01 +5.61176352e-02 -2.75156856e-01 -5.00004925e-02 -2.32253075e-01 -2.73907632e-01 +3.96663882e-03 +3.96669703e-03 +3.96653125e-03 +3.96682741e-03 -1.86074808e-01 +2.84350038e-01 -9.04466584e-02 +3.14769633e-02 +3.96664813e-03 +6.14888445e-02 +3.96658201e-03 +7.88749531e-02 +3.96642135e-03 -1.43519854e-02 -2.09756140e-02 -4.16585244e-03 -1.81194484e-01 -1.43508920e-02 -1.43508185e-02 -1.43516222e-02 -1.43521093e-02 -1.43498294e-02 +2.05672905e-01 -1.33907720e-02 -1.43477004e-02 +2.05141693e-01 +2.63277858e-01 -1.43514061e-02 -1.43497642e-02 -1.43469926e-02 -1.43506462e-02 -1.74769998e-01 +9.39788520e-02 -9.70428884e-02 -1.93695843e-01 -1.43510485e-02 -1.43522853e-02 -1.43528534e-02 +1.97095983e-03 +3.49234268e-02 -1.69259608e-01 -3.17373514e-01 -5.04706800e-02 -1.43473679e-02 -1.97887972e-01 -1.43452995e-02 -1.43526113e-02 -1.43476529e-02 -1.43498136e-02 -1.61427915e-01 -2.16229334e-01 +6.20325580e-02 -1.38731733e-01 -3.57900783e-02 +4.29770127e-02 -1.43491840e-02 -1.43507821e-02 -1.43466974e-02 -1.43532613e-02 -5.53699443e-04 +3.61784875e-01 -7.90999532e-02 +2.10217431e-01 -1.43494578e-02 +1.70526609e-01 -1.43477982e-02 +1.28687441e-01 -1.43444380e-02 +1.39391739e-02 +6.75654132e-03 -2.98741497e-02 +9.38541442e-02 +1.39393602e-02 +1.39393676e-02 +1.39392372e-02 +1.39391581e-02 +1.39395297e-02 +1.07348293e-01 +1.12030655e-01 +1.39399674e-02 -3.42082053e-01 -3.69705930e-02 +1.39392689e-02 +1.39395474e-02 +1.39400959e-02 +1.39393946e-02 -3.55549246e-01 -2.41213784e-01 -3.31939384e-02 +2.76188731e-01 +1.39393434e-02 +1.39391152e-02 +1.39389988e-02 +1.61770247e-02 -1.96727127e-01 +1.42010346e-01 +2.15981796e-04 -5.56152351e-02 +1.39400335e-02 +3.29529494e-02 +1.39403967e-02 +1.39390500e-02 +1.39399767e-02 +1.39395380e-02 +1.15251549e-01 +7.72922859e-02 -5.37977903e-04 -6.26444817e-02 +8.69436935e-02 -9.47060063e-03 +1.39396600e-02 +1.39393676e-02 +1.39401378e-02 +1.39389439e-02 -5.94224669e-02 +9.14820060e-02 -5.43692149e-02 -8.68153423e-02 +1.39396135e-02 +1.16395019e-01 +1.39399534e-02 +2.87218560e-02 +1.39405597e-02 +7.37115145e-02 +3.04656588e-02 -1.53923482e-02 +2.68401504e-01 +7.37111717e-02 +7.37111419e-02 +7.37114102e-02 +7.37115592e-02 +7.37107843e-02 -2.82610375e-02 -2.93309897e-01 +7.37100393e-02 +5.36291637e-02 +1.95987690e-02 +7.37113431e-02 +7.37107545e-02 +7.37098828e-02 +7.37110898e-02 +1.03020109e-01 -5.14629260e-02 +5.86003736e-02 -3.13737363e-01 +7.37111717e-02 +7.37115592e-02 +7.37117454e-02 +7.00429305e-02 +8.81638005e-02 +9.67718065e-02 +1.84410065e-02 +4.55363505e-02 +7.37099648e-02 -1.10974379e-01 +7.37093985e-02 +7.37116784e-02 +7.37100318e-02 +7.37107769e-02 +7.77101740e-02 +1.21318055e-02 +1.55192778e-01 -1.21349774e-01 +1.61667183e-01 -1.21526539e-01 +7.37105310e-02 +7.37111270e-02 +7.37098008e-02 +7.37118050e-02 +4.39045876e-02 +6.65992200e-02 +4.22042668e-01 +7.40283057e-02 +7.37106279e-02 +1.01599924e-01 +7.37100765e-02 +1.49866985e-02 +7.37091079e-02 -7.74205551e-02 -5.27583733e-02 -5.91588616e-02 +4.74836305e-02 -7.74211437e-02 -7.74211660e-02 -7.74207413e-02 -7.74204731e-02 -7.74216503e-02 +7.11466819e-02 -1.15841396e-01 -7.74229318e-02 -2.11907536e-01 -1.32663744e-02 -7.74208531e-02 -7.74217248e-02 -7.74233341e-02 -7.74212554e-02 +2.56964415e-01 -2.52925307e-01 +6.39789045e-01 -1.03863820e-01 -7.74210915e-02 -7.74203166e-02 -7.74199590e-02 +1.64339676e-01 -3.66498262e-01 +8.93381014e-02 -1.00050710e-01 -1.75375119e-01 -7.74231404e-02 +1.77078545e-01 -7.74242803e-02 -7.74201304e-02 -7.74229765e-02 -7.74216726e-02 -2.03475013e-01 -2.43905768e-01 +9.39327925e-02 -1.43087655e-01 -1.29766822e-01 +1.73815653e-01 -7.74220377e-02 -7.74211884e-02 -7.74234757e-02 -7.74197429e-02 +5.06700575e-02 +2.01397426e-02 +3.96614894e-03 +1.13287203e-01 -7.74218813e-02 +6.65411577e-02 -7.74228573e-02 +5.21132536e-02 -7.74247423e-02 +4.60815839e-02 -9.62025672e-03 +5.55015020e-02 +5.18026724e-02 +4.60821614e-02 +4.60821986e-02 +4.60817479e-02 +4.60815281e-02 +4.60827164e-02 +4.65498492e-02 -2.22898290e-01 +4.60838303e-02 +1.32047728e-01 +2.96248734e-01 +4.60818484e-02 +4.60827537e-02 +4.60841618e-02 +4.60822769e-02 +2.85046160e-01 -1.62310600e-01 -1.14810854e-01 -6.81983903e-02 +4.60820720e-02 +4.60814163e-02 +4.60811518e-02 +1.53400120e-03 +3.36183459e-02 -2.52985419e-03 +9.06975344e-02 -1.25595599e-01 +4.60840091e-02 -1.50385305e-01 +4.60850820e-02 +4.60812859e-02 +4.60838601e-02 +4.60827313e-02 +5.42987837e-03 +4.06066924e-01 -2.20782645e-02 -5.56217469e-02 -1.32617965e-01 -1.29681081e-01 +4.60830592e-02 +4.60822135e-02 +4.60843630e-02 +4.60809693e-02 -5.39782085e-02 -8.19264352e-02 +9.42622274e-02 +2.65335701e-02 +4.60829102e-02 +3.96711007e-02 +4.60837968e-02 +1.30564913e-01 +4.60855328e-02 +6.88145775e-03 -8.63042567e-03 -1.11257255e-01 +1.56766772e-01 +6.88214740e-03 +6.88220141e-03 +6.88167987e-03 +6.88138837e-03 +6.88281516e-03 -5.42941540e-02 -1.81347698e-01 +6.88419584e-03 -2.37792462e-01 +5.00658274e-01 +6.88180607e-03 +6.88286079e-03 +6.88465219e-03 +6.88228523e-03 -1.38384789e-01 -3.36353123e-01 -8.72286186e-02 +3.41671586e-01 +6.88205147e-03 +6.88125333e-03 +6.88088592e-03 -1.48773879e-01 -1.60422504e-01 +1.01671211e-01 -9.87856463e-02 +8.86853933e-02 +6.88442029e-03 -7.06216842e-02 +6.88575814e-03 +6.88102795e-03 +6.88423542e-03 +6.88281981e-03 -1.56132251e-01 -1.27245411e-01 +7.52180740e-02 -1.21808454e-01 -1.28146321e-01 +8.36362019e-02 +6.88322634e-03 +6.88222656e-03 +6.88484823e-03 +6.88063214e-03 -1.12532973e-01 +3.51707526e-02 +2.31994539e-02 -6.69278949e-02 +6.88306103e-03 +3.79931778e-02 +6.88412925e-03 +7.86842555e-02 +6.88630529e-03 +3.41504905e-03 -6.52803406e-02 +1.00166269e-03 -1.88443989e-01 +3.41571379e-03 +3.41576734e-03 +3.41525907e-03 +3.41497222e-03 +3.41634802e-03 -9.56473425e-02 -1.38515653e-02 +3.41765839e-03 -2.23419163e-02 +1.84368104e-01 +3.41538922e-03 +3.41638923e-03 +3.41808051e-03 +3.41585069e-03 -1.44283669e-02 -1.27618268e-01 +2.94823535e-02 +2.21858978e-01 +3.41562554e-03 +3.41485580e-03 +3.41450633e-03 -2.69608181e-02 +3.66024971e-02 +5.19309714e-02 +2.64804866e-02 +5.21883182e-02 +3.41785490e-03 +7.41688013e-02 +3.41912592e-03 +3.41466302e-03 +3.41768586e-03 +3.41635826e-03 +1.42435789e-01 -8.80482495e-02 -4.13539648e-01 +2.77293593e-01 -1.21607885e-01 -1.94534138e-01 +3.41675687e-03 +3.41577874e-03 +3.41827120e-03 +3.41426022e-03 +4.23505567e-02 +1.35362878e-01 -2.38134190e-02 -9.02795419e-02 +3.41658201e-03 -1.20462842e-01 +3.41759273e-03 +8.11905563e-02 +3.41962627e-03 +7.54721388e-02 +3.62493508e-02 +1.60653472e-01 -2.66096562e-01 +7.54726827e-02 +7.54727200e-02 +7.54722878e-02 +7.54720792e-02 +7.54731447e-02 -1.96939986e-02 +1.24645643e-01 +7.54742697e-02 +6.26330748e-02 +1.33248493e-01 +7.54724219e-02 +7.54732043e-02 +7.54746422e-02 +7.54727721e-02 +2.47253794e-02 +1.36840969e-01 +4.50536655e-03 -1.54047906e-01 +7.54726008e-02 +7.54719898e-02 +7.54717439e-02 +1.37334809e-01 +1.02533633e-02 +1.34521797e-01 +3.44427414e-02 -1.58587135e-02 +7.54744634e-02 -2.50257313e-01 +7.54754469e-02 +7.54718259e-02 +7.54742995e-02 +7.54731819e-02 +8.11062679e-02 +1.37926817e-01 +5.07410318e-02 -1.42500818e-01 +2.37758373e-04 -4.20965627e-03 +7.54735023e-02 +7.54727274e-02 +7.54747689e-02 +7.54715130e-02 +6.11036383e-02 +7.81680271e-03 +1.26289874e-01 +7.83079937e-02 +7.54733831e-02 +1.33201748e-01 +7.54742175e-02 +3.06482047e-01 +7.54758716e-02 -4.61585112e-02 +3.09424847e-02 -9.04402882e-02 +1.20912440e-01 -4.61594276e-02 -4.61594984e-02 -4.61587980e-02 -4.61583920e-02 -4.61603031e-02 -5.35905361e-02 -1.08969890e-01 -4.61621247e-02 -8.73962268e-02 +6.14674874e-02 -4.61590067e-02 -4.61603589e-02 -4.61627468e-02 -4.61596102e-02 -2.82701217e-02 +6.64668344e-03 +8.22079420e-01 +4.92520630e-02 -4.61593233e-02 -4.61582057e-02 -4.61577438e-02 -2.37370711e-02 -5.93754202e-02 -7.93647990e-02 +7.69851804e-02 +4.33095321e-02 -4.61624190e-02 -1.66612580e-01 -4.61641699e-02 -4.61579487e-02 -4.61621620e-02 -4.61603142e-02 -5.69346957e-02 -1.18903592e-01 +2.38194093e-01 +9.96706355e-03 -3.20883170e-02 -3.17877382e-02 -4.61608581e-02 -4.61595207e-02 -4.61630486e-02 -4.61574085e-02 +9.92474630e-02 -3.09500610e-03 +8.30829516e-02 -2.54358172e-01 -4.61606421e-02 -6.00771420e-02 -4.61620241e-02 -3.96295935e-02 -4.61649075e-02 -8.13202262e-02 +9.68148746e-03 -8.39658827e-02 +1.21417835e-01 -8.13199654e-02 -8.13199356e-02 -8.13201219e-02 -8.13202634e-02 -8.13196972e-02 -1.98783591e-01 -5.37427366e-02 -8.13191980e-02 -1.01517409e-03 -1.85653850e-01 -8.13200846e-02 -8.13196674e-02 -8.13190341e-02 -8.13198984e-02 -2.84587294e-02 +6.58494085e-02 +3.69935840e-01 +1.86975628e-01 -8.13199952e-02 -8.13203007e-02 -8.13204423e-02 +1.02927640e-01 -1.75604087e-04 -1.15232609e-01 +9.67407152e-02 -2.14935783e-02 -8.13191161e-02 -1.30629152e-01 -8.13185871e-02 -8.13203678e-02 -8.13191831e-02 -8.13196898e-02 -1.17044188e-01 -3.13303024e-02 -1.03262223e-01 +4.10028780e-03 +1.28625989e-01 -3.53422053e-02 -8.13195556e-02 -8.13199356e-02 -8.13189596e-02 -8.13205317e-02 +3.96274403e-02 +1.31038740e-01 -2.98090931e-03 +1.50918057e-02 -8.13196003e-02 -4.31549847e-02 -8.13192278e-02 +1.18487375e-02 -8.13183784e-02 +4.56034997e-03 +3.87588441e-02 +4.06070203e-02 -4.89549199e-03 +4.56122821e-03 +4.56129713e-03 +4.56062891e-03 +4.56024054e-03 +4.56209015e-03 +1.38998613e-01 +9.55235660e-02 +4.56383033e-03 -1.61354378e-01 +3.28939766e-01 +4.56080493e-03 +4.56215208e-03 +4.56440728e-03 +4.56141401e-03 -1.36271775e-01 -2.81913914e-02 +8.28819498e-02 +8.43855813e-02 +4.56110528e-03 +4.56006778e-03 +4.55961330e-03 -4.69378009e-02 -2.12574109e-01 -3.91283631e-02 -1.76472157e-01 -8.14076141e-02 +4.56409995e-03 +1.55635148e-01 +4.56579588e-03 +4.55979304e-03 +4.56387084e-03 +4.56210552e-03 -5.80986962e-02 +3.91591340e-02 +5.16019296e-03 -7.26276636e-02 -7.64150824e-03 +1.44447964e-02 +4.56261961e-03 +4.56132134e-03 +4.56466526e-03 +4.55928827e-03 -1.29008308e-01 -3.53732914e-01 -1.43213226e-02 -1.64550051e-01 +4.56239190e-03 +4.84825410e-02 +4.56374371e-03 +5.84982410e-02 +4.56647947e-03 +7.53327757e-02 +9.61993337e-02 +6.56605363e-02 -4.95686159e-02 +7.53324106e-02 +7.53323659e-02 +7.53326491e-02 +7.53327981e-02 +7.53319860e-02 +2.31376335e-01 +1.73095003e-01 +7.53313377e-02 +2.16929968e-02 +1.09750643e-01 +7.53326192e-02 +7.53319785e-02 +7.53310770e-02 +7.53322989e-02 -2.24813059e-01 -3.51618184e-03 +5.04398644e-02 -3.88927996e-01 +7.53325000e-02 +7.53328800e-02 +7.53330141e-02 +9.27508026e-02 +1.53463811e-01 +1.82836428e-01 +8.69192332e-02 +8.97147506e-03 +7.53312185e-02 -3.69577259e-01 +7.53305331e-02 +7.53329694e-02 +7.53313079e-02 +7.53319860e-02 +2.08684236e-01 -4.32616286e-03 -2.50825077e-01 +3.82198207e-02 -8.80452618e-03 -9.45331678e-02 +7.53318146e-02 +7.53323287e-02 +7.53309652e-02 +7.53331557e-02 -1.04115814e-01 -2.20135059e-02 +2.33995318e-01 +2.84129173e-01 +7.53318742e-02 +1.22510880e-01 +7.53313303e-02 +1.52214020e-01 +7.53302276e-02 -1.50639433e-02 -2.84594372e-02 -2.71234545e-03 +6.34880960e-02 -1.50637534e-02 -1.50637254e-02 -1.50638754e-02 -1.50639471e-02 -1.50635801e-02 +1.31180808e-01 -6.12927265e-02 -1.50631461e-02 +1.04802951e-01 +1.97591893e-02 -1.50638381e-02 -1.50635680e-02 -1.50630111e-02 -1.50637180e-02 -3.12653147e-02 -5.26465066e-02 +1.77872404e-01 +1.18071370e-01 -1.50637692e-02 -1.50639983e-02 -1.50640793e-02 +1.53412512e-02 -5.10679334e-02 +6.87571689e-02 -7.50632212e-02 +1.00318030e-01 -1.50630800e-02 -1.01900868e-01 -1.50627065e-02 -1.50640318e-02 -1.50631368e-02 -1.50635708e-02 -9.25003961e-02 +5.60364574e-02 -3.26984003e-02 +1.37172807e-02 -4.09398884e-01 -2.23069005e-02 -1.50634404e-02 -1.50637273e-02 -1.50629617e-02 -1.50641585e-02 +9.82273649e-03 +1.71767212e-02 -8.75625983e-02 -1.01693138e-01 -1.50634954e-02 -1.42027682e-03 -1.50631592e-02 +3.66264507e-02 -1.50625380e-02 +1.30138680e-01 +9.82981548e-02 +5.05511537e-02 +5.41540347e-02 +1.30139306e-01 +1.30139381e-01 +1.30138889e-01 +1.30138591e-01 +1.30139917e-01 -8.24907780e-01 -3.47847492e-02 +1.30140975e-01 +1.23530310e-02 +8.36842805e-02 +1.30139038e-01 +1.30139947e-01 +1.30141363e-01 +1.30139470e-01 +5.28321192e-02 +1.31021282e-02 +6.77006692e-02 +8.94738585e-02 +1.30139261e-01 +1.30138531e-01 +1.30138189e-01 +2.20638961e-01 -9.08001423e-01 +2.27644648e-02 +1.12695247e-01 +1.59830779e-01 +1.30141139e-01 +8.48623961e-02 +1.30142421e-01 +1.30138323e-01 +1.30141005e-01 +1.30139947e-01 -9.23543394e-01 +2.79746443e-01 +5.45839407e-02 +3.89016047e-02 +3.80908209e-03 +1.03269599e-01 +1.30140245e-01 +1.30139410e-01 +1.30141541e-01 +1.30137935e-01 +1.34133652e-01 -1.05555449e-02 +1.04109682e-01 +1.36542335e-01 +1.30140051e-01 +2.40931913e-01 +1.30140930e-01 +2.09047928e-01 +1.30142942e-01 -6.91322014e-02 -2.76807696e-02 +9.77209955e-02 +4.13362861e-01 -6.91333786e-02 -6.91334754e-02 -6.91325590e-02 -6.91320673e-02 -6.91345036e-02 +3.99264432e-02 -2.00620383e-01 -6.91367686e-02 +7.91471638e-03 -1.05110072e-01 -6.91327825e-02 -6.91345707e-02 -6.91374838e-02 -6.91336468e-02 -1.35284513e-01 -3.16835381e-02 -8.85273889e-02 +5.45925051e-02 -6.91331998e-02 -6.91318810e-02 -6.91312850e-02 -1.65334833e-03 -2.17957795e-01 +9.75720435e-02 -5.15223183e-02 +1.07933648e-01 -6.91371337e-02 +1.02481909e-01 -6.91391826e-02 -6.91315085e-02 -6.91368580e-02 -6.91345036e-02 -1.56478152e-01 -3.46792750e-02 -1.34478182e-01 -9.61755030e-03 +4.53106612e-02 -1.60907358e-01 -6.91351816e-02 -6.91335127e-02 -6.91377744e-02 -6.91309348e-02 +2.09239140e-01 -1.98979661e-01 -1.43357515e-01 +7.75142834e-02 -6.91348687e-02 -1.57998174e-01 -6.91366866e-02 -6.07183762e-02 -6.91400319e-02 -1.41162276e-02 +2.15238370e-02 -4.15385999e-02 -8.24545473e-02 -1.41168665e-02 -1.41169224e-02 -1.41164297e-02 -1.41161447e-02 -1.41175035e-02 +9.98170078e-02 -1.89070404e-01 -1.41188093e-02 +2.63302058e-01 -6.90616993e-03 -1.41165471e-02 -1.41175566e-02 -1.41192265e-02 -1.41170118e-02 -1.84053019e-01 -7.94144124e-02 -2.08583713e-01 -8.90257061e-02 -1.41167864e-02 -1.41160265e-02 -1.41156772e-02 -9.04477909e-02 -2.27173224e-01 +1.82085380e-01 +1.49816677e-01 -2.21134245e-01 -1.41190039e-02 +2.33993873e-01 -1.41202565e-02 -1.41158244e-02 -1.41188372e-02 -1.41175147e-02 +6.44598678e-02 +2.16464624e-02 +8.56288299e-02 +5.75599447e-02 -2.26184856e-02 +1.79783270e-01 -1.41179096e-02 -1.41169457e-02 -1.41194193e-02 -1.41154639e-02 -1.70292147e-02 +1.59798309e-01 +7.98301399e-02 -2.41843596e-01 -1.41177382e-02 -5.02843643e-03 -1.41187478e-02 +4.85032648e-02 -1.41207958e-02 -4.03050631e-02 -4.93560955e-02 +2.30102171e-03 +4.95338589e-02 -4.03051004e-02 -4.03051302e-02 -4.03050557e-02 -4.03050743e-02 -4.03051302e-02 -2.92059407e-02 +7.26266578e-02 -4.03051190e-02 -1.30035162e-01 -1.65786386e-01 -4.03050743e-02 -4.03051451e-02 -4.03051823e-02 -4.03051265e-02 -8.78943801e-02 -1.68488890e-01 +2.53465682e-01 -3.93797308e-02 -4.03050818e-02 -4.03050557e-02 -4.03050408e-02 -1.19191624e-01 -7.23616630e-02 +3.85969179e-03 -4.52463254e-02 -3.95348258e-02 -4.03051525e-02 +5.24326980e-01 -4.03051823e-02 -4.03050072e-02 -4.03051116e-02 -4.03051227e-02 -8.21135752e-03 -2.19458073e-01 +7.98649192e-02 -1.05114594e-01 -5.60333431e-02 -5.47183268e-02 -4.03051190e-02 -4.03051451e-02 -4.03051637e-02 -4.03050333e-02 -1.91664338e-01 -1.19565874e-01 -2.08541118e-02 -4.11815420e-02 -4.03051153e-02 -1.32491693e-01 -4.03051376e-02 -9.79671404e-02 -4.03052121e-02 +3.53903212e-02 -1.57179888e-02 -1.55924102e-02 +3.37049365e-01 +3.53896879e-02 +3.53896394e-02 +3.53900902e-02 +3.53903845e-02 +3.53890546e-02 -5.68793938e-02 -1.20313048e-01 +3.53878401e-02 +1.99087083e-01 +1.66849837e-01 +3.53899784e-02 +3.53890136e-02 +3.53874750e-02 +3.53895351e-02 -6.56283423e-02 +2.06186473e-02 +1.68141611e-02 -2.74480909e-01 +3.53897698e-02 +3.53904925e-02 +3.53907831e-02 +9.10254382e-03 +1.27122202e-03 +1.24249779e-01 +1.07122079e-01 +4.87263910e-02 +3.53876837e-02 -1.54430941e-01 +3.53864767e-02 +3.53906564e-02 +3.53878178e-02 +3.53890285e-02 +2.89579127e-02 -2.51280274e-02 -1.80035252e-02 -4.19498384e-02 -1.24193691e-02 -2.78861433e-01 +3.53887342e-02 +3.53896283e-02 +3.53872702e-02 +3.53910290e-02 +2.04360574e-01 +6.82493895e-02 +4.74265181e-02 +8.60543177e-02 +3.53888571e-02 -1.28354341e-01 +3.53879072e-02 -4.31702621e-02 +3.53860185e-02 +3.13925669e-02 -4.11608778e-02 +4.77119572e-02 +1.60083339e-01 +3.13934609e-02 +3.13935094e-02 +3.13928425e-02 +3.13924626e-02 +3.13943438e-02 +1.02722913e-01 +3.46870278e-03 +3.13961431e-02 -1.05166733e-01 -3.27849872e-02 +3.13930362e-02 +3.13943997e-02 +3.13967168e-02 +3.13936621e-02 +4.69663367e-02 +9.46481898e-03 -1.41984284e-01 -7.28027672e-02 +3.13933268e-02 +3.13923061e-02 +3.13918069e-02 -2.27201451e-02 +9.44925994e-02 +1.73591033e-01 -1.13802560e-01 -1.13690592e-01 +3.13964188e-02 -4.27533686e-01 +3.13980915e-02 +3.13920192e-02 +3.13961841e-02 +3.13943513e-02 -3.49293947e-02 +6.06252402e-02 -2.02468604e-01 +1.42879128e-01 +8.31620917e-02 +3.82390976e-01 +3.13949138e-02 +3.13935429e-02 +3.13969776e-02 +3.13914753e-02 +2.57463530e-02 -1.19725578e-01 -2.08094846e-02 +1.85184136e-01 +3.13946567e-02 +1.65387541e-02 +3.13960537e-02 -3.69854867e-02 +3.13988328e-02 -8.52678251e-03 -2.39435975e-02 -2.56559011e-02 +6.92254454e-02 -8.52529146e-03 -8.52518901e-03 -8.52631405e-03 -8.52694828e-03 -8.52382369e-03 -3.39421444e-02 -6.26579076e-02 -8.52087792e-03 +4.31013107e-02 +1.15457915e-01 -8.52603000e-03 -8.52374267e-03 -8.51991493e-03 -8.52496643e-03 -2.09148973e-01 -1.90566882e-01 -1.88510180e-01 +4.54721861e-02 -8.52549821e-03 -8.52721650e-03 -8.52801558e-03 -9.91367102e-02 -7.00361505e-02 -1.29462574e-02 -4.55897562e-02 -1.10366911e-01 -8.52043368e-03 +2.13831231e-01 -8.51756241e-03 -8.52767099e-03 -8.52082018e-03 -8.52380879e-03 -3.52863073e-02 +1.06728435e-01 -5.47558516e-02 -2.01930121e-01 -1.66775420e-01 +1.56045198e-01 -8.52293801e-03 -8.52515269e-03 -8.51950143e-03 -8.52855574e-03 -1.59522751e-03 +5.52847326e-01 -1.86375342e-02 -6.57617524e-02 -8.52331985e-03 +1.19696841e-01 -8.52101669e-03 -1.75693825e-01 -8.51640385e-03 -2.14019567e-02 +7.38782585e-02 +1.10314563e-02 -2.29665458e-01 -2.14015972e-02 -2.14015692e-02 -2.14018449e-02 -2.14019883e-02 -2.14012377e-02 -2.44532615e-01 -2.15865090e-01 -2.14005560e-02 +1.08654283e-01 -2.47116834e-01 -2.14017835e-02 -2.14012042e-02 -2.14003008e-02 -2.14015227e-02 +6.09603524e-02 -4.20924574e-02 +4.15566489e-02 +3.07282776e-01 -2.14016438e-02 -2.14020554e-02 -2.14022473e-02 -6.30702227e-02 +1.06244370e-01 -8.50558504e-02 +1.20703414e-01 +6.69428334e-02 -2.14004330e-02 +5.56841120e-02 -2.13997681e-02 -2.14021839e-02 -2.14005467e-02 -2.14012340e-02 +9.64413211e-02 -2.14945618e-02 -3.68392473e-04 +2.30578810e-01 +1.66107551e-03 -2.97852695e-01 -2.14010049e-02 -2.14015655e-02 -2.14002226e-02 -2.14023646e-02 +6.37955591e-02 +1.15249403e-01 +5.74355945e-02 +8.34720805e-02 -2.14011166e-02 +1.43931340e-02 -2.14005876e-02 +1.18356794e-01 -2.13994607e-02 -3.96768423e-03 -2.88084541e-02 -2.06684664e-01 +6.80860281e-02 -3.96757480e-03 -3.96754779e-03 -3.96765023e-03 -3.96769680e-03 -3.96741135e-03 -9.12641436e-02 +1.50960600e-02 -3.96712963e-03 +1.41954869e-01 +2.66265035e-01 -3.96761904e-03 -3.96741088e-03 -3.96703184e-03 -3.96752777e-03 +1.42010197e-01 -4.89184782e-02 +3.38540785e-02 -2.45270163e-01 -3.96758830e-03 -3.96770053e-03 -3.96779086e-03 -3.29524204e-02 +1.69543386e-01 +1.79911479e-02 -5.62803596e-02 +4.44463938e-02 -3.96707654e-03 +9.97581035e-02 -3.96681344e-03 -3.96776013e-03 -3.96712497e-03 -3.96740343e-03 +1.60941571e-01 +2.13931445e-02 +2.91979432e-01 +8.14969279e-03 -1.43642634e-01 -1.13125913e-01 -3.96732334e-03 -3.96754500e-03 -3.96700064e-03 -3.96785559e-03 -1.65874630e-01 -3.56554799e-02 -1.27070755e-01 -1.95106030e-01 -3.96737456e-03 +1.43101616e-02 -3.96713614e-03 -9.77377594e-02 -3.96667933e-03 +1.36636884e-03 -1.05240390e-01 +9.37472954e-02 -4.55122776e-02 +1.36593613e-03 +1.36591413e-03 +1.36622484e-03 +1.36641960e-03 +1.36548048e-03 +1.30081877e-01 +5.79821169e-02 +1.36458979e-03 -6.11936934e-02 -1.64508209e-01 +1.36614265e-03 +1.36543729e-03 +1.36429456e-03 +1.36584672e-03 -4.04265560e-02 -1.60691570e-02 +1.46432161e-01 +1.72005489e-01 +1.36600423e-03 +1.36651273e-03 +1.36678002e-03 -7.99869224e-02 +3.17781121e-01 -1.09170355e-01 +1.26278818e-01 +7.91329816e-02 +1.36445079e-03 -2.13878751e-01 +1.36355846e-03 +1.36666966e-03 +1.36458396e-03 +1.36546465e-03 +5.00459015e-01 -9.01177526e-03 -1.13284774e-01 -2.57788654e-02 -2.04835773e-01 -2.52817459e-02 +1.36520411e-03 +1.36590481e-03 +1.36417104e-03 +1.36693742e-03 +6.47586212e-02 -2.95162722e-02 -2.12228477e-01 -1.76398352e-01 +1.36530213e-03 -4.37713079e-02 +1.36461877e-03 +5.00937067e-02 +1.36319816e-03 +4.18780837e-03 +5.72687248e-03 -6.59009814e-02 +4.53288257e-02 +4.18826006e-03 +4.18828148e-03 +4.18794295e-03 +4.18775808e-03 +4.18868614e-03 -2.19409883e-01 -1.99622259e-01 +4.18955740e-03 +5.11642635e-01 -1.65751893e-02 +4.18803794e-03 +4.18870663e-03 +4.18987125e-03 +4.18834249e-03 -8.48935694e-02 -1.34421811e-01 -2.37455145e-01 -2.02446729e-01 +4.18818183e-03 +4.18769103e-03 +4.18747356e-03 +3.37222517e-02 -5.28392754e-02 +7.27923363e-02 +5.24527393e-02 -3.73117626e-02 +4.18969709e-03 +2.14023560e-01 +4.19052970e-03 +4.18755226e-03 +4.18957742e-03 +4.18868335e-03 +2.68990725e-01 -3.90891209e-02 -1.38720676e-01 -1.65445223e-01 -6.62469268e-02 +9.44426097e-03 +4.18894598e-03 +4.18830244e-03 +4.18998254e-03 +4.18730453e-03 +2.05311731e-01 +6.89242110e-02 -6.39024563e-03 -3.32843624e-02 +4.18882631e-03 -2.20669992e-02 +4.18951828e-03 +9.60581191e-03 +4.19087010e-03 -4.07885350e-02 -2.30731428e-04 -1.38600901e-01 -9.53136608e-02 -4.07894775e-02 -4.07895222e-02 -4.07888554e-02 -4.07884270e-02 -4.07903008e-02 -2.66638845e-01 +2.52536237e-01 -4.07919437e-02 +2.54093204e-02 +3.16398479e-02 -4.07890305e-02 -4.07903418e-02 -4.07925136e-02 -4.07896824e-02 -6.00209180e-03 +2.61164874e-01 -8.24945569e-02 -4.24048938e-02 -4.07893248e-02 -4.07882892e-02 -4.07879055e-02 -6.14904873e-02 +1.57823414e-01 +5.27626872e-02 +3.52578908e-02 +2.52419055e-01 -4.07922156e-02 -7.41269812e-02 -4.07938659e-02 -4.07880656e-02 -4.07919995e-02 -4.07903045e-02 -5.38131148e-02 +3.79820839e-02 +4.19697315e-01 -7.44370446e-02 +1.02643363e-01 -3.24867405e-02 -4.07908335e-02 -4.07895520e-02 -4.07927334e-02 -4.07875702e-02 -3.09388191e-01 -1.50910541e-01 +4.99815270e-02 -1.82261303e-01 -4.07905728e-02 +3.48941907e-02 -4.07918580e-02 -4.61771414e-02 -4.07944843e-02 +1.51055707e-02 +3.32281925e-02 -6.20789416e-02 -2.13346526e-01 +1.51051003e-02 +1.51050519e-02 +1.51054226e-02 +1.51056154e-02 +1.51046645e-02 +6.94562972e-01 -1.98764175e-01 +1.51037481e-02 +4.05020207e-01 -2.34706625e-02 +1.51053118e-02 +1.51046440e-02 +1.51034361e-02 +1.51049811e-02 -7.97621254e-03 +6.41142726e-02 +2.51905862e-02 -9.83280167e-02 +1.51051581e-02 +1.51056871e-02 +1.51059339e-02 -1.14808068e-01 -3.30343330e-03 -2.43611127e-01 -2.93418858e-02 -1.17724605e-01 +1.51035916e-02 -1.67938489e-02 +1.51027273e-02 +1.51058258e-02 +1.51037332e-02 +1.51046570e-02 +2.00124517e-01 +9.92149934e-02 -2.66815841e-01 +1.59934700e-01 +2.28779122e-01 -1.19319499e-01 +1.51043907e-02 +1.51050435e-02 +1.51033085e-02 +1.51060913e-02 +6.70498386e-02 +7.68499896e-02 +1.05624378e-01 +1.67786434e-01 +1.51045313e-02 -8.30841288e-02 +1.51038002e-02 +1.52615279e-01 +1.51024014e-02 +4.86372933e-02 +5.00507243e-02 +4.51778397e-02 -4.43504862e-02 +4.86366339e-02 +4.86365631e-02 +4.86370958e-02 +4.86373678e-02 +4.86359373e-02 +3.73751223e-02 +1.28064945e-01 +4.86345030e-02 +5.08392751e-02 +4.56686988e-02 +4.86369804e-02 +4.86358963e-02 +4.86340337e-02 +4.86364774e-02 -4.02428024e-03 +3.75024341e-02 -2.93655954e-02 +5.65618202e-02 +4.86367121e-02 +4.86375391e-02 +4.86378893e-02 +3.04813962e-02 -1.16298925e-02 -7.89678574e-01 +1.48251325e-01 +1.76530723e-02 +4.86342721e-02 +4.43065725e-02 +4.86329570e-02 +4.86377478e-02 +4.86344695e-02 +4.86359112e-02 +1.26223072e-01 +1.35925263e-01 +8.39777198e-03 +2.95552108e-02 -5.04477620e-02 +1.02273479e-01 +4.86355349e-02 +4.86365445e-02 +4.86338474e-02 +4.86381948e-02 -9.63886175e-03 +1.70748457e-02 -7.10640149e-03 +1.17327198e-01 +4.86356914e-02 +4.30172533e-02 +4.86345515e-02 +6.09971955e-02 +4.86323982e-02 -3.89513150e-02 -4.88937786e-03 +1.77782159e-02 -2.49931335e-01 -3.89511660e-02 -3.89511436e-02 -3.89512591e-02 -3.89513187e-02 -3.89510430e-02 -1.96480557e-01 -1.95561796e-02 -3.89507301e-02 +9.29369405e-02 +2.19761416e-01 -3.89512070e-02 -3.89510095e-02 -3.89506519e-02 -3.89511511e-02 -8.23885053e-02 -1.15021311e-01 +4.68979008e-04 -2.09419817e-01 -3.89511511e-02 -3.89513634e-02 -3.89514156e-02 -2.10148655e-02 +1.12938462e-02 -4.22014445e-02 +1.08243398e-01 +4.29737680e-02 -3.89506929e-02 +2.49314964e-01 -3.89504395e-02 -3.89513858e-02 -3.89507301e-02 -3.89510356e-02 +1.74980775e-01 -4.54284064e-02 +5.69507070e-02 +9.72243175e-02 +1.04294233e-02 -2.56623477e-01 -3.89509425e-02 -3.89511362e-02 -3.89506072e-02 -3.89515050e-02 -1.77763149e-01 -8.20476264e-02 -5.39694652e-02 -4.45711352e-02 -3.89509946e-02 +5.80814444e-02 -3.89507562e-02 -1.57202687e-02 -3.89502905e-02 -8.11417645e-04 -5.92582114e-02 +7.15946332e-02 +2.28305176e-01 -8.11285630e-04 -8.11261358e-04 -8.11358041e-04 -8.11431033e-04 -8.11179518e-04 +1.47004142e-01 +3.74700390e-02 -8.10951926e-04 -8.99860784e-02 -1.30943865e-01 -8.11354083e-04 -8.11182836e-04 -8.10877013e-04 -8.11231555e-04 -9.12078544e-02 -5.95901012e-02 -1.69034466e-01 +1.25881106e-01 -8.11298145e-04 -8.11447913e-04 -8.11520265e-04 -6.15552068e-02 -1.28208250e-01 -4.05252092e-02 -1.91746317e-02 +1.27263471e-01 -8.10935395e-04 +2.47283396e-03 -8.10715719e-04 -8.11498030e-04 -8.10950878e-04 -8.11171834e-04 -2.10342533e-03 +5.63950390e-02 +2.19669044e-01 +4.52318080e-02 -1.91934347e-01 -8.65948424e-02 -8.11130914e-04 -8.11256934e-04 -8.10866652e-04 -8.11537437e-04 -1.16883710e-01 +1.05507217e-01 +6.83234725e-03 +1.10328361e-01 -8.11168691e-04 -7.11917579e-02 -8.10969679e-04 +4.04589064e-02 -8.10590805e-04 +3.04447450e-02 +2.90734321e-02 +3.96948121e-02 -2.91683853e-01 +3.04450151e-02 +3.04450281e-02 +3.04448362e-02 +3.04447189e-02 +3.04452479e-02 +1.68003991e-01 -1.17413975e-01 +3.04458141e-02 -3.63186561e-02 +2.73862660e-01 +3.04448698e-02 +3.04452758e-02 +3.04460395e-02 +3.04450579e-02 -5.95322363e-02 +1.24353588e-01 -3.92223746e-02 +2.08880469e-01 +3.04449815e-02 +3.04446798e-02 +3.04445215e-02 +8.48445147e-02 +1.71196148e-01 -1.26158521e-01 -1.18514530e-01 -2.10221082e-01 +3.04459035e-02 -7.35594407e-02 +3.04463841e-02 +3.04445978e-02 +3.04458197e-02 +3.04452516e-02 -5.17982915e-02 +3.67665924e-02 +4.48537953e-02 +6.27392009e-02 +9.30140167e-02 -2.24613473e-01 +3.04454546e-02 +3.04450355e-02 +3.04460675e-02 +3.04444041e-02 +3.01041678e-02 +1.85561866e-01 +1.23830289e-02 -1.51957139e-01 +3.04453801e-02 -9.49913412e-02 +3.04457787e-02 -3.13413702e-02 +3.04466169e-02 -4.45520543e-02 -2.79522017e-02 -7.57186562e-02 -1.67659029e-01 -4.45518866e-02 -4.45519015e-02 -4.45520319e-02 -4.45520654e-02 -4.45518009e-02 +9.87515673e-02 -1.02295280e-01 -4.45515811e-02 -4.18748334e-02 +4.66542132e-02 -4.45519909e-02 -4.45518009e-02 -4.45515029e-02 -4.45518717e-02 -3.24468054e-02 +3.66245247e-02 +9.00870040e-02 +2.85782605e-01 -4.45519388e-02 -4.45520841e-02 -4.45521995e-02 -8.61379206e-02 -3.10153551e-02 -4.95849438e-02 -5.99968582e-02 +1.04250237e-02 -4.45515290e-02 -2.87792087e-01 -4.45513017e-02 -4.45521511e-02 -4.45515811e-02 -4.45517823e-02 +1.10262848e-01 +1.07728578e-02 -5.69585636e-02 +7.37892045e-03 +6.01272695e-02 +2.34567076e-01 -4.45517302e-02 -4.45518866e-02 -4.45514731e-02 -4.45522629e-02 -1.57407790e-01 +6.86132163e-02 +4.89876308e-02 -1.76118702e-01 -4.45517711e-02 -6.31904081e-02 -4.45516035e-02 -4.48001064e-02 -4.45512123e-02 +1.05995193e-01 +1.59257904e-01 -2.21926607e-02 -2.10730627e-01 +1.05994903e-01 +1.05994917e-01 +1.05995066e-01 +1.05995223e-01 +1.05994761e-01 +1.49113744e-01 +1.92114949e-01 +1.05994232e-01 +8.89212638e-02 -3.28730881e-01 +1.05995074e-01 +1.05994739e-01 +1.05994053e-01 +1.05994903e-01 +1.18397186e-02 +1.64715305e-01 +1.98087901e-01 -1.18190341e-01 +1.05994955e-01 +1.05995290e-01 +1.05995424e-01 +2.04519093e-01 +1.64576486e-01 -1.55424118e-01 -1.33454176e-02 -7.46639669e-02 +1.05994143e-01 -6.53458014e-02 +1.05993748e-01 +1.05995350e-01 +1.05994225e-01 +1.05994768e-01 +4.30035219e-02 +9.52024236e-02 -7.40885269e-03 +1.22451082e-01 +4.87270616e-02 -1.12801204e-02 +1.05994597e-01 +1.05994910e-01 +1.05994023e-01 +1.05995402e-01 +2.22173989e-01 +9.73850191e-02 +1.50631249e-01 +2.05253232e-02 +1.05994709e-01 +2.39238948e-01 +1.05994217e-01 +3.24872345e-01 +1.05993561e-01 +1.09835438e-01 +4.21022587e-02 +3.43545116e-02 +1.91859510e-02 +1.09837003e-01 +1.09837122e-01 +1.09835885e-01 +1.09835245e-01 +1.09838590e-01 +9.96562615e-02 +7.66603425e-02 +1.09841764e-01 -1.49625838e-02 +1.32847920e-01 +1.09836243e-01 +1.09838679e-01 +1.09842733e-01 +1.09837376e-01 -7.72014856e-02 +1.54174538e-03 +7.60562047e-02 -9.91522148e-02 +1.09836787e-01 +1.09835014e-01 +1.09834164e-01 +7.96472207e-02 +2.21552253e-01 -8.59984104e-03 -3.23428422e-01 -1.75532147e-01 +1.09842248e-01 +2.39445433e-01 +1.09845147e-01 +1.09834574e-01 +1.09841846e-01 +1.09838605e-01 -2.81796247e-01 -2.43001943e-03 -9.84134972e-02 -9.21620280e-02 -8.27884302e-02 -1.24195740e-01 +1.09839499e-01 +1.09837174e-01 +1.09843209e-01 +1.09833561e-01 -3.06849461e-02 -1.13354333e-01 +1.47742480e-01 +1.65948674e-01 +1.09839104e-01 -6.23753341e-03 +1.09841608e-01 +1.20306745e-01 +1.09846346e-01 -1.73323508e-02 -1.75794847e-02 +9.75219533e-02 +1.00937270e-01 -1.73330847e-02 -1.73331462e-02 -1.73325893e-02 -1.73322912e-02 -1.73338018e-02 +8.45478997e-02 +3.24267834e-01 -1.73353031e-02 +1.68146849e-01 +8.45946223e-02 -1.73327345e-02 -1.73338596e-02 -1.73357595e-02 -1.73332375e-02 -9.48217977e-03 -9.37412679e-03 -8.41364861e-02 +4.27443795e-02 -1.73330009e-02 -1.73321534e-02 -1.73317306e-02 +5.61447367e-02 -3.71281579e-02 +8.88483822e-02 -7.34383240e-02 +9.49499086e-02 -1.73355136e-02 -1.13008365e-01 -1.73369385e-02 -1.73319168e-02 -1.73353292e-02 -1.73338205e-02 +3.81484516e-02 +7.21880328e-03 +1.77825496e-01 -2.64755517e-01 -2.63740331e-01 -6.62096664e-02 -1.73342358e-02 -1.73331629e-02 -1.73359830e-02 -1.73314493e-02 -2.99282209e-03 -5.03681377e-02 -2.07580738e-02 -1.98490128e-01 -1.73340775e-02 -8.53638574e-02 -1.73352137e-02 -1.46205034e-02 -1.73375160e-02 -8.37706923e-02 -2.86835842e-02 +1.72636777e-01 +8.89542997e-02 -8.37728232e-02 -8.37729573e-02 -8.37713480e-02 -8.37704614e-02 -8.37748721e-02 -1.17795147e-01 -3.72938551e-02 -8.37790519e-02 -5.11872098e-02 -2.87747324e-01 -8.37717727e-02 -8.37750211e-02 -8.37804601e-02 -8.37732702e-02 +7.00231418e-02 +7.34109282e-02 -9.18905437e-02 +1.13510981e-01 -8.37725326e-02 -8.37700665e-02 -8.37689489e-02 -4.11489829e-02 -9.52281430e-02 +2.39737198e-01 +2.34158933e-01 +7.47797936e-02 -8.37796852e-02 +2.04760209e-02 -8.37838128e-02 -8.37694332e-02 -8.37791339e-02 -8.37749019e-02 +4.65919934e-02 -6.02262579e-02 -5.40523827e-02 -3.74286711e-01 +4.01177444e-02 -3.13757546e-02 -8.37761462e-02 -8.37730169e-02 -8.37810263e-02 -8.37681219e-02 +5.01040220e-02 -1.00616880e-01 +7.65854642e-02 -4.01659012e-02 -8.37755725e-02 +1.22380577e-01 -8.37788135e-02 +4.75198105e-02 -8.37854296e-02 +2.31380537e-02 +1.15037821e-02 +1.18923821e-01 -9.39355418e-02 +2.31386647e-02 +2.31387131e-02 +2.31382605e-02 +2.31379811e-02 +2.31392775e-02 -2.77247597e-02 +3.36357318e-02 +2.31404435e-02 +1.93166472e-02 +2.60116041e-01 +2.31383629e-02 +2.31393036e-02 +2.31408160e-02 +2.31387895e-02 -7.42457584e-02 +7.79315606e-02 -7.86938965e-02 -5.35684407e-01 +2.31385846e-02 +2.31378879e-02 +2.31375992e-02 +1.44744217e-02 -5.56164719e-02 +1.52906120e-01 +8.63459185e-02 +1.52795285e-01 +2.31406149e-02 +1.21118590e-01 +2.31417920e-02 +2.31377166e-02 +2.31404472e-02 +2.31392793e-02 -6.64058775e-02 +1.03100222e-02 +1.27330318e-01 -3.63298543e-02 -5.56495823e-02 -2.63631582e-01 +2.31396034e-02 +2.31387205e-02 +2.31410246e-02 +2.31373515e-02 +6.54462129e-02 +1.13512874e-02 -8.64884406e-02 +1.14859283e-01 +2.31394377e-02 +8.01727995e-02 +2.31403913e-02 -6.23355135e-02 +2.31422484e-02 -8.43494460e-02 -9.12293568e-02 -4.39785831e-02 +7.39658251e-02 -8.43500048e-02 -8.43500346e-02 -8.43495727e-02 -8.43494385e-02 -8.43504742e-02 -9.65527147e-02 -2.65350193e-01 -8.43515620e-02 +1.04549937e-01 +2.37098411e-01 -8.43496844e-02 -8.43505263e-02 -8.43519494e-02 -8.43501464e-02 -2.63674080e-01 -4.12615389e-01 +9.20456797e-02 +3.47620875e-01 -8.43499228e-02 -8.43492970e-02 -8.43490809e-02 -1.04377270e-01 -2.71425731e-02 -1.42755359e-01 -7.03958347e-02 +1.22275233e-01 -8.43517482e-02 +1.03957362e-01 -8.43527466e-02 -8.43491778e-02 -8.43515992e-02 -8.43504742e-02 -3.38953622e-02 -1.84480965e-01 +6.45400062e-02 -1.03775058e-02 -1.83586068e-02 -4.67797406e-02 -8.43508095e-02 -8.43500346e-02 -8.43520686e-02 -8.43489170e-02 +2.25426909e-03 -1.74475938e-01 -3.91538404e-02 -6.88274428e-02 -8.43506679e-02 +1.15378909e-02 -8.43515024e-02 +9.75444838e-02 -8.43532085e-02 +6.86335936e-02 +6.94237873e-02 -4.23291139e-02 -5.49544580e-02 +6.86344355e-02 +6.86344728e-02 +6.86338842e-02 +6.86335266e-02 +6.86352253e-02 +1.93189055e-01 +3.02548975e-01 +6.86369836e-02 +7.21215457e-03 +1.62078887e-01 +6.86340481e-02 +6.86352476e-02 +6.86375201e-02 +6.86345994e-02 +9.04329419e-02 -1.41807571e-01 -2.22878288e-02 +7.32825398e-02 +6.86343536e-02 +6.86333925e-02 +6.86330572e-02 +1.23352021e-01 +1.57644406e-01 -1.01347990e-01 +4.62890156e-02 -1.27432436e-01 +6.86372072e-02 -1.01833999e-01 +6.86387271e-02 +6.86331838e-02 +6.86369836e-02 +6.86352253e-02 +1.63594693e-01 +8.27514976e-02 +4.67153592e-03 -3.50451827e-01 +4.62419242e-02 +5.59259467e-02 +6.86357245e-02 +6.86344951e-02 +6.86376914e-02 +6.86327517e-02 +4.50037457e-02 +1.87898204e-02 +1.48455083e-01 +1.36493504e-01 +6.86354935e-02 -7.40101561e-03 +6.86368570e-02 +4.06971611e-02 +6.86394200e-02 +4.33854433e-03 -3.03581264e-02 -7.45307505e-02 +8.69120732e-02 +4.33888938e-03 +4.33891732e-03 +4.33864444e-03 +4.33849916e-03 +4.33924561e-03 +8.91218334e-03 +1.50830019e-02 +4.33991291e-03 -2.14320961e-02 -3.93394262e-01 +4.33870917e-03 +4.33926936e-03 +4.34014946e-03 +4.33896948e-03 +1.44829169e-01 -1.03069551e-01 +1.66930467e-01 -2.67816484e-02 +4.33882140e-03 +4.33843257e-03 +4.33825469e-03 +1.65757954e-01 -2.20435727e-02 -1.12656159e-02 +8.52894858e-02 +1.78164318e-01 +4.34001070e-03 