#Parameter# /MlpAttender.d853df2e/_0 {128,512} 1048577 ZERO_GRAD
-8.24028347e-03 +1.69976041e-01 +5.72978286e-03 -1.44594610e-01 -1.36440545e-02 +4.41049337e-02 +1.12005100e-01 +7.35844225e-02 +5.33768460e-02 +8.55045021e-02 -7.36167058e-02 -1.33370817e-01 +1.40745863e-01 -9.03505087e-02 -5.31727634e-02 -1.17786348e-01 +1.11868344e-01 -7.62053952e-02 -2.20720649e-01 +2.08770260e-01 +1.90814525e-01 +1.37663513e-01 +2.04733666e-02 +8.81073177e-02 +2.06502631e-01 -1.60793900e-01 -4.42910194e-02 -1.87663198e-01 -2.91395728e-02 -1.51760608e-01 +1.36619627e-01 -3.31211165e-02 +5.84601313e-02 -3.72052565e-02 -1.17721476e-01 +6.39952421e-02 +2.30108440e-01 +5.39693944e-02 +2.16075070e-02 +9.52558517e-02 +5.49661927e-03 -4.61765081e-02 +1.12411864e-01 -1.07731512e-02 -9.99885872e-02 +4.93408814e-02 +6.10605441e-03 +5.03880866e-02 +6.80102706e-02 -5.40715531e-02 +2.70780623e-02 +4.67446893e-02 +9.51403007e-02 -2.36494392e-02 +3.55796590e-02 -2.35196218e-01 -6.95293397e-02 +8.65505859e-02 -1.27936780e-01 -8.28714743e-02 +1.81144662e-02 -7.00490102e-02 +2.14349240e-01 -1.04172058e-01 +4.22976092e-02 -9.67206992e-03 +4.80827428e-02 -6.60933275e-03 -1.66718755e-02 -3.26675884e-02 +2.32788268e-03 +8.87642503e-02 +2.53132638e-02 +6.38487712e-02 -1.53548926e-01 -7.53963962e-02 +1.54064773e-02 +1.87608778e-01 -8.10404122e-02 +1.46945983e-01 -4.67513315e-02 +7.40058906e-03 +1.26576439e-01 -1.91139132e-01 -1.47422299e-01 +2.83661243e-02 +7.71568790e-02 -1.67894855e-01 +1.94791406e-01 -7.75382817e-02 -1.40355796e-01 -1.80047810e-01 -1.70567594e-02 +6.68772534e-02 -6.30872697e-02 +6.73178211e-02 +2.92531755e-02 +1.28071055e-01 +1.48255855e-01 +3.13003957e-02 -6.97103888e-02 -1.28784627e-01 -2.37319376e-02 +5.89431729e-04 +2.32834602e-03 -1.47460222e-01 -1.20203070e-01 +5.38935922e-02 -8.83680880e-02 -1.64003432e-01 -1.88681353e-02 -3.84721979e-02 +2.74844114e-02 -6.90375045e-02 +1.10907800e-01 +5.18844882e-03 +1.96565598e-01 +1.26175120e-01 +1.19289182e-01 +1.49503082e-01 +1.20242476e-01 +4.64118682e-02 -5.10130525e-02 +6.94035292e-02 -1.18573010e-01 +3.57760638e-02 +9.11978781e-02 -6.44584969e-02 -5.95020428e-02 -1.12191185e-01 +3.15016843e-02 -1.73355658e-02 +3.44818383e-02 -5.73440343e-02 +7.25568505e-03 -6.66470826e-02 +6.93885311e-02 -3.22072767e-02 -5.22784702e-02 -6.64580166e-02 -2.14892272e-02 -4.95755747e-02 -1.58337519e-01 -5.03108911e-02 +2.25021690e-02 -6.82277456e-02 -1.60904750e-02 +4.38948870e-02 +5.24842963e-02 -3.91204114e-04 -7.43838586e-03 -3.86525504e-02 +3.38062868e-02 -1.75887793e-02 +1.53482854e-01 -2.14161240e-02 +1.24290204e-02 -6.94589466e-02 +3.96721736e-02 -4.30624634e-02 +1.79668721e-02 +1.42024467e-02 -7.73527622e-02 -7.54928812e-02 +1.32528201e-01 -6.99996250e-03 -2.18634885e-02 +3.73900570e-02 -7.64209405e-02 -3.84747088e-02 -4.34026122e-02 +4.73614298e-02 -3.23333032e-03 +4.54614721e-02 -2.18101684e-02 +3.55069675e-02 +2.04274088e-01 +3.72354910e-02 +4.14998569e-02 +7.89464936e-02 +4.57283147e-02 -3.67480069e-02 +1.96672045e-02 +5.82882352e-02 +7.97121897e-02 +8.96959603e-02 -8.66168588e-02 +8.15032125e-02 +8.19668695e-02 -1.07472055e-01 -4.12486610e-04 -3.36152799e-02 +3.80572230e-02 -3.29246782e-02 +7.69804977e-03 +1.04325162e-02 -4.36174273e-02 +5.19136488e-02 -1.57091096e-02 +5.00416197e-02 -4.64375876e-02 -8.92914925e-03 -9.38518811e-03 +1.06542427e-02 +4.40492257e-02 -4.50207153e-03 +4.53341473e-03 -6.56532124e-03 +4.88110520e-02 +5.09016700e-02 +3.70129272e-02 -2.32069418e-02 +2.51689274e-02 +4.75074677e-03 +8.04801434e-02 -8.60390291e-02 -5.99276014e-02 +2.09041201e-02 +6.14946820e-02 -7.99942911e-02 -2.73191277e-02 +2.01661959e-02 +1.02081962e-01 +3.39135528e-02 -6.46384805e-02 +6.92421868e-02 +5.94810061e-02 -1.07236274e-01 +2.34867036e-02 -1.84305664e-02 +1.19004093e-01 +7.07183313e-03 -3.21615972e-02 -3.71855535e-02 -4.70572598e-02 +1.18314391e-02 +1.47426212e-02 +9.13200621e-03 +5.47713786e-02 +9.12725460e-03 -4.28327397e-02 -1.20278150e-01 +6.25338927e-02 +1.02360576e-01 -7.03183487e-02 -3.56987119e-03 -1.87209576e-01 -3.22044976e-02 -3.47706676e-02 -5.87308370e-02 +7.70896971e-02 +2.97256261e-02 +6.26767799e-02 +2.57748842e-01 -4.49055340e-03 +2.67161038e-02 -2.56082475e-01 -1.97105184e-02 -1.55755267e-01 +2.01945063e-02 +2.00540386e-02 -1.97417557e-01 +1.53231621e-01 -1.31030351e-01 +3.23878229e-02 +5.19137736e-03 +5.76942712e-02 +8.07669461e-02 -2.80043781e-01 +5.16161248e-02 -2.31892705e-01 -1.21241875e-01 -6.20646775e-02 +1.61054239e-01 +1.83857203e-01 +2.22233027e-01 -5.87120503e-02 +1.45822331e-01 +1.54222930e-02 -4.45016138e-02 -9.86349732e-02 +2.54291128e-02 +4.54109125e-02 -1.85655162e-01 +1.46973319e-02 +6.94556013e-02 +5.28978370e-02 -4.29223403e-02 -6.03780001e-02 -1.25512049e-01 +1.77957401e-01 -2.12503105e-01 +9.81224403e-02 +2.18265578e-01 -5.89723848e-02 +1.28567755e-01 +8.49629492e-02 +6.81258664e-02 +1.03168443e-01 -4.89554740e-02 +4.36489843e-02 -2.26887520e-02 -6.15822673e-02 +1.73007995e-01 +5.22429720e-02 -9.38160904e-03 +3.21714068e-03 +6.06944449e-02 +4.13136482e-02 -3.80765758e-02 -4.22593988e-02 -1.47389034e-02 +5.93885034e-02 -1.85400471e-02 +1.19813502e-01 +7.53981695e-02 +1.21278986e-01 -1.41775042e-01 +3.66973758e-01 +2.76948866e-02 +4.62560765e-02 -2.13279314e-02 -1.19468249e-01 +5.05953468e-02 +6.40174374e-02 +4.19951975e-02 +1.00528384e-02 -2.29116231e-02 -2.78480761e-02 -6.05149120e-02 -3.78637128e-02 +1.25029683e-01 -6.41163662e-02 -2.09412158e-01 -6.98753670e-02 +1.96081012e-01 -3.80263217e-02 -9.36231241e-02 -1.41886473e-01 +7.06378445e-02 -1.27677038e-01 -1.07811637e-01 +1.71108991e-01 -8.73914585e-02 +1.72835588e-01 -7.53899803e-03 +1.99649692e-01 +5.98715767e-02 +1.49093196e-01 +1.16260789e-01 -1.43415272e-01 +1.85315460e-01 -1.07590079e-01 +1.61613151e-02 +2.75468498e-01 +1.08943306e-01 -7.12939054e-02 -1.78499259e-02 +3.40992562e-03 +7.37183243e-02 +3.19818780e-02 -9.78173316e-02 -1.03276074e-01 -1.00663289e-01 -3.21503729e-02 -1.18859494e-02 +2.44704727e-02 -9.90603864e-02 -4.71512675e-02 -7.91675672e-02 +1.01098396e-01 +2.00056359e-01 -1.01025395e-01 +4.45917137e-02 -4.69792597e-02 +1.16990052e-01 +6.18739426e-02 -2.07735240e-01 +4.07624058e-02 -3.89741287e-02 -6.88619837e-02 +2.70646751e-01 +2.89666764e-02 -5.84986154e-03 +1.77328467e-01 +2.30163157e-01 +9.90054663e-03 +1.32476883e-02 -2.02783372e-06 +5.77233434e-02 -3.62619832e-02 -2.68606115e-02 -1.72573552e-02 -4.69840914e-02 -1.00368373e-01 +2.68047810e-01 +9.91605893e-02 -4.74416651e-02 -6.87095746e-02 +9.48264450e-02 -2.62403022e-02 -8.12507942e-02 -1.55255347e-01 +4.94269002e-03 -1.70451611e-01 -4.37141582e-02 -3.96233983e-02 -6.88552782e-02 -1.37029970e-02 -9.16410461e-02 -7.98152164e-02 -1.06353015e-01 +1.15402164e-02 +1.33831069e-01 -2.35308751e-01 +1.61803979e-02 +1.57618880e-01 +1.35576174e-01 -1.03081591e-01 -1.30474374e-01 +6.52439669e-02 -1.59515917e-01 +1.20657660e-01 +1.78232770e-02 -1.59503147e-01 +4.63470109e-02 +1.48403555e-01 -1.62621170e-01 -1.02414697e-01 -1.02058360e-02 +2.21251383e-01 -2.70705968e-02 -1.82150126e-01 +4.42632325e-02 -1.04311176e-01 +3.64053026e-02 +9.12613720e-02 +1.01648390e-01 +2.14280337e-01 +1.61237940e-01 +6.76203966e-02 -7.74621777e-03 +2.69217402e-01 -1.49345294e-01 -1.71877854e-02 -3.37308720e-02 +9.83696729e-02 -1.40969232e-01 +8.80561955e-03 +1.36726588e-01 -6.43504634e-02 +5.94687797e-02 +1.69969067e-01 +3.85588850e-03 -2.11469159e-02 -1.34613335e-01 -2.05113776e-02 +5.17181940e-02 -7.84182847e-02 -6.76192641e-02 +3.11499853e-02 -2.70300865e-01 +6.19260930e-02 -2.12465912e-01 -1.09902941e-01 -8.26978609e-02 +9.63032469e-02 +1.56712264e-01 -7.37848058e-02 -7.76471663e-03 -1.11653708e-01 +1.98033184e-01 +1.58065677e-01 +1.32759344e-02 +7.73533583e-02 +7.34428316e-02 +2.42728502e-01 -9.49691087e-02 +2.87737772e-02 -2.25292761e-02 +1.22237459e-01 -1.46712020e-01 -4.03192714e-02 +8.45275149e-02 +3.44400713e-03 +3.14563572e-01 -1.70331195e-01 +2.05091491e-01 +8.02014582e-03 +5.07562002e-03 -1.32785484e-01 +7.38221128e-03 +4.35878858e-02 +8.75702128e-02 -3.30350525e-03 -1.00453198e-01 +6.78533837e-02 +1.73567817e-01 -3.30254287e-02 +2.06370559e-02 +7.39699928e-03 +4.15145829e-02 -2.07418315e-02 +1.08083010e-01 +5.51278405e-02 +6.03968464e-03 +1.81321427e-02 +1.85316987e-02 -1.63903516e-02 -2.16588467e-01 -1.89638317e-01 -3.87534089e-02 -1.30410612e-01 +8.92237127e-02 +6.61629671e-03 -1.56233283e-02 -2.76728533e-02 +2.46158928e-01 +8.83201137e-02 +1.52050614e-01 -8.60357098e-03 +1.46059111e-01 -7.27771521e-02 -8.37438479e-02 +7.58447647e-02 +8.90558809e-02 +1.61806196e-02 +2.51500662e-02 +9.80990827e-02 +1.50309354e-01 -7.34950602e-02 -9.49536711e-02 -1.62611448e-03 +1.80229947e-01 -5.89861088e-02 +7.86351934e-02 +2.45957114e-02 +3.47859375e-02 -7.12192282e-02 -4.73418944e-02 +1.58389751e-02 -1.97614014e-01 +1.59060091e-01 -6.58462271e-02 -2.32083350e-01 -8.94866586e-02 +4.86350767e-02 -8.18598084e-03 +1.47471046e-02 -1.04969494e-01 +2.21655034e-02 -5.84841846e-03 -7.78369652e-03 -4.41905037e-02 -7.57556483e-02 +1.18055783e-01 +5.18365689e-02 +5.53386807e-02 -7.03881234e-02 -1.75579503e-01 +1.56472787e-01 -1.22118279e-01 -9.83986929e-02 +1.46458354e-02 +7.17764050e-02 -3.00361179e-02 -1.77264318e-01 -3.37384306e-02 +7.28584128e-03 -7.02182427e-02 +4.35231701e-02 -1.54899150e-01 -2.27306113e-01 -3.24554392e-03 -3.17507796e-02 +1.58422217e-02 -2.75150836e-01 +1.42349601e-02 -2.86803544e-02 -9.11476847e-04 -6.76176846e-02 +5.09780981e-02 -4.09235246e-02 -2.15924904e-02 -1.04188584e-01 +2.85121631e-02 -1.44119412e-01 +8.36793184e-02 -1.33524731e-01 +1.33800119e-01 +5.31545766e-02 -7.87373111e-02 +4.26253350e-03 +9.46777835e-02 -8.45889971e-02 -1.42204672e-01 +1.24494797e-02 -6.52471334e-02 -3.23052369e-02 +8.49341676e-02 +1.02346078e-01 +2.41612103e-02 -1.14852155e-03 -3.43791842e-02 +8.73462185e-02 +5.54950982e-02 +8.05397406e-02 +1.61929987e-02 -5.52452132e-02 -1.19138598e-01 +5.55820689e-02 -3.32080759e-02 +2.71779369e-03 -1.34364404e-02 +3.61919999e-02 -1.30556524e-01 -6.49999678e-02 +2.77031530e-02 -4.94768731e-02 +2.20190492e-02 +3.72795723e-02 +2.58849561e-02 +1.37001872e-01 +1.52459443e-02 +5.43303490e-02 -6.14311956e-02 +3.61193120e-02 -8.02527219e-02 -1.96936280e-01 -2.01311940e-03 +2.35209242e-02 +3.97246750e-03 +6.28782436e-02 +8.92702565e-02 +1.44341990e-01 +3.10429488e-03 +4.95613366e-02 +2.70008951e-01 +1.13861270e-01 -7.41090439e-03 +6.53731674e-02 -7.05201551e-03 +4.30705212e-02 -6.05177647e-03 -5.74770905e-02 -8.50648731e-02 +2.20264290e-02 +1.46354616e-01 +2.48819422e-02 -8.94118696e-02 +5.96086904e-02 -8.31430312e-03 +2.45932177e-01 +1.56672418e-01 -5.56947291e-02 +1.33365365e-02 -2.18348399e-01 -6.48696572e-02 -1.60970613e-02 -3.53953354e-02 -2.84011252e-02 +6.14443235e-03 -5.04158698e-02 -1.94675494e-02 -1.67432930e-02 -1.13227582e-02 -3.82631905e-02 -4.13391963e-02 +6.57734498e-02 +1.04361057e-01 -6.38540611e-02 +4.54654358e-02 -1.25993714e-01 -6.47967011e-02 +3.94548476e-02 +4.20863330e-02 +4.56899218e-02 -1.05625600e-01 -6.45654127e-02 -5.89848263e-03 -6.85785385e-03 +3.96564715e-02 -2.28258409e-02 -1.23317361e-01 +1.10028870e-01 -2.70056422e-03 +5.70632964e-02 +8.70035589e-02 +1.68026164e-01 -1.43878818e-01 -7.13625550e-02 -7.80594572e-02 -8.54756460e-02 +9.13874581e-02 +1.19517647e-01 +6.30595013e-02 -8.58078375e-02 -3.53610627e-02 +6.14547879e-02 -3.07924692e-02 -1.02370262e-01 +9.46444571e-02 +7.22180903e-02 +1.11269094e-01 -5.43015972e-02 -1.95022896e-02 +8.02792683e-02 +2.57148477e-03 +1.42825060e-02 -2.92551219e-02 -3.61786298e-02 +1.37805091e-02 +5.08504398e-02 +2.83199884e-02 +9.57041383e-02 +9.82591044e-03 -3.80927487e-03 +7.28095789e-03 -8.10610354e-02 -1.42567158e-01 +4.57069986e-02 +7.62963369e-02 -1.96472947e-02 +7.24813044e-02 -1.80122834e-02 -3.08015067e-02 +9.38255712e-02 -3.06394342e-02 -1.52284065e-02 -4.27883957e-03 -2.27291305e-02 +1.08314291e-01 -7.56386444e-02 -3.91610786e-02 +5.77857308e-02 -6.17868826e-02 +1.23075005e-02 -5.89509532e-02 -5.02754375e-02 -6.99756891e-02 +9.59431753e-02 -7.50461966e-02 -2.76343450e-02 +6.77551329e-02 +1.96770892e-01 -1.21323131e-01 +1.40854316e-02 -4.25478863e-03 +4.77937423e-02 +1.03581399e-01 -1.90633595e-01 +6.78988248e-02 -5.60903409e-03 +3.82599281e-03 -1.39450924e-02 +1.33995876e-01 +1.79071501e-01 +4.94105779e-02 -1.84477791e-02 -1.47935867e-01 +9.24222395e-02 -4.47271429e-02 -7.13148043e-02 -1.18024819e-01 +1.39349625e-01 -1.17666461e-01 -1.80936567e-02 -1.64398237e-03 -7.27572367e-02 -7.58643523e-02 -4.89380881e-02 +1.52096851e-03 -3.18419226e-02 +1.76133681e-02 -2.68055946e-02 +1.28488272e-01 -7.27612749e-02 +6.22236729e-02 -5.86628579e-02 +9.80675220e-02 -1.99796662e-01 +5.27476780e-02 -1.12757429e-01 -2.45425645e-02 +1.25508029e-02 -8.39165822e-02 +4.19218689e-02 +2.41584126e-02 +4.04244438e-02 -2.26454973e-01 +7.69481882e-02 -3.86462524e-03 +5.47479559e-03 -5.62952049e-02 +9.74733848e-03 +6.84050843e-02 +1.35790342e-02 +1.70944184e-02 +6.44461364e-02 -1.90542284e-02 +1.49978936e-01 -1.97546870e-01 +1.37955314e-02 -3.83756147e-03 -1.01497956e-01 +2.10914165e-02 +2.44646352e-02 +5.40371127e-02 -1.76577985e-01 +6.16181977e-02 -4.43901420e-02 +6.61069527e-02 -6.29982278e-02 +4.18986268e-02 -6.83487728e-02 +1.11943008e-02 +4.48634438e-02 +9.85544547e-02 +1.69620022e-01 -8.56968835e-02 -4.01432253e-02 -7.65865371e-02 -2.27383785e-02 -9.64816834e-04 -7.80290216e-02 -1.87237021e-02 +1.19598927e-02 +2.44418055e-01 -2.11053211e-02 -2.80648433e-02 +1.53791010e-01 -1.98576208e-02 -7.76601136e-02 +1.82967018e-02 -2.02725291e-01 -1.42659927e-02 +2.17581820e-03 +2.10541952e-02 -8.06517377e-02 +1.46603854e-02 +6.38422072e-02 +3.77623811e-02 +8.35243962e-04 +1.28073441e-02 +1.21037796e-01 -1.74909398e-01 +6.96422607e-02 +4.44218740e-02 -5.60242571e-02 -1.07026041e-01 +1.12847248e-02 -4.42563742e-03 +2.03070074e-01 -5.33997687e-03 -4.79520448e-02 +6.53520525e-02 -5.40954359e-02 +1.73352342e-02 -1.62283238e-02 -9.30085555e-02 +8.40968043e-02 +1.20393187e-02 +1.26703545e-01 -8.52254704e-02 -8.51475913e-03 +3.00876081e-01 -1.06193595e-01 +7.67395496e-02 -1.38482809e-01 +3.70991267e-02 +2.04542261e-02 +3.76489051e-02 -1.09959163e-01 +7.79023618e-02 -1.81315262e-02 +3.31503041e-02 +3.87164615e-02 +1.18263550e-01 -1.35351615e-02 +8.69994387e-02 -7.58654028e-02 -1.02602005e-01 +1.52349830e-01 -6.82623088e-02 +3.48804444e-02 -1.95866339e-02 -2.25969732e-01 +2.17535794e-02 -5.30952364e-02 -2.57315842e-04 -7.62466900e-03 +7.43380189e-02 +2.94001680e-02 +7.49386102e-02 +7.50724273e-03 +7.76824951e-02 +1.97076067e-01 -4.58881184e-02 +8.21142942e-02 -1.32264635e-02 -1.00662269e-01 +6.59212470e-02 +2.42039282e-02 +1.35079801e-01 -4.18172218e-02 -4.85586785e-02 +4.15180027e-02 +6.81987554e-02 +7.10193366e-02 +5.63786589e-02 +1.63185403e-01 +2.40184337e-01 +8.51355568e-02 -5.13637923e-02 +1.25780283e-02 -1.01414062e-01 -8.22258294e-02 -1.66422755e-01 +1.99404970e-01 +1.39278665e-01 -8.03598538e-02 +1.43884728e-02 -2.68383343e-02 -2.79236007e-02 -6.01117350e-02 -3.21127265e-03 -7.29525238e-02 -1.69152718e-05 +2.76002437e-02 -2.62915883e-02 -1.09859399e-01 +1.16638988e-02 -1.33625884e-02 -1.55684529e-02 +5.12840338e-02 +4.59724031e-02 +2.41179615e-02 -1.07443251e-01 -8.15252960e-02 -2.10111558e-01 +1.44209534e-01 +1.60734933e-02 -7.12886527e-02 -9.76403877e-02 +5.14494907e-03 +1.76177006e-02 +4.48347367e-02 +6.40833890e-03 +5.72936609e-02 -9.18499827e-02 +7.76030719e-02 +1.09055238e-02 +1.65232047e-01 +1.65412016e-02 -1.91673070e-01 +8.57474580e-02 -5.48332669e-02 +3.44174728e-02 +6.82709739e-02 -1.08645625e-01 -5.66942170e-02 +2.23569758e-03 +1.44459203e-01 +3.29620205e-02 -9.80153605e-02 +1.60022527e-02 +5.65522835e-02 -7.02067185e-03 +7.93186948e-02 +5.42505570e-02 -4.65756208e-02 +1.60211086e-01 +1.30574688e-01 +8.03501345e-03 +4.51928154e-02 +1.57626644e-01 -8.96335840e-02 -3.03468630e-02 +8.86453688e-02 -5.18540256e-02 +1.63428202e-01 +6.79122936e-03 -1.11062340e-01 -1.48068117e-02 +8.94432813e-02 -4.01686914e-02 -9.48887318e-02 +1.26969889e-01 +3.27879041e-02 +3.52774523e-02 -2.28670277e-02 -1.46402687e-01 +4.37000617e-02 -1.23730198e-01 +8.29995573e-02 +1.47472527e-02 -3.10480744e-02 +9.30458382e-02 +2.87750475e-02 -8.27661157e-03 -1.13643646e-01 +1.11530431e-01 -1.20382510e-01 -7.22428188e-02 -1.63696632e-01 -8.51730853e-02 -9.59750731e-03 +3.51308919e-02 -1.35343775e-01 -9.24583673e-02 +1.87489670e-02 -8.83089304e-02 -2.13817377e-02 +1.59545273e-01 +8.70362818e-02 -6.28404617e-02 +3.95150259e-02 -5.63269928e-02 +4.86655124e-02 +1.73956659e-02 -1.08933439e-02 -1.17268868e-01 +1.58831894e-01 +3.58788930e-02 +1.31569728e-02 -1.38359323e-01 +3.69438007e-02 -1.04992613e-01 -6.97423965e-02 -4.26949300e-02 -5.48693985e-02 +7.59629235e-02 +7.00638443e-02 -7.19287097e-02 +8.44860449e-02 -8.28985199e-02 -1.82207022e-02 +4.57304437e-03 -1.45746078e-02 -3.91204320e-02 -4.20211665e-02 -1.16874121e-01 +2.51790565e-02 -4.15769666e-02 -6.74254075e-02 -1.60063170e-02 +2.92000640e-02 +3.50537360e-01 +4.03368846e-02 -6.80505037e-02 +6.10876493e-02 +1.95195958e-01 +1.38969138e-01 +1.11026436e-01 -2.06296034e-02 -4.76735346e-02 -1.70090884e-01 -1.40231661e-02 +1.60284683e-01 -9.59660038e-02 +1.63066853e-02 -6.31644651e-02 -9.54788402e-02 +6.24084733e-02 +7.19917715e-02 -1.42129749e-01 -6.56067207e-02 -5.59250228e-02 +2.12203320e-02 -8.49582702e-02 -4.43401672e-02 +3.20335776e-02 -7.27380067e-03 +3.58620062e-02 -1.77155972e-01 +2.51707900e-02 +8.01222846e-02 -9.32950303e-02 +8.54221061e-02 -7.71566108e-02 -3.69352177e-02 +4.70454097e-02 +1.34713829e-01 -1.55043021e-01 -3.64466943e-02 +3.50407995e-02 -1.21727109e-01 -1.99029744e-01 +7.92427436e-02 +3.29890773e-02 +3.83967459e-02 +1.29195442e-02 -6.71117334e-03 +1.68847125e-02 +1.40881523e-01 +4.55195457e-02 +2.45855421e-01 -8.48315209e-02 -1.43654779e-01 +7.36243650e-02 +4.55610827e-02 -8.11036155e-02 -1.67967938e-02 -6.36463165e-02 +2.38055307e-02 +5.95084876e-02 -6.16098307e-02 +9.80502516e-02 +1.83818713e-02 -7.79501125e-02 +2.35866588e-02 -6.97300360e-02 +1.97907048e-03 +5.76074747e-03 -3.69524322e-02 +6.62855059e-02 -7.42467195e-02 -9.61891189e-02 +1.99477971e-02 -1.51660383e-01 +1.35074556e-01 +3.20008956e-02 -1.37733817e-01 -1.27229206e-02 -1.37734716e-03 +9.15536061e-02 -9.60800424e-02 -5.45261167e-02 +4.32279184e-02 -1.72823623e-01 -5.55771664e-02 -2.75463499e-02 +5.88633353e-03 +8.96880478e-02 -1.48474136e-02 -6.46995753e-03 -5.73809259e-02 +4.84691858e-02 +5.17905839e-02 +7.95775354e-02 +1.18242793e-01 +2.52387952e-02 +5.40990345e-02 -1.95668459e-01 +4.34269495e-02 -9.37606487e-03 +9.01505128e-02 -2.57046502e-02 -5.39785996e-02 +3.84584330e-02 +5.31054586e-02 +7.84256011e-02 +1.52629673e-01 +1.43984690e-01 +5.26621453e-02 +2.25515574e-01 +1.47104040e-01 +7.26696700e-02 -1.38591332e-02 +1.23138867e-01 -3.13080758e-01 +1.42347038e-01 -2.32476160e-01 +3.98136526e-01 +2.37950027e-01 +1.43416122e-01 -2.11131237e-02 -2.35240072e-01 +1.07427068e-01 -4.80563156e-02 -7.30073601e-02 +8.04947913e-02 +1.00524530e-01 -9.99783799e-02 +9.68039334e-02 +7.28581473e-02 +1.61509514e-02 +5.66188712e-03 -2.44120091e-01 +4.34503220e-02 -1.31598353e-01 -1.70974746e-01 -1.16093270e-01 -6.29927740e-02 +1.72039047e-01 +4.85226847e-02 +6.26409501e-02 -9.76696610e-03 +5.04761040e-02 -1.79479420e-01 +5.38650341e-02 -5.55306971e-02 -1.64263725e-01 +5.03877737e-02 +4.36410345e-02 +8.30593258e-02 +1.07895985e-01 +5.83808385e-02 -5.24119548e-02 -6.89484775e-02 -2.99088215e-03 +1.68360770e-01 +2.69273430e-01 +4.53239083e-01 -1.54466510e-01 +1.33788899e-01 +1.52322492e-02 +1.47693589e-01 +2.08860785e-02 -7.51592368e-02 +1.16703868e-01 -3.96577716e-02 +1.31170154e-01 +2.19010897e-02 +3.75930965e-02 +3.93238403e-02 +5.52479029e-02 +1.00319766e-01 -5.64815179e-02 -8.29428360e-02 +1.46624327e-01 +6.74071535e-02 -5.94446342e-03 +8.38380605e-02 +1.54092342e-01 -4.37654555e-02 -5.08990735e-02 +1.05305694e-01 -1.35916457e-01 +1.31226955e-02 -1.82382479e-01 +8.47939625e-02 -1.03562705e-01 -3.97258736e-02 -2.05220282e-02 -6.85616583e-02 -9.31816101e-02 +1.29623190e-01 +9.24542025e-02 +1.19189717e-01 +1.59917787e-01 -2.07804814e-01 +2.11270526e-01 -2.03449294e-01 -9.53524113e-02 -1.90708712e-01 +2.24041581e-01 +6.00153990e-02 +1.25479355e-01 -8.92872810e-02 +7.05739036e-02 -9.01911706e-02 +4.55026887e-02 +5.08055557e-03 +2.18654014e-02 +6.17418997e-02 +5.51895909e-02 +7.55626382e-03 +1.81853414e-01 +7.44907632e-02 -1.75783902e-01 +6.75217286e-02 -3.66253741e-02 +5.73989004e-02 -4.46015410e-03 +5.28185777e-02 -2.14075089e-01 +3.64723504e-02 -4.25724760e-02 -3.99805494e-02 +1.02009527e-01 -5.54548670e-03 -1.12880625e-01 +1.87787980e-01 +2.10057467e-01 -8.10402259e-02 +6.42947992e-03 -4.90009710e-02 -1.36638492e-01 -1.10832438e-01 -4.67077084e-02 +6.65096641e-02 +1.19518332e-01 -1.34205714e-01 +4.09124326e-03 +1.84627801e-01 +2.24463955e-01 -2.12702230e-02 +1.75647475e-02 -1.39399901e-01 -2.69434631e-01 -8.63671228e-02 +2.97822207e-02 -2.10236460e-01 -4.39920016e-02 +1.98188767e-01 -6.41565919e-02 +1.04669213e-01 -1.25891343e-01 +7.52016827e-02 +8.83969888e-02 +8.08347836e-02 +1.06856897e-02 -2.39852685e-02 +1.23542018e-01 +8.71549100e-02 +5.87365106e-02 +9.90324765e-02 +1.32240551e-02 +1.79655150e-01 -2.78569479e-02 +5.92807710e-01 -4.94844876e-02 +1.97044425e-02 +6.09639399e-02 -3.36600244e-02 -3.69566679e-02 -1.46452710e-01 +2.33469903e-02 +4.85199615e-02 +9.77281947e-04 -1.11267507e-01 -9.44163799e-02 +1.19518191e-01 +6.59307763e-02 -5.69542766e-01 +8.83319154e-02 +3.11638433e-02 -7.00656027e-02 +2.81829014e-02 +9.60893556e-02 -8.83098617e-02 -1.24189081e-02 +3.48326825e-02 -8.87477025e-02 -1.78713650e-01 -3.99266779e-01 +5.69137633e-02 +6.61429241e-02 +1.39555976e-01 -2.44675934e-01 -9.46206879e-03 -9.75414142e-02 -5.22648916e-02 -3.40940841e-02 +5.43159135e-02 -9.00371969e-02 +6.16041757e-02 -1.79907069e-01 -7.49790430e-01 -3.06819696e-02 +7.88193941e-03 -1.95618570e-01 -7.20605135e-01 +7.86079373e-03 +1.35588586e-01 +1.32256866e-01 +1.22163266e-01 +4.61758487e-02 +1.47927431e-02 -6.20551547e-03 -4.52512167e-02 -1.25634134e-01 -1.42071173e-01 +3.91024090e-02 +6.73827156e-02 +3.02396417e-01 -1.70938477e-01 +2.98545952e-03 -3.58852581e-03 -3.22354734e-02 -1.12475961e-01 -4.17036898e-02 +3.16695161e-02 -1.57666460e-01 -6.91431761e-02 -4.56470579e-01 -1.62160292e-01 +3.08644511e-02 +1.28645420e-01 +3.17932814e-02 -9.87168960e-03 +2.38171853e-02 +1.83667839e-02 -1.69530530e-02 +8.97701923e-03 -1.39382044e-02 +1.59670979e-01 +1.30734351e-02 -9.74641275e-03 +7.97035825e-03 +6.96773171e-01 +5.96256293e-02 -1.01733819e-01 +3.77525650e-02 +6.14269562e-02 -7.87818655e-02 +2.94635713e-01 -7.48300329e-02 -5.11315987e-02 +5.02661988e-02 +2.41972860e-02 +1.24516428e-01 -8.41604844e-02 +8.30771122e-03 +6.32437617e-02 +1.77085120e-02 +3.12285960e-01 +1.02522686e-01 -1.54906313e-03 +1.85585350e-01 +1.53704852e-01 -2.24898517e-01 -3.97895612e-02 -1.45468548e-01 -3.44042890e-02 -6.13618642e-02 +8.74148086e-02 +1.75744981e-01 -5.30877709e-02 -2.24904483e-03 +2.20972061e-01 -3.93359400e-02 +1.54218972e-01 -9.07158945e-03 +2.99571991e-01 -3.67527544e-01 -8.69177803e-02 +1.40800506e-01 -2.14881644e-01 +9.98894498e-02 +4.51834835e-02 -1.49310067e-01 +1.62991196e-01 -2.61831820e-01 -1.30479811e-02 -4.73100021e-02 -1.28523773e-02 +4.25939485e-02 +1.31150290e-01 +9.50788788e-04 +1.07169718e-01 +4.98842485e-02 -6.88043833e-02 +2.22022515e-02 +4.94725816e-02 +1.13061242e-01 +2.53307843e-03 -6.84261471e-02 -2.01158717e-01 +2.45955586e-02 -6.82970881e-02 -5.64904399e-02 -1.34159058e-01 -2.25197792e-01 -3.94748561e-02 -7.71539100e-03 +1.03177331e-01 -2.73084879e-01 -1.16042443e-01 +1.81372628e-01 -1.55713260e-01 -1.05875893e-03 +2.47887731e-01 -1.20741546e-01 +7.36147240e-02 +1.08519718e-01 -1.42329201e-01 -9.85169858e-02 -2.70877760e-02 -6.81420490e-02 -1.61757261e-01 -4.86591421e-02 +3.65247756e-01 -1.45706251e-01 -8.61607715e-02 -7.40182400e-03 -4.14238535e-02 -1.73257843e-01 -3.76294643e-01 -4.80070375e-02 -1.14889376e-01 +1.82068476e-03 -1.05423364e-03 +2.01037736e-03 -2.27383330e-01 -1.02303669e-01 -2.66337186e-01 -2.04432249e-01 -2.24103004e-01 -4.64245491e-02 -1.19842766e-02 -1.05152670e-02 +1.43732175e-01 -1.03624403e-01 +8.18751231e-02 -3.55677933e-01 +2.63630431e-02 +5.65043539e-02 +4.08790499e-01 -1.73938707e-01 -5.44320270e-02 -4.70286518e-01 -2.30589304e-02 +2.98493832e-01 -2.94701606e-01 -7.20902681e-02 +1.26868337e-01 +4.34331372e-02 +4.80548963e-02 -1.99038744e-01 -2.50327326e-02 -1.54448330e-01 -2.95334570e-02 -2.63584126e-02 +1.01081710e-02 +1.76196098e-01 +3.96507643e-02 -4.53786030e-02 +1.92483634e-01 +5.43320253e-02 +3.62360999e-02 +4.08255868e-02 +3.34112197e-02 -1.05957501e-01 +1.43254995e-01 +7.87077397e-02 -1.57259688e-01 -1.86957940e-01 +6.32078350e-02 +5.51677346e-02 -9.36151445e-02 -1.79532051e-01 +1.20020010e-01 -5.64928874e-02 -3.00540328e-01 -8.77131447e-02 -4.50554714e-02 -6.10691831e-02 +1.69831797e-01 -7.57874176e-02 -9.99294966e-02 -2.84629911e-01 +6.34546876e-02 -6.38041496e-02 +3.64178829e-02 +2.95946598e-01 +1.25061676e-01 +2.04225946e-02 +3.47462952e-01 +1.39779346e-02 -8.95819739e-02 -1.76706035e-02 -9.94966850e-02 +2.40451902e-01 +1.67631343e-01 -6.07154891e-02 -3.72675285e-02 -1.09421238e-02 -5.74741885e-02 -2.02173427e-01 -2.79801711e-02 -1.80514619e-01 -1.61285810e-02 -1.03862695e-01 -1.08400233e-01 -6.99558333e-02 -4.53821510e-01 +5.11013903e-02 -9.06824172e-02 +2.95186490e-02 -3.65328491e-02 +6.06571883e-02 +1.51818916e-01 +1.84789568e-01 -8.53148773e-02 -1.17903844e-01 +5.94631210e-02 +3.06592491e-02 -5.19621046e-03 +2.02611126e-02 +4.34923679e-01 -7.26273730e-02 -1.62165333e-02 -9.71954763e-02 +8.47439542e-02 -7.41520599e-02 +1.05442524e-01 +1.30832449e-01 -1.71569884e-01 +1.72611307e-02 +4.45181839e-02 +4.86351937e-01 -1.12729341e-01 +1.05026200e-01 +6.24765009e-02 +1.97471112e-01 +6.30952790e-03 -3.56497802e-02 +1.56314876e-02 +6.14348240e-02 +7.07549304e-02 +1.93380505e-01 -4.53330539e-02 +6.62268028e-02 +3.62825394e-01 +5.20083122e-02 -5.75794615e-02 +3.17797929e-01 +6.10030532e-01 -5.54261729e-02 -4.11828654e-03 +3.08149084e-02 -8.02208334e-02 -2.44262163e-02 -1.73425302e-02 +1.68889597e-01 -2.57583931e-02 +4.07967567e-02 -5.10545820e-02 -1.36671126e-01 -6.09707423e-02 -3.59344065e-01 +1.01488352e-01 -8.36047903e-02 -1.46017130e-02 -2.25702580e-02 -6.26497297e-03 -2.54781228e-02 -8.09173360e-02 +2.40992829e-01 +1.19713306e-01 +3.58024031e-01 -5.84374890e-02 -7.05886036e-02 -1.39637114e-02 -4.04627882e-02 +6.12369478e-02 -4.94084619e-02 +5.44883907e-02 +3.99073549e-02 -2.15598289e-02 +3.04159783e-02 -1.89472511e-02 +1.35881737e-01 -2.42127967e-03 -5.85539900e-02 -6.95869267e-01 -2.02560246e-01 -2.71076821e-02 -2.39121057e-02 -8.51153955e-02 +1.34818051e-02 -4.08783644e-01 -9.77882836e-03 +1.21081695e-01 -1.38960006e-02 -1.13355026e-01 -9.42061003e-03 -1.74654767e-01 -9.69878957e-02 +2.10846812e-02 +1.18794886e-03 -1.36867836e-01 -8.48088507e-03 +1.60901994e-02 +4.07391712e-02 -1.60063859e-02 +6.71254285e-03 +1.07856676e-01 -3.56589705e-02 -5.37333041e-02 -4.98574227e-03 -3.42233144e-02 +2.21491918e-01 -3.93191166e-02 -9.66145992e-02 +1.06989063e-01 -1.21419942e-02 -3.74908596e-02 -1.35953678e-02 -5.46956286e-02 -1.83918387e-01 -2.44967088e-01 -1.05529085e-01 +1.98575199e-01 -8.95947739e-02 -7.99862295e-03 -1.69266373e-01 +3.93677838e-02 -2.89852843e-02 +7.15374202e-02 +8.45402293e-03 -7.10711442e-03 +2.37647124e-04 -1.35043696e-01 -4.73511918e-03 +1.07937664e-01 -4.65426128e-03 -1.00982659e-01 +4.22371551e-02 -8.14126730e-02 -8.55940357e-02 -4.00051512e-02 +5.78445150e-03 +1.44827336e-01 -4.58112322e-02 +1.02869965e-01 +2.72824941e-03 +8.92734304e-02 -1.12249516e-01 +4.56248298e-02 +2.90438794e-02 +5.66215850e-02 +8.50984082e-02 -1.25125945e-01 -5.96320890e-02 -7.33364001e-02 -6.08415976e-02 +1.23445757e-01 -6.44865185e-02 +3.00444122e-02 +2.20070764e-01 -1.29429504e-01 -2.11633995e-01 -1.07760169e-01 -5.92957810e-03 +9.38582942e-02 +1.88269857e-02 -6.22278228e-02 -4.28446904e-02 +5.31612597e-02 +1.22398488e-01 +1.04532100e-01 -3.01263072e-02 -2.44873427e-02 -6.59001917e-02 +1.04338028e-01 +9.21432003e-02 +6.98753297e-02 -1.59492657e-01 +2.45996211e-02 -1.40981093e-01 -1.80401474e-01 -6.05559424e-02 +2.83396512e-01 -4.95180562e-02 -7.63583258e-02 +6.04974963e-02 +1.01738475e-01 -1.86260045e-02 -9.45950747e-02 -3.52209434e-02 +7.23366439e-02 +1.99055120e-01 +9.73215848e-02 -9.38140824e-02 -1.10976584e-01 +5.27026244e-02 -2.22419530e-01 +1.66163035e-02 -1.73873633e-01 -4.75687869e-02 -1.29688680e-01 -8.87676179e-02 -3.18504013e-02 +1.14089370e-01 +1.77268609e-01 -8.49197432e-03 -2.49251515e-01 -1.32527174e-02 +4.44565676e-02 -1.28811687e-01 -1.38357833e-01 -1.70369968e-02 -1.56002551e-01 +8.54548737e-02 +9.21983048e-02 +6.96733817e-02 +1.72599293e-02 -6.47506863e-02 -6.62906095e-02 -8.22114293e-03 -5.87719120e-02 -1.08112589e-01 +1.30904049e-01 +6.74966872e-02 +1.62750408e-01 +2.39905380e-02 +3.20700253e-03 -6.87045455e-02 +2.41939515e-01 -4.10609990e-02 +1.08750671e-01 +1.33259958e-02 +1.44603908e-01 -1.21613992e-02 +1.37809776e-02 -1.33270323e-01 -2.15491697e-01 -1.01761423e-01 +2.08236650e-02 +3.38307954e-02 +1.51969329e-01 +1.16875038e-01 -1.79512743e-02 +1.13150060e-01 +7.59574398e-02 -4.32048365e-02 -2.68042851e-02 -8.22438970e-02 +8.15192685e-02 -1.22836731e-01 +1.75248235e-02 +1.64840147e-01 -2.88944878e-02 -2.21474871e-01 +8.86459127e-02 +4.20110524e-02 +1.59238547e-01 -1.68081524e-03 +3.70727256e-02 -6.71887174e-02 -7.95152932e-02 -6.77999258e-02 +3.88264731e-02 +8.82240012e-02 -7.21421391e-02 -1.38882309e-01 -8.83050933e-02 -1.57807559e-01 -1.47180945e-01 +3.33016813e-01 -1.06134720e-01 +5.57523370e-02 +8.96342099e-02 -4.56471406e-02 -6.68818951e-02 -1.06181405e-01 -1.17298309e-02 -9.25957486e-02 +1.41981021e-01 -5.00442721e-02 +1.91816073e-02 -2.76377767e-01 +1.98900983e-01 +1.50718251e-02 +1.01336665e-01 +2.60347826e-03 -2.73130964e-02 +4.81463224e-02 +1.16377063e-01 +1.87198013e-01 +1.52361421e-02 +1.06610917e-01 +3.87948424e-01 +4.24873456e-02 -1.74037263e-01 +2.12254841e-02 +7.23367482e-02 -3.39499637e-02 -9.53973830e-02 -2.67142486e-02 -2.18102839e-02 -2.12674774e-02 -3.48684937e-02 -6.44878522e-02 +5.12761585e-02 +6.54922575e-02 -9.65541303e-02 -1.69753060e-02 +7.26719797e-02 -5.00777699e-02 -2.72036367e-03 -1.55555708e-02 +7.55340829e-02 +1.85966883e-02 +1.48915812e-01 -1.51588708e-01 +1.87105939e-01 -2.18065046e-02 -8.06311592e-02 +3.30104423e-03 +1.20565444e-01 +1.06655873e-01 +8.93971547e-02 -4.83769663e-02 +2.70004161e-02 +7.86070377e-02 +2.09667131e-01 -1.16070667e-02 +4.52416427e-02 +7.81124756e-02 -4.72916616e-03 +4.74326834e-02 -2.74846047e-01 +1.18813636e-02 +2.45077342e-01 -9.63100046e-02 +1.22213691e-01 +1.13375627e-01 -1.15060821e-01 +1.58607706e-01 -2.42680870e-02 +4.78602797e-02 -1.19229577e-01 +6.61422312e-02 -1.86578929e-01 -8.13194364e-03 -1.81882661e-02 +6.97651878e-02 +3.07298061e-02 -1.02362566e-01 +4.28951671e-03 +1.62214208e-02 -1.79126672e-02 -1.62274346e-01 -1.49789110e-01 +1.14530414e-01 +1.09858625e-02 +7.34846368e-02 -2.73599982e-01 +8.01849738e-02 -8.16197544e-02 -1.47497088e-01 +3.40994471e-03 -2.10696042e-01 +4.40861586e-05 +1.47632807e-01 -2.28818934e-02 +1.50659859e-01 -4.18285355e-02 +2.47005820e-01 +4.00367007e-02 +1.05384447e-01 +7.69141391e-02 -5.28263748e-02 -2.15835780e-01 +1.89700513e-03 +2.92380191e-02 +5.86004183e-02 -1.19295433e-01 +9.82867777e-02 +2.38133490e-01 -2.24211495e-02 +1.69109166e-01 +3.11666369e-01 -1.10438719e-01 +2.38183826e-01 +9.08669904e-02 +1.31303519e-01 -1.02509789e-01 +6.29028529e-02 -2.25849114e-02 -2.68293936e-02 +1.90387160e-01 -4.28043678e-02 -2.07293071e-02 -5.71065135e-02 +7.05939205e-03 -8.46106857e-02 -1.86213121e-01 -2.63102148e-02 +1.97701789e-02 +1.61305621e-01 -8.37751031e-02 -2.55672634e-01 -9.97947603e-02 +1.14515290e-01 -2.24889070e-01 +1.09930366e-01 -4.83060293e-02 -1.92226432e-02 +2.06965506e-01 -3.07590626e-02 +3.66868563e-02 -2.09319845e-01 +2.82598268e-02 -2.88803480e-03 +7.89475664e-02 +1.53238937e-01 +1.84033602e-01 -6.50374368e-02 -4.89182770e-02 -1.25280404e-02 +4.13880616e-01 +7.67229944e-02 +2.47727931e-01 +5.85179664e-02 -1.86129659e-02 +1.67351454e-01 -6.76408783e-02 -1.42581016e-01 -4.69707958e-02 -2.57090181e-01 -7.34774582e-03 +2.90679615e-02 +3.52757312e-02 -3.64730135e-02 +2.38351896e-01 -1.13626411e-02 -7.93463830e-03 -7.88016338e-03 -4.39277366e-02 -2.32711695e-02 +2.73421347e-01 -1.66341007e-01 -1.52844042e-01 -7.52156317e-01 -1.61516994e-01 -8.71032923e-02 +2.10236028e-01 -2.15385437e-01 +1.02579013e-01 -6.51124343e-02 -3.05800401e-02 +5.64438812e-02 -1.16628043e-01 -1.00494795e-01 +5.18651009e-02 -1.67536810e-01 -1.00077212e-01 -5.98686300e-02 +6.06637797e-04 -2.44247336e-02 -1.09255888e-01 +1.48937747e-01 +1.09083958e-01 +4.64509204e-02 +5.85651398e-02 -2.57419702e-02 +1.23239346e-02 +2.90581584e-01 -2.33924631e-02 -2.35655680e-01 -4.96489964e-02 -1.56762496e-01 -6.90849796e-02 +7.91601315e-02 +1.75539609e-02 +4.14177291e-02 -3.67432572e-02 +1.46892622e-01 +1.96791925e-02 -2.02854395e-01 -3.52791362e-02 -8.81317854e-02 -4.81027402e-02 +1.33505687e-01 -8.95162895e-02 +8.19018409e-02 +2.56559383e-02 +1.01979643e-01 +8.87802765e-02 -1.46862626e-01 -1.39039502e-01 +9.54805911e-02 +1.78580880e-01 -5.62513843e-02 +4.06205989e-02 -1.48082346e-01 +2.99020827e-01 -1.16078123e-01 -1.18129566e-01 -1.11861698e-01 -2.05585316e-01 +4.74388264e-02 -1.98886514e-01 -1.24604382e-01 +5.34490012e-02 -9.88095775e-02 -4.18815725e-02 +2.36142450e-03 +6.58975542e-02 -8.10955688e-02 +1.79654911e-01 -1.36826010e-02 +1.11024333e-02 +1.80077013e-02 -5.46858385e-02 -8.14677104e-02 -5.19586802e-02 -1.50640041e-01 +2.07464620e-01 -1.11565433e-01 -6.36604335e-03 -2.82290820e-02 +1.89505685e-02 -1.47885099e-01 -8.75345394e-02 +3.87218073e-02 +1.01856589e-01 -4.51368615e-02 -5.27167432e-02 +7.61091784e-02 +1.61466956e-01 +3.76322530e-02 +4.57074828e-02 +1.67154074e-01 -3.77915800e-02 -2.10956991e-01 +3.64597440e-02 +1.21080965e-01 +1.76998109e-01 +5.00708260e-02 +9.31270123e-02 -5.29342368e-02 -8.68762285e-03 +1.78111613e-01 +1.14685580e-01 -5.79274772e-03 +6.26759510e-03 -1.03194728e-01 +3.10842711e-02 -1.89275935e-01 +1.73561822e-03 +1.21512534e-02 -4.15488146e-02 -1.81831107e-01 -7.17874989e-02 -3.42113189e-02 +1.31826669e-01 +3.64888497e-02 +1.30013183e-01 -4.70529795e-02 -1.92439154e-01 +1.49244294e-01 -3.14409971e-01 +8.76113176e-02 -4.28850912e-02 +1.29146591e-01 +6.14438765e-02 +1.34927452e-01 -1.34090841e-01 +7.07517341e-02 +1.04785867e-01 -9.30161923e-02 -3.21391486e-02 +5.15317209e-02 +1.62367463e-01 +1.10864356e-01 -1.47084231e-02 +1.48317382e-01 -1.31182507e-01 +8.07250664e-03 +6.35720417e-02 -8.61303695e-03 -1.13465160e-01 -1.56791642e-01 -1.16120726e-01 +2.23225921e-01 +1.85624346e-01 -2.61430562e-01 -8.78657028e-02 -2.93631218e-02 -7.63055831e-02 -1.49149984e-01 +1.68257624e-01 -5.44397451e-04 +6.76335320e-02 +1.45167246e-01 +1.22101165e-01 +6.60169721e-02 -1.13411404e-01 +7.22577237e-03 -8.38183463e-02 -4.58582342e-02 +1.07937632e-03 -1.33384019e-01 -1.54001117e-01 +4.48211096e-02 +4.35853796e-03 -1.13434128e-01 -5.93740083e-02 -3.01107001e-02 +1.99071646e-01 -1.91615243e-02 -2.20381111e-01 -1.03054829e-02 +5.85644841e-02 +1.13668837e-01 -2.43343115e-02 +1.74616963e-01 +2.53974330e-02 -2.55714618e-02 -1.21659294e-01 +2.08054945e-01 +1.03895381e-01 -1.23911582e-01 +1.39849111e-02 -1.68037251e-01 +8.74546021e-02 +2.60369796e-02 -7.38658523e-03 +4.06335220e-02 -5.70361838e-02 +5.88009618e-02 -1.68773144e-01 +1.03307821e-01 +5.87936118e-02 +9.13163722e-02 -4.26189639e-02 +1.37426227e-01 +2.36784015e-03 -1.12887815e-01 -1.90502420e-01 -4.63619754e-02 +1.60379782e-01 +9.15352702e-02 -3.24271731e-02 +5.11708111e-02 +1.30277365e-01 -2.24489927e-01 -4.26722392e-02 +3.57645042e-02 -9.51177552e-02 +4.09438424e-02 -3.08809817e-01 +8.76222178e-02 -1.41785592e-02 +6.24579340e-02 -2.00681537e-01 +5.27897626e-02 -2.44670853e-01 +1.91686174e-03 +1.74707023e-03 -1.71643365e-02 -2.48838570e-02 +6.78973719e-02 +1.79662049e-01 +5.30145019e-02 -2.02546449e-04 +9.38708857e-02 +4.63085584e-02 +1.12360358e-01 -8.10993388e-02 +1.82768535e-02 -5.49741238e-02 +2.83651110e-02 -1.65950567e-01 -6.53225929e-03 -2.77965307e-01 +1.88912421e-01 +9.78407785e-02 +2.49238089e-02 +5.81102595e-02 +8.35650042e-02 -1.13434732e-01 +5.50958887e-02 +2.60141820e-01 +2.29632687e-02 -5.66525944e-02 -4.35976088e-02 +1.99057788e-01 +8.31604302e-02 +1.53986290e-01 -4.29313630e-01 -6.11280501e-02 -1.06739171e-01 +8.21817592e-02 -2.39803776e-01 -2.02257574e-01 +2.02563658e-01 -1.92529798e-01 +2.71869779e-01 -1.19845301e-01 -9.05548409e-02 +8.76829326e-02 -1.41064271e-01 +1.02976270e-01 +5.29088899e-02 -1.03715435e-01 -4.92153987e-02 +4.72924449e-02 -3.80049050e-02 +4.96127978e-02 +7.22448081e-02 +8.81746598e-03 -2.44118348e-01 -1.41740039e-01 +1.10809706e-01 +8.98558497e-02 +1.21748753e-01 -5.71481474e-02 +7.77460039e-02 -1.14467464e-01 +5.56093752e-02 +4.45059240e-02 -8.53543654e-02 +1.31613016e-03 -1.10947825e-01 -6.08550459e-02 +4.86066788e-02 +2.35790834e-01 -5.67859598e-02 +1.30784437e-01 +6.71747699e-02 +9.94929206e-03 -4.51027602e-02 +1.60779521e-01 -9.66173410e-03 -9.06275287e-02 +1.00903690e-01 -5.32598458e-02 -1.59176230e-01 +5.54509759e-02 +1.12570554e-01 +1.09793693e-02 -3.64680924e-02 -1.31058348e-02 -1.66379958e-02 -2.55910933e-01 +9.85913072e-03 -4.03725058e-02 -5.29879378e-03 +4.08549458e-02 -9.09802020e-02 +2.27010008e-02 -6.63378909e-02 +5.34314960e-02 +4.75658104e-02 -6.13262318e-02 -1.66623201e-02 +6.62903637e-02 +2.90919356e-02 +5.46761304e-02 +1.99268050e-02 -1.62798353e-02 +2.24583056e-02 +2.56919283e-02 +1.31631810e-02 +4.39840183e-02 +8.28288961e-03 -6.21917797e-03 -2.87812762e-02 -5.84270768e-02 -2.72258949e-02 +7.93806911e-02 -7.64134601e-02 +6.98772073e-02 -6.99607655e-02 -6.39949888e-02 +2.20495407e-02 +6.53551072e-02 -4.94353622e-02 -2.66361311e-02 -1.88962743e-02 +9.82974395e-02 -5.74716963e-02 -5.72745316e-02 +2.31244508e-02 +8.17465782e-02 +6.85054958e-02 -9.48683545e-03 -1.44870609e-01 -6.26575947e-02 +5.60106710e-02 -4.09187004e-02 +5.96613996e-02 +3.04428209e-02 -1.46500096e-02 -1.50025832e-02 +7.50208786e-03 -1.40828133e-01 +1.07390806e-01 -3.70941907e-02 +8.15506130e-02 -5.05523980e-02 +1.67318955e-02 -1.08558126e-01 +5.72030507e-02 +4.02726643e-02 +2.97786444e-02 -1.84824318e-02 +6.65831566e-02 -4.86277528e-02 -1.03791818e-01 -3.79969478e-02 +6.79702312e-02 -6.20557293e-02 +2.75804084e-02 +2.88244523e-02 +2.91704815e-02 -6.86157420e-02 +4.87530697e-03 -6.53256401e-02 +1.70732811e-02 +1.39425658e-02 +5.49104027e-02 -3.90306860e-02 -9.80904549e-02 +1.11784726e-01 -8.42372235e-03 +2.13682484e-02 +8.73312354e-02 -3.83592546e-02 +6.19466156e-02 -6.37310967e-02 -1.64846852e-02 -1.71815604e-02 -1.12388939e-01 +1.21126920e-01 -6.10174537e-02 +1.12548716e-01 +2.55731642e-02 +7.24780038e-02 +3.20385746e-03 -4.42235321e-02 +6.63338229e-02 +1.08605707e-02 -8.66959244e-02 +3.51931378e-02 +8.60272422e-02 -3.86332273e-02 +4.94474964e-03 -1.02794066e-01 +1.85722753e-03 +9.76388901e-02 +5.73630966e-02 -7.04923421e-02 -2.80026551e-02 -5.77804297e-02 -2.93994863e-02 -2.99788080e-02 -1.64662406e-01 +1.87649634e-02 +5.41840978e-02 +7.06479102e-02 +3.39986682e-02 +1.22970104e-01 -1.42092360e-02 -1.12281471e-01 +4.39513922e-02 +2.51073204e-02 -2.47004046e-03 +1.58983856e-01 +2.53654923e-02 -8.63598194e-03 -2.01148726e-02 -5.52794300e-02 +7.66337290e-02 -9.22001451e-02 +9.86942127e-02 -9.44003090e-02 -1.13906980e-01 -1.57209814e-01 -1.14902280e-01 -2.17089001e-02 -1.56206205e-01 -5.41965999e-02 -2.22169999e-02 +9.02461186e-02 +9.77066532e-02 -3.86257470e-03 -1.63322404e-01 -2.89476141e-02 -6.63031563e-02 +5.58046177e-02 +7.26848515e-03 -3.32279392e-02 +2.93586422e-02 -2.83877105e-02 +7.01406524e-02 +7.01443944e-03 +6.18368722e-02 -1.16191417e-01 +1.43310741e-01 -2.36591443e-01 -1.67101026e-01 +9.38036889e-02 -1.47694591e-02 +1.07647166e-01 +6.15514873e-04 +2.03421205e-01 -1.11766532e-01 -8.90507773e-02 -1.02295108e-01 +7.11276159e-02 -1.12520941e-01 +1.12465508e-01 +1.27611518e-01 -7.24681020e-02 -2.54794164e-03 -8.76089707e-02 +6.38233051e-02 -1.61385480e-02 +1.21669553e-03 +5.38797155e-02 +7.49168545e-02 +1.25738040e-01 -1.76083401e-01 -1.50410637e-01 +9.73813459e-02 +8.93001929e-02 -3.22410725e-02 +1.81264549e-01 -7.45232478e-02 -6.08663447e-02 +7.20668361e-02 -3.96076515e-02 +4.00156230e-02 -7.66737107e-03 -1.27373757e-02 +7.59563521e-02 -1.73507154e-01 -1.61384881e-01 -8.11959803e-03 -4.24428731e-02 +1.01944938e-01 +2.25481257e-01 +1.07599206e-01 -7.89158717e-02 +2.15313095e-03 +2.78626792e-02 -3.17186378e-02 -5.09683881e-03 +1.28024612e-02 -9.04317647e-02 -7.75575489e-02 -4.28947806e-02 -1.44919991e-01 -4.28993776e-02 +5.70918918e-02 -2.09238031e-03 +3.69959027e-02 -2.70206761e-02 +1.30513027e-01 -2.96821464e-02 -7.52623472e-03 -1.49701713e-02 -4.46985886e-02 -2.87442282e-02 -8.56330991e-02 +2.54122913e-02 +6.88212290e-02 +5.30198440e-02 +9.86644849e-02 -1.12314858e-01 +1.55609131e-01 +1.71094283e-01 +5.08558862e-02 -5.17388396e-02 -6.21916391e-02 -8.97900909e-02 -2.26462819e-02 +8.16558078e-02 +2.49083385e-01 +5.30002527e-02 -7.09987283e-02 -1.52299672e-01 -3.23504000e-03 -5.64272106e-02 -6.50659949e-02 -1.27129152e-01 -1.10498466e-01 +5.40677980e-02 +3.38989757e-02 -1.56744450e-01 -8.10591951e-02 -5.28302826e-02 +8.82612690e-02 -1.55693337e-01 +2.03614712e-01 +4.69197817e-02 -1.25194430e-01 +2.13876483e-03 -1.44474000e-01 -5.02015883e-03 -5.91210388e-02 -8.57764632e-02 +1.70554817e-01 -6.97632134e-02 +1.54280335e-01 +1.75504923e-01 -1.08174458e-01 -1.64758116e-02 -1.80753767e-01 -1.57584220e-01 -1.77220494e-01 -1.52116984e-01 -9.37374830e-02 -1.65749073e-01 +1.09453395e-01 +2.75410503e-01 -9.33369398e-02 -6.53784955e-03 -1.48688518e-02 -2.59089023e-01 -4.36781794e-02 +1.20371561e-02 +1.48495927e-01 -9.46954265e-02 +1.84503756e-02 +9.26091522e-02 -7.40284324e-02 +2.15420157e-01 +1.53056204e-01 +2.94007901e-02 +5.06038591e-02 -1.94911230e-02 -8.85840654e-02 -2.08347872e-01 +1.27163902e-02 +1.40551142e-02 +1.44710883e-01 -4.64231372e-02 -2.40423873e-01 -2.85397377e-02 +4.20760214e-02 +4.07466404e-02 -8.84121656e-02 +1.28074303e-01 +2.40709744e-02 +2.30328720e-02 -8.09367374e-02 +8.58478099e-02 -1.89075649e-01 +6.58003837e-02 -1.14077106e-01 -9.53898430e-02 +4.97017093e-02 +9.49921012e-02 -1.38302431e-01 -3.07406634e-02 +2.20439788e-02 +2.15608999e-02 +6.82559684e-02 +4.09995131e-02 -8.47013891e-02 -5.01572266e-02 +8.79233405e-02 -2.09468231e-01 -2.39099693e-02 -3.20964865e-02 -2.52625756e-02 -9.64744203e-03 +5.39726689e-02 +1.04973815e-01 -2.50565466e-02 +2.89810821e-02 -2.43893623e-01 +1.13597594e-01 -3.45570035e-02 +2.30750013e-02 -1.38405323e-01 -1.25594109e-01 +1.25663718e-02 +2.13043131e-02 -3.57020825e-01 -1.19035295e-03 -9.97555628e-02 +2.12651312e-01 -3.38911414e-01 -1.87867098e-02 -5.28925098e-04 +5.63667044e-02 +5.59735373e-02 -1.90476567e-01 -1.44705474e-01 -7.81842917e-02 -4.82749604e-02 +8.08240548e-02 +1.04164720e-01 +2.82630846e-02 +4.40135375e-02 -8.07721987e-02 +1.01229973e-01 +6.27655908e-02 +2.47620931e-03 +9.47680399e-02 +1.83301985e-01 +1.13501176e-01 -5.73443286e-02 +1.99300274e-01 -1.20839998e-02 -2.87802089e-02 +4.06385139e-02 +3.20824124e-02 +2.62269489e-02 -1.24478396e-02 -6.39685765e-02 -7.03658685e-02 +1.25843659e-01 -1.31648064e-01 +1.11649305e-01 -9.64679942e-03 -6.57630116e-02 -6.87139854e-02 +6.68550208e-02 -3.50827038e-01 -1.93855450e-01 -5.84313460e-02 -2.01016739e-01 -4.56763953e-02 -1.94049984e-01 +1.23607993e-01 -2.35128198e-02 -5.44844046e-02 +1.26577005e-01 +7.06686755e-04 +2.07436588e-02 -5.85887209e-02 +2.23996326e-01 -1.24283224e-01 +1.83271691e-01 -7.93448463e-02 +2.07769964e-03 -1.03064269e-01 +8.85866210e-02 +6.31762818e-02 +3.45914692e-01 +1.04313120e-01 +2.39011571e-01 +7.03571290e-02 -4.08203863e-02 -4.88504209e-03 -2.20111415e-01 -2.88585186e-01 +2.43289560e-01 +1.97258368e-02 +1.04835555e-01 -1.45884931e-01 -3.25110734e-01 +3.69229436e-01 +1.82987288e-01 +4.22265790e-02 -3.83885503e-02 -1.84163079e-01 -4.28972065e-01 +6.98429793e-02 -3.27952281e-02 -1.75045028e-01 +2.74607111e-02 -1.27425075e-01 -5.78689650e-02 -2.81629115e-02 -7.93482456e-03 +2.67479382e-02 +1.47508100e-01 +1.47977069e-01 -7.90397450e-03 -1.10130676e-03 -5.10310158e-02 +5.47682457e-02 +9.75822061e-02 -2.23838359e-01 -2.24005386e-01 -2.11497441e-01 -2.74373945e-02 -3.07178489e-05 +2.18942255e-01 -1.45332307e-01 -1.45449296e-01 +9.14726108e-02 +1.23702452e-01 +2.55833507e-01 -1.02785632e-01 +6.13898709e-02 +5.14318198e-02 -1.81698665e-01 +6.56667948e-02 +1.00904271e-01 +8.61605629e-03 +6.82256445e-02 +3.62410489e-03 +8.68318155e-02 +8.03969502e-02 +9.75168645e-02 +2.23441169e-01 -2.57721663e-01 -2.59500623e-01 -1.91178340e-02 +9.97720286e-02 -3.01335156e-01 +1.45751387e-01 -8.24536011e-02 +1.32293954e-01 -2.80313134e-01 +7.76767135e-02 +2.32014522e-01 -1.34564385e-01 -1.05256066e-02 +1.93082038e-02 +2.39918634e-01 +2.65272520e-02 -2.20519558e-01 +1.74399272e-01 -2.88488209e-01 -1.40909716e-01 -1.79176360e-01 -4.20390703e-02 +2.49681145e-01 -1.44316405e-01 -5.71505353e-02 +1.85821012e-01 -4.32540569e-03 -2.70396709e-01 +5.53769134e-02 -6.30026907e-02 -6.81477934e-02 +1.76805824e-01 -2.27917820e-01 -8.16199034e-02 -4.17276800e-01 -1.42822742e-01 -6.70979768e-02 -1.41197547e-01 +3.08110323e-02 -1.66275769e-01 -1.22675732e-01 +2.68495530e-01 +3.10928255e-01 -6.11453690e-02 +7.85113275e-02 +6.71305284e-02 -9.96914133e-02 -8.83811340e-02 -1.41385242e-01 -2.17601471e-02 -2.04825297e-01 -6.79045469e-02 -2.07257897e-01 -2.76819919e-03 +7.83657879e-02 -1.17922001e-01 +9.69638349e-04 +1.47440627e-01 -1.51453361e-01 -4.52164300e-02 -8.12896490e-02 +4.68606241e-02 -1.90317363e-01 -7.16872439e-02 +1.42025471e-01 +5.72242662e-02 -2.99935229e-02 +5.50660715e-02 +1.63688380e-02 -1.05531059e-01 -1.29271314e-01 -1.22336812e-01 -3.01077813e-01 +2.03392491e-01 +1.61428079e-02 +3.97309102e-03 -3.31729464e-02 +4.10514362e-02 -5.96664175e-02 +1.95220336e-01 +7.90328607e-02 +6.09125793e-02 -1.68354020e-01 +3.23141851e-02 +6.90526441e-02 +1.89832062e-01 +4.31752950e-02 +2.21164245e-02 +3.26691866e-02 +2.15377398e-02 +2.24088337e-02 -2.59597506e-02 -1.05240025e-01 +1.77286901e-02 +1.36710167e-01 -1.04944244e-01 +7.32494146e-02 -2.07338128e-02 +2.01323062e-01 -5.76614998e-02 -5.41794412e-02 +1.51027709e-01 -3.62048782e-02 +1.19354397e-01 -1.77717526e-02 -7.37864748e-02 +5.23923598e-02 +2.12641228e-02 -1.91841155e-01 +4.60367464e-02 -1.30058557e-01 -7.27133229e-02 -2.19729677e-01 -6.80896863e-02 -1.19749688e-01 +2.51493007e-02 -1.70160420e-02 +6.66451827e-02 -6.64158687e-02 +4.82035466e-02 -1.99647415e-02 -5.43762883e-03 -8.62541050e-02 +1.24222927e-01 -1.20882064e-01 +6.05172329e-02 -1.69248194e-01 -1.29208907e-01 -1.29491523e-01 -2.43162643e-02 -1.70658547e-02 +1.02777705e-01 -1.12655554e-02 -9.01186019e-02 +8.04599840e-03 +4.19256091e-02 +8.50527734e-03 -1.52182519e-01 -4.52385619e-02 -1.57470718e-01 -6.94115758e-02 +5.57521321e-02 -1.04562066e-01 -4.36427630e-02 +9.43615511e-02 +1.30694900e-02 -1.67151108e-01 -9.89878848e-02 -1.12640113e-02 -1.00007370e-01 +2.51267422e-02 -8.53809267e-02 -8.20032656e-02 -4.45826091e-02 +1.98368412e-02 -1.33379862e-01 -2.00737026e-02 +9.88205895e-02 -1.78236943e-02 -3.66150551e-02 -1.70228571e-01 +8.59713629e-02 -4.55533154e-03 +9.83967260e-02 +1.38202254e-02 -1.36432573e-01 -1.03670917e-01 -2.11644359e-02 +3.50192599e-02 -7.45481253e-02 +3.29504795e-02 -1.12778209e-02 +1.84251349e-02 -2.58031469e-02 +6.55852705e-02 +1.82888433e-01 +6.19076751e-02 -1.18077481e-02 +5.96160814e-02 +1.12149850e-01 +5.61653301e-02 +1.09049790e-01 +3.61993313e-02 -1.30432650e-01 +7.77322277e-02 -9.77972224e-02 +2.62787580e-01 +1.30054146e-01 +6.10441379e-02 +1.01101853e-01 +8.88353959e-02 -2.25825589e-02 +5.56301139e-02 +3.73084024e-02 -1.17481254e-01 -4.61299755e-02 -1.07472993e-01 -2.18885150e-02 -2.55717766e-02 +1.57977417e-02 +4.79867756e-02 +9.89221931e-02 +9.59278643e-02 -3.39354053e-02 +4.36575674e-02 +9.07647088e-02 -9.61949769e-03 +3.59951332e-02 -4.02615666e-02 -1.58067849e-02 -1.67552486e-01 +1.94527190e-02 -6.37518466e-02 +4.21702713e-02 +8.48655775e-03 +1.05080664e-01 -9.56379697e-02 +1.60715938e-01 -1.37837380e-01 -2.07641651e-03 +3.72319628e-04 -3.50653082e-02 -3.51745673e-02 +4.80294935e-02 -3.92180383e-02 +5.40798344e-03 +6.62275627e-02 -1.23220779e-01 +2.42682412e-01 +5.91889098e-02 +2.00359941e-01 -1.68053627e-01 +5.70747964e-02 -6.50353804e-02 -2.68235505e-02 +3.08405589e-02 +4.61291261e-02 -5.35894930e-02 -1.04880810e-01 +1.08231492e-01 +5.26196416e-03 -9.58767533e-02 +9.46263298e-02 +5.44476509e-02 -5.12090772e-02 -1.76763505e-01 -1.80497751e-01 +6.72220141e-02 -1.00205980e-01 -2.26976871e-01 -3.30218077e-02 -2.23258920e-02 +9.87894833e-04 -1.93524882e-02 +2.18856484e-01 -2.82024220e-03 +3.35488990e-02 -5.97643517e-02 +1.99935004e-01 +4.86886725e-02 +5.63936979e-02 +8.76832753e-02 +5.91174215e-02 +1.13549843e-01 -5.81910610e-02 +4.59421910e-02 -1.78913772e-02 -3.37247364e-02 +2.19132584e-02 -1.76443458e-01 +6.56290799e-02 -2.42965936e-04 -9.84861031e-02 +5.82907349e-02 -1.69063926e-01 +3.24765474e-01 -5.96048310e-02 -2.35773809e-03 -4.44025770e-02 +3.96155603e-02 +4.57680561e-02 -5.92009211e-03 -3.56904641e-02 -8.29194337e-02 +3.12074572e-02 -2.68619955e-02 +6.12764014e-03 +1.10375270e-01 +6.92998916e-02 +3.05835791e-02 -1.66753749e-03 +7.86971226e-02 +9.50925127e-02 +4.80434820e-02 +2.10984007e-01 -6.49523363e-02 +4.62448597e-02 +1.44221142e-01 -4.08497937e-02 -1.51409358e-01 -1.14124462e-01 +1.46026704e-02 +2.84136944e-02 +1.36220694e-01 -4.75197919e-02 -3.37276538e-03 +1.92344040e-02 +3.65638249e-02 +1.15520075e-01 -3.56718637e-02 -7.79095516e-02 -3.64145972e-02 -4.49702255e-02 -7.10972399e-02 +9.97863244e-03 -5.79232275e-02 -9.10392478e-02 -3.60288508e-02 +5.83515428e-02 -7.80121684e-02 +4.69859876e-02 -1.55196398e-01 -1.13559969e-01 +6.40836507e-02 +1.84945036e-02 +1.51588554e-02 +2.41131950e-02 -9.71556827e-02 -1.08327925e-01 -2.42940942e-03 -8.30891058e-02 +8.51412639e-02 -5.47907408e-03 -1.29261449e-01 +5.65390512e-02 -2.83002593e-02 -8.72758403e-02 -9.92802810e-03 +5.29416576e-02 +3.71903405e-02 -1.55512309e-02 +1.23753235e-01 -1.24136925e-01 -1.44448712e-01 +3.03124543e-02 +6.57031313e-03 +7.56365433e-02 -2.95113437e-02 -6.02492988e-02 +2.36380752e-02 -3.13639231e-02 -1.85513578e-04 -6.44102739e-03 +6.03147298e-02 -3.92897353e-02 +1.51800923e-02 -1.22809403e-01 -6.90054223e-02 -3.24163958e-02 +5.32271042e-02 -6.27025738e-02 +1.28108755e-01 -8.42610560e-03 -5.48793301e-02 +8.78651440e-02 +1.21480212e-01 -1.78905264e-01 -8.99140090e-02 -1.11626789e-01 +1.10022128e-01 +1.08049586e-01 -4.96148840e-02 -5.47773130e-02 +1.71768486e-01 +1.09793037e-01 -2.20650691e-03 +1.87495574e-02 +3.86235230e-02 +4.19320241e-02 -1.11046001e-01 +5.76643124e-02 +1.77834138e-01 +2.84111369e-02 -6.80302456e-02 -6.12088246e-03 -7.18061579e-03 +1.89311914e-02 -2.07375959e-02 -5.23063913e-02 -2.01981664e-01 +1.83669508e-01 -3.81105877e-02 +4.29897197e-02 +7.45961815e-02 +1.03379497e-02 -9.55009684e-02 -1.62619948e-01 +2.54732631e-02 -6.31052032e-02 +3.82333696e-02 -1.44125931e-02 -2.19163205e-02 +4.37121652e-02 -1.26398504e-01 -3.80312949e-02 -2.20444463e-02 +1.06106170e-01 -1.03733517e-01 +7.66085414e-03 -1.59620881e-01 -1.32073924e-01 -5.32455854e-02 +5.31345718e-02 +1.96806174e-02 +2.66486183e-02 +8.39257911e-02 +1.10820770e-01 +1.78841390e-02 +1.47991359e-01 +3.65501666e-03 +4.91527282e-02 +4.32072170e-02 +1.34095456e-02 -1.72563553e-01 -6.80231676e-02 -1.36932414e-02 +1.95326656e-02 -3.31681632e-02 -8.57785940e-02 +1.23633258e-01 -2.31068991e-02 +1.93320848e-02 +1.00573123e-01 -7.98408687e-02 -1.79952696e-01 +1.27886564e-01 -5.97848892e-02 -8.20276812e-02 -8.17839131e-02 -2.24914066e-02 +6.47940859e-02 -1.92209750e-01 -8.95759314e-02 +1.97326839e-01 +1.38287961e-01 -4.23024595e-02 -3.92733701e-03 -9.40496847e-02 +7.16138110e-02 +2.74200529e-01 +6.86993748e-02 -6.33540377e-02 -4.27423455e-02 -1.22322679e-01 -7.20992312e-02 -1.78569019e-01 +1.24029815e-01 -5.28213903e-02 +1.00004837e-01 -1.91364635e-03 -3.29739414e-02 +3.06802168e-02 +2.77619436e-02 +2.33090725e-02 -5.23082837e-02 +2.44738371e-03 +3.03085092e-02 +9.93323326e-02 +1.59620970e-01 -2.92278789e-02 +4.21994366e-02 -2.19830070e-02 +7.26348087e-02 -1.77051611e-02 -1.70951843e-01 +8.71414840e-02 +4.61078323e-02 -1.61106154e-01 +2.29336992e-01 +5.67100756e-02 -1.12291262e-01 +2.30636150e-02 -1.46176800e-01 +1.09141409e-01 -1.08415417e-01 -7.53237009e-02 +5.56290671e-02 +5.72865456e-02 +1.30250484e-01 -1.91304788e-01 +5.98888099e-02 +1.71558801e-02 -4.54525761e-02 -1.02771059e-01 +1.22751035e-01 +1.23081312e-01 +3.20092052e-01 -1.72910362e-01 -3.04180812e-02 -1.62730347e-02 +6.06041513e-02 +1.22232959e-01 -6.23862892e-02 -2.56995469e-01 -4.65546660e-02 +1.46509945e-01 +1.58469882e-02 +5.06054349e-02 -3.14180274e-03 -3.05484943e-02 -1.54229671e-01 -6.58716634e-02 +2.01041967e-01 +9.94471163e-02 +6.36053458e-02 +2.40883395e-01 +2.28458524e-01 +1.94794480e-02 +3.90167907e-02 +1.27749845e-01 +1.34884631e-02 -9.62197781e-02 -1.77057937e-01 +1.80826575e-01 +5.97864278e-02 -4.08657752e-02 +2.70780325e-02 +1.75957799e-01 +1.97544366e-01 +1.10892437e-01 -1.37612196e-02 -6.86215758e-02 -1.00113839e-01 +1.20536245e-01 +1.78200323e-02 -6.96059614e-02 -6.26754537e-02 -3.08723450e-02 -1.19437734e-02 -5.79520427e-02 +2.13737741e-01 -1.23254031e-01 -3.06399241e-02 -1.62221402e-01 -1.29523948e-01 +6.00574836e-02 -9.86061171e-02 -8.96298140e-02 +5.76200671e-02 +1.56434774e-01 +5.27715497e-02 +1.12277558e-02 +1.16343401e-01 +8.20537657e-02 -1.10046469e-01 +7.13042822e-03 +1.75930239e-04 -2.81862635e-02 +1.06421784e-02 -1.00607216e-01 +4.21664193e-02 +1.71719100e-02 -2.06151918e-01 -2.66293734e-01 -1.31818540e-02 +6.02411330e-02 +9.20943078e-03 -6.81829304e-02 +1.02662295e-01 -4.23729062e-01 +5.72157353e-02 +7.81688616e-02 +1.24304578e-01 +2.63859406e-02 -2.25095488e-02 +1.44891992e-01 +2.95337774e-02 +1.13740556e-01 -2.14435328e-02 -3.52582112e-02 +1.30776912e-01 +3.06113553e-03 -4.24541049e-02 -1.01421915e-01 -1.37730658e-01 -4.07215171e-02 -5.55968404e-01 +6.18552277e-03 -1.42900154e-01 -4.92650010e-02 -6.62822247e-01 -3.34468968e-02 -1.51329130e-01 -7.45967962e-03 -4.55097966e-02 +2.09520772e-01 +2.30717883e-01 +1.02921970e-01 -1.97973549e-02 +1.10813119e-01 +6.94223568e-02 +1.72776192e-01 +2.86798980e-02 +1.05162583e-01 +2.18169570e-01 -3.35539207e-02 +1.95584089e-01 +8.47484842e-02 +9.95216966e-02 +1.98262352e-02 +1.47244066e-01 -1.01156741e-01 +3.90478708e-02 -1.48899645e-01 -9.41887051e-02 -3.38131785e-01 -1.95330918e-01 -1.80453509e-01 -4.70479801e-02 +8.24754387e-02 +6.89171329e-02 -2.94737276e-02 +1.83473334e-01 +6.60272762e-02 -1.00390203e-01 +1.72949322e-02 +2.11597219e-01 +1.12909697e-01 -7.54502118e-02 +1.10064052e-01 +1.41788214e-01 +1.15971677e-01 +4.29587252e-02 +2.97367927e-02 -4.51493487e-02 -5.44523560e-02 +3.53687517e-02 -4.84379940e-02 -1.40437022e-01 +3.67285348e-02 +9.55770314e-02 +8.12669247e-02 +1.29462734e-01 -1.57624390e-02 -3.78250659e-01 -4.07416314e-01 -7.24537969e-02 +6.93275779e-02 -1.07625574e-01 -1.34736449e-01 -2.55376548e-01 -3.38050425e-02 +1.65715694e-01 +1.48821250e-01 +1.10511385e-01 -9.16943792e-03 -1.11564763e-01 -1.77928835e-01 +3.82117666e-02 +1.50883451e-01 -3.89270438e-03 +8.00697207e-02 +1.27083838e-01 +1.19510487e-01 +6.28486574e-01 +2.70620555e-01 +7.93241560e-02 +7.95413032e-02 -1.26921922e-01 -2.77227745e-03 +1.73161536e-01 +2.98871547e-02 +7.27908909e-02 -1.91484187e-02 -1.66764446e-02 -7.57521912e-02 -2.76203565e-02 +8.95080790e-02 +6.77818730e-02 +7.96069577e-02 +7.57648125e-02 -2.15018447e-02 -9.08670127e-02 -1.07439466e-01 -5.76318465e-02 +1.50692806e-01 +6.02492364e-03 -4.94093262e-02 -3.07988584e-01 -1.03552908e-01 -1.15256645e-01 +2.50854373e-01 -1.53612979e-02 -3.08490127e-01 -6.97341114e-02 -4.33495007e-02 +7.28911981e-02 +1.29225269e-01 -1.76262166e-02 -1.03334688e-01 -1.15296453e-01 -8.31467379e-03 -1.14908367e-01 -1.72663797e-02 +1.83873735e-02 -2.40993828e-01 +9.65997204e-02 -9.98680070e-02 -1.26968427e-02 +3.87986824e-02 -5.70970029e-02 +6.52752697e-01 +1.38152000e-02 +3.55867557e-02 +2.94789132e-02 -8.63350481e-02 -7.94101804e-02 -7.83683807e-02 +2.61012930e-02 +1.32765606e-01 +7.36458674e-02 +2.01593712e-02 +8.23395848e-02 -2.53041834e-01 -5.93435839e-02 -9.31327268e-02 -2.83664814e-03 -3.43998149e-02 +9.08751115e-02 +2.48538819e-03 -2.07150821e-02 +6.84737787e-02 +1.89437419e-01 +7.23877326e-02 -2.23052166e-02 +7.19957948e-02 -9.46814641e-02 +5.11628874e-02 +2.95750797e-02 +4.52939793e-02 +1.27325654e-01 +8.34785998e-02 +2.18255043e-01 -4.82512563e-02 +3.20385173e-02 +3.27955902e-01 +5.87685704e-02 +5.43944836e-02 -3.49462172e-03 +1.25415381e-02 +7.82755315e-02 -2.43048239e-02 -2.02770963e-01 -1.14863388e-01 +1.72142699e-01 +3.89078222e-02 -4.06453125e-02 +4.00746129e-02 +1.36537805e-01 +3.45190048e-01 +1.22466460e-01 +3.18383425e-02 +4.52988921e-03 -2.15446739e-03 +2.22607911e-01 +3.46454792e-03 -4.83650453e-02 +8.02108720e-02 +1.59510836e-01 +6.76125884e-02 -9.29078385e-02 -1.38562113e-01 -1.68632805e-01 +4.56895053e-01 -9.29275602e-02 +2.14235321e-01 +1.15878627e-01 +7.95489401e-02 -1.37471989e-01 +2.65100420e-01 +6.37433231e-02 -2.32291773e-01 -3.11581008e-02 -1.50027901e-01 -1.00127421e-02 -1.04077950e-01 +4.09919433e-02 +6.99021667e-02 -1.64257130e-03 +8.62148479e-02 +3.34060006e-02 -1.46248892e-01 -4.67269309e-02 -1.62059277e-01 -9.54299644e-02 -2.46423140e-01 -1.36363402e-01 +1.16538629e-02 -1.61530990e-02 +4.10342887e-02 -7.24400654e-02 +1.74736887e-01 -1.40634310e-02 +1.05579212e-01 -2.25122310e-02 -6.39128983e-02 -1.27296418e-01 +1.15319584e-02 +6.49860874e-02 -3.86558250e-02 +7.63462484e-02 -1.27456412e-01 +9.81738325e-03 -3.60914245e-02 +3.30870420e-01 -7.17263222e-02 -1.12104844e-02 -3.26551613e-03 -2.02919453e-01 -7.78526589e-02 -1.19463436e-01 -3.94050665e-02 +1.44123822e-01 -4.62711640e-02 -1.04480878e-01 +7.02088848e-02 -2.11106632e-02 +1.07360736e-01 +1.09873870e-02 +4.60615009e-02 -3.34716178e-02 +8.58420581e-02 -1.40438527e-01 -1.41638339e-01 +5.94226681e-02 +3.85635048e-02 +3.92243192e-02 +8.43584016e-02 -6.05701208e-02 +1.52976466e-02 +1.46248698e-01 +2.15709656e-01 -2.73216553e-02 +2.82801948e-02 -8.65547508e-02 +2.64080931e-02 +1.21679716e-02 +5.77714778e-02 -1.09775299e-02 -2.06660908e-02 +7.11971745e-02 +9.99442488e-02 -1.19248524e-01 +9.78342816e-02 +8.55399966e-02 +1.20555483e-01 -2.91120391e-02 +5.86094446e-02 -9.76859331e-02 -1.40627250e-01 +1.06394507e-01 -4.23105732e-02 +1.28193544e-02 +1.12692244e-01 -1.05749734e-01 -1.38968214e-01 -5.65219112e-02 -1.12273537e-01 +2.63821166e-02 -1.10534150e-02 +1.05053633e-01 +5.96728548e-02 +5.91212511e-02 -1.37738854e-01 +1.65963080e-04 +5.27448766e-03 +5.93641885e-02 +1.06672347e-01 +1.63024012e-02 +6.76652044e-02 -2.78512705e-02 +8.89793504e-03 +1.12879418e-01 -1.03626579e-01 -5.39692864e-02 -1.68637163e-03 +1.45781934e-01 -6.93700239e-02 +6.19050264e-02 -1.28678307e-01 +2.09717285e-02 +5.65279834e-02 -8.64609629e-02 +3.74472253e-02 +2.30769962e-01 -3.76804173e-02 -1.70510530e-01 +3.11442465e-02 -1.15583286e-01 -7.97227994e-02 +2.05015406e-01 -5.02067059e-02 -4.50334437e-02 -8.05120766e-02 +1.02299042e-01 +1.39009859e-02 +5.04499674e-02 +4.40299101e-02 +8.28518942e-02 -5.00174835e-02 -1.04573533e-01 +1.61291033e-01 +7.46972337e-02 +8.81454051e-02 +9.57621634e-02 -1.60734933e-02 +3.94923314e-02 -2.29096022e-02 -2.60569453e-01 +1.03657126e-01 +1.08717658e-01 -1.67432740e-01 +6.79723471e-02 +1.04303829e-01 -2.11340506e-02 +6.90536946e-02 +4.84416336e-02 -2.02500150e-01 -1.77566051e-01 -1.49217948e-01 -1.61233749e-02 -2.15922203e-02 +2.10699607e-02 +2.33987623e-04 -1.72451526e-01 +5.36949672e-02 -8.61777589e-02 -1.09836891e-01 +4.95438464e-02 +1.96951360e-01 +6.21211566e-02 +1.84635654e-01 -1.83574647e-01 +1.29494160e-01 -1.09796161e-02 -3.76322912e-03 -4.49894406e-02 -1.94527641e-01 -1.60104156e-01 -9.66510922e-02 -8.45572203e-02 -6.25588894e-02 -1.05011359e-01 +2.90253293e-02 -1.67108789e-01 +2.79863048e-02 +4.01823483e-02 +1.14199698e-01 -2.08157720e-03 -8.03438202e-02 +5.41449301e-02 -4.73160222e-02 -1.80104133e-02 +1.05576804e-02 -5.78960255e-02 +6.34960830e-02 +1.60772502e-02 +2.73572337e-02 +1.51552251e-02 +1.07491538e-01 +6.09340183e-02 -4.72099818e-02 -1.19902506e-01 -2.45433226e-02 +1.87718850e-02 +1.04636490e-01 -2.09336102e-01 -2.39375442e-01 -1.02868043e-02 -1.72422025e-02 +7.29856417e-02 +1.17057607e-01 -1.37741566e-01 -1.17608055e-01 -2.57009850e-03 -1.92991886e-02 -4.79765162e-02 -2.49600261e-01 -1.01303771e-01 +2.58457698e-02 +4.38852422e-02 -1.20300032e-01 +4.58812229e-02 +7.18060955e-02 -1.02549285e-01 -1.92443699e-01 -1.18963502e-01 -3.81614044e-02 +3.09853870e-02 +7.94851631e-02 -3.89547981e-02 -5.76100424e-02 -4.30479944e-02 +3.09500434e-02 -4.60112616e-02 +7.24129006e-02 +4.99747111e-04 -6.39253929e-02 -7.43920403e-03 +1.12429895e-01 -2.88153943e-02 -1.92868779e-03 +1.27553260e-02 -1.00147882e-02 -1.25016540e-01 +1.04892470e-01 +2.39466764e-02 -2.28285380e-02 -8.80217925e-02 -1.54856462e-02 -4.38412130e-02 -1.22305267e-01 -6.44049570e-02 +5.83616532e-02 -1.14857450e-01 +6.35012388e-02 -1.73492357e-02 -9.14388150e-03 -1.16522059e-01 +1.16715981e-02 +7.93639012e-03 +5.40716527e-03 -5.66081367e-02 -4.14261967e-02 -1.35966286e-01 -9.89158526e-02 +3.63975950e-02 -1.72154941e-02 +6.61269873e-02 -1.20317619e-02 -2.57406589e-02 +7.83082247e-02 -2.06141010e-01 +7.61834681e-02 +2.44405754e-02 +3.68446782e-02 -1.36357054e-01 +9.17672459e-03 +8.39898139e-02 +4.81822304e-02 +7.61046931e-02 -6.65385798e-02 +2.19171997e-02 -8.27620253e-02 -3.95005047e-02 +7.77530968e-02 -1.27803683e-02 -1.44736052e-01 -2.62932420e-01 +9.78510082e-03 -1.71073747e-03 -4.64793965e-02 -1.15706092e-02 +9.94486809e-02 -1.05704628e-01 +2.97456477e-02 +1.64031193e-01 +1.92381795e-02 -2.80878469e-02 +6.18226267e-02 -1.70005575e-01 -5.73731493e-03 +4.59397510e-02 +4.87364223e-03 -8.35429877e-02 -2.76544876e-02 +1.25657199e-02 +2.80619320e-02 -6.41107187e-02 -9.33696702e-02 -9.79236700e-03 -3.74105841e-01 +2.91014165e-02 -3.92284393e-02 -1.74619898e-01 +6.07882664e-02 -1.94746275e-02 +6.62548747e-03 +8.37048590e-02 +6.67911768e-02 -6.67278692e-02 -1.96061298e-01 -2.60049433e-01 -9.87852458e-03 +1.03561968e-01 +3.89745682e-01 +6.16462640e-02 -7.45040625e-02 -8.71442780e-02 +1.23166956e-01 +3.62345716e-03 -3.95765305e-02 -9.83244255e-02 -2.89599031e-01 -1.61347210e-01 -3.80472690e-02 +6.69957921e-02 -2.80142315e-02 -4.96811280e-03 +1.25866979e-01 +1.12753153e-01 -5.73483557e-02 -5.05186096e-02 +8.11262354e-02 -1.16419205e-02 -7.04180682e-04 -4.61302698e-02 -3.69480252e-02 +6.51984885e-02 -2.69303601e-02 -1.29409935e-02 +7.37579539e-02 +4.78068925e-02 -6.61468655e-02 +2.78081708e-02 -1.24623425e-01 +2.15880889e-02 -3.44435483e-01 -7.85786882e-02 -1.46229208e-01 +1.27807006e-01 +3.79259512e-02 -6.61498234e-02 -1.63211927e-01 -1.01685092e-01 +8.62728339e-03 +9.11273658e-02 +1.21196203e-01 +9.60721821e-02 +1.19457513e-01 -8.72467086e-02 +1.80506200e-01 +1.15388548e-02 +4.81467694e-02 -1.70668781e-01 +2.13752240e-02 -6.36356045e-03 -1.96791857e-01 +6.71074819e-03 +3.62516493e-02 -1.09182477e-01 +2.67638385e-01 +4.29938771e-02 -3.57764028e-02 -5.91141582e-02 +3.35259102e-02 +2.51854509e-02 +3.00950825e-01 +5.24139330e-02 -1.21950656e-01 -1.46756545e-01 -7.36468583e-02 -6.55179918e-02 +1.64573163e-01 +6.19857311e-02 -1.13604821e-01 +8.91050845e-02 -7.75380656e-02 -2.85494447e-01 -1.23860255e-01 -7.48597905e-02 +1.51268974e-01 +1.27873555e-01 -2.48600855e-01 +5.94047308e-02 +6.29027560e-02 -4.55612913e-02 +7.24466965e-02 -7.43330494e-02 -9.92056429e-02 +1.34369880e-01 +7.35823647e-04 +8.07192326e-02 +2.30683252e-01 +1.17547229e-01 -1.90575689e-01 -3.62150818e-02 -4.88482714e-02 +1.45166859e-01 +7.00368807e-02 +1.65139809e-01 +7.17810765e-02 +2.59839669e-02 +4.26936671e-02 -2.64484823e-01 -1.16941452e-01 -9.71082747e-02 -1.87806666e-01 +9.14934278e-02 -1.67039663e-01 -1.97210964e-02 -1.65421423e-02 +6.27872199e-02 -1.87451597e-02 +8.29362199e-02 +2.75661871e-02 -1.77494317e-01 +2.42406204e-02 +1.11200534e-01 -5.28834462e-02 -2.47682072e-02 -1.69204786e-01 +7.31431693e-02 -6.72537833e-02 -3.12178452e-02 +1.70700371e-01 +1.36481598e-01 +5.46935238e-02 -1.58389792e-01 +5.05799390e-02 +4.40088399e-02 -6.06173649e-02 -6.59729168e-02 -6.34207064e-03 +1.29058063e-02 -2.43772496e-03 +6.64483905e-02 -1.62769272e-03 -1.43609911e-01 +5.91668710e-02 +1.89873740e-01 -8.34402591e-02 +1.37875587e-01 +7.63188899e-02 +1.59723267e-01 -1.34729013e-01 -8.89072046e-02 -1.32049732e-02 +1.75986718e-02 -2.90399462e-01 +1.53266355e-01 +9.41622164e-03 +2.05163792e-01 -1.04807623e-01 -1.04800425e-01 +4.15241458e-02 +1.14585996e-01 +4.92156632e-02 -1.06522001e-01 -2.06585936e-02 +7.69731402e-02 -5.89928706e-04 -5.12405261e-02 +2.59836018e-02 +1.03877001e-01 +1.59694389e-01 +8.63780081e-03 -3.09260990e-02 -1.55381620e-01 +7.22433105e-02 -1.24189608e-01 -9.01618898e-02 +1.42118633e-02 +6.90387655e-03 -2.34246869e-02 +2.47745030e-02 +8.50238502e-02 -1.43062100e-02 +3.40843163e-02 -3.89738474e-04 -7.35739470e-02 +2.31756177e-02 -8.35139770e-03 +1.86775357e-01 +1.10821417e-02 +2.24595405e-02 -3.56474631e-02 +1.98582381e-01 -7.08897114e-02 -1.15662301e-02 -1.18205789e-02 -6.19602054e-02 -1.53225631e-01 -2.34603547e-02 +8.33213180e-02 +1.09035067e-01 -1.16594665e-01 -8.60599503e-02 -2.29346994e-02 -1.20583639e-01 -5.40036038e-02 -9.86780077e-02 -8.28234255e-02 +8.31329450e-02 -1.00430787e-01 +1.23007959e-02 -3.65483761e-02 +7.39597604e-02 -1.68412939e-01 -4.15382907e-02 -1.10970147e-01 -7.62166008e-02 -2.53088828e-02 +2.32221782e-02 +1.11786075e-01 +3.33567075e-02 -4.78605144e-02 -5.58255613e-02 -6.15494363e-02 +7.77711347e-02 +1.93417887e-03 -2.60620173e-02 +2.21538730e-02 +1.68565139e-02 -9.42755193e-02 -1.03725144e-03 +1.91173796e-02 -9.54677165e-02 -8.56951252e-02 -8.79067406e-02 +1.02210559e-01 +2.65764724e-02 -3.66940387e-02 +3.55132632e-02 +2.22098485e-01 -6.24094754e-02 -4.44292054e-02 +3.02506262e-03 -3.17469127e-02 +5.01555912e-02 -1.68958269e-02 -7.88012519e-02 -4.36587818e-02 -4.90978919e-02 -2.29004342e-02 +1.66685089e-01 -1.25501633e-01 +1.71641819e-02 +7.32119083e-02 +4.46190387e-02 +1.38059268e-02 -7.43605494e-02 +9.91967246e-02 +1.13108819e-02 +2.04241872e-01 -9.88905877e-02 -2.08284184e-01 +1.36402100e-01 +1.16333023e-01 -8.82351100e-02 +6.36111647e-02 -5.46687469e-02 +2.22878288e-02 +1.01500573e-02 +2.46033370e-02 +8.84407088e-02 +1.48001155e-02 +1.07548915e-01 -1.05434127e-01 -3.87094989e-02 +3.47950384e-02 +3.17026675e-03 +6.94116130e-02 -5.52167371e-02 +1.54675357e-02 +4.67917277e-03 +1.22034207e-01 -6.78537739e-03 -2.12751523e-01 -8.47518146e-02 -2.21929094e-03 +1.16345868e-01 +9.50479656e-02 -1.20224945e-01 -1.81946248e-01 +9.44221541e-02 -1.32513106e-01 -1.09273501e-01 -1.74892824e-02 +4.10248935e-02 -7.79592767e-02 -7.25351498e-02 +3.90640907e-02 -8.04059133e-02 +7.24011585e-02 +1.36613965e-01 -4.56284620e-02 -1.15446553e-01 -1.19016863e-01 -1.87418252e-01 +3.44989076e-02 -1.11563213e-01 -7.71587044e-02 +5.88197187e-02 -3.91396545e-02 -1.91957235e-01 -9.94766131e-03 +4.98799188e-03 -4.56047878e-02 +5.41541614e-02 -6.01491844e-03 +8.16549510e-02 -1.57659240e-02 -1.04331523e-01 +4.05527294e-01 +9.55088586e-02 -3.13081667e-02 +6.48914352e-02 +1.45175353e-01 -1.65098310e-01 -1.32176001e-02 -1.49497772e-02 +7.24592656e-02 +1.38387065e-02 +2.10791342e-02 -6.64321631e-02 +2.98701134e-02 +4.99292538e-02 -9.75705758e-02 -2.22028643e-01 -2.54250169e-02 -2.23876640e-01 +3.04461811e-02 +2.97213551e-02 -1.90097496e-01 +1.44119337e-01 -6.72550425e-02 +5.04597053e-02 +5.56129888e-02 -8.97074342e-02 -6.05393089e-02 +1.77554443e-01 -7.19889626e-02 +8.01682323e-02 +5.63531183e-02 +3.60208787e-02 +2.50752410e-03 -2.72887554e-02 +6.66990504e-02 -5.72000965e-02 -1.38181299e-01 -1.35313123e-01 +5.29664643e-02 -4.53022160e-02 +1.18498415e-01 -6.59659356e-02 +7.45031834e-02 +1.56808257e-01 +9.13532227e-02 +8.91979188e-02 -4.57828268e-02 -1.32661790e-01 -7.31097981e-02 +1.52584712e-03 -7.75380954e-02 -1.81917161e-01 +9.91562828e-02 +2.73530930e-02 +3.95876244e-02 -1.37465432e-01 -1.00000188e-01 +1.24434061e-01 -5.20568565e-02 +1.02287464e-01 +4.83379066e-02 -4.90290076e-02 +3.77816427e-03 -1.04224749e-01 +5.63125908e-02 +2.51472834e-02 +4.16488759e-02 -1.05835997e-01 +3.29185021e-03 +7.37090558e-02 +9.53792557e-02 +2.53643930e-01 +1.58917218e-01 +4.46052738e-02 -8.30504596e-02 -9.78785306e-02 +1.05741031e-01 +4.92872968e-02 -3.24069783e-02 +2.61212625e-02 +8.90322775e-02 +6.80372715e-02 -8.01813900e-02 -6.53469861e-02 +8.30201730e-02 -5.26470831e-03 -1.07956111e-01 -7.09604770e-02 +2.22868919e-02 -1.27186224e-01 +1.73813794e-02 +2.79394202e-02 +1.59117609e-01 -8.52005109e-02 +1.27389073e-01 +4.43629967e-03 +6.56481087e-02 -3.65553312e-02 +1.17868790e-02 +4.43036109e-02 +9.71432403e-03 +1.14708036e-01 -1.20772727e-01 -7.04934746e-02 -5.44197438e-03 -5.88841066e-02 -4.87828441e-02 +1.50628015e-01 +1.52554642e-02 -3.19118381e-01 -1.17488392e-01 -1.14005143e-02 +1.61463395e-01 +3.81696108e-03 -1.75471380e-01 -8.60230327e-02 -1.35790050e-01 +1.29788956e-02 +1.68672912e-02 -1.29953586e-02 +9.52263325e-02 -1.17684290e-01 +2.76794583e-01 +1.90513119e-01 -8.62875059e-02 -9.50336643e-03 -1.37378186e-01 +9.95789915e-02 -5.65369241e-02 +8.75426382e-02 +5.77915162e-02 +3.81738454e-01 -1.32080227e-01 -1.34332981e-02 +1.47647053e-01 -3.04395403e-03 +5.14729172e-02 +1.78005472e-02 -1.20627647e-03 -1.79584265e-01 -1.73224986e-01 +1.18567906e-01 +2.03598827e-01 +1.32108450e-01 -5.46973646e-02 -1.10054528e-03 -1.11163363e-01 +4.47743200e-02 +2.82755326e-02 +9.99773517e-02 +1.51361572e-02 +6.59019500e-02 +9.30317268e-02 +7.25994185e-02 +2.46212050e-01 -7.90038183e-02 -9.03847218e-02 -2.84374449e-02 +7.79883638e-02 +1.59941569e-01 +5.81924804e-02 +1.27240628e-01 -1.34182096e-01 +3.91224539e-03 -4.66811210e-02 +3.73626426e-02 +4.33334373e-02 -7.60907978e-02 -1.86361939e-01 -7.87230805e-02 -4.39766087e-02 +5.51120006e-02 -2.76568793e-02 +1.09573841e-01 -5.48826084e-02 +2.45196059e-01 +1.56522885e-01 -2.62292232e-02 +5.37953191e-02 -1.11495726e-01 -4.01060432e-02 -7.55672390e-03 -3.31112072e-02 -5.62698534e-03 +5.61568625e-02 -9.33538750e-02 -6.94085211e-02 -1.76170804e-02 +6.54475093e-02 -1.97556801e-02 -1.44921005e-01 -2.12412924e-02 -8.64184648e-02 -4.54971381e-02 -2.03241874e-02 +3.97675000e-02 -6.79621939e-03 -1.63787697e-02 -2.17193309e-02 +1.03846148e-01 -7.40409270e-03 +2.06523202e-02 +5.68858758e-02 +5.52325733e-02 -2.14706864e-02 +3.16787250e-02 -5.58977127e-02 +6.51880652e-02 -2.38429513e-02 +6.39065802e-02 +3.09881475e-03 -1.60737541e-02 -3.71699445e-02 +5.71688749e-02 -1.46804834e-02 -7.85364956e-02 -7.84553364e-02 +8.22478789e-04 +1.08624443e-01 -8.20222267e-05 +1.85550209e-02 -4.02003713e-02 -2.54339762e-02 +1.06863774e-01 +2.87697017e-02 -6.14805594e-02 +3.84411141e-02 +5.13384938e-02 -9.70302243e-03 -1.12822063e-01 -4.04299684e-02 +6.01683594e-02 -1.16954550e-01 -1.46677755e-02 -4.44176681e-02 +5.89549867e-03 -5.86420707e-02 -6.96112588e-02 +1.67708546e-02 -1.62359923e-01 +7.80412629e-02 -1.61339808e-02 -1.97804272e-02 -7.69441156e-03 -2.92384345e-02 +8.46482590e-02 +4.71706912e-02 -1.56505108e-02 +1.97922103e-02 +1.17018372e-02 +8.06391165e-02 -5.84116988e-02 -7.39965141e-02 -1.24785434e-02 -1.01187937e-01 -1.20836087e-01 +1.88493222e-01 +2.15358217e-03 -1.06485412e-01 -9.02511459e-03 +3.70689877e-03 +5.28584272e-02 +4.90187854e-02 -6.78333119e-02 +1.17064767e-01 +3.57794240e-02 -1.70667171e-01 -1.14429578e-01 -1.83317438e-02 +3.49020679e-03 +1.13667071e-01 -6.26285821e-02 +9.71025750e-02 +5.45555726e-02 -1.23203740e-01 +4.53503393e-02 +1.87124871e-02 -1.29484609e-01 +9.92653146e-02 +6.65149689e-02 -3.50685604e-02 +5.09323366e-02 -9.75007564e-02 +5.20450063e-02 -1.15245104e-01 +5.31426594e-02 +1.73253976e-02 +6.23033801e-03 -2.44782530e-02 +1.36415819e-02 -3.06075495e-02 -9.22946706e-02 +4.30798046e-02 -1.03320621e-01 +1.78319618e-01 -1.66941315e-01 -5.44212572e-02 -2.42704619e-03 -9.30121690e-02 -3.25089656e-02 +1.09654693e-02 +3.91853228e-02 -1.00795120e-01 +9.39704552e-02 -3.46548557e-02 +7.51352161e-02 -1.38176039e-01 -2.46977676e-02 -9.41840932e-02 +2.84954067e-02 +1.70652140e-02 +1.57300150e-03 -1.13210745e-01 -5.00026904e-02 +2.30347842e-01 -1.03212651e-02 -1.85322319e-03 +1.99578434e-01 -1.38037056e-01 +3.42719465e-01 -1.29895762e-01 +5.64041063e-02 +5.37472479e-02 -9.34002399e-02 -1.77499250e-01 -1.84982002e-01 +4.12980393e-02 -1.17787220e-01 -4.54223491e-02 +4.05822843e-02 -8.10460746e-02 -1.14644878e-01 -7.96690509e-02 +9.28768590e-02 +2.52399649e-02 -1.26600102e-01 -1.29762441e-01 +1.82823002e-01 -6.84324503e-02 +7.97496662e-02 -1.07976191e-01 +6.45782351e-02 +1.30204514e-01 -5.39123677e-02 -9.37891304e-02 -2.01843455e-02 -5.98200075e-02 +1.38938993e-01 +8.01045150e-02 +1.71320871e-01 -1.25947759e-01 -3.02067655e-03 +2.86048986e-02 -8.48368704e-02 -1.12728022e-01 +1.85162365e-01 +5.62126711e-02 +8.48434269e-02 +1.01172455e-01 -1.37516364e-01 -7.71420896e-02 -2.44156290e-02 -2.93339938e-02 +3.81790437e-02 -1.94308478e-02 -4.82973456e-02 +1.61293045e-01 +7.95145240e-03 -1.27256915e-01 +9.02907178e-02 +8.08823258e-02 +1.26221240e-01 -7.51504442e-03 +4.10643145e-02 +4.04517725e-02 +5.99497259e-02 +5.01106903e-02 +5.54312654e-02 -8.00434873e-02 +1.72427539e-02 +2.14966089e-02 -1.15547240e-01 -8.40627849e-02 +7.71955550e-02 -9.44306701e-02 -2.43263748e-02 +2.19181344e-01 -1.79264069e-01 -2.56971329e-01 +7.36638755e-02 +8.04354027e-02 -1.89764261e-01 -1.76395565e-01 -6.71401545e-02 +1.80252910e-01 +1.33532360e-02 +1.06012277e-01 +5.57885543e-02 +1.15355840e-02 +2.78604925e-02 +1.33415967e-01 -4.84336428e-02 +3.08595132e-03 +8.00053179e-02 -1.34445736e-02 -2.43720207e-02 +3.13618742e-02 -1.06508648e-02 +5.93341812e-02 -6.20746985e-02 -6.36797845e-02 -1.75399050e-01 +1.26959383e-01 -1.33685097e-01 +8.99351984e-02 +3.82176042e-02 -1.41797572e-01 +6.35878444e-02 -2.28945643e-01 -4.79190052e-02 +1.21358810e-02 -1.08225746e-02 +8.59015360e-02 -3.07245050e-02 +1.15517210e-02 +5.90967499e-02 +1.47196636e-01 -6.98417276e-02 -6.80718645e-02 +4.62366646e-04 +2.05101281e-01 +1.42746195e-01 -9.68886018e-02 -4.17230800e-02 +2.30130795e-02 -3.43133621e-02 +9.50627774e-02 -7.43398676e-03 +7.81400427e-02 +9.08862725e-02 +3.81740630e-02 -3.07835340e-01 -1.52163833e-01 +2.06203740e-02 -2.72826981e-02 +2.68592387e-01 -4.45692055e-02 +9.39774066e-02 +3.11729401e-01 +9.72322747e-02 -8.91633034e-02 +3.47895324e-02 -4.76996042e-02 +1.42388076e-01 -1.14136212e-01 +4.63770628e-02 -1.27647910e-02 -6.13055043e-02 +2.77882963e-02 -2.41262808e-01 +9.61021259e-02 -2.04867404e-02 -8.79513398e-02 +1.39931977e-01 +4.17462066e-02 +1.24479346e-01 -3.01467121e-01 +7.59310871e-02 -2.72887349e-02 +1.13213696e-02 +1.80844814e-02 -6.54686242e-02 +1.44348159e-01 -1.46259278e-01 +1.59155950e-02 -1.57993939e-02 +1.21956982e-01 -6.41862452e-02 -2.49211062e-02 +2.49608383e-02 +6.31800711e-01 -1.79167643e-01 +4.46513034e-02 +4.09594998e-02 -8.50576684e-02 -1.00757450e-01 -2.59632841e-02 +6.79952353e-02 -2.02946648e-01 -9.74686220e-02 +9.03662592e-02 +3.80267918e-01 +1.33376688e-01 +1.31925151e-01 +5.34303114e-02 +6.78470405e-03 -9.81002823e-02 -3.60807478e-02 +1.40635386e-01 -1.55809507e-01 +1.84389666e-01 -2.79817320e-02 -3.87850478e-02 +3.14834900e-03 +7.85601139e-01 +5.12543484e-04 +2.13010646e-02 +2.23962963e-01 +3.73056352e-01 +3.55846621e-03 +4.51248698e-02 +9.92932245e-02 -2.12699194e-02 +8.86924043e-02 -1.25136942e-01 +2.05435768e-01 +1.89224854e-01 -5.06574512e-02 -4.91107553e-02 +1.82979722e-02 +7.39845857e-02 -3.76608491e-01 -5.68564683e-02 -2.84577221e-01 +9.22274739e-02 -1.39498115e-01 +7.24387467e-02 -9.35772806e-02 +3.45569886e-02 +1.89631447e-01 -2.31629703e-02 +4.15265054e-01 +1.88422427e-01 +4.03762460e-02 +3.30241844e-02 -8.29642043e-02 -1.45108625e-01 -2.62980466e-03 -9.15217623e-02 +4.99047190e-02 -1.31020427e-01 +1.01955310e-01 +1.33496866e-01 +4.78599183e-02 +8.60854238e-02 -4.93053645e-02 -3.63105595e-01 -2.90261090e-01 -3.39728184e-02 -7.97740743e-02 +3.26601788e-02 -1.13101922e-01 -3.58963698e-01 -8.84580836e-02 -5.47250882e-02 +1.37896007e-02 +9.54499990e-02 +4.65317704e-02 +4.25825901e-02 +6.79437742e-02 +9.55754295e-02 +7.33065605e-02 -1.64961219e-01 +7.97872692e-02 +3.57172154e-02 +9.77635384e-03 -9.04764142e-03 -1.30793769e-02 +3.23234908e-02 -4.29009013e-02 -8.70922022e-03 -1.14719570e-02 -6.32785186e-02 -3.94891612e-02 +1.04016989e-01 +1.13827907e-01 -2.84617152e-02 -1.21599510e-02 -8.75872076e-02 -2.30508344e-03 -1.87808931e-01 +7.14920014e-02 -4.22991253e-02 -9.65785161e-02 -1.32404417e-01 +2.34724861e-02 -1.17136113e-01 -5.89066334e-02 -9.07900091e-03 +3.34021635e-02 -4.60066125e-02 +2.55369712e-02 +1.83310881e-01 -4.09893729e-02 -8.66825785e-03 +4.81909327e-02 +5.89397512e-02 -6.02314398e-02 -2.45438609e-02 +1.36821643e-02 -2.55705919e-02 +3.42675522e-02 +1.69164166e-01 +3.17484885e-03 +1.62288677e-02 -1.44567296e-01 -2.28979234e-02 -1.50329387e-02 +4.18146178e-02 +3.05919279e-03 -8.12817737e-02 -4.62176278e-02 +1.40961871e-01 +8.72059092e-02 -2.86618825e-02 +9.19772387e-02 +9.01209414e-02 +1.28749013e-01 +1.46875260e-02 +6.50624856e-02 +3.17768790e-02 +5.56121115e-03 +1.25358507e-01 +2.82836705e-03 +3.40366922e-02 +1.23796001e-01 +2.18745302e-02 -3.20435986e-02 -2.34457627e-02 -1.57986637e-02 +1.16033209e-02 +2.41132751e-02 -2.52683461e-02 -2.43278109e-02 +2.00526584e-02 +5.10019995e-02 -2.28383560e-02 +6.77843019e-02 +9.10122842e-02 -1.07567206e-01 -1.54455379e-01 -2.73931604e-02 +9.55230929e-03 -7.48037621e-02 -7.45571107e-02 -9.54769254e-02 +4.17177752e-02 +4.31673825e-02 -5.45638911e-02 -2.96671502e-02 +6.49625435e-02 -1.02798790e-01 -9.07178223e-03 +3.19609419e-02 +5.75003624e-02 -5.47821522e-02 -6.16141148e-02 +1.17109552e-01 -2.17080805e-02 -6.57942612e-03 -1.76872268e-01 +3.01513150e-02 -3.82501371e-02 -1.21681020e-02 +3.88292745e-02 +4.28911438e-03 +5.12354970e-02 +4.74264994e-02 -1.05157599e-01 -2.49708816e-02 -4.15833071e-02 +1.34312427e-02 -5.17718755e-02 -2.70359498e-02 +2.26935055e-02 +4.66464320e-03 -9.81057435e-02 +1.17901899e-02 -4.14515100e-02 +6.69556484e-02 -1.71382595e-02 +9.67305154e-02 -8.34759846e-02 -7.26164132e-02 -4.08115285e-03 -1.25128664e-02 -1.06084563e-01 +2.69780830e-02 -1.84084564e-01 +7.55629614e-02 +5.51932566e-02 +1.18283734e-01 -4.96254526e-02 -6.90083429e-02 -5.07276878e-02 -1.23889714e-01 +4.38969443e-03 -3.28525677e-02 +1.20957352e-01 +1.61514878e-01 -1.97532494e-02 -9.52845067e-03 -1.43334121e-01 -9.75081548e-02 -6.36556372e-02 +2.37034947e-01 -6.76554143e-02 -3.20615177e-03 +6.01507053e-02 -4.00909111e-02 -1.55731753e-01 -3.93408574e-02 -3.22429650e-02 +7.91187435e-02 +6.31235214e-03 -1.86121259e-02 -2.45130211e-02 -7.73875192e-02 +1.09912291e-01 +8.45304430e-02 -1.00457855e-02 -2.02295166e-02 +4.45607565e-02 +5.36739603e-02 -2.58488983e-01 -1.01153404e-01 +1.30972683e-01 +8.72640833e-02 -1.09860189e-02 +3.73838134e-02 -4.90569882e-02 -5.62307350e-02 -1.50107713e-02 -1.22932412e-01 -3.74973565e-02 +1.11273266e-01 +6.84586307e-03 -3.92419361e-02 +1.39540508e-02 -1.40963852e-01 +2.53714938e-02 -1.27449274e-01 -2.22991005e-01 +1.42398775e-01 -9.07481387e-02 +1.23593342e-02 -2.45100483e-02 +1.11457944e-01 +4.54995781e-02 -1.64331689e-01 -1.43204823e-01 -1.79756694e-02 -8.79916325e-02 +3.94908376e-02 +3.25002149e-02 -9.67269912e-02 +1.61005363e-01 +6.56482428e-02 +3.86436991e-02 +5.47968931e-02 +7.04241963e-03 +1.32463538e-04 +1.76810607e-01 -1.23385534e-01 +3.11581511e-02 +8.86815339e-02 -7.41965994e-02 -9.08498541e-02 +2.29925644e-02 +5.89843132e-02 +9.02165398e-02 +3.35893109e-02 -1.06292777e-02 +1.37069970e-01 -1.61895648e-01 -3.52005698e-02 -1.99318249e-02 -6.86561987e-02 +2.81753764e-02 -1.20564140e-02 -3.50255668e-02 -6.34336993e-02 -5.78559823e-02 +6.62284717e-02 +6.02567457e-02 +2.09296271e-02 +1.55854225e-02 +7.35611171e-02 -6.04035445e-02 +8.77932906e-02 +6.34886548e-02 +2.77059735e-04 -2.20968202e-01 -2.34432928e-02 +9.26990807e-02 -1.29239291e-01 +7.58909211e-02 +4.81965989e-02 +8.67526699e-03 +6.71414956e-02 -1.07177787e-01 -6.77017123e-02 -2.40643062e-02 -1.78474002e-02 -1.15974422e-03 +1.47176266e-01 -1.33792847e-01 -2.28654116e-01 -1.38079762e-01 +1.26061544e-01 +3.61963846e-02 +2.09361836e-01 -5.05675562e-03 +8.12395960e-02 +3.95308286e-02 +6.44929335e-02 -2.22690240e-01 +8.23681206e-02 -4.78843413e-02 +1.25129998e-03 +9.30819602e-04 -5.28476834e-02 +9.64715108e-02 +8.67678085e-04 -1.08788759e-02 -2.55782545e-01 +9.70859677e-02 -5.41550182e-02 -6.46107122e-02 +2.92815983e-01 -2.53980625e-02 +5.38346246e-02 +2.46088564e-01 +2.53820308e-02 -1.64620578e-02 -5.25894314e-02 -1.24492861e-01 +1.19291887e-01 -8.04664940e-02 +3.38810384e-02 -8.74080434e-02 +7.21505359e-02 +3.04342937e-02 -1.36974335e-01 +1.20804146e-01 -1.40983239e-01 -5.61237969e-02 +5.45433722e-02 -1.08469762e-02 +3.32842246e-02 -3.16089034e-01 +9.07231942e-02 -7.15554878e-02 -6.76634535e-02 +1.18908025e-01 -1.09529927e-01 +2.63690092e-02 -1.23372883e-01 +4.95744543e-03 +1.01422764e-01 +7.06887478e-03 -8.25270787e-02 -3.76878977e-02 +3.35386246e-02 +4.14716601e-01 -7.74387866e-02 +2.03816127e-02 -4.53888293e-04 -1.46098763e-01 -2.16266572e-01 -1.14632986e-01 +2.22273633e-01 -6.89273775e-02 +1.47272414e-02 +1.16595939e-01 +2.74165332e-01 +2.64101494e-02 +1.98458657e-01 -2.93617719e-03 -5.63768893e-02 -5.06557226e-02 +3.48950550e-02 +1.97473079e-01 -2.49995794e-02 +6.21346049e-02 +1.66214496e-01 -6.82219118e-02 -2.96826754e-02 +4.72293258e-01 +1.05916120e-01 +4.34994921e-02 +2.20951393e-01 +3.31059694e-01 -6.13281168e-02 -6.55909330e-02 +5.00888862e-02 +1.29570916e-01 +4.81746718e-02 -2.10643828e-01 +2.26440176e-01 +9.25147235e-02 -6.08081482e-02 -1.12427101e-01 -5.94044998e-02 -7.12630823e-02 -2.57371664e-01 -1.40789617e-02 -2.21526489e-01 +7.21583590e-02 -4.71582264e-02 +8.19317251e-02 -3.11384965e-02 +4.66962419e-02 +2.01403692e-01 +7.39553012e-03 +1.89460456e-01 +1.40675768e-01 -2.94632427e-02 -1.66174080e-02 -3.01149441e-04 -8.61823708e-02 +3.38027477e-02 -1.50992740e-02 +8.57041031e-03 -3.97051051e-02 +4.16244157e-02 -5.68397716e-02 +1.70628667e-01 +1.05592921e-01 +2.91632805e-02 -2.86911517e-01 -2.00726449e-01 +1.40807480e-01 -1.52776197e-01 -5.28110377e-02 -2.29282770e-02 -1.75680995e-01 +5.71978204e-02 -1.32860631e-01 +6.43193871e-02 -3.13287303e-02 -6.77325588e-04 -1.02305777e-01 +1.12691194e-01 -4.09558825e-02 -1.79629326e-02 -1.95775151e-01 +7.15250000e-02 -1.33656368e-01 +4.97946218e-02 -5.52312076e-01 +1.81438290e-02 -1.42961442e-01 +6.36243075e-03 -2.90464237e-03 -3.78038399e-02 +9.40051451e-02 +5.93275428e-02 -2.54979171e-02 -1.69998348e-01 -1.49875358e-01 -2.70032487e-03 +7.78973475e-02 +1.39010856e-02 -4.69202548e-02 +2.00987548e-01 +4.64470647e-02 +1.84775516e-02 -3.48482393e-02 -2.38142721e-02 -4.04604748e-02 +1.78506486e-02 -1.06318444e-01 +3.64182502e-01 +4.43498164e-01 +2.29431748e-01 -5.01892082e-02 +3.51921767e-02 -2.06661969e-01 +2.01745648e-02 +7.61095509e-02 +5.35024842e-03 -2.31453553e-01 -8.36279914e-02 -6.04831101e-03 +2.87270062e-02 -1.66040659e-01 +1.15520149e-01 +7.88384080e-02 +6.12455793e-02 +8.60077739e-02 -1.01871721e-01 -5.65728024e-02 -3.34899202e-02 -1.98640957e-01 -7.20700324e-02 +3.24426666e-02 -1.55615494e-01 +1.48490146e-01 +1.94220871e-01 +1.97023049e-01 -6.45580050e-03 +2.49436170e-01 -1.52773559e-01 -1.94895025e-02 +2.89408773e-01 +4.34787422e-02 -3.72599661e-02 -2.81798001e-02 +3.03897751e-03 +1.99005641e-02 -5.77104799e-02 -1.00965142e-01 -1.21980682e-01 -5.57279661e-02 +3.43644549e-03 -4.11267541e-02 +7.54048154e-02 +2.93739945e-01 +1.90065742e-01 +3.46682630e-02 +1.26202643e-01 -9.12408903e-02 -1.49327726e-03 +1.82007238e-01 -3.73231582e-02 +3.60738821e-02 -2.44566783e-01 +1.34535715e-01 +1.39751136e-01 +1.37413880e-02 -1.35644600e-01 -3.75856876e-01 -2.74600349e-02 -2.05417667e-02 -5.84940128e-02 -1.12517774e-01 -5.36428243e-02 -6.81816936e-02 -1.50335953e-01 -4.34796475e-02 +1.70095697e-01 +1.48157120e-01 -3.82083803e-02 +7.53253177e-02 -1.13603435e-01 +3.86721566e-02 +2.60463152e-02 -7.15264753e-02 +2.72811979e-01 -8.57570022e-02 -2.96713322e-01 -8.04990306e-02 +8.39909762e-02 -4.87928577e-02 -5.43263145e-02 -6.88349679e-02 -3.15626115e-02 -1.82489771e-02 -2.22265914e-01 +7.62765408e-02 -7.47586340e-02 -4.20659594e-02 +3.97417601e-03 +1.08098291e-01 -9.21543837e-02 +1.29726995e-02 -1.00830652e-01 -5.14130145e-02 +6.85496703e-02 +2.14005619e-01 +3.95530909e-02 -9.65904966e-02 +5.27708642e-02 +1.83829427e-01 +4.44434583e-02 -2.27310397e-02 -9.38208029e-02 +1.17653511e-01 +1.06043197e-01 +1.23827644e-01 +8.37600008e-02 -2.11100671e-02 -1.44347295e-01 +3.01336721e-02 -1.52733251e-01 +1.42513081e-01 +9.97762755e-03 +3.81709561e-02 -7.53225088e-02 -2.58291624e-02 -4.42537330e-02 -1.64880365e-01 +1.15579054e-01 -1.81378461e-02 +1.12104937e-02 +1.38066923e-02 +4.00528237e-02 -3.69226560e-02 -1.48241878e-01 +5.30985929e-02 -2.10826863e-02 -3.29574309e-02 +6.13888502e-02 +2.02031538e-01 +5.71114570e-02 -7.05297887e-02 +4.65260111e-02 +2.09897742e-01 -4.24155639e-03 +1.69883117e-01 +8.05277452e-02 +2.04730518e-02 +9.42818373e-02 -5.07386364e-02 +2.09409138e-03 -3.34290341e-02 -1.42403622e-03 +5.48583902e-02 -4.69290800e-02 -2.21992154e-02 +1.96010433e-02 -6.11733533e-02 +2.65709590e-02 +2.79239519e-03 +1.81322936e-02 +1.74160376e-01 -1.04583788e-03 +8.79092664e-02 -8.23796988e-02 +1.66884542e-01 -4.35509309e-02 +7.26507753e-02 +5.59888929e-02 +8.82000476e-02 -4.17543761e-03 +4.50376607e-02 +2.60727499e-02 -2.53231023e-02 +1.46634793e-02 +2.90341433e-02 -2.26997919e-02 -4.53120610e-03 +6.68047294e-02 -2.86687929e-02 -1.23618662e-01 +1.91301182e-02 +5.62944785e-02 +4.11119685e-02 -9.93207917e-02 +1.32514507e-01 -1.20364800e-01 -7.22563565e-02 -2.16758996e-02 -9.78972018e-02 -1.65052354e-01 +1.14961013e-01 +1.25577196e-01 -2.72507947e-02 +8.28216299e-02 +9.47413892e-02 -3.76916640e-02 -5.83064137e-03 -2.39693522e-02 -1.41699370e-02 +1.33522362e-01 +3.77126709e-02 +3.98818851e-02 -9.28114075e-03 -4.16597016e-02 -3.79834361e-02 -1.13647237e-01 +1.28525004e-01 -6.81704208e-02 +2.69567668e-02 -7.15693161e-02 +2.89401077e-02 -1.69625655e-02 -1.25057220e-01 -4.35816310e-02 -7.21931979e-02 +6.10596240e-02 +3.63247320e-02 -5.08207940e-02 -1.23367973e-01 -7.94901140e-03 +1.24452198e-02 +5.31276176e-03 -1.36187598e-02 +3.90173532e-02 -1.57901365e-02 -8.06289259e-03 -6.72774091e-02 -1.15804590e-01 +5.14545627e-02 -8.14449713e-02 +1.08033847e-02 -9.04868450e-03 -6.83780089e-02 -4.25319709e-02 +1.15115210e-01 +1.00298598e-02 -6.14181487e-03 -1.30996391e-01 +4.37547117e-02 +2.98308767e-02 -1.37387803e-02 -6.08619153e-02 -7.39245787e-02 -1.35958940e-01 +5.52228019e-02 -4.89172190e-02 +6.19754493e-02 +1.01635270e-01 -3.51923145e-02 +6.69211820e-02 +1.43390626e-01 +2.62921453e-02 -1.36269936e-02 -7.71506652e-02 +1.28982877e-02 +8.83216858e-02 +3.75012420e-02 +4.56456579e-02 -4.57461132e-03 -1.25619218e-01 +1.14574671e-01 -9.27872062e-02 +9.31904688e-02 +7.09188208e-02 +2.59436350e-02 -4.46432782e-03 +7.48529797e-03 -1.08215748e-03 -1.77739616e-02 +7.37820119e-02 +6.60962313e-02 +5.81516698e-02 +4.79271673e-02 +8.02550465e-02 +1.06230594e-01 -3.26070078e-02 +3.40400226e-02 +8.24377090e-02 +2.03537252e-02 +1.00290909e-01 -2.31249519e-02 +4.53501865e-02 +3.52722883e-01 -5.94088323e-02 +4.81293015e-02 +1.42363487e-02 +8.12391043e-02 -2.44560540e-02 -1.08249277e-01 +1.21533952e-03 -2.46723625e-03 -6.31863922e-02 +4.67434302e-02 +2.08448529e-01 -2.97954027e-02 +7.45351613e-03 +4.73118983e-02 +3.75037342e-02 -3.73992585e-02 +9.30091180e-03 +9.82438475e-02 -3.25559117e-02 +9.62667391e-02 -8.30945671e-02 -8.10064897e-02 -4.87402873e-03 +2.79690921e-01 -4.56997119e-02 +4.15523387e-02 +1.29588023e-01 +2.36452043e-01 +1.01574980e-01 +7.32533857e-02 -3.79580110e-02 -4.88241669e-03 +4.72297370e-02 -7.20870420e-02 +5.31816036e-02 +1.77461673e-02 -3.55258882e-02 -7.38960430e-02 -1.78918689e-02 +2.39158645e-02 -1.16806351e-01 +1.48729989e-02 -7.12783113e-02 -5.48823178e-02 -3.79331000e-02 +1.21927395e-01 -1.04692087e-01 +1.78614780e-02 +4.71195132e-02 +1.08489387e-01 +7.34693706e-02 +7.74065107e-02 -9.09492280e-03 -3.08672283e-02 -1.35024428e-01 -8.34297538e-02 -3.23529951e-02 +2.09191479e-02 +7.28374124e-02 -1.24146767e-01 -1.18455961e-02 -2.15659514e-02 +9.63372514e-02 +1.40652150e-01 +9.94750857e-02 -2.76316941e-01 -8.12876970e-02 -1.09182499e-01 -2.45584100e-02 +1.25132659e-02 -2.14235596e-02 -1.25543430e-01 -1.87967066e-02 -7.48627484e-02 +2.75638364e-02 -2.58295164e-02 +6.42127395e-02 +1.54484689e-01 -8.97893012e-02 -8.87745321e-02 +8.13100412e-02 -6.53356165e-02 -4.59946282e-02 -9.48574468e-02 -1.22870961e-02 +2.87494689e-01 -1.32513225e-01 -3.33315581e-02 -2.45155245e-01 +2.96882093e-02 -5.34722954e-02 +5.91731332e-02 -3.09653550e-01 +2.64453769e-01 +9.20473188e-02 -3.07294309e-01 -7.64754266e-02 -9.67484117e-02 +8.63713846e-02 +6.01704493e-02 -3.17807458e-02 +1.38585091e-01 +1.15165211e-01 +1.20989032e-01 +1.71019956e-02 -7.02724531e-02 +5.02222717e-01 -3.63190807e-02 -1.19391847e-02 +3.19023780e-03 -1.50431752e-01 +1.61384586e-02 -6.00540452e-02 -2.60076940e-01 -7.71147832e-02 +5.89395426e-02 +1.18454225e-01 +6.75843805e-02 -7.24356845e-02 -7.14539662e-02 -4.48439680e-02 -5.61925620e-02 -4.83274050e-02 +1.94540098e-01 +6.51942119e-02 -3.20960172e-02 -1.13375954e-01 +1.87830403e-01 -1.18980087e-01 +2.07780793e-01 +2.51557119e-02 +1.59830943e-01 -5.56919202e-02 +1.77462727e-01 -1.98188558e-01 -4.12581638e-02 -4.60018665e-02 +2.58537531e-01 -2.61123240e-01 -2.64370888e-01 +2.17104089e-02 +4.58932817e-02 +1.20062105e-01 +2.05709860e-02 +4.59403321e-02 -1.38379559e-02 +8.07919279e-02 +3.56981643e-02 -3.28361057e-02 +1.30914496e-02 +1.79029018e-01 -3.24544199e-02 -1.36568174e-01 +2.75268704e-02 +6.73658907e-01 -4.66515273e-02 -3.33689302e-02 -2.57970318e-02 -1.26294512e-02 +1.47083998e-01 +4.78930846e-02 -2.12563321e-01 +5.64677715e-01 +9.57092829e-03 +1.19795591e-01 +1.25124101e-02 -2.07747426e-02 -1.25179231e-01 +1.86969656e-02 +2.50429139e-02 -1.49720594e-01 -1.23175643e-01 +5.08347601e-02 -1.05296724e-01 +3.73655558e-01 +7.81922191e-02 -3.12450707e-01 +7.95045570e-02 -7.57950470e-02 -4.05641228e-01 -1.47532105e-01 +1.04532003e-01 +6.27589449e-02 -3.56715806e-02 -1.13251530e-01 -8.92815515e-02 -2.42811859e-01 +1.06158502e-01 -3.31356019e-01 -9.97174606e-02 -9.09126401e-02 -7.34907910e-02 +1.95442755e-02 +4.23179157e-02 +5.29104590e-01 +1.54955573e-02 +1.01551242e-01 -6.01727031e-02 -5.58522008e-02 -1.56796187e-01 -3.83436941e-02 +1.39545128e-01 -1.37774482e-01 -3.49081829e-02 -4.81758974e-02 -1.46552041e-01 -1.01384684e-01 -6.37278333e-02 -1.46328986e-01 +3.07057470e-01 -1.37634797e-03 +4.69946153e-02 -9.81642306e-02 +4.84088734e-02 -3.56582105e-02 -1.10290786e-02 +1.18987501e-01 -1.51889063e-02 -3.96798700e-02 +1.52068123e-01 +1.03313122e-02 +3.92216556e-02 -7.19633773e-02 -8.64752159e-02 +1.77719239e-02 +6.87714964e-02 -1.12515561e-01 -5.90786003e-02 +6.13555014e-02 +7.38143250e-02 -9.44467857e-02 -2.32419167e-02 -1.15800053e-01 +8.03825930e-02 +3.67755704e-02 -4.25020419e-02 +6.71221465e-02 +1.37714744e-02 -2.18437668e-02 +3.48903239e-02 -7.73615539e-02 -8.29040557e-02 -5.07133140e-04 -9.30265244e-03 +6.00755401e-02 -1.72615815e-02 +1.61042288e-02 +8.00543465e-03 -6.43429309e-02 -5.22195809e-02 +1.96324177e-02 +3.15394588e-02 -1.03900477e-01 -1.23429075e-01 -6.94525018e-02 +6.94536120e-02 +5.59521690e-02 -5.60253859e-02 -1.52324736e-01 -5.26718237e-02 +2.79918443e-02 +6.94621578e-02 +3.39731835e-02 -2.00512297e-02 +2.58716010e-02 +1.06804138e-02 -7.73808360e-02 -2.56319847e-02 -7.95104355e-02 +1.57696486e-01 -1.88932791e-02 +2.05603745e-02 +1.22422896e-01 -1.16862886e-01 +5.15667051e-02 +5.03589548e-02 +1.83270685e-02 -8.99614021e-02 -2.52693780e-02 -1.06590297e-02 -3.02469097e-02 -5.25533184e-02 +1.39486507e-01 -1.11106589e-01 -4.88102101e-02 +9.39088240e-02 +5.63633293e-02 +7.22623914e-02 -1.24617159e-01 +1.38249071e-02 +4.62459549e-02 +8.08144510e-02 +9.53130797e-02 +9.18012708e-02 -1.27436854e-02 +3.37697975e-02 +2.97842883e-02 +1.38837561e-01 +2.97950450e-02 -3.03518702e-03 -1.35661334e-01 -1.41684189e-01 -1.81489531e-02 -8.60473141e-02 -2.99487207e-02 +2.66368650e-02 -4.81702872e-02 -6.28280193e-02 +1.13144219e-02 +1.37986466e-01 +8.78751874e-02 +1.75415967e-02 +1.91369671e-02 +1.30661465e-02 -1.38406560e-01 +2.83839237e-02 -1.03848487e-01 +7.84722739e-04 -4.70792241e-02 +1.93268601e-02 -1.57030165e-01 -6.27459660e-02 -9.60739888e-03 +5.63964173e-02 -7.61965513e-02 +1.88697292e-03 +3.84777002e-02 -1.14821881e-01 +1.18504353e-01 +9.74457264e-02 +5.31850010e-02 -1.53125957e-01 -1.13307208e-01 -5.43106459e-02 +1.22815005e-01 +6.42286465e-02 -9.54591185e-02 +1.71889141e-02 +6.81523234e-02 -1.91490594e-02 -1.13390796e-01 +9.29800123e-02 -1.68107778e-01 -8.86052847e-03 -6.21381886e-02 -7.53013492e-02 +3.91617529e-02 -8.47442374e-02 -3.13974507e-02 +1.00208260e-01 -9.91163701e-02 +2.30705947e-01 -1.54921100e-01 +9.39604081e-03 -8.27477947e-02 +1.18304238e-01 +8.10524747e-02 -9.04092789e-02 +8.08325261e-02 -2.40554847e-02 -9.06259716e-02 +1.35042444e-01 -1.27637088e-01 +5.06139882e-02 -1.10724948e-01 +7.67109543e-02 +7.88292289e-02 +6.71134964e-02 +5.10044210e-02 +1.38824418e-01 +3.22045322e-04 -8.58468860e-02 +2.06283391e-01 -2.33113673e-02 -8.50068778e-02 -5.62605932e-02 -2.86335982e-02 +4.05517779e-02 -1.37499601e-01 -1.83507819e-02 -1.46580994e-01 -9.57115442e-02 +9.27759856e-02 +9.82979089e-02 +4.41381633e-02 +1.50686815e-01 -6.30611032e-02 -2.06757724e-01 +1.08624607e-01 -1.37050062e-01 +3.66939441e-03 -1.63700715e-01 -1.37067199e-01 -7.13835135e-02 +1.45557046e-01 +1.42009854e-02 -1.75584294e-02 -5.49188219e-02 -9.41896252e-03 +1.32556912e-02 -9.34760347e-02 +6.95671886e-02 -8.11413899e-02 +3.91883515e-02 -5.76904863e-02 +5.90098873e-02 -2.87069939e-02 +4.61773910e-02 +2.73847883e-03 +7.98467994e-02 +8.10661912e-02 -1.37565844e-02 -2.75897477e-02 +2.92021960e-01 -1.13253057e-01 -4.92110197e-03 +8.93485397e-02 -1.96825072e-01 +1.21101700e-01 +2.57563312e-02 -9.69990641e-02 +3.74535657e-03 +1.66603491e-01 +4.03532665e-03 -4.30495366e-02 +6.97244182e-02 -1.34978175e-01 +6.75683096e-02 +1.15446419e-01 -3.60512063e-02 -4.81778309e-02 +1.51237980e-01 -2.21894145e-01 -2.87126837e-04 +7.18387887e-02 -2.31354479e-02 +2.47550826e-03 +9.54762399e-02 -3.08003314e-02 +6.14431240e-02 -1.55189440e-01 +2.75281817e-03 -1.66503832e-01 -3.76888056e-04 -4.65518162e-02 +6.29540682e-02 +1.06251419e-01 -2.40304079e-02 +1.05485655e-01 -9.88585353e-02 -1.53294399e-01 -5.09381145e-02 -3.86885479e-02 -7.20560476e-02 -1.76389650e-01 +1.69457924e-02 -1.11563034e-01 -1.49754658e-01 -1.01202568e-04 -1.00337252e-01 -6.06781617e-02 -4.97580096e-02 +7.21734390e-02 -2.03531999e-02 +3.87504585e-02 -1.64476886e-01 -3.26342657e-02 -8.59546587e-02 -9.60796252e-02 +1.26022696e-01 -4.74839322e-02 -7.13613406e-02 -8.43860861e-03 -5.45658031e-03 -6.63950816e-02 -5.46602756e-02 -4.14015800e-02 +7.94087127e-02 -3.38811763e-02 -4.95142229e-02 +5.74849211e-02 -2.78064888e-03 +4.64280918e-02 +2.86703221e-02 -7.77562335e-02 +8.16407353e-02 +1.42645732e-01 -8.19199458e-02 +2.26639640e-02 +1.65579468e-01 +1.68889146e-02 -1.31451571e-03 +7.69948587e-02 -1.71671379e-02 -3.84100862e-02 +9.65017900e-02 +3.27260196e-02 -3.35269384e-02 -8.18164572e-02 -1.35987610e-01 +1.00714706e-01 +7.34282434e-02 -7.65233785e-02 -5.72735183e-02 -4.38260920e-02 +5.50454669e-02 +1.01423480e-01 -3.67501155e-02 -1.83489963e-01 +1.41346440e-01 -1.51710156e-02 -1.27217267e-02 +6.20779656e-02 +3.98548245e-02 -1.81540400e-02 -1.05997980e-01 -2.25906656e-03 -1.36851296e-01 +1.48368567e-01 +1.24287941e-01 +8.22900757e-02 -6.52333722e-02 -8.00360143e-02 +3.59241441e-02 +3.79655487e-03 -2.65883468e-02 +8.27954337e-02 -4.29906398e-02 -5.42373322e-02 +3.70249636e-02 +1.37776837e-01 -2.50022095e-02 +6.32390380e-02 +2.61570103e-02 +2.18384657e-02 +1.82745755e-02 +8.78621042e-02 -2.77226958e-02 -1.96087938e-02 -2.29408722e-02 -8.53472874e-02 -3.07450835e-02 -1.62592418e-02 -2.16522351e-01 -9.85741243e-03 +1.02785796e-01 +1.68978095e-01 -4.26858515e-02 +3.44068706e-02 +7.12404698e-02 -6.96533248e-02 -2.44988613e-02 +1.86642230e-01 +1.10529520e-01 +2.53431424e-02 +6.31360188e-02 +1.50428504e-01 +1.68230254e-02 -1.51166305e-01 +4.11337912e-02 +2.26249322e-02 +1.49310470e-01 +2.32816655e-02 -8.77813324e-02 +5.11714704e-02 -3.86877507e-02 -3.97240929e-02 -1.61543623e-01 +6.23052903e-02 -2.49271933e-02 +1.00960150e-01 +1.68864906e-01 -2.48480141e-02 -1.15685828e-01 +8.44985917e-02 -5.16618825e-02 -1.28009677e-01 -4.96874191e-02 +4.76671150e-03 +1.32274181e-01 -9.96707305e-02 -9.28122699e-02 +2.48924509e-01 -1.07983127e-01 -1.74303472e-01 +2.73871329e-02 +2.21683383e-01 +7.37297311e-02 +4.03217264e-02 +1.05173178e-01 +1.19494852e-02 +5.56234792e-02 -8.12025219e-02 +1.36577427e-01 +1.26401046e-02 +7.85178095e-02 +1.17799856e-01 -2.95619592e-02 +4.68239421e-03 +2.92616524e-02 -1.72062889e-02 -3.76532692e-03 -3.44834030e-02 -1.01596788e-01 +5.57393581e-02 -6.86728060e-02 -6.91281911e-03 +8.18692595e-02 +9.28774849e-02 -3.19807343e-02 +4.70615737e-02 +1.05757371e-01 -1.58337764e-02 -1.15408719e-01 +1.70118898e-01 -2.16995943e-02 +1.96199566e-01 +5.42840473e-02 -2.13588625e-02 +6.71528354e-02 -7.64540583e-02 +3.83338705e-03 -3.25017166e-03 -2.04306245e-01 -2.12301244e-03 -3.73763195e-03 -1.11922666e-01 -4.12089974e-02 -1.01947047e-01 +1.71177849e-01 +9.77692753e-03 +1.48066416e-01 -6.09132461e-02 +3.84855904e-02 -3.36123183e-02 +3.89912464e-02 +1.57101855e-01 -1.52477399e-01 +1.53511643e-01 +5.68401963e-02 -1.28960177e-01 +1.78673714e-02 -5.22773638e-02 +3.92737724e-02 -8.75964761e-02 -8.24416056e-03 +6.21070601e-02 +2.51555704e-02 +1.22881765e-02 +6.61981106e-02 -1.45251960e-01 +2.34179087e-02 -5.88204041e-02 -1.70348540e-01 -2.99905092e-02 -6.06091954e-02 +4.36392315e-02 +3.53066549e-02 -1.16876267e-01 +5.87704703e-02 +1.89254284e-01 +5.89697734e-02 -2.09444370e-02 -5.26444130e-02 +8.32084566e-02 -6.40383065e-02 -7.83630908e-02 -3.99314798e-02 -1.77655891e-02 +1.83982968e-01 +1.90594256e-01 +7.95923993e-02 +1.43372893e-01 +1.30735163e-03 +7.80784637e-02 -2.91839801e-02 -9.87481847e-02 -1.12940215e-01 +1.38255239e-01 +1.15423225e-01 +4.06178385e-02 +1.20015286e-01 +2.95402259e-02 +4.44177613e-02 +9.70185101e-02 +1.14271060e-01 -4.27574366e-02 +8.08990300e-02 +2.92005902e-03 -1.91836074e-01 +6.99179694e-02 +7.18161911e-02 +8.44622478e-02 -8.55057314e-02 -1.32978544e-01 -2.02334270e-01 +4.74567823e-02 -1.61963597e-01 +5.52916192e-02 -1.26008000e-02 +7.40055218e-02 -2.30360422e-02 -1.92942005e-02 +2.15180721e-02 +1.08476439e-02 +1.38253614e-01 -3.69237028e-02 -1.64417252e-02 -1.82175674e-02 -1.34736151e-01 -1.82856545e-01 -6.53925315e-02 -1.94843799e-01 -6.16070405e-02 +8.25206488e-02 +1.03869818e-01 +9.79415793e-03 -1.10883668e-01 -1.03418820e-01 +2.03078650e-02 -1.77069101e-02 +4.56829853e-02 -2.12277714e-02 -1.27074504e-02 -2.21316628e-02 -9.49048400e-02 -3.42026241e-02 +7.88472965e-02 +4.07510586e-02 +7.93679059e-02 +1.14335090e-01 +1.32105814e-03 -2.92355511e-02 +3.99723090e-03 -3.85853127e-02 -3.52159105e-02 +1.15890786e-01 -3.56101021e-02 +1.51145101e-01 +1.42246902e-01 +1.04259856e-01 +8.75674710e-02 -5.40405251e-02 +5.28603904e-02 -4.21242937e-02 -1.89731678e-03 +3.10728177e-02 +4.77125645e-02 -1.42895117e-01 +1.77069809e-02 -1.41280487e-01 -9.26281139e-02 +7.32924268e-02 +9.99798775e-02 -7.20823854e-02 -2.23599910e-03 +7.14074150e-02 +1.65280607e-02 -6.14575446e-02 -1.58422992e-01 -5.23904227e-02 +3.97000611e-02 +1.59245372e-01 -5.97043522e-02 -5.08571640e-02 -4.32047993e-02 +1.01484254e-01 +1.40278060e-02 +1.06049944e-02 +1.16108842e-02 -1.21683501e-01 +1.59660224e-02 -5.27539551e-02 +1.50432721e-01 -3.01525258e-02 -2.20670626e-02 -9.55156386e-02 -2.50946078e-02 -3.50245386e-02 -1.68062784e-02 -2.70623751e-02 +1.10204518e-01 +3.02521493e-02 -1.02736466e-02 +1.45765528e-01 +1.53160207e-02 +7.72225410e-02 +7.69442618e-02 -1.08201101e-01 +4.32974435e-02 -1.12472065e-01 -2.56536831e-03 -3.39600034e-02 -3.68958525e-03 -6.14580810e-02 +6.27268478e-02 +1.20436713e-01 -4.20199074e-02 -3.08956131e-02 +5.21283522e-02 -6.59178644e-02 +7.28723919e-03 +8.12375098e-02 +5.14110625e-02 +4.45543602e-02 -1.45322546e-01 -3.57491784e-02 -2.07158495e-02 -3.77746224e-02 -3.79203893e-02 +8.17093700e-02 -1.04546640e-02 -3.14038806e-02 -1.92427393e-02 +6.60188422e-02 +2.57485751e-02 -1.73576232e-02 +1.18836418e-01 +6.81675896e-02 -9.16546434e-02 +1.47486985e-01 +4.79191877e-02 -1.33092880e-01 