#Parameter# /KMeans.7627873d/_0 {100,512} 819201 ZERO_GRAD
+7.04172373e-01 -2.69694645e-02 +5.71073294e-01 -1.37350869e+00 -2.58537412e-01 +5.50264180e-01 -4.45170373e-01 +4.20735329e-01 -6.07051969e-01 -2.76846111e-01 -3.61622363e-01 -9.03455079e-01 +2.61809993e+00 +1.34267139e+00 -1.88067591e+00 -8.15867484e-01 +1.02657795e+00 -3.94543499e-01 +9.63226318e-01 +3.50250006e-01 +7.27084696e-01 +1.14874220e+00 +3.39469671e-01 -1.19466639e+00 -1.54966787e-01 -5.74090183e-02 -1.53989279e+00 +3.89531046e-01 -6.87483251e-01 -1.04165626e+00 -2.81476248e-02 -3.92352939e-01 -1.23646462e+00 -1.62761724e+00 +4.89169806e-01 +5.94403863e-01 -1.15117252e+00 -1.27073362e-01 -3.98370594e-01 -1.73411280e-01 +8.89741242e-01 +1.06772232e+00 +6.33698702e-01 -1.65132856e+00 -1.41861045e+00 -6.80291355e-01 +3.62946577e-02 -7.07263052e-01 +1.90994758e-02 +3.23561370e-01 -1.52104124e-01 +8.59932661e-01 +3.72287601e-01 +5.83388507e-01 +2.88181186e-01 -1.16854751e+00 -1.81092262e-01 -2.08794832e-01 +6.85785830e-01 +1.62173879e+00 -1.99053511e-01 -2.55292803e-01 -4.37091738e-01 -1.28439888e-01 +1.31821483e-01 +1.60049617e-01 -7.70870268e-01 -3.54660779e-01 +8.30083072e-01 -1.06117535e+00 +7.65873492e-01 +7.91438818e-02 -1.24760479e-01 +7.75224686e-01 -6.02190420e-02 -2.25648046e+00 +8.72625411e-01 +1.15611041e+00 -1.31863046e+00 +1.05030930e+00 -1.50442123e+00 +2.66353160e-01 +8.06983113e-01 +1.51044166e+00 -1.52632558e+00 -6.83232844e-01 -7.61455357e-01 +7.85854995e-01 +1.26143372e+00 -1.61187911e+00 -1.58578348e+00 -8.49073052e-01 +3.96540999e-01 -2.85015678e+00 +1.65435269e-01 +1.66273654e+00 +1.68150619e-01 -1.20614624e+00 +1.20361638e+00 +8.43959525e-02 -6.79184139e-01 +1.52092409e+00 -2.25646719e-01 +1.22983301e+00 +6.53146282e-02 +1.36282861e+00 +1.17957938e+00 +1.69520751e-01 -6.43444993e-03 -1.66293788e+00 -4.31156069e-01 -8.87193382e-01 -1.25748146e+00 +8.88290644e-01 +1.59290934e+00 +5.98621726e-01 +8.02246869e-01 -2.67553735e+00 +5.37988186e-01 +5.08107781e-01 -1.27113831e+00 +1.35249400e+00 +2.48835415e-01 -3.19546126e-02 -9.44308639e-02 -1.56918716e+00 -1.00149357e+00 -2.16356725e-01 -6.30562603e-01 +7.42623329e-01 -7.17479646e-01 +4.29699421e-01 +1.90709519e+00 +3.30896109e-01 +9.06997621e-01 -4.16290522e-01 -9.04587150e-01 +2.48207867e-01 +1.47096291e-01 -5.93323112e-01 -1.88322210e+00 +1.63735986e-01 +2.73146719e-01 +1.81442821e+00 -2.13695526e-01 +9.46835339e-01 +9.55114067e-01 -1.23836249e-01 +3.28490436e-01 -7.52751052e-01 -1.33371556e+00 +5.82146347e-01 -1.44919097e+00 +7.03459978e-01 +3.53144497e-01 -7.40590598e-03 -2.47506166e+00 +8.24572980e-01 -7.43504524e-01 -7.89438367e-01 -9.60998237e-01 -7.64976323e-01 -1.16940796e+00 -6.82282269e-01 +5.13360202e-01 +6.52221262e-01 +2.42057174e-01 -1.54125169e-01 -6.45728111e-01 -4.32198644e-01 -1.20001268e+00 -1.65910587e-01 -1.05262494e+00 +8.23900878e-01 -1.48055479e-01 +3.97757381e-01 -3.55735451e-01 -3.58212531e-01 +1.18628395e+00 -5.24060130e-01 +7.17367589e-01 +6.94317639e-01 +6.63519055e-02 -5.12784362e-01 +1.25181282e+00 -1.58217818e-01 -1.98129103e-01 +1.15840614e+00 +5.18847942e-01 +1.06216085e+00 -1.78419903e-01 +4.23168242e-01 +9.09406781e-01 +2.50633430e+00 -6.32847846e-01 -1.05511308e+00 +1.48422682e+00 -4.46371078e-01 -3.09345454e-01 -1.55006140e-01 -2.79829539e-02 -1.39431679e+00 -6.51774704e-01 -3.19937825e-01 +9.08165514e-01 -8.57459664e-01 +1.10380900e+00 -5.02321959e-01 -1.18448496e+00 -2.38904014e-01 +4.00563329e-01 +5.48143268e-01 +1.79265380e-01 -6.51169479e-01 -3.84047925e-02 +9.55560565e-01 -1.24958001e-01 +9.51363921e-01 +6.37801826e-01 -5.05759478e-01 +7.94123262e-02 -7.31121838e-01 -2.76629776e-02 +9.06135201e-01 -1.21266317e+00 -9.13088143e-01 +6.36291504e-01 -2.15384886e-01 +2.18348861e+00 +1.27407050e+00 -1.25322476e-01 -7.27369130e-01 -1.47368506e-01 +3.72219384e-01 +3.08735315e-02 +1.58072245e+00 +5.91557741e-01 -1.50584650e+00 +6.66287124e-01 +9.09106493e-01 +1.17208242e+00 +2.70176023e-01 +1.27141464e+00 -2.07943940e+00 +1.26534855e+00 -2.16487676e-01 +1.33447003e+00 -1.70436025e+00 +1.85587382e+00 +1.44445002e+00 +1.26977801e-01 +6.04829252e-01 -1.35152209e+00 -1.18709600e+00 +2.21642599e-01 -3.73629749e-01 -9.77317393e-01 +9.74729508e-02 +1.14470506e+00 -1.23558438e+00 +9.94489565e-02 -1.80437720e+00 -8.44284356e-01 +1.28404224e+00 -6.57165647e-01 -5.72402120e-01 -4.35298771e-01 +1.79878068e+00 +9.04206574e-01 +5.61285675e-01 -1.29009664e-01 +3.61441582e-01 -1.84211826e+00 +8.45490158e-01 +1.70258462e+00 -1.11946642e+00 -1.91746935e-01 +1.71505898e-01 -8.37466061e-01 +1.63919792e-01 -1.44775021e+00 +1.13983202e+00 +1.71890604e+00 -6.04605414e-02 -1.09717309e+00 +1.09805465e-01 -2.90211010e+00 -2.42069435e+00 +2.03453124e-01 +1.58390462e+00 +1.31969178e+00 -1.13585103e+00 +1.05542755e+00 +1.22174394e+00 +1.28111446e+00 +1.68278086e+00 -9.85498354e-02 +2.05686450e-01 +2.24467918e-01 +4.92781401e-02 +1.20959866e+00 +8.72461021e-01 -9.54239219e-02 +1.17139661e+00 +1.13802528e+00 +1.54981542e+00 -5.21529615e-01 -1.44316471e+00 +9.30941582e-01 -6.92276835e-01 +1.32641864e+00 -2.20792890e-01 +6.35247111e-01 +9.73277748e-01 -4.38880980e-01 -7.03800499e-01 +3.05248857e-01 -9.58267808e-01 +8.28382790e-01 -1.89436913e-01 -5.34705758e-01 +4.30932552e-01 +3.23827341e-02 +1.17381465e+00 -1.09032166e+00 -1.15034795e+00 -1.39240277e+00 +2.47212306e-01 +9.38694537e-01 -2.56388783e-01 +4.76874381e-01 -1.00792855e-01 -1.82204640e+00 -8.91348600e-01 -1.67351747e+00 -3.72335128e-02 +6.81966841e-01 +2.77064621e-01 +6.27531350e-01 -1.07927287e+00 +1.22220598e-01 +1.74161446e+00 -5.88618338e-01 +1.35096490e+00 -5.61988771e-01 -1.69533718e+00 +1.29409742e+00 +1.13541627e+00 -4.85343449e-02 -1.21738233e-01 +3.42103541e-01 +4.23623800e-01 -1.02499855e+00 +9.28153545e-02 -7.66870677e-01 +1.04966950e+00 +4.98625010e-01 -6.68349922e-01 -4.29363966e-01 -3.64012063e-01 +2.76847538e-02 +5.48904717e-01 -2.77653784e-01 +3.42746228e-01 -5.58640242e-01 -3.79249424e-01 +9.78915572e-01 -4.81047124e-01 +5.41437209e-01 -1.35282561e-01 -1.86884448e-01 -1.46654332e+00 -2.22181821e+00 -6.15608811e-01 -5.21306217e-01 +1.51649129e+00 +4.79078367e-02 +6.59302175e-01 -1.56013250e+00 +1.07034719e+00 -2.23988891e+00 -1.03485000e+00 +7.86493957e-01 +1.45341352e-01 -7.23606110e-01 +2.77202320e+00 -5.39490342e-01 -1.88421398e-01 +4.54745024e-01 +1.73567426e+00 +2.84307629e-01 -1.35410976e+00 +2.06248689e+00 -3.60614359e-02 +1.21341395e+00 -1.17384160e+00 -4.68149722e-01 -1.93273917e-01 +4.65930551e-01 +9.79492188e-01 +8.74033689e-01 -4.37517971e-01 +1.97514713e-01 +1.09141552e+00 +1.07762086e+00 -1.17798269e+00 +6.29224539e-01 -7.35876322e-01 +2.92404264e-01 +1.48550642e+00 +1.98000461e-01 +1.42914438e+00 -1.43662727e+00 +4.37578708e-01 -9.46447551e-01 -5.52710235e-01 +6.56480730e-01 -2.08045337e-02 +1.45726264e+00 +7.67976582e-01 -1.72813416e+00 -1.53133428e+00 +4.72470336e-02 -4.55824286e-01 +6.59260571e-01 -8.00727963e-01 -3.80252749e-01 -3.80418390e-01 +1.19471049e+00 -1.20761752e+00 -5.71391843e-02 +1.77850962e+00 +1.20033431e+00 -1.64370942e+00 +2.21096373e+00 -8.77947330e-01 +4.58977401e-01 +1.60992873e+00 -2.76985079e-01 -9.21640337e-01 +7.76349247e-01 -2.51887172e-01 +7.43109167e-01 -3.79884988e-01 -7.91359961e-01 +1.87105447e-01 +6.91126883e-01 -7.95157254e-01 -9.97431055e-02 -1.04676056e+00 +9.06890571e-01 +6.06827021e-01 -3.61018747e-01 +1.72103441e+00 +2.40649223e+00 -4.21640396e-01 +1.44867122e+00 +1.01598847e+00 +7.14531243e-01 +5.38540771e-03 -8.38425040e-01 +1.40526688e+00 -6.65749848e-01 +5.32951355e-01 -4.34860677e-01 -1.25028682e+00 +1.09112573e+00 +1.60176802e+00 -2.06208467e+00 -1.02415681e+00 +1.48346543e-01 -8.12231421e-01 +1.67826429e-01 +1.25013030e+00 +1.47222316e+00 -8.98191690e-01 -8.26329410e-01 -8.10184836e-01 +1.53891587e+00 +1.32041752e+00 +5.05612969e-01 -1.56821501e+00 +9.77662385e-01 -2.51290381e-01 +2.08096847e-01 +1.02622604e+00 -1.49969101e-01 -6.77417457e-01 -3.53133380e-01 +1.91878545e+00 +9.14330423e-01 -2.15370089e-01 +6.55687690e-01 -1.09489560e-01 +3.99535477e-01 -1.56095371e-01 +3.11941594e-01 -1.85161936e+00 +2.31327996e-01 +9.82396975e-02 -7.36974418e-01 +2.41497183e+00 +5.16666949e-01 +1.12285411e+00 -1.22106612e+00 +4.06954616e-01 +6.89618468e-01 +7.37028480e-01 +8.30763519e-01 +1.97219968e-01 -4.05918241e-01 -4.06322703e-02 +1.02718568e+00 +9.44359124e-01 +2.95988411e-01 +9.82675910e-01 -2.47579113e-01 +5.63771784e-01 +4.78372686e-02 -2.74437189e-01 -4.27902311e-01 -1.23738384e+00 +4.88573760e-01 -1.53614124e-02 +2.97267009e-02 -6.51930392e-01 -3.83987874e-01 +3.56858999e-01 -3.79350334e-01 -1.20226786e-01 -4.85880673e-01 -9.93851647e-02 -5.21547318e-01 -3.37865621e-01 -9.49008226e-01 -1.21655416e+00 -1.92989457e+00 +9.99421179e-01 +1.45313454e+00 +2.79802442e-01 -6.53502624e-03 -8.56758833e-01 +9.59100306e-01 -9.14887846e-01 +1.43126452e+00 -2.70613164e-01 +3.79188478e-01 -7.42836297e-01 +3.30611080e-01 -3.67538393e-01 +1.22560751e+00 -3.95269662e-01 +1.07625894e-01 -3.99388462e-01 -1.20284006e-01 +1.42562352e-02 -4.60492015e-01 +6.68496251e-01 +5.45454979e-01 +6.66255653e-01 -7.49776304e-01 +2.05690169e+00 +6.42297149e-01 +1.23214364e+00 -7.14730680e-01 -1.27887714e+00 -4.00509059e-01 +9.67768610e-01 +4.05142903e-02 +3.10145319e-01 +3.36643040e-01 +9.58606005e-01 +1.71733904e+00 +2.05250189e-01 +2.49990419e-01 +6.44504726e-02 -1.85037553e+00 +1.17715456e-01 +5.55014312e-01 +6.37033641e-01 +2.17606366e-01 -2.93122143e-01 +6.38705254e-01 -8.90166879e-01 +9.07121599e-01 -3.34460065e-02 +5.89628100e-01 -1.69742954e+00 -8.32494497e-01 -2.23410815e-01 -9.82944965e-01 +9.37027812e-01 +6.79183900e-01 -1.34644818e+00 +1.89078271e-01 +1.64209831e+00 +2.59712720e+00 -2.69801784e-02 +2.67452657e-01 +6.69550061e-01 +1.38112515e-01 +6.75613642e-01 +7.91392982e-01 +1.05951560e+00 -9.01797354e-01 +9.90426660e-01 +1.47434533e+00 +2.28817686e-01 -5.81274450e-01 +1.62771106e-01 +7.21363842e-01 +2.14765263e+00 -3.97622108e-01 +7.29105473e-02 -3.30372095e-01 -5.76936781e-01 -2.64820516e-01 -1.05246127e+00 +2.91874319e-01 -5.87806106e-01 +6.80724740e-01 -6.69848561e-01 -4.32415493e-02 -1.88021019e-01 +1.12623617e-01 -4.25511211e-01 -3.91004443e-01 +8.16031754e-01 +6.28808022e-01 +2.24359488e+00 -6.93483174e-01 +1.57487065e-01 +3.07312846e-01 -2.10493708e+00 -9.03259497e-03 -2.86731988e-01 -3.47177058e-01 -5.74604571e-01 -1.47764313e+00 +1.23865116e+00 -9.28314269e-01 +1.33069658e+00 -1.43612623e+00 -5.29869795e-01 -4.65511858e-01 +3.93526144e-02 +6.32439494e-01 -1.23357274e-01 -3.44144225e-01 +5.77811480e-01 -1.04601979e+00 +8.54885817e-01 -6.88743114e-01 -1.16564989e+00 +8.07265937e-01 -9.00016665e-01 +6.83139324e-01 -1.23858377e-01 -5.04095256e-01 +6.05023921e-01 -1.05728233e+00 -5.81763864e-01 +1.02573407e+00 +1.17528272e+00 -2.24436688e+00 -1.08375639e-01 -1.74737990e-01 +1.57772195e+00 -3.09837699e-01 +4.94557202e-01 -1.20130765e+00 -7.92512298e-01 +2.04911217e-01 -3.01304236e-02 +9.87271547e-01 -9.89215076e-01 +3.58089894e-01 +1.12761581e+00 -3.69831383e-01 +1.00990164e+00 -1.62791264e+00 -1.32330966e+00 -8.69081378e-01 -9.49409902e-02 +4.30286795e-01 -2.23936677e+00 -1.59709108e+00 +2.37923488e-01 -3.39208335e-01 +5.16430140e-02 +8.81159246e-01 +5.43334484e-01 -1.77442980e+00 +2.67378473e+00 +3.99148226e-01 -1.13474786e+00 -6.53294146e-01 -5.34392953e-01 -7.05285370e-01 -9.63803947e-01 +3.97484601e-01 -5.10524750e-01 -1.07319677e+00 -8.05723786e-01 +1.40071940e+00 +3.66150178e-02 -1.45972922e-01 -6.32847667e-01 +1.37122735e-01 +1.23061156e+00 +7.00580895e-01 -6.80459142e-01 +4.25172150e-01 -5.49004853e-01 -4.70025092e-01 +5.27377427e-01 +5.07914364e-01 +1.19622922e+00 +7.77704656e-01 -7.13743687e-01 +2.79950500e+00 -3.02302718e-01 +1.70441079e+00 -1.09530365e+00 +1.14051282e-01 -1.24590349e+00 +1.00521278e+00 +1.04736507e+00 +1.44420937e-01 +5.82685590e-01 -9.61806118e-01 +1.17886387e-01 -3.42185050e-01 -5.29024284e-04 -1.25923514e+00 -6.69194877e-01 -3.23160440e-01 +1.24842441e+00 -4.65569556e-01 +1.20591629e+00 -6.71196952e-02 -1.06496537e+00 +7.02743471e-01 +1.28934598e+00 +5.87559402e-01 +3.78796816e-01 -2.14786798e-01 -6.59172535e-02 +1.00575960e+00 +3.89976680e-01 +1.86006153e+00 -1.12821832e-02 +1.22928488e+00 +7.45846555e-02 -1.94371581e+00 -1.11423600e+00 +3.18392217e-01 -1.87426555e+00 +1.49534374e-01 +8.66666436e-01 -7.74348974e-01 -5.22964060e-01 -9.58163515e-02 -1.13466585e+00 +9.21069145e-01 +1.51286566e+00 +5.75391889e-01 +1.56161964e+00 +3.97508174e-01 -6.27452910e-01 -7.02238977e-01 -1.04462922e+00 +7.50052512e-01 -7.93604672e-01 -1.58615839e+00 +4.28549558e-01 +1.56181240e+00 +2.21627757e-01 +1.16196461e-01 +3.92576307e-01 +6.79020770e-03 +1.71105728e-01 -9.81280029e-01 -3.18860173e-01 -1.36342251e+00 -1.17637110e+00 -1.45295715e+00 -4.41684216e-01 -9.74278152e-02 -1.21212745e+00 +1.25970399e+00 +7.73905396e-01 -1.89248443e+00 -2.18512803e-01 +1.56354582e+00 +1.20297730e+00 +1.26589382e+00 -7.26437569e-01 +6.07429147e-01 -4.40999001e-01 -3.70586395e-01 +5.95714688e-01 +1.07734418e+00 -7.58138239e-01 -6.71718419e-01 +1.04917800e+00 -1.33795345e+00 +1.76057661e+00 -9.05331224e-02 -1.76177591e-01 -5.25146246e-01 +2.34053701e-01 +1.33720374e+00 -3.23467821e-01 -3.65035027e-01 +7.27652967e-01 -3.62391323e-01 +1.19053173e+00 -6.10209592e-02 -3.41202617e-01 -1.83962953e+00 -2.86852419e-01 -1.03715539e+00 -1.58145332e+00 +1.52466178e+00 -1.20558003e-02 -4.83997703e-01 -1.46259868e+00 -1.33985543e+00 -6.69023171e-02 +7.45377600e-01 +2.72172600e-01 -8.44144464e-01 +3.95129621e-01 -6.15860820e-01 -1.23248048e-01 +9.37719464e-01 +1.54427719e+00 +1.20847464e+00 +1.24769568e+00 +4.41472590e-01 -8.59145880e-01 +4.70343858e-01 +7.41809070e-01 -1.11451697e+00 -9.96086717e-01 -3.41859996e-01 +1.58713329e+00 +1.22037125e+00 -3.43643337e-01 +1.28989124e+00 -1.27610147e-01 +7.80906156e-02 +2.57859921e+00 -1.09245598e-01 -2.05527931e-01 -8.40026438e-01 +1.93955946e+00 -1.79225922e+00 -8.38484108e-01 -5.51133156e-01 +3.35696131e-01 -1.43638897e+00 -2.56530553e-01 -1.43817440e-01 +5.83279371e-01 -2.11244440e+00 -2.32858157e+00 +3.87896091e-01 +6.05321467e-01 -4.90086079e-01 -1.71139562e+00 +1.19474077e+00 -1.84037125e+00 -5.71394622e-01 +4.17116821e-01 +1.55317807e+00 +1.08215839e-01 -1.68584621e+00 +1.08425283e+00 -9.61644709e-01 +4.23504978e-01 +4.98344898e-01 -9.20262218e-01 +4.18393761e-01 +5.26724577e-01 -6.70061111e-01 -1.59207869e+00 +5.19588590e-01 +1.19203424e+00 +2.05248475e+00 +3.08186233e-01 +3.89046025e+00 -2.59619921e-01 -1.09815098e-01 +4.79408056e-01 +2.49888729e-02 -3.94841075e-01 +1.83804202e+00 -8.06462169e-01 -1.29356980e+00 -7.08965659e-01 +6.41128063e-01 -5.76155603e-01 +1.43014565e-01 -6.33547246e-01 -1.86058544e-02 -1.52383399e+00 +2.08068252e-01 -1.52486637e-01 -2.08518410e+00 -1.26618397e+00 +5.94138987e-02 +1.65282571e+00 -1.17093682e+00 -7.09076226e-02 +1.94767304e-02 -4.22379375e-01 +1.69778958e-01 -1.29872382e+00 -7.47903824e-01 -4.22430724e-01 -1.01227736e+00 -4.19135392e-01 -1.19466400e+00 -4.91001099e-01 -5.54094851e-01 +3.79728377e-01 -1.15632713e+00 +3.71293604e-01 -1.30526826e-01 +3.27355289e+00 -4.24859732e-01 -1.19068094e-01 -4.99871314e-01 -1.31481385e+00 +1.27604222e+00 +2.44044948e+00 +1.11074853e+00 -1.19612122e+00 -5.13359725e-01 -3.26605827e-01 +3.82182479e-01 -5.83122015e-01 +1.57463610e-01 +8.76217127e-01 +1.82764843e-01 -1.48827362e+00 -2.35606050e+00 +9.97940779e-01 -1.97304532e-01 -1.66234803e+00 -3.51631939e-01 +3.37994657e-02 +1.99001670e-01 +4.05111909e-01 +3.30756277e-01 +1.31511068e+00 +5.17965794e-01 -1.13765085e+00 +1.28381300e+00 +6.42826796e-01 -2.53726915e-02 +3.97079802e+00 +3.36256236e-01 +3.31018120e-01 +5.11309989e-02 +1.17480919e-01 +4.00453925e-01 +2.49281913e-01 +1.03388488e+00 +6.15755618e-01 +9.12859082e-01 -6.06124043e-01 -2.82236099e-01 -1.26575851e+00 -1.08649397e+00 +1.81141600e-01 +8.85189533e-01 +6.61941409e-01 -8.86992037e-01 -1.31214514e-01 +4.54022825e-01 -3.66048664e-01 -2.00012788e-01 +6.06241047e-01 +3.05838943e-01 -1.15105426e+00 +1.48503518e+00 -2.05197597e+00 -1.53668892e+00 -2.80150592e-01 +6.01865768e-01 -6.78242385e-01 +8.65119755e-01 +2.29907560e+00 -3.02879393e-01 -1.08485413e+00 +1.31152377e-01 +8.38219643e-01 -3.16679180e-02 -2.50409698e+00 +4.98914450e-01 +7.07069516e-01 -2.84341305e-01 +7.67569482e-01 -3.80097032e-01 -7.25689769e-01 -1.18463743e+00 +4.65889722e-01 -1.13867974e+00 -2.44474877e-02 +6.73986197e-01 -9.79981959e-01 +1.99142396e-02 +7.82963276e-01 +5.41776836e-01 -1.20756939e-01 +4.03533250e-01 -1.45068002e+00 -1.00805163e+00 -7.25328803e-01 +1.66500282e+00 -1.27733183e+00 +3.83220389e-02 -1.32259035e+00 +7.28740633e-01 -9.05809104e-01 -4.79742497e-01 -3.90902698e-01 +8.16133916e-02 -1.57846141e+00 -2.57156760e-01 -2.02917671e+00 +4.35649395e-01 -3.67793381e-01 -5.49461007e-01 -4.48479801e-01 +8.81726503e-01 -3.54355164e-02 -1.37102938e+00 +3.34482074e-01 -8.80749404e-01 +5.24019480e-01 +5.66452861e-01 +1.84988630e+00 -2.41766229e-01 -1.72456348e+00 -4.76359308e-01 +7.90480494e-01 -3.26265633e-01 -1.34743488e+00 +4.42735761e-01 +1.08378458e+00 -4.22306806e-02 +4.53719944e-01 -1.19473183e+00 +4.36330348e-01 +1.04334736e+00 +2.03576970e+00 +1.42802203e+00 -2.57592988e+00 -2.33923006e+00 +1.50909805e+00 -3.15347642e-01 +7.54108965e-01 +2.44975716e-01 +1.24978650e+00 +2.50965118e-01 +1.21485174e+00 -1.15727790e-01 +5.61641991e-01 +1.05979592e-01 +1.53540814e+00 -1.46884286e+00 -9.92282808e-01 -3.21917564e-01 -6.44177869e-02 -9.11073923e-01 +1.24496543e+00 +1.23860347e+00 -3.37554127e-01 -2.02314663e+00 -2.06263438e-01 -3.44951659e-01 -6.67472631e-02 +6.96594477e-01 -1.97227001e+00 -1.43149793e+00 -8.86810362e-01 +4.56864446e-01 -4.95297015e-01 -1.40472889e+00 -3.54361445e-01 -5.77751517e-01 +3.52048129e-01 +1.78973824e-01 -1.86996341e-01 -3.01945001e-01 +9.08897638e-01 -1.49637863e-01 -9.05326903e-01 +2.40316570e-01 +1.74605572e+00 -1.03703909e-01 -2.12292886e+00 -1.63668144e+00 +1.32715952e+00 -8.32634091e-01 -8.62247109e-01 +1.50399148e+00 +1.95663035e-01 +5.05275846e-01 -1.59000456e+00 -8.46761763e-02 +7.98757002e-02 -8.35013509e-01 -3.16413045e-01 +6.40528798e-01 -1.10566187e+00 -5.19275308e-01 +1.78672349e+00 +1.90510377e-01 -8.17484498e-01 -5.84986627e-01 +1.45022884e-01 +9.85395670e-01 -1.52102917e-01 +7.46754944e-01 +7.24170923e-01 +6.30909503e-01 -6.37051165e-01 -1.66993782e-01 -1.52827263e+00 +2.13727045e+00 +6.54958189e-01 -1.05821931e+00 +2.29701977e-02 -1.70498419e+00 -8.93690407e-01 +2.64512897e+00 -6.25951052e-01 -4.33851182e-02 +9.94135812e-02 -2.02945396e-01 -9.94683132e-02 +8.48431945e-01 +8.63504112e-01 -2.20542133e-01 -2.56512821e-01 -1.56482494e+00 +1.12437463e+00 +6.41315937e-01 -4.66829956e-01 -7.16311410e-02 +3.67477715e-01 -1.70357871e+00 -4.90062863e-01 +1.30043316e+00 -3.51492941e-01 -8.06043088e-01 -7.70884812e-01 -2.78369725e-01 +7.43779361e-01 +7.49927282e-01 +1.38424373e+00 +8.39615092e-02 -1.28693521e+00 -1.17243223e-01 -4.37479287e-01 +1.20761383e+00 -1.85423136e+00 +5.19298077e-01 +2.38751364e+00 +8.64526704e-02 +1.34100032e+00 +2.59349346e+00 -4.93200034e-01 -3.32751751e-01 -4.40347284e-01 -4.00302112e-02 -3.45288217e-01 -1.48227775e+00 -1.08017707e+00 -1.38423872e+00 -2.06651473e+00 +7.06637502e-01 -9.40395445e-02 -1.70476127e+00 -1.26184034e+00 -3.27776790e-01 +1.54876101e+00 +1.48149681e+00 -9.62450445e-01 +3.95889521e-01 +2.13363695e+00 +1.56770158e+00 -2.29697973e-02 +4.65001196e-01 -8.16662073e-01 +1.05850863e+00 +4.59447563e-01 +1.01494515e+00 -1.58979446e-02 -6.35671020e-01 +5.45660973e-01 -1.31758738e+00 +1.42743683e+00 +4.41886514e-01 -1.17391162e-02 +7.61703074e-01 -1.56599140e+00 -2.95351028e-01 +1.63228437e-01 +2.27278256e+00 -2.03265023e+00 -2.31087774e-01 +2.59778742e-02 +4.32875186e-01 +4.49477404e-01 +8.06674778e-01 +4.63540971e-01 -6.77248389e-02 -6.60698339e-02 -8.42441559e-01 -1.02942932e+00 -1.44253895e-01 -3.00900787e-02 -1.74416268e+00 +1.24637949e+00 +1.12925315e+00 +9.13230658e-01 -1.48210227e+00 +1.60618949e+00 +1.76345015e+00 -2.71359116e-01 -1.02409601e+00 +2.93664709e-02 +1.57337391e+00 -3.10910255e-01 -1.07557964e+00 +2.37700760e-01 +9.14558247e-02 -2.13568974e-02 +1.20924520e+00 -3.26331258e-01 +1.22953391e+00 -1.08106935e+00 -1.65364295e-01 -4.53599617e-02 -1.33584392e+00 +2.98118800e-01 -6.89863026e-01 -2.66358566e+00 +1.98823726e+00 -1.68164283e-01 -1.02735686e+00 +2.38957033e-01 -1.05120409e+00 +1.10993478e-02 +1.95375121e+00 +8.74663889e-01 -6.46482557e-02 -5.65655641e-02 -2.38787341e+00 -4.19432676e-04 -7.00765967e-01 +1.68648839e+00 -6.31361455e-02 +1.92498457e+00 -1.28546679e+00 +2.09753966e+00 +1.08646937e-01 -9.49186563e-01 +5.43892741e-01 +7.65235955e-03 +3.01049441e-01 -4.34379905e-01 -5.06494880e-01 -1.14165223e+00 +9.88891125e-01 +4.80218917e-01 +1.88050330e+00 -1.45219326e+00 -1.12709534e+00 +4.60037053e-01 +1.09753102e-01 +4.15883750e-01 -1.51926243e+00 -7.32172489e-01 +1.86921135e-02 +8.74697566e-01 +5.05271316e-01 -1.25695825e+00 -1.34125090e+00 +1.63570535e+00 +2.31167287e-01 +2.59502023e-01 +1.08819675e+00 -4.46318716e-01 +2.08936453e+00 +1.16112435e+00 -1.49437928e+00 +1.61067501e-01 -8.35707903e-01 +8.15775812e-01 +1.52835324e-01 +1.67170703e+00 -3.11182410e-01 -3.64635646e-01 +3.67145866e-01 +5.99998355e-01 +8.96961153e-01 -4.83944714e-01 +1.87130582e+00 -1.73165095e+00 +1.40187249e-01 +7.67642081e-01 +5.02756596e-01 -1.71577609e+00 +6.96759343e-01 +1.30915666e+00 +4.25860137e-02 +2.32620329e-01 -8.41488898e-01 +2.32632518e-01 +5.91428727e-02 +3.82986553e-02 +7.56933331e-01 +2.76502311e-01 +9.44402337e-01 -7.76020706e-01 +1.09142408e-01 -6.74850523e-01 -1.83013451e+00 -1.23022211e+00 -1.64781499e+00 +6.75138116e-01 +8.29447985e-01 -4.53045480e-02 +4.51845318e-01 -1.94417775e-01 +6.50036514e-01 -9.26214993e-01 +8.73642802e-01 -6.53944969e-01 +5.85022211e-01 +6.15125537e-01 +1.16684705e-01 -1.35181403e+00 -1.98892996e-01 -1.22024870e+00 +7.62545049e-01 -7.41913170e-02 -1.17378914e+00 +1.33307716e-02 +4.96820025e-02 +1.71613872e+00 +1.19777061e-01 +3.04824561e-01 -1.30734909e+00 -1.95852726e-06 -1.53745222e+00 -1.51336500e-02 +4.21218313e-02 +6.89346790e-01 +2.69518137e-01 +2.17326611e-01 -9.14660454e-01 -7.81289279e-01 +1.29779172e+00 -2.73947477e-01 -2.71638423e-01 -4.26807612e-01 +1.48146367e+00 -1.24411035e+00 +1.74080777e+00 -7.31422484e-01 -3.17003988e-02 +4.71007973e-01 +1.42169559e+00 -5.45366406e-02 -1.64821041e+00 -2.46733737e+00 -1.34710073e+00 +1.59019858e-01 +6.38596237e-01 +3.08457553e-01 +5.67212641e-01 +1.12838101e+00 -9.52597499e-01 +1.24858642e+00 -4.96744484e-01 -3.12088728e-01 -8.37457836e-01 -2.46849939e-01 +2.88705558e-01 +2.07284927e+00 -3.24543476e-01 -1.13352573e+00 +5.10640383e-01 -4.06917155e-01 +7.05964983e-01 +6.69163615e-02 +7.64149010e-01 -1.29929170e-01 -1.08080018e+00 -2.34312937e-01 +7.32398480e-02 -4.15745564e-02 +3.99169177e-01 -3.66302073e-01 +2.10841939e-01 +4.17900324e-01 +1.05417776e+00 +5.22409320e-01 -6.67288721e-01 +1.01042497e+00 -6.26262188e-01 +1.69955552e+00 +2.18862340e-01 +3.35461468e-01 +6.29600346e-01 -1.27787852e+00 +2.10837317e+00 -1.75129390e+00 -2.35582799e-01 +8.86536896e-01 -7.51453042e-01 +3.42342854e-01 -7.34116495e-01 +4.35404450e-01 +6.66444898e-01 +1.00337863e+00 +3.00014783e-02 -6.58978879e-01 +1.83866560e+00 -2.12665364e-01 -6.04646504e-02 -1.00201182e-01 +7.36903101e-02 -6.25465035e-01 +1.48939228e+00 +1.83877289e+00 +6.23536050e-01 +9.57417935e-02 +8.07354808e-01 -3.60933393e-01 -1.02962725e-01 +6.42984629e-01 +1.37070036e+00 -4.00493652e-01 +9.68174279e-01 +1.28927052e-01 +1.69035637e+00 -1.70698440e+00 -9.22162533e-01 -8.67874801e-01 -2.04997993e+00 -7.88174331e-01 +2.74106979e-01 +1.75792336e+00 +5.78747451e-01 -7.31605768e-01 +1.78117120e+00 -5.63155599e-02 -8.05451214e-01 -1.22511506e+00 -5.94087303e-01 +9.35918212e-01 -2.39841133e-01 +2.98853740e-02 +1.01985502e+00 -1.68442369e-01 +2.72474885e-01 +1.25850117e+00 -5.39233267e-01 -1.27513492e+00 -3.99275217e-03 +8.41873944e-01 -1.91817675e-02 +2.13662601e+00 +5.75017512e-01 -1.73342001e+00 -8.59998763e-01 +1.94632101e+00 -3.41869742e-01 -8.00039247e-02 +2.73500621e-01 -2.87500788e-02 +1.10850668e+00 +2.36985505e-01 -2.85647452e-01 -1.99175090e-01 -1.88906156e-02 +3.57051641e-01 -4.82928902e-01 +2.78559804e+00 +2.23845288e-01 -1.76515865e+00 -1.01286924e+00 +8.44775379e-01 -6.42968118e-01 +6.77468061e-01 +5.47630727e-01 +1.07832253e+00 +2.08351299e-01 -6.50061250e-01 -2.50233102e+00 -1.82960689e+00 -1.38284236e-01 -8.75071704e-01 +1.95366538e+00 +1.81056762e+00 +1.25824761e+00 -3.11492801e-01 +6.03254437e-01 +1.32820678e+00 +6.38457239e-01 +4.08897489e-01 -2.26941094e-01 +5.96961200e-01 +1.47088230e+00 -4.66695040e-01 -2.38409057e-01 +1.56257057e+00 +1.71236902e-01 +5.73931158e-01 -1.47364473e+00 +7.91425169e-01 +1.04176068e+00 -5.75737238e-01 -1.21098232e+00 -3.42556596e-01 +5.84255338e-01 +5.88628292e-01 +1.59066951e+00 -2.65251473e-02 -1.21396938e-02 +4.08342957e-01 +1.00945437e+00 +4.25220840e-03 +1.25082061e-01 -2.07978897e-02 -7.08247945e-02 -5.38051844e-01 +6.74656272e-01 +1.77655056e-01 +2.89995283e-01 +1.18370518e-01 -5.00036120e-01 +1.24465466e+00 -4.27796483e-01 -6.24143779e-01 -1.29082978e+00 +1.46422982e-01 +1.37002766e-01 -1.06046796e+00 -8.80522192e-01 -1.89985499e-01 +5.45539021e-01 +2.41770959e+00 -1.71847761e-01 +1.45894909e+00 +1.00151829e-01 -3.03866327e-01 +5.08360088e-01 -2.53467143e-01 +4.45111752e-01 -2.24803850e-01 +3.28386924e-03 +9.58489358e-01 -7.19463110e-01 -4.35110450e-01 +2.13940287e+00 +1.22479677e-01 +2.03900248e-01 +2.54811347e-01 +2.44270682e-01 +6.56935811e-01 +1.51243448e+00 +5.45979917e-01 +1.41197014e+00 -7.86399662e-01 -1.27802491e-01 -1.79299259e+00 +1.31361282e+00 -3.71794105e-01 +1.98274577e+00 -7.10111976e-01 +7.97891140e-01 +5.10587335e-01 -2.95404196e-01 +2.06797004e+00 -1.51300597e+00 -1.13934427e-01 +3.60589981e-01 -1.10312916e-01 -3.29143167e-01 +1.30300811e-02 -4.65706378e-01 -1.04044154e-01 +5.90112150e-01 -1.53503597e-01 +2.30932164e+00 -5.80236495e-01 -2.47567698e-01 -9.27061081e-01 -1.77190173e+00 -9.42974091e-01 -2.36652851e-01 -6.14078760e-01 -6.43479884e-01 -1.13546801e+00 +7.64692366e-01 -9.99811590e-01 -1.84393346e-01 +2.12442592e-01 -1.79881024e+00 +1.41885555e+00 +4.15121317e-01 +8.15366387e-01 +1.09446359e+00 +3.67060304e-01 +4.85990345e-01 +9.38786030e-01 +1.28048822e-01 -1.19042838e+00 -7.18146801e-01 -8.74537766e-01 -5.47356009e-01 +1.38201010e+00 +2.15319347e+00 -1.94261536e-01 -1.18257575e-01 -6.53355479e-01 +9.68824551e-02 +1.28864729e+00 +6.27354920e-01 +9.67213333e-01 +6.39197946e-01 -1.08843279e+00 -2.03618199e-01 +3.31861973e-01 -1.89171508e-01 +1.00906420e+00 +1.21304572e+00 +8.70778263e-01 -8.76214385e-01 -3.61094177e-01 -4.50459987e-01 +9.90715623e-01 +1.62795022e-01 -1.00128829e+00 +5.72812021e-01 -6.29503727e-01 +8.16348135e-01 +2.43304253e-01 -7.52810061e-01 +7.48773336e-01 +1.11937940e+00 -2.10586891e-01 -5.08713186e-01 +2.96091735e-01 +8.43871653e-01 -2.56562948e-01 -5.95378578e-01 +5.43173909e-01 +2.06477553e-01 -5.21291852e-01 -9.92416978e-01 +2.88884997e-01 +1.71578154e-02 -1.64332628e+00 +1.83525932e+00 -1.66313887e+00 -1.97689235e+00 +7.31361032e-01 -4.49077040e-01 +4.25073475e-01 -1.88056791e+00 +6.00673795e-01 -1.18054116e+00 +1.27547276e+00 -1.17936873e+00 -1.81703568e-01 +2.03161011e-03 +6.33863091e-01 +2.42407489e+00 -1.30582798e+00 +5.08233905e-02 -2.27362350e-01 +1.98362935e+00 +1.44726396e-01 -5.68082333e-02 -2.34732300e-01 +7.86328793e-01 -7.23020136e-01 -7.15576768e-01 -1.35543799e+00 +1.35055792e+00 +9.27255392e-01 +1.41977060e+00 -4.15410578e-01 +8.08097482e-01 +5.55598317e-03 +1.22563398e+00 -6.94206730e-02 -2.96906304e+00 -5.71812987e-01 +3.60443413e-01 +9.28070724e-01 -1.14941967e+00 +1.77005804e+00 -1.80249453e+00 -7.82579303e-01 -3.89565736e-01 +1.04820085e+00 -9.64857459e-01 -4.50520217e-02 +2.87370771e-01 -2.39478946e-01 -1.14238751e+00 -5.22699118e-01 +6.27514839e-01 +7.91746676e-02 -5.33549428e-01 -1.97325301e+00 +8.10828745e-01 +7.67123044e-01 +9.35933471e-01 +1.28589427e+00 -2.06428027e+00 -5.07891536e-01 -2.08003730e-01 -8.89867842e-01 -1.12461984e+00 +1.71574700e+00 +1.78717926e-01 +1.98241794e+00 -2.36530274e-01 -3.10899466e-01 -2.81039149e-01 +2.96585321e-01 -9.40865815e-01 -6.21510208e-01 -3.63540322e-01 +3.67090642e-01 +1.10908067e+00 -1.07063413e+00 +7.89615691e-01 -1.75223446e+00 -1.47633052e+00 +8.93412232e-01 -1.53625619e+00 -2.40909427e-01 -7.33922064e-01 -7.69366175e-02 +2.25472435e-01 -1.53750920e+00 -1.20377100e+00 +4.89584237e-01 -5.41262212e-04 +1.03934491e+00 -1.30769563e+00 -9.92668748e-01 +1.00292814e+00 +2.47948080e-01 +3.74689192e-01 -1.04861259e+00 +2.86548942e-01 -8.04490983e-01 -2.57213306e+00 -1.37244627e-01 +1.61693263e+00 -4.57322448e-01 +7.03970492e-02 -9.75124724e-03 -1.74362406e-01 +9.96587694e-01 +1.42711377e+00 +1.80367768e-01 +2.36677200e-01 -5.37020624e-01 +1.14608735e-01 +2.26613545e+00 -5.02865911e-01 -2.17364579e-01 -3.56029660e-01 +1.05091691e+00 +7.53946543e-01 +6.46935344e-01 +2.75188136e+00 +5.49919486e-01 -7.12757826e-01 -7.83020794e-01 +9.75119233e-01 +1.77789247e+00 +4.85811591e-01 -1.47274780e+00 +6.17747962e-01 -1.29151297e+00 -2.78961331e-01 +1.58758149e-01 +5.72342873e-01 -7.49239743e-01 -1.95521504e-01 +5.36229610e-01 -1.32509494e+00 +1.14636862e+00 +4.75544900e-01 +2.89309509e-02 -3.28069389e-01 -4.80863094e-01 -1.16465509e+00 -6.14485860e-01 -1.37636960e+00 -9.30907071e-01 -9.55352724e-01 -1.35323673e-01 +1.46862581e-01 +5.42209148e-01 +7.39279032e-01 -1.68037936e-01 +3.47026795e-01 +4.21059310e-01 -1.05233824e+00 +2.35653639e-01 -2.93447107e-01 -1.26915097e+00 -3.37970108e-01 +2.49477681e-02 -2.93099508e-02 +2.77443659e-02 -1.60049367e+00 +1.61089921e+00 +4.17662978e-01 -7.84926772e-01 +7.56283224e-01 +1.28801346e+00 -1.92103684e+00 +3.29945385e-01 +4.95410562e-01 +7.62952492e-02 -4.64151353e-01 +4.40872461e-01 -1.53441155e+00 +6.67231977e-02 -5.15721142e-01 +7.58969963e-01 +1.30111217e-01 -6.27015889e-01 -1.70329547e+00 -2.65437424e-01 -1.81510337e-02 +1.70528099e-01 -8.57118368e-01 -9.13178504e-01 +5.51288366e-01 +1.42194018e-01 +2.04887763e-01 -7.37039804e-01 +3.47232550e-01 +1.04261410e+00 -1.55131769e+00 +3.61576498e-01 -1.46567631e+00 +1.91278267e+00 +1.37895191e+00 +8.71776223e-01 -3.87148440e-01 +1.17147815e+00 +9.56507921e-01 -1.53266454e+00 -3.34071130e-01 +4.27435964e-01 +6.77786946e-01 -1.58943260e+00 -3.37760866e-01 -5.97503841e-01 -4.97211218e-01 -1.67347980e+00 +1.54449239e-01 +1.06909311e+00 +7.99392045e-01 -1.01726905e-01 -1.18931293e+00 +4.77794528e-01 -1.23124465e-01 +7.08901644e-01 -5.27892649e-01 +1.24294579e-01 -1.61295712e+00 -1.88011754e+00 +2.53625244e-01 +5.69253564e-01 -1.67408288e+00 -1.42341197e-01 -1.07188165e+00 +1.78578389e+00 +2.40286088e+00 +9.06009793e-01 +5.37714839e-01 +7.13065743e-01 +8.95330757e-02 -4.48354423e-01 -9.67014372e-01 -1.30086422e+00 +1.11965060e+00 +1.35990357e+00 -8.75288174e-02 +1.40340734e+00 +6.54866815e-01 +3.16830468e+00 -9.14551139e-01 -1.21330690e+00 -5.66628814e-01 +8.33889067e-01 -6.09905362e-01 -6.11529350e-01 +8.91721249e-01 +1.72087109e+00 -2.31357813e+00 -7.77037367e-02 -1.06730819e+00 +6.84163988e-01 +3.76825958e-01 +1.13609219e-02 -1.60422474e-01 -9.90103722e-01 -1.42509627e+00 -1.59093332e+00 +4.42935228e-01 -1.24734950e+00 -2.06903958e+00 -9.90993440e-01 +5.98564327e-01 +1.58301032e+00 -3.44233960e-01 -9.65455025e-02 +3.97283792e-01 +1.03714824e+00 +1.69273627e+00 +2.71745175e-01 +4.63693798e-01 +2.21828539e-02 -4.71338928e-01 +9.09171700e-01 -3.10589284e-01 -4.65360433e-01 -1.42592049e+00 -2.39113718e-01 -1.11450875e+00 -1.51926196e+00 +3.83184791e-01 -1.55284882e+00 -6.21290386e-01 -1.22340369e+00 -1.17838013e+00 +7.29188442e-01 +6.47729993e-01 +1.01956987e+00 +8.33555087e-02 +1.51296958e-01 -2.54524708e-01 +1.76724219e+00 +1.62098420e+00 -3.34764302e-01 +2.68209606e-01 -7.60999978e-01 +2.20948189e-01 -2.37327203e-01 +1.66202247e-01 +7.02834964e-01 -1.35854912e+00 -4.06580329e-01 -1.82445720e-01 -6.17629468e-01 -5.13566956e-02 -1.21710527e+00 -5.29839933e-01 +1.69511759e+00 +8.64073157e-01 -1.30320424e-02 -2.42836639e-01 -1.53839946e+00 +6.28445506e-01 +1.13166285e+00 +1.56020582e+00 -6.15704596e-01 +1.82052529e+00 -7.93803155e-01 -1.73421586e+00 +1.54271758e+00 +5.59349179e-01 -7.67095149e-01 -7.64867216e-02 -1.66832507e+00 -6.86572790e-01 +1.24039805e+00 +2.37658054e-01 +2.10320640e+00 +2.87372202e-01 -1.43354726e+00 -1.78970665e-01 +7.56940007e-01 +7.98622608e-01 +2.86971450e-01 -1.14559329e+00 +1.62295306e+00 -8.51339027e-02 -1.48601568e+00 +7.35995471e-01 +2.72583157e-01 +4.33258265e-02 +1.58070400e-02 +9.86701787e-01 -1.06551337e+00 +6.06344044e-02 +6.24626994e-01 +4.69170511e-02 -6.62859797e-01 +1.26409614e+00 +1.60122550e+00 +8.50148082e-01 -2.97647238e+00 +1.78242338e+00 +4.20627236e-01 +7.84578025e-01 +1.15408909e+00 -1.91489577e-01 +1.09156728e+00 +4.52229768e-01 +1.79113007e+00 -9.43171918e-01 -2.14884639e+00 +4.79581237e-01 -4.43189561e-01 -1.60122609e+00 +3.47873122e-01 -7.52802491e-01 +3.45278531e-01 -1.02445638e+00 +8.84322405e-01 +1.57200301e+00 +1.87784001e-01 -2.42434680e-01 -3.86754990e-01 +8.47419560e-01 +1.33521092e+00 -2.46714249e-01 +8.06980371e-01 -1.11857235e+00 -4.50188890e-02 -1.30190641e-01 +7.93219060e-02 -1.28430486e+00 +1.40715408e+00 +2.05405846e-01 -3.54184359e-01 -1.16577542e+00 -1.13244998e+00 +8.08948934e-01 -4.26268607e-01 +7.59487092e-01 +3.73358727e-01 +3.99567217e-01 -9.73008573e-01 -1.57065260e+00 +3.71654332e-01 +7.72560760e-02 +5.24609923e-01 -7.46850133e-01 -1.01573884e+00 -1.82251179e+00 -7.26539791e-01 +1.06187975e+00 -1.29046249e+00 +1.50726759e+00 +7.25642964e-02 -1.71023035e+00 +9.72618580e-01 +1.47154748e+00 -8.15353155e-01 -1.27194047e+00 +2.90924549e-01 -1.70467645e-01 +1.25032842e+00 -8.08545113e-01 +9.55498338e-01 -6.70059741e-01 -1.37486124e+00 -2.16080832e+00 -1.44384849e+00 +7.66561210e-01 +1.94320357e+00 -1.52029440e-01 -9.58673060e-01 +2.18438700e-01 +3.19910757e-02 +1.55179513e+00 -7.04237282e-01 +2.03153586e+00 -3.48080844e-01 -9.16554332e-01 +2.05274299e-01 +2.58500665e-01 +6.21222377e-01 -5.38889050e-01 -1.17958212e+00 +1.58374226e+00 +9.09066558e-01 -5.49675226e-01 +4.04067755e-01 -9.86381054e-01 +2.29727328e-01 +3.56722474e-01 -7.13263750e-01 +1.21207023e+00 -4.51291502e-01 +9.29393709e-01 -1.63827443e+00 -1.04188871e+00 -1.62936735e+00 +2.03346372e+00 -4.45332289e-01 -8.28474104e-01 -3.03854078e-01 -7.55704343e-01 -3.00559968e-01 -1.06979489e+00 -6.25252247e-01 +4.68141548e-02 +6.85323715e-01 +1.35929894e+00 -1.39533043e+00 +2.09939614e-01 +1.42849874e+00 -6.29126728e-01 +6.53774798e-01 -6.58208847e-01 -1.55432537e-01 +3.40395182e-01 -7.11795330e-01 +9.71591890e-01 -1.06386416e-01 -8.19218218e-01 -1.10327683e-01 +1.41724515e+00 +2.72579253e-01 -7.20712721e-01 +2.49415077e-02 +3.48475352e-02 +1.26012886e+00 -4.75451022e-01 +1.02564692e+00 -7.44798183e-02 -8.84022176e-01 +9.28559244e-01 -1.41632389e-02 +6.37073100e-01 +1.96124792e+00 -1.07073140e+00 -2.73654640e-01 -1.25695395e+00 -6.72543585e-01 +6.37676597e-01 +8.05954397e-01 -1.14323288e-01 +5.10219455e-01 -1.42564332e+00 +5.04556298e-01 +1.50567114e+00 +1.21922195e+00 +1.05321258e-01 +1.01415586e+00 -6.95057452e-01 -7.34167814e-01 +4.20030713e-01 +1.26419310e-02 +1.07508266e+00 -9.59253967e-01 -1.03333914e+00 -1.77261162e+00 -1.29999781e+00 +2.18788102e-01 -2.89291620e-01 +1.56983888e+00 +7.83106208e-01 -7.88793206e-01 +4.90887344e-01 +7.68342733e-01 -3.22537482e-01 -2.49010950e-01 -2.36473814e-01 -5.68427622e-01 -6.28843963e-01 -4.91402969e-02 -1.17763698e-01 +3.98285463e-02 +7.30084032e-02 +6.42066777e-01 +1.08563088e-01 -1.48705959e+00 -1.72471970e-01 -1.13670623e+00 -1.55323887e+00 -6.35894477e-01 +1.51380479e+00 +2.57292539e-01 -4.15053144e-02 +1.32267633e-02 +2.20763832e-02 +9.36142266e-01 -1.07416332e+00 -1.59686661e+00 +1.84129477e+00 -1.39810467e+00 -5.11950970e-01 -1.13194096e+00 -5.12011349e-01 -4.64707874e-02 +1.81276307e-01 -5.41488409e-01 -5.16922116e-01 +1.98097444e+00 +5.36960252e-02 -3.04866934e+00 +6.94727242e-01 -1.27207875e+00 +2.86033869e-01 -6.57938004e-01 -1.14183772e+00 +5.71003795e-01 -7.03810155e-01 +7.89974153e-01 -1.30715930e+00 +5.22432089e-01 -6.41897619e-01 -2.75986880e-01 -6.46309733e-01 +3.09843898e-01 -1.77551842e+00 +3.39560241e-01 +2.09657148e-01 +1.36963105e+00 -2.04750752e+00 +1.99140263e+00 +1.50312319e-01 +2.20024014e+00 +3.78744304e-01 +1.06819689e+00 -1.06851506e+00 -2.27847323e-01 +2.25823611e-01 +4.95434731e-01 +1.36652216e-01 -4.35332417e-01 +2.86032963e+00 +1.29024386e+00 +8.76178682e-01 -7.78965950e-01 +8.81520391e-01 +1.20274234e+00 +1.28975689e+00 +8.79987538e-01 +2.65432805e-01 +2.50819717e-02 +3.44887108e-01 +1.04101455e+00 -5.39029717e-01 +1.46003509e+00 +1.57517636e+00 -1.66514063e+00 -1.09700418e+00 +7.70736516e-01 -1.04029858e+00 -1.15350068e+00 -1.21342957e-01 -3.93714160e-01 -7.32055545e-01 +2.55440640e+00 -1.27799749e+00 -2.09476218e-01 +1.93668351e-01 +3.42728287e-01 +3.74992996e-01 -1.37885496e-01 -5.87082148e-01 +6.23428464e-01 -8.80591989e-01 +1.16447246e+00 +7.46181190e-01 +1.02837026e+00 -7.96677291e-01 -8.32365990e-01 -1.60204649e+00 -1.22062063e+00 -1.18962252e+00 +1.84680849e-01 -3.15211147e-01 +5.43817461e-01 -5.81874773e-02 +5.29416859e-01 +1.51297772e+00 -3.15832806e+00 +7.42598832e-01 -3.43558073e-01 -1.07557654e+00 -1.22023785e+00 +1.13802068e-01 +7.82152236e-01 +5.19305944e-01 -9.08212543e-01 -2.15752140e-01 +6.41224802e-01 -8.73778880e-01 -4.70925897e-01 -8.07462513e-01 +1.01636922e+00 +2.04276991e+00 +6.89001739e-01 +1.75730133e+00 -5.94094932e-01 +1.84473407e+00 +4.20748234e-01 -8.62355053e-01 +8.40270996e-01 +1.54096997e+00 +6.50802314e-01 +6.04295619e-02 -5.81485689e-01 +3.20896022e-02 +1.52560031e+00 +1.27867532e+00 -1.98591685e+00 +4.48482960e-01 +5.56845069e-01 +4.59245324e-01 +7.02613413e-01 +6.06261373e-01 +5.55660546e-01 -1.69439936e+00 -3.52828830e-01 -8.71558636e-02 -5.01397192e-01 -6.37526512e-01 -5.72587848e-01 -7.53133595e-01 -5.32706119e-02 +2.23777366e+00 -4.67576444e-01 +9.75615919e-01 +9.37990919e-02 +9.17075276e-01 +1.66429257e+00 +7.09328428e-02 +2.67154664e-01 +7.31409937e-02 -1.16852319e+00 -1.64407477e-01 +8.25924799e-02 +9.92448151e-01 +1.19488215e+00 +1.21995544e+00 -1.18336105e+00 -1.05450980e-01 -3.23673606e-01 -1.04283847e-01 +1.62776983e+00 -7.25383997e-01 +8.32551420e-01 +1.34773111e+00 -5.74816391e-02 -3.92163545e-01 -2.32142404e-01 -5.18063717e-02 -1.13558519e+00 +1.70311201e+00 -2.18658373e-01 -1.66738439e+00 -2.43146086e+00 -8.88634145e-01 +4.58505452e-01 +1.17182004e+00 +1.66621578e+00 +1.05023706e+00 -4.40516561e-01 +6.81077361e-01 +7.93368042e-01 -8.30011845e-01 +2.70744205e-01 -2.73709022e-03 -4.27687287e-01 -1.84726346e+00 +1.68012917e+00 -1.46042562e+00 +8.98301125e-01 +1.38114899e-01 -4.72479433e-01 -1.14530003e+00 +4.06399071e-01 +1.17157030e+00 +2.15715790e+00 -3.14520746e-01 -4.27914143e-01 +1.13124573e+00 -1.43498349e+00 +7.02344060e-01 +1.84143126e+00 +1.52156353e+00 -6.82824403e-02 -7.97484279e-01 -6.24309897e-01 +1.38611770e+00 -9.52640057e-01 -1.12158418e+00 +9.91033316e-01 +9.54917967e-01 +1.02335250e+00 +1.11273992e+00 +1.60600269e+00 +8.10330883e-02 -1.11029530e+00 -1.34103703e+00 -1.37620699e+00 -1.02645683e+00 -2.56807119e-01 -1.51260805e+00 +4.32684690e-01 -8.63703847e-01 -6.23433664e-02 +5.38980007e-01 -1.27839372e-01 -1.20455669e-02 +2.31169499e-02 +9.80201066e-01 +1.00210714e+00 -1.08475709e+00 +8.24664474e-01 +3.28607827e-01 -3.37051570e-01 +7.40459502e-01 -1.74890578e-01 +3.92818362e-01 -1.48795807e+00 +3.01375246e+00 -4.71364707e-01 +9.86172020e-01 -6.59422100e-01 -1.60509154e-01 +1.51139355e+00 +1.39287210e+00 -7.27403343e-01 +1.11535415e-01 -1.54905498e-01 -4.01489288e-01 -1.76921523e+00 +6.40668094e-01 +7.21505165e-01 +2.03451705e+00 -4.64606851e-01 +1.85663259e+00 +1.42466873e-01 -3.40740979e-01 +9.10719950e-03 +1.02578676e+00 -3.13573390e-01 -2.60298580e-01 -2.18891054e-01 +1.58789062e+00 +1.29001126e-01 -7.69593000e-01 -7.55643308e-01 +1.63760757e+00 +2.19459391e+00 +5.63686550e-01 -7.96559513e-01 -1.56078041e+00 -3.76495332e-01 -6.22057140e-01 -7.53555179e-01 -3.14303696e-01 +7.12590337e-01 +5.69715619e-01 -8.40310678e-02 -2.60352564e+00 -6.78260684e-01 +1.09802043e+00 -8.52532089e-01 +1.58873427e+00 -5.19369483e-01 -6.20093465e-01 +9.65159595e-01 +1.30081205e-02 +8.99050951e-01 -4.58679676e-01 -6.96109951e-01 -2.44182944e+00 -4.83850628e-01 +4.41039175e-01 +5.19289136e-01 +1.95904970e-01 -8.06541502e-01 +7.83947170e-01 +3.87051284e-01 +1.87052220e-01 -1.63563538e+00 -1.22252274e+00 +1.19542348e+00 +1.01123583e+00 +6.25939250e-01 +6.58760741e-02 +1.10262133e-01 +2.36018991e+00 -3.69673818e-01 +1.01037967e+00 +4.87003088e-01 -4.14185643e-01 -7.73056388e-01 +1.84901699e-01 -2.70718962e-01 +5.50749600e-01 -1.77861720e-01 +4.70917225e-01 +3.37153196e-01 -1.87999263e-01 -5.02902031e-01 +1.50488186e+00 -2.62953162e-01 +1.51843026e-01 +4.41951603e-01 +9.36486840e-01 -8.65049720e-01 -1.85920298e+00 +4.97457534e-01 -3.96251649e-01 +1.87674356e+00 -6.49304569e-01 +9.85613346e-01 +4.32369530e-01 +8.87911260e-01 +2.25173309e-01 +8.09998631e-01 +3.73644650e-01 +5.57467639e-01 -9.10105705e-02 -1.00657427e+00 -8.66778851e-01 +6.54250801e-01 -1.68880379e+00 -3.29855770e-01 +2.73178720e+00 +6.35737479e-01 -2.72667497e-01 +2.68347897e-02 -8.44223022e-01 +1.15517914e+00 +1.47500247e-01 +4.62695837e-01 +4.97692041e-02 +2.42804021e-01 -1.32633412e+00 +6.91885829e-01 -4.34316754e-01 +2.58287454e+00 -1.63812172e+00 +9.87157702e-01 -1.02579951e+00 -1.01709865e-01 +7.71285653e-01 -1.72613370e+00 -1.42750788e+00 +7.43434906e-01 -1.80196226e-01 -2.91818768e-01 +1.06227005e+00 -1.66523743e+00 +1.76811492e+00 -1.21981665e-01 -9.62788701e-01 -9.09900904e-01 -1.16740458e-01 -3.78256738e-01 -5.27875721e-01 -2.73875773e-01 -1.46228552e-01 -8.97289813e-02 +4.69032586e-01 +1.07796147e-01 +1.30028233e-01 -5.79173088e-01 -1.00374663e+00 -4.29081619e-01 -1.22123373e+00 +2.48072839e+00 +2.56782651e-01 +9.02839452e-02 -5.12045771e-02 +2.68932652e+00 +4.09289956e-01 +2.46009424e-01 -1.50976205e+00 +6.17805660e-01 -1.40968823e+00 +1.96484759e-01 -5.69651961e-01 +6.38488680e-02 +4.28868979e-01 +1.50041401e+00 +4.87974465e-01 -7.78778851e-01 +2.09619120e-01 +7.66861737e-01 +2.84515798e-01 +8.34964097e-01 +2.17437792e+00 -4.38971400e-01 -8.26434553e-01 -9.52182174e-01 -7.15198100e-01 +9.56166863e-01 -8.27440441e-01 -6.88136756e-01 -2.15294766e+00 -1.47101715e-01 +1.28560114e+00 +6.83321118e-01 -2.03743845e-01 -1.01107633e+00 +3.36207777e-01 +4.27458793e-01 +1.67558467e+00 -3.41050416e-01 +1.09470459e-02 -6.79329515e-01 -1.57083273e+00 -5.95804513e-01 -1.30220377e+00 +7.65702426e-01 +3.32486778e-01 +6.08149648e-01 -1.11267662e+00 -2.84897238e-01 +2.56411694e-02 +8.86955142e-01 +1.84401357e+00 -5.67444921e-01 +1.36305869e+00 -1.88762057e+00 +2.37049535e-01 -1.58585083e+00 -1.33665431e+00 +2.41254401e+00 +1.25234747e+00 -1.18878484e+00 -7.52441883e-01 +7.61468709e-01 +7.82131493e-01 -3.40818018e-01 -4.30792570e-01 +3.38264316e-01 +1.57105789e-01 -2.95571536e-01 +5.27711332e-01 +1.65092349e-01 +1.20099998e+00 -5.13726652e-01 +7.63946295e-01 +2.21528697e+00 -9.17695165e-02 +9.30971444e-01 +1.56801507e-01 +1.62571883e+00 +1.78548962e-01 -7.97489107e-01 -6.44391775e-01 -1.65550721e+00 +1.28559160e+00 -8.66278589e-01 -1.50061905e+00 -1.29580930e-01 +7.01197505e-01 -6.53379023e-01 -6.57646298e-01 -1.68324307e-01 +4.33297813e-01 +2.60691226e-01 -1.90263819e-02 -7.53602147e-01 +1.79684603e+00 +1.47175515e+00 -1.29687297e+00 +1.24960661e+00 -1.44497499e-01 +1.49746132e+00 +5.41334927e-01 +7.56973684e-01 +4.83068764e-01 -1.61812782e-01 -1.12502468e+00 +4.50505644e-01 -1.27468264e+00 -1.61909914e+00 +5.52096844e-01 +2.08890453e-01 +1.28247714e+00 -1.63862145e+00 -1.67668867e+00 -2.75452048e-01 -5.37862897e-01 +2.24966168e+00 +3.36287439e-01 -7.62177587e-01 +1.70105839e+00 +1.06049456e-01 -6.82532310e-01 +6.53767407e-01 +1.43859163e-01 +4.47652787e-01 +2.90136635e-02 +1.55283049e-01 +9.65137303e-01 -4.96233344e-01 +1.01003908e-02 +2.76161462e-01 -9.84732747e-01 +1.18033838e+00 -1.51195848e+00 -1.11133003e+00 -1.12001920e+00 -2.51545429e+00 +1.26570964e+00 -7.33797133e-01 +9.59892988e-01 +8.20795596e-01 +1.02465115e-01 -1.44420415e-01 -1.69750631e+00 -1.83235914e-01 -8.59214008e-01 +1.47469151e+00 -1.10411979e-01 +8.09057355e-01 -5.89219153e-01 -8.76968920e-01 +1.20289929e-01 -1.07738757e+00 +8.95981312e-01 +3.79428655e-01 -8.09326231e-01 +9.10169706e-02 -1.84932545e-01 +1.16309381e+00 +1.22907579e+00 -4.97151107e-01 +2.67640024e-01 -1.48460627e+00 -6.45631552e-01 +6.68734252e-01 +3.04953158e-01 +2.10192474e-03 +8.67183864e-01 -1.31461811e+00 -6.96355224e-01 +2.05093130e-01 +1.01991022e+00 -2.99437433e-01 +3.15721869e-01 +9.18400586e-01 -1.36019742e+00 +5.14519015e-05 -1.34602177e+00 +8.68938342e-02 -3.06581527e-01 +7.41147339e-01 -1.03428888e+00 -1.19930901e-01 -3.91696319e-02 +7.03829050e-01 +4.86328483e-01 -1.88092935e+00 -1.18571830e+00 +1.86425710e+00 -8.64821613e-01 +1.72445273e+00 +1.96579516e+00 +5.08849680e-01 +2.24079370e-01 +1.55132127e+00 +5.93385279e-01 +5.51160991e-01 +1.13698459e+00 -3.58033717e-01 -1.38306722e-01 -2.30450600e-01 -1.41027737e+00 -1.87750053e+00 +5.54768562e-01 -8.04690361e-01 -1.15350258e+00 +6.76558733e-01 +2.97959328e-01 -1.23096406e-01 -1.00971138e+00 +5.33496797e-01 +8.95776987e-01 +1.03687918e+00 -3.40350002e-01 -2.60561079e-01 +1.10702664e-01 -2.05456567e+00 +2.25965333e+00 -7.35888958e-01 +7.95409679e-01 -8.93388569e-01 -6.96081996e-01 -6.86509490e-01 -1.51157409e-01 -1.27494442e+00 +6.80929303e-01 +2.90919114e-02 +2.37750673e+00 +1.49012077e+00 +6.48557782e-01 +3.42796862e-01 +1.41794872e+00 +7.98022628e-01 +1.29232895e+00 -3.52667421e-01 -3.93032610e-01 +7.14989424e-01 -2.84024060e-01 +8.90942156e-01 -1.85017395e+00 +3.11582685e-01 -1.56564817e-01 +2.78355628e-01 +1.04880416e+00 +2.16480327e+00 +9.37886000e-01 +7.78917491e-01 -7.37606764e-01 -5.49450040e-01 -2.47090310e-01 +5.66917777e-01 +2.01356530e-01 -2.80377239e-01 +1.21518016e+00 +1.63996488e-01 +3.29142481e-01 -4.99376655e-01 -3.29805881e-01 -7.01319650e-02 -2.29176283e+00 +1.26248956e+00 +9.93205130e-01 -8.55294049e-01 +4.75550950e-01 -5.80262661e-01 -9.59257066e-01 +2.67379254e-01 -1.65348661e+00 -2.80627280e-01 -3.35085541e-01 -7.28889823e-01 -1.58034608e-01 +1.02755830e-01 +1.81527689e-01 +3.71019930e-01 -1.65241826e+00 +9.17885184e-01 +1.12819338e+00 -7.74123073e-01 -4.65463489e-01 +5.28642714e-01 -1.02923703e+00 +2.56754398e+00 -6.81090832e-01 -1.36142656e-01 +1.12835933e-02 +5.68563104e-01 -1.30084920e+00 -8.75226498e-01 -1.28936863e+00 -4.27523762e-01 -1.08940077e+00 -1.34529710e+00 +1.57345366e+00 +8.16425860e-01 +2.34371394e-01 +4.84360337e-01 +6.46799445e-01 -1.12772989e+00 -8.32031548e-01 -6.97582781e-01 +5.90319335e-01 +3.64789218e-01 -8.02090883e-01 -6.07665837e-01 +2.76600361e-01 -1.66008919e-01 -4.71701711e-01 -1.70414484e+00 +1.13818598e+00 +4.00723547e-01 -2.93648183e-01 -7.53079057e-02 -9.02461410e-02 +2.14415312e+00 +1.29387212e+00 +1.18448663e+00 -1.16510284e+00 +7.00718641e-01 -5.98756552e-01 +3.59331787e-01 +4.09339756e-01 -3.91030163e-01 -1.04801726e+00 +1.22097361e+00 -1.06901360e+00 +2.94768751e-01 -3.96395177e-01 +1.66405335e-01 +6.38382435e-01 -8.56990039e-01 -1.04382753e+00 -6.10681772e-01 -7.70184338e-01 +2.77794790e+00 -5.60342073e-01 -5.46992719e-01 -3.97943109e-01 +6.06909454e-01 +5.59495151e-01 +1.19938862e+00 +3.69133496e+00 +8.63966227e-01 -9.32407260e-01 -9.82171834e-01 +1.61949313e+00 +7.21011162e-01 -2.39590928e-02 +5.90094402e-02 +1.39966679e+00 -1.87805140e+00 -6.54366851e-01 +8.40717316e-01 -5.24825335e-01 +2.21672726e+00 +3.75991702e-01 -2.18248034e+00 -1.40859470e-01 +1.14337349e+00 +7.93804154e-02 +6.02511346e-01 -1.08227384e+00 -3.54922682e-01 +3.99935953e-02 -5.51677942e-01 +3.28182489e-01 -8.46684813e-01 +5.85908234e-01 +2.28779602e+00 +1.68303251e+00 -6.80592060e-01 -2.78988034e-01 -7.27088600e-02 -4.23340946e-01 -4.38014753e-02 +1.03950441e+00 +5.21553516e-01 +1.60089123e+00 +6.14293396e-01 -2.50503689e-01 -7.23099887e-01 -1.00739384e+00 -8.16110134e-01 +7.80044377e-01 -9.53021884e-01 +2.94668615e-01 +7.98596814e-02 +4.22813594e-01 +1.01424420e+00 +3.58305246e-01 -1.88044953e+00 +1.37122348e-01 -1.75865248e-01 +2.37827754e+00 -1.13937952e-01 +5.54938972e-01 +1.97950095e-01 -3.50674957e-01 +1.39997661e+00 -1.42496812e+00 +6.68774366e-01 +8.29288423e-01 +6.12835467e-01 -3.63566160e-01 +6.06032729e-01 -5.04986942e-01 +1.04460430e+00 -5.68522774e-02 +6.99319720e-01 -9.72738564e-01 -3.02602410e-01 -1.88502288e+00 +1.53296924e+00 -1.37804613e-01 -9.12879705e-01 +7.07081914e-01 +2.48927906e-01 -1.19311130e+00 +8.88831437e-01 -1.65792182e-01 +6.39297366e-01 +1.44915330e+00 -2.40269466e-03 +1.63054550e+00 +3.27718347e-01 -4.61258620e-01 -8.29027414e-01 -3.20778668e-01 -4.77514178e-01 -4.30740595e-01 -1.06716824e+00 +1.22286654e+00 +6.51025355e-01 +1.17261052e+00 -4.26799387e-01 +3.65609735e-01 -7.28742421e-01 -2.70438120e-02 +8.89145315e-01 -1.70474279e+00 -1.16522753e+00 +7.89466381e-01 -1.36471295e+00 +1.95201159e-01 +9.21209872e-01 +1.64721265e-01 -2.30181766e+00 +7.47406185e-01 +8.72343302e-01 -9.67019975e-01 +4.08166885e-01 -3.92739356e-01 -1.57200873e+00 +8.30735147e-01 +7.69655049e-01 -1.55557799e+00 -2.56626725e+00 -1.55312562e+00 +2.19209969e-01 +1.05313337e+00 -1.78362936e-01 +5.93220770e-01 -2.75722265e-01 +1.66599226e+00 -1.29467499e+00 +6.98122263e-01 -1.25672030e+00 +7.21746504e-01 +6.98380232e-01 -9.03384313e-02 +1.57073128e+00 +1.57410634e+00 +6.30946815e-01 -1.43771625e+00 -3.43669981e-01 +5.75576462e-02 +6.25084698e-01 +1.13264287e+00 -8.56238604e-01 +9.84449506e-01 +6.25279725e-01 +1.66148150e+00 -1.99258178e-01 -4.91660595e-01 +5.05896628e-01 -6.72553554e-02 -4.19419520e-02 -1.69229344e-01 +5.20404577e-01 -1.08547509e+00 -1.63224232e+00 -4.91962880e-01 -1.57789207e+00 +5.25800109e-01 +2.14119315e+00 -3.00895035e-01 -2.14304641e-01 -4.32698876e-01 -1.08867407e+00 +9.93924081e-01 -7.69888818e-01 -9.36942935e-01 -1.14171898e+00 +9.95936573e-01 -1.05312753e+00 +7.97019005e-01 -1.13217443e-01 +1.42703998e+00 -1.64357650e+00 -8.23853314e-01 +1.96418464e-01 -1.53670812e+00 -7.50900567e-01 -5.54515541e-01 +6.18815899e-01 -4.90025342e-01 -6.74596786e-01 -3.57454598e-01 +1.06244779e+00 -1.21345592e+00 -2.45300587e-02 +1.97444573e-01 -6.26201510e-01 -1.26177073e+00 -1.23550105e+00 -5.99433661e-01 -7.86706284e-02 +4.12550211e-01 -8.80765140e-01 +3.21907103e-01 +6.84488490e-02 -9.44171369e-01 +7.85664082e-01 +7.27722824e-01 +2.61946052e-01 +8.53821218e-01 -6.73303843e-01 -2.32528496e+00 +1.40899241e+00 -7.44454920e-01 -2.26439381e+00 -9.29348230e-01 +6.66908264e-01 -1.36113667e+00 +9.64460373e-01 -5.06516695e-01 -1.49217153e+00 -6.10194325e-01 -1.28519309e+00 +1.43360603e+00 -1.47447252e+00 +1.73969960e+00 +1.26468194e+00 +6.66449606e-01 -5.31483710e-01 -1.41035247e+00 -7.11461604e-01 +2.75825620e+00 +1.01049155e-01 -5.84770262e-01 +1.96659660e+00 -8.85093749e-01 -4.65060443e-01 -1.70498383e+00 +4.46937829e-01 +9.08468843e-01 +1.07060254e+00 +1.23659335e-01 +1.27969575e+00 +7.92810857e-01 -8.28380346e-01 +1.17996752e+00 +7.87799537e-01 +2.30110303e-01 +1.28807873e-01 -6.62920833e-01 +2.24057436e+00 +6.92069903e-02 -3.58213812e-01 -4.29899804e-02 +3.71149853e-02 -9.08878371e-02 +2.63075322e-01 -1.36684537e+00 -1.53202128e+00 -5.51969528e-01 -1.02138293e+00 -6.24991894e-01 -1.36926860e-01 +4.48593311e-02 -3.43990266e-01 -3.01738113e-01 -1.51620781e+00 +5.98447204e-01 +9.48926359e-02 +1.17874432e+00 -1.02713871e+00 -3.52336735e-01 -1.11716241e-01 +3.83362085e-01 +2.53302908e+00 +2.39782214e+00 -2.64397472e-01 -2.66087949e-01 -1.13408959e+00 +5.77581644e-01 -4.02748466e-01 -1.37047362e+00 +3.32912296e-01 +1.14155161e+00 +1.26885742e-01 +8.59826326e-01 -1.73788095e+00 -6.51733696e-01 -1.12733436e+00 +2.39792243e-01 +9.15936172e-01 -1.11692476e+00 -9.91082907e-01 +8.96410942e-01 +2.34067410e-01 -9.86335054e-02 -9.69714403e-01 +1.47288394e+00 -4.93230939e-01 +4.39918905e-01 +1.90229729e-01 -9.00508583e-01 -5.62905252e-01 -4.77639586e-01 -4.43623513e-01 -8.26803595e-02 -2.84139276e-01 +9.69515502e-01 +1.11193478e+00 -1.56809926e-01 -1.03866363e+00 -6.28997028e-01 +1.97375822e+00 -2.16515318e-01 -1.00224271e-01 -5.52574217e-01 -2.11011767e-01 +5.09469986e-01 -6.06972218e-01 +3.06905776e-01 +4.99765456e-01 +4.79761302e-01 +1.60106122e+00 -3.24669063e-01 -1.49278021e+00 +2.80459553e-01 -7.53892720e-01 +8.57614040e-01 -1.66184890e+00 +7.91783929e-01 -1.09568477e+00 +7.57551551e-01 +8.00451711e-02 -8.53937268e-02 -7.68589854e-01 -1.13512397e+00 +1.65252030e+00 -3.41286987e-01 -9.54338849e-01 +6.26253963e-01 -2.32094675e-01 -1.64280272e+00 -4.24427599e-01 -2.37151408e+00 -1.25994414e-01 -1.20513022e+00 +4.91846859e-01 -9.08613503e-01 -8.97849444e-03 -3.18594843e-01 -4.39032912e-01 +6.28791600e-02 -1.00510216e+00 -1.52154469e+00 +1.71500790e+00 -6.86955631e-01 +8.36752117e-01 +1.26867795e+00 +3.88886422e-01 +1.29522514e+00 -5.57613850e-01 +1.05596101e+00 -6.28995776e-01 -1.15157795e+00 -2.55907702e+00 +1.13645756e+00 +1.17840278e+00 -7.04694539e-02 -1.23488212e+00 -1.38013577e+00 -2.93314457e+00 +1.85187972e+00 -2.14744496e+00 +2.72208065e-01 -1.25442922e+00 +1.63743627e+00 -1.12753615e-01 +6.12770382e-04 +9.76218581e-01 -2.18442607e+00 +5.80118477e-01 -1.60779208e-01 -1.81200480e+00 -3.46149236e-01 +5.22423387e-02 -1.14705443e+00 +8.58545899e-01 -4.77709830e-01 -3.39703649e-01 -5.56915879e-01 +2.50312781e+00 +1.74997091e-01 -7.87931740e-01 -1.53996140e-01 -1.79689515e+00 +4.90475684e-01 -5.79276919e-01 +6.98739231e-01 +1.15772712e+00 +2.53530070e-02 -2.38674790e-01 -1.74264953e-01 +5.15288651e-01 -1.25657642e+00 -5.30513883e-01 +5.14699340e-01 +5.92366695e-01 -3.63245793e-02 -2.96022207e-01 -2.86377370e-01 +6.85103536e-01 -1.89532793e+00 -2.00599051e+00 +3.46735455e-02 +3.18119764e-01 -1.56854525e-01 -4.67438161e-01 -2.54939705e-01 +4.28839386e-01 -2.49595702e-01 -8.76304626e-01 +2.83116043e-01 -1.16844833e+00 +4.89303559e-01 -1.50476325e+00 -6.05482757e-02 -1.20223832e+00 -6.19184017e-01 -3.27225745e-01 +8.10302377e-01 -8.46784294e-01 +4.82559979e-01 -3.51329178e-01 +2.12875471e-01 -7.82605529e-01 -9.40104067e-01 -1.65462255e+00 -2.69978285e-01 -6.43117249e-01 -4.81719077e-02 +1.08502805e+00 +1.11780047e+00 +1.79860756e-01 +7.92192817e-02 +9.89021897e-01 +6.05814815e-01 -8.09796095e-01 +8.34413588e-01 -8.21094811e-01 +6.03097916e-01 -1.69863641e-01 +6.24293387e-01 +5.64603388e-01 -1.66289747e+00 +1.61240116e-01 +2.78183341e-01 +7.35149980e-01 -8.31022933e-02 +3.07896431e-03 -3.48716497e-01 +4.33107227e-01 -4.39564973e-01 +7.43133128e-01 -8.75727057e-01 +3.61567825e-01 -1.16652322e+00 +1.87430561e-01 -9.82928574e-01 -5.27679026e-01 -7.09902346e-01 +6.77587628e-01 +4.54631984e-01 +1.36439693e+00 -3.05203050e-01 +4.21100587e-01 +1.76177704e+00 -1.25280321e+00 +1.49214816e+00 -3.80925238e-01 +4.21289444e-01 +1.57806173e-01 +7.90653527e-01 +1.02184951e+00 +9.79810297e-01 -3.27471048e-01 -2.79568523e-01 +3.05275321e-01 -7.92255759e-01 -5.45248508e-01 +1.35554910e+00 +1.03259552e+00 -1.54188663e-01 +1.11880410e+00 -9.20106709e-01 +1.57824790e+00 -1.95228684e+00 -5.30973017e-01 +3.67638707e-01 +9.17603850e-01 -2.57806301e+00 +1.47633302e+00 +2.44469851e-01 -2.00090861e+00 -3.70845348e-01 -1.52778357e-01 -1.75637588e-01 +4.89410371e-01 +1.34876832e-01 +6.31452441e-01 +9.81754541e-01 +8.17361355e-01 -8.02434802e-01 -1.40567100e+00 +2.36519307e-01 -1.69395715e-01 -2.28028226e+00 +3.61945421e-01 -7.72534728e-01 -3.24846447e-01 +1.97897577e+00 -1.10499728e+00 -1.15407097e+00 +2.47435361e-01 +1.02893031e+00 -1.41865742e+00 +7.58845448e-01 -1.15074205e+00 +6.20831996e-02 -1.78006534e-02 +1.31771505e+00 -4.83868241e-01 +8.55815113e-01 -1.86329496e+00 +5.79022527e-01 -2.89581954e-01 +3.50786746e-01 -9.68286455e-01 -1.52254093e+00 +1.41519889e-01 -8.24286580e-01 -3.63339595e-02 +5.54825366e-01 +4.91408348e-01 +1.66301489e+00 +1.50620520e+00 -1.94816560e-01 +1.12686324e+00 +6.13919020e-01 -1.67858970e+00 +2.92413741e-01 -8.47369879e-02 -9.07851934e-01 -2.42365137e-01 -9.38057840e-01 +1.13779917e-01 -2.10544914e-01 -3.76617014e-01 +1.58906305e+00 +2.62111276e-01 +1.22818112e+00 +1.62601590e+00 -6.67399228e-01 -9.29290876e-02 -3.11580718e-01 +2.04245999e-01 +1.67854235e-01 -5.95534921e-01 +2.08289051e+00 +1.38759315e+00 -1.23099244e+00 +2.43060365e-01 +1.28829837e+00 -5.52298248e-01 +1.13547695e+00 -1.28926551e+00 +2.18072128e+00 -5.04383028e-01 -2.47284248e-01 -7.10880756e-01 -1.04526222e+00 +4.67777431e-01 -6.56864762e-01 -6.84354126e-01 -1.24946058e+00 +7.32883990e-01 -8.56689990e-01 +2.31869712e-01 -7.33410537e-01 +8.85766089e-01 +1.40903845e-01 +3.80719781e-01 +9.55720961e-01 +1.36396074e+00 +6.44412577e-01 -5.21085024e-01 -7.51171947e-01 -2.36876532e-01 -2.84963995e-01 -1.22803962e+00 +2.82780856e-01 -1.71616197e-01 +1.82907581e+00 -1.07599229e-01 +8.37780774e-01 -1.03047997e-01 +3.18421334e-01 +2.39228234e-01 +2.66085804e-01 -5.60905933e-01 +2.55444884e-01 -1.06011868e+00 -1.67783189e+00 +1.69308221e+00 +7.83416152e-01 +1.33672190e+00 -9.31591988e-02 +1.34888601e+00 +9.50616837e-01 +1.04426253e+00 -2.12456688e-01 -4.74549472e-01 -1.35167122e-01 +4.72449213e-01 -5.51115096e-01 +5.76648235e-01 +5.73789366e-02 +2.53155112e+00 +1.36088502e+00 -7.77848244e-01 -1.02107680e+00 +1.37734994e-01 +1.30852234e+00 -1.68394375e+00 +7.60172382e-02 -7.01376200e-02 +6.74418867e-01 -4.95038778e-01 +1.04541028e+00 +1.18578160e+00 -4.83664334e-01 -8.84270728e-01 -5.06294966e-01 +4.61606503e-01 +3.11289757e-01 +7.48775184e-01 -2.01346397e-01 +2.05659342e+00 -2.15410814e-01 -1.09720552e+00 +7.89630234e-01 -5.81838906e-01 -1.49821508e+00 +4.77723628e-01 -1.93644747e-01 +1.15038753e+00 +3.42595428e-01 -6.07722163e-01 +1.84958518e+00 -1.33032107e+00 -1.00821686e+00 -1.51381826e+00 -1.62020779e+00 -6.39740825e-02 -1.13786447e+00 -2.42191494e-01 +1.76403332e+00 +7.29265928e-01 -2.91467726e-01 +1.64632952e+00 +1.05464983e+00 +1.68625569e+00 -5.95373869e-01 +5.42085052e-01 -4.16568726e-01 -6.36384785e-01 +3.24038804e-01 -1.93873391e-01 -5.52858114e-01 +1.52620268e+00 -7.18686804e-02 -4.40261029e-02 -1.25575733e+00 -1.26354957e+00 +1.08584595e+00 -1.02823377e+00 -1.32572973e+00 -4.03817207e-01 -4.19365726e-02 +3.64042073e-01 -1.54968452e+00 +3.60304743e-01 +5.90680778e-01 +9.33242142e-01 -8.10107768e-01 +1.06676295e-01 -4.80452061e-01 -7.94153094e-01 -7.98365772e-01 +1.43332577e+00 -1.92214593e-01 +3.22111398e-01 -2.01756537e-01 -2.58516788e-01 +5.78427970e-01 +5.45057476e-01 +2.62624002e+00 +6.65279984e-01 +7.11150527e-01 -6.14604890e-01 +1.03936863e+00 -7.16858506e-01 +1.40217197e+00 +1.20461237e+00 -4.79108393e-01 -8.36425424e-01 +6.85588062e-01 -9.92286801e-01 +1.56894058e-01 +3.97828281e-01 -4.95807797e-01 +3.25051963e-01 -2.92431474e-01 -4.92840767e-01 +4.34993774e-01 -9.18178797e-01 +4.38836843e-01 -2.26390064e-01 -3.05819929e-01 +9.37350690e-01 -4.19929892e-01 +1.00762320e+00 -1.77892900e+00 -8.41182709e-01 +1.02701831e+00 -5.69897369e-02 +2.91509241e-01 -7.68310428e-01 +4.33930427e-01 +5.16834676e-01 +3.04703891e-01 -1.81154215e+00 +1.63102841e+00 -8.83485377e-01 -1.37615353e-01 +4.32815880e-01 +1.98009461e-01 +1.15048277e+00 -1.91992283e-01 +1.18393826e+00 -1.55826473e+00 -4.27809536e-01 -1.14208898e-02 -9.95428562e-01 +6.22905374e-01 +5.74459016e-01 +4.07055467e-01 -1.56155750e-01 +2.36678988e-01 -1.45921433e+00 -4.40117329e-01 -6.95198104e-02 +1.80919313e+00 +1.51611125e+00 +5.85880339e-01 +1.08434284e+00 +1.93866265e+00 +2.26344332e-01 +4.30369407e-01 +2.03301048e+00 -2.06399679e+00 +8.24703336e-01 -1.14884245e+00 -7.92269528e-01 +1.06477475e+00 +2.21018195e-01 +1.43526793e+00 +7.11378679e-02 -6.95373639e-02 +8.96699503e-02 +7.40032136e-01 -1.03957975e+00 -1.67051494e+00 -1.71858990e+00 +1.71135888e-01 +1.00915098e+00 +6.97649360e-01 +4.87411350e-01 +1.99486837e-02 +1.59439111e+00 -1.02567904e-01 -4.82123256e-01 +3.12739223e-01 -1.32216692e+00 +1.64484215e+00 +1.13716209e+00 +1.13791788e+00 +9.01182964e-02 -3.52634430e-01 -2.72291061e-02 -3.29985559e-01 +9.35545206e-01 -1.22601449e+00 +4.61869761e-02 -5.63450694e-01 -2.66184032e-01 -1.55247879e+00 -1.61219847e+00 -1.47014081e+00 -5.52452445e-01 -1.76530170e+00 +1.15640318e+00 +1.27771294e+00 -9.81193066e-01 -7.72289693e-01 -4.25844826e-02 -1.72657859e+00 -1.24022269e+00 -4.07968700e-01 +1.00826919e+00 -9.17165339e-01 -3.83265585e-01 +5.26948392e-01 -1.99063167e-01 +2.01344395e+00 +1.97193539e+00 +1.42751545e-01 -1.45557511e+00 -1.12265313e+00 -1.47562766e+00 -2.78553772e+00 +1.02916908e+00 -1.54481506e+00 -1.51328385e+00 +1.36353004e+00 -1.15414762e+00 +1.94433808e-01 -1.92649364e-01 +1.29775155e+00 +2.36881927e-01 +2.49121383e-01 +2.12187976e-01 -8.78243268e-01 +1.11360633e+00 +1.00976503e+00 -5.91970444e-01 -9.58987325e-02 -1.01596490e-01 +1.04003787e+00 -1.51548898e+00 -6.97972476e-02 -1.02134848e+00 -8.44486594e-01 +4.13828403e-01 -1.66699946e+00 -1.42672420e-01 -6.43839240e-01 +3.99302304e-01 -5.66596746e-01 -1.04063712e-01 -3.65557671e-01 -4.40781295e-01 -1.40032923e+00 +3.05172175e-01 -1.75893450e+00 +1.52230632e+00 -2.05400482e-01 +5.45141339e-01 +9.82353032e-01 -1.34621441e+00 +2.61102885e-01 -1.24483442e+00 +5.64153492e-01 +4.26298529e-01 +7.26387560e-01 +9.42629516e-01 +5.12282372e-01 +5.18013299e-01 +3.36510092e-01 +1.21960211e+00 -4.36679304e-01 +1.32514298e-01 +3.03418249e-01 +9.11533117e-01 +8.01683903e-01 +1.09519172e+00 +4.55292128e-02 +2.69229025e-01 -2.06152844e+00 -4.24832761e-01 +1.02892053e+00 -1.69930592e-01 +8.73161733e-01 -1.26454532e+00 +1.73122108e+00 -2.88024321e-02 +1.22512662e+00 +1.72696483e+00 +6.22961342e-01 -8.07081401e-01 +1.30523062e+00 -5.07478118e-01 -5.76619625e-01 +2.39075664e-02 +9.00030360e-02 -1.25178719e+00 +1.67762744e+00 -8.49814415e-01 -2.39433479e+00 +4.56882447e-01 +1.07294273e+00 -2.57405192e-01 +1.55271852e+00 +4.41104621e-01 -4.43964750e-01 +7.13620484e-02 +9.68899131e-01 -7.37699091e-01 +8.89796093e-02 -4.12935883e-01 -4.36551243e-01 -7.16038823e-01 +1.57271381e-02 -4.28531945e-01 +9.45950508e-01 -1.25178349e+00 -6.67619348e-01 +1.00592792e+00 -4.59484518e-01 -2.49023652e+00 +1.51376176e+00 +1.56923461e+00 +1.25100410e+00 -1.86739373e+00 -1.31830943e+00 +2.13951185e-01 -4.08870310e-01 +6.44169509e-01 -8.33325684e-01 +2.03610901e-02 -5.31525970e-01 -7.93244615e-02 +5.48389494e-01 +2.10157961e-01 +1.73542544e-01 +1.48674056e-01 +7.63810992e-01 +1.67322981e+00 +5.57869673e-01 +1.50138271e+00 -1.14535904e+00 +2.13814929e-01 -8.73367429e-01 +1.83845234e+00 -1.78519130e-01 -8.21252465e-01 -7.62303591e-01 +1.89587843e+00 -1.28581926e-01 +7.75830150e-01 -2.43067861e-01 -1.54360640e+00 +9.30607259e-01 +1.95990479e+00 +3.41676660e-02 -1.12997115e+00 +1.55332759e-01 -2.35230792e-02 -3.17441463e-01 +1.56669533e+00 +4.15635616e-01 +1.10365701e+00 -7.15896606e-01 -8.38444591e-01 +1.22007799e+00 +2.74269670e-01 +1.97520864e+00 -8.24032724e-01 -5.52305460e-01 -3.64690393e-01 -8.14600363e-02 +3.92351002e-02 -6.60254121e-01 +4.51422930e-01 +1.95386708e-01 +1.61392641e+00 -1.10917620e-01 -6.85611129e-01 +2.11261296e+00 +3.23707789e-01 +1.22634923e+00 -2.29542285e-01 +3.00084114e-01 +3.11225712e-01 -5.32397032e-01 -1.14914989e+00 +2.31013608e+00 +3.62624228e-01 -1.92545378e+00 -4.93459195e-01 -1.47419953e+00 -1.21349074e-01 -1.13188863e+00 -1.78829581e-01 -5.16762584e-02 -1.60901517e-01 -5.38136303e-01 +4.58217382e-01 -1.11609161e+00 -2.92821020e-01 -1.20609403e-01 -6.06885646e-03 -1.61193979e+00 +2.42187309e+00 -1.84958175e-01 -1.18272483e+00 +5.06681688e-02 +1.18314087e+00 -1.70761794e-01 -5.57598352e-01 -8.03659856e-01 -1.30362701e+00 -4.43316638e-01 +8.53063762e-01 +4.17691134e-02 +3.60138923e-01 -2.29318571e+00 -7.80239329e-02 -2.16245115e-01 +4.77192819e-01 -1.60357821e+00 +8.13847721e-01 -1.01182640e+00 -5.01059413e-01 +1.26009381e+00 +4.44906116e-01 -2.26109982e+00 -1.48856795e+00 -1.67960525e+00 -6.36512458e-01 +1.48945427e+00 -1.07663965e+00 -8.36880580e-02 -3.97913039e-01 -3.47137123e-01 +2.37595773e+00 -3.26414078e-01 -1.01248884e+00 +2.19820645e-02 +5.92937291e-01 -1.96475267e-01 -4.17044222e-01 +1.29282105e+00 +1.39612329e+00 +3.31224710e-01 +1.16974175e+00 +1.40213871e+00 -2.19065046e+00 +2.95019180e-01 +8.15457165e-01 -4.05710101e-01 +2.82832414e-01 -1.86325423e-02 -2.57926375e-01 -9.95070100e-01 +1.98994946e+00 -1.03595555e+00 +2.90049464e-01 -1.41034651e+00 -8.49828660e-01 -1.27604878e+00 +3.71232927e-01 +1.88294668e-02 -1.26984715e+00 -7.76426375e-01 -1.73079133e+00 -1.41078079e+00 +1.84819371e-01 -1.03057277e+00 +2.18487501e-01 +4.99159753e-01 +5.54636359e-01 -7.73918271e-01 +1.40463248e-01 -2.64591873e-01 -1.13198423e+00 +1.77804863e+00 +9.60886478e-01 -5.08381128e-01 +8.71528864e-01 -1.44975150e+00 +4.51448888e-01 -1.36624765e+00 +9.97395813e-02 -3.85397643e-01 +1.13001263e+00 -7.81781554e-01 +4.74051803e-01 -6.50317490e-01 +3.29417080e-01 -5.52688003e-01 +4.40990061e-01 -2.28477550e+00 +1.27188385e-01 -5.66427588e-01 +6.30723000e-01 +3.68299097e-01 -7.79857457e-01 -1.05231261e+00 +1.96182084e+00 -1.93044209e+00 -5.12467504e-01 -4.15135562e-01 +5.17562270e-01 -2.30585742e+00 +9.99116778e-01 -5.03426313e-01 +1.52995601e-01 -5.40489674e-01 -2.14971161e+00 -8.30652654e-01 -1.62693918e-01 +1.88760912e+00 +1.95460081e+00 +4.37014759e-01 +2.21475765e-01 +1.60822213e+00 +2.28778648e+00 -6.97712451e-02 -4.01084661e-01 -1.36535913e-01 +2.85164893e-01 +4.39133137e-01 -1.64232421e+00 -3.04583430e-01 +1.29911616e-01 -4.94252145e-01 +1.20208895e+00 +1.34482339e-01 +1.12917209e+00 +5.11137962e-01 -8.92686188e-01 +1.23976648e+00 +1.16425884e+00 -6.57100141e-01 -2.72615123e+00 +5.07782996e-01 -1.42336294e-01 +7.12308288e-01 -1.38143337e+00 +1.36666965e+00 +1.22024858e+00 -9.71378744e-01 +1.12142277e+00 -5.72929680e-01 +1.00426829e+00 +9.24806416e-01 -9.40330744e-01 +5.26601851e-01 -9.54272211e-01 -1.82876632e-01 -3.11805983e-03 +6.04406834e-01 +1.78883100e+00 -1.63004792e+00 +1.49401855e+00 -8.01398396e-01 -2.53399581e-01 -8.14022541e-01 -8.86852384e-01 -1.11436415e+00 +1.31157771e-01 -2.02400014e-01 +1.47164851e-01 +1.71430245e-01 -5.85020006e-01 +8.77053663e-02 +3.90325725e-01 -4.28131849e-01 -1.09912825e+00 +7.79478431e-01 -1.40418541e+00 +1.51521683e-01 -1.01811275e-01 +7.30521321e-01 +5.24752624e-02 -3.17217141e-01 +1.32802248e-01 +3.42842132e-01 +2.11938247e-02 -1.20390296e+00 +2.06503615e-01 -5.18293083e-01 -7.33144820e-01 -4.82481066e-03 +2.56757021e-01 +2.49986693e-01 -8.80748928e-01 +3.80460858e-01 -4.87998694e-01 -7.11319149e-01 +1.60494611e-01 -1.48951426e-01 +2.78556079e-01 -8.00948381e-01 -3.49203736e-01 +9.91120219e-01 +5.23933589e-01 +1.56919289e+00 +1.23505366e+00 -9.70344484e-01 +1.08549678e+00 -2.21964955e+00 -1.18334973e+00 +5.61115006e-03 +2.27038884e+00 -3.31903726e-01 +1.93603337e-01 +1.69787216e+00 -9.10660744e-01 +1.86348629e+00 +7.16521084e-01 -8.72556210e-01 +5.08016467e-01 +1.45471311e+00 -4.91718441e-01 -1.65990233e+00 -2.53927737e-01 +7.04978943e-01 -1.13879710e-01 -6.58955634e-01 +2.60507226e-01 -8.02501559e-01 -2.16920877e+00 +8.19642901e-01 -8.22437778e-02 -7.19990075e-01 -1.55768406e+00 -1.61340404e+00 +3.08539927e-01 -5.42182028e-01 +7.57183969e-01 -9.18088734e-01 -1.69950366e+00 +5.65455914e-01 +3.83788258e-01 +1.41572118e-01 +1.63754821e+00 -1.46659935e+00 -1.05467165e+00 -2.47759312e-01 -3.67581286e-02 +1.18172720e-01 -8.71693075e-01 -1.08364081e+00 -5.69769442e-01 +2.97966719e-01 +2.06892803e-01 +1.65824068e+00 +7.44736671e-01 +8.70300591e-01 +1.75561577e-01 -4.36123908e-01 +2.37163007e-01 +6.75214231e-01 +1.38771856e+00 -1.23552775e+00 -1.88307907e-03 +8.90677750e-01 -3.37133199e-01 +7.17238963e-01 +8.30245972e-01 +8.55432272e-01 -1.67661965e+00 +3.20253909e-01 +9.75919902e-01 -1.13037097e+00 +2.36473370e+00 +8.73563051e-01 +4.26173359e-01 -1.05217123e+00 +4.06575978e-01 +5.99419363e-02 +2.55517793e+00 -6.57137275e-01 +8.31315517e-01 -1.31526366e-02 +1.12030721e+00 +1.72193277e+00 -9.92131889e-01 -3.00309807e-01 +1.72974050e+00 -1.48379859e-02 -1.21010683e-01 -2.92340666e-01 -8.47536683e-01 -4.44511145e-01 -3.99269462e-01 -1.07699823e+00 +4.53959942e-01 -2.56122708e-01 +1.56085372e+00 -8.16929117e-02 -2.59242151e-02 -2.49900863e-01 +5.82450449e-01 -1.66230470e-01 -1.34778172e-01 -3.14836949e-01 -1.24875343e+00 +1.59530751e-02 +3.60538155e-01 +1.41202474e+00 +6.81134462e-01 +1.27403617e+00 +1.41381431e+00 -6.70017898e-01 -1.19490302e+00 -7.36342669e-01 +7.30017662e-01 +1.31488240e+00 +5.94879270e-01 +1.30443379e-01 -3.56453955e-01 +1.16993320e+00 -6.70403123e-01 -6.77348018e-01 +7.10063636e-01 -2.22482190e-01 -1.07304625e-01 +1.45265847e-01 -1.36407411e+00 +1.14120007e+00 +1.36500657e+00 -3.38259906e-01 +1.19805300e+00 -8.27008128e-01 -1.23366833e+00 -9.47562218e-01 +1.36273801e-01 -1.21388447e+00 +9.34276953e-02 +7.98965752e-01 +4.05837238e-01 +8.77425730e-01 +9.70331579e-02 -8.69973153e-02 +1.76416501e-01 -1.08754313e+00 +9.32678878e-01 -7.95966983e-01 -1.58519894e-01 -8.33374500e-01 -1.04355395e+00 -8.63543808e-01 -4.34109658e-01 +1.18686482e-01 +7.35809386e-01 -1.45082819e+00 -7.56109536e-01 +9.81320560e-01 -1.08274609e-01 -9.02681351e-01 -8.01617384e-01 +2.71613687e-01 +8.83135498e-01 -1.56603765e+00 -3.63631546e-01 -5.14592767e-01 -9.13121343e-01 +1.01456845e+00 +3.10446531e-01 +6.58319473e-01 +7.54884183e-01 +1.95316756e+00 -8.27411264e-02 +1.37289822e+00 -1.31131160e+00 +1.22237250e-01 -2.66794473e-01 -1.25985813e+00 -1.55430734e+00 +8.06298137e-01 -5.41264176e-01 -9.98424113e-01 +4.68518771e-02 -2.96372026e-01 +7.74844646e-01 -1.48469105e-01 -3.19324225e-01 +2.61687487e-01 +3.92489702e-01 +8.41592968e-01 +4.57390398e-01 -6.69910491e-01 -1.90488681e-01 -6.59189671e-02 -2.88008064e-01 -4.49189395e-01 +1.19630206e+00 +3.09211701e-01 +1.29982030e+00 +5.02552092e-01 -2.19346493e-01 -1.68770939e-01 -6.43240094e-01 -2.86902696e-01 -1.01158094e+00 +8.06661919e-02 +1.92763448e+00 -6.48270905e-01 +2.88464218e-01 +7.28041768e-01 -1.09075338e-01 -6.32445276e-01 +2.07218862e+00 -1.84564263e-01 +9.55024779e-01 +2.13846111e+00 -7.04912782e-01 +2.12718308e-01 +3.90811384e-01 -2.61330605e-01 -9.67923179e-02 +2.23580182e-01 +7.03178167e-01 +2.67245054e-01 +1.53043640e+00 -1.21868587e+00 -7.28081763e-01 +1.11791682e+00 -1.51459920e+00 +6.36687636e-01 -1.13391328e+00 +1.65380538e+00 +4.84467417e-01 -7.83389628e-01 +6.39007151e-01 +6.50067568e-01 -7.17067122e-01 -6.79532051e-01 +1.23369560e-01 -1.43797147e+00 +1.97283185e+00 +3.08684111e-01 -1.10529947e+00 -2.86835521e-01 -2.14763355e+00 -4.44920212e-01 -1.02794945e+00 +8.54768336e-01 +4.04291183e-01 -3.43816817e-01 +3.78988683e-01 +1.17582309e+00 -4.98230815e-01 +9.14171636e-01 +4.62488711e-01 -6.12814069e-01 -5.05697191e-01 +5.10831833e-01 +1.27955079e+00 +5.48896372e-01 -4.80360657e-01 -1.33098674e+00 -1.00876546e+00 +5.49183607e-01 +3.80001485e-01 -6.57420456e-01 +4.74715024e-01 -6.29185498e-01 +1.33185196e+00 -6.46137893e-01 -9.57061052e-01 +5.64538181e-01 +9.71825302e-01 -1.86120081e+00 -8.53991568e-01 -7.81237304e-01 +6.12017214e-01 -3.94814432e-01 -1.28844166e+00 +3.47598255e-01 +4.76422042e-01 -2.15987533e-01 +1.78004980e+00 +1.30603254e+00 +2.78982252e-01 -5.76482534e-01 +1.99224389e+00 -1.64908874e+00 -4.63830322e-01 +4.72311616e-01 +3.49553555e-01 -1.68346357e+00 +1.04552209e+00 -1.59895253e+00 +6.71799064e-01 -4.04316485e-01 -8.89075577e-01 -9.16919470e-01 +1.10024333e+00 +1.13250875e+00 -1.93407404e+00 -1.07862853e-01 +6.66788280e-01 -5.42817712e-01 -1.35144413e+00 +8.80343854e-01 +2.35374287e-01 +3.02928448e-01 +1.26820135e+00 +1.36262044e-01 +1.81655431e+00 +1.28586566e+00 +6.22922540e-01 -1.44039202e+00 -1.37231624e+00 +5.98731756e-01 -5.97055256e-01 -4.37330693e-01 -1.97096691e-01 -1.41991723e+00 -9.54795063e-01 +6.16860449e-01 +1.37116373e+00 -5.82858324e-01 +9.34812069e-01 -5.06109186e-02 +4.92099196e-01 +3.44659179e-01 +1.69202387e+00 +8.17617834e-01 -1.51259825e-02 -6.69789389e-02 +4.16020453e-01 -1.00366127e+00 -1.39700627e+00 +2.20237598e-01 +2.80718595e-01 -4.63905841e-01 -6.74189031e-01 +1.17172396e+00 +1.30085599e+00 +1.42890978e+00 +6.44037426e-01 +1.33122861e+00 -4.80683446e-01 +9.46903452e-02 -9.74527240e-01 -1.11816490e+00 -1.32723796e+00 -8.26930702e-01 +3.29164555e-03 -1.33419350e-01 -6.59871638e-01 -4.49269712e-01 +5.63753545e-01 -8.04720446e-02 +8.45026910e-01 -4.51166332e-01 -1.87899441e-01 +4.10540760e-01 -6.50559425e-01 +8.65815207e-02 +2.48591113e+00 -2.80461699e-01 -1.95573106e-01 -8.66131246e-01 -9.69978154e-01 -1.28613555e+00 -2.96330124e-01 +2.28254724e+00 +3.95631820e-01 -1.43675363e+00 +1.55038464e+00 +1.32862538e-01 -9.05023158e-01 +1.21340132e+00 +9.76200223e-01 +1.22964561e-01 +4.62386668e-01 +1.01589477e+00 -1.09495592e+00 +1.29383743e+00 +5.16027451e-01 +1.72468972e+00 -5.36705181e-02 -6.50690615e-01 +1.07980335e+00 +1.40249729e+00 -1.22461474e+00 -5.06796092e-02 -1.48447597e+00 -2.67543662e-02 -4.77058776e-02 +2.20405293e+00 +6.49397150e-02 +1.18980443e+00 -6.69341862e-01 +1.14207077e+00 +8.01529765e-01 +6.83019996e-01 +5.35010874e-01 -1.95376229e+00 +5.43020785e-01 +9.60161313e-02 +7.90640041e-02 +3.25020134e-01 +4.22130316e-01 -4.04444695e-01 +3.14303666e-01 -4.59493667e-01 +2.98121721e-01 -1.19811273e+00 +2.17278123e+00 -1.85513705e-01 +8.22024882e-01 +1.57674873e+00 -6.45647421e-02 -4.10674512e-01 -3.90306562e-01 -1.51662576e+00 -8.52195621e-01 -4.65706497e-01 -3.73152614e-01 +1.64327335e+00 -8.95700753e-01 -1.15232313e+00 -7.60204494e-01 +1.93397611e-01 +1.27068925e+00 +8.52748275e-01 +7.95123756e-01 -2.89304614e-01 +6.53227746e-01 -9.99291956e-01 -3.41192484e-01 -9.04942989e-01 -3.93350244e-01 -1.70350003e+00 +5.58800876e-01 -8.34342360e-01 +4.28451419e-01 -6.43236876e-01 -4.27220583e-01 +5.63694119e-01 +3.84162925e-02 -1.28317237e+00 +1.66247606e-01 -1.57235873e+00 -1.15374064e+00 -1.68964565e+00 +1.08808529e+00 -2.19192648e+00 -9.26814854e-01 -1.09675504e-01 +4.29423094e-01 -1.25712681e+00 -4.50202934e-02 -4.68395561e-01 +3.43958080e-01 +7.97824323e-01 +2.39556544e-02 -1.87259150e+00 -6.44251764e-01 +8.13980818e-01 +1.85492790e+00 +1.05560267e+00 -4.46816891e-01 -2.81755805e-01 +7.64061928e-01 +4.65425491e-01 +2.40265593e-01 -4.25122052e-01 -8.71313691e-01 +1.13788331e+00 +9.13909912e-01 +1.01239300e+00 -1.33698121e-01 -6.10423565e-01 +1.42982095e-01 -1.03398979e+00 +4.67423439e-01 +1.34715104e+00 +1.81503091e-02 -1.77149195e-02 +4.21150595e-01 -8.18160623e-02 +3.07666779e-01 -1.42217243e+00 -1.17436373e+00 +2.91795397e+00 -1.92250621e+00 -1.73709285e+00 -7.84131885e-01 -1.35737884e+00 +1.92489231e+00 -4.90761280e-01 -3.06080699e-01 -9.99030173e-01 +9.07647014e-02 -7.01756120e-01 -7.07036614e-01 +9.83577847e-01 +9.93114650e-01 +1.41960704e+00 +2.26213217e+00 +1.44116247e+00 -4.72351551e-01 -1.79359043e+00 +8.80706370e-01 -1.59897909e-01 -1.43902314e+00 +8.38092923e-01 -6.37086391e-01 +8.23865056e-01 +8.58431101e-01 -7.38287866e-01 -2.95139372e-01 +2.30494237e+00 -8.87173712e-01 +5.98997831e-01 +6.66734338e-01 -2.21637702e+00 +1.40451038e+00 -6.36239529e-01 -1.70798719e+00 +2.46787339e-01 -1.29217669e-01 +1.25446832e+00 -8.08891580e-02 +1.89730465e-01 +2.11577320e+00 +1.02211726e+00 -1.37475085e+00 -1.33848596e+00 +6.52393401e-01 -2.96109933e-02 -8.28184068e-01 -1.04924940e-01 -1.84820630e-02 -9.67277646e-01 -4.87119585e-01 -2.26846859e-02 +6.06077492e-01 -1.34143937e+00 -5.33231162e-02 +2.58890867e+00 -8.85001644e-02 +5.35865963e-01 -9.46061388e-02 +1.36374426e+00 +4.93035167e-01 -2.47094229e-01 -9.10321325e-02 -1.40807619e-02 +5.85972369e-01 -1.58295941e+00 +4.11178648e-01 -1.27499855e+00 -1.75897551e+00 +6.46559417e-01 -1.76238823e+00 -1.51924072e-02 -7.46077776e-01 -1.02127302e+00 +6.03104532e-01 +1.08130205e+00 +1.15684748e+00 +1.90326738e+00 +1.17159033e+00 -1.21898279e-01 +1.28680542e-01 +2.02909207e+00 +5.38578868e-01 -2.98072159e-01 +1.16285396e+00 +1.25003481e+00 +9.11204368e-02 -1.46358192e-01 +7.64584303e-01 +2.17928839e+00 +1.03222120e+00 +6.07852228e-02 -4.02989239e-01 +1.20375919e+00 +5.97025454e-01 -1.45428979e+00 +7.85651326e-01 +3.53895664e-01 -1.66836008e-01 +1.43069887e+00 -7.62992620e-01 -1.18034124e+00 -2.84044296e-02 -3.03922206e-01 +2.69550502e-01 +5.38910985e-01 +6.93745673e-01 -9.97540712e-01 -4.05700393e-02 +1.12309337e+00 -5.38475990e-01 +8.91407251e-01 +1.22938418e+00 -1.14209041e-01 +1.39916122e+00 -1.47957051e+00 +3.29496384e-01 +1.91643822e+00 +1.71817973e-01 +6.73901081e-01 +7.69511938e-01 +8.50675642e-01 +5.37195921e-01 +2.80826688e-02 -1.55549264e+00 +9.48987186e-01 +7.29299128e-01 -7.58262813e-01 -3.30172509e-01 -8.15966129e-01 +1.45098150e+00 -3.29873115e-01 +8.30232620e-01 +6.98103786e-01 -1.97320187e+00 +5.75880587e-01 +1.32306743e+00 +1.75783128e-01 +5.25130451e-01 -2.55145282e-01 -1.13884620e-01 -9.91391420e-01 +1.32753384e+00 +9.49599266e-01 +8.54889452e-01 +6.00887179e-01 -3.39064449e-01 +1.33517897e+00 -5.13352931e-01 +2.59405303e+00 -3.53775173e-01 -1.45283067e+00 -1.07777596e+00 +1.16232669e+00 -1.05197109e-01 -5.73632240e-01 -6.62475228e-01 -1.01557338e+00 -6.50311172e-01 +9.85506415e-01 +4.40149084e-02 -5.20591378e-01 +6.85765088e-01 -1.71244785e-01 -1.71769464e+00 +1.66271925e+00 +1.61995971e+00 +2.88156724e+00 -1.22743940e+00 -6.16395295e-01 -6.31473511e-02 +2.34073329e+00 -9.27780867e-01 +2.72364569e+00 +1.60640168e+00 -1.37993681e+00 -8.38105142e-01 +1.35268784e+00 -1.24839091e+00 +1.03916955e+00 +1.88384807e+00 -1.37434015e-02 +2.33652830e+00 -1.35903811e+00 +1.83336452e-01 -1.41705781e-01 +5.84635437e-01 -6.30070388e-01 +2.56820053e-01 -3.70819896e-01 -1.07035983e+00 -8.91167343e-01 -6.97867632e-01 +6.35440707e-01 +9.03328300e-01 -5.24285614e-01 +5.34003913e-01 -1.43289089e+00 -1.42882502e+00 +1.53673083e-01 -1.51730978e+00 -2.01977715e-01 -1.09393656e+00 +7.52164185e-01 -2.05640578e+00 -1.07990682e+00 +2.09322199e-01 -6.17055237e-01 -3.12133282e-01 +4.67822313e-01 +8.78538787e-01 -1.64213216e+00 +7.68725634e-01 -6.00956520e-03 -1.39054275e+00 -1.55509186e+00 -3.35941389e-02 +7.64362812e-01 +8.55894327e-01 +4.09459710e-01 +1.78936422e-01 +6.00892186e-01 +2.12745929e+00 +5.97473681e-01 +3.17666739e-01 +2.29262650e-01 -1.05118901e-01 -8.89987111e-01 +1.08124828e+00 -9.68752384e-01 +2.43407965e-01 +6.36119068e-01 -1.69478595e+00 -3.78269792e-01 +2.16408193e-01 +1.61340535e+00 +4.98259038e-01 +4.56115246e-01 +3.11303407e-01 +1.41264725e+00 -9.12431180e-01 -6.22014523e-01 -8.77601206e-01 +5.50471783e-01 -2.80467033e-01 -1.99917629e-01 -4.63908345e-01 +9.56168950e-01 +2.28455678e-01 -1.62211454e+00 -8.74272138e-02 -1.58576757e-01 +5.50715268e-01 -6.94114268e-01 -2.79252920e-02 +1.61349058e+00 -1.76104808e+00 +1.05021060e+00 +7.59190857e-01 +5.21370292e-01 -2.56686628e-01 -9.61747885e-01 +1.17414765e-01 -8.03251639e-02 -1.31577122e+00 +4.60989803e-01 +4.58706617e-01 -1.07932344e-01 -1.58724725e+00 -1.42484009e+00 +5.57177007e-01 -8.67879868e-01 -2.00185299e+00 -7.41612136e-01 -1.01484311e+00 +7.68679619e-01 +4.59192038e-01 +8.07425737e-01 +1.19150698e+00 +3.13589603e-01 +1.21305621e+00 -1.13896060e+00 -5.78889191e-01 -7.42258728e-01 -1.98949501e-01 -1.52566767e+00 -6.35347590e-02 +1.71594763e+00 +3.57635021e-01 +2.30432987e+00 +7.84933865e-02 -1.78664744e+00 -5.09761907e-02 -4.80806530e-02 +1.70146835e+00 +2.00436974e+00 +1.27703154e+00 -5.92887521e-01 -2.49467231e-02 -7.36167980e-03 +1.02722394e+00 -9.95221436e-02 -5.92693329e-01 +8.51348639e-01 -1.71181798e+00 +6.06744170e-01 -5.12268722e-01 +6.27506733e-01 -5.09972453e-01 +2.02447414e+00 +8.26761544e-01 -3.99093062e-01 -1.58133090e+00 +6.46554887e-01 -7.55230784e-01 +6.38043940e-01 +4.16779160e-01 -2.59497792e-01 +3.08493763e-01 -1.28166652e+00 -6.39175717e-03 +4.41225499e-01 -1.50212419e+00 +1.58648717e+00 +1.21626362e-01 +1.89842135e-02 -1.05251420e+00 -1.51114917e+00 -2.67597139e-01 -9.34191942e-02 +8.02727640e-02 +6.14432812e-01 -4.89288121e-01 +1.22319031e+00 -1.16276610e+00 -1.08152044e+00 -4.04321998e-01 +5.82741499e-01 -5.46783864e-01 -2.38389015e+00 +6.77565560e-02 +1.01611829e+00 +8.57421875e-01 -9.02607381e-01 +8.54521334e-01 -9.23903763e-01 -6.27041638e-01 +2.22904444e-01 -2.19813514e+00 -6.52212799e-01 +1.22073710e-01 -6.61876619e-01 -2.50835633e+00 -1.19991422e+00 +1.89093280e+00 +2.05972251e-02 -4.11914557e-01 +1.17976069e+00 +1.77173913e-01 +3.58577102e-01 +4.80303437e-01 -2.97913641e-01 +2.35677195e+00 -6.17148459e-01 +1.17111541e-02 -5.62749505e-01 -1.80377948e+00 -3.58270377e-01 +2.80691385e-01 +6.41670942e-01 -1.54616845e+00 -1.58330709e-01 -9.27248776e-01 +5.13573475e-02 +3.47501665e-01 +8.55458319e-01 -5.82814038e-01 -2.78989583e-01 +1.84107435e+00 +8.20665896e-01 +1.46382654e+00 +3.81818175e-01 -8.46532524e-01 -2.74203825e+00 -1.07957685e+00 -6.07307911e-01 +6.02744460e-01 -6.87028885e-01 -5.94620705e-01 +7.47371554e-01 -5.08829117e-01 +5.20395100e-01 -2.17807844e-01 -1.40866780e+00 +5.56468666e-01 -5.98876715e-01 +1.34000719e+00 +3.31355274e-01 -8.02810133e-01 -4.21063721e-01 +5.82488775e-01 +1.45169890e+00 -1.43317354e+00 -7.87859976e-01 -5.57762861e-01 -1.32706606e+00 -1.33239484e+00 -1.15004766e+00 -9.41492200e-01 +1.18123090e+00 +1.09993637e+00 -1.76565993e+00 +1.28759992e+00 +1.34472978e+00 -1.22247383e-01 +4.10441041e-01 -1.14656663e+00 -1.82314527e+00 +1.31874907e+00 +1.98781207e-01 +9.70812678e-01 -9.22725499e-01 -9.52779949e-01 -8.51926982e-01 +1.15143096e+00 +1.15914440e+00 -1.61696398e+00 -1.61760771e+00 -1.39563847e+00 +2.87206382e-01 +1.08250010e+00 +5.09684324e-01 -3.96008611e-01 +4.94450331e-02 -2.65580267e-01 -1.65376306e-01 +3.12866837e-01 +6.52694106e-01 -1.06899881e+00 -1.14603221e-01 -7.26718232e-02 +1.97102904e-01 -1.12993017e-01 +5.41758835e-01 +8.90126824e-02 +1.19844079e+00 +1.65892214e-01 +6.38143301e-01 -2.88607806e-01 -2.44318042e-03 +1.53349805e+00 +5.76434970e-01 -1.58967149e+00 -1.78626731e-01 +4.81791705e-01 -6.56456709e-01 +2.62019306e-01 +1.53370070e+00 -1.29165459e+00 -2.03366265e-01 -6.28152728e-01 -2.28355318e-01 +1.11223304e+00 +1.05851686e+00 +2.34728992e-01 +8.86418104e-01 -1.72782004e+00 +3.42365205e-01 +2.26048660e+00 +8.56003761e-01 +1.09786212e+00 -2.78553510e+00 -4.24670190e-01 -6.21994317e-01 -6.83858156e-01 +4.47134435e-01 -3.96921098e-01 +6.24600112e-01 -3.63535196e-01 -8.44067410e-02 -8.61254692e-01 -2.80570650e+00 +8.88378173e-02 +1.57445073e-01 -4.02883530e-01 -2.08171058e+00 +9.97930467e-01 +4.20348108e-01 +3.83792639e-01 +1.13384700e+00 -1.04627025e+00 -1.65679908e+00 -2.94085741e-01 +5.30808419e-02 -7.01069415e-01 -3.96092758e-02 -4.32630926e-01 -1.05707189e-02 +3.63355607e-01 +1.34289372e+00 +8.23088527e-01 -7.61849403e-01 -1.04985964e+00 -7.32812226e-01 -1.63971794e+00 +1.19532824e-01 +7.57837236e-01 +3.13504279e-01 +5.60894966e-01 +3.93427730e-01 -1.01073694e+00 +1.17821634e+00 +8.48642528e-01 +1.49406052e+00 +6.73346877e-01 -1.45022500e+00 +1.09691131e+00 -4.39155698e-01 +7.10607111e-01 -2.68949437e+00 +9.06527877e-01 +3.88256729e-01 +6.65941954e-01 -1.08656466e+00 +2.66834617e-01 -2.54104674e-01 +2.82030046e-01 +2.71651864e-01 -5.69388628e-01 +9.83451009e-01 -4.22103792e-01 +1.14177835e+00 +8.80141258e-02 +8.33494067e-01 -1.94893882e-01 -9.36161637e-01 -5.40848732e-01 +3.15810829e-01 -1.15568757e+00 -7.13084996e-01 +6.90048575e-01 +2.00416878e-01 -5.38725615e-01 +5.44750273e-01 +8.56869757e-01 +7.96497285e-01 +1.16544127e+00 -3.93000692e-02 -3.92042520e-03 +8.71800303e-01 -2.76527643e-01 +2.99354076e-01 -4.04292464e-01 +2.34271884e+00 +4.66022402e-01 -1.58994269e+00 -1.53625393e+00 -3.65361452e-01 +1.05485594e+00 -1.41376480e-01 +1.03517652e+00 -1.04580426e+00 +1.43887997e+00 +1.76308084e+00 -4.15687680e-01 +4.64602500e-01 +1.71634316e+00 +9.37363088e-01 +8.55217457e-01 +5.43318316e-02 -3.54186296e-02 +2.06918573e+00 +1.97101569e+00 +2.45871830e+00 -4.45843399e-01 +1.05488086e+00 -9.51164722e-01 -1.10354877e+00 +3.85380954e-01 -1.55925620e+00 +1.85603619e-01 -1.05197072e+00 -3.11991274e-01 +6.01419397e-02 +6.94404721e-01 -8.01613927e-01 +5.15314639e-01 +4.54792351e-01 +3.74432325e-01 +6.54783174e-02 +3.78689528e-01 -2.48782143e-01 +9.75229204e-01 +3.98642689e-01 -1.11216652e+00 +3.79241258e-01 -1.55628040e-01 +3.55549663e-01 -3.53599250e-01 -6.04775965e-01 +1.69748712e+00 +7.61802912e-01 +9.72446740e-01 -2.04153752e+00 -1.92728317e+00 +1.74643004e+00 -1.76073956e+00 +2.61701435e-01 -7.02175558e-01 +2.71010578e-01 -9.33051109e-01 -5.60214043e-01 +2.71365553e-01 +1.80521473e-01 +4.50084746e-01 -3.63797992e-01 +5.78515410e-01 +1.55081794e-01 +6.86601996e-02 +4.19821173e-01 +2.25763932e-01 +1.79805613e+00 +1.98374486e+00 +9.70669329e-01 -2.14220315e-01 -1.85960829e+00 -4.96730596e-01 +9.03597116e-01 -6.79606438e-01 +6.91632986e-01 +1.10410559e+00 -1.32829320e+00 +8.24667662e-02 -6.86625600e-01 -1.40220153e+00 -2.30268277e-02 +4.70638514e-01 -5.40560007e-01 -1.16301084e+00 -1.25603580e+00 +7.70290121e-02 -1.22671568e+00 -1.76725790e-01 +5.93096614e-01 -3.05399388e-01 -2.91437879e-02 -1.16710506e-01 +1.50587928e+00 +8.30282345e-02 +2.60120153e-01 +1.22578132e+00 +5.22480190e-01 +1.07999492e+00 -5.53253517e-02 -3.63856226e-01 +1.36639881e+00 +1.19614363e-01 +1.11359209e-01 -1.12673056e+00 +5.18994272e-01 +1.31240582e+00 -2.50041246e-01 -1.12607419e+00 -1.82882464e+00 +1.38252536e-02 +4.25100863e-01 -5.36840796e-01 -9.24120128e-01 +1.55307508e+00 +3.49426329e-01 +2.56336451e-01 -1.75356701e-01 +2.30539942e+00 -6.71478510e-01 -1.39633191e+00 +7.43703306e-01 -7.23344445e-01 -6.62853003e-01 +1.55866429e-01 -7.46477365e-01 +7.41074681e-01 -7.37838387e-01 -9.22648132e-01 -2.93346620e+00 +2.95518219e-01 +6.93262815e-01 +5.68487346e-01 -7.88154721e-01 +2.73388147e+00 +1.04845500e+00 -1.47099650e+00 +2.35719633e+00 +2.97143549e-01 -2.33543053e-01 -6.56768799e-01 +9.94178176e-01 -5.74243188e-01 -4.39867020e-01 -1.24668264e+00 +1.48482907e+00 -1.48864996e+00 +1.21888590e+00 -7.23100364e-01 -1.67892385e+00 +8.74534309e-01 -7.71731496e-01 +8.24887082e-02 -2.53244042e-01 +1.30300188e+00 -9.43327248e-01 -1.16291678e+00 +7.32443035e-01 -1.01580095e+00 +1.28846169e+00 +1.44453394e+00 +7.55879819e-01 +1.09592295e+00 -5.65340698e-01 +6.66561276e-02 +2.53029108e-01 +1.03732121e+00 +5.24859011e-01 -8.67394388e-01 -1.14175089e-01 -1.10812461e+00 +1.22006762e+00 -9.51790869e-01 +6.48307145e-01 -8.56254637e-01 -6.33794665e-01 -8.27894628e-01 +2.89875209e-01 +3.04151606e-02 -7.39509821e-01 -2.34729290e-01 +1.45095199e-01 -8.79048407e-01 +3.06786120e-01 +1.56484354e+00 -6.30423501e-02 +4.02549356e-01 -9.12763000e-01 +1.32856441e+00 -8.49846959e-01 +1.12958324e+00 +4.99958336e-01 +9.96639252e-01 -4.86590147e-01 -1.67249322e+00 +7.18855500e-01 -3.46096367e-01 +8.09356570e-01 -2.53884387e+00 -5.40065944e-01 -8.58702660e-01 -6.37691438e-01 +7.18548954e-01 +5.12156010e-01 -8.89533877e-01 -5.36931574e-01 -2.40512919e+00 +3.65654737e-01 -7.70236969e-01 +7.46054411e-01 -1.54649532e+00 +8.16792548e-01 +3.52019668e-01 -8.33993912e-01 -6.43277287e-01 -1.02189198e-01 -1.28387237e+00 -4.67299730e-01 -1.69406521e+00 +1.22486222e+00 +7.26102293e-01 +6.52778268e-01 +1.40213981e-01 -7.76893735e-01 +7.18656898e-01 -3.48583907e-01 -9.24307644e-01 -9.50797796e-02 -1.64608970e-01 -7.85383582e-01 -1.52045476e+00 -6.87492907e-01 -8.06536913e-01 -2.11642671e+00 +6.45589948e-01 -2.64927566e-01 +5.44554472e-01 -6.12928748e-01 +1.42780232e+00 +1.05130303e+00 -4.14926410e-01 -2.32797745e-03 -1.61956584e+00 +3.35546076e-01 +6.47129655e-01 -1.00925481e+00 +1.61282107e-01 -7.53922939e-01 +2.28923365e-01 -7.72619247e-01 +8.24145854e-01 +9.10747826e-01 +1.63773525e+00 -2.63991445e-01 -1.72601867e+00 +2.06677747e+00 +1.04145193e+00 -1.33516812e+00 +1.45016551e+00 -7.33346462e-01 -6.47150099e-01 -1.48448122e+00 -7.02921450e-01 -3.44921589e-01 +1.23040712e+00 -2.16401741e-01 -4.98711377e-01 -2.34717384e-01 -9.97559428e-01 -3.38103890e-01 +1.49314559e+00 -8.04503798e-01 +1.19241681e-02 -1.37860596e+00 +5.29782593e-01 +8.69718909e-01 +2.03818783e-01 +4.06959385e-01 -1.07950735e+00 -6.13338828e-01 +7.57700861e-01 -7.53115416e-01 -7.57222652e-01 +8.48153353e-01 -1.54224300e+00 -4.27473515e-01 +6.74129367e-01 +1.13516200e+00 +8.05647724e-05 -4.63375412e-02 -1.20516360e+00 +4.31465089e-01 -2.88487345e-01 -3.15010577e-01 -1.99969494e+00 -9.65742350e-01 +1.53574824e+00 +1.19353521e+00 -2.99652696e-01 -1.46378291e+00 +1.08889854e+00 -1.11304653e+00 +4.77201909e-01 +1.06655812e+00 +4.71865267e-01 -1.40203166e+00 +6.08083606e-01 -8.73412713e-02 +1.82646906e+00 -5.21813594e-02 -9.63624001e-01 -2.96552926e-01 +9.94945224e-03 -9.82336640e-01 -1.36413324e+00 -8.99778724e-01 -1.56571306e-02 -9.69478607e-01 -5.65525293e-01 +1.90424824e+00 +9.46478784e-01 -2.32722476e-01 +1.68934271e-01 +3.90284568e-01 +1.55217683e+00 -6.86870992e-01 -7.14981198e-01 +3.08368504e-01 +3.02802777e+00 +4.87064123e-01 +5.02869844e-01 -6.94639802e-01 -9.91657823e-02 -1.52548805e-01 -2.86977500e-01 -1.55209601e+00 +8.70872617e-01 +1.54373729e+00 +1.77149069e+00 -1.86021924e-01 +2.01169825e+00 +1.80019885e-02 -1.22917998e+00 +3.94962460e-01 +3.07027459e-01 +4.59831566e-01 +2.97876984e-01 -1.04372501e+00 +1.28084838e+00 +3.71297300e-02 +3.45857143e-02 +1.48771666e-02 +2.80650526e-01 +3.89190465e-01 -5.72349548e-01 +4.56608474e-01 +9.19856787e-01 +1.75352359e+00 +9.77544606e-01 +5.97187996e-01 -4.45741743e-01 +1.09013498e+00 +1.65519919e-02 -4.79172587e-01 -2.86084390e+00 +4.59795207e-01 +2.20875430e+00 -3.57616991e-01 -2.91948080e-01 +1.02639578e-01 +5.48839748e-01 +5.90678990e-01 -2.26778269e+00 +1.33899987e-01 +8.76207352e-01 +1.74560738e+00 -4.46631789e-01 +9.28411305e-01 -6.53380990e-01 +8.09869409e-01 -4.37982529e-01 -4.41164136e-01 +6.98038459e-01 +3.13473828e-02 -1.06831968e+00 -1.14384639e+00 -1.12231565e+00 +1.60092545e+00 -2.94697016e-01 -1.19789696e+00 +9.42535639e-01 +1.51777491e-01 +2.66712010e-01 -7.16704965e-01 +3.46617728e-01 -5.30404925e-01 +3.57102275e-01 -6.09239697e-01 -4.11309600e-01 +4.28642362e-01 +5.28517842e-01 -4.57820296e-01 -2.14200544e+00 -5.43884337e-01 -3.56813461e-01 -7.00777054e-01 +9.27830338e-01 +5.82224965e-01 +9.22913909e-01 -7.34968603e-01 +3.99448216e-01 +1.39323914e+00 -2.58068770e-01 +3.06427121e+00 +1.01025365e-02 -5.26045322e-01 -2.76479542e-01 +1.36412680e+00 -1.13933718e+00 +9.81689334e-01 +1.72740018e+00 -1.67166007e+00 +7.59564191e-02 -3.93481374e-01 +9.95303094e-01 +8.77007484e-01 +1.11980045e+00 -5.33381522e-01 +5.31811059e-01 -7.83747435e-01 -3.93335968e-01 -1.01689029e+00 -1.29302812e+00 -1.24127090e+00 -1.49810165e-01 +1.21116078e+00 -1.26608133e+00 -6.79227948e-01 -2.55781740e-01 +1.71623325e+00 +3.51959243e-02 -5.62083304e-01 -1.23999512e+00 +9.36785102e-01 +3.01976740e-01 -5.56226432e-01 -5.19664705e-01 -5.97917616e-01 -3.12409908e-01 +7.43664861e-01 -2.61370331e-01 +1.61837089e+00 -6.34265482e-01 +1.17822200e-01 -2.02339306e-01 +1.58313131e+00 -9.65909600e-01 -1.01841295e+00 +3.40571776e-02 -1.36150277e+00 -4.27678883e-01 -1.31385744e+00 +1.10114205e+00 +9.62698221e-01 +2.67399192e+00 +1.43215850e-01 +2.44584858e-01 +2.37918407e-01 -2.19784439e-01 -1.71239272e-01 -1.04705667e+00 +8.08122814e-01 -7.76794791e-01 +2.06333876e-01 +3.06971967e-01 -9.93481755e-01 -2.93300122e-01 -2.22465873e+00 +2.56900144e+00 +2.41548195e-01 -7.36021698e-01 +2.18303037e+00 -2.06734920e+00 +5.08725941e-02 +1.79166287e-01 +5.29837370e-01 -6.47191107e-01 +1.06830585e+00 -1.29386592e+00 +5.69939435e-01 -1.87512207e+00 +3.66066068e-01 +4.47441131e-01 -1.95142925e-02 -1.30749196e-01 -8.94365132e-01 +1.28422070e+00 -8.46779466e-01 -2.42865562e+00 -1.29201221e+00 +2.56621152e-01 +1.51951924e-01 +5.73854521e-02 +5.08861542e-01 +7.67241716e-01 -7.48058856e-01 +2.06376478e-01 -6.01380467e-01 -2.24361047e-01 +7.98645914e-01 -7.56804109e-01 +6.18901432e-01 -1.31152236e+00 +4.97915864e-01 +7.27696300e-01 +3.85904342e-01 -1.77337803e-04 +4.10904646e-01 -2.34824583e-01 +1.82420731e-01 -2.77837127e-01 -3.62702645e-02 +2.35852271e-01 +1.15332067e+00 +1.45693493e+00 -1.33817744e+00 -1.94176352e+00 +1.76106647e-01 -1.29317388e-01 +2.02870324e-01 +3.84962350e-01 -3.78465682e-01 +7.46797204e-01 -5.36242425e-01 -3.86665106e-01 -2.68215513e+00 +2.23934698e+00 -7.84921870e-02 -5.81343174e-01 +2.02657849e-01 +4.18484330e-01 +2.67737925e-01 -4.51101601e-01 -1.81100929e+00 -2.42648169e-01 -4.98562694e-01 +1.02646708e+00 -1.27049899e+00 -6.81417525e-01 +2.48810843e-01 +4.55426812e-01 -8.00826967e-01 +1.00614095e+00 +1.01234722e+00 -1.88981068e+00 +6.52589023e-01 -2.12288320e-01 -1.17716360e+00 +1.14684701e+00 +4.95677978e-01 -1.82240874e-01 -1.79612613e+00 +9.59587574e-01 -2.26911616e+00 +3.14205259e-01 +7.03621507e-01 +1.70363414e+00 +1.56032108e-02 -8.39268193e-02 -1.15781546e+00 -9.32546258e-01 -1.78620309e-01 -9.31127250e-01 -2.64249235e-01 +1.05454683e+00 -2.52725452e-01 +4.00714666e-01 +1.56717682e+00 -7.92781770e-01 +1.31667048e-01 +1.27141917e+00 +5.58797479e-01 -1.46411157e+00 -2.01029205e+00 +1.75796664e+00 +3.17704352e-03 -7.92844057e-01 -1.11154711e+00 -5.10238230e-01 +1.13368702e+00 -6.70448899e-01 +3.45446020e-01 +1.58778980e-01 -8.33039105e-01 +2.36125633e-01 -3.16002035e+00 +1.26127338e+00 -1.50025427e-01 +1.47754598e+00 +1.31778747e-01 -1.08003581e+00 +2.43858352e-01 +2.08668399e+00 -2.96662045e+00 -5.26103675e-01 -1.07010090e+00 +1.22060485e-01 -6.99416399e-01 -1.38983130e-01 +5.55115044e-01 +1.49437726e-01 +5.60099542e-01 -1.43502104e+00 -4.21669096e-01 +1.39771998e+00 -1.51915824e+00 -5.22697829e-02 +6.44757867e-01 -1.36717811e-01 +5.88363074e-02 +1.30016136e+00 +2.38826066e-01 -7.84828603e-01 +1.65996289e+00 +1.33006409e-01 +3.49838197e-01 +1.15955389e+00 -9.12859797e-01 +7.29881167e-01 +1.19480860e+00 -5.80030560e-01 -2.50774443e-01 -1.74767816e+00 -2.11304927e+00 +6.94470882e-01 -4.03547287e-01 +7.31186211e-01 +9.41227004e-03 -5.11608303e-01 -3.29772010e-02 -5.74268162e-01 -6.53780520e-01 +1.23699844e-01 +5.08688271e-01 -3.48010689e-01 +5.23318887e-01 -8.57125103e-01 +3.07967496e+00 +3.05949306e+00 -1.93959808e+00 +1.08913824e-01 +8.92060101e-02 +1.53616822e+00 +1.56551171e-02 +4.39294696e-01 +9.55391288e-01 -1.24283461e-02 -2.73270488e-01 -1.79796964e-01 +1.03951538e+00 -2.77557671e-01 -8.66486728e-01 +6.16862297e-01 -6.24681592e-01 +1.68507546e-01 -6.03011727e-01 +1.10279882e+00 +2.73763824e+00 +9.30745363e-01 +1.50869405e+00 +1.71603024e-01 -4.21987563e-01 +2.89753407e-01 +3.41249496e-01 -3.31900239e-01 +3.54316384e-01 -4.31859791e-01 -3.62637848e-01 -1.33244514e+00 +1.97982097e+00 -5.03757358e-01 +1.93657547e-01 +8.17007124e-02 -7.20366776e-01 +1.43293476e+00 +2.76043677e+00 +1.55308500e-01 +6.71540916e-01 -9.99358118e-01 -8.61049592e-01 -8.86271775e-01 +5.47399782e-02 +1.67972699e-01 +4.15889621e-01 -4.80001122e-01 +1.17622888e+00 -7.99677253e-01 -1.93581474e+00 -1.37909099e-01 -1.02773285e+00 -3.12012315e-01 +1.96948305e-01 +2.06829399e-01 -1.84392905e+00 -1.92953825e-01 -1.31739760e-02 -4.05135512e-01 -5.84329128e-01 +6.47590697e-01 +4.68376487e-01 +1.86617339e+00 +2.51319855e-01 -3.19836915e-01 +8.57992291e-01 -3.35606068e-01 -1.52467179e+00 -5.04323006e-01 -6.93947151e-02 +1.44102061e+00 -3.64552476e-02 -1.43050300e-02 +1.14145362e+00 +1.89598000e+00 -8.16277266e-01 -6.96278930e-01 -9.58260894e-01 -4.43230867e-01 -1.50895226e+00 -7.54246414e-01 -1.33140075e+00 -1.60000294e-01 -1.63387075e-01 -4.11797285e-01 +2.10550398e-01 -5.74203432e-01 +1.17215768e-01 +1.72938073e+00 +4.82997060e-01 +5.99204421e-01 +4.47778583e-01 -8.26410770e-01 +6.12730682e-02 +2.63517761e+00 +6.60961449e-01 +2.41840452e-01 +4.35745627e-01 +8.37582588e-01 -6.84482634e-01 -3.57321233e-01 -9.22182858e-01 -4.86195892e-01 -2.74861872e-01 +1.25088406e+00 -1.28042495e+00 -6.99793827e-03 +7.97565401e-01 +5.67471504e-01 -3.24037731e-01 +5.64848721e-01 -7.70605803e-01 +1.18367827e+00 +2.19050908e+00 +1.21938837e+00 +7.81017125e-01 +5.19517958e-01 +6.04713619e-01 -4.01079088e-01 +9.18034613e-01 -1.31990564e+00 +1.18682754e+00 +4.72798824e-01 -6.04158401e-01 +4.84921038e-02 +6.45464286e-03 +1.41994441e+00 +1.46035925e-01 -1.23287857e+00 -1.03082466e+00 +6.39698207e-02 -1.20081210e+00 -7.59779215e-01 -7.01760292e-01 -9.92377400e-01 -7.87425816e-01 -3.58408213e-01 +8.76089990e-01 +1.50718668e-03 +1.00265276e+00 +1.09151781e+00 -7.35127926e-01 +4.42749262e-01 -3.85232233e-02 -2.37964272e+00 -4.45627719e-01 -1.15223324e+00 +1.28184533e+00 +3.48733872e-01 -9.37126517e-01 -1.60577095e+00 -2.08871499e-01 +9.57577050e-01 -1.42469227e+00 -4.39951181e-01 +3.89018059e-02 +1.36710122e-01 -1.34696198e+00 -1.54368475e-01 -5.20414770e-01 +6.04171813e-01 +1.02098787e+00 +2.57476568e-01 -1.12496114e+00 -5.18424571e-01 -9.82517242e-01 -7.60440350e-01 +5.48923552e-01 -8.39545369e-01 +5.38441777e-01 -2.46615365e-01 +8.48765373e-01 -1.08008468e+00 +1.54684573e-01 -2.18263656e-01 +8.22104275e-01 -3.85377467e-01 -1.92347825e+00 +1.29577667e-01 -6.67012572e-01 -4.14359123e-01 +6.21528745e-01 -9.04965460e-01 +1.17879681e-01 +1.01753227e-01 -4.00216490e-01 -2.34937757e-01 +2.67520189e-01 +6.18772089e-01 +1.81493402e+00 +9.65347111e-01 -2.38243803e-01 -2.28353605e-01 -2.54246891e-01 -9.46295142e-01 -4.15726513e-01 -4.19528806e-04 -8.05137753e-01 +4.59730566e-01 +2.72795349e-01 -2.51619190e-01 +3.93589027e-02 -2.66372561e-01 -1.23553538e+00 +6.54593289e-01 +6.78841919e-02 +1.42606676e+00 -1.66419601e+00 +1.26404595e+00 -1.08301830e+00 -6.01720586e-02 +1.16134977e+00 +5.64796746e-01 +4.19874251e-01 -6.57080472e-01 -1.81780159e-01 +4.85754043e-01 +7.43604124e-01 +9.10062730e-01 +5.78316212e-01 -9.43749174e-02 +3.50397408e-01 +1.06657839e+00 -8.56459364e-02 -1.05587006e+00 -1.00371373e+00 +1.27234244e+00 -1.37080872e+00 +1.48718238e+00 -3.05947691e-01 -9.40177619e-01 -5.92175603e-01 +1.01155019e+00 +4.49913859e-01 -1.19625986e+00 +6.31301701e-02 -1.02367842e+00 +3.43578488e-01 -1.05526075e-01 -5.72071791e-01 +6.01448566e-02 -2.96019584e-01 -2.84760982e-01 +1.46411862e-02 -1.23426092e+00 +7.69549131e-01 -1.22763026e+00 -8.63664567e-01 -5.44642210e-01 +4.61547703e-01 -6.94148839e-01 +9.58835244e-01 -2.60164082e-01 -3.98870297e-02 +9.79820549e-01 -1.53901672e+00 -1.86824322e+00 +6.56489581e-02 +1.08534396e+00 -1.05862081e+00 +5.38703613e-02 -2.54252404e-01 -1.90952063e+00 +7.50989318e-02 +1.21087706e+00 +1.06621528e+00 -2.88740069e-01 +1.06962860e+00 -1.59905040e+00 -2.88264775e+00 -5.50317585e-01 -5.08723319e-01 +6.18399382e-01 +1.21603012e+00 +6.62456036e-01 -1.81015372e+00 -2.34761730e-01 +8.97762954e-01 +6.03135347e-01 -4.49902296e-01 +1.50371999e-01 +4.71324772e-01 -7.34926984e-02 -1.01543510e+00 -4.27248538e-01 +5.60048223e-01 -7.96156883e-01 -1.14268050e-01 -9.75758970e-01 +9.61064935e-01 -1.25449312e+00 -2.71852970e-01 +3.70265782e-01 -1.47933531e+00 -1.41991186e+00 +9.78640795e-01 +5.71619689e-01 -9.07629192e-01 -7.71032989e-01 -3.16685051e-01 +1.34921038e+00 +6.25960171e-01 -1.30773634e-01 -6.53659105e-01 +1.02392387e+00 +8.12258422e-01 -6.78667799e-02 +3.77047777e-01 +1.37342823e+00 +1.44424915e-01 -7.13799775e-01 +1.30680370e+00 +2.35769033e-01 +6.62060857e-01 -3.57019782e-01 -5.31449318e-01 +7.77723432e-01 -7.93807626e-01 +7.25890696e-01 -8.50564659e-01 -2.14723349e+00 +2.71687579e+00 +1.11661196e+00 -2.44109467e-01 -1.56456426e-01 +3.86220664e-01 +5.59174001e-01 +7.05285668e-01 -6.41445041e-01 +1.67071074e-01 +2.04865575e-01 +1.05688071e+00 -6.22700632e-01 +1.81019425e+00 -1.41993761e+00 +1.96005201e+00 +9.57925260e-01 -1.50343478e-01 -6.64843023e-01 -3.77642252e-02 -9.62937772e-02 +4.79255021e-01 -1.42296517e+00 -7.69196033e-01 +1.40492940e+00 -3.01366765e-02 +2.27052033e-01 -2.32321218e-01 -1.83340490e+00 -6.20092332e-01 +6.77698433e-01 -1.14679599e+00 +1.01360667e+00 +4.28725839e-01 -9.99318838e-01 -2.54159808e-01 +8.99791420e-02 -8.58735323e-01 -5.76193333e-01 +1.62324822e+00 +8.72327209e-01 +1.88253009e+00 -1.91152647e-01 -3.88255417e-01 -8.50601971e-01 -1.80733621e+00 +1.71955433e-02 -2.92580515e-01 +1.19459093e+00 +3.99532586e-01 -1.43976188e+00 -1.57268047e+00 -2.62073576e-01 +1.13955557e+00 +1.70167446e+00 -8.89108479e-02 -8.63282859e-01 -2.36336470e+00 -2.72969842e+00 -1.61212099e+00 -9.78959858e-01 +2.11633429e-01 +1.33587646e+00 -1.56143808e+00 -4.12518173e-01 -8.78063262e-01 +3.97275090e-01 +3.95351768e-01 -6.04867399e-01 -1.39240786e-01 +1.32257357e-01 +3.84102106e-01 +3.99812341e-01 +6.06144965e-01 +9.65100348e-01 -1.07161450e+00 +8.78097177e-01 +4.05264646e-01 -1.74340755e-01 -1.72212911e+00 +1.72854817e+00 -1.02828705e+00 +1.61003280e+00 +1.94959998e-01 -1.02768970e+00 +1.53658867e+00 -1.19294086e-02 +2.44076654e-01 +8.17304611e-01 -3.40835936e-02 +7.88466156e-01 -3.97004753e-01 -7.30346859e-01 -1.64942920e+00 +1.40080559e+00 +6.27704859e-01 +2.22327495e+00 +3.11440492e+00 -1.29430127e+00 +8.83364260e-01 +6.67424142e-01 -1.16876388e+00 +2.75816947e-01 -5.23490191e-01 +1.00273597e+00 +7.76492774e-01 +6.13879979e-01 -3.48430753e-01 +2.80361921e-01 +1.01207101e+00 -1.52412617e+00 